8.447718979685756580e-01
5.814372376670524645e-01
5.057428519658224708e-02
7.033979047765224202e-01
-9.851639727605163710e-01
8.469104491934986711e-02
-8.743536373262639216e-01
2.622237852408599856e-01
7.395974462571213159e-01
8.099201638893207544e-01
8.114462439331244781e-01
-5.604087187528834502e-01
5.766920511142670236e-02
7.845709749237652630e-01
8.253036827514081963e-02
-8.197844230141790867e-01
7.481095578936320933e-01
9.635169421831311087e-01
9.012224840240001811e-01
-6.037961296316485260e-01
2.439637098440754492e-01
-8.777464292479308927e-01
1.046090119247644612e-01
7.317434215452776058e-01
-6.699274830938555247e-01
9.094140240844810208e-01
8.302383942559350416e-01
9.748274034130952614e-01
3.194068096393936074e-01
-4.176542105758009882e-01
-4.134890004627629345e-01
9.369462372636292447e-01
-8.583677225218029339e-01
9.032433139258748689e-01
-6.143235807529490167e-01
-2.184965268794964999e-01
-9.931796831396160208e-01
8.523726056063947176e-01
9.323452368364737453e-01
-6.049148769041694518e-01
2.796537909104925834e-01
-8.178252453698826585e-01
5.928386159859886373e-01
3.417935326832572951e-01
3.424467361034200241e-01
-1.029617292920157468e-01
-3.842497108581599541e-01
8.373964897304986277e-01
7.972882416484128321e-01
3.431959555408981011e-01
1.492143924985764869e-01
8.111007397954805853e-02
-4.395444328232955833e-01
6.118409469652341670e-02
-5.173899736692333384e-02
-2.425561179613655582e-01
-9.996872207849194503e-01
2.561423845675550037e-01
-3.229409986104654351e-01
-7.858065612920437371e-01
4.316917550038303908e-01
-3.559951626812183356e-01
-3.786722342439059474e-01
-6.606155943880973602e-01
-8.067457938438873377e-01
8.925431474100968821e-01
-8.403300341044543931e-01
2.293695125569974458e-01
-9.418860896956193773e-01
7.464548926584078092e-01
6.286259772270526014e-01
-4.436021598820731882e-01
-6.153698420754056819e-01
-7.426202851969179175e-01
-9.054958536499095878e-01
-3.148736758346215581e-02
-1.757290169211280784e-01
-8.177855079742386568e-01
-3.140750752530108159e-02
5.361014351094097741e-01
-7.092953758933753239e-01
-2.425540491517896857e-01
-5.924666125353947876e-01
1.718735983321857397e-01
6.870276974113145307e-01
-2.747580215568368178e-01
3.004691516893709391e-01
3.431321275426442163e-01
7.148941705583484740e-01
-5.753902036326838942e-01
-3.874204082320931164e-02
-4.461684885079781893e-01
-3.485413223284083983e-02
-6.082433911422757689e-01
3.305114959511330497e-01
-4.855329940052843796e-01
2.156584030108028571e-01
4.158781173968912892e-01
-3.220680753309126398e-01
-5.523111308297641298e-01
-2.211062589556833657e-01
-2.476888071238620981e-01
-8.462141612171265592e-01
1.093269597227213286e-01
7.969499479250594653e-01
-8.267024670975777756e-01
2.459114574490353089e-01
-3.243316761779315716e-01
-2.098105836041732619e-01
-2.568540113802786351e-01
-2.343970961714141321e-01
6.021170091831080651e-01
3.160185633781600334e-01
-9.279015710044633547e-01
3.697560123884902072e-01
-2.624761947595681821e-01
-7.285959086018547470e-01
5.667905308634588746e-01
-8.842792777465242615e-01
-7.067908293542537468e-01
-3.421876900379801079e-01
2.467766985765873500e-02
1.712838183520144497e-01
7.078622506418799087e-01
2.971623045790536821e-01
4.160567633685845479e-01
-8.023807238936431219e-02
7.550903451963577595e-01
-1.735135175771862492e-02
-3.499293305403696763e-01
9.526974018160170310e-01
4.339492728300096136e-01
-7.626710751647556297e-01
9.951709371054038300e-01
3.148152200660736533e-01
-8.010841860762469846e-01
-2.215894476841198113e-01
-9.147862971302944679e-01
7.342849648302991472e-01
-9.234324508958868805e-01
6.073104876107779937e-01
-4.917243313591530551e-01
-6.964166802573035220e-02
-1.781598421273606903e-01
6.454491446193804105e-01
-5.834204709538586275e-01
3.289840913309773907e-01
1.272020087827048229e-01
8.813356007808585968e-01
-7.089875561957605932e-01
4.526674252863878145e-01
2.277749826859767346e-01
-1.119613462079116495e-02
-8.652626657494488782e-01
-2.343432330498385063e-01
4.188519008793514242e-01
-8.652369750629973488e-02
6.737762392222148566e-01
1.328832794984526888e-01
5.854437374397734040e-01
-6.845012217491897033e-02
-6.163536592942278070e-01
-9.515415662330612978e-01
3.879929197767730820e-01
4.045612030282739191e-01
9.778010749783399014e-01
-9.074326302105164554e-01
7.075993620230749404e-01
7.817745499809722887e-01
5.201568906918996316e-01
-6.507994186895571520e-01
9.384853339227423596e-01
-7.389779507837881400e-01
-8.341933494309297092e-01
-4.649886741417654790e-01
-7.681293525318988458e-03
-7.350373343733147546e-01
3.035936445089950642e-01
7.525397495634018608e-01
2.359148981568683912e-01
8.838865494109755527e-01
-2.291391716690662772e-01
6.891013852933050021e-01
-7.214838453094947202e-01
9.667198686232070237e-01
-2.447089432623617000e-02
-4.812138252621056544e-01
-7.343000890291813132e-01
5.359721732282611839e-01
-6.147299782886059827e-01
-4.358660564696967832e-01
3.098768786789070084e-01
6.266767563242359174e-02
-8.858284370209377201e-01
3.069770360108574625e-01
-4.986207614584932113e-01
5.744914339670654790e-01
2.254594994765080074e-01
-1.839902379311020297e-02
4.206666215586318813e-02
1.763776460034056637e-01
1.895756620793516145e-01
8.153371767319756991e-01
-6.628933099019020947e-01
7.711907844048713212e-01
-8.535162801173579172e-01
3.855548082766200313e-01
-9.816872942473500174e-01
-8.852749272134303737e-01
9.602039702040898739e-01
2.632271536518340227e-01
-8.217657593767886404e-01
8.793318088284949319e-01
6.967434523616506947e-01
-3.720031898763269673e-01
-8.794691246529535711e-01
-1.847021013977274695e-01
-6.540173566478242329e-01
6.503653559209539026e-01
-6.987218355237914125e-01
-9.210070306121680428e-01
-9.880583051887044110e-01
7.825305397156354648e-01
9.555113013139759914e-02
8.645220784482225973e-01
-8.225144290224752908e-01
2.946700991814643622e-01
3.641673422051847631e-01
5.975490094290742960e-01
5.843129349947686624e-01
5.895732381587415194e-01
4.209389217688548346e-01
-4.747313435078210908e-01
3.140778452384695996e-01
-2.457708576936328271e-01
-7.179581088702460256e-01
-4.566519956264647462e-01
1.014671117362064834e-02
6.911096128792157955e-01
9.500592252258841519e-01
-8.089179156550585503e-02
8.625551033855027860e-01
-1.318912411914587857e-01
1.982268770171686789e-01
-1.178584993592404206e-01
7.083704361778313530e-01
6.655135229126984964e-01
-8.654524602039694869e-01
9.872247673796707979e-01
-2.995426787466293206e-02
-7.245588571262133737e-01
1.866102036401191544e-01
1.382484458554733564e-02
5.008721583158715074e-01
-5.653918641223354413e-02
-3.846717505049412900e-01
1.507239624398741817e-01
3.665689963941176632e-01
-4.628126485728969453e-01
8.114098957274618051e-02
1.499417591727780774e-03
5.952660145202557374e-01
8.755276066325690110e-02
6.004667436033916950e-01
-4.290312221013778959e-01
