1.469898624657048902e-01
-5.812072809419419617e-01
9.648161613803833969e-01
-9.672132988181703084e-03
3.290885823221789686e-02
-9.931217923216473231e-01
1.327293875641788468e-01
5.634792576891842764e-01
-4.107507472612068611e-01
-1.703057661683033963e-01
7.656141219085590421e-01
-2.135442658792512383e-01
-5.407825715235947683e-02
-4.125040014473717598e-01
5.280602154051941000e-01
6.245870287337766946e-01
-5.435274613854539361e-01
-7.548382765820353946e-01
4.343893039003274836e-01
7.072726478230801916e-01
9.417790842890088054e-01
4.787746216762092111e-01
9.304033977919199394e-01
2.302827108528644473e-01
-8.168147827165985753e-01
7.227552497555715938e-01
9.716262574260081664e-02
-3.796587943181084501e-01
5.981006970979410031e-01
-4.558599241749874409e-01
-5.103752870195714664e-01
3.743089819984715128e-01
-9.076162375949028416e-01
2.152163688287744847e-01
4.352657092572487230e-01
-4.526394180890487284e-01
1.323246188360593933e-02
-1.094527673564436032e-01
-5.497470620350104475e-01
-7.049660978798344413e-01
-5.645989944313962727e-01
-3.075374471505121221e-01
-8.789541587836167125e-01
-5.386807194679434918e-01
4.500669123292428964e-01
5.745944785753971384e-01
-6.051688313341225811e-01
5.691768337675429112e-01
2.316668505816077417e-01
8.980395411926940241e-01
-8.935782686288586962e-01
6.976118447281507429e-01
-5.727249757123618057e-01
3.239338815276600059e-01
4.850216848109418777e-01
-1.911183022681006705e-02
-1.064637805017107919e-01
9.242773953805234477e-01
-6.787314373063979556e-01
6.600930604343329122e-01
7.172974554816535786e-01
-2.159340111605168033e-02
-3.453930321432638895e-01
5.023069201610219636e-02
-7.270900838352789552e-01
8.626130122020811974e-01
-2.277276384429731682e-01
5.043238351810084286e-01
2.477559249572851563e-01
2.364796763649803513e-01
-4.229715640725322245e-01
-7.154763344791030821e-01
7.897520375456705821e-01
-9.617124136867185591e-01
1.856100374781606277e-01
-3.592559844163276672e-01
-7.561527244980195128e-01
9.493672802000876487e-01
-5.011516572491290233e-01
4.739297224764786876e-01
-6.117765528047960366e-01
-5.291044710348746793e-01
-1.497399962045922184e-01
-9.484769125643306431e-01
1.848197638486395178e-01
8.079769948402433233e-01
1.822344558928674640e-01
3.653814154575956152e-01
-3.449578892115641171e-01
-4.255579209016246978e-02
8.989606928432312127e-01
5.593863131394227750e-02
-2.958609236529219366e-01
-5.727625503862190381e-01
-5.530317234391182168e-01
4.750136523736649963e-01
-5.496330873313217680e-01
8.101792789846247178e-01
-8.635970185988461889e-01
9.404944688194385449e-01
7.156287878329694596e-01
9.559807213494173617e-01
-4.871369671251450928e-01
-3.879058087825151269e-01
-7.597013081578953830e-01
-9.322233402546356018e-01
-5.019476264765871942e-01
-8.467362132633056149e-01
-9.143973711230310997e-01
6.387627307610932448e-01
2.452917415510591503e-02
9.112608750963979709e-02
3.701780675311683311e-02
2.009452341332609304e-01
-5.841333372427968129e-01
-3.117991271325415426e-01
-7.638847705393536636e-01
1.780329628392864905e-01
-4.165351253284366173e-01
-1.879959242329016789e-01
1.814932782669598232e-02
-2.417913680238008567e-01
8.494540105191223933e-01
-2.498118676342797606e-02
-6.432456524691843036e-02
7.465647568787741051e-01
-3.265870470117739899e-01
3.782708024520342605e-01
-9.986726318410195091e-01
-5.485183186123590016e-01
1.844676803372014007e-01
2.449263708771736159e-01
3.173799306866371683e-01
2.887717908910536480e-02
1.467228678609089343e-02
-7.410465125252576613e-01
-9.522969401265324318e-01
2.691242647536518096e-01
-5.464545209261384429e-01
7.200086522155690893e-01
-1.402911262537493986e-01
-3.876782416719826152e-01
5.876017685808321289e-02
8.488538119886388511e-01
7.906313770962181131e-01
-8.058875989372757953e-01
9.566405884597735110e-01
-9.319145239438215711e-01
-7.915959505926914996e-01
5.681329420445093703e-01
-6.578582935719590186e-01
-6.297343055565014502e-01
-4.730873979122267592e-01
2.085649985048958488e-01
9.124578598707353549e-01
8.237319250541423887e-01
-1.729349581612238396e-01
4.752531771441805830e-01
-7.398761846317236657e-01
6.789373300792618249e-01
3.551953544892239023e-02
7.643282767730232852e-01
-9.811133643990177511e-01
-2.239506640109338864e-01
-2.793671115471534350e-01
-1.245723538059186897e-01
5.540797885455273075e-01
-6.918393291130944256e-01
-8.926966788265673358e-01
9.051330575383822463e-01
-9.381960225301686496e-01
7.581763678532800199e-01
6.633065579125951849e-01
9.522216862823202899e-01
-8.228343470491985556e-01
-6.614568603489490162e-01
7.369370345964731950e-01
5.238298153272915592e-01
-2.082497368066751342e-01
5.872527628104804442e-01
-2.668548803554222637e-01
8.093436707048251577e-01
-8.039053470115689048e-01
-2.607094776918015278e-01
-7.260654682526619386e-01
-1.693354809721634435e-01
-6.718959444022059024e-01
6.939722432064661106e-01
8.821662472233604557e-01
9.260976516851839868e-01
-3.353288148605400032e-01
-8.806448865712970253e-01
-5.013280188114737079e-01
9.149055937563554952e-01
-4.119663595185933946e-01
6.349976961163861233e-01
-9.037634781791579197e-01
-2.951660327927683181e-01
-4.696986102322342482e-02
-4.314850182066551909e-01
-7.660187502230750844e-01
5.591501522921678013e-01
4.177143505997977790e-01
-5.534037931705684255e-01
-7.867614974596346400e-01
-8.836504497363841804e-01
4.231497608623642215e-01
-9.882810642340813523e-01
-9.471358938092553359e-01
1.276681869261753199e-01
-1.813541449770734726e-01
-9.243945913275477544e-01
8.353653662338826891e-01
1.501293833881811590e-01
-1.664124936044710790e-01
-1.844107442365807703e-01
-2.023635683593278944e-01
-4.414574534007709161e-01
8.421875106307858960e-01
8.892703104891899191e-01
-4.948876644521083001e-01
1.514497991948891009e-01
4.285344836982500905e-01
4.593988977357299497e-01
3.922205827867837336e-01
-9.384055245980376103e-01
3.112969476194520357e-01
2.799430824701858445e-01
1.503982214446479837e-01
-1.343584996678504062e-01
-1.629519145809896763e-01
-9.462258084681294257e-01
6.202648718517638216e-01
9.704913825840035813e-01
4.728679512996705192e-01
7.162639367739287444e-01
-1.202598798628402577e-01
-6.285801569563573832e-01
9.971195722304360132e-02
4.852092331444399775e-01
-9.356883464801508676e-01
7.170353046084052551e-01
5.217545277925352831e-01
4.062435251248597279e-01
-9.107344538935091549e-02
-9.810721500494270497e-01
-3.417293127952372167e-01
5.422646317565762430e-01
8.933959178783950072e-01
2.639624039280399348e-01
-2.651830647621216119e-01
2.354940597441990136e-02
-4.996902108371972240e-01
2.665560028027367245e-01
3.187737315585112974e-01
3.437486241806690934e-01
-7.094200691563001815e-01
-3.451970829584567468e-01
3.805503193135941764e-01
-9.344044496675347755e-01
-7.075786196811690854e-01
8.978045157287013467e-01
-4.888240370416736535e-01
2.027160357560831017e-02
6.595305043440506942e-01
