5.392045352835106442e-01
-8.499988442293520130e-01
2.866349818780311587e-02
-7.502629521890202824e-02
1.859506552898864129e-01
4.888969835969909639e-01
-2.484495870305789555e-01
-9.459427001986322470e-01
9.099227134097778169e-01
7.693791515811940762e-01
-5.044085208455890701e-01
8.655099022616203897e-01
7.711723149795635113e-01
-3.127927259609082355e-01
-5.274995569325344746e-01
2.324683258776834016e-01
8.983593428390626023e-01
1.182927320567528362e-01
-3.539973885503200357e-01
-2.847771718525415885e-01
6.722498599252588747e-01
-2.709101276397087865e-01
-7.386065933933187999e-01
3.358012770179565898e-01
3.989830915832812686e-01
6.992647006391563558e-01
-9.919852275654859053e-01
-1.632967585471492011e-01
-7.266423825733083763e-01
-6.744805987076292197e-01
-1.441316728006936110e-02
-1.744816204076040655e-01
4.671626138791842298e-01
-9.475606321138201338e-01
-5.744453838023888537e-01
-1.163395418952870575e-01
-7.005832638691300573e-01
-4.299757978251768087e-01
-1.028226809928565189e-01
-4.030644049589504618e-02
2.732814193622490340e-01
-5.770537713495573762e-01
-8.803449358579327200e-01
-4.776315870078986503e-01
-6.984310817626835366e-01
2.678850385723205996e-01
2.323536149886917812e-01
4.391191857129861376e-02
7.092062226781834511e-01
-5.216355788513626912e-01
3.704825275939098717e-01
-9.321059696872715516e-01
-2.112192926735292353e-01
-1.505183251663710919e-01
-2.466367059026557396e-01
2.382508712080864122e-01
-5.425151989174357148e-01
-7.897642706802066037e-02
4.611679283505791815e-01
6.929702945609728104e-02
7.742970101924655513e-01
-2.216250047590508920e-01
-7.546396433432334128e-02
3.227435977198882533e-01
-4.203687536871911767e-01
1.256883821199945572e-01
5.509892949070462898e-01
-7.669174034850301247e-01
9.797223275238988727e-01
3.567263716043784783e-01
5.977098129136706461e-01
-2.983148972451488135e-02
3.749331734386545101e-01
-9.756102431884776660e-01
4.869911027162032724e-01
1.244870404522591123e-01
-9.997379419257388378e-01
-8.686776527776753909e-01
-3.382442881148171043e-01
9.787215514708007547e-01
-4.251023911147657763e-01
-7.926989700136819472e-01
-6.553860281073937699e-01
7.272334869370844501e-02
-4.172685499419150901e-01
-5.241255522287140423e-01
-6.052997501608849973e-01
1.159419145652715866e-01
-9.247370942588959419e-01
-7.740396349734985915e-01
3.142314542834614421e-01
2.319814998542168993e-01
9.563375163736054230e-01
-9.156115255329844160e-02
-4.774565358483433553e-01
4.942684069013700832e-01
8.050294006519784773e-01
-5.051796619326200943e-01
-5.510245984834789557e-01
-1.205126700787557681e-01
1.279077930704097810e-01
2.343605164735909074e-01
-2.329226854739414598e-01
1.428172732844776860e-01
4.076001128099193682e-01
9.049772952351899935e-01
-8.577988856489893177e-01
1.450826538815999101e-01
6.832567638178508318e-01
7.373602252811741753e-01
-8.124870381106052974e-02
6.861849297624089683e-01
5.253728169476921117e-01
5.849220853482781646e-01
7.540364527137142225e-01
1.998787097596377293e-02
-4.712240626705650470e-01
5.520759859147763571e-01
-3.586386500509046726e-01
5.468191387287693050e-01
-7.097855998599795768e-01
-8.361494309985852968e-01
-3.042457836065928234e-01
5.511275535429294159e-01
8.632057737107294848e-01
9.568849651310857851e-01
-8.864945448032792719e-01
7.796081432885657581e-01
-3.002673730573646171e-01
-2.889649517191559269e-01
7.431836259228228325e-01
-1.793829275458125316e-02
-2.861109519931288592e-01
-9.953023469887192221e-01
-3.020712011792860974e-01
-5.289205150785432075e-01
1.013054315156205476e-01
-7.617982784094703419e-01
-3.654998336244885682e-01
-8.390861106859492935e-02
-5.367247762804574496e-01
2.539269855026577982e-01
-6.117169448174206714e-01
5.272564845943588097e-01
1.487977339105617247e-01
2.487771958990530052e-01
-6.473830827214253070e-01
1.837409292354013068e-01
8.906017237895200722e-01
-5.017206942881999865e-01
8.777635642376719893e-01
9.584957165604319762e-01
6.105892234493355275e-01
-5.593276263493125455e-01
-6.873491086621836832e-01
-3.771200403432999337e-01
7.327790019808275712e-01
4.747937885739381692e-01
-2.652316955346574190e-01
-7.711763690342454680e-01
1.383420574687341809e-01
4.361698985149327079e-01
8.806097906257577268e-01
-7.791017073097268320e-01
8.280358168657555584e-01
7.259046396899051512e-01
-7.526419022842973927e-01
-1.436609847721332933e-01
6.354697253420740211e-01
2.688251330766411318e-01
-6.245980828650994354e-01
4.695295039086655464e-01
1.532859504041796939e-01
8.225275177385147352e-01
-2.996241067026561566e-01
-2.811990853406449720e-01
4.883976986210813998e-01
-4.011322006617970004e-01
9.449563536259570906e-01
-9.075595974587669090e-01
9.491145773694829035e-01
-8.588210063801808847e-01
-6.477583133208928423e-01
-7.784358074826371876e-01
5.320569717237910723e-01
9.952129364582971149e-01
-2.027030467483090792e-01
4.641328002517752793e-02
-9.816950851926318222e-01
-8.400680063329091229e-01
-1.434710838848538561e-01
-7.223009192565421621e-01
-5.963385296423326931e-01
2.525926796371711358e-01
9.301379454475711128e-02
-7.387978386586939727e-01
7.217088102523352422e-01
3.787176732337576013e-01
3.868929129283598112e-01
1.243714240441238239e-01
-7.970614471105663679e-01
-5.492349114678334310e-01
-2.158017373170690867e-01
-3.056007634468396184e-01
3.788996579953727295e-01
9.697898691185633524e-01
-1.005432733998388173e-01
5.764234057208212914e-01
6.678277966829782031e-01
5.845936467053560737e-01
-8.257351872929414860e-01
1.624135639233981188e-01
8.574364919041288502e-02
-9.363116839990401896e-01
7.907268925568344820e-01
3.368576378400642835e-01
3.598072932863813911e-01
8.761767591980613723e-01
9.959170336331744089e-01
6.805773707626872060e-01
-7.590959044809966194e-01
7.407038820688502945e-01
7.230858078197415217e-01
-8.066146134381533273e-01
1.555464519051374950e-01
-1.539930280460926060e-01
-9.821250510556833735e-01
4.903968403114351560e-01
9.963661710092210910e-01
-3.793988854887171414e-01
1.997428522695257058e-01
7.158252258191357686e-01
-6.364811005845956160e-01
-2.297007237031936100e-01
5.742773818302926436e-02
-5.857215778241759985e-01
5.732007974679889095e-01
8.022341771867136373e-02
4.724902270518094305e-02
3.065929822679875905e-01
5.755673413002311278e-01
-4.222875557581133865e-01
3.774165551859032242e-01
9.471001137073509213e-01
4.896344509442740467e-01
-8.304638355240894221e-01
-8.396725470737691488e-01
-9.730046339684288448e-01
9.416149239860489573e-01
8.059764694053705991e-01
3.438278112270207743e-01
6.186068896119647498e-01
2.750757445315248351e-01
3.404113444058245452e-01
3.473410057128960560e-01
-5.441397048728615626e-01
-3.709518788447729865e-01
1.619819501015449248e-01
9.168051894939410751e-01
5.415962192802268316e-01
-4.502841098715300028e-01
-4.528713662906209692e-01
-6.433545500123205585e-01
-3.184309117939254641e-02
-5.130123127911616621e-01
