-6.138842097056982361e-01
4.884688499569369569e-01
9.027785559035932383e-01
-6.405746298506267422e-01
5.738546186733368693e-01
1.316858597050458712e-01
-4.141147121100150486e-01
5.521266122131360810e-01
1.317270363687312873e-01
-1.137938364023647342e-01
9.687621478363377392e-01
6.759410164142929389e-01
-2.549937804942319364e-01
1.116579913745228136e-01
4.340797942138399090e-01
-8.713929610559991712e-01
-4.115305554131161170e-01
-2.217074875498832309e-01
-6.995080245010658615e-01
9.729577729267964159e-01
6.348122091400303368e-01
-4.161319314243214773e-01
2.181969011548314796e-01
7.139675465834334211e-01
1.878885755390258261e-02
6.520396010169351442e-01
9.763764751819707932e-01
8.643753029525185205e-01
5.955263621207567137e-01
-1.221536312269650981e-01
-4.425446681295661655e-01
3.191330320505880724e-01
-4.972403888652510151e-01
-4.478032501926487718e-01
-1.020626589813606877e-01
-5.831210449885058100e-01
-4.130655854395242077e-01
8.181561732492550476e-01
9.735793594538422191e-01
-7.695670835777645991e-02
8.560824913159237326e-02
-4.120087730279224925e-01
-6.739492879351660637e-01
-8.596060012877722034e-01
2.438782387708848809e-01
4.442803605350607032e-01
2.584633988724100995e-01
-1.691612591586930670e-01
-3.593751079573521690e-01
9.560035239905131377e-01
7.598995956595917534e-01
-7.804946640422292248e-01
-7.939334542991183241e-02
1.005453537464422453e-01
6.932113879437413750e-01
9.904429040966289399e-02
7.271352917687565753e-01
5.494586632819893346e-01
5.133242781628717388e-01
3.776863849608669277e-01
4.248013309926590431e-02
-9.532675398066356998e-01
8.318364638440409742e-01
-3.986752008583911433e-01
1.119924555862157334e-01
4.586199336182792408e-01
-6.715788043404706809e-01
-2.441533144388077226e-01
9.470124975845251036e-02
-2.681757243938831525e-01
6.115615165371603990e-01
-2.736810950739470005e-01
-7.036449445110815049e-01
-8.364359954018500964e-01
-2.284501123200279871e-01
7.239230957086464358e-01
-9.085645755870142004e-01
-7.505269137361985088e-01
7.286617440909060051e-01
-3.932897769712269120e-01
5.747763860431183147e-01
5.933394368063216184e-01
3.679974971768074088e-01
-6.209975060969517013e-01
-6.707607070705108310e-01
8.922362449384797500e-01
-7.960141366784225792e-01
9.705540649525845609e-02
-2.318051299761987316e-01
5.795324745528698251e-01
7.155214299184549098e-01
-3.849860576573416182e-02
-5.154091666049678278e-01
7.122008913212196646e-01
5.881280473929773045e-01
8.860515100403869582e-01
-5.559311276628466914e-01
6.483570019193127809e-01
9.631974554952349443e-02
2.683272628906729906e-01
-9.011553433908987554e-01
-2.397632366565085604e-01
6.315955917571640654e-01
-1.953447227326314817e-01
4.108930766632086229e-01
-5.512004662734162341e-01
2.936229484432530956e-01
-9.255362125297919018e-01
7.386637895750207683e-01
-9.655738215227778198e-01
-4.836501629149514425e-01
-1.626312789917732093e-01
5.014366099675700017e-01
8.141960568200872217e-01
-9.117473144053993561e-01
-3.609414549471117173e-01
3.295079219769478929e-01
2.958429995891702635e-01
7.984282104642748124e-04
4.183301432639574546e-01
7.059444056831107872e-01
-2.569969837085459563e-01
-6.360127492392670945e-01
7.937515079458381528e-01
-1.791120760872664253e-01
-4.264846946298652686e-01
-1.775463705079725063e-01
7.010103848317195130e-01
4.192504208900582618e-01
9.327260611745453733e-01
8.988139344649341833e-01
5.786620162449822580e-01
-6.345749362240926672e-02
8.291889010218063127e-01
3.923150969543089950e-01
-7.267715357811923571e-01
-1.900239107474621658e-01
-7.307833262367722238e-01
-2.478703655185279242e-01
8.304907936461809470e-01
-9.464883001667814266e-01
-1.229850042395395082e-01
-6.684178834031462291e-01
-9.957395998009970217e-01
-3.499925750610124453e-01
9.505939011148427653e-01
-1.673086546149678000e-01
7.984344516356778332e-01
2.446275462640641329e-01
9.453862192532147546e-01
8.163063695790728769e-01
9.885682007699116980e-01
-5.381825016194570210e-01
4.884883501544821094e-01
-1.263318519434664111e-02
-7.134729884954624790e-01
-2.811784296183850174e-01
-5.984558805645490143e-01
-1.054491666850470022e-01
7.800256537745318131e-01
9.572641969736137568e-01
-5.175568167881929860e-01
-1.744341239578035552e-01
-7.020576942693752542e-01
7.240247164229227650e-01
1.088834649426324575e-01
1.972140133582995780e-01
7.713389628460991521e-01
6.373727241795243970e-01
7.425197407304962027e-03
-4.223024491550153581e-01
1.717950872366520443e-01
3.363897891616378644e-01
-6.949249927001701632e-01
-8.974715976756670877e-01
-8.024495087602598886e-01
-3.128753427932267073e-01
5.309157047203880708e-01
3.956944275889753282e-01
-9.406239750726024251e-01
-2.331519397336565547e-01
-6.097228413601625263e-01
-8.240046330608854497e-01
-6.111212673110890670e-01
1.786962566244332251e-01
-8.271303640853704398e-01
-8.241779033302778501e-01
3.766021570643085514e-01
-4.564513029839938341e-01
3.414254920439154795e-01
-5.070549130699997242e-02
1.630005350452323754e-02
-8.008325749283682349e-01
3.519080518750608011e-01
-8.524051331060267245e-01
-2.901658807351428226e-01
8.529726368235603928e-01
-4.447069273248860366e-01
-9.506618721671529215e-01
1.741115444447158822e-01
2.094459345046162380e-01
-6.754006860895884756e-01
-3.615193787655650581e-01
5.014015221690653057e-01
-9.812848756648213655e-01
4.014448035042266216e-01
3.784248701218511091e-01
1.688376870488017545e-01
1.831031545858994303e-01
-6.410339288597231011e-01
-7.539146281584101494e-01
-2.357399628130270042e-01
9.017184319814308679e-02
2.519535350598121060e-01
4.139136907439895374e-01
-3.835816111283953944e-01
-8.368793623052426245e-01
7.881024287350602009e-01
-2.963519651126538257e-01
-8.933844241467632230e-01
-2.944593380623301559e-01
-4.580021257497557396e-01
-5.143087469190674721e-01
6.939031689422490157e-01
-4.659799193701452680e-02
-3.661437768382413971e-02
2.661847641562227196e-01
-7.994831412522656056e-01
-6.828572002410870923e-01
2.181569195703203512e-01
-5.670214126411736721e-01
-9.054194585569015352e-01
-2.236316809662279859e-01
7.984314765313376139e-01
-3.898049124633229390e-01
-3.415927261267510673e-01
-2.754251828798461865e-01
-1.571944926888457772e-01
3.750615826528291841e-01
7.541164202779793158e-02
-9.478683155431366636e-02
-6.439748349894913737e-01
-6.328111587475726552e-02
-9.110461598798318406e-01
-7.212695567868059321e-01
3.538237565019874964e-02
-2.214941244323955782e-01
-7.955270022113902773e-01
-4.297068852989307519e-01
-3.287836673452240177e-01
2.124600547758570546e-01
-1.546626517204350293e-01
4.814227590364013043e-01
6.209888263567995281e-01
9.227997458906960215e-01
-6.436789186801712415e-01
7.359875313366548433e-02
8.081843281103491261e-01
9.180752992790877087e-01
3.864820687522394493e-01
-5.980070544953024481e-01
-2.968668999838304234e-01
5.227940639636052822e-01
-6.542705602718115188e-01
-4.203220711275836852e-01
