2.144614212976108103e-01
8.611598181318544931e-01
4.223041060251422341e-01
1.804309232609426772e-01
8.792250457688708387e-01
8.518210131239634109e-01
-5.599266944792415934e-01
5.891937601222410059e-01
3.868995358601603485e-01
-1.846602133955228542e-01
-5.321843808014681265e-01
-1.672471679823945845e-01
-4.407881401249995612e-01
7.081041643555163745e-02
3.126522303081280540e-01
-2.470513311757152053e-01
8.114394924904009265e-01
9.693764689665242962e-01
-6.783071110821936589e-01
4.314400831067526365e-01
3.140129221412755189e-01
-3.717970291482886047e-01
1.998863051159835980e-01
3.633959793479308864e-01
8.831330441504690043e-01
6.487166221934279609e-01
6.121511064454487894e-02
3.120343519932577969e-01
-4.034563878454453523e-01
4.934276047107966079e-02
-4.798348700602230732e-01
-5.477247707489119044e-02
1.324925867867161600e-01
5.202017292525904502e-01
3.156720088254560963e-01
8.490124349803438442e-01
-8.100710151467238607e-01
-5.987842536785343839e-01
-3.110126951010163676e-01
1.351667287635887060e-01
-2.234327102046587132e-01
-7.406907620229192801e-01
9.124033462603333700e-01
-2.888305773419697076e-03
-8.001268190490149479e-01
6.376507954719672355e-01
-5.925083287492487472e-01
2.962677222907110774e-01
-1.407253339637459799e-01
9.578275128224245094e-02
-9.057970325080331175e-01
8.764664970039097724e-01
2.314379715269865301e-01
5.487329508376914688e-02
-6.927848362536310756e-01
3.619233070268013108e-03
-7.347933543572571224e-02
2.092861750888630468e-01
-1.781566133059917512e-01
7.302178332911435366e-01
5.313134301687894023e-03
4.296788361312593452e-01
-2.063143389664421345e-01
2.881860846216710570e-01
5.100191630398775988e-01
-5.788434798706061368e-01
-1.569277099337975656e-01
6.872892816766609236e-01
-1.135152501943348380e-01
5.315149982374691717e-01
-6.065948998954255877e-01
-1.099893196813472862e-01
9.172549759222796695e-01
-2.999773097608273709e-01
8.580433509222153976e-01
-3.430672359623239132e-01
1.062832893836227477e-01
2.603711236316978983e-01
-9.226423642729719710e-02
3.245615886610120349e-02
-8.609022508440806742e-01
-7.641399631985092977e-01
4.586526884997974562e-01
-7.193756031769509285e-01
1.388311651343179243e-01
7.570495214602070977e-01
-4.877669755076949887e-01
-6.468821924491408026e-01
9.322193763378670006e-01
-7.724855054190133963e-01
9.436062619869867163e-02
3.079058950207622658e-01
-3.373685210973969006e-01
4.998573778302117798e-01
7.390868311037441796e-01
1.798863497705971426e-03
-7.518018259616547905e-01
2.331403116299508582e-01
-5.828099795432870600e-01
-1.654137687125818434e-01
-8.296996854424016909e-01
-5.369710127352897988e-01
1.755109183584551147e-01
-4.283251263144027821e-01
-5.031632013986804264e-01
2.084199800983705941e-01
2.386652918050327088e-01
-9.330860407300205495e-01
-7.371187425148448824e-01
3.179698753582651527e-01
-6.432063750626884069e-01
-1.213144564869339526e-01
-2.712590133802343928e-01
3.866327102076316802e-01
-9.481764760736328679e-01
1.124280115546845149e-01
-2.752214513416131325e-01
2.830861678694382988e-01
3.270363540543967940e-01
-8.958566574066106902e-01
5.833398426768077183e-01
-2.925352302052490749e-01
8.483755681496993883e-01
6.859729789573216774e-01
-2.235543084582261031e-01
8.559543104744329334e-01
6.733366467436190383e-01
-8.768224547591125795e-01
4.607547349640610523e-01
3.270191977335930034e-01
3.997025814015433554e-01
-1.177394488518430649e-01
-7.933865900789680570e-01
-2.163155637278122434e-01
8.263869756524147014e-01
-1.010799866442184669e-01
6.084164825199231963e-01
-3.798595147854779697e-01
-2.970662253681368714e-01
-6.524893841428036634e-01
1.076420873874992523e-01
6.522720833621256098e-01
-6.444927937711748545e-01
-1.221847067802765974e-01
-3.147643957370660495e-02
6.873672028139126144e-01
4.507228182322979837e-01
-3.255925183643026966e-01
5.646087002784216935e-01
-3.376484846014693453e-01
-6.106767404214552553e-01
8.302451243979347417e-01
8.296602342264809415e-01
7.430957257464045895e-01
-1.889244517396866385e-01
-9.219567854857810829e-01
-5.361322259119338796e-01
-4.053189637904841547e-02
-8.346060708537745843e-01
-3.692903158104163808e-01
-5.849830300521485782e-01
8.752199300541856353e-01
-8.775302564614382295e-01
1.281067984520860570e-01
-1.984140961545162174e-01
4.221599304163017319e-01
6.144151937256556728e-01
3.886814181554143488e-01
-1.784200779603768439e-01
-5.367822382272675608e-01
-9.891551294124376614e-01
5.837655601883064982e-01
5.626836146305984609e-01
3.863787842482202528e-01
4.296217409618932059e-01
4.071791249613601060e-01
9.555361810060238881e-01
7.340744923449542547e-01
6.254998940815967856e-01
3.593759817114738908e-03
-1.713507820180213415e-01
6.036418739121631738e-01
7.587457536438080297e-03
-3.900112493409741976e-01
-6.908107800308216362e-01
7.827586853786259180e-01
4.940317120567458975e-01
-4.043422355415060565e-02
8.750735266037561466e-01
-6.117516390143751259e-02
3.931047262789157948e-01
7.457169713063651617e-01
-7.838387745941810536e-01
-3.898445443947946565e-01
-7.848489117803625348e-02
9.617315164453517085e-01
-7.653365673316652185e-01
2.582563531540755797e-01
-4.984677283357528133e-01
-9.178866093038453577e-01
4.652544048467821547e-02
4.288975566149970664e-01
-3.957520194724655216e-01
-8.537423275454498750e-01
-1.127644276894237407e-01
-5.438668180109609285e-01
-4.627650927248172508e-01
-4.904311242945660343e-01
4.198516242753624894e-01
4.179520357990678114e-01
5.066059450850797230e-01
-5.800939511106084634e-01
8.590688563185389093e-01
8.728347442334432049e-01
5.904756182291217570e-01
-9.644668532659486093e-01
-9.456557581348512542e-01
6.148586198639072187e-02
5.568505938304577629e-01
-7.302943626879487837e-01
-5.562341039588631908e-01
4.123571842505331375e-01
-2.754164285439142379e-01
9.290693164871193233e-01
-4.168204368083481270e-01
-1.364548358924988491e-01
3.110535821998365869e-01
8.017404560008187797e-01
-8.297274059328949569e-01
-8.250401845867749717e-01
-9.286936763537880779e-01
8.854722980357165873e-01
5.350321898763525930e-01
-4.092839867653246255e-01
3.122981420472936698e-02
-1.344598563459213914e-01
2.485990286724282239e-01
4.829080271230685728e-01
8.764853244517727404e-01
-8.391650709788642803e-01
-2.074911056596511205e-01
-5.131229334514073592e-01
-2.582721084751296026e-01
4.189851985064585449e-02
6.512877475404559302e-01
1.390848823465289374e-01
3.616681831103218947e-01
3.779246495497905478e-01
-8.542858364176777464e-01
7.540491923469110347e-01
-5.938624980163804690e-01
-5.064081128664459364e-01
-4.692036234641854264e-01
4.877062600209027821e-01
-8.469894316713411087e-02
-8.487666840100751564e-01
-9.018901024438346070e-01
-7.850695893346377741e-01
-7.336883502093596299e-01
4.287388841270649564e-01
-4.824104894601597415e-01
-2.721204814377913284e-01
-6.913676109556488036e-02
-1.838653010766875262e-01
-8.779468909765648643e-01
