19.78672114922108,0.7185738646573763,0.4815624336471045,-0.9545996280676912,0.7635259861514498,-0.604459414572466,0.731615188935163,0.6550873533266157,-0.3996257261071252,-0.8260379313017256,0.918970486036123,-0.874025942030328,-0.02378013496576914,-0.47003120211941796,-0.5414562484225036,-0.39381586453225803,0.9655133004578547,0.10153951111292825,0.8348896105629764,-0.8302317679158941,0.28853999427489807,-0.2724348297501584,0.7435849529815959,0.24477041104047426,0.21647993205225613,0.37484951858069326,-0.920962120389186,0.31620797200690975,0.4874198076927645,-0.7383637322115293,0.9561192365664333,-0.6436370339873314,0.6389585902946238,0.48203546401285324,-0.4995324719591565,0.16674979377574428,-0.4376492157732996,0.5356495714562961,-0.4326593923255768,-0.46898990276152674,0.7276234870271165,0.880565067333583,-0.7409010235514735,0.641434089984092,0.4901217566641025,0.8306980788517644,-0.9483878088405315,-0.5211255305538665,-0.4058944079199802,0.5463863458945564,-0.49642877611467373,-0.11300789685822821,0.6684236946829132,0.020537515227672776,-0.34131650409398917,0.6137628341807513,-0.00823571402993828,0.8425342988621598,0.7661784240432119,-0.46132292342915826,-0.483735766402009,0.7121878670879289,0.26033569503006015,0.07979064536806613,-0.822667394706543,0.23768570178535597,0.6420433987866889,-0.026125830959166985,-0.9920682147588205,0.06975556236588609,-0.4188380497956279,0.5501495621911032,0.6659337187086161,0.2913836581543343,-0.5112228841946795,0.6184546935869566,0.40111257672398914,0.476611863015449,0.4480348914300212,0.9205991292428186,-0.3297272812055454,-0.8512194704531215,0.08552787422645425,0.864804611577235,0.9953416649751914,-0.06596904636493317,-0.07399705865206196,-0.019423112793164332,0.03455754291231883,0.9926454601845074,0.18985166710294288,-0.7030303715591637,0.5592688577424432,0.9807623099262677,-0.9004095284168583,-0.3447436291437749,0.745813274267713,0.9879383760386529,-0.8093493141644246,-0.8261423543366726,-0.8216163470700244,-0.5160263111982677,-0.8638037634886981,0.3844737282401052,0.9637200146287637,-0.47487850448459556,0.5660052366626325,0.03079576558580377,0.31192092932387516,-0.04790576644392597,-0.46522367198654524,-0.7316237732691675,-0.9355278973468588,-0.574029696044253,0.008891048450056616,0.30795211009222556,-0.5572810006750368,0.422238966591695,-0.7001325513094647,-0.2832015432666024,0.6971409113295657,-0.7606296398846466,-0.16855941524300255,0.6594071520232823,0.6859729789573217,-0.6128847641902861,0.662157953225379,0.38899901146875293,-0.05806893761666565,0.45720116267813427,0.9763539503721337,0.6124886032714596,-0.5736058112528049,-0.41730617678171744,-0.1640980773520302,0.2563954672393558,-0.7604442880560047,0.06087291318338117,-0.6103509352424183,0.6315996261668273,-0.46619045750343036,-0.6332319258137094,-0.8336359607152546,0.5018484703400345,0.7357588204257142,0.3127796983786282,-0.2195025200910934,-0.3845405508674107,0.5758015985151408,0.622854666215898,-0.5491906939423346,0.8663195520139118,-0.8264697773144662,0.8296602342264809,-0.7718272038323679,-0.18892445173968664,0.2284748554784708,0.6120841132888806,-0.040531896379048415,0.7770123450394912,-0.3692903158104164,-0.9013824128370946,-0.12682468651684942,0.19796110822558943,0.19969206231667802,-0.776982700696472,0.375582107270243,-0.040869291680480924,-0.31651626497593544,-0.4403143582372462,0.352231715312078,0.8230290151255981,0.22662766049020067,0.6029607248792954,0.13244014765753098,-0.45360651260830576,0.3272661257014462,-0.1652227518665852,0.3061860538050012,0.26614699110147444,-0.870823745137596,0.573482978722319,-0.9310393486778681,-0.825477494079814,0.4006266958488278,0.858609673600957,-0.32315189356431206,-0.9282878451672587,0.8369052575970122,0.670808282777366,0.017846506632062775,-0.007133046432231893,-0.9472670848417071,-0.5343699478782369,0.541697054519459,0.172620115292359,-0.3827562834306759,0.309775170062492,0.9724168183050637,0.29517996659855106,0.20595747145578502,0.936233759920142,-0.8300762741111123,-0.2783405179323155,0.062222951303434915,-0.744243880799399,-0.7093579451150558,0.7841019754777558,0.8137484454999726,-0.8801853084433353,0.972777257608016,-0.7215156073970563,0.7480146020129839,0.581294781057395,0.7025765242377766,-0.3030726462979254,0.5003274825876085,-0.4877335132071574,-0.3876155992352548,-0.6552902447948479,0.7438838936754091,-0.39260575373162854,0.16936497295315722,0.5891577664759178,0.7364020947980832,-0.1559717207971223,-0.2117100855703693,0.8314510900043701,-0.10189607350893604,0.8243363476358723,0.8686692471757207,-0.9220392373367463,-0.18955742259265596,-0.5947307890756248,-0.7938509398580604,0.34701727745813815,0.4509784497834428,-0.9592972016489836,0.9725149480053219,-0.643804689808531,-0.9551911093826353,0.16295804728206753,0.7507205850211287,-0.1854278822911566,-0.07337633916388064,-0.3370781530970439,0.8874540402789528,-0.6255371001642889,-0.006037261693307983,-0.268339612050444,-0.21091257529471363,-0.13848258264444047,0.15119823890615236,-0.1259166856379692,0.6785335256027438,0.9435445459222012,-0.9449437488942876,-0.2055840093816228,0.5600730545052228,0.92895897354741,0.7994268530387159,-0.9469074754565268,-0.4194260914668815,0.04700168556799422,-0.9980410338142753,0.7701498500628736
19.78672114922108,0.7185738646573763,0.4815624336471045,-0.9545996280676912,0.7635259861514498,-0.604459414572466,0.731615188935163,0.6550873533266157,-0.3996257261071252,-0.8260379313017256,0.918970486036123,-0.874025942030328,-0.02378013496576914,-0.47003120211941796,-0.5414562484225036,-0.39381586453225803,0.9655133004578547,0.10153951111292825,0.8348896105629764,-0.8302317679158941,0.28853999427489807,-0.2724348297501584,0.7435849529815959,0.24477041104047426,0.21647993205225613,0.37484951858069326,-0.920962120389186,0.31620797200690975,0.4874198076927645,-0.7383637322115293,0.9561192365664333,-0.6436370339873314,0.6389585902946238,0.48203546401285324,-0.4995324719591565,0.16674979377574428,-0.4376492157732996,0.5356495714562961,-0.4326593923255768,-0.46898990276152674,0.7276234870271165,0.880565067333583,-0.7409010235514735,0.641434089984092,0.4901217566641025,0.8306980788517644,-0.9483878088405315,-0.5211255305538665,-0.4058944079199802,0.5463863458945564,-0.49642877611467373,-0.11300789685822821,0.6684236946829132,0.020537515227672776,-0.34131650409398917,0.6137628341807513,-0.00823571402993828,0.8425342988621598,0.7661784240432119,-0.46132292342915826,-0.483735766402009,0.7121878670879289,0.26033569503006015,0.07979064536806613,-0.822667394706543,0.23768570178535597,0.6420433987866889,-0.026125830959166985,-0.9920682147588205,0.06975556236588609,-0.4188380497956279,0.5501495621911032,0.6659337187086161,0.2913836581543343,-0.5112228841946795,0.6184546935869566,0.40111257672398914,0.476611863015449,0.4480348914300212,0.9205991292428186,-0.3297272812055454,-0.8512194704531215,0.08552787422645425,0.864804611577235,0.9953416649751914,-0.06596904636493317,-0.07399705865206196,-0.019423112793164332,0.03455754291231883,0.9926454601845074,0.18985166710294288,-0.7030303715591637,0.5592688577424432,0.9807623099262677,-0.9004095284168583,-0.3447436291437749,0.745813274267713,0.9879383760386529,-0.8093493141644246,-0.8261423543366726,-0.8216163470700244,-0.5160263111982677,-0.8638037634886981,0.3844737282401052,0.9637200146287637,-0.47487850448459556,0.5660052366626325,0.03079576558580377,0.31192092932387516,-0.04790576644392597,-0.46522367198654524,-0.7316237732691675,-0.9355278973468588,-0.574029696044253,0.008891048450056616,0.30795211009222556,-0.5572810006750368,0.422238966591695,-0.7001325513094647,-0.2832015432666024,0.6971409113295657,-0.7606296398846466,-0.16855941524300255,0.6594071520232823,0.6859729789573217,-0.6128847641902861,0.662157953225379,0.38899901146875293,-0.05806893761666565,0.45720116267813427,0.9763539503721337,0.6124886032714596,-0.5736058112528049,-0.41730617678171744,-0.1640980773520302,0.2563954672393558,-0.7604442880560047,0.06087291318338117,-0.6103509352424183,0.6315996261668273,-0.46619045750343036,-0.6332319258137094,-0.8336359607152546,0.5018484703400345,0.7357588204257142,0.3127796983786282,-0.2195025200910934,-0.3845405508674107,0.5758015985151408,0.622854666215898,-0.5491906939423346,0.8663195520139118,-0.8264697773144662,0.8296602342264809,-0.7718272038323679,-0.18892445173968664,0.2284748554784708,0.6120841132888806,-0.040531896379048415,0.7770123450394912,-0.3692903158104164,-0.9013824128370946,-0.12682468651684942,0.19796110822558943,0.19969206231667802,-0.776982700696472,0.375582107270243,-0.040869291680480924,-0.31651626497593544,-0.4403143582372462,0.352231715312078,0.8230290151255981,0.22662766049020067,0.6029607248792954,0.13244014765753098,-0.45360651260830576,0.3272661257014462,-0.1652227518665852,0.3061860538050012,0.26614699110147444,-0.870823745137596,0.573482978722319,-0.9310393486778681,-0.825477494079814,0.4006266958488278,0.858609673600957,-0.32315189356431206,-0.9282878451672587,0.8369052575970122,0.670808282777366,0.017846506632062775,-0.007133046432231893,-0.9472670848417071,-0.5343699478782369,0.541697054519459,0.172620115292359,-0.3827562834306759,0.309775170062492,0.9724168183050637,0.29517996659855106,0.20595747145578502,0.936233759920142,-0.8300762741111123,-0.2783405179323155,0.062222951303434915,-0.744243880799399,-0.7093579451150558,0.7841019754777558,0.8137484454999726,-0.8801853084433353,0.972777257608016,-0.7215156073970563,0.7480146020129839,0.581294781057395,0.7025765242377766,-0.3030726462979254,0.5003274825876085,-0.4877335132071574,-0.3876155992352548,-0.6552902447948479,0.7438838936754091,-0.39260575373162854,0.16936497295315722,0.5891577664759178,0.7364020947980832,-0.1559717207971223,-0.2117100855703693,0.8314510900043701,-0.10189607350893604,0.8243363476358723,0.8686692471757207,-0.9220392373367463,-0.18955742259265596,-0.5947307890756248,-0.7938509398580604,0.34701727745813815,0.4509784497834428,-0.9592972016489836,0.9725149480053219,-0.643804689808531,-0.9551911093826353,0.16295804728206753,0.7507205850211287,-0.1854278822911566,-0.07337633916388064,-0.3370781530970439,0.8874540402789528,-0.6255371001642889,-0.006037261693307983,-0.268339612050444,-0.21091257529471363,-0.13848258264444047,0.15119823890615236,-0.1259166856379692,0.6785335256027438,0.9435445459222012,-0.9449437488942876,-0.2055840093816228,0.5600730545052228,0.92895897354741,0.7994268530387159,-0.9469074754565268,-0.4194260914668815,0.04700168556799422,-0.9980410338142753,0.7701498500628736
19.78672114922108,0.7185738646573763,0.4815624336471045,-0.9545996280676912,0.7635259861514498,-0.604459414572466,0.731615188935163,0.6550873533266157,-0.3996257261071252,-0.8260379313017256,0.918970486036123,-0.874025942030328,-0.02378013496576914,-0.47003120211941796,-0.5414562484225036,-0.39381586453225803,0.9655133004578547,0.10153951111292825,0.8348896105629764,-0.8302317679158941,0.28853999427489807,-0.2724348297501584,0.7435849529815959,0.24477041104047426,0.21647993205225613,0.37484951858069326,-0.920962120389186,0.31620797200690975,0.4874198076927645,-0.7383637322115293,0.9561192365664333,-0.6436370339873314,0.6389585902946238,0.48203546401285324,-0.4995324719591565,0.16674979377574428,-0.4376492157732996,0.5356495714562961,-0.4326593923255768,-0.46898990276152674,0.7276234870271165,0.880565067333583,-0.7409010235514735,0.641434089984092,0.4901217566641025,0.8306980788517644,-0.9483878088405315,-0.5211255305538665,-0.4058944079199802,0.5463863458945564,-0.49642877611467373,-0.11300789685822821,0.6684236946829132,0.020537515227672776,-0.34131650409398917,0.6137628341807513,-0.00823571402993828,0.8425342988621598,0.7661784240432119,-0.46132292342915826,-0.483735766402009,0.7121878670879289,0.26033569503006015,0.07979064536806613,-0.822667394706543,0.23768570178535597,0.6420433987866889,-0.026125830959166985,-0.9920682147588205,0.06975556236588609,-0.4188380497956279,0.5501495621911032,0.6659337187086161,0.2913836581543343,-0.5112228841946795,0.6184546935869566,0.40111257672398914,0.476611863015449,0.4480348914300212,0.9205991292428186,-0.3297272812055454,-0.8512194704531215,0.08552787422645425,0.864804611577235,0.9953416649751914,-0.06596904636493317,-0.07399705865206196,-0.019423112793164332,0.03455754291231883,0.9926454601845074,0.18985166710294288,-0.7030303715591637,0.5592688577424432,0.9807623099262677,-0.9004095284168583,-0.3447436291437749,0.745813274267713,0.9879383760386529,-0.8093493141644246,-0.8261423543366726,-0.8216163470700244,-0.5160263111982677,-0.8638037634886981,0.3844737282401052,0.9637200146287637,-0.47487850448459556,0.5660052366626325,0.03079576558580377,0.31192092932387516,-0.04790576644392597,-0.46522367198654524,-0.7316237732691675,-0.9355278973468588,-0.574029696044253,0.008891048450056616,0.30795211009222556,-0.5572810006750368,0.422238966591695,-0.7001325513094647,-0.2832015432666024,0.6971409113295657,-0.7606296398846466,-0.16855941524300255,0.6594071520232823,0.6859729789573217,-0.6128847641902861,0.662157953225379,0.38899901146875293,-0.05806893761666565,0.45720116267813427,0.9763539503721337,0.6124886032714596,-0.5736058112528049,-0.41730617678171744,-0.1640980773520302,0.2563954672393558,-0.7604442880560047,0.06087291318338117,-0.6103509352424183,0.6315996261668273,-0.46619045750343036,-0.6332319258137094,-0.8336359607152546,0.5018484703400345,0.7357588204257142,0.3127796983786282,-0.2195025200910934,-0.3845405508674107,0.5758015985151408,0.622854666215898,-0.5491906939423346,0.8663195520139118,-0.8264697773144662,0.8296602342264809,-0.7718272038323679,-0.18892445173968664,0.2284748554784708,0.6120841132888806,-0.040531896379048415,0.7770123450394912,-0.3692903158104164,-0.9013824128370946,-0.12682468651684942,0.19796110822558943,0.19969206231667802,-0.776982700696472,0.375582107270243,-0.040869291680480924,-0.31651626497593544,-0.4403143582372462,0.352231715312078,0.8230290151255981,0.22662766049020067,0.6029607248792954,0.13244014765753098,-0.45360651260830576,0.3272661257014462,-0.1652227518665852,0.3061860538050012,0.26614699110147444,-0.870823745137596,0.573482978722319,-0.9310393486778681,-0.825477494079814,0.4006266958488278,0.858609673600957,-0.32315189356431206,-0.9282878451672587,0.8369052575970122,0.670808282777366,0.017846506632062775,-0.007133046432231893,-0.9472670848417071,-0.5343699478782369,0.541697054519459,0.172620115292359,-0.3827562834306759,0.309775170062492,0.9724168183050637,0.29517996659855106,0.20595747145578502,0.936233759920142,-0.8300762741111123,-0.2783405179323155,0.062222951303434915,-0.744243880799399,-0.7093579451150558,0.7841019754777558,0.8137484454999726,-0.8801853084433353,0.972777257608016,-0.7215156073970563,0.7480146020129839,0.581294781057395,0.7025765242377766,-0.3030726462979254,0.5003274825876085,-0.4877335132071574,-0.3876155992352548,-0.6552902447948479,0.7438838936754091,-0.39260575373162854,0.16936497295315722,0.5891577664759178,0.7364020947980832,-0.1559717207971223,-0.2117100855703693,0.8314510900043701,-0.10189607350893604,0.8243363476358723,0.8686692471757207,-0.9220392373367463,-0.18955742259265596,-0.5947307890756248,-0.7938509398580604,0.34701727745813815,0.4509784497834428,-0.9592972016489836,0.9725149480053219,-0.643804689808531,-0.9551911093826353,0.16295804728206753,0.7507205850211287,-0.1854278822911566,-0.07337633916388064,-0.3370781530970439,0.8874540402789528,-0.6255371001642889,-0.006037261693307983,-0.268339612050444,-0.21091257529471363,-0.13848258264444047,0.15119823890615236,-0.1259166856379692,0.6785335256027438,0.9435445459222012,-0.9449437488942876,-0.2055840093816228,0.5600730545052228,0.92895897354741,0.7994268530387159,-0.9469074754565268,-0.4194260914668815,0.04700168556799422,-0.9980410338142753,0.7701498500628736
19.78672114922108,0.7185738646573763,0.4815624336471045,-0.9545996280676912,0.7635259861514498,-0.604459414572466,0.731615188935163,0.6550873533266157,-0.3996257261071252,-0.8260379313017256,0.918970486036123,-0.874025942030328,-0.02378013496576914,-0.47003120211941796,-0.5414562484225036,-0.39381586453225803,0.9655133004578547,0.10153951111292825,0.8348896105629764,-0.8302317679158941,0.28853999427489807,-0.2724348297501584,0.7435849529815959,0.24477041104047426,0.21647993205225613,0.37484951858069326,-0.920962120389186,0.31620797200690975,0.4874198076927645,-0.7383637322115293,0.9561192365664333,-0.6436370339873314,0.6389585902946238,0.48203546401285324,-0.4995324719591565,0.16674979377574428,-0.4376492157732996,0.5356495714562961,-0.4326593923255768,-0.46898990276152674,0.7276234870271165,0.880565067333583,-0.7409010235514735,0.641434089984092,0.4901217566641025,0.8306980788517644,-0.9483878088405315,-0.5211255305538665,-0.4058944079199802,0.5463863458945564,-0.49642877611467373,-0.11300789685822821,0.6684236946829132,0.020537515227672776,-0.34131650409398917,0.6137628341807513,-0.00823571402993828,0.8425342988621598,0.7661784240432119,-0.46132292342915826,-0.483735766402009,0.7121878670879289,0.26033569503006015,0.07979064536806613,-0.822667394706543,0.23768570178535597,0.6420433987866889,-0.026125830959166985,-0.9920682147588205,0.06975556236588609,-0.4188380497956279,0.5501495621911032,0.6659337187086161,0.2913836581543343,-0.5112228841946795,0.6184546935869566,0.40111257672398914,0.476611863015449,0.4480348914300212,0.9205991292428186,-0.3297272812055454,-0.8512194704531215,0.08552787422645425,0.864804611577235,0.9953416649751914,-0.06596904636493317,-0.07399705865206196,-0.019423112793164332,0.03455754291231883,0.9926454601845074,0.18985166710294288,-0.7030303715591637,0.5592688577424432,0.9807623099262677,-0.9004095284168583,-0.3447436291437749,0.745813274267713,0.9879383760386529,-0.8093493141644246,-0.8261423543366726,-0.8216163470700244,-0.5160263111982677,-0.8638037634886981,0.3844737282401052,0.9637200146287637,-0.47487850448459556,0.5660052366626325,0.03079576558580377,0.31192092932387516,-0.04790576644392597,-0.46522367198654524,-0.7316237732691675,-0.9355278973468588,-0.574029696044253,0.008891048450056616,0.30795211009222556,-0.5572810006750368,0.422238966591695,-0.7001325513094647,-0.2832015432666024,0.6971409113295657,-0.7606296398846466,-0.16855941524300255,0.6594071520232823,0.6859729789573217,-0.6128847641902861,0.662157953225379,0.38899901146875293,-0.05806893761666565,0.45720116267813427,0.9763539503721337,0.6124886032714596,-0.5736058112528049,-0.41730617678171744,-0.1640980773520302,0.2563954672393558,-0.7604442880560047,0.06087291318338117,-0.6103509352424183,0.6315996261668273,-0.46619045750343036,-0.6332319258137094,-0.8336359607152546,0.5018484703400345,0.7357588204257142,0.3127796983786282,-0.2195025200910934,-0.3845405508674107,0.5758015985151408,0.622854666215898,-0.5491906939423346,0.8663195520139118,-0.8264697773144662,0.8296602342264809,-0.7718272038323679,-0.18892445173968664,0.2284748554784708,0.6120841132888806,-0.040531896379048415,0.7770123450394912,-0.3692903158104164,-0.9013824128370946,-0.12682468651684942,0.19796110822558943,0.19969206231667802,-0.776982700696472,0.375582107270243,-0.040869291680480924,-0.31651626497593544,-0.4403143582372462,0.352231715312078,0.8230290151255981,0.22662766049020067,0.6029607248792954,0.13244014765753098,-0.45360651260830576,0.3272661257014462,-0.1652227518665852,0.3061860538050012,0.26614699110147444,-0.870823745137596,0.573482978722319,-0.9310393486778681,-0.825477494079814,0.4006266958488278,0.858609673600957,-0.32315189356431206,-0.9282878451672587,0.8369052575970122,0.670808282777366,0.017846506632062775,-0.007133046432231893,-0.9472670848417071,-0.5343699478782369,0.541697054519459,0.172620115292359,-0.3827562834306759,0.309775170062492,0.9724168183050637,0.29517996659855106,0.20595747145578502,0.936233759920142,-0.8300762741111123,-0.2783405179323155,0.062222951303434915,-0.744243880799399,-0.7093579451150558,0.7841019754777558,0.8137484454999726,-0.8801853084433353,0.972777257608016,-0.7215156073970563,0.7480146020129839,0.581294781057395,0.7025765242377766,-0.3030726462979254,0.5003274825876085,-0.4877335132071574,-0.3876155992352548,-0.6552902447948479,0.7438838936754091,-0.39260575373162854,0.16936497295315722,0.5891577664759178,0.7364020947980832,-0.1559717207971223,-0.2117100855703693,0.8314510900043701,-0.10189607350893604,0.8243363476358723,0.8686692471757207,-0.9220392373367463,-0.18955742259265596,-0.5947307890756248,-0.7938509398580604,0.34701727745813815,0.4509784497834428,-0.9592972016489836,0.9725149480053219,-0.643804689808531,-0.9551911093826353,0.16295804728206753,0.7507205850211287,-0.1854278822911566,-0.07337633916388064,-0.3370781530970439,0.8874540402789528,-0.6255371001642889,-0.006037261693307983,-0.268339612050444,-0.21091257529471363,-0.13848258264444047,0.15119823890615236,-0.1259166856379692,0.6785335256027438,0.9435445459222012,-0.9449437488942876,-0.2055840093816228,0.5600730545052228,0.92895897354741,0.7994268530387159,-0.9469074754565268,-0.4194260914668815,0.04700168556799422,-0.9980410338142753,0.7701498500628736
19.932440239448592,0.7185738646573763,0.4815624336471045,-0.9545996280676912,0.7635259861514498,-0.604459414572466,0.731615188935163,0.6550873533266157,-0.3996257261071252,-0.8260379313017256,0.918970486036123,-0.874025942030328,-0.02378013496576914,-0.47003120211941796,-0.5414562484225036,-0.39381586453225803,0.9655133004578547,0.10153951111292825,0.8348896105629764,-0.8302317679158941,0.28853999427489807,-0.2724348297501584,0.7435849529815959,0.24477041104047426,0.21647993205225613,0.37484951858069326,-0.920962120389186,0.31620797200690975,0.4874198076927645,-0.7383637322115293,0.9561192365664333,-0.6436370339873314,0.6389585902946238,0.48203546401285324,-0.4995324719591565,0.16674979377574428,-0.4376492157732996,0.5356495714562961,-0.4326593923255768,-0.46898990276152674,0.7276234870271165,0.880565067333583,-0.7409010235514735,0.641434089984092,0.4901217566641025,0.5970236676207197,-0.9483878088405315,-0.5211255305538665,-0.4058944079199802,0.5463863458945564,-0.49642877611467373,-0.11300789685822821,0.6684236946829132,0.020537515227672776,-0.34131650409398917,0.6137628341807513,-0.00823571402993828,0.8425342988621598,0.7661784240432119,-0.46132292342915826,-0.483735766402009,0.7121878670879289,0.26033569503006015,0.07979064536806613,-0.822667394706543,0.23768570178535597,0.6420433987866889,-0.026125830959166985,-0.9920682147588205,0.06975556236588609,-0.4188380497956279,0.5501495621911032,0.6659337187086161,0.2913836581543343,-0.5112228841946795,0.6184546935869566,0.40111257672398914,0.476611863015449,0.4480348914300212,0.9205991292428186,-0.3297272812055454,-0.8512194704531215,0.08552787422645425,0.864804611577235,0.9953416649751914,-0.06596904636493317,-0.07399705865206196,-0.019423112793164332,0.03455754291231883,0.9926454601845074,0.18985166710294288,-0.7030303715591637,0.5592688577424432,0.9807623099262677,-0.9004095284168583,-0.3447436291437749,0.745813274267713,0.9879383760386529,-0.8093493141644246,-0.8261423543366726,-0.8216163470700244,-0.5160263111982677,-0.8638037634886981,0.3844737282401052,0.9637200146287637,0.17891329967999536,0.5660052366626325,0.03079576558580377,0.31192092932387516,-0.04790576644392597,-0.46522367198654524,-0.7316237732691675,-0.9355278973468588,-0.574029696044253,-0.5136817842878303,0.30795211009222556,-0.5572810006750368,0.422238966591695,-0.7001325513094647,-0.2832015432666024,0.6971409113295657,-0.7606296398846466,-0.16855941524300255,0.6594071520232823,0.6859729789573217,-0.6128847641902861,0.662157953225379,0.38899901146875293,-0.05806893761666565,0.45720116267813427,0.9763539503721337,0.6124886032714596,-0.5736058112528049,-0.41730617678171744,-0.1640980773520302,0.2563954672393558,-0.7604442880560047,0.06087291318338117,-0.6103509352424183,0.6315996261668273,-0.46619045750343036,-0.6332319258137094,-0.8336359607152546,0.5018484703400345,0.7357588204257142,0.3127796983786282,-0.2195025200910934,-0.3845405508674107,0.5758015985151408,0.622854666215898,-0.5491906939423346,0.8663195520139118,-0.8264697773144662,0.8296602342264809,-0.7718272038323679,-0.18892445173968664,0.697644158080083,0.6120841132888806,-0.040531896379048415,0.7770123450394912,-0.3692903158104164,-0.9013824128370946,-0.12682468651684942,0.19796110822558943,0.19969206231667802,-0.776982700696472,0.375582107270243,-0.040869291680480924,-0.31651626497593544,-0.4403143582372462,0.352231715312078,0.8230290151255981,0.22662766049020067,0.6029607248792954,0.13244014765753098,-0.45360651260830576,0.3272661257014462,-0.1652227518665852,0.3061860538050012,0.26614699110147444,-0.870823745137596,0.573482978722319,-0.9310393486778681,-0.825477494079814,0.4006266958488278,0.858609673600957,-0.32315189356431206,-0.9282878451672587,0.8369052575970122,0.670808282777366,0.017846506632062775,-0.007133046432231893,-0.9472670848417071,-0.5343699478782369,0.541697054519459,0.172620115292359,-0.3827562834306759,0.309775170062492,0.9724168183050637,0.29517996659855106,0.20595747145578502,0.936233759920142,-0.8300762741111123,-0.2783405179323155,0.062222951303434915,-0.744243880799399,-0.7093579451150558,0.7841019754777558,0.8137484454999726,-0.8801853084433353,0.972777257608016,-0.7215156073970563,0.7480146020129839,0.581294781057395,0.7025765242377766,-0.3030726462979254,0.5003274825876085,-0.4877335132071574,-0.3876155992352548,-0.6552902447948479,0.7438838936754091,-0.39260575373162854,0.16936497295315722,0.5891577664759178,0.7364020947980832,0.39789170670277807,-0.2117100855703693,0.8314510900043701,-0.10189607350893604,0.8243363476358723,0.8686692471757207,-0.9220392373367463,-0.18955742259265596,-0.5947307890756248,-0.7938509398580604,0.09109888929413534,0.4509784497834428,-0.9592972016489836,0.9725149480053219,-0.643804689808531,-0.9551911093826353,0.16295804728206753,0.7507205850211287,-0.1854278822911566,-0.07337633916388064,-0.3370781530970439,0.8874540402789528,-0.6255371001642889,-0.006037261693307983,-0.268339612050444,-0.21091257529471363,-0.13848258264444047,0.15119823890615236,-0.1259166856379692,0.6785335256027438,0.9435445459222012,-0.9449437488942876,-0.2055840093816228,0.5600730545052228,0.92895897354741,0.7994268530387159,-0.9469074754565268,-0.4194260914668815,0.04700168556799422,-0.9980410338142753,0.7701498500628736
20.878146513943193,0.7185738646573763,0.31430885548897436,-0.9545996280676912,0.7635259861514498,-0.604459414572466,0.731615188935163,0.6550873533266157,-0.3996257261071252,-0.8260379313017256,0.918970486036123,-0.874025942030328,-0.02378013496576914,-0.47003120211941796,-0.5414562484225036,-0.6058946732357682,0.9655133004578547,0.10153951111292825,0.8348896105629764,-0.8302317679158941,0.28853999427489807,-0.5002251129044448,0.7435849529815959,0.24477041104047426,0.21647993205225613,0.37484951858069326,-0.920962120389186,0.31620797200690975,0.4874198076927645,-0.7383637322115293,0.9561192365664333,-0.6436370339873314,0.6389585902946238,0.48203546401285324,-0.4995324719591565,0.16674979377574428,-0.4376492157732996,0.5356495714562961,-0.4326593923255768,-0.46898990276152674,0.7276234870271165,0.880565067333583,-0.7409010235514735,0.641434089984092,0.4901217566641025,0.8306980788517644,-0.9483878088405315,-0.5211255305538665,-0.4058944079199802,0.96243314769734,-0.8079934259466657,-0.11300789685822821,0.6684236946829132,0.020537515227672776,0.04267119796226981,0.6137628341807513,-0.00823571402993828,0.8425342988621598,0.7661784240432119,-0.46132292342915826,-0.483735766402009,0.7121878670879289,0.26033569503006015,0.07979064536806613,-0.822667394706543,0.23768570178535597,0.6420433987866889,-0.026125830959166985,-0.9920682147588205,0.06975556236588609,-0.4188380497956279,0.5501495621911032,0.6659337187086161,-0.5215279520176253,-0.5112228841946795,0.6184546935869566,0.40111257672398914,0.476611863015449,0.4480348914300212,0.9205991292428186,-0.3297272812055454,-0.8512194704531215,0.08552787422645425,0.864804611577235,0.9953416649751914,-0.06596904636493317,-0.07399705865206196,-0.019423112793164332,0.03455754291231883,0.9926454601845074,0.18985166710294288,-0.7030303715591637,0.5592688577424432,0.9807623099262677,-0.9004095284168583,-0.3447436291437749,-0.3152987166043961,0.9879383760386529,-0.8093493141644246,-0.8261423543366726,-0.8216163470700244,-0.5160263111982677,-0.8638037634886981,0.3844737282401052,0.9637200146287637,-0.47487850448459556,0.5660052366626325,0.03079576558580377,0.31192092932387516,-0.04790576644392597,-0.46522367198654524,-0.7316237732691675,-0.9355278973468588,-0.574029696044253,0.008891048450056616,0.30795211009222556,-0.5572810006750368,0.7513609846926572,-0.7001325513094647,-0.2832015432666024,0.6971409113295657,-0.7606296398846466,-0.16855941524300255,0.6594071520232823,0.6859729789573217,-0.6128847641902861,0.662157953225379,0.38899901146875293,-0.05806893761666565,0.45720116267813427,0.9763539503721337,0.6124886032714596,-0.5811787183442207,-0.41730617678171744,-0.1640980773520302,0.3951119908042875,-0.7604442880560047,0.06087291318338117,-0.6103509352424183,0.6315996261668273,-0.46619045750343036,-0.6332319258137094,-0.8336359607152546,0.5018484703400345,0.7357588204257142,0.3127796983786282,-0.9634460014196005,-0.3845405508674107,0.5758015985151408,0.622854666215898,-0.5491906939423346,0.8663195520139118,-0.8264697773144662,0.8296602342264809,-0.7718272038323679,-0.18892445173968664,0.2284748554784708,0.6120841132888806,-0.040531896379048415,0.7770123450394912,-0.3692903158104164,-0.9013824128370946,-0.12682468651684942,0.19796110822558943,0.19969206231667802,-0.776982700696472,0.375582107270243,-0.040869291680480924,-0.31651626497593544,-0.4403143582372462,0.657428582997081,0.8230290151255981,0.22662766049020067,0.6029607248792954,0.13244014765753098,-0.45360651260830576,0.3272661257014462,-0.1652227518665852,0.3061860538050012,0.26614699110147444,-0.870823745137596,0.573482978722319,-0.9310393486778681,-0.8421223559796918,0.4006266958488278,0.858609673600957,-0.32315189356431206,-0.9282878451672587,0.8369052575970122,0.670808282777366,0.017846506632062775,-0.007133046432231893,-0.9472670848417071,-0.5343699478782369,0.541697054519459,0.172620115292359,-0.3827562834306759,0.309775170062492,0.9724168183050637,0.29517996659855106,0.20595747145578502,0.936233759920142,-0.8300762741111123,-0.2783405179323155,0.062222951303434915,-0.744243880799399,-0.7792713576683128,0.7841019754777558,0.8137484454999726,-0.8801853084433353,0.972777257608016,-0.7215156073970563,0.7480146020129839,0.581294781057395,0.7025765242377766,-0.3030726462979254,0.5003274825876085,-0.4877335132071574,-0.3876155992352548,-0.6552902447948479,-0.15162939401512032,-0.39260575373162854,0.16936497295315722,0.5891577664759178,0.7364020947980832,-0.1559717207971223,-0.2117100855703693,0.8314510900043701,-0.10189607350893604,0.8243363476358723,0.8686692471757207,-0.9220392373367463,-0.18955742259265596,-0.5947307890756248,-0.7938509398580604,0.34701727745813815,0.4509784497834428,-0.9592972016489836,0.9725149480053219,-0.643804689808531,-0.9390637747917838,-0.7529058020822386,0.7507205850211287,-0.1854278822911566,-0.07337633916388064,-0.3370781530970439,0.8874540402789528,-0.6255371001642889,-0.006037261693307983,-0.268339612050444,-0.21091257529471363,0.7892973302373549,0.15119823890615236,-0.1259166856379692,0.6785335256027438,0.9435445459222012,0.23842913206675576,-0.2055840093816228,0.5600730545052228,0.92895897354741,0.7994268530387159,-0.9469074754565268,-0.4194260914668815,0.04700168556799422,-0.9980410338142753,0.7701498500628736
23.9171837125675,0.7185738646573763,0.4815624336471045,-0.9545996280676912,0.7635259861514498,-0.604459414572466,0.731615188935163,0.6550873533266157,-0.3996257261071252,-0.8260379313017256,0.918970486036123,-0.874025942030328,-0.02378013496576914,-0.47003120211941796,-0.5414562484225036,-0.6058946732357682,0.9655133004578547,0.10153951111292825,0.8348896105629764,-0.8302317679158941,0.28853999427489807,-0.2724348297501584,0.7435849529815959,0.24477041104047426,0.21647993205225613,0.37484951858069326,-0.920962120389186,0.31620797200690975,0.4874198076927645,-0.7383637322115293,0.9561192365664333,-0.6436370339873314,0.2486343203836594,-0.21139650927211773,0.4398244105063276,0.8080809568984149,-0.9006950440021,-0.20300623422176467,-0.7214032096122567,0.7844028069997986,-0.9546190516690385,-0.4743348719548015,0.7814659337036136,0.5031710222355319,0.7685897887433717,0.5393552601393474,-0.7722688402025084,-0.05714737231882294,0.7286347212837627,-0.17089789721605042,-0.6480214180838426,0.1886699544481958,-0.9813910074531123,0.03861171354448012,0.1851974540193797,-0.4825067926669333,-0.45934814833275284,0.4028841383636488,0.8279529131199765,-0.5910056664200749,-0.23134481682283115,0.12063345084571875,0.23575193190338672,-0.4099682523745445,0.850605335438656,0.49477853180853115,0.10829538715391185,-0.6807656125891832,-0.6456501224442079,0.7695754215895796,0.14727583779620979,-0.5288467458847572,-0.17205651208924921,0.48898147173881545,-0.7958281761435124,0.1327991694759616,0.6571693472354241,0.8035206600989857,0.735541842862586,0.9257032337524658,0.22941769790098054,0.7122204018377791,0.3157419737337206,0.8536165918057816,-0.49368527470614176,0.968461670592172,-0.15050287554617814,-0.019423112793164332,-0.33076842563611986,0.9926454601845074,0.18985166710294288,-0.7030303715591637,0.17686700051442306,0.9807623099262677,-0.9004095284168583,-0.3447436291437749,0.745813274267713,0.9879383760386529,-0.8093493141644246,-0.8261423543366726,-0.8216163470700244,-0.5160263111982677,-0.8638037634886981,0.3844737282401052,0.9637200146287637,-0.47487850448459556,0.5660052366626325,0.03079576558580377,0.31192092932387516,-0.04790576644392597,-0.46522367198654524,-0.7316237732691675,-0.9355278973468588,-0.574029696044253,0.008891048450056616,0.4510734129569616,-0.5572810006750368,0.7513609846926572,-0.7001325513094647,-0.2832015432666024,0.6971409113295657,-0.7606296398846466,-0.16855941524300255,0.5684356423556047,0.6859729789573217,-0.6128847641902861,0.662157953225379,0.38899901146875293,-0.05806893761666565,0.45720116267813427,0.9763539503721337,0.6124886032714596,-0.5736058112528049,-0.41730617678171744,-0.1640980773520302,0.3951119908042875,-0.7604442880560047,0.06087291318338117,-0.6103509352424183,0.6315996261668273,-0.46619045750343036,-0.6332319258137094,-0.8336359607152546,0.5018484703400345,0.7357588204257142,0.3127796983786282,-0.2195025200910934,0.3404111565271952,0.5758015985151408,0.622854666215898,-0.5491906939423346,0.8663195520139118,-0.8264697773144662,0.8296602342264809,-0.7718272038323679,-0.18892445173968664,0.2284748554784708,-0.5963474471901995,-0.040531896379048415,0.7770123450394912,-0.3692903158104164,-0.9013824128370946,-0.12682468651684942,0.19796110822558943,0.8085679987094561,-0.776982700696472,0.375582107270243,-0.040869291680480924,-0.31651626497593544,-0.0383696393866213,0.657428582997081,0.8230290151255981,0.22662766049020067,0.6029607248792954,0.13244014765753098,-0.45360651260830576,0.3272661257014462,-0.1652227518665852,0.3061860538050012,0.26614699110147444,-0.870823745137596,0.573482978722319,-0.9310393486778681,-0.8421223559796918,0.4006266958488278,0.858609673600957,-0.32315189356431206,-0.9282878451672587,0.8369052575970122,0.670808282777366,0.017846506632062775,-0.007133046432231893,-0.9472670848417071,-0.5343699478782369,0.541697054519459,0.172620115292359,-0.3827562834306759,0.309775170062492,0.9724168183050637,0.29517996659855106,0.20595747145578502,0.936233759920142,0.5249176848769044,-0.2783405179323155,0.009420263990412181,-0.744243880799399,-0.7093579451150558,0.7841019754777558,0.8137484454999726,-0.8801853084433353,0.972777257608016,-0.7215156073970563,0.7480146020129839,0.581294781057395,0.7025765242377766,-0.3030726462979254,0.5003274825876085,-0.4877335132071574,-0.3876155992352548,-0.6552902447948479,0.7438838936754091,-0.39260575373162854,0.16936497295315722,0.5891577664759178,0.7364020947980832,-0.1559717207971223,-0.2117100855703693,0.8314510900043701,-0.10189607350893604,-0.05646050825809068,0.8686692471757207,-0.9220392373367463,-0.18955742259265596,-0.5947307890756248,-0.7938509398580604,0.34701727745813815,0.4509784497834428,-0.9592972016489836,0.9725149480053219,-0.643804689808531,-0.9551911093826353,0.16295804728206753,0.7507205850211287,-0.1854278822911566,-0.318827160052255,-0.3370781530970439,0.8874540402789528,-0.6255371001642889,0.558105864408458,0.4390802533598548,-0.09442815390727644,-0.5938624980163805,-0.526550600980312,-0.4692036234641854,0.4110207131811814,0.2969648974554844,-0.8487666840100752,-0.9018901024438346,0.47121965963955526,0.92895897354741,0.7994268530387159,-0.9469074754565268,-0.4194260914668815,0.04700168556799422,-0.9980410338142753,0.7701498500628736
23.9171837125675,0.7185738646573763,0.4815624336471045,-0.9545996280676912,0.7635259861514498,-0.604459414572466,0.731615188935163,0.6550873533266157,-0.3996257261071252,-0.8260379313017256,0.918970486036123,-0.874025942030328,-0.02378013496576914,-0.47003120211941796,-0.5414562484225036,-0.6058946732357682,0.9655133004578547,0.10153951111292825,0.8348896105629764,-0.8302317679158941,0.28853999427489807,-0.2724348297501584,0.7435849529815959,0.24477041104047426,0.21647993205225613,0.37484951858069326,-0.920962120389186,0.31620797200690975,0.4874198076927645,-0.7383637322115293,0.9561192365664333,-0.6436370339873314,0.2486343203836594,-0.21139650927211773,0.4398244105063276,0.8080809568984149,-0.9006950440021,-0.20300623422176467,-0.7214032096122567,0.7844028069997986,-0.9546190516690385,-0.4743348719548015,0.7814659337036136,0.5031710222355319,0.7685897887433717,0.5393552601393474,-0.7722688402025084,-0.05714737231882294,0.7286347212837627,-0.17089789721605042,-0.6480214180838426,0.1886699544481958,-0.9813910074531123,0.03861171354448012,0.1851974540193797,-0.4825067926669333,-0.45934814833275284,0.4028841383636488,0.8279529131199765,-0.5910056664200749,-0.23134481682283115,0.12063345084571875,0.23575193190338672,-0.4099682523745445,0.850605335438656,0.49477853180853115,0.10829538715391185,-0.6807656125891832,-0.6456501224442079,0.7695754215895796,0.14727583779620979,-0.5288467458847572,-0.17205651208924921,0.48898147173881545,-0.7958281761435124,0.1327991694759616,0.6571693472354241,0.8035206600989857,0.735541842862586,0.9257032337524658,0.22941769790098054,0.7122204018377791,0.3157419737337206,0.8536165918057816,-0.49368527470614176,0.968461670592172,-0.15050287554617814,-0.019423112793164332,-0.33076842563611986,0.9926454601845074,0.18985166710294288,-0.7030303715591637,0.17686700051442306,0.9807623099262677,-0.9004095284168583,-0.3447436291437749,0.745813274267713,0.9879383760386529,-0.8093493141644246,-0.8261423543366726,-0.8216163470700244,-0.5160263111982677,-0.8638037634886981,0.3844737282401052,0.9637200146287637,-0.47487850448459556,0.5660052366626325,0.03079576558580377,0.31192092932387516,-0.04790576644392597,-0.46522367198654524,-0.7316237732691675,-0.9355278973468588,-0.574029696044253,0.008891048450056616,0.4510734129569616,-0.5572810006750368,0.7513609846926572,-0.7001325513094647,-0.2832015432666024,0.6971409113295657,-0.7606296398846466,-0.16855941524300255,0.5684356423556047,0.6859729789573217,-0.6128847641902861,0.662157953225379,0.38899901146875293,-0.05806893761666565,0.45720116267813427,0.9763539503721337,0.6124886032714596,-0.5736058112528049,-0.41730617678171744,-0.1640980773520302,0.3951119908042875,-0.7604442880560047,0.06087291318338117,-0.6103509352424183,0.6315996261668273,-0.46619045750343036,-0.6332319258137094,-0.8336359607152546,0.5018484703400345,0.7357588204257142,0.3127796983786282,-0.2195025200910934,0.3404111565271952,0.5758015985151408,0.622854666215898,-0.5491906939423346,0.8663195520139118,-0.8264697773144662,0.8296602342264809,-0.7718272038323679,-0.18892445173968664,0.2284748554784708,-0.5963474471901995,-0.040531896379048415,0.7770123450394912,-0.3692903158104164,-0.9013824128370946,-0.12682468651684942,0.19796110822558943,0.8085679987094561,-0.776982700696472,0.375582107270243,-0.040869291680480924,-0.31651626497593544,-0.0383696393866213,0.657428582997081,0.8230290151255981,0.22662766049020067,0.6029607248792954,0.13244014765753098,-0.45360651260830576,0.3272661257014462,-0.1652227518665852,0.3061860538050012,0.26614699110147444,-0.870823745137596,0.573482978722319,-0.9310393486778681,-0.8421223559796918,0.4006266958488278,0.858609673600957,-0.32315189356431206,-0.9282878451672587,0.8369052575970122,0.670808282777366,0.017846506632062775,-0.007133046432231893,-0.9472670848417071,-0.5343699478782369,0.541697054519459,0.172620115292359,-0.3827562834306759,0.309775170062492,0.9724168183050637,0.29517996659855106,0.20595747145578502,0.936233759920142,0.5249176848769044,-0.2783405179323155,0.009420263990412181,-0.744243880799399,-0.7093579451150558,0.7841019754777558,0.8137484454999726,-0.8801853084433353,0.972777257608016,-0.7215156073970563,0.7480146020129839,0.581294781057395,0.7025765242377766,-0.3030726462979254,0.5003274825876085,-0.4877335132071574,-0.3876155992352548,-0.6552902447948479,0.7438838936754091,-0.39260575373162854,0.16936497295315722,0.5891577664759178,0.7364020947980832,-0.1559717207971223,-0.2117100855703693,0.8314510900043701,-0.10189607350893604,-0.05646050825809068,0.8686692471757207,-0.9220392373367463,-0.18955742259265596,-0.5947307890756248,-0.7938509398580604,0.34701727745813815,0.4509784497834428,-0.9592972016489836,0.9725149480053219,-0.643804689808531,-0.9551911093826353,0.16295804728206753,0.7507205850211287,-0.1854278822911566,-0.318827160052255,-0.3370781530970439,0.8874540402789528,-0.6255371001642889,0.558105864408458,0.4390802533598548,-0.09442815390727644,-0.5938624980163805,-0.526550600980312,-0.4692036234641854,0.4110207131811814,0.2969648974554844,-0.8487666840100752,-0.9018901024438346,0.47121965963955526,0.92895897354741,0.7994268530387159,-0.9469074754565268,-0.4194260914668815,0.04700168556799422,-0.9980410338142753,0.7701498500628736
23.9171837125675,0.7185738646573763,0.4815624336471045,-0.9545996280676912,0.7635259861514498,-0.604459414572466,0.731615188935163,0.6550873533266157,-0.3996257261071252,-0.8260379313017256,0.918970486036123,-0.874025942030328,-0.02378013496576914,-0.47003120211941796,-0.5414562484225036,-0.6058946732357682,0.9655133004578547,0.10153951111292825,0.8348896105629764,-0.8302317679158941,0.28853999427489807,-0.2724348297501584,0.7435849529815959,0.24477041104047426,0.21647993205225613,0.37484951858069326,-0.920962120389186,0.31620797200690975,0.4874198076927645,-0.7383637322115293,0.9561192365664333,-0.6436370339873314,0.2486343203836594,-0.21139650927211773,0.4398244105063276,0.8080809568984149,-0.9006950440021,-0.20300623422176467,-0.7214032096122567,0.7844028069997986,-0.9546190516690385,-0.4743348719548015,0.7814659337036136,0.5031710222355319,0.7685897887433717,0.5393552601393474,-0.7722688402025084,-0.05714737231882294,0.7286347212837627,-0.17089789721605042,-0.6480214180838426,0.1886699544481958,-0.9813910074531123,0.03861171354448012,0.1851974540193797,-0.4825067926669333,-0.45934814833275284,0.4028841383636488,0.8279529131199765,-0.5910056664200749,-0.23134481682283115,0.12063345084571875,0.23575193190338672,-0.4099682523745445,0.850605335438656,0.49477853180853115,0.10829538715391185,-0.6807656125891832,-0.6456501224442079,0.7695754215895796,0.14727583779620979,-0.5288467458847572,-0.17205651208924921,0.48898147173881545,-0.7958281761435124,0.1327991694759616,0.6571693472354241,0.8035206600989857,0.735541842862586,0.9257032337524658,0.22941769790098054,0.7122204018377791,0.3157419737337206,0.8536165918057816,-0.49368527470614176,0.968461670592172,-0.15050287554617814,-0.019423112793164332,-0.33076842563611986,0.9926454601845074,0.18985166710294288,-0.7030303715591637,0.17686700051442306,0.9807623099262677,-0.9004095284168583,-0.3447436291437749,0.745813274267713,0.9879383760386529,-0.8093493141644246,-0.8261423543366726,-0.8216163470700244,-0.5160263111982677,-0.8638037634886981,0.3844737282401052,0.9637200146287637,-0.47487850448459556,0.5660052366626325,0.03079576558580377,0.31192092932387516,-0.04790576644392597,-0.46522367198654524,-0.7316237732691675,-0.9355278973468588,-0.574029696044253,0.008891048450056616,0.4510734129569616,-0.5572810006750368,0.7513609846926572,-0.7001325513094647,-0.2832015432666024,0.6971409113295657,-0.7606296398846466,-0.16855941524300255,0.5684356423556047,0.6859729789573217,-0.6128847641902861,0.662157953225379,0.38899901146875293,-0.05806893761666565,0.45720116267813427,0.9763539503721337,0.6124886032714596,-0.5736058112528049,-0.41730617678171744,-0.1640980773520302,0.3951119908042875,-0.7604442880560047,0.06087291318338117,-0.6103509352424183,0.6315996261668273,-0.46619045750343036,-0.6332319258137094,-0.8336359607152546,0.5018484703400345,0.7357588204257142,0.3127796983786282,-0.2195025200910934,0.3404111565271952,0.5758015985151408,0.622854666215898,-0.5491906939423346,0.8663195520139118,-0.8264697773144662,0.8296602342264809,-0.7718272038323679,-0.18892445173968664,0.2284748554784708,-0.5963474471901995,-0.040531896379048415,0.7770123450394912,-0.3692903158104164,-0.9013824128370946,-0.12682468651684942,0.19796110822558943,0.8085679987094561,-0.776982700696472,0.375582107270243,-0.040869291680480924,-0.31651626497593544,-0.0383696393866213,0.657428582997081,0.8230290151255981,0.22662766049020067,0.6029607248792954,0.13244014765753098,-0.45360651260830576,0.3272661257014462,-0.1652227518665852,0.3061860538050012,0.26614699110147444,-0.870823745137596,0.573482978722319,-0.9310393486778681,-0.8421223559796918,0.4006266958488278,0.858609673600957,-0.32315189356431206,-0.9282878451672587,0.8369052575970122,0.670808282777366,0.017846506632062775,-0.007133046432231893,-0.9472670848417071,-0.5343699478782369,0.541697054519459,0.172620115292359,-0.3827562834306759,0.309775170062492,0.9724168183050637,0.29517996659855106,0.20595747145578502,0.936233759920142,0.5249176848769044,-0.2783405179323155,0.009420263990412181,-0.744243880799399,-0.7093579451150558,0.7841019754777558,0.8137484454999726,-0.8801853084433353,0.972777257608016,-0.7215156073970563,0.7480146020129839,0.581294781057395,0.7025765242377766,-0.3030726462979254,0.5003274825876085,-0.4877335132071574,-0.3876155992352548,-0.6552902447948479,0.7438838936754091,-0.39260575373162854,0.16936497295315722,0.5891577664759178,0.7364020947980832,-0.1559717207971223,-0.2117100855703693,0.8314510900043701,-0.10189607350893604,-0.05646050825809068,0.8686692471757207,-0.9220392373367463,-0.18955742259265596,-0.5947307890756248,-0.7938509398580604,0.34701727745813815,0.4509784497834428,-0.9592972016489836,0.9725149480053219,-0.643804689808531,-0.9551911093826353,0.16295804728206753,0.7507205850211287,-0.1854278822911566,-0.318827160052255,-0.3370781530970439,0.8874540402789528,-0.6255371001642889,0.558105864408458,0.4390802533598548,-0.09442815390727644,-0.5938624980163805,-0.526550600980312,-0.4692036234641854,0.4110207131811814,0.2969648974554844,-0.8487666840100752,-0.9018901024438346,0.47121965963955526,0.92895897354741,0.7994268530387159,-0.9469074754565268,-0.4194260914668815,0.04700168556799422,-0.9980410338142753,0.7701498500628736
23.9171837125675,0.7185738646573763,0.4815624336471045,-0.9545996280676912,0.7635259861514498,-0.604459414572466,0.731615188935163,0.6550873533266157,-0.3996257261071252,-0.8260379313017256,0.918970486036123,-0.874025942030328,-0.02378013496576914,-0.47003120211941796,-0.5414562484225036,-0.6058946732357682,0.9655133004578547,0.10153951111292825,0.8348896105629764,-0.8302317679158941,0.28853999427489807,-0.2724348297501584,0.7435849529815959,0.24477041104047426,0.21647993205225613,0.37484951858069326,-0.920962120389186,0.31620797200690975,0.4874198076927645,-0.7383637322115293,0.9561192365664333,-0.6436370339873314,0.2486343203836594,-0.21139650927211773,0.4398244105063276,0.8080809568984149,-0.9006950440021,-0.20300623422176467,-0.7214032096122567,0.7844028069997986,-0.9546190516690385,-0.4743348719548015,0.7814659337036136,0.5031710222355319,0.7685897887433717,0.5393552601393474,-0.7722688402025084,-0.05714737231882294,0.7286347212837627,-0.17089789721605042,-0.6480214180838426,0.1886699544481958,-0.9813910074531123,0.03861171354448012,0.1851974540193797,-0.4825067926669333,-0.45934814833275284,0.4028841383636488,0.8279529131199765,-0.5910056664200749,-0.23134481682283115,0.12063345084571875,0.23575193190338672,-0.4099682523745445,0.850605335438656,0.49477853180853115,0.10829538715391185,-0.6807656125891832,-0.6456501224442079,0.7695754215895796,0.14727583779620979,-0.5288467458847572,-0.17205651208924921,0.48898147173881545,-0.7958281761435124,0.1327991694759616,0.6571693472354241,0.8035206600989857,0.735541842862586,0.9257032337524658,0.22941769790098054,0.7122204018377791,0.3157419737337206,0.8536165918057816,-0.49368527470614176,0.968461670592172,-0.15050287554617814,-0.019423112793164332,-0.33076842563611986,0.9926454601845074,0.18985166710294288,-0.7030303715591637,0.17686700051442306,0.9807623099262677,-0.9004095284168583,-0.3447436291437749,0.745813274267713,0.9879383760386529,-0.8093493141644246,-0.8261423543366726,-0.8216163470700244,-0.5160263111982677,-0.8638037634886981,0.3844737282401052,0.9637200146287637,-0.47487850448459556,0.5660052366626325,0.03079576558580377,0.31192092932387516,-0.04790576644392597,-0.46522367198654524,-0.7316237732691675,-0.9355278973468588,-0.574029696044253,0.008891048450056616,0.4510734129569616,-0.5572810006750368,0.7513609846926572,-0.7001325513094647,-0.2832015432666024,0.6971409113295657,-0.7606296398846466,-0.16855941524300255,0.5684356423556047,0.6859729789573217,-0.6128847641902861,0.662157953225379,0.38899901146875293,-0.05806893761666565,0.45720116267813427,0.9763539503721337,0.6124886032714596,-0.5736058112528049,-0.41730617678171744,-0.1640980773520302,0.3951119908042875,-0.7604442880560047,0.06087291318338117,-0.6103509352424183,0.6315996261668273,-0.46619045750343036,-0.6332319258137094,-0.8336359607152546,0.5018484703400345,0.7357588204257142,0.3127796983786282,-0.2195025200910934,0.3404111565271952,0.5758015985151408,0.622854666215898,-0.5491906939423346,0.8663195520139118,-0.8264697773144662,0.8296602342264809,-0.7718272038323679,-0.18892445173968664,0.2284748554784708,-0.5963474471901995,-0.040531896379048415,0.7770123450394912,-0.3692903158104164,-0.9013824128370946,-0.12682468651684942,0.19796110822558943,0.8085679987094561,-0.776982700696472,0.375582107270243,-0.040869291680480924,-0.31651626497593544,-0.0383696393866213,0.657428582997081,0.8230290151255981,0.22662766049020067,0.6029607248792954,0.13244014765753098,-0.45360651260830576,0.3272661257014462,-0.1652227518665852,0.3061860538050012,0.26614699110147444,-0.870823745137596,0.573482978722319,-0.9310393486778681,-0.8421223559796918,0.4006266958488278,0.858609673600957,-0.32315189356431206,-0.9282878451672587,0.8369052575970122,0.670808282777366,0.017846506632062775,-0.007133046432231893,-0.9472670848417071,-0.5343699478782369,0.541697054519459,0.172620115292359,-0.3827562834306759,0.309775170062492,0.9724168183050637,0.29517996659855106,0.20595747145578502,0.936233759920142,0.5249176848769044,-0.2783405179323155,0.009420263990412181,-0.744243880799399,-0.7093579451150558,0.7841019754777558,0.8137484454999726,-0.8801853084433353,0.972777257608016,-0.7215156073970563,0.7480146020129839,0.581294781057395,0.7025765242377766,-0.3030726462979254,0.5003274825876085,-0.4877335132071574,-0.3876155992352548,-0.6552902447948479,0.7438838936754091,-0.39260575373162854,0.16936497295315722,0.5891577664759178,0.7364020947980832,-0.1559717207971223,-0.2117100855703693,0.8314510900043701,-0.10189607350893604,-0.05646050825809068,0.8686692471757207,-0.9220392373367463,-0.18955742259265596,-0.5947307890756248,-0.7938509398580604,0.34701727745813815,0.4509784497834428,-0.9592972016489836,0.9725149480053219,-0.643804689808531,-0.9551911093826353,0.16295804728206753,0.7507205850211287,-0.1854278822911566,-0.318827160052255,-0.3370781530970439,0.8874540402789528,-0.6255371001642889,0.558105864408458,0.4390802533598548,-0.09442815390727644,-0.5938624980163805,-0.526550600980312,-0.4692036234641854,0.4110207131811814,0.2969648974554844,-0.8487666840100752,-0.9018901024438346,0.47121965963955526,0.92895897354741,0.7994268530387159,-0.9469074754565268,-0.4194260914668815,0.04700168556799422,-0.9980410338142753,0.7701498500628736
23.9171837125675,0.7185738646573763,0.4815624336471045,-0.9545996280676912,0.7635259861514498,-0.604459414572466,0.731615188935163,0.6550873533266157,-0.3996257261071252,-0.8260379313017256,0.918970486036123,-0.874025942030328,-0.02378013496576914,-0.47003120211941796,-0.5414562484225036,-0.6058946732357682,0.9655133004578547,0.10153951111292825,0.8348896105629764,-0.8302317679158941,0.28853999427489807,-0.2724348297501584,0.7435849529815959,0.24477041104047426,0.21647993205225613,0.37484951858069326,-0.920962120389186,0.31620797200690975,0.4874198076927645,-0.7383637322115293,0.9561192365664333,-0.6436370339873314,0.2486343203836594,-0.21139650927211773,0.4398244105063276,0.8080809568984149,-0.9006950440021,-0.20300623422176467,-0.7214032096122567,0.7844028069997986,-0.9546190516690385,-0.4743348719548015,0.7814659337036136,0.5031710222355319,0.7685897887433717,0.5393552601393474,-0.7722688402025084,-0.05714737231882294,0.7286347212837627,-0.17089789721605042,-0.6480214180838426,0.1886699544481958,-0.9813910074531123,0.03861171354448012,0.1851974540193797,-0.4825067926669333,-0.45934814833275284,0.4028841383636488,0.8279529131199765,-0.5910056664200749,-0.23134481682283115,0.12063345084571875,0.23575193190338672,-0.4099682523745445,0.850605335438656,0.49477853180853115,0.10829538715391185,-0.6807656125891832,-0.6456501224442079,0.7695754215895796,0.14727583779620979,-0.5288467458847572,-0.17205651208924921,0.48898147173881545,-0.7958281761435124,0.1327991694759616,0.6571693472354241,0.8035206600989857,0.735541842862586,0.9257032337524658,0.22941769790098054,0.7122204018377791,0.3157419737337206,0.8536165918057816,-0.49368527470614176,0.968461670592172,-0.15050287554617814,-0.019423112793164332,-0.33076842563611986,0.9926454601845074,0.18985166710294288,-0.7030303715591637,0.17686700051442306,0.9807623099262677,-0.9004095284168583,-0.3447436291437749,0.745813274267713,0.9879383760386529,-0.8093493141644246,-0.8261423543366726,-0.8216163470700244,-0.5160263111982677,-0.8638037634886981,0.3844737282401052,0.9637200146287637,-0.47487850448459556,0.5660052366626325,0.03079576558580377,0.31192092932387516,-0.04790576644392597,-0.46522367198654524,-0.7316237732691675,-0.9355278973468588,-0.574029696044253,0.008891048450056616,0.4510734129569616,-0.5572810006750368,0.7513609846926572,-0.7001325513094647,-0.2832015432666024,0.6971409113295657,-0.7606296398846466,-0.16855941524300255,0.5684356423556047,0.6859729789573217,-0.6128847641902861,0.662157953225379,0.38899901146875293,-0.05806893761666565,0.45720116267813427,0.9763539503721337,0.6124886032714596,-0.5736058112528049,-0.41730617678171744,-0.1640980773520302,0.3951119908042875,-0.7604442880560047,0.06087291318338117,-0.6103509352424183,0.6315996261668273,-0.46619045750343036,-0.6332319258137094,-0.8336359607152546,0.5018484703400345,0.7357588204257142,0.3127796983786282,-0.2195025200910934,0.3404111565271952,0.5758015985151408,0.622854666215898,-0.5491906939423346,0.8663195520139118,-0.8264697773144662,0.8296602342264809,-0.7718272038323679,-0.18892445173968664,0.2284748554784708,-0.5963474471901995,-0.040531896379048415,0.7770123450394912,-0.3692903158104164,-0.9013824128370946,-0.12682468651684942,0.19796110822558943,0.8085679987094561,-0.776982700696472,0.375582107270243,-0.040869291680480924,-0.31651626497593544,-0.0383696393866213,0.657428582997081,0.8230290151255981,0.22662766049020067,0.6029607248792954,0.13244014765753098,-0.45360651260830576,0.3272661257014462,-0.1652227518665852,0.3061860538050012,0.26614699110147444,-0.870823745137596,0.573482978722319,-0.9310393486778681,-0.8421223559796918,0.4006266958488278,0.858609673600957,-0.32315189356431206,-0.9282878451672587,0.8369052575970122,0.670808282777366,0.017846506632062775,-0.007133046432231893,-0.9472670848417071,-0.5343699478782369,0.541697054519459,0.172620115292359,-0.3827562834306759,0.309775170062492,0.9724168183050637,0.29517996659855106,0.20595747145578502,0.936233759920142,0.5249176848769044,-0.2783405179323155,0.009420263990412181,-0.744243880799399,-0.7093579451150558,0.7841019754777558,0.8137484454999726,-0.8801853084433353,0.972777257608016,-0.7215156073970563,0.7480146020129839,0.581294781057395,0.7025765242377766,-0.3030726462979254,0.5003274825876085,-0.4877335132071574,-0.3876155992352548,-0.6552902447948479,0.7438838936754091,-0.39260575373162854,0.16936497295315722,0.5891577664759178,0.7364020947980832,-0.1559717207971223,-0.2117100855703693,0.8314510900043701,-0.10189607350893604,-0.05646050825809068,0.8686692471757207,-0.9220392373367463,-0.18955742259265596,-0.5947307890756248,-0.7938509398580604,0.34701727745813815,0.4509784497834428,-0.9592972016489836,0.9725149480053219,-0.643804689808531,-0.9551911093826353,0.16295804728206753,0.7507205850211287,-0.1854278822911566,-0.318827160052255,-0.3370781530970439,0.8874540402789528,-0.6255371001642889,0.558105864408458,0.4390802533598548,-0.09442815390727644,-0.5938624980163805,-0.526550600980312,-0.4692036234641854,0.4110207131811814,0.2969648974554844,-0.8487666840100752,-0.9018901024438346,0.47121965963955526,0.92895897354741,0.7994268530387159,-0.9469074754565268,-0.4194260914668815,0.04700168556799422,-0.9980410338142753,0.7701498500628736
23.9171837125675,0.7185738646573763,0.4815624336471045,-0.9545996280676912,0.7635259861514498,-0.604459414572466,0.731615188935163,0.6550873533266157,-0.3996257261071252,-0.8260379313017256,0.918970486036123,-0.874025942030328,-0.02378013496576914,-0.47003120211941796,-0.5414562484225036,-0.6058946732357682,0.9655133004578547,0.10153951111292825,0.8348896105629764,-0.8302317679158941,0.28853999427489807,-0.2724348297501584,0.7435849529815959,0.24477041104047426,0.21647993205225613,0.37484951858069326,-0.920962120389186,0.31620797200690975,0.4874198076927645,-0.7383637322115293,0.9561192365664333,-0.6436370339873314,0.2486343203836594,-0.21139650927211773,0.4398244105063276,0.8080809568984149,-0.9006950440021,-0.20300623422176467,-0.7214032096122567,0.7844028069997986,-0.9546190516690385,-0.4743348719548015,0.7814659337036136,0.5031710222355319,0.7685897887433717,0.5393552601393474,-0.7722688402025084,-0.05714737231882294,0.7286347212837627,-0.17089789721605042,-0.6480214180838426,0.1886699544481958,-0.9813910074531123,0.03861171354448012,0.1851974540193797,-0.4825067926669333,-0.45934814833275284,0.4028841383636488,0.8279529131199765,-0.5910056664200749,-0.23134481682283115,0.12063345084571875,0.23575193190338672,-0.4099682523745445,0.850605335438656,0.49477853180853115,0.10829538715391185,-0.6807656125891832,-0.6456501224442079,0.7695754215895796,0.14727583779620979,-0.5288467458847572,-0.17205651208924921,0.48898147173881545,-0.7958281761435124,0.1327991694759616,0.6571693472354241,0.8035206600989857,0.735541842862586,0.9257032337524658,0.22941769790098054,0.7122204018377791,0.3157419737337206,0.8536165918057816,-0.49368527470614176,0.968461670592172,-0.15050287554617814,-0.019423112793164332,-0.33076842563611986,0.9926454601845074,0.18985166710294288,-0.7030303715591637,0.17686700051442306,0.9807623099262677,-0.9004095284168583,-0.3447436291437749,0.745813274267713,0.9879383760386529,-0.8093493141644246,-0.8261423543366726,-0.8216163470700244,-0.5160263111982677,-0.8638037634886981,0.3844737282401052,0.9637200146287637,-0.47487850448459556,0.5660052366626325,0.03079576558580377,0.31192092932387516,-0.04790576644392597,-0.46522367198654524,-0.7316237732691675,-0.9355278973468588,-0.574029696044253,0.008891048450056616,0.4510734129569616,-0.5572810006750368,0.7513609846926572,-0.7001325513094647,-0.2832015432666024,0.6971409113295657,-0.7606296398846466,-0.16855941524300255,0.5684356423556047,0.6859729789573217,-0.6128847641902861,0.662157953225379,0.38899901146875293,-0.05806893761666565,0.45720116267813427,0.9763539503721337,0.6124886032714596,-0.5736058112528049,-0.41730617678171744,-0.1640980773520302,0.3951119908042875,-0.7604442880560047,0.06087291318338117,-0.6103509352424183,0.6315996261668273,-0.46619045750343036,-0.6332319258137094,-0.8336359607152546,0.5018484703400345,0.7357588204257142,0.3127796983786282,-0.2195025200910934,0.3404111565271952,0.5758015985151408,0.622854666215898,-0.5491906939423346,0.8663195520139118,-0.8264697773144662,0.8296602342264809,-0.7718272038323679,-0.18892445173968664,0.2284748554784708,-0.5963474471901995,-0.040531896379048415,0.7770123450394912,-0.3692903158104164,-0.9013824128370946,-0.12682468651684942,0.19796110822558943,0.8085679987094561,-0.776982700696472,0.375582107270243,-0.040869291680480924,-0.31651626497593544,-0.0383696393866213,0.657428582997081,0.8230290151255981,0.22662766049020067,0.6029607248792954,0.13244014765753098,-0.45360651260830576,0.3272661257014462,-0.1652227518665852,0.3061860538050012,0.26614699110147444,-0.870823745137596,0.573482978722319,-0.9310393486778681,-0.8421223559796918,0.4006266958488278,0.858609673600957,-0.32315189356431206,-0.9282878451672587,0.8369052575970122,0.670808282777366,0.017846506632062775,-0.007133046432231893,-0.9472670848417071,-0.5343699478782369,0.541697054519459,0.172620115292359,-0.3827562834306759,0.309775170062492,0.9724168183050637,0.29517996659855106,0.20595747145578502,0.936233759920142,0.5249176848769044,-0.2783405179323155,0.009420263990412181,-0.744243880799399,-0.7093579451150558,0.7841019754777558,0.8137484454999726,-0.8801853084433353,0.972777257608016,-0.7215156073970563,0.7480146020129839,0.581294781057395,0.7025765242377766,-0.3030726462979254,0.5003274825876085,-0.4877335132071574,-0.3876155992352548,-0.6552902447948479,0.7438838936754091,-0.39260575373162854,0.16936497295315722,0.5891577664759178,0.7364020947980832,-0.1559717207971223,-0.2117100855703693,0.8314510900043701,-0.10189607350893604,-0.05646050825809068,0.8686692471757207,-0.9220392373367463,-0.18955742259265596,-0.5947307890756248,-0.7938509398580604,0.34701727745813815,0.4509784497834428,-0.9592972016489836,0.9725149480053219,-0.643804689808531,-0.9551911093826353,0.16295804728206753,0.7507205850211287,-0.1854278822911566,-0.318827160052255,-0.3370781530970439,0.8874540402789528,-0.6255371001642889,0.558105864408458,0.4390802533598548,-0.09442815390727644,-0.5938624980163805,-0.526550600980312,-0.4692036234641854,0.4110207131811814,0.2969648974554844,-0.8487666840100752,-0.9018901024438346,0.47121965963955526,0.92895897354741,0.7994268530387159,-0.9469074754565268,-0.4194260914668815,0.04700168556799422,-0.9980410338142753,0.7701498500628736
34.26415495666603,0.8555964535473346,0.8611598181318545,0.42230410602514223,-0.6362823757328728,0.8792250457688708,-0.563811879386227,-0.5599266944792416,0.589193760122241,-0.34146205389577133,0.8272165096396711,-0.5321843808014681,-0.16724716798239458,-0.44078814012499956,-0.012599529383083174,-0.7797378129288162,-0.2470513311757152,0.8114394924904009,0.8853883377205909,-0.6783071110821937,0.43144008310675264,0.2635553420717338,0.7513959735825206,0.1998863051159836,-0.1825155901883151,0.5141526066121798,0.648716622193428,0.06121511064454488,0.5591063148067308,-0.40345638784544535,-0.06744095158260799,-0.4798348700602231,0.5609510926210934,-0.4951006762169603,-0.8207225559273619,0.18233280450728628,0.714831385416167,-0.05070309958204411,-0.30836903742953714,-0.31101269510101637,0.1351667287635887,-0.2234327102046587,-0.7406907620229193,0.6887330536372314,-0.7870851257951772,-0.20559797862322626,-0.9401126105015973,-0.5925083287492487,0.2962677222907111,0.10894613554623622,0.3200598007882014,-0.08470467874128151,0.8764664970039098,-0.7124212618042551,-0.784611610791627,-0.11075669647052355,0.003619233070268013,0.6516445627504261,-0.009591676065248134,-0.16050557278710698,0.5079986911822572,0.6422221093357832,0.6054272590221679,-0.8933997584515267,-0.3584708672850683,0.8072405988697162,-0.5788434798706061,-0.7663637387225808,0.6872892816766609,-0.11351525019433484,0.5315149982374692,-0.6065948998954256,0.23935484582438749,-0.19067291593174263,0.23988716233615626,0.8580433509222154,-0.3430672359623239,0.10628328938362275,0.2603711236316979,0.04965176307355268,0.032456158866101203,-0.15006399806271675,-0.7641399631985093,0.3262588833382516,-0.2634688434790833,0.739339007991505,0.7570495214602071,-0.44896122669978156,-0.9566900966551686,-0.33404251320402145,-0.7724855054190134,0.24853409765321732,0.06491163307226411,-0.25041056258101047,0.4998573778302118,0.7466485396703313,-0.491842381770345,0.06856197284565635,0.23314031162995086,-0.5828099795432871,-0.165514153277049,0.22727053022921484,-0.5369710127352898,0.305561681154618,-0.8184250776651549,-0.5427854110648431,0.2084199800983706,0.2386652918050327,0.8623640240979811,0.7604635854695374,0.9810723483069421,0.9059445455036514,0.662362485251661,-0.8325314745229462,0.3866327102076317,0.335384615942494,-0.8630845687440591,-0.44854648928508056,0.9660364577875802,-0.8724760343202906,0.3605758989374994,0.2009144305026791,-0.053987414131136724,-0.26844760398384304,0.3041421766414889,0.5329708872898509,0.3132451004783392,-0.17301954089410465,0.9824881412546582,0.8963704114089528,0.900356846158942,-0.3276311943673469,-0.5673506593992117,0.00292074179343893,0.7158878230703327,-0.5676782290991054,0.25349011229110174,0.3369578891441354,0.08263227951984553,0.015504350651781351,-0.7696977625210586,-0.2778296530811941,0.9673506311066706,0.864843274305988,0.9114630292008146,-0.1711341638457613,-0.5180486961981279,-0.6660810686266205,0.4465041262866807,-0.9956120875750749,-0.9367427774722326,-0.5491992123233445,0.4826296375924517,0.14635033939205222,0.5011367722937057,-0.012637452432350038,-0.022821630018176275,-0.4221936377680977,0.6592776383081949,0.920026705672115,0.671293967444059,-0.32341410543475546,0.34786637021637246,-0.3517326201980815,0.011685472227479732,0.44872448514554697,-0.7484739387328454,-0.8978693187180604,0.4314291721084569,0.9918473509991867,-0.8876621391057034,0.30781742165199844,-0.20455267976584213,0.19246344281925531,-0.522028166150516,0.4186265370023676,0.019140340969177272,-0.8417339945564242,0.7184503319158462,0.7891266472776457,-0.6408319676049437,0.6146917087391524,0.7702671740545908,0.7563708804628806,-0.8405268899121228,-0.401590375405972,0.26657857897240445,0.5522547367509871,0.19865361511599988,0.417320919765622,-0.760516780816687,-0.9722659193028365,0.4626145616087902,-0.685874129072906,0.83944018397782,-0.8854791813027472,0.6492978518948818,0.5870680410102727,0.852921094747485,-0.10682288225692571,-0.9178866093038454,0.046525440484678215,0.42889755661499707,-0.3957520194724655,0.715518213715395,-0.11276442768942374,0.6411912303311553,-0.46276509272481725,-0.49043112429456603,-0.3289077298042695,0.4179520357990678,0.5066059450850797,-0.5800939511106085,0.5139295963713222,0.7224467160596577,0.5904756182291218,0.7357279092786335,-0.6016751699224434,-0.4297070904306808,0.5568505938304578,-0.7302943626879488,-0.5562341039588632,0.2709326347794003,-0.27541642854391424,0.9290693164871193,-0.4168204368083481,-0.13645483589249885,0.3110535821998366,0.8017404560008188,-0.829727405932895,-0.825040184586775,-0.9286936763537881,0.6775589995790408,0.5350321898763526,-0.8879179288879506,0.592240938032015,-0.27339289705609704,0.24859902867242822,0.4829080271230686,0.8764853244517727,-0.63330380217998,-0.6672930447658052,-0.5131229334514074,0.5355201915497632,0.041898519850645854,0.6512877475404559,0.13908488234652894,0.3616681831103219,-0.8537605658283094,-0.7787602951598562,0.2939105801757693,0.11903114317521202,0.012397019631960715,0.4588821992823262,0.7058455864305397,0.813619016681641,-0.07516667817347256,0.25358054747569203,0.9486439172811818,-0.7336883502093596,0.4223215800264988,-0.48241048946015974,-0.5784676519041889,-0.06913676109556488,-0.18386530107668753,-0.8779468909765649
34.26415495666603,0.8555964535473346,0.8611598181318545,0.42230410602514223,-0.6362823757328728,0.8792250457688708,-0.563811879386227,-0.5599266944792416,0.589193760122241,-0.34146205389577133,0.8272165096396711,-0.5321843808014681,-0.16724716798239458,-0.44078814012499956,-0.012599529383083174,-0.7797378129288162,-0.2470513311757152,0.8114394924904009,0.8853883377205909,-0.6783071110821937,0.43144008310675264,0.2635553420717338,0.7513959735825206,0.1998863051159836,-0.1825155901883151,0.5141526066121798,0.648716622193428,0.06121511064454488,0.5591063148067308,-0.40345638784544535,-0.06744095158260799,-0.4798348700602231,0.5609510926210934,-0.4951006762169603,-0.8207225559273619,0.18233280450728628,0.714831385416167,-0.05070309958204411,-0.30836903742953714,-0.31101269510101637,0.1351667287635887,-0.2234327102046587,-0.7406907620229193,0.6887330536372314,-0.7870851257951772,-0.20559797862322626,-0.9401126105015973,-0.5925083287492487,0.2962677222907111,0.10894613554623622,0.3200598007882014,-0.08470467874128151,0.8764664970039098,-0.7124212618042551,-0.784611610791627,-0.11075669647052355,0.003619233070268013,0.6516445627504261,-0.009591676065248134,-0.16050557278710698,0.5079986911822572,0.6422221093357832,0.6054272590221679,-0.8933997584515267,-0.3584708672850683,0.8072405988697162,-0.5788434798706061,-0.7663637387225808,0.6872892816766609,-0.11351525019433484,0.5315149982374692,-0.6065948998954256,0.23935484582438749,-0.19067291593174263,0.23988716233615626,0.8580433509222154,-0.3430672359623239,0.10628328938362275,0.2603711236316979,0.04965176307355268,0.032456158866101203,-0.15006399806271675,-0.7641399631985093,0.3262588833382516,-0.2634688434790833,0.739339007991505,0.7570495214602071,-0.44896122669978156,-0.9566900966551686,-0.33404251320402145,-0.7724855054190134,0.24853409765321732,0.06491163307226411,-0.25041056258101047,0.4998573778302118,0.7466485396703313,-0.491842381770345,0.06856197284565635,0.23314031162995086,-0.5828099795432871,-0.165514153277049,0.22727053022921484,-0.5369710127352898,0.305561681154618,-0.8184250776651549,-0.5427854110648431,0.2084199800983706,0.2386652918050327,0.8623640240979811,0.7604635854695374,0.9810723483069421,0.9059445455036514,0.662362485251661,-0.8325314745229462,0.3866327102076317,0.335384615942494,-0.8630845687440591,-0.44854648928508056,0.9660364577875802,-0.8724760343202906,0.3605758989374994,0.2009144305026791,-0.053987414131136724,-0.26844760398384304,0.3041421766414889,0.5329708872898509,0.3132451004783392,-0.17301954089410465,0.9824881412546582,0.8963704114089528,0.900356846158942,-0.3276311943673469,-0.5673506593992117,0.00292074179343893,0.7158878230703327,-0.5676782290991054,0.25349011229110174,0.3369578891441354,0.08263227951984553,0.015504350651781351,-0.7696977625210586,-0.2778296530811941,0.9673506311066706,0.864843274305988,0.9114630292008146,-0.1711341638457613,-0.5180486961981279,-0.6660810686266205,0.4465041262866807,-0.9956120875750749,-0.9367427774722326,-0.5491992123233445,0.4826296375924517,0.14635033939205222,0.5011367722937057,-0.012637452432350038,-0.022821630018176275,-0.4221936377680977,0.6592776383081949,0.920026705672115,0.671293967444059,-0.32341410543475546,0.34786637021637246,-0.3517326201980815,0.011685472227479732,0.44872448514554697,-0.7484739387328454,-0.8978693187180604,0.4314291721084569,0.9918473509991867,-0.8876621391057034,0.30781742165199844,-0.20455267976584213,0.19246344281925531,-0.522028166150516,0.4186265370023676,0.019140340969177272,-0.8417339945564242,0.7184503319158462,0.7891266472776457,-0.6408319676049437,0.6146917087391524,0.7702671740545908,0.7563708804628806,-0.8405268899121228,-0.401590375405972,0.26657857897240445,0.5522547367509871,0.19865361511599988,0.417320919765622,-0.760516780816687,-0.9722659193028365,0.4626145616087902,-0.685874129072906,0.83944018397782,-0.8854791813027472,0.6492978518948818,0.5870680410102727,0.852921094747485,-0.10682288225692571,-0.9178866093038454,0.046525440484678215,0.42889755661499707,-0.3957520194724655,0.715518213715395,-0.11276442768942374,0.6411912303311553,-0.46276509272481725,-0.49043112429456603,-0.3289077298042695,0.4179520357990678,0.5066059450850797,-0.5800939511106085,0.5139295963713222,0.7224467160596577,0.5904756182291218,0.7357279092786335,-0.6016751699224434,-0.4297070904306808,0.5568505938304578,-0.7302943626879488,-0.5562341039588632,0.2709326347794003,-0.27541642854391424,0.9290693164871193,-0.4168204368083481,-0.13645483589249885,0.3110535821998366,0.8017404560008188,-0.829727405932895,-0.825040184586775,-0.9286936763537881,0.6775589995790408,0.5350321898763526,-0.8879179288879506,0.592240938032015,-0.27339289705609704,0.24859902867242822,0.4829080271230686,0.8764853244517727,-0.63330380217998,-0.6672930447658052,-0.5131229334514074,0.5355201915497632,0.041898519850645854,0.6512877475404559,0.13908488234652894,0.3616681831103219,-0.8537605658283094,-0.7787602951598562,0.2939105801757693,0.11903114317521202,0.012397019631960715,0.4588821992823262,0.7058455864305397,0.813619016681641,-0.07516667817347256,0.25358054747569203,0.9486439172811818,-0.7336883502093596,0.4223215800264988,-0.48241048946015974,-0.5784676519041889,-0.06913676109556488,-0.18386530107668753,-0.8779468909765649
34.26415495666603,0.8555964535473346,0.8611598181318545,0.42230410602514223,-0.6362823757328728,0.8792250457688708,-0.563811879386227,-0.5599266944792416,0.589193760122241,-0.34146205389577133,0.8272165096396711,-0.5321843808014681,-0.16724716798239458,-0.44078814012499956,-0.012599529383083174,-0.7797378129288162,-0.2470513311757152,0.8114394924904009,0.8853883377205909,-0.6783071110821937,0.43144008310675264,0.2635553420717338,0.7513959735825206,0.1998863051159836,-0.1825155901883151,0.5141526066121798,0.648716622193428,0.06121511064454488,0.5591063148067308,-0.40345638784544535,-0.06744095158260799,-0.4798348700602231,0.5609510926210934,-0.4951006762169603,-0.8207225559273619,0.18233280450728628,0.714831385416167,-0.05070309958204411,-0.30836903742953714,-0.31101269510101637,0.1351667287635887,-0.2234327102046587,-0.7406907620229193,0.6887330536372314,-0.7870851257951772,-0.20559797862322626,-0.9401126105015973,-0.5925083287492487,0.2962677222907111,0.10894613554623622,0.3200598007882014,-0.08470467874128151,0.8764664970039098,-0.7124212618042551,-0.784611610791627,-0.11075669647052355,0.003619233070268013,0.6516445627504261,-0.009591676065248134,-0.16050557278710698,0.5079986911822572,0.6422221093357832,0.6054272590221679,-0.8933997584515267,-0.3584708672850683,0.8072405988697162,-0.5788434798706061,-0.7663637387225808,0.6872892816766609,-0.11351525019433484,0.5315149982374692,-0.6065948998954256,0.23935484582438749,-0.19067291593174263,0.23988716233615626,0.8580433509222154,-0.3430672359623239,0.10628328938362275,0.2603711236316979,0.04965176307355268,0.032456158866101203,-0.15006399806271675,-0.7641399631985093,0.3262588833382516,-0.2634688434790833,0.739339007991505,0.7570495214602071,-0.44896122669978156,-0.9566900966551686,-0.33404251320402145,-0.7724855054190134,0.24853409765321732,0.06491163307226411,-0.25041056258101047,0.4998573778302118,0.7466485396703313,-0.491842381770345,0.06856197284565635,0.23314031162995086,-0.5828099795432871,-0.165514153277049,0.22727053022921484,-0.5369710127352898,0.305561681154618,-0.8184250776651549,-0.5427854110648431,0.2084199800983706,0.2386652918050327,0.8623640240979811,0.7604635854695374,0.9810723483069421,0.9059445455036514,0.662362485251661,-0.8325314745229462,0.3866327102076317,0.335384615942494,-0.8630845687440591,-0.44854648928508056,0.9660364577875802,-0.8724760343202906,0.3605758989374994,0.2009144305026791,-0.053987414131136724,-0.26844760398384304,0.3041421766414889,0.5329708872898509,0.3132451004783392,-0.17301954089410465,0.9824881412546582,0.8963704114089528,0.900356846158942,-0.3276311943673469,-0.5673506593992117,0.00292074179343893,0.7158878230703327,-0.5676782290991054,0.25349011229110174,0.3369578891441354,0.08263227951984553,0.015504350651781351,-0.7696977625210586,-0.2778296530811941,0.9673506311066706,0.864843274305988,0.9114630292008146,-0.1711341638457613,-0.5180486961981279,-0.6660810686266205,0.4465041262866807,-0.9956120875750749,-0.9367427774722326,-0.5491992123233445,0.4826296375924517,0.14635033939205222,0.5011367722937057,-0.012637452432350038,-0.022821630018176275,-0.4221936377680977,0.6592776383081949,0.920026705672115,0.671293967444059,-0.32341410543475546,0.34786637021637246,-0.3517326201980815,0.011685472227479732,0.44872448514554697,-0.7484739387328454,-0.8978693187180604,0.4314291721084569,0.9918473509991867,-0.8876621391057034,0.30781742165199844,-0.20455267976584213,0.19246344281925531,-0.522028166150516,0.4186265370023676,0.019140340969177272,-0.8417339945564242,0.7184503319158462,0.7891266472776457,-0.6408319676049437,0.6146917087391524,0.7702671740545908,0.7563708804628806,-0.8405268899121228,-0.401590375405972,0.26657857897240445,0.5522547367509871,0.19865361511599988,0.417320919765622,-0.760516780816687,-0.9722659193028365,0.4626145616087902,-0.685874129072906,0.83944018397782,-0.8854791813027472,0.6492978518948818,0.5870680410102727,0.852921094747485,-0.10682288225692571,-0.9178866093038454,0.046525440484678215,0.42889755661499707,-0.3957520194724655,0.715518213715395,-0.11276442768942374,0.6411912303311553,-0.46276509272481725,-0.49043112429456603,-0.3289077298042695,0.4179520357990678,0.5066059450850797,-0.5800939511106085,0.5139295963713222,0.7224467160596577,0.5904756182291218,0.7357279092786335,-0.6016751699224434,-0.4297070904306808,0.5568505938304578,-0.7302943626879488,-0.5562341039588632,0.2709326347794003,-0.27541642854391424,0.9290693164871193,-0.4168204368083481,-0.13645483589249885,0.3110535821998366,0.8017404560008188,-0.829727405932895,-0.825040184586775,-0.9286936763537881,0.6775589995790408,0.5350321898763526,-0.8879179288879506,0.592240938032015,-0.27339289705609704,0.24859902867242822,0.4829080271230686,0.8764853244517727,-0.63330380217998,-0.6672930447658052,-0.5131229334514074,0.5355201915497632,0.041898519850645854,0.6512877475404559,0.13908488234652894,0.3616681831103219,-0.8537605658283094,-0.7787602951598562,0.2939105801757693,0.11903114317521202,0.012397019631960715,0.4588821992823262,0.7058455864305397,0.813619016681641,-0.07516667817347256,0.25358054747569203,0.9486439172811818,-0.7336883502093596,0.4223215800264988,-0.48241048946015974,-0.5784676519041889,-0.06913676109556488,-0.18386530107668753,-0.8779468909765649
40.797543860725455,0.2144614212976108,0.8611598181318545,0.42230410602514223,-0.6362823757328728,0.8792250457688708,-0.563811879386227,-0.5599266944792416,0.589193760122241,-0.34146205389577133,0.8272165096396711,-0.5321843808014681,-0.16724716798239458,-0.44078814012499956,-0.012599529383083174,-0.7797378129288162,-0.2470513311757152,0.8114394924904009,0.8853883377205909,-0.6783071110821937,0.43144008310675264,0.2635553420717338,0.7513959735825206,0.1998863051159836,-0.1825155901883151,0.5141526066121798,0.648716622193428,0.06121511064454488,0.5591063148067308,-0.40345638784544535,-0.06744095158260799,-0.4798348700602231,0.5609510926210934,-0.4951006762169603,-0.8207225559273619,0.18233280450728628,0.714831385416167,-0.05070309958204411,-0.30836903742953714,-0.12852711852420362,0.1351667287635887,-0.2234327102046587,-0.7406907620229193,0.6887330536372314,-0.002888305773419697,-0.20559797862322626,-0.9401126105015973,-0.5925083287492487,0.2962677222907111,0.10894613554623622,0.3200598007882014,-0.08470467874128151,0.8764664970039098,-0.7124212618042551,-0.784611610791627,-0.11075669647052355,0.003619233070268013,0.6516445627504261,-0.009591676065248134,-0.16050557278710698,0.5079986911822572,0.6422221093357832,0.6054272590221679,-0.8933997584515267,-0.3584708672850683,0.8072405988697162,-0.5788434798706061,-0.7663637387225808,0.6872892816766609,-0.11351525019433484,0.5315149982374692,-0.6065948998954256,-0.6184447869462817,-0.19067291593174263,0.23988716233615626,0.8580433509222154,-0.3430672359623239,0.10628328938362275,0.2603711236316979,0.04965176307355268,0.032456158866101203,-0.15006399806271675,-0.7641399631985093,0.3262588833382516,-0.2634688434790833,0.739339007991505,0.7570495214602071,-0.44896122669978156,-0.9566900966551686,-0.33404251320402145,-0.7724855054190134,0.24853409765321732,0.06491163307226411,-0.25041056258101047,0.4998573778302118,0.7466485396703313,-0.491842381770345,0.06856197284565635,0.23314031162995086,-0.5828099795432871,-0.165514153277049,0.22727053022921484,-0.5369710127352898,0.305561681154618,-0.8184250776651549,-0.5427854110648431,0.2084199800983706,0.2386652918050327,0.8623640240979811,0.7604635854695374,0.9810723483069421,0.9059445455036514,0.662362485251661,-0.8325314745229462,0.3866327102076317,0.335384615942494,-0.8630845687440591,-0.44854648928508056,0.9660364577875802,-0.8724760343202906,0.3605758989374994,0.2009144305026791,-0.053987414131136724,-0.26844760398384304,0.6859729789573217,-0.39927407631312706,-0.6429152386245516,0.38899901146875293,-0.05806893761666565,0.45720116267813427,0.18140752421429784,-0.3276311943673469,-0.5673506593992117,0.00292074179343893,0.7158878230703327,-0.5676782290991054,0.25349011229110174,0.3369578891441354,0.08263227951984553,0.015504350651781351,-0.7696977625210586,-0.2778296530811941,0.9673506311066706,0.864843274305988,0.9114630292008146,-0.1711341638457613,-0.5180486961981279,-0.6660810686266205,0.4465041262866807,-0.9956120875750749,0.9692585603247768,-0.5491992123233445,0.4826296375924517,0.14635033939205222,0.5011367722937057,-0.012637452432350038,-0.022821630018176275,-0.4221936377680977,0.6592776383081949,0.920026705672115,0.671293967444059,-0.32341410543475546,0.34786637021637246,-0.3517326201980815,0.011685472227479732,0.44872448514554697,-0.7484739387328454,-0.8978693187180604,0.4314291721084569,0.9918473509991867,-0.8876621391057034,0.30781742165199844,-0.20455267976584213,0.19246344281925531,-0.522028166150516,0.4186265370023676,0.6860898650858305,-0.8417339945564242,0.7184503319158462,0.7891266472776457,-0.6408319676049437,0.6146917087391524,0.7702671740545908,0.7563708804628806,-0.8405268899121228,-0.401590375405972,0.26657857897240445,0.5522547367509871,0.19865361511599988,0.417320919765622,-0.760516780816687,-0.9722659193028365,0.4626145616087902,-0.685874129072906,0.83944018397782,-0.8854791813027472,0.6492978518948818,0.5870680410102727,0.852921094747485,-0.10682288225692571,-0.9178866093038454,0.046525440484678215,0.42889755661499707,-0.3957520194724655,0.715518213715395,-0.11276442768942374,0.6411912303311553,-0.46276509272481725,-0.49043112429456603,-0.3289077298042695,0.4179520357990678,0.5066059450850797,-0.5800939511106085,0.5139295963713222,0.7224467160596577,0.5904756182291218,0.7357279092786335,-0.6016751699224434,-0.4297070904306808,0.5568505938304578,-0.7302943626879488,-0.5562341039588632,0.2709326347794003,-0.27541642854391424,0.9290693164871193,-0.4168204368083481,-0.13645483589249885,0.3110535821998366,0.8017404560008188,-0.829727405932895,-0.825040184586775,-0.9286936763537881,0.6775589995790408,0.5350321898763526,-0.8879179288879506,0.592240938032015,-0.27339289705609704,0.24859902867242822,0.4829080271230686,0.8764853244517727,-0.63330380217998,-0.6672930447658052,-0.5131229334514074,0.5355201915497632,0.041898519850645854,0.6512877475404559,0.13908488234652894,0.3616681831103219,-0.8537605658283094,-0.7787602951598562,0.2939105801757693,0.11903114317521202,0.012397019631960715,0.4588821992823262,0.7058455864305397,0.813619016681641,-0.07516667817347256,0.25358054747569203,0.9486439172811818,-0.7336883502093596,0.4223215800264988,-0.48241048946015974,-0.5784676519041889,-0.06913676109556488,-0.18386530107668753,-0.8779468909765649
40.797543860725455,0.2144614212976108,0.8611598181318545,0.42230410602514223,-0.6362823757328728,0.8792250457688708,-0.563811879386227,-0.5599266944792416,0.589193760122241,-0.34146205389577133,0.8272165096396711,-0.5321843808014681,-0.16724716798239458,-0.44078814012499956,-0.012599529383083174,-0.7797378129288162,-0.2470513311757152,0.8114394924904009,0.8853883377205909,-0.6783071110821937,0.43144008310675264,0.2635553420717338,0.7513959735825206,0.1998863051159836,-0.1825155901883151,0.5141526066121798,0.648716622193428,0.06121511064454488,0.5591063148067308,-0.40345638784544535,-0.06744095158260799,-0.4798348700602231,0.5609510926210934,-0.4951006762169603,-0.8207225559273619,0.18233280450728628,0.714831385416167,-0.05070309958204411,-0.30836903742953714,-0.12852711852420362,0.1351667287635887,-0.2234327102046587,-0.7406907620229193,0.6887330536372314,-0.002888305773419697,-0.20559797862322626,-0.9401126105015973,-0.5925083287492487,0.2962677222907111,0.10894613554623622,0.3200598007882014,-0.08470467874128151,0.8764664970039098,-0.7124212618042551,-0.784611610791627,-0.11075669647052355,0.003619233070268013,0.6516445627504261,-0.009591676065248134,-0.16050557278710698,0.5079986911822572,0.6422221093357832,0.6054272590221679,-0.8933997584515267,-0.3584708672850683,0.8072405988697162,-0.5788434798706061,-0.7663637387225808,0.6872892816766609,-0.11351525019433484,0.5315149982374692,-0.6065948998954256,-0.6184447869462817,-0.19067291593174263,0.23988716233615626,0.8580433509222154,-0.3430672359623239,0.10628328938362275,0.2603711236316979,0.04965176307355268,0.032456158866101203,-0.15006399806271675,-0.7641399631985093,0.3262588833382516,-0.2634688434790833,0.739339007991505,0.7570495214602071,-0.44896122669978156,-0.9566900966551686,-0.33404251320402145,-0.7724855054190134,0.24853409765321732,0.06491163307226411,-0.25041056258101047,0.4998573778302118,0.7466485396703313,-0.491842381770345,0.06856197284565635,0.23314031162995086,-0.5828099795432871,-0.165514153277049,0.22727053022921484,-0.5369710127352898,0.305561681154618,-0.8184250776651549,-0.5427854110648431,0.2084199800983706,0.2386652918050327,0.8623640240979811,0.7604635854695374,0.9810723483069421,0.9059445455036514,0.662362485251661,-0.8325314745229462,0.3866327102076317,0.335384615942494,-0.8630845687440591,-0.44854648928508056,0.9660364577875802,-0.8724760343202906,0.3605758989374994,0.2009144305026791,-0.053987414131136724,-0.26844760398384304,0.6859729789573217,-0.39927407631312706,-0.6429152386245516,0.38899901146875293,-0.05806893761666565,0.45720116267813427,0.18140752421429784,-0.3276311943673469,-0.5673506593992117,0.00292074179343893,0.7158878230703327,-0.5676782290991054,0.25349011229110174,0.3369578891441354,0.08263227951984553,0.015504350651781351,-0.7696977625210586,-0.2778296530811941,0.9673506311066706,0.864843274305988,0.9114630292008146,-0.1711341638457613,-0.5180486961981279,-0.6660810686266205,0.4465041262866807,-0.9956120875750749,0.9692585603247768,-0.5491992123233445,0.4826296375924517,0.14635033939205222,0.5011367722937057,-0.012637452432350038,-0.022821630018176275,-0.4221936377680977,0.6592776383081949,0.920026705672115,0.671293967444059,-0.32341410543475546,0.34786637021637246,-0.3517326201980815,0.011685472227479732,0.44872448514554697,-0.7484739387328454,-0.8978693187180604,0.4314291721084569,0.9918473509991867,-0.8876621391057034,0.30781742165199844,-0.20455267976584213,0.19246344281925531,-0.522028166150516,0.4186265370023676,0.6860898650858305,-0.8417339945564242,0.7184503319158462,0.7891266472776457,-0.6408319676049437,0.6146917087391524,0.7702671740545908,0.7563708804628806,-0.8405268899121228,-0.401590375405972,0.26657857897240445,0.5522547367509871,0.19865361511599988,0.417320919765622,-0.760516780816687,-0.9722659193028365,0.4626145616087902,-0.685874129072906,0.83944018397782,-0.8854791813027472,0.6492978518948818,0.5870680410102727,0.852921094747485,-0.10682288225692571,-0.9178866093038454,0.046525440484678215,0.42889755661499707,-0.3957520194724655,0.715518213715395,-0.11276442768942374,0.6411912303311553,-0.46276509272481725,-0.49043112429456603,-0.3289077298042695,0.4179520357990678,0.5066059450850797,-0.5800939511106085,0.5139295963713222,0.7224467160596577,0.5904756182291218,0.7357279092786335,-0.6016751699224434,-0.4297070904306808,0.5568505938304578,-0.7302943626879488,-0.5562341039588632,0.2709326347794003,-0.27541642854391424,0.9290693164871193,-0.4168204368083481,-0.13645483589249885,0.3110535821998366,0.8017404560008188,-0.829727405932895,-0.825040184586775,-0.9286936763537881,0.6775589995790408,0.5350321898763526,-0.8879179288879506,0.592240938032015,-0.27339289705609704,0.24859902867242822,0.4829080271230686,0.8764853244517727,-0.63330380217998,-0.6672930447658052,-0.5131229334514074,0.5355201915497632,0.041898519850645854,0.6512877475404559,0.13908488234652894,0.3616681831103219,-0.8537605658283094,-0.7787602951598562,0.2939105801757693,0.11903114317521202,0.012397019631960715,0.4588821992823262,0.7058455864305397,0.813619016681641,-0.07516667817347256,0.25358054747569203,0.9486439172811818,-0.7336883502093596,0.4223215800264988,-0.48241048946015974,-0.5784676519041889,-0.06913676109556488,-0.18386530107668753,-0.8779468909765649
40.797543860725455,0.2144614212976108,0.8611598181318545,0.42230410602514223,-0.6362823757328728,0.8792250457688708,-0.563811879386227,-0.5599266944792416,0.589193760122241,-0.34146205389577133,0.8272165096396711,-0.5321843808014681,-0.16724716798239458,-0.44078814012499956,-0.012599529383083174,-0.7797378129288162,-0.2470513311757152,0.8114394924904009,0.8853883377205909,-0.6783071110821937,0.43144008310675264,0.2635553420717338,0.7513959735825206,0.1998863051159836,-0.1825155901883151,0.5141526066121798,0.648716622193428,0.06121511064454488,0.5591063148067308,-0.40345638784544535,-0.06744095158260799,-0.4798348700602231,0.5609510926210934,-0.4951006762169603,-0.8207225559273619,0.18233280450728628,0.714831385416167,-0.05070309958204411,-0.30836903742953714,-0.12852711852420362,0.1351667287635887,-0.2234327102046587,-0.7406907620229193,0.6887330536372314,-0.002888305773419697,-0.20559797862322626,-0.9401126105015973,-0.5925083287492487,0.2962677222907111,0.10894613554623622,0.3200598007882014,-0.08470467874128151,0.8764664970039098,-0.7124212618042551,-0.784611610791627,-0.11075669647052355,0.003619233070268013,0.6516445627504261,-0.009591676065248134,-0.16050557278710698,0.5079986911822572,0.6422221093357832,0.6054272590221679,-0.8933997584515267,-0.3584708672850683,0.8072405988697162,-0.5788434798706061,-0.7663637387225808,0.6872892816766609,-0.11351525019433484,0.5315149982374692,-0.6065948998954256,-0.6184447869462817,-0.19067291593174263,0.23988716233615626,0.8580433509222154,-0.3430672359623239,0.10628328938362275,0.2603711236316979,0.04965176307355268,0.032456158866101203,-0.15006399806271675,-0.7641399631985093,0.3262588833382516,-0.2634688434790833,0.739339007991505,0.7570495214602071,-0.44896122669978156,-0.9566900966551686,-0.33404251320402145,-0.7724855054190134,0.24853409765321732,0.06491163307226411,-0.25041056258101047,0.4998573778302118,0.7466485396703313,-0.491842381770345,0.06856197284565635,0.23314031162995086,-0.5828099795432871,-0.165514153277049,0.22727053022921484,-0.5369710127352898,0.305561681154618,-0.8184250776651549,-0.5427854110648431,0.2084199800983706,0.2386652918050327,0.8623640240979811,0.7604635854695374,0.9810723483069421,0.9059445455036514,0.662362485251661,-0.8325314745229462,0.3866327102076317,0.335384615942494,-0.8630845687440591,-0.44854648928508056,0.9660364577875802,-0.8724760343202906,0.3605758989374994,0.2009144305026791,-0.053987414131136724,-0.26844760398384304,0.6859729789573217,-0.39927407631312706,-0.6429152386245516,0.38899901146875293,-0.05806893761666565,0.45720116267813427,0.18140752421429784,-0.3276311943673469,-0.5673506593992117,0.00292074179343893,0.7158878230703327,-0.5676782290991054,0.25349011229110174,0.3369578891441354,0.08263227951984553,0.015504350651781351,-0.7696977625210586,-0.2778296530811941,0.9673506311066706,0.864843274305988,0.9114630292008146,-0.1711341638457613,-0.5180486961981279,-0.6660810686266205,0.4465041262866807,-0.9956120875750749,0.9692585603247768,-0.5491992123233445,0.4826296375924517,0.14635033939205222,0.5011367722937057,-0.012637452432350038,-0.022821630018176275,-0.4221936377680977,0.6592776383081949,0.920026705672115,0.671293967444059,-0.32341410543475546,0.34786637021637246,-0.3517326201980815,0.011685472227479732,0.44872448514554697,-0.7484739387328454,-0.8978693187180604,0.4314291721084569,0.9918473509991867,-0.8876621391057034,0.30781742165199844,-0.20455267976584213,0.19246344281925531,-0.522028166150516,0.4186265370023676,0.6860898650858305,-0.8417339945564242,0.7184503319158462,0.7891266472776457,-0.6408319676049437,0.6146917087391524,0.7702671740545908,0.7563708804628806,-0.8405268899121228,-0.401590375405972,0.26657857897240445,0.5522547367509871,0.19865361511599988,0.417320919765622,-0.760516780816687,-0.9722659193028365,0.4626145616087902,-0.685874129072906,0.83944018397782,-0.8854791813027472,0.6492978518948818,0.5870680410102727,0.852921094747485,-0.10682288225692571,-0.9178866093038454,0.046525440484678215,0.42889755661499707,-0.3957520194724655,0.715518213715395,-0.11276442768942374,0.6411912303311553,-0.46276509272481725,-0.49043112429456603,-0.3289077298042695,0.4179520357990678,0.5066059450850797,-0.5800939511106085,0.5139295963713222,0.7224467160596577,0.5904756182291218,0.7357279092786335,-0.6016751699224434,-0.4297070904306808,0.5568505938304578,-0.7302943626879488,-0.5562341039588632,0.2709326347794003,-0.27541642854391424,0.9290693164871193,-0.4168204368083481,-0.13645483589249885,0.3110535821998366,0.8017404560008188,-0.829727405932895,-0.825040184586775,-0.9286936763537881,0.6775589995790408,0.5350321898763526,-0.8879179288879506,0.592240938032015,-0.27339289705609704,0.24859902867242822,0.4829080271230686,0.8764853244517727,-0.63330380217998,-0.6672930447658052,-0.5131229334514074,0.5355201915497632,0.041898519850645854,0.6512877475404559,0.13908488234652894,0.3616681831103219,-0.8537605658283094,-0.7787602951598562,0.2939105801757693,0.11903114317521202,0.012397019631960715,0.4588821992823262,0.7058455864305397,0.813619016681641,-0.07516667817347256,0.25358054747569203,0.9486439172811818,-0.7336883502093596,0.4223215800264988,-0.48241048946015974,-0.5784676519041889,-0.06913676109556488,-0.18386530107668753,-0.8779468909765649
40.797543860725455,0.2144614212976108,0.8611598181318545,0.42230410602514223,-0.6362823757328728,0.8792250457688708,-0.563811879386227,-0.5599266944792416,0.589193760122241,-0.34146205389577133,0.8272165096396711,-0.5321843808014681,-0.16724716798239458,-0.44078814012499956,-0.012599529383083174,-0.7797378129288162,-0.2470513311757152,0.8114394924904009,0.8853883377205909,-0.6783071110821937,0.43144008310675264,0.2635553420717338,0.7513959735825206,0.1998863051159836,-0.1825155901883151,0.5141526066121798,0.648716622193428,0.06121511064454488,0.5591063148067308,-0.40345638784544535,-0.06744095158260799,-0.4798348700602231,0.5609510926210934,-0.4951006762169603,-0.8207225559273619,0.18233280450728628,0.714831385416167,-0.05070309958204411,-0.30836903742953714,-0.12852711852420362,0.1351667287635887,-0.2234327102046587,-0.7406907620229193,0.6887330536372314,-0.002888305773419697,-0.20559797862322626,-0.9401126105015973,-0.5925083287492487,0.2962677222907111,0.10894613554623622,0.3200598007882014,-0.08470467874128151,0.8764664970039098,-0.7124212618042551,-0.784611610791627,-0.11075669647052355,0.003619233070268013,0.6516445627504261,-0.009591676065248134,-0.16050557278710698,0.5079986911822572,0.6422221093357832,0.6054272590221679,-0.8933997584515267,-0.3584708672850683,0.8072405988697162,-0.5788434798706061,-0.7663637387225808,0.6872892816766609,-0.11351525019433484,0.5315149982374692,-0.6065948998954256,-0.6184447869462817,-0.19067291593174263,0.23988716233615626,0.8580433509222154,-0.3430672359623239,0.10628328938362275,0.2603711236316979,0.04965176307355268,0.032456158866101203,-0.15006399806271675,-0.7641399631985093,0.3262588833382516,-0.2634688434790833,0.739339007991505,0.7570495214602071,-0.44896122669978156,-0.9566900966551686,-0.33404251320402145,-0.7724855054190134,0.24853409765321732,0.06491163307226411,-0.25041056258101047,0.4998573778302118,0.7466485396703313,-0.491842381770345,0.06856197284565635,0.23314031162995086,-0.5828099795432871,-0.165514153277049,0.22727053022921484,-0.5369710127352898,0.305561681154618,-0.8184250776651549,-0.5427854110648431,0.2084199800983706,0.2386652918050327,0.8623640240979811,0.7604635854695374,0.9810723483069421,0.9059445455036514,0.662362485251661,-0.8325314745229462,0.3866327102076317,0.335384615942494,-0.8630845687440591,-0.44854648928508056,0.9660364577875802,-0.8724760343202906,0.3605758989374994,0.2009144305026791,-0.053987414131136724,-0.26844760398384304,0.6859729789573217,-0.39927407631312706,-0.6429152386245516,0.38899901146875293,-0.05806893761666565,0.45720116267813427,0.18140752421429784,-0.3276311943673469,-0.5673506593992117,0.00292074179343893,0.7158878230703327,-0.5676782290991054,0.25349011229110174,0.3369578891441354,0.08263227951984553,0.015504350651781351,-0.7696977625210586,-0.2778296530811941,0.9673506311066706,0.864843274305988,0.9114630292008146,-0.1711341638457613,-0.5180486961981279,-0.6660810686266205,0.4465041262866807,-0.9956120875750749,0.9692585603247768,-0.5491992123233445,0.4826296375924517,0.14635033939205222,0.5011367722937057,-0.012637452432350038,-0.022821630018176275,-0.4221936377680977,0.6592776383081949,0.920026705672115,0.671293967444059,-0.32341410543475546,0.34786637021637246,-0.3517326201980815,0.011685472227479732,0.44872448514554697,-0.7484739387328454,-0.8978693187180604,0.4314291721084569,0.9918473509991867,-0.8876621391057034,0.30781742165199844,-0.20455267976584213,0.19246344281925531,-0.522028166150516,0.4186265370023676,0.6860898650858305,-0.8417339945564242,0.7184503319158462,0.7891266472776457,-0.6408319676049437,0.6146917087391524,0.7702671740545908,0.7563708804628806,-0.8405268899121228,-0.401590375405972,0.26657857897240445,0.5522547367509871,0.19865361511599988,0.417320919765622,-0.760516780816687,-0.9722659193028365,0.4626145616087902,-0.685874129072906,0.83944018397782,-0.8854791813027472,0.6492978518948818,0.5870680410102727,0.852921094747485,-0.10682288225692571,-0.9178866093038454,0.046525440484678215,0.42889755661499707,-0.3957520194724655,0.715518213715395,-0.11276442768942374,0.6411912303311553,-0.46276509272481725,-0.49043112429456603,-0.3289077298042695,0.4179520357990678,0.5066059450850797,-0.5800939511106085,0.5139295963713222,0.7224467160596577,0.5904756182291218,0.7357279092786335,-0.6016751699224434,-0.4297070904306808,0.5568505938304578,-0.7302943626879488,-0.5562341039588632,0.2709326347794003,-0.27541642854391424,0.9290693164871193,-0.4168204368083481,-0.13645483589249885,0.3110535821998366,0.8017404560008188,-0.829727405932895,-0.825040184586775,-0.9286936763537881,0.6775589995790408,0.5350321898763526,-0.8879179288879506,0.592240938032015,-0.27339289705609704,0.24859902867242822,0.4829080271230686,0.8764853244517727,-0.63330380217998,-0.6672930447658052,-0.5131229334514074,0.5355201915497632,0.041898519850645854,0.6512877475404559,0.13908488234652894,0.3616681831103219,-0.8537605658283094,-0.7787602951598562,0.2939105801757693,0.11903114317521202,0.012397019631960715,0.4588821992823262,0.7058455864305397,0.813619016681641,-0.07516667817347256,0.25358054747569203,0.9486439172811818,-0.7336883502093596,0.4223215800264988,-0.48241048946015974,-0.5784676519041889,-0.06913676109556488,-0.18386530107668753,-0.8779468909765649
