5.049157651801081670e-01
-4.639083092102316286e-01
-8.918037975133787931e-01
4.150006497775167169e-01
-3.724053577556762917e-02
-6.325879501995546050e-02
-5.231317129449437608e-01
8.437105497936308041e-01
1.360910896838296580e-02
1.577981842789299982e-02
1.999928767221392789e-01
-2.186942987762596768e-01
7.956877473886718732e-01
7.635202036224590927e-01
-6.773239156609540679e-01
5.452954625520751719e-01
3.508617706450714024e-01
-7.422157050438074055e-01
-2.138959492119640871e-02
-6.304771684405015009e-01
9.308513241474991595e-02
-2.776971384923103692e-01
1.793563538667102275e-01
-7.373845249042865202e-01
-6.699274830938555247e-01
5.954589931455633867e-01
-6.625799047895728489e-01
9.664939920509227900e-01
2.447654283979254775e-01
7.691532813748145347e-01
2.601845128843423005e-01
-8.017998882354189227e-01
-3.659574854765319518e-01
1.966555115872647974e-02
6.180099334932838140e-01
-9.381802786136195227e-01
-8.090375867003134491e-01
8.068252471992320984e-01
-2.920723663464031006e-01
6.340540305057129622e-02
-8.997714303510295775e-01
-1.668563001265341850e-01
8.810179546078673596e-01
8.137425617108684506e-01
-8.771972810603130277e-01
5.004554629218214146e-01
-8.694565578813089335e-01
7.873588881658211136e-01
-3.584218140971588973e-01
-4.837595009183517369e-01
-8.218472054792522741e-01
-2.416367291569960774e-01
-1.686022995599343322e-01
-8.704407548786410320e-01
1.122289504174527330e-01
6.196036133105695676e-01
4.875217297755491952e-01
-1.108430024923368062e-01
6.615985574793654678e-01
-3.241995392915653085e-02
9.356707156611459020e-01
4.049553821414071386e-01
-6.066278086124743396e-02
3.291509827331111637e-01
-2.838672792229113284e-01
3.942368060383012462e-01
-4.327538084764102067e-01
-6.211073536262445849e-01
9.627009485490001239e-01
9.485730419240034905e-02
-6.148309791888859621e-01
3.828713930223219819e-01
4.177207536004026167e-01
7.318277727049640191e-01
6.972493332325666593e-01
6.204811997337107421e-01
9.938320802604456716e-01
-8.052479909561318649e-01
5.627683082035446205e-01
-5.441078961126211144e-01
9.235182458501003389e-01
7.524581255128823809e-01
9.893275075402876428e-01
9.123379283791575034e-01
7.203141456575052892e-01
-1.325126608254789673e-01
9.322137314245315665e-01
7.244167494290421061e-02
-9.058590852479444511e-01
2.808978138476403430e-01
5.110966758568895596e-01
4.805169129924149463e-01
-3.914423554286972085e-02
-9.819862567859645175e-01
7.181104967827667274e-01
8.519806340740441186e-01
-4.341792161987250154e-01
-3.139314353422886228e-01
-9.137558832052685709e-01
5.840791457108864826e-01
-1.441751945207916386e-01
4.516115426280165046e-01
5.783391472743957262e-01
5.009913252801383443e-01
-6.020187815681001808e-01
5.964182688164505475e-01
-4.311816260570053849e-01
1.435486841483584186e-01
5.138187389386970061e-01
1.903673573998132529e-01
3.543365870524963768e-01
-5.806879429417970417e-01
-7.226213607427174335e-01
-5.184325568049708011e-01
-8.441361708436865285e-01
8.002742263361837249e-01
6.149047868925281435e-01
9.481596759371608840e-01
9.239986998935609819e-01
-9.061163815358390661e-01
-3.035578501070392843e-01
5.900320433019734523e-01
7.982881219507484971e-01
-2.850335897291138565e-01
-2.236208310301333047e-01
7.794865315263130867e-01
-6.894161694459215450e-01
2.329241644418011958e-02
-7.361674707543648388e-01
3.200792360963644612e-01
-3.087508791790538609e-01
-8.619110400524392368e-01
-8.285609145792691699e-01
-4.278710010272936959e-01
8.264493515262014700e-01
4.317842704485401750e-01
1.086319405320048670e-01
7.902603339985891928e-01
-8.871780911453974738e-01
-7.488750017031424733e-01
3.116961036581944455e-02
9.621181535962475273e-01
-2.021735242417719292e-01
-1.447939098405752745e-01
-2.059564978654722101e-01
-7.596879791175814578e-01
-5.690668251917476717e-01
2.788419059408298040e-03
-8.516578031530648296e-01
-8.295555000207954777e-03
2.298644389167416868e-01
-4.654668827238428452e-01
9.240190784600106344e-01
-2.787576513848675219e-01
-6.553940385238776756e-01
4.188519008793514242e-01
4.659306597683388063e-01
4.247814831153762238e-01
-7.014074552883005076e-01
7.776729086521594336e-01
7.152216102460176028e-01
-9.061690681115024404e-01
4.222601144654916094e-01
3.217122706274098132e-01
4.045612030282739191e-01
9.458736014329669484e-01
9.437495327662597244e-01
8.230845213961379692e-01
-4.459586927607923634e-01
6.134480582172288088e-01
5.097064868025800166e-01
6.161991359277383395e-01
2.836920269055842603e-01
-5.782232389518620064e-01
9.176192532081888231e-01
-5.223571606335970507e-01
-9.158875655160285678e-01
1.864176834193227439e-01
9.087615552868180124e-01
8.016406443671146853e-01
-4.710270615597105248e-01
8.742442381826012188e-01
-3.612936637240551363e-01
-8.435510001698709459e-01
-6.856973756516182572e-01
4.505721101543880280e-02
6.003004366476221154e-01
-7.007293332967654553e-01
1.466394872001801630e-01
9.232543282967204945e-01
-5.110722309367181637e-01
3.897017650228187247e-01
8.121586137257730265e-01
-6.854678052161160551e-01
1.170733440621829491e-01
-7.386812002770606345e-01
-6.961219644915273008e-01
7.370141383811885660e-01
-8.367649646642743022e-01
-8.906494254172456770e-01
1.551723546812722176e-01
4.118227878535156705e-01
9.452726583898516388e-01
-1.559943052450962764e-01
-3.242448889534943479e-01
4.250677898347530181e-01
-1.474773055661569021e-01
8.594456272428487864e-01
9.830021789627960693e-01
-8.377440741051846995e-01
-2.938349247986551394e-01
4.667183218447834570e-01
6.359101833719769115e-01
8.649393773235227734e-01
5.470849811395050999e-01
1.946343375876393722e-01
7.797091337013744017e-01
-8.056502363698641034e-01
-6.131760954620268933e-02
2.806357601304578786e-01
-5.954359595483544876e-01
-4.637711110497468869e-01
2.104566209646721031e-01
6.413570406265727275e-01
1.178974819546125818e-01
-2.880155766780863047e-01
-8.610608579194611867e-01
9.390934770896368633e-01
8.587931250303135755e-01
5.144912594851014376e-01
6.600591907475785725e-01
-5.369863286830085514e-01
2.298849937183919945e-01
7.371732000896997761e-01
-1.760847134865972663e-01
-8.065570176845378025e-01
-8.955849945489655628e-01
7.748992171219339919e-01
1.469976004804383063e-01
-6.641824885433789127e-01
-3.334819152640700057e-01
-3.707649899479714684e-02
2.050245367069833957e-01
1.123687080528839033e-01
5.253847769953448044e-01
-7.710156615837460148e-01
8.655586661968817097e-01
-3.396295318890818482e-01
5.738121970569274310e-01
-9.811810666896916278e-01
1.854859446715668714e-01
-1.492740344792573559e-01
1.400215071209811590e-01
2.553458029839319465e-01
-8.790152936136856887e-01
6.579410855809895153e-01
2.459835000424759333e-01
5.363123674738816682e-01
-9.369197304778871249e-01
-8.710509952910827636e-01
-9.665151032925485275e-01
-9.582054081058488659e-01
4.351687756432438547e-01
3.662094625543834692e-01
-4.746229806331165868e-01
