-8.808790269853905563e-02
-3.283311029146376292e-01
-1.921949210113371720e-01
-1.489979946474022654e-01
-8.137402728355813686e-01
2.673870394585491361e-01
3.701862628904970531e-01
7.913624124222375933e-01
-3.929368459757798249e-01
5.259719158726219312e-01
-8.223634034826075023e-01
4.631557773641188369e-01
9.883328967067073201e-01
-3.198912071961483861e-01
-4.618909139338396308e-01
8.174324464168352122e-01
-5.718850453246031584e-01
-7.393748898648278001e-02
-3.351941856970597211e-01
-2.660276374123693444e-01
-7.799756197248288725e-01
-3.736442405146163104e-01
-7.917631606477519846e-01
2.506564304610550131e-01
4.211915733486764069e-01
6.142362335658588801e-01
-3.142713735603956948e-01
-8.798291341688839751e-01
6.243937590609200949e-01
-9.230496648917063673e-01
6.528880782410189099e-01
-1.129343344979314434e-01
-4.318761595622204741e-01
5.630050379558406703e-01
-9.744917380454787281e-01
8.173922926680530221e-01
-3.362688782244014352e-01
2.216528581017405131e-01
-5.820839993561757186e-01
-3.296109917265637179e-01
3.819480509996031614e-02
1.928473778771344627e-01
9.272557692850185163e-01
5.567782576893121060e-02
-4.227020125411722340e-01
9.542307717424258762e-01
-9.973634373590571922e-01
-5.574702580007868669e-01
1.278272653002101578e-01
8.044266278006739768e-01
-6.242095763077237791e-01
3.034866393421942199e-02
9.997736042668774470e-01
-1.993950419066155000e-01
-1.577209693162986426e-01
-9.066613144371962196e-01
3.060539334692822244e-01
-2.424427451193995608e-01
-5.305419164070586113e-01
-7.756576987562846526e-01
-5.189993835001638356e-01
8.965930286727976650e-01
-2.423706726813030787e-01
3.673194473389338466e-01
3.190729805392715779e-01
-5.413847505776563374e-01
-5.462793182965377525e-01
-8.766981142694327822e-01
3.321137868859342923e-01
8.029518492532750074e-01
8.474194029027013464e-01
1.966972469474816965e-01
-6.339555563639329705e-01
8.032196914922768993e-01
4.769556972677284623e-01
-2.759148089943601612e-01
-6.776592296090186984e-01
-9.741206704631379942e-01
6.784564006787563439e-01
-5.084500645851917078e-01
7.148483652084929307e-01
-4.138075635542670661e-01
3.918814022317926860e-01
9.047944219852928072e-01
6.994458823536944259e-01
1.230059799398193210e-01
-2.551774983612544734e-01
1.423377220688615274e-01
-1.351530481577738474e-01
1.053805776569527453e-02
-8.149415204913559307e-01
1.187319052879707293e-01
-5.196988280706271723e-02
3.349438247915244027e-01
-6.382345043424892950e-01
7.030736887818929137e-01
4.831166345992095046e-01
-4.516620367718719997e-01
-1.946084022865000041e-01
-7.749170798259821247e-01
-3.865699701146956269e-01
-2.827360875054381051e-01
-1.444630671166780012e-01
-2.174497640089718686e-01
-9.299532362608653457e-02
3.810322505150289807e-01
-5.847672667266214930e-01
5.598809539032512106e-02
9.477598160160001228e-01
-1.731875194693861530e-01
9.668276776327138222e-01
-5.096498754777107898e-01
-5.363432790376545523e-01
-8.680334348344402873e-01
3.250989144075508985e-01
-5.681845034864732025e-01
9.443181894094054840e-02
-6.467271926913304991e-01
-2.808664508809024518e-01
7.134682457879770734e-01
-3.799542197127485643e-01
-6.312480923771637276e-01
6.046907493255595512e-01
-6.317145435502213857e-02
-9.252665937195361234e-01
-9.958922865493544663e-01
-3.947935258348107546e-01
8.496100008347933219e-01
-2.864094746942902336e-01
9.052585542013265041e-01
4.031727742755373267e-01
3.255534884165909304e-01
-8.532400748365900345e-01
8.231938917091199404e-01
9.972947452637552779e-01
-6.972292904421242277e-01
2.376445705527840957e-01
4.052200975311315290e-02
-6.759934077438254363e-01
-2.838718590300317590e-01
-4.014084868995269062e-01
-9.108572966941166360e-01
9.143001128553018830e-01
9.487533664604947958e-01
-8.220304280077765924e-01
-2.435952383110238095e-01
2.198469090778056856e-01
5.938229844760161136e-01
1.550208338289047472e-01
-6.857821528568079916e-01
-3.494702202106096944e-01
-4.027448616140905102e-01
-2.607895253768586219e-01
-7.634467826149955449e-01
4.276997231722123871e-01
4.446841708666173787e-01
-2.691847695330342738e-01
-4.944442223187806018e-01
-5.343773691844897478e-01
9.576916705995390799e-01
-6.044432513359023762e-01
3.852642317127228377e-01
6.253452577336964247e-01
-8.982030333329562577e-01
-3.075107426242191799e-01
9.728379625831209410e-01
9.072375641479903940e-01
7.486492240032127654e-01
-8.140178801226785055e-01
2.899639782256977494e-01
3.748090511873796160e-01
6.959754680931500292e-01
8.029140500457649932e-01
-8.841017629039955583e-01
-9.197353466320885573e-01
-8.993897816111262600e-03
-7.663542434180750096e-01
-4.147826830114325070e-01
-2.796329793924539064e-01
-8.665690578053053539e-01
-8.656791611480512127e-01
-5.557902389908919716e-01
6.054399613633378863e-01
-6.933409283847313809e-01
-1.395666389377550054e-01
5.235283244037312045e-01
1.129563352893030448e-01
1.932111189754814884e-01
-2.528507554597450024e-01
9.375833619049174228e-01
-4.478299263523481955e-01
-1.747250567561664525e-02
6.253555601765161676e-01
8.194705234701924468e-01
6.602059843397500849e-02
4.387773264093430825e-01
-9.867469071678460768e-01
4.399346878420236084e-01
-3.630609585999668987e-01
4.209121469927064041e-01
-9.583744982591588801e-01
-2.915082448184360686e-01
-9.243096735458173896e-01
-7.936068745520512557e-01
-9.342512364150619142e-01
-7.962964816474542573e-01
-6.181452662962441114e-01
-6.713755351002657079e-01
-6.239688350366912051e-01
-4.177788699184095123e-01
-8.505950957035439686e-01
-5.330650077258720643e-01
9.383942838022123478e-01
3.688844026799107390e-01
1.013062939849971311e-01
7.168469587506978158e-01
-7.716623983458337221e-01
-1.875473129419491514e-03
-4.270224574822880648e-01
3.954451264130514065e-01
-5.382304260271997265e-01
6.246982812247692252e-01
-2.636353740775589927e-01
1.710890727588831872e-01
-7.471164141765096467e-01
4.562358220738449432e-02
-2.667288168803798598e-01
6.883168922771920606e-01
9.138340916006209014e-01
8.908696612679951610e-01
5.595630552209112096e-01
-5.242672673112227510e-01
-9.485188062094929151e-01
8.471183888809039608e-01
-8.370877268188166020e-01
3.584226926691944648e-01
-6.102339436545709539e-01
-1.832144439803995439e-02
5.264355342714255315e-01
9.994776112001648727e-01
1.585554416380841047e-02
-6.537823692182918034e-01
-3.514022351731314053e-01
2.757664478089842941e-01
-6.713665205187537843e-01
4.103453115164144016e-01
-7.981983971601569472e-01
-6.584731211282575103e-01
7.455049549113894614e-01
-8.200961481627921934e-01
7.458105869308342406e-01
-4.270874734163407904e-01
2.550839940863536270e-02
-7.515849197113710911e-01
-1.695139192363686043e-01
2.172087741537866989e-01
4.194372564027768480e-01
-2.835178018333572858e-02
6.485284831313311571e-01
9.595383035681459560e-02
-3.951405990944181212e-01
-1.102982978275055537e-01
6.957159148402312088e-01
2.270322489930896026e-01
4.466492863921582845e-01
