-4.065379009684793044e-01
3.353489201546806520e-01
6.291078867210817549e-01
6.517448668063363648e-01
9.263343979133509265e-01
-6.532584857961332148e-01
-5.403310559530003498e-01
-5.592290077260908543e-01
5.832638632253162037e-01
-7.417489887301205176e-01
-9.758257517310724438e-01
-4.045799382650439036e-01
5.823018403258108933e-01
6.954724046493820921e-01
2.138566200058276134e-01
-5.939385581005400816e-01
5.736597482594067987e-01
-7.326277042765712011e-01
7.997891658192237685e-01
-4.753747350308721309e-01
5.948146526024731262e-01
-5.585960589730285530e-01
9.119105927768218489e-01
7.694351383475181994e-01
7.855730848157471691e-01
-2.996127309344229772e-01
-2.932505571708079462e-01
-4.552297682277253177e-01
-5.697766649398290362e-01
6.929590607694979809e-01
3.144189465728848276e-01
3.090230605632071637e-01
-9.832214105448722208e-02
4.895252499410491787e-01
-4.271524181725991909e-01
-2.333477558067083013e-01
-1.544384694909033406e-01
7.051995348153945464e-01
7.202690727430873796e-01
-2.398378089680233138e-01
-5.266330955795983648e-02
-2.276667930192681766e-01
3.940423175397855804e-01
8.595069264389065822e-01
2.755968439139033777e-02
-2.378924154918764522e-01
1.893844552311316765e-01
8.654149053359283528e-01
2.076200737128781615e-01
8.104423159248121955e-01
8.669683838781521157e-01
-9.671652339907315099e-01
-8.923664605284524765e-01
3.940545331935729756e-01
-1.050888307434276747e-01
-8.082673283494381522e-01
7.311420090739817468e-03
-5.101622628694968409e-01
-2.425323266448131676e-02
5.032586208025766616e-01
-1.412865190652816683e-01
-4.473411100881987679e-01
-1.959614855365763297e-01
9.017308356497291122e-01
-1.420464133396419637e-01
-9.017312588754868852e-01
-9.179222221079368360e-01
6.671373636880426616e-01
5.698765363558733199e-01
3.100597500778810023e-01
5.314448292737354862e-01
2.669891091758256341e-01
-7.789112497812289426e-01
9.845408206035521914e-03
-5.314135590112838425e-01
-2.959721933800532057e-01
-5.333840593384460149e-01
-2.038445471281633559e-01
-3.239676966622773158e-01
-3.688164601756134253e-01
5.545851143119195914e-01
7.272933428079002560e-01
-2.096635009360410251e-01
1.150089139960575046e-02
-9.614234724621997241e-01
3.696480989231218928e-01
8.379922905385384091e-01
-9.359600862553814071e-01
-4.414441130368129684e-01
-7.304101539141623078e-01
4.700998970791632203e-01
-8.429162280878679248e-01
-2.040169209095443748e-02
-1.678490036438375910e-01
-6.707857384785489430e-01
-6.703246955731922974e-01
9.608538857733037730e-01
-6.922842405620266426e-02
5.289452665404459353e-01
-1.073783952131996955e-01
-7.603884231607160871e-01
-7.873171881173501863e-01
6.652757096839725381e-01
-9.077296514315735809e-01
-8.474618719124742405e-01
-5.523553352730845578e-01
7.366412634834174078e-01
-5.535501812400642763e-01
-1.147686322335084164e-01
-1.529330667786492626e-01
-3.214096976166569419e-02
-4.619871057696443017e-01
1.243582767708155679e-01
-5.281691285064857855e-01
7.335189154232260034e-01
1.583213879840277283e-01
-9.176556255781598281e-01
-6.973650059315561478e-02
-8.265143736360034410e-01
-6.222906743022507126e-01
7.488223941442542220e-01
-9.824844994608195048e-01
9.198951113532107815e-01
-8.492472058591344908e-01
-9.973088500876183815e-01
2.185743954389929300e-02
-8.795953476554574380e-01
4.274311384832532035e-01
6.197965083715637480e-01
-5.767586729375260290e-01
5.743500914932260226e-01
1.075435409431144684e-01
8.292906149211098921e-02
-8.912192285225983834e-01
5.383961063348863263e-02
2.511683906339061689e-01
-3.594678979236813898e-01
5.837492387058003107e-01
-2.183488376164099964e-01
5.008477563082378570e-01
8.737571597207047791e-01
6.199399287578719608e-01
4.149939986106745415e-01
9.173845830969895587e-01
-5.326847181788858521e-01
4.305439498270302590e-01
6.669923764782990094e-01
3.427989516790406199e-01
-5.750272046540294557e-01
4.192167571445650776e-01
-8.692380406702724382e-01
-3.959335632541636230e-01
9.983126505930046690e-01
1.530275517685097952e-01
4.937000931938491100e-01
3.509702413086568384e-02
-8.748614738616835584e-01
-3.172940185335408891e-01
3.119014669457569333e-01
5.544409496341036192e-01
9.871001856258012630e-01
-8.220554529427168688e-01
-8.107755011777888488e-01
9.827974005523039125e-01
-6.154460711967184583e-01
-1.047517073507218122e-01
3.339307070830190849e-01
7.075993620230749404e-01
-7.817925370787890405e-01
2.063143073745661304e-01
-7.106495471528755381e-01
-3.010212367139875056e-01
2.622320757204525954e-01
-5.782232389518620064e-01
9.835841590099714260e-01
3.144552535835876128e-02
8.602280453925912340e-01
2.219897399241681502e-01
-3.995682632395025635e-03
-3.624815319385381596e-01
-4.760626624844572774e-01
-8.890896140172355189e-04
2.936424602051121990e-01
6.209585198622724622e-01
-8.931344534922851519e-01
4.536293702665117333e-01
-4.017338405202683926e-01
1.807966444205189038e-01
5.408350873673852810e-01
5.185403900161773549e-01
7.109558610274619994e-01
-4.360101167688088530e-01
8.547702693077072755e-01
1.712783754704099159e-01
8.769628289139754784e-01
-8.203145276167360667e-01
7.358845652758785327e-01
8.342759046625864983e-01
-2.328434124311851150e-02
6.924677467930455688e-01
3.561918249331230690e-01
5.687816423379761233e-01
-2.709152902485034708e-02
-2.878748326001390190e-01
-2.503715006365987428e-01
4.277653787141151298e-01
2.653224934299049931e-01
8.429075120200835158e-02
-7.601771444370830633e-01
8.034736942354543388e-01
2.109567715901312646e-01
-5.150115185933206163e-01
7.996391993061056080e-01
1.257021704570928655e-01
-3.981992323988539084e-01
1.632629796796436494e-02
-2.509772820759859080e-01
-2.881655992084473095e-01
5.005505112935759726e-01
1.752230855321050829e-01
-7.599021767390778948e-02
-2.871336720321504554e-01
6.765239904524860126e-01
3.692754002049150053e-01
1.934461574360677449e-01
-8.882603856814283994e-01
-4.924032828651763172e-01
-4.550849751840058133e-02
-2.284353879273506305e-01
4.275164253924867985e-02
-6.989832548353738240e-01
7.495531268673141234e-01
7.996547333906911526e-01
-2.136051917297729918e-01
-6.694441620601792042e-01
-8.575010413020400790e-02
-3.657313150783667588e-01
-5.325378074455844324e-01
3.171179796906922199e-01
4.620316299118754078e-01
-5.066472245185194012e-02
-3.100211470858544871e-01
-3.012778786257639396e-01
-5.184589920969324695e-01
1.452541128043178809e-01
4.463903569388423254e-01
2.512789518543112610e-01
6.122925616095928891e-01
9.083608739929176501e-01
2.714534911689083785e-01
5.819318136302156219e-01
2.617928416193555652e-01
-9.824102816630286839e-01
-9.395894657454550991e-01
3.945494309739017158e-01
-2.804104972049750177e-01
4.963098396474043827e-01
-4.956073121845712137e-01
2.853013683189855598e-01
1.825272147382692722e-01
-3.645637690697758337e-01
-1.251134875460333529e-01
3.283164136531857569e-01
5.663516929754293106e-01
2.304886635879903611e-01
