-0.9202678279249643,-0.6118517114622093,-0.9069214705791782,-0.2848610746445963,0.15874886882988193,-0.4891162228065722,-0.5584954693467146,0.11251093187735894,0.401613746541595,-0.50054003762687,-0.6148865093677447,-0.14675512401323743,0.2119004418809194,0.2797526693981247,0.010389730935845165,0.3163133449799964,0.6206974778441949,0.8533776648378251,0.8478421996334591,0.34243183725422077,0.6845255064828875,-0.5324090309437359,-0.34113900653913,0.7648514696234847,0.45375953243106437,-0.9590106203126203,0.4684845134446336,-0.47291119491552625,0.4179525218913702,0.460638987908927,0.8506312631715318,0.7648501953672617,0.8889087021820068,-0.3160129777408225,-0.54093981356795,-0.5827128752970092,0.16632629464622228,0.8478557241005689,0.5054497545462313,0.727057034712906,0.6262639359346915,-0.42961173879561354,0.2560586450869964,0.736685321708443,-0.8541696325266404,0.6558000104939739,-0.8077456325146688,-0.8430916288646331,0.38901815451562705,-0.438366778465868,0.5149898692081025,-0.006934618035886464,-0.5672167496077818,0.11881940619686993,0.057344176221565846,-0.6488446914447512,0.07639439751853527,-0.8371099244855744,-0.5993986975001633,-0.022212206798703615,-0.15133906923381035,0.7034612831091571,0.2933244921991871,0.8654560856952158,-0.39607414316341716,0.32162476194021994,-0.9242009815986776,0.7391973848647493,-0.1340596512556973,-0.38432817975462896,-0.2877757853118892,0.15006903396837923,0.32651980320789975,-0.2705391703693212,0.6092585665432158,0.5813104030647349,-0.3460793678543299,0.77693023814086,0.7311103582052467,-0.5757308905643741,0.23891759240611554,-0.7541109046775727,0.41433368160925266,-0.9093211180937775,0.17343887240495537,0.5848340206225433,-0.438368796033787,-0.6761802687257505,-0.9867631754257429,0.1557741669426731,0.7579554655761758,-0.2364366123607664,0.7451636444816125,0.4231323525216766,0.6116825261891639,-0.15646273640284525,-0.6674617214307248,0.5186972173228104,-0.8503242369047368,0.6772200280900824,0.06633726631028036,0.44121013080579563,0.4858871444011488,-0.06108595183870835,-0.3037636376572266,0.32415734309703503,-0.2668202802415387,-0.11828412054745518,0.7463787494885239,-0.48865348775713113,0.25349856207279564,0.9544666642403627,0.37094862468718115,0.5704290319827059,-0.5839433722111884,-0.6731923233026231,0.6071166901384317,-0.5220062767238807,0.9466483224297337,0.7533090308119197,-0.7103989555849501,-0.4034343338564752,-0.044360810384899585,-0.02159192939466159,-0.8703603142326655,-0.9697638565234514,0.7850330757129909,0.12956271363079797,0.9966110131823174,0.9406273187020013,0.6258887979297885,0.18947051505778978,0.8470637281663878,0.4727758478703834,0.0943008856201355,0.16365187170700524,-0.7521918431695578,-0.5846541788332444,0.7903930822549037,0.20981478479813886,-0.8461675762909158,-0.4092531878957708,-0.3674833944915623,-0.08663787592512295,-0.20864792781833774,-0.5048435425023527,-0.039124634422030846,-0.43725945609717054,0.012697413135130509,0.5621170445231549,-0.2701237844856892,-0.32251428132639814,-0.8846449924083548,-0.9051172484465568,0.2615804786905558,0.19619899108611416,0.24856533978538597,0.0024341434834787012,0.543340915953312,-0.37315475209609383,0.7527609705845011,-0.5516772131780043,-0.5249590591245579,0.28441147481370543,0.15693394786396486,-0.7169578362025923,-0.6749107127894396,0.00041300874300387314,-0.8165879172902784,-0.023010636474593893,-0.7313568092438858,-0.7114877898817329,0.5523469368055924,-0.8185737139898528,0.7106522438855294,0.37278889605596754,-0.33161966572713464,0.987873729762955,0.9875607558961723,0.24127447331511043,-0.8679157345769262,0.17386567276158327,0.6518144607768952,0.14926081955427595,0.7517119211669507,-0.6585487050040266,0.9607487522500389,0.4064146061296643,-0.37998954503936955,0.6708571726344619,-0.7973934999284058,0.1560573931163225,-0.9836585555588275,0.9498103988675508,-0.7657114755349543,-0.5007289677926661,0.19512239383582508,-0.33465731184466474,-0.1382223866512995,-0.09054630402049724,-0.9000735273383229,-0.8468205169253589,-0.18133538215828815,-0.22596012263732757,0.8962853743506514,-0.5941131268721243,-0.10395406179107769,0.3658366242560276,-0.9009856123559803,-0.347471420286561,0.1357156789349423,0.7478767411519249,0.6092454120304724,0.33304892723247725,-0.3207708723263647,-0.7329422880626764,-0.22291272784891492,0.9837238371073083,-0.05434497004425576,-0.5225444315948264,0.8058735831664852,-0.11425028210091703,-0.15061869343407142,0.8060448090758121,0.7980160827802418,-0.024293674441457025,0.08262225366385278,0.9195910331234745,0.7398698519458147,-0.8654145607409449,-0.9875395330750114,-0.8325055758993329,-0.7549338413591644,-0.840035706389824,0.07011650508272127,0.8355724407649021,-0.902213002250704,0.0369065063426508,-0.20949918797481182,-0.6000610540228446,-0.15096401603955623,0.4621630710398055,0.08829967678363881,0.9046259548785502,-0.5085003441563509,0.3591420376036598,-0.010652109631695605,-0.112237246328031,0.06746444767797288,0.6558225600463767,-0.1306043113743489,0.7806339067252652,-0.697822167015145,0.5403341107376614,-0.36771228720972804,0.40342384582422075,0.31613168186700125,-0.9595992867173966,0.6326502574394326,0.9134625371684175,-0.4056708051897484,0.9525867159021244,0.36185731513127073,-0.4478319981975192,-0.6542675737237353
-0.9772847252509218,-0.9533916700060405,0.7550945233072088,0.0872163097458829,-0.6795617446111657,-0.05440354251166735,-0.05991245792591604,-0.14135809512891573,0.3509173451343366,0.512649453756608,0.46035716485007194,-0.25747698163080135,0.8014740174711876,-0.9617702813463325,-0.1856097175074174,0.6414992758684637,0.1277562378639967,0.651902527283093,-0.28338777156070605,0.8764662635053995,0.09646439899148151,-0.1162379595373384,1.0,-0.9346503857254851,-0.010682691701871416,0.978975514631663,-0.5574198842487226,-0.2214872036911011,1.0,-0.954995557399938,0.8316573203977375,0.23037110246203651,0.4992233639743944,-0.19796800711303075,-0.5324494391265837,0.6526210278695128,-0.0839760872421409,1.0,-0.3358309113936937,-0.30802066382387583,-0.1569204194942655,0.23544511580568428,-0.3483439631019676,1.0,-0.6101178109482408,-0.6769256510775898,0.6479080930071461,-0.9183427370863035,-0.7872923784166526,0.884620677906703,0.6484160957332574,-0.3174114392332794,0.3371111355485459,-0.12858589338570692,-0.8014532391442437,-0.3434616875507508,0.6731031595382975,0.32828768976426836,-0.1349477382735771,-0.8942394393922699,-0.38035393656692573,-0.9427233656571579,0.3130305696835778,0.36598815908812576,0.04756464131539495,-0.6510275833340211,-1.0,-0.446512630485443,-0.8223458964169739,1.0,0.7219277784134217,0.903172549416837,-0.6609798220686269,0.3193304391702485,-0.12439308382374836,-0.6343947439520958,-0.8054066955567152,-0.1344047848228671,0.5998849442439174,-0.4635890959856992,0.36708392296097525,-0.4161171313803962,0.9036814937858619,-0.7366155905531269,-0.8888287371290549,1.0,-0.9749615585771498,0.5843815615876025,-0.9786854798527107,0.04588407691353735,0.6583158076771394,1.0,0.6921817602317726,-0.6068948228155886,-0.9076234327717763,-0.6051377111988305,-0.6636325738578643,-0.8877406626148896,0.11355141567520799,0.6812339030236392,0.505402433992348,-0.3990490518301888,-0.6413781530750071,1.0,-0.11786063032735017,0.44239653861589656,-0.786791112312681,0.4281842321733422,0.2125252812469085,-0.021828857469904372,-0.21958248152944027,-0.39569148213946015,-0.1659858444315363,0.28086324053427303,0.3219680013883879,0.3315955860715514,0.628327603489915,-0.2567391015459288,-0.89243122867696,-0.5963315917826391,0.8687373604735831,0.817206376613564,-0.1424044923887322,0.8347375209663357,-0.08662538851460866,-0.9740494490883238,0.8319514376744452,0.9951498125323854,0.4347146404499158,0.6396219753183319,0.3031294395045945,0.10792932596769012,0.06482152114991546,-0.08817111870667471,0.15272099783813942,0.5351718059459158,-0.09069926838437214,-0.4462651174945347,0.3096058669249968,0.30476831078187394,0.6616409217214965,-0.6860287684927786,0.6885440626616326,0.07324797307594677,-0.145497784086982,0.1413355102157854,-0.5019472818183512,0.6389855264341757,-0.1672653668430426,0.24096451330104762,0.9431179114884953,-0.6691936869570143,-0.09185401108758451,-0.6637000984761707,-0.42314883740202536,-0.3628360910959909,0.24486708019304348,0.4570844050796885,0.2279430093413093,-0.2797775024853988,-0.22171732939797684,-0.8247651845636708,-0.9266859976457298,0.9786919883092247,-0.4777432702714324,-0.7384986687409583,-0.27989674092920436,1.0,-0.37679032032263393,0.7597563497323936,-0.6285985366900895,0.1494961325577535,0.5504260401274088,0.8183028135644181,1.0,-0.46437550628245994,0.9861087680225975,-0.24047415019943097,-0.00276157471213212,0.03769220487929981,0.5081392247856305,0.7114203760130005,-0.3540835172928638,0.26024862695534434,-0.38105798322911766,0.20702491042110882,-0.6995297542184389,0.804023692339622,0.13746257606928625,0.7088217416349454,-0.7655712134619486,-0.3033046657053977,-0.9149505583966695,1.0,-0.7917777668968125,-0.11760471374615511,-0.5890169185882852,-0.016710657554001696,0.4946718196858706,-0.4824965611167469,0.8906837286374563,-0.17233559049216396,0.8080109294616769,0.18339437769345857,0.5863785298603059,-0.6751576453670562,-0.8335157258084529,0.9779937604838251,0.44193243687525907,-0.4860038781776286,0.2371636077188839,0.18622336660736405,-0.29259268456145726,-0.28742163914419727,0.9703843474920313,-0.06581519887669263,-0.6436010554389628,0.34532038743226146,0.8666466099133476,0.1387652303862188,0.28071789922206425,0.23905217322136796,0.7712715574982543,0.128713790134535,-0.7201534195670933,0.5660619331052565,0.7137601815823311,-0.29453616948015204,-0.9440320039652539,-0.8187794093312233,-0.7931618138251495,-0.3228524286791905,0.5047469186837876,0.06986314588353482,-0.28766438139457673,-0.459243373130237,0.8197439186235611,-0.38742098841944395,-0.27419193706914324,-0.9923603205930345,-0.4356364093316236,1.0,-0.1411308327719416,0.3475202960828405,-0.21702268706996786,0.12446703764263622,-0.2974026428454677,-0.6224918562917483,0.5199083978312264,0.7922660895987801,0.5710487816242891,0.8975611765995699,-0.6340686718733044,-0.3139991133151667,0.7747464483815714,0.38401919643920857,0.0351959200173364,-0.9768824207840534,0.6700671994995813,-0.5713991406887986,-0.8342538491146467,1.0,-0.9465778254890909,0.5904744531039441,0.5931954518291132
0.11187210682299065,0.46946718967810774,-0.49996809959219757,-0.659089388682065,-0.34186050681142044,-0.4471098883808997,-0.7726256576749226,0.6607607743037058,0.17045962794786096,-0.6344767884013296,0.6737597411249432,0.807812564239633,-0.40977472988674446,-0.866721172150811,1.0,0.64666028672631,0.11936608020295392,0.03211794572552096,0.4535941616879833,-1.0,-0.7263390882091572,0.18645958173984845,0.7101795251484253,0.39831926644825355,0.5651102730226545,0.946599468377632,1.0,-0.3165723591425036,-0.6717690736778907,0.6244460098371727,0.7301825027800548,-0.8499715294765693,-0.91139603058995,0.8688984124018759,0.49221255935983255,0.13217816121553483,0.7423016195834053,-0.6791368039943784,-0.2678579150592242,0.48683917234376906,-0.25621704107860666,-0.09084318453524043,0.2539431466500872,-0.2445735562328606,0.10123014273492781,0.266135281000355,-0.171505309977102,-0.05776302916337617,-0.4089113962943445,1.0,0.28277824775966987,0.4371105667608204,0.42683786047048033,-1.0,-0.4549397439602334,0.3201881806769462,-0.6703196342203315,1.0,0.5292032335226575,-1.0,-1.0,0.6525952339365166,1.0,0.24103129255218403,-0.47560025929202654,1.0,-0.9681617679935457,0.9816489318557027,-0.9155416611887497,0.9058468865138463,0.5411647273627387,0.6496100398084561,-0.6472366951436217,0.0436760952851003,-0.33155925420842935,0.7173421020883373,-0.020004199687302826,0.2588427458346403,-0.17076410547524223,0.9388252212751282,-0.6146721473237062,1.0,0.1843969343004046,1.0,0.36910741417276993,-0.5955613872078378,0.5035984196844587,0.19679025962352958,0.07409597036192705,0.9139810227792122,0.4837935419027739,-0.8584827691569541,0.16255884819097144,-0.372206274908617,-0.8025541018131146,0.8986113238970104,-0.20135864106682755,0.7611005614354385,0.5225378340267648,-0.35500466693183474,0.42619409533803676,-0.5357365740111091,-0.6928469894820584,-0.5068401787884207,0.26901189704876893,0.14402204569213994,0.5942827951713516,1.0,0.3138142532145647,1.0,-0.5137515174650051,0.09193267883692169,-1.0,-0.38638745727994284,0.7498976930836347,0.22310976853769926,0.15046556357828322,-0.20912764676735685,0.5878393673488702,0.17597180608435092,-0.8136069063067546,0.4409661798005722,-0.8985836686601638,0.9900000000000002,-0.09538766653739539,0.8277835004602041,0.48366845430536554,1.0,0.7644858628784086,-0.5121787147386188,-1.0,0.09940376112436677,1.0,0.8826506607349986,0.9021462031958158,-0.1575504646040793,-0.1539682564627296,-1.0,-0.8040555720771314,-0.24164265253507766,-0.016654857881923668,0.2738745146038051,1.0,-0.6376345782177992,-0.661139973458341,0.9900000000000002,0.03494127498976951,-0.3531128967179291,1.0,0.3518905511395878,-0.38599954247141754,0.44629973967010006,-0.969322301106164,0.16355329445596567,0.9720985917764617,1.0,-0.11093413369100169,0.8564406673584424,-0.9707254923129958,0.144221935331994,1.0,-0.18980058587509196,0.5962142006233737,0.8103865195652427,0.0946297337983728,0.5477176572457019,1.0,0.07037065465379966,0.21240366646103137,-0.20021118879769295,-0.08928591939600095,-0.518437312621824,0.3026862047793566,0.9122583738617243,-0.20359704728700057,-0.10674317784871512,0.3446904823063921,0.06381911394761008,0.04800293004419709,-1.0,1.0,0.09261083125730729,0.6867775306371238,1.0,-0.6972323865487899,0.916497096205418,-0.7087800236528468,0.34486808036637573,0.7485357222747684,-0.28373159717224095,0.21067824594546192,0.9751956435178872,-0.057447871392138694,0.12190040160247939,-0.051053013492814436,-0.33257533324151645,0.8536879901823557,0.9739233195776364,0.979889606434295,0.8693391801198591,-0.021812684495047696,-0.25634901134320054,0.9007608128533888,0.1297950829746397,0.7617457055143094,-0.8179599825531573,-0.09392946213656117,0.08794845743731028,1.0,-0.4018353001882313,0.30127727926033954,0.593111683303682,-0.3762286379892943,0.09608103424775427,0.35453148380181243,-0.3176320359844861,-0.19706169076795987,1.0,0.7208119570092122,0.21651723034041848,-0.2567909984020804,-0.29058606730214365,0.8856357787491271,-0.5159404225425352,0.5514474441872537,-0.7162988700179849,-0.9338489101133174,0.24186183777316295,0.8494859195563274,1.0,-0.426058536383253,0.448561594300676,-0.8870982269916279,1.0,-0.17003163801410626,0.021201676087513555,0.8505006856070301,-0.8764669883801686,0.8391137141115812,-0.22360086339987362,0.38492034419609644,0.45680162186340256,0.5543976015577856,-1.0,0.9781003052751309,0.08516637626741508,0.27350174502895785,0.232920429906196,-0.6592741672657956,0.4835474807963882,0.16086674205476403,1.0,-0.48364650813237464,-0.9984642023383499,0.3426549113307109,0.37181301572203007,0.3945121643937286,0.46770845391206595,0.7527205710125591,0.5267514352545382,-0.40227690333072674,-0.6050711134409807,-0.08105313072777864,0.9212623890189333,0.11238840274552508
0.3360117306842323,-1.0,-0.5216401720661761,0.35683745909117404,-0.6606324793829805,1.0,0.566152907714959,-0.5596425997197678,0.9900000000000002,-0.8748831689590646,0.10325960661913158,-0.5030745704480952,0.7645388081021176,-0.6120832372397089,0.022329167732937805,-0.4261614625320487,-0.3187480001170746,0.5921744783444645,0.30022408927320776,-0.2083758650393246,0.9900000000000002,0.057788530284283546,0.015273751585304418,-0.5806270245428884,-0.39637884355087705,0.8022682578882865,-0.4246695670549967,0.671493371483102,1.0,0.9594259074664611,0.49150910944679316,0.11714163263791366,-0.16989211643704805,0.4359954815731819,0.5921404415029503,-0.04709733757041967,-0.3799989355851978,1.0,1.0,-0.3430822006209082,0.7975316955571312,0.16813815057191928,-0.5356338394954929,0.6974430249787317,-0.9153226266426362,0.6765998264737573,0.2575039444418903,-0.03494615518301636,0.1753018297274207,-0.17277340853805168,0.9129700971569039,0.6836937227028197,0.06094196472940183,0.6828898285875271,-0.12832246816732473,0.7204359299791061,1.0,0.2000674474338161,-0.05931280954919993,0.25004166572825204,-0.155001002867988,-0.05123595929553604,-0.03379091014617952,-0.7196903947555757,0.40960249430284756,0.260298264048477,-0.04631854781090172,0.9900000000000002,0.7639785578251912,-0.23236305523209244,0.01999055907949332,-0.22452094115117138,0.9900000000000002,0.5538661189828185,0.26561747509138023,1.0,0.02912612500642342,0.03230239914764965,0.33895397603450894,0.05819391635360094,-0.844054397737338,-0.1706840340395912,0.615479357576056,0.019743276888278705,0.1309910538638812,-0.48764034640994813,0.18012506406611506,0.3418534697540707,0.08805351331570588,-0.4598533203048927,-0.07146954061567357,-0.4126542523528549,-0.15891077536520148,0.5100710968086125,-0.2922072797042373,-0.6158990965490109,1.0,-0.11344461046549226,-0.09532126849975198,-0.3483469357162162,-0.15796639566628423,0.46649370588979,0.8897004930613845,-0.12042411727177793,-0.07920627628270283,0.393434053174869,-0.35558479397441833,-0.9152788380491841,-0.5104758290182927,-0.13406334671004205,1.0,0.10045948158423368,-0.7661493446090781,0.4364077216529252,1.0,0.23314765392703407,-0.3080716968235473,0.4290662734276942,-0.39021382952936,-0.38613401042514095,-0.8154417307618342,0.22926128931891498,-0.029204086569931453,0.1040097728175784,-0.21241353392725504,0.6525895793455119,-0.6438769388173669,1.0,-0.0007983129264381716,0.33874796137101093,-0.11416149715689139,-0.023531337400624075,-0.8253814054956257,0.9900000000000002,0.916459395483356,0.55349135063655,-0.2772036281677934,0.9900000000000002,1.0,0.9900000000000002,-0.6910944075881269,0.37863013043778304,-0.8933089420800666,-0.8962429030969783,-0.42320336075289955,1.0,0.758316421252764,0.033685366890746415,-0.3761106668808776,0.9589504134445663,-0.42106280396811613,-0.24241128669497058,1.0,0.8625943124241446,0.7340996688686561,-0.07354240413887858,0.75008036736254,-0.7911754947058653,0.7317389246006538,0.5833090176599462,1.0,0.06766723003915032,-0.44428468893924755,0.5321759060597713,0.9532726312184883,-0.3413896771637521,-0.7593227785435774,0.9508793271120275,0.3865391086874004,0.5097976084343963,-0.9140605400548729,-0.22497129317391718,1.0,0.23413062854546185,-0.5275887548168559,-0.6855202765430599,-0.5140908389584693,-0.46651042586600666,0.46614175774251065,-0.7054475398681932,0.07989618864933234,-0.5419599135692446,0.7149596654490589,-0.09925046528020931,1.0,-0.9526105174540445,-0.09754038489725092,-0.19373329814086504,0.24922332370225098,-0.7003814453792936,0.25934470827036726,-0.47739555935694455,0.628729479919782,-0.9632926434062377,0.9424294564323064,-0.40401984971012284,0.5562807709435544,-0.6396434941973805,0.9061302508366904,-0.5014800160758397,0.3416865195894774,-0.31116338937136057,-0.47943818169928143,-1.0,-0.16009037759274336,1.0,0.6203488796061736,0.8996815828221338,0.0551064153964389,0.7923078599967672,0.5120632155197873,0.2440093174878495,-0.8499977310478837,1.0,0.9900000000000002,0.345735341826666,-0.5013586138047252,1.0,-0.7433355076142472,-0.6275689091168521,1.0,0.7976231929656272,-0.41890409951126184,-0.214078076555424,1.0,0.5876505799151677,0.3067747018418854,-1.0,0.05081578284998223,0.6743988429519758,0.39023153840412417,-0.3359709007603904,0.7116781589352934,-0.3924592124677939,1.0,0.9495127175601281,1.0,-0.23760182479860203,1.0,-0.16171580183051204,-0.5232180673573028,0.8290923938639911,0.39870290427617894,0.6539762168028551,0.49228701920618745,-0.2833082592149623,-0.5263293951958321,0.9516655887104113,0.5329379362792985,0.8775705772088152,-0.8141207204802381,0.9900000000000002,-0.45392445000908244,-0.28560647264611494,0.17837709126604473,-0.8733581738489997,0.5384516660543346,-1.0,-0.8220740516976759,-0.8843331539753101,-0.5659151979774721,1.0,-0.5059189082732258,0.1389253396781136,-0.6808355850374417
0.3200313513261923,0.5077904586173099,0.9900000000000002,0.33280059695592534,0.984658319467834,-0.06440354251166713,-0.05991245792591604,0.8969857504757002,0.3509173451343366,0.3957282342927604,0.4503571648500717,0.38110260617187564,0.8014740174711876,-0.9617702813463325,-0.2071409314907986,0.02407150710475614,0.11531917248129697,0.651902527283093,-0.24717138169390518,0.8664662635053997,0.09646439899148151,-0.1162379595373384,0.14011506926417505,-0.9446503857254851,-1.0,0.9589755146316632,-0.5574198842487226,-0.21148720369110086,0.11625322294554685,0.0020074099490976494,0.8216573203977378,-0.024712143376927287,0.4992233639743944,-0.217968007113031,-0.5324494391265837,1.0,-0.09397608724214068,-0.4186332217310593,-0.10336649770818873,0.8907590953511058,-0.6411691848948617,0.8032639784067577,-0.18057144134357195,1.0,-0.041558733640996603,0.3126399808225804,0.9900000000000002,0.3536567507135846,-0.7972923784166523,-1.0,-0.34043847158485274,-0.32741143923327964,0.3371111355485459,-0.11858589338570669,-0.8014532391442437,-0.3534616875507508,0.6631031595382977,0.9035302770001508,0.9900000000000002,-0.9042394393922697,-0.3903539365669255,-0.9327233656571581,0.7679445350682537,-0.06280380540131869,0.14347431895532947,-0.1820926447678204,0.24497539512608046,0.5354734484959471,-0.15633803480326303,0.3616807256967012,0.6157522352572,-0.03162716191351744,0.026678746259220176,1.0,0.3587197640274651,-0.8837445523469194,-0.5509428220011205,-0.3262365094858066,1.0,0.2571649540347666,-0.3998978141760783,-0.17043940450155226,0.02672801652892165,1.0,0.3984972641469011,0.00924613325307444,-0.5009661625838874,0.25222753928772734,-0.06363118625208364,0.31966142684118726,0.6483158076771396,0.5349956152411313,0.6721817602317728,-0.23948067928572225,-0.9276234327717763,-0.1330565865440696,-0.6636325738578643,-0.8977406626148898,0.10355141567520798,0.671233903023639,0.505402433992348,-0.3990490518301888,-0.6413781530750071,0.3138675815254479,1.0,1.0,0.23650497419618866,0.43818423217334224,1.0,-0.04182885746990417,0.6609235813635843,-0.39569148213946015,-0.1659858444315363,0.2708632405342728,0.3219680013883879,0.3415955860715516,0.628327603489915,-0.27673910154592907,-0.90243122867696,-0.2661454273416579,0.8687373604735831,0.817206376613564,-0.15240449238873222,0.8347375209663357,1.0,-0.4627287071278898,0.08344627249534398,0.9751498125323854,0.424714640449916,0.6296219753183321,1.0,0.11792932596769012,0.7708871747692618,1.0,1.0,0.5251718059459156,0.9900000000000002,-0.4462651174945347,0.3096058669249968,0.9576641671898196,0.9167734578227797,-0.7060287684927786,0.6885440626616326,1.0,1.0,0.13133551021578516,-0.511947281818351,0.3389814265897564,-0.7294106726668241,1.0,0.9900000000000002,-0.09129737853234499,1.0,-0.548763862061707,-0.42314883740202536,-0.3728360910959907,0.2348670801930437,0.4470844050796883,0.20794300934130927,1.0,0.4038355506776181,-0.834765184563671,-0.9366859976457298,0.9686919883092244,-0.4877432702714324,-0.08342420118949123,-0.28989674092920437,0.18015702613854812,0.9900000000000002,0.7497563497323938,-0.5162460803766016,1.0,0.560426040127409,0.6088279118602831,0.9397334127365653,-0.9685340164005227,-1.0,-0.6433612351146856,-0.00276157471213212,0.9900000000000002,0.4981392247856302,0.7014203760130004,0.6448262571951253,1.0,-0.39105798322911767,-0.5177255023337825,1.0,0.4502334377225683,0.2505930219047069,0.6898394571347036,-0.004751844089993629,-0.0319305125580267,-0.43685489550514767,-0.03509480056622438,-0.7787446212158834,-0.3091668407694106,-0.20694726237623007,-0.5133553287770007,0.18322471651728556,0.5549971847816064,0.4334300735917749,-0.5045780537087613,0.31333777365169435,-0.0212828724719345,0.9223705822964728,-0.6396353861195901,0.23476524025571077,0.6619151923699262,-0.2395265877403605,-0.4167376492320948,0.1864396433269131,0.4620500538796444,0.1583263637345076,0.3364165439185314,0.6911640038889991,-0.5470045454172334,-0.09860787508611402,-0.3273398062838693,0.39615081993454593,-0.19188960060430382,0.6776141295272451,0.15064001094871982,0.3103264320320914,0.4234629532317883,-0.7201534195670933,0.2823319126994759,0.7237601815823311,-0.31453616948015206,-0.9640320039652535,-0.8187794093312233,-0.7931618138251495,1.0,0.956028063379184,0.9249483383503709,-0.018256986116441887,-0.459243373130237,-1.0,-0.38742098841944395,-0.01570716360519686,0.8279311789911334,-0.44563640933162363,0.2940630173352847,-0.1511308327719414,-1.0,-0.21702268706996786,0.6525834279493088,0.4612130443331841,-0.6224918562917483,0.5099083978312264,0.7822660895987799,0.5610487816242893,0.8875611765995699,-0.6340686718733044,-0.32399911331516673,0.7747464483815714,0.37401919643920856,0.3461121145493795,-0.6668661075030253,0.6700671994995813,-1.0,-0.8342538491146467,0.9703927980710185,-0.7761253285285101,0.9699666651382959,0.5931954518291132
0.11187210682299065,0.46946718967810774,-0.49996809959219757,-0.659089388682065,-0.35186050681142067,-0.4571098883808995,-0.7726256576749226,0.6607607743037058,0.17045962794786096,-0.6344767884013296,0.6737597411249432,0.807812564239633,-0.40977472988674446,-0.8767211721508108,1.0,0.6366602867263103,1.0,0.9900000000000002,0.4535941616879833,-1.0,-0.7263390882091572,0.16645958173984887,0.7101795251484253,0.39831926644825355,0.5551102730226543,0.936599468377632,0.7323997246302523,-0.3947417770290149,0.21091604383985896,0.5425424988730498,0.7804068829757931,-0.04256066705465378,-0.011243664203971604,0.934449206200938,-0.02936362710405871,-0.2252673570407372,0.4443139571148138,0.07435946005309546,0.3560710424703881,0.636872716320898,0.5908485388412256,-0.2652274616654269,0.2550008958685418,0.2410558827377911,-0.3764697448958563,0.4609676457471644,0.9356820172397962,0.07345418556768335,-0.009946620889358715,0.8515534716161,0.6413891238798349,0.21508797436246696,0.616042192275778,-0.44559029690156504,-0.21379778386933346,0.1239654778261019,-0.6703196342203315,1.0,0.5292032335226575,0.2297442231900595,-0.03847396486854748,0.6525952339365166,0.9800000000000004,0.23103129255218402,-0.47560025929202654,1.0,-0.9681617679935457,0.9716489318557029,-0.2850271924734029,1.0,0.5311647273627385,0.6396100398084563,-0.6472366951436217,0.0436760952851003,-0.33155925420842935,0.7888546854169052,-0.020004199687302826,0.2588427458346403,-0.17076410547524223,0.9388252212751282,-0.6246721473237065,1.0,0.1843969343004046,1.0,1.0,-0.6155613872078378,0.9481057986176191,0.19679025962352958,0.07409597036192705,0.9139810227792122,0.4837935419027739,-0.8684827691569543,0.16255884819097144,-0.3822062749086168,-0.8025541018131146,0.8786113238970108,-0.20135864106682755,0.7611005614354385,0.9316372501186243,-0.35500466693183474,0.42619409533803676,0.3229003149462222,-0.6928469894820584,-0.027383930508109167,0.26901189704876893,0.14402204569213994,1.0,1.0,0.41002154297612803,1.0,-0.5137515174650051,0.09193267883692169,-1.0,-0.38638745727994284,1.0,0.44232375665680346,0.15046556357828322,0.8458698914518661,0.5878393673488702,0.17597180608435092,-0.8236069063067548,0.4409661798005722,-0.9085836686601638,0.9800000000000004,-0.09538766653739539,0.8277835004602041,-1.0,0.9900000000000002,0.7644858628784086,-0.5121787147386188,-1.0,0.09940376112436677,1.0,0.8826506607349986,0.9021462031958158,-0.1575504646040793,-0.17396825646272962,-1.0,-0.5772202707767033,-0.24164265253507766,-0.016654857881923668,0.2638745146038053,1.0,-0.6376345782177992,-0.661139973458341,1.0,0.7022520554247778,-0.3531128967179291,1.0,0.34189055113958755,-0.3959995424714178,1.0,0.7034815541067729,-1.0,0.9620985917764617,1.0,-0.11093413369100169,0.8564406673584424,-0.9707254923129958,0.144221935331994,1.0,-0.20980058587509198,0.5862142006233739,0.8103865195652427,0.0846297337983728,0.9959629454207524,1.0,0.06037065465379943,0.21240366646103137,-0.20021118879769295,-0.08928591939600095,-0.5284373126218238,0.2926862047793568,0.9022583738617245,0.10229640666207951,-0.1267431778487147,0.3346904823063923,0.30795041741620377,0.03800293004419686,-1.0,1.0,0.09261083125730729,0.6867775306371238,-1.0,-0.6972323865487899,0.916497096205418,-0.7087800236528468,0.33486808036637594,0.7385357222747686,-0.29373159717224073,0.21067824594546192,0.9751956435178872,-0.057447871392138694,0.1119004016024796,-0.06105301349281422,-0.33257533324151645,0.8536879901823557,0.9739233195776364,0.979889606434295,1.0,-0.021812684495047696,-0.25634901134320054,-1.0,0.1297950829746397,0.7617457055143094,0.9696717043010752,-0.09392946213656117,0.08794845743731028,0.9900000000000002,-0.41183530018823156,0.30127727926033954,0.593111683303682,-0.3762286379892943,0.08608103424775404,0.35453148380181243,-0.3176320359844861,-0.20706169076795966,1.0,0.7208119570092122,0.21651723034041848,-0.2567909984020804,-0.29058606730214365,-1.0,-0.5259404225425355,0.5514474441872537,-0.7262988700179847,-0.9438489101133172,0.24186183777316295,0.8494859195563274,1.0,-0.426058536383253,0.448561594300676,-0.8870982269916279,1.0,-0.17003163801410626,0.021201676087513555,0.9625791567061048,-0.8964669883801681,1.0,-0.22360086339987362,0.38492034419609644,0.44680162186340233,0.5543976015577856,0.3250005224282493,0.9781003052751309,0.07516637626741485,0.27350174502895785,1.0,-0.6592741672657956,1.0,0.16086674205476403,1.0,-0.48364650813237464,-0.6301946461007537,0.46398208436603383,0.36181301572203006,0.3945121643937286,0.46770845391206595,1.0,0.5267514352545382,-0.40227690333072674,1.0,-0.09105313072777843,0.9212623890189333,0.11238840274552508
0.3200313513261923,0.5077904586173099,0.9900000000000002,0.33280059695592534,0.984658319467834,-0.06440354251166713,-0.06991245792591583,-1.0,0.3509173451343366,0.3757282342927608,0.4503571648500717,0.38110260617187564,0.8014740174711876,-0.9617702813463325,-0.2071409314907986,0.02407150710475614,0.5427444942200923,0.651902527283093,-0.24717138169390518,0.8664662635053997,0.14606784724545374,0.13979463595935915,1.0,-0.9546503857254853,-1.0,0.9489755146316634,-0.5774198842487221,0.3397563792024676,0.5243542495219327,0.811521597986363,0.8216573203977378,-0.024712143376927287,0.4992233639743944,-0.22796800711303078,-0.5324494391265837,1.0,-0.10397608724214047,0.770253329495814,0.34863123360955983,0.8907590953511058,-0.6411691848948617,1.0,-0.19057144134357173,1.0,1.0,0.4664602872959138,-1.0,0.3536567507135846,-0.7972923784166523,-1.0,-0.35043847158485253,0.07213961102143873,0.3371111355485459,-0.04580104766316406,-0.8014532391442437,-0.2576587931504166,0.6631031595382977,0.9035302770001508,0.9900000000000002,-0.9042394393922697,-0.3903539365669255,-0.9427233656571579,0.7679445350682537,0.9489700199800808,0.9900000000000002,-0.1820926447678204,0.23497539512608068,0.9900000000000002,-0.15633803480326303,0.6413438942922407,0.6057522352572002,-0.03162716191351744,0.026678746259220176,1.0,0.3587197640274651,-0.903744552346919,-0.5509428220011205,-0.3262365094858066,1.0,0.24716495403476646,-0.3998978141760783,0.6335624575807777,0.02672801652892165,1.0,0.3984972641469011,0.00924613325307444,-0.5009661625838874,1.0,-0.06363118625208364,0.31966142684118726,0.8368000182742703,0.5249956152411315,0.6721817602317728,0.2525283817097481,-0.9376234327717761,-0.14305658654406983,-0.6636325738578643,-0.9077406626148896,0.10355141567520798,-1.0,0.505402433992348,0.02113444963085165,0.525993641570615,0.3038675815254477,1.0,0.9900000000000002,1.0,0.4281842321733422,0.9900000000000002,1.0,0.6609235813635843,-0.40569148213945994,-0.1659858444315363,0.4975427771370837,0.6765957306857397,0.3415955860715516,0.628327603489915,-0.27673910154592907,-0.90243122867696,0.3722158724315161,0.8587373604735831,0.817206376613564,-0.15240449238873222,0.8247375209663357,1.0,-0.4627287071278898,1.0,0.9751498125323854,0.424714640449916,0.6196219753183323,1.0,1.0,0.7708871747692618,1.0,0.9900000000000002,0.5251718059459156,1.0,-0.4462651174945347,0.9900000000000002,0.9576641671898196,1.0,-0.7060287684927786,0.9900000000000002,1.0,0.9800000000000004,0.13133551021578516,-0.511947281818351,0.32898142658975615,-0.7494106726668237,1.0,-1.0,1.0,0.9900000000000002,-0.548763862061707,-0.43314883740202514,-0.3728360910959907,0.2348670801930437,0.4470844050796883,0.19794300934130948,1.0,0.39383555067761833,-0.834765184563671,-0.9366859976457298,1.0,0.6963967534067539,-0.09342420118949102,-0.28989674092920437,0.18015702613854812,0.9800000000000004,0.7497563497323938,-0.5262460803766018,1.0,0.5504260401274088,0.9342073053869999,0.9297334127365655,0.8617895211222812,-1.0,-0.6433612351146856,-0.00276157471213212,0.9800000000000004,0.48813922478563043,1.0,0.6348262571951251,1.0,-0.39105798322911767,0.8992634745471086,0.9900000000000002,0.4502334377225683,0.2505930219047069,0.9276386199733637,-0.024751844089993202,-0.0319305125580267,0.5700574984164746,-0.03509480056622438,-0.7787446212158834,-0.3191668407694106,-0.20694726237623007,-0.5133553287770007,0.18322471651728556,0.9039701768092314,0.4334300735917749,-0.5045780537087613,1.0,-0.0212828724719345,0.9223705822964728,-0.6034033881370862,0.2147652402557112,0.6619151923699262,-0.2395265877403605,-0.4167376492320948,0.1864396433269131,0.4620500538796444,0.1583263637345076,0.3364165439185314,1.0,-0.5470045454172334,-0.10860787508611391,-0.27744587217137173,0.3861508199345458,-0.19188960060430382,0.6576141295272455,0.1306400109487198,0.3103264320320914,0.4234629532317883,-0.7201534195670933,0.2823319126994759,0.7137601815823311,-0.31453616948015206,-0.9740320039652532,-0.03726325790665452,-0.8031618138251497,1.0,0.956028063379184,1.0,-0.018256986116441887,-0.37528500831626577,-1.0,-0.38742098841944395,-0.01570716360519686,1.0,-0.05867015836981304,0.28406301733528494,-0.1511308327719414,-1.0,-0.22702268706996787,0.6525834279493088,0.4612130443331841,-0.6224918562917483,0.5099083978312264,1.0,0.5410487816242897,0.9900000000000002,-0.08616863887629966,-0.32399911331516673,0.7747464483815714,0.37401919643920856,0.3461121145493795,-0.6768661075030256,0.660067199499581,-1.0,-0.8442538491146467,0.9703927980710185,-0.7761253285285101,0.9599666651382961,0.5831954518291131
0.10187210682299064,1.0,-0.49996809959219757,-0.6690893886820648,-1.0,-0.4471098883808997,0.5632129803773234,0.6607607743037058,0.15045962794786139,-0.6444767884013296,0.6637597411249434,0.7978125642396332,0.4707765409354767,-0.482370186164665,0.9900000000000002,0.6366602867263103,1.0,0.04407694507522297,0.44359416168798305,-1.0,-0.7363390882091574,0.17645958173984866,1.0,0.39831926644825355,0.9800000000000004,0.04532861736629368,0.9900000000000002,-0.3365723591425036,-0.307715224203867,0.6244460098371727,0.9723564983565969,-0.8699715294765689,0.6812664656599501,1.0,0.48221255935983276,0.5036121628877628,0.7423016195834053,1.0,0.06538608041524974,0.47683917234376905,0.5659028784816265,-0.10084318453524022,-1.0,-1.0,1.0,0.22613528100035563,1.0,0.20647589596271398,0.20741858202467078,0.9800000000000004,0.28277824775966987,0.4371105667608204,-1.0,0.35288153624211027,-0.474939743960233,0.3201881806769462,-1.0,1.0,1.0,-1.0,-0.6732760340703239,0.6425952339365164,1.0,0.24103129255218403,-0.47560025929202654,0.9900000000000002,-0.9781617679935457,0.9716489318557029,0.956331651190018,1.0,-1.0,0.9900000000000002,1.0,-0.20748103287871977,0.013051508870615347,-1.0,0.46747184621085314,0.10799520260335371,0.09472302764026974,0.46501428394353006,0.9900000000000002,0.04011609276982131,0.9900000000000002,0.9700000000000006,0.41236554074057885,1.0,0.47966937935296805,1.0,0.8000648314986609,-1.0,-1.0,-0.01938373553927275,1.0,0.20464346430790936,0.021208358344236622,0.19040334989338525,-0.5233995551383255,1.0,0.002631415087944511,-0.09744066281875785,-0.17111572734079727,0.23213171299444546,0.9900000000000002,1.0,-0.21162677235869243,1.0,1.0,0.8306633645573891,-1.0,-0.0011979992395119154,0.07640671493774498,0.5259663394184608,-0.9647215715679618,-0.4493209875548789,0.7662208103920438,0.9900000000000002,0.0811116331820525,-0.6245638233836788,0.623182981495112,-0.33248738907056996,-0.1693604242647786,0.16475628094566197,0.022442714618436388,1.0,-0.002736859842912054,-1.0,0.1631330422420083,0.9560565749062205,0.04507583587894448,-0.4683498528021379,-0.2869939182437298,0.4716983646287618,1.0,0.9900000000000002,0.15254455937675715,0.3185202766708706,-0.16396825646272983,-1.0,-1.0,-0.24164265253507766,-0.026654857881923455,0.2738745146038051,0.9900000000000002,-0.647634578217799,1.0,-1.0,0.8212250832804786,-0.37311289671792913,0.9900000000000002,0.3518905511395878,1.0,0.6700074316731284,-1.0,1.0,0.9620985917764617,0.9900000000000002,-0.12093413369100148,0.8564406673584424,-0.990725492312996,0.12422193533199444,0.9700000000000006,-0.20980058587509198,0.5762142006233741,0.9900000000000002,0.0946297337983728,0.9547903541466765,0.9900000000000002,0.04037065465379985,0.1924036664610318,0.13085708918071326,-0.05264099250672505,-0.5284373126218238,0.282686204779357,-1.0,-0.21359704728700057,-0.11674317784871491,1.0,0.9800000000000004,0.04800293004419709,0.8623240778958712,0.9900000000000002,0.9900000000000002,0.7695142912791368,0.554630409777138,0.022239767309080505,0.9800000000000004,0.12098436429859616,0.36064134324802,0.3100052274803152,0.19356278773111046,-0.29335762699147194,0.5656265183171049,-0.5205532134754831,1.0,-0.4233822445138844,0.1164946827290736,0.9900000000000002,0.3096330038664856,0.9041400375349564,0.4756269271572533,-0.4809431059166851,-0.5615847641342797,0.32471271534755086,0.3927693340544294,1.0,-0.7210365547126409,0.7691439706087122,1.0,-1.0,-0.42183530018823134,0.2812772792603395,0.593111683303682,0.41347211711270937,0.8664275000106438,0.3445314838018123,-0.33763203598448577,0.5730097077593808,0.9900000000000002,0.7208119570092122,0.1965172303404188,-0.28679099840208,0.4802649357095561,0.8756357787491273,-0.5359404225425353,0.6847128540819822,-0.7262988700179847,-0.953848910113317,1.0,1.0,0.9900000000000002,-0.4460585363832532,0.780614029462078,0.6863085325751594,1.0,-0.17003163801410626,0.001201676087513981,1.0,-0.8864669883801684,0.8091137141115814,0.8484977724677378,0.3649203441960962,0.43680162186340254,0.5443976015577858,-0.5037060752914488,0.9781003052751309,-1.0,0.6450539059629703,0.232920429906196,-0.6692741672657956,0.4835474807963882,1.0,-1.0,1.0,-0.3866753158747285,0.32265491133071134,0.6873194148010726,0.37451216439372903,0.987811180974437,0.7327205710125595,0.5167514352545384,0.5548456468950986,-0.31727291526810486,-0.08105313072777864,1.0,1.0
0.31003135132619253,0.5077904586173099,0.9800000000000004,0.31280059695592577,0.984658319467834,-0.06440354251166713,-0.06991245792591583,0.8969857504757002,0.3509173451343366,0.6619199152203743,0.4403571648500719,0.38110260617187564,0.7814740174711874,0.7458686624335726,0.7982360642577166,1.0,0.09531917248129673,0.6419025272830927,0.10502310435607987,0.8664662635053997,0.09646439899148151,-0.1162379595373384,0.13011506926417482,-0.9446503857254851,-0.2629010233126592,0.9489755146316634,-0.5574198842487226,-0.23148720369110087,0.11625322294554685,-0.007992590050902137,0.811657320397738,-0.04471214337692686,1.0,-0.217968007113031,-0.5424494391265835,1.0,-0.06955268888229238,-0.42863322173105933,-0.10336649770818873,1.0,0.7615384489651564,0.9113910269133343,-0.13553433217046607,1.0,-0.05155873364099639,0.8455601014655478,0.9900000000000002,0.3436567507135848,-0.7972923784166523,-0.5076672860196201,-0.35043847158485253,-0.32741143923327964,0.3171111355485463,-0.11858589338570669,0.903960679198538,-0.3534616875507508,0.6631031595382977,1.0,0.9800000000000004,-0.9042394393922697,-0.4003539365669253,-0.6154455129916201,0.7479445350682541,-0.08280380540131826,0.13347431895532935,-0.026044661883084963,0.2249753951260809,0.5354734484959471,-0.15633803480326303,0.5420235100941726,0.6057522352572002,0.7648566392412577,0.5054017481091932,0.9900000000000002,0.9800000000000004,0.32577214538068144,-0.5609428220011203,-0.3262365094858066,1.0,0.2571649540347666,-0.3998978141760783,-0.17043940450155226,0.816399439920116,1.0,0.3984972641469011,-0.0007538667469253468,-0.5009661625838874,0.2422275392877271,-0.07363118625208376,0.31966142684118726,-0.10550912771526999,0.5249956152411315,0.6721817602317728,-0.24948067928572204,-0.051783090489569084,-0.1330565865440696,-0.6736325738578643,-0.8977406626148898,1.0,0.6612339030236392,1.0,-0.4090490518301886,-0.6413781530750071,0.2938675815254479,0.9900000000000002,-1.0,0.23650497419618866,1.0,0.9900000000000002,-0.051828857469903955,0.6509235813635845,0.9900000000000002,0.31127079125002677,0.260863240534273,0.9900000000000002,0.3415955860715516,0.628327603489915,-0.29673910154592864,-0.9124312286769598,-0.2661454273416579,0.8587373604735831,-1.0,-0.162404492388732,0.8147375209663359,0.9900000000000002,-0.4827287071278894,0.08344627249534398,0.9751498125323854,0.41471464044991624,0.6196219753183323,1.0,0.11792932596769012,0.7708871747692618,1.0,0.9900000000000002,0.5151718059459158,0.9800000000000004,-0.4462651174945347,-1.0,0.9576641671898196,-1.0,-0.7060287684927786,0.8778291734291854,1.0,0.9900000000000002,0.13133551021578516,-0.511947281818351,0.845912819425827,-0.8647053363334121,0.0,0.9800000000000004,0.03088113858829633,0.45407299445620775,-0.606231980268939,0.24963978600928227,-0.3728360910959907,0.7081518101032707,0.6718056502718248,-0.39102849532934547,1.0,0.6431161717357035,-0.46034057121865635,-0.9366859976457298,0.9636919883092245,-0.47407107801532544,-0.08842420118949113,-0.28989674092920437,0.18015702613854812,0.9800000000000004,0.7497563497323938,-0.5312460803766017,0.0,0.560426040127409,0.6038279118602832,0.9397334127365653,-0.9685340164005227,-1.0,-0.17633557625694207,0.9900000000000002,0.9900000000000002,0.4981392247856302,0.7014203760130004,1.0,1.0,0.7632044924971542,-0.5277255023337823,1.0,0.4502334377225683,0.2505930219047069,0.6798394571347037,-0.014751844089993416,0.6798850904200915,-0.43685489550514767,-0.055094800566223956,-0.7887446212158835,0.9900000000000002,-0.2169472623762303,-0.5133553287770007,0.18322471651728556,0.5449971847816064,0.4234300735917751,-0.5045780537087613,0.31333777365169435,-0.03128287247193429,0.9123705822964729,-0.6396353861195901,0.23476524025571077,1.0,-0.24952658774036074,-0.4267376492320949,0.1864396433269131,0.4420500538796448,0.6658763192302977,0.3164165439185318,0.9900000000000002,-0.5570045454172332,-0.09860787508611402,-0.33733980628386906,1.0,-0.19188960060430382,0.6676141295272453,0.1306400109487198,0.9900000000000002,-1.0,-0.7201534195670933,0.2723319126994759,0.7237601815823311,-0.031945570830018255,-0.9740320039652532,0.3854160392234163,-0.8131618138251495,-1.0,0.956028063379184,0.9249483383503709,0.8385201562265117,-0.459243373130237,-1.0,-0.39742098841944395,1.0,0.8179311789911337,-0.45563640933162386,1.0,-0.1511308327719414,-1.0,-0.21702268706996786,1.0,0.4512130443331843,1.0,0.4999083978312262,0.7722660895987801,0.5610487816242893,0.8975611765995701,-0.6440686718733044,-0.3339991133151665,0.9900000000000002,0.36401919643920877,0.3361121145493797,1.0,0.6700671994995813,-1.0,-0.370258972526329,0.9703927980710185,-0.7761253285285101,0.9599666651382961,0.5831954518291131
0.10187210682299064,1.0,-0.49996809959219757,-0.6690893886820648,-1.0,-0.4471098883808997,0.5632129803773234,0.6607607743037058,0.15045962794786139,-0.6444767884013296,0.6637597411249434,0.7978125642396332,0.4707765409354767,-0.482370186164665,0.9900000000000002,0.6366602867263103,1.0,0.04407694507522297,0.44359416168798305,-1.0,-0.7363390882091574,0.17645958173984866,1.0,0.39831926644825355,0.9800000000000004,0.04532861736629368,0.9900000000000002,-0.3365723591425036,-0.307715224203867,0.6244460098371727,0.9723564983565969,-0.8699715294765689,0.6812664656599501,1.0,0.48221255935983276,0.5036121628877628,0.7423016195834053,1.0,0.06538608041524974,0.47683917234376905,0.5659028784816265,-0.10084318453524022,-1.0,-1.0,1.0,0.22613528100035563,1.0,0.20647589596271398,0.20741858202467078,0.9800000000000004,0.28277824775966987,0.4371105667608204,-1.0,0.35288153624211027,-0.474939743960233,0.3201881806769462,-1.0,1.0,1.0,-1.0,-0.6732760340703239,0.6425952339365164,1.0,0.24103129255218403,-0.47560025929202654,0.9900000000000002,-0.9781617679935457,0.9716489318557029,0.956331651190018,1.0,-1.0,0.9900000000000002,1.0,-0.20748103287871977,0.013051508870615347,-1.0,0.46747184621085314,0.10799520260335371,0.09472302764026974,0.46501428394353006,0.9900000000000002,0.04011609276982131,0.9900000000000002,0.9700000000000006,0.41236554074057885,1.0,0.47966937935296805,1.0,0.8000648314986609,-1.0,-1.0,-0.01938373553927275,1.0,0.20464346430790936,0.021208358344236622,0.19040334989338525,-0.5233995551383255,1.0,0.002631415087944511,-0.09744066281875785,-0.17111572734079727,0.23213171299444546,0.9900000000000002,1.0,-0.21162677235869243,1.0,1.0,0.8306633645573891,-1.0,-0.0011979992395119154,0.07640671493774498,0.5259663394184608,-0.9647215715679618,-0.4493209875548789,0.7662208103920438,0.9900000000000002,0.0811116331820525,-0.6245638233836788,0.623182981495112,-0.33248738907056996,-0.1693604242647786,0.16475628094566197,0.022442714618436388,1.0,-0.002736859842912054,-1.0,0.1631330422420083,0.9560565749062205,0.04507583587894448,-0.4683498528021379,-0.2869939182437298,0.4716983646287618,1.0,0.9900000000000002,0.15254455937675715,0.3185202766708706,-0.16396825646272983,-1.0,-1.0,-0.24164265253507766,-0.026654857881923455,0.2738745146038051,0.9900000000000002,-0.647634578217799,1.0,-1.0,0.8212250832804786,-0.37311289671792913,0.9900000000000002,0.3518905511395878,1.0,0.6700074316731284,-1.0,1.0,0.9620985917764617,0.9900000000000002,-0.12093413369100148,0.8564406673584424,-0.990725492312996,0.12422193533199444,0.9700000000000006,-0.20980058587509198,0.5762142006233741,0.9900000000000002,0.0946297337983728,0.9547903541466765,0.9900000000000002,0.04037065465379985,0.1924036664610318,0.13085708918071326,-0.05264099250672505,-0.5284373126218238,0.282686204779357,-1.0,-0.21359704728700057,-0.11674317784871491,1.0,0.9800000000000004,0.04800293004419709,0.8623240778958712,0.9900000000000002,0.9900000000000002,0.7695142912791368,0.554630409777138,0.022239767309080505,0.9800000000000004,0.12098436429859616,0.36064134324802,0.3100052274803152,0.19356278773111046,-0.29335762699147194,0.5656265183171049,-0.5205532134754831,1.0,-0.4233822445138844,0.1164946827290736,0.9900000000000002,0.3096330038664856,0.9041400375349564,0.4756269271572533,-0.4809431059166851,-0.5615847641342797,0.32471271534755086,0.3927693340544294,1.0,-0.7210365547126409,0.7691439706087122,1.0,-1.0,-0.42183530018823134,0.2812772792603395,0.593111683303682,0.41347211711270937,0.8664275000106438,0.3445314838018123,-0.33763203598448577,0.5730097077593808,0.9900000000000002,0.7208119570092122,0.1965172303404188,-0.28679099840208,0.4802649357095561,0.8756357787491273,-0.5359404225425353,0.6847128540819822,-0.7262988700179847,-0.953848910113317,1.0,1.0,0.9900000000000002,-0.4460585363832532,0.780614029462078,0.6863085325751594,1.0,-0.17003163801410626,0.001201676087513981,1.0,-0.8864669883801684,0.8091137141115814,0.8484977724677378,0.3649203441960962,0.43680162186340254,0.5443976015577858,-0.5037060752914488,0.9781003052751309,-1.0,0.6450539059629703,0.232920429906196,-0.6692741672657956,0.4835474807963882,1.0,-1.0,1.0,-0.3866753158747285,0.32265491133071134,0.6873194148010726,0.37451216439372903,0.987811180974437,0.7327205710125595,0.5167514352545384,0.5548456468950986,-0.31727291526810486,-0.08105313072777864,1.0,1.0
-0.5827314042161706,-0.4242238798690354,1.0,1.0,0.9746583194678342,-0.07440354251166692,-0.06991245792591583,0.8969857504757002,0.34091734513433636,0.777661723111315,0.4403571648500719,0.37110260617187585,0.7914740174711876,-0.9717702813463323,0.5297179772497183,0.42981508892116427,0.11840597799781083,0.9370940696911845,-0.24717138169390518,1.0,0.9800000000000004,0.015370724949027359,1.0,-0.9546503857254853,-1.0,1.0,0.1402444209685223,-0.12920286705088735,0.13625322294554643,-0.007992590050902137,0.811657320397738,0.41696824681644706,1.0,0.592764102423808,-0.4558790805474011,0.9900000000000002,-0.10397608724214047,1.0,-0.11336649770818852,0.8907590953511058,-0.6411691848948617,0.8132639784067575,-0.18057144134357195,1.0,0.8528830659137672,0.40425453348575147,0.9800000000000004,0.3536567507135846,-0.8072923784166521,-0.3539343137046518,-0.08435505777353569,-0.2403980960292298,0.9900000000000002,-0.038165475724134534,-0.8014532391442437,-0.3434616875507508,0.6531031595382979,0.32828768976426836,0.9800000000000004,-0.9142394393922695,1.0,-0.34985494933359407,0.27261634429819104,0.04214359313881921,0.9900000000000002,0.6081984905600786,0.5711707675355298,1.0,-0.16633803480326304,1.0,0.6257522352571998,0.10610318337439395,0.9902977560518718,1.0,0.8007080041329022,0.32823972183572625,-0.013496482296775802,-0.33623650948580686,0.535717638426326,0.2571649540347666,-0.8098485522819545,-0.17043940450155226,0.25687120447016687,0.9900000000000002,0.3884972641469009,-0.0007538667469253468,-0.5209661625838873,-1.0,-0.07363118625208376,-1.0,0.6483158076771396,0.19477799539118168,0.8107554072719347,-0.24948067928572204,-0.5421502822087065,-0.6051377111988305,-0.6636325738578643,-0.9077406626148896,0.10355141567520798,0.9135437606723729,0.505402433992348,-0.3990490518301888,0.011731230394926406,-1.0,0.9048526541858761,1.0,0.21650497419618908,-1.0,1.0,-0.051828857469903955,0.6509235813635845,-0.39569148213946015,0.640929873716555,0.28086324053427303,0.3219680013883879,0.3415955860715516,0.628327603489915,1.0,-0.89243122867696,0.8122152644478122,0.8587373604735831,0.9467684691688576,0.47710261748823957,-1.0,0.9900000000000002,-1.0,-0.3794418349256068,-1.0,0.424714640449916,0.6396219753183319,1.0,0.10792932596769012,1.0,-0.10817111870667429,-1.0,0.9878723734720563,-1.0,-0.4462651174945347,0.28960586692499657,0.35417380551607636,0.8967734578227802,-0.1206878189392655,0.668544062661633,0.9800000000000004,0.3669426905953257,0.13133551021578516,-0.05257050909926653,1.0,-0.3859768497869349,-1.0,0.9800000000000004,0.16305965570893743,-0.09185401108758451,0.3192439790765822,-0.42314883740202536,0.5094624720836247,0.2248670801930439,0.9320009240750937,0.6610448863658913,0.9900000000000002,0.4038355506776181,-0.12250320527873493,-0.5635518181362538,0.9686919883092244,0.36217163754578596,-0.1034242011894908,-0.28989674092920437,1.0,1.0,0.7497563497323938,-0.5162460803766016,-1.0,0.5504260401274088,0.5888279118602835,0.9397334127365653,-0.8505112027895096,0.9761087680225975,0.23088432971153328,-0.00276157471213212,0.9800000000000004,1.0,0.7114203760130005,0.4319265064090674,-0.5762089992914623,-0.2979669862488117,-0.3969022996635383,-0.09801290922941952,0.5140522693154728,0.8611755888487833,1.0,0.7778898117484188,-0.31330466570539794,0.6170221172869095,-1.0,-0.8017777668968122,-0.13760471374615513,-0.5990169185882852,1.0,0.5046718196858706,0.10999436956321285,-1.0,-0.17233559049216396,1.0,0.4145131097776069,0.9384557902422941,-0.6951576453670558,-0.03218587759987046,0.9789968802419127,-0.27903378156237046,0.2519980609111858,0.2592204434896117,0.6877723771092015,0.060439716275626054,-1.0,0.37232800777799824,-0.3610668027717905,-0.22892309178879877,1.0,0.8366466099133474,0.3595018602697775,0.3375898512090272,0.41880906191217626,0.2743208412702992,0.4867104061154448,0.03893133160657425,0.12901911912900943,0.9900000000000002,0.34773191525992386,-0.12208107600971951,-0.862096985036084,-0.9003506734500806,0.07374721205033374,0.08554711101000967,0.03245631598027354,1.0,0.17816453381733233,-0.17444362329842011,-0.17525724103839657,-0.25684556252197766,0.8379311789911332,-0.379024120232915,0.2940630173352847,0.9900000000000002,1.0,1.0,0.642583427949309,0.7380211920329165,-0.6424918562917483,0.4999083978312262,0.3651269617086408,0.5510487816242895,1.0,-0.6340686718733044,0.7376303452445994,-0.729424815310125,0.36401919643920877,0.3461121145493795,-0.6868661075030253,0.6700671994995813,-1.0,-0.8342538491146467,0.9703927980710185,-0.7961253285285101,1.0,1.0
0.10187210682299064,0.49001611131406086,-0.49996809959219757,0.12275879893000585,-0.8291784763568124,-0.4471098883808997,-1.0,0.7311862616173275,0.1404596279478616,-0.18212438998160607,0.6437597411249438,-0.502961396911239,0.9534744703023272,-0.3864381094025049,-1.0,0.6366602867263103,0.09936608020295434,0.022117945725520727,0.9900000000000002,-0.903941496651588,-0.7463390882091572,0.9900000000000002,1.0,1.0,0.9900000000000002,0.4088636765683309,1.0,-0.3365723591425036,-0.29771522420386676,0.8760033837779622,0.9623564983565966,0.8323737081104987,-1.0,0.9800000000000004,0.9900000000000002,0.0821781612155359,0.8929487011704684,0.9700000000000006,0.9900000000000002,0.7065525366988412,1.0,1.0,0.5227151391956024,0.9700000000000006,0.08123014273492757,0.2361352810003554,0.9900000000000002,0.17647589596271462,0.197418582024671,0.9800000000000004,0.28277824775966987,0.9900000000000002,0.4068378604704801,-0.7001662971202727,-0.4649397439602332,1.0,-0.18344842023085128,0.9900000000000002,0.7919549471869423,-0.9571197196961347,0.09677924136819671,0.8437341190046794,0.6313081721490956,0.6080597773729366,0.2571998703539866,0.38395367761609034,0.7567804237433866,0.9808244659278516,0.40183098259836836,0.9579963538273404,0.7225016922752032,0.5380515916871973,0.814149296573575,0.3862594835606403,0.26720834654707826,-0.330880139082137,0.6604079333343282,-0.11412065344122657,0.3202203330332978,0.5875532039359208,0.13316322025784944,-0.013241970571121975,0.6184356022350834,-0.01499999999999968,-1.0,0.4996230666265373,-0.06042070586319326,0.4586918461819598,0.36821682262328864,-1.0,0.8241579038385698,0.08269712992595446,0.6647785340725425,-0.02241860748890634,-0.44820753721376994,0.5132579641427659,-0.5985160644980949,0.8604338933479254,0.04809141538157635,0.8256169515118197,-1.0,0.020568887588622964,0.1593109234624963,0.1841595177524118,0.6070395448337451,1.0,0.5982524870980948,0.7402063299149193,0.9690747677120806,1.0,0.36866514815066465,0.29631141913044035,1.0,1.0,0.5390944058902158,0.650797793035776,0.5355558165910264,-0.1454703986399717,0.03372628766446528,0.23986393768862113,0.32968846810440233,0.0672729442231077,0.7807858147412983,0.912368760483168,0.2459067034859448,-0.11295156543814011,-0.0747947365028212,0.9706031937193029,0.22489523816443047,0.08063606125809697,0.341503040878135,0.6835416631845517,1.0,0.44591444064666286,0.46549770794753886,0.628196325071464,-0.12620260521398724,0.1979785027235592,1.0,0.1454215470808845,0.341243596733711,0.06623987623893868,0.8570578485134386,0.25446460874171173,0.6023228739506046,-0.09613287470042386,0.3301556750275459,0.12201409164582368,0.02803346870432355,0.7525665304289856,0.33853567976219345,0.6547250098666195,-0.17901710249309638,0.1583471500177962,0.629737438593609,0.38596133972476776,0.29675203923804205,0.6796899194159518,-0.18837699382117062,0.5885031091867386,0.659837933292807,-0.2381476675177545,0.5273143207897086,0.860484562781677,0.3075528772265872,0.6125881587545161,0.6056490682851701,0.04409924535054355,0.13967189140827926,0.5604285445903567,0.30268410190925277,-0.40563522308182876,0.7190200227387153,0.6367255551300972,1.0,-0.17827552342960562,0.9950000000000001,-1.0,0.14910209518115272,1.0,0.700027936276088,0.9950000000000001,0.6545546852991997,-0.009999999999999787,-0.06049990357330676,0.0,0.4831665748789109,0.5302544059766876,0.6641421057840673,0.18705835885617095,-0.1532390445112255,0.9742421020813101,-0.3884687568152474,0.2796291003765713,-0.621856233552126,-0.3728892255375671,0.6504351819515316,0.6833098337195755,-0.43946004597537236,0.8010196569970611,0.25952844704165745,0.1938542331242304,-0.8452077782935383,0.6649231561154899,0.9950000000000001,1.0,0.35225370414011703,0.6057200705852321,-0.1128851060863556,0.12662255703633707,0.2569225747686614,0.6615103094415729,0.09044111477718267,0.5301320933484253,1.0,-0.31996256476840523,0.17223677887261704,0.9194747633744331,0.8504059785046061,0.3041293075851046,-0.2667909984020803,0.4349037430705396,0.9378178893745637,-0.385095644505268,0.6055801491346182,-0.7312988700179845,-0.49703748461610675,0.6431369474621091,0.9247429597781637,0.0,-0.441058536383253,0.7574474133062079,0.051450886504186166,0.9950000000000001,0.9900000000000002,0.11920130137075402,1.0,-0.3371408099636164,0.9950000000000001,0.056223629364835936,0.3649203441960964,0.6553977522779015,0.7721988007788929,-0.7568530376457243,0.973100305275131,0.1028477641612413,0.8176487347749641,0.3936999193302344,-0.6158306787466161,0.46354748079638863,0.22348987699525358,0.0,0.48820504826033506,-0.8044306528885627,0.3915403671150397,0.8436597074005363,0.4971028545813341,0.9800000000000004,0.8599936534388499,0.5267514352545382,-0.14765646432095014,-0.21341228119352795,-0.10105313072777822,0.9900000000000002,-1.0
-0.8305584270342381,-0.9633916700060405,0.9900000000000002,0.9900000000000002,-1.0,-0.06440354251166713,0.9900000000000002,0.8969857504757002,0.69300356448958,0.7876617231113148,0.4403571648500719,0.38110260617187564,0.7814740174711874,-0.9617702813463325,-0.2071409314907986,1.0,0.11840597799781083,0.9370940696911845,-1.0,-1.0,1.0,-0.09836194044009261,0.9900000000000002,-0.9546503857254853,-1.0,1.0,0.15960405834312352,-0.2214872036911011,1.0,-0.007992590050902137,0.811657320397738,1.0,0.4892233639743946,-0.22796800711303078,0.6907670118336604,0.9800000000000004,-0.09397608724214068,-0.4186332217310593,0.9214058673502681,1.0,-0.6411691848948617,1.0,-0.17057144134357172,1.0,0.06071717702630597,0.4292534990879524,0.9800000000000004,0.35387307550868297,-0.8072923784166521,0.23411020284099493,-0.09435505777353548,-0.048148405232488756,1.0,0.42392293333234976,-0.8014532391442437,-0.3434616875507508,0.6531031595382979,0.32828768976426836,0.9800000000000004,-0.9242394393922693,0.8468345168067177,-0.9427233656571579,0.27261634429819104,0.3793901715110586,1.0,-0.19209264476782018,0.9887050774618018,0.5254734484959469,-0.16633803480326304,0.7112042009591004,0.6257522352571998,0.09610318337439416,0.9902977560518718,0.9800000000000004,0.810708004132902,0.33823972183572604,-0.5509428220011205,-0.33623650948580686,0.5457176384263258,1.0,-0.8098485522819545,-0.17043940450155226,0.24687120447016664,0.9900000000000002,0.3984972641469011,-0.0007538667469253468,-0.5009661625838874,0.25222753928772734,-0.07363118625208376,-1.0,0.6483158076771396,0.19477799539118168,0.6521817602317732,-0.23948067928572225,-0.06393994000448044,0.1494649727143189,-0.6736325738578643,0.29814907486791675,0.10355141567520798,1.0,1.0,-0.3990490518301888,-0.013679281927849285,-1.0,0.9248526541858766,0.9900000000000002,0.9900000000000002,0.43818423217334224,-1.0,-0.051828857469903955,0.6609235813635843,-0.39569148213946015,1.0,0.28086324053427303,0.3219680013883879,0.3415955860715516,-1.0,-0.1448390422365664,-0.89243122867696,0.822215264447812,0.8587373604735831,1.0,-0.15240449238873222,0.8347375209663357,1.0,-0.9940494490883234,-0.3794418349256068,0.9851498125323852,0.601510370255486,0.6396219753183319,0.9900000000000002,0.09792932596768988,0.9900000000000002,-0.12817111870667386,0.6911472653428561,0.5151718059459158,0.9900000000000002,-0.4562651174945347,1.0,1.0,0.90677345782278,-0.7160287684927784,0.6785440626616328,0.9900000000000002,1.0,0.30720990299657647,-0.511947281818351,0.6918256388516539,0.2136736139433575,0.9800000000000004,0.9900000000000002,0.17305965570893722,-0.09185401108758451,-0.6737000984761705,-0.42314883740202536,-0.3828360910959905,0.2248670801930439,0.4270844050796887,0.21794300934130906,1.0,0.4038355506776181,-0.8547651845636706,-0.9366859976457298,-1.0,0.06659031211025646,-0.1034242011894908,-0.2760542917118731,0.18015702613854812,0.9900000000000002,0.7497563497323938,0.7158923966831043,-1.0,0.560426040127409,0.6088279118602831,0.9397334127365653,-0.9785340164005225,0.9761087680225975,0.2408843297115335,-0.012761574712131907,0.9800000000000004,1.0,0.7014203760130004,0.44192650640906717,-0.5762089992914623,-0.1492942985098331,0.7942126368296858,-1.0,0.49405226931547297,0.8811755888487833,0.7088217416349454,0.9900000000000002,-0.31330466570539794,0.6070221172869097,-1.0,-0.7917777668968125,-0.12760471374615534,-0.5990169185882852,1.0,0.5046718196858706,0.10999436956321285,-1.0,-0.16233559049216373,0.9900000000000002,0.42451310977760714,0.9284557902422943,0.5547654712731269,-0.8335157258084529,1.0,0.4219324368752595,-0.5060038781776282,0.24716360771888368,0.7924330709147211,-0.30259268456145705,-1.0,0.37232800777799824,-0.3510668027717907,-0.6436010554389628,0.5575750838676004,0.8466466099133476,0.3595018602697775,0.34758985120902697,0.4288090619121762,0.2643208412702993,1.0,0.03893133160657425,0.11901911912900953,0.5349924595104958,0.33773191525992363,-0.13208107600971974,-0.862096985036084,-0.8903506734500805,0.07374721205033374,0.07554711101000944,0.022456315980273533,0.3720643140060904,0.4198539909728787,-0.7678872022719778,0.35048475117577116,-0.24684556252197742,0.8379311789911332,-0.4356364093316236,0.2940630173352847,0.12467386289112614,0.31752029608284094,-0.11939515536733225,0.642583427949309,0.7480211920329163,-0.6424918562917483,0.6613635720480815,-0.6842370564248492,0.5610487816242893,0.8975611765995699,-0.6540686718733042,0.7376303452445994,-1.0,0.36401919643920877,0.3461121145493795,-0.6768661075030256,0.6700671994995813,0.9900000000000002,-0.8342538491146467,0.9703927980710185,1.0,0.3702665688340465,0.5931954518291132
-0.8305584270342381,-0.9633916700060405,0.9900000000000002,0.9900000000000002,-1.0,-0.06440354251166713,0.9900000000000002,0.8969857504757002,0.69300356448958,0.7876617231113148,0.4403571648500719,0.38110260617187564,0.7814740174711874,-0.9617702813463325,-0.2071409314907986,1.0,0.11840597799781083,0.9370940696911845,-1.0,-1.0,1.0,-0.09836194044009261,0.9900000000000002,-0.9546503857254853,-1.0,1.0,0.15960405834312352,-0.2214872036911011,1.0,-0.007992590050902137,0.811657320397738,1.0,0.4892233639743946,-0.22796800711303078,0.6907670118336604,0.9800000000000004,-0.09397608724214068,-0.4186332217310593,0.9214058673502681,1.0,-0.6411691848948617,1.0,-0.17057144134357172,1.0,0.06071717702630597,0.4292534990879524,0.9800000000000004,0.35387307550868297,-0.8072923784166521,0.23411020284099493,-0.09435505777353548,-0.048148405232488756,1.0,0.42392293333234976,-0.8014532391442437,-0.3434616875507508,0.6531031595382979,0.32828768976426836,0.9800000000000004,-0.9242394393922693,0.8468345168067177,-0.9427233656571579,0.27261634429819104,0.3793901715110586,1.0,-0.19209264476782018,0.9887050774618018,0.5254734484959469,-0.16633803480326304,0.7112042009591004,0.6257522352571998,0.09610318337439416,0.9902977560518718,0.9800000000000004,0.810708004132902,0.33823972183572604,-0.5509428220011205,-0.33623650948580686,0.5457176384263258,1.0,-0.8098485522819545,-0.17043940450155226,0.24687120447016664,0.9900000000000002,0.3984972641469011,-0.0007538667469253468,-0.5009661625838874,0.25222753928772734,-0.07363118625208376,-1.0,0.6483158076771396,0.19477799539118168,0.6521817602317732,-0.23948067928572225,-0.06393994000448044,0.1494649727143189,-0.6736325738578643,0.29814907486791675,0.10355141567520798,1.0,1.0,-0.3990490518301888,-0.013679281927849285,-1.0,0.9248526541858766,0.9900000000000002,0.9900000000000002,0.43818423217334224,-1.0,-0.051828857469903955,0.6609235813635843,-0.39569148213946015,1.0,0.28086324053427303,0.3219680013883879,0.3415955860715516,-1.0,-0.1448390422365664,-0.89243122867696,0.822215264447812,0.8587373604735831,1.0,-0.15240449238873222,0.8347375209663357,1.0,-0.9940494490883234,-0.3794418349256068,0.9851498125323852,0.601510370255486,0.6396219753183319,0.9900000000000002,0.09792932596768988,0.9900000000000002,-0.12817111870667386,0.6911472653428561,0.5151718059459158,0.9900000000000002,-0.4562651174945347,1.0,1.0,0.90677345782278,-0.7160287684927784,0.6785440626616328,0.9900000000000002,1.0,0.30720990299657647,-0.511947281818351,0.6918256388516539,0.2136736139433575,0.9800000000000004,0.9900000000000002,0.17305965570893722,-0.09185401108758451,-0.6737000984761705,-0.42314883740202536,-0.3828360910959905,0.2248670801930439,0.4270844050796887,0.21794300934130906,1.0,0.4038355506776181,-0.8547651845636706,-0.9366859976457298,-1.0,0.06659031211025646,-0.1034242011894908,-0.2760542917118731,0.18015702613854812,0.9900000000000002,0.7497563497323938,0.7158923966831043,-1.0,0.560426040127409,0.6088279118602831,0.9397334127365653,-0.9785340164005225,0.9761087680225975,0.2408843297115335,-0.012761574712131907,0.9800000000000004,1.0,0.7014203760130004,0.44192650640906717,-0.5762089992914623,-0.1492942985098331,0.7942126368296858,-1.0,0.49405226931547297,0.8811755888487833,0.7088217416349454,0.9900000000000002,-0.31330466570539794,0.6070221172869097,-1.0,-0.7917777668968125,-0.12760471374615534,-0.5990169185882852,1.0,0.5046718196858706,0.10999436956321285,-1.0,-0.16233559049216373,0.9900000000000002,0.42451310977760714,0.9284557902422943,0.5547654712731269,-0.8335157258084529,1.0,0.4219324368752595,-0.5060038781776282,0.24716360771888368,0.7924330709147211,-0.30259268456145705,-1.0,0.37232800777799824,-0.3510668027717907,-0.6436010554389628,0.5575750838676004,0.8466466099133476,0.3595018602697775,0.34758985120902697,0.4288090619121762,0.2643208412702993,1.0,0.03893133160657425,0.11901911912900953,0.5349924595104958,0.33773191525992363,-0.13208107600971974,-0.862096985036084,-0.8903506734500805,0.07374721205033374,0.07554711101000944,0.022456315980273533,0.3720643140060904,0.4198539909728787,-0.7678872022719778,0.35048475117577116,-0.24684556252197742,0.8379311789911332,-0.4356364093316236,0.2940630173352847,0.12467386289112614,0.31752029608284094,-0.11939515536733225,0.642583427949309,0.7480211920329163,-0.6424918562917483,0.6613635720480815,-0.6842370564248492,0.5610487816242893,0.8975611765995699,-0.6540686718733042,0.7376303452445994,-1.0,0.36401919643920877,0.3461121145493795,-0.6768661075030256,0.6700671994995813,0.9900000000000002,-0.8342538491146467,0.9703927980710185,1.0,0.3702665688340465,0.5931954518291132
-0.8305584270342381,-0.9633916700060405,0.9900000000000002,0.9900000000000002,-1.0,-0.06440354251166713,0.9900000000000002,0.8969857504757002,0.69300356448958,0.7876617231113148,0.4403571648500719,0.38110260617187564,0.7814740174711874,-0.9617702813463325,-0.2071409314907986,1.0,0.11840597799781083,0.9370940696911845,-1.0,-1.0,1.0,-0.09836194044009261,0.9900000000000002,-0.9546503857254853,-1.0,1.0,0.15960405834312352,-0.2214872036911011,1.0,-0.007992590050902137,0.811657320397738,1.0,0.4892233639743946,-0.22796800711303078,0.6907670118336604,0.9800000000000004,-0.09397608724214068,-0.4186332217310593,0.9214058673502681,1.0,-0.6411691848948617,1.0,-0.17057144134357172,1.0,0.06071717702630597,0.4292534990879524,0.9800000000000004,0.35387307550868297,-0.8072923784166521,0.23411020284099493,-0.09435505777353548,-0.048148405232488756,1.0,0.42392293333234976,-0.8014532391442437,-0.3434616875507508,0.6531031595382979,0.32828768976426836,0.9800000000000004,-0.9242394393922693,0.8468345168067177,-0.9427233656571579,0.27261634429819104,0.3793901715110586,1.0,-0.19209264476782018,0.9887050774618018,0.5254734484959469,-0.16633803480326304,0.7112042009591004,0.6257522352571998,0.09610318337439416,0.9902977560518718,0.9800000000000004,0.810708004132902,0.33823972183572604,-0.5509428220011205,-0.33623650948580686,0.5457176384263258,1.0,-0.8098485522819545,-0.17043940450155226,0.24687120447016664,0.9900000000000002,0.3984972641469011,-0.0007538667469253468,-0.5009661625838874,0.25222753928772734,-0.07363118625208376,-1.0,0.6483158076771396,0.19477799539118168,0.6521817602317732,-0.23948067928572225,-0.06393994000448044,0.1494649727143189,-0.6736325738578643,0.29814907486791675,0.10355141567520798,1.0,1.0,-0.3990490518301888,-0.013679281927849285,-1.0,0.9248526541858766,0.9900000000000002,0.9900000000000002,0.43818423217334224,-1.0,-0.051828857469903955,0.6609235813635843,-0.39569148213946015,1.0,0.28086324053427303,0.3219680013883879,0.3415955860715516,-1.0,-0.1448390422365664,-0.89243122867696,0.822215264447812,0.8587373604735831,1.0,-0.15240449238873222,0.8347375209663357,1.0,-0.9940494490883234,-0.3794418349256068,0.9851498125323852,0.601510370255486,0.6396219753183319,0.9900000000000002,0.09792932596768988,0.9900000000000002,-0.12817111870667386,0.6911472653428561,0.5151718059459158,0.9900000000000002,-0.4562651174945347,1.0,1.0,0.90677345782278,-0.7160287684927784,0.6785440626616328,0.9900000000000002,1.0,0.30720990299657647,-0.511947281818351,0.6918256388516539,0.2136736139433575,0.9800000000000004,0.9900000000000002,0.17305965570893722,-0.09185401108758451,-0.6737000984761705,-0.42314883740202536,-0.3828360910959905,0.2248670801930439,0.4270844050796887,0.21794300934130906,1.0,0.4038355506776181,-0.8547651845636706,-0.9366859976457298,-1.0,0.06659031211025646,-0.1034242011894908,-0.2760542917118731,0.18015702613854812,0.9900000000000002,0.7497563497323938,0.7158923966831043,-1.0,0.560426040127409,0.6088279118602831,0.9397334127365653,-0.9785340164005225,0.9761087680225975,0.2408843297115335,-0.012761574712131907,0.9800000000000004,1.0,0.7014203760130004,0.44192650640906717,-0.5762089992914623,-0.1492942985098331,0.7942126368296858,-1.0,0.49405226931547297,0.8811755888487833,0.7088217416349454,0.9900000000000002,-0.31330466570539794,0.6070221172869097,-1.0,-0.7917777668968125,-0.12760471374615534,-0.5990169185882852,1.0,0.5046718196858706,0.10999436956321285,-1.0,-0.16233559049216373,0.9900000000000002,0.42451310977760714,0.9284557902422943,0.5547654712731269,-0.8335157258084529,1.0,0.4219324368752595,-0.5060038781776282,0.24716360771888368,0.7924330709147211,-0.30259268456145705,-1.0,0.37232800777799824,-0.3510668027717907,-0.6436010554389628,0.5575750838676004,0.8466466099133476,0.3595018602697775,0.34758985120902697,0.4288090619121762,0.2643208412702993,1.0,0.03893133160657425,0.11901911912900953,0.5349924595104958,0.33773191525992363,-0.13208107600971974,-0.862096985036084,-0.8903506734500805,0.07374721205033374,0.07554711101000944,0.022456315980273533,0.3720643140060904,0.4198539909728787,-0.7678872022719778,0.35048475117577116,-0.24684556252197742,0.8379311789911332,-0.4356364093316236,0.2940630173352847,0.12467386289112614,0.31752029608284094,-0.11939515536733225,0.642583427949309,0.7480211920329163,-0.6424918562917483,0.6613635720480815,-0.6842370564248492,0.5610487816242893,0.8975611765995699,-0.6540686718733042,0.7376303452445994,-1.0,0.36401919643920877,0.3461121145493795,-0.6768661075030256,0.6700671994995813,0.9900000000000002,-0.8342538491146467,0.9703927980710185,1.0,0.3702665688340465,0.5931954518291132
-0.6027314042161702,-0.43422387986903566,1.0,-1.0,-1.0,0.9906314015274984,-0.06991245792591583,0.8969857504757002,0.34091734513433636,0.777661723111315,0.4403571648500719,0.36110260617187606,0.7814740174711874,-0.9917702813463318,0.5297179772497183,-1.0,0.11840597799781083,0.9370940696911845,0.9802624710029724,1.0,1.0,0.005370724949027128,0.9900000000000002,-0.9546503857254853,0.16953304841797667,0.9900000000000002,0.12024442096852272,0.6223295698181661,0.13625322294554643,-0.007992590050902137,0.811657320397738,-1.0,1.0,1.0,0.41218669442465705,-1.0,-0.10397608724214047,1.0,1.0,0.880759095351106,0.7543564959909581,0.8132639784067575,-0.19057144134357173,1.0,0.8428830659137674,0.3942545334857517,1.0,0.3436567507135848,-0.8172923784166519,-0.3539343137046518,1.0,-0.26039809602922936,0.9800000000000004,-0.05816547572413411,-0.8114532391442437,-0.3534616875507508,0.7380163238666233,0.32828768976426836,0.9800000000000004,-0.9142394393922695,1.0,0.07319537390239761,0.27261634429819104,0.04214359313881921,-1.0,0.6081984905600786,0.56117076753553,1.0,-0.16633803480326304,0.9900000000000002,1.0,0.09610318337439416,1.0,1.0,-1.0,0.31823972183572646,-0.02349648229677559,-0.34623650948580664,0.5157176384263265,0.24716495403476646,-0.5947264460346684,-0.17043940450155226,0.25687120447016687,0.9800000000000004,0.3884972641469009,0.43009357405714077,-0.5409661625838869,-1.0,0.041638654865178815,-1.0,0.6383158076771398,0.18477799539118145,0.800755407271935,-0.2594806792857218,-0.5421502822087065,-0.6051377111988305,-0.6736325738578643,-0.9077406626148896,0.10355141567520798,0.9035437606723731,0.7670397314999109,0.3884905295395651,0.0017312303949266195,-0.3721313283312564,0.9048526541858761,1.0,0.21650497419618908,-1.0,1.0,0.9962431694203464,0.6409235813635847,-0.39569148213946015,1.0,0.8291305901415855,0.31196800138838787,0.3315955860715514,0.608327603489915,1.0,0.9101055465092847,0.8022152644478124,0.8587373604735831,0.9367684691688574,0.4671026174882398,-1.0,0.9800000000000004,-1.0,-0.3605379748682682,-0.1748745678969903,0.424714640449916,0.6396219753183319,1.0,0.10792932596769012,1.0,-0.10817111870667429,-0.28454703908402657,0.9878723734720563,-1.0,-0.4462651174945347,0.28960586692499657,0.6651441848702913,0.8667734578227808,-0.13068781893926573,0.6585440626616332,0.9700000000000006,0.3669426905953257,0.13133551021578516,-0.0725705090992661,1.0,0.19162480321476094,-1.0,0.9700000000000006,0.15305965570893765,0.6911728940380568,0.30924397907658197,-0.43314883740202514,0.5094624720836247,0.2248670801930439,0.9320009240750937,0.6510448863658915,0.9700000000000006,0.39383555067761833,0.14743488189919507,-0.573551818136254,0.9586919883092246,0.36217163754578596,-0.11342420118949059,0.41869074137387585,-1.0,1.0,0.7497563497323938,0.11967129817839606,-1.0,0.5504260401274088,0.5888279118602835,0.9297334127365655,-0.8605112027895094,0.9661087680225977,0.23088432971153328,0.438117838068492,0.9800000000000004,1.0,0.7114203760130005,0.4319265064090674,-0.5762089992914623,-0.3179669862488117,-0.3969022996635383,0.5449812879272251,0.5040522693154728,0.8611755888487833,0.9900000000000002,1.0,-0.32330466570539773,0.6170221172869095,-1.0,-0.811777766896812,0.49251395969331657,-0.609016918588285,1.0,1.0,0.10999436956321285,-1.0,-0.18233559049216375,1.0,0.4045131097776071,0.9384557902422941,0.727076638012421,0.16003391327012328,0.7923584754135724,-0.20595944382436304,0.17931030897376132,0.25807150912913657,0.6746413432753872,1.0,-0.23493395332578737,0.6861640038889991,-0.34551468377009775,-0.028343156458090865,0.9547373816872167,0.8385262942089768,0.4858585706380949,0.03539942640347343,0.5416729812140735,0.5960693653224314,0.19963712727712934,0.31225574037059634,-0.3111398754444874,0.24648125769194673,0.4954344313610165,0.4013309418842221,-0.431048492518042,-0.6957046049166671,0.7459618251614599,0.40420562392883674,0.5137281579901368,0.9950000000000001,0.44563137604966085,0.41277818835078994,-0.17525724103839657,-0.25684556252197766,0.8379311789911332,-0.379024120232915,1.0,0.9900000000000002,1.0,0.9900000000000002,1.0,0.7380211920329165,-0.6424918562917483,0.5907870974443306,0.355126961708641,0.5510487816242895,1.0,-0.6440686718733044,-1.0,-0.33404108706901336,0.36401919643920877,0.3461121145493795,-0.6868661075030253,0.660067199499581,-1.0,-0.8442538491146467,0.9900000000000002,-0.8061253285285099,1.0,1.0
0.10187210682299064,0.49001611131406086,-0.49996809959219757,0.12275879893000585,-0.8291784763568124,-0.4471098883808997,-1.0,0.7311862616173275,0.1404596279478616,-0.18212438998160607,0.6437597411249438,-0.502961396911239,0.9534744703023272,-0.3864381094025049,-1.0,0.6366602867263103,0.09936608020295434,0.022117945725520727,0.9900000000000002,-0.903941496651588,-0.7463390882091572,0.9900000000000002,1.0,1.0,0.9900000000000002,0.4088636765683309,1.0,-0.3365723591425036,-0.29771522420386676,0.8760033837779622,0.9623564983565966,0.8323737081104987,-1.0,0.9800000000000004,0.9900000000000002,0.0821781612155359,0.8929487011704684,0.9700000000000006,0.9900000000000002,0.7065525366988412,1.0,1.0,0.5227151391956024,0.9700000000000006,0.08123014273492757,0.2361352810003554,0.9900000000000002,0.17647589596271462,0.197418582024671,0.9800000000000004,0.28277824775966987,0.9900000000000002,0.4068378604704801,-0.7001662971202727,-0.4649397439602332,1.0,-0.18344842023085128,0.9900000000000002,0.7919549471869423,-0.9571197196961347,0.09677924136819671,0.8437341190046794,0.6313081721490956,0.6080597773729366,0.2571998703539866,0.38395367761609034,0.7567804237433866,0.9808244659278516,0.40183098259836836,0.9579963538273404,0.7225016922752032,0.5380515916871973,0.814149296573575,0.3862594835606403,0.26720834654707826,-0.330880139082137,0.6604079333343282,-0.11412065344122657,0.3202203330332978,0.5875532039359208,0.13316322025784944,-0.013241970571121975,0.6184356022350834,-0.01499999999999968,-1.0,0.4996230666265373,-0.06042070586319326,0.4586918461819598,0.36821682262328864,-1.0,0.8241579038385698,0.08269712992595446,0.6647785340725425,-0.02241860748890634,-0.44820753721376994,0.5132579641427659,-0.5985160644980949,0.8604338933479254,0.04809141538157635,0.8256169515118197,-1.0,0.020568887588622964,0.1593109234624963,0.1841595177524118,0.6070395448337451,1.0,0.5982524870980948,0.7402063299149193,0.9690747677120806,1.0,0.36866514815066465,0.29631141913044035,1.0,1.0,0.5390944058902158,0.650797793035776,0.5355558165910264,-0.1454703986399717,0.03372628766446528,0.23986393768862113,0.32968846810440233,0.0672729442231077,0.7807858147412983,0.912368760483168,0.2459067034859448,-0.11295156543814011,-0.0747947365028212,0.9706031937193029,0.22489523816443047,0.08063606125809697,0.341503040878135,0.6835416631845517,1.0,0.44591444064666286,0.46549770794753886,0.628196325071464,-0.12620260521398724,0.1979785027235592,1.0,0.1454215470808845,0.341243596733711,0.06623987623893868,0.8570578485134386,0.25446460874171173,0.6023228739506046,-0.09613287470042386,0.3301556750275459,0.12201409164582368,0.02803346870432355,0.7525665304289856,0.33853567976219345,0.6547250098666195,-0.17901710249309638,0.1583471500177962,0.629737438593609,0.38596133972476776,0.29675203923804205,0.6796899194159518,-0.18837699382117062,0.5885031091867386,0.659837933292807,-0.2381476675177545,0.5273143207897086,0.860484562781677,0.3075528772265872,0.6125881587545161,0.6056490682851701,0.04409924535054355,0.13967189140827926,0.5604285445903567,0.30268410190925277,-0.40563522308182876,0.7190200227387153,0.6367255551300972,1.0,-0.17827552342960562,0.9950000000000001,-1.0,0.14910209518115272,1.0,0.700027936276088,0.9950000000000001,0.6545546852991997,-0.009999999999999787,-0.06049990357330676,0.0,0.4831665748789109,0.5302544059766876,0.6641421057840673,0.18705835885617095,-0.1532390445112255,0.9742421020813101,-0.3884687568152474,0.2796291003765713,-0.621856233552126,-0.3728892255375671,0.6504351819515316,0.6833098337195755,-0.43946004597537236,0.8010196569970611,0.25952844704165745,0.1938542331242304,-0.8452077782935383,0.6649231561154899,0.9950000000000001,1.0,0.35225370414011703,0.6057200705852321,-0.1128851060863556,0.12662255703633707,0.2569225747686614,0.6615103094415729,0.09044111477718267,0.5301320933484253,1.0,-0.31996256476840523,0.17223677887261704,0.9194747633744331,0.8504059785046061,0.3041293075851046,-0.2667909984020803,0.4349037430705396,0.9378178893745637,-0.385095644505268,0.6055801491346182,-0.7312988700179845,-0.49703748461610675,0.6431369474621091,0.9247429597781637,0.0,-0.441058536383253,0.7574474133062079,0.051450886504186166,0.9950000000000001,0.9900000000000002,0.11920130137075402,1.0,-0.3371408099636164,0.9950000000000001,0.056223629364835936,0.3649203441960964,0.6553977522779015,0.7721988007788929,-0.7568530376457243,0.973100305275131,0.1028477641612413,0.8176487347749641,0.3936999193302344,-0.6158306787466161,0.46354748079638863,0.22348987699525358,0.0,0.48820504826033506,-0.8044306528885627,0.3915403671150397,0.8436597074005363,0.4971028545813341,0.9800000000000004,0.8599936534388499,0.5267514352545382,-0.14765646432095014,-0.21341228119352795,-0.10105313072777822,0.9900000000000002,-1.0
0.10187210682299064,0.49001611131406086,-0.49996809959219757,0.12275879893000585,-0.8291784763568124,-0.4471098883808997,-1.0,0.7311862616173275,0.1404596279478616,-0.18212438998160607,0.6437597411249438,-0.502961396911239,0.9534744703023272,-0.3864381094025049,-1.0,0.6366602867263103,0.09936608020295434,0.022117945725520727,0.9900000000000002,-0.903941496651588,-0.7463390882091572,0.9900000000000002,1.0,1.0,0.9900000000000002,0.4088636765683309,1.0,-0.3365723591425036,-0.29771522420386676,0.8760033837779622,0.9623564983565966,0.8323737081104987,-1.0,0.9800000000000004,0.9900000000000002,0.0821781612155359,0.8929487011704684,0.9700000000000006,0.9900000000000002,0.7065525366988412,1.0,1.0,0.5227151391956024,0.9700000000000006,0.08123014273492757,0.2361352810003554,0.9900000000000002,0.17647589596271462,0.197418582024671,0.9800000000000004,0.28277824775966987,0.9900000000000002,0.4068378604704801,-0.7001662971202727,-0.4649397439602332,1.0,-0.18344842023085128,0.9900000000000002,0.7919549471869423,-0.9571197196961347,0.09677924136819671,0.8437341190046794,0.6313081721490956,0.6080597773729366,0.2571998703539866,0.38395367761609034,0.7567804237433866,0.9808244659278516,0.40183098259836836,0.9579963538273404,0.7225016922752032,0.5380515916871973,0.814149296573575,0.3862594835606403,0.26720834654707826,-0.330880139082137,0.6604079333343282,-0.11412065344122657,0.3202203330332978,0.5875532039359208,0.13316322025784944,-0.013241970571121975,0.6184356022350834,-0.01499999999999968,-1.0,0.4996230666265373,-0.06042070586319326,0.4586918461819598,0.36821682262328864,-1.0,0.8241579038385698,0.08269712992595446,0.6647785340725425,-0.02241860748890634,-0.44820753721376994,0.5132579641427659,-0.5985160644980949,0.8604338933479254,0.04809141538157635,0.8256169515118197,-1.0,0.020568887588622964,0.1593109234624963,0.1841595177524118,0.6070395448337451,1.0,0.5982524870980948,0.7402063299149193,0.9690747677120806,1.0,0.36866514815066465,0.29631141913044035,1.0,1.0,0.5390944058902158,0.650797793035776,0.5355558165910264,-0.1454703986399717,0.03372628766446528,0.23986393768862113,0.32968846810440233,0.0672729442231077,0.7807858147412983,0.912368760483168,0.2459067034859448,-0.11295156543814011,-0.0747947365028212,0.9706031937193029,0.22489523816443047,0.08063606125809697,0.341503040878135,0.6835416631845517,1.0,0.44591444064666286,0.46549770794753886,0.628196325071464,-0.12620260521398724,0.1979785027235592,1.0,0.1454215470808845,0.341243596733711,0.06623987623893868,0.8570578485134386,0.25446460874171173,0.6023228739506046,-0.09613287470042386,0.3301556750275459,0.12201409164582368,0.02803346870432355,0.7525665304289856,0.33853567976219345,0.6547250098666195,-0.17901710249309638,0.1583471500177962,0.629737438593609,0.38596133972476776,0.29675203923804205,0.6796899194159518,-0.18837699382117062,0.5885031091867386,0.659837933292807,-0.2381476675177545,0.5273143207897086,0.860484562781677,0.3075528772265872,0.6125881587545161,0.6056490682851701,0.04409924535054355,0.13967189140827926,0.5604285445903567,0.30268410190925277,-0.40563522308182876,0.7190200227387153,0.6367255551300972,1.0,-0.17827552342960562,0.9950000000000001,-1.0,0.14910209518115272,1.0,0.700027936276088,0.9950000000000001,0.6545546852991997,-0.009999999999999787,-0.06049990357330676,0.0,0.4831665748789109,0.5302544059766876,0.6641421057840673,0.18705835885617095,-0.1532390445112255,0.9742421020813101,-0.3884687568152474,0.2796291003765713,-0.621856233552126,-0.3728892255375671,0.6504351819515316,0.6833098337195755,-0.43946004597537236,0.8010196569970611,0.25952844704165745,0.1938542331242304,-0.8452077782935383,0.6649231561154899,0.9950000000000001,1.0,0.35225370414011703,0.6057200705852321,-0.1128851060863556,0.12662255703633707,0.2569225747686614,0.6615103094415729,0.09044111477718267,0.5301320933484253,1.0,-0.31996256476840523,0.17223677887261704,0.9194747633744331,0.8504059785046061,0.3041293075851046,-0.2667909984020803,0.4349037430705396,0.9378178893745637,-0.385095644505268,0.6055801491346182,-0.7312988700179845,-0.49703748461610675,0.6431369474621091,0.9247429597781637,0.0,-0.441058536383253,0.7574474133062079,0.051450886504186166,0.9950000000000001,0.9900000000000002,0.11920130137075402,1.0,-0.3371408099636164,0.9950000000000001,0.056223629364835936,0.3649203441960964,0.6553977522779015,0.7721988007788929,-0.7568530376457243,0.973100305275131,0.1028477641612413,0.8176487347749641,0.3936999193302344,-0.6158306787466161,0.46354748079638863,0.22348987699525358,0.0,0.48820504826033506,-0.8044306528885627,0.3915403671150397,0.8436597074005363,0.4971028545813341,0.9800000000000004,0.8599936534388499,0.5267514352545382,-0.14765646432095014,-0.21341228119352795,-0.10105313072777822,0.9900000000000002,-1.0
1.0,0.46946718967810774,-0.5299680995921969,-0.6740893886820647,1.0,1.0,0.7891959709236476,0.6457607743037057,-0.3405948913833914,-0.5773759781631764,0.4935665863085674,1.0,0.5540430409614476,-0.8817211721508107,0.9800000000000004,0.5086239593235868,-1.0,0.9850000000000003,1.0,-0.6531084636757358,0.3154313371778228,-0.41677020913007556,0.8500897625742128,1.0,1.0,0.973299734188816,0.27759384272372056,0.3317138204287482,0.1859160438398595,0.030043002309300793,0.8602034414878972,-0.4637660982656113,0.24757648210457006,-0.08055079379906172,1.0,1.0,0.7171569785574068,0.4349327640121161,-1.0,-1.0,0.5431408402944928,0.28806663645553954,0.6125004479342708,0.3727132218835698,-0.1451198010804644,0.6105685507834415,0.40337621036136184,-1.0,-0.1793461065998167,0.16151642157383705,1.0,0.6611410292255364,0.562162329356538,-0.5456000110535495,-0.5795216530918754,0.5780428696875903,-0.05215253496725181,0.5863064939915191,0.8748008083806644,-0.11485309120891657,0.9800000000000004,0.698918108068554,0.9800000000000004,0.21485665902068293,1.0,0.8354350370505177,0.24462734782727846,0.807953293916686,0.9093398847424856,0.8126445326012177,0.9950000000000001,-0.3219319751226579,0.31724260967847506,0.40838438795569587,0.6593725400349495,0.3991767128428272,0.8401265575317449,1.0,0.2760473568689603,0.48638310708005483,0.6045607404765163,0.7094210717618887,-0.3271646126687102,0.5358602693136785,0.2692635554599776,0.34342118651130926,0.39451693039338753,0.29419756490588234,0.22953423850505317,0.47349525569480316,-1.0,-0.2431647034073512,0.4608646433950634,1.0,-0.5754917340359791,-0.27188002233022246,-0.19170507196190964,0.09623468440248711,0.22697885882903224,0.6321347734351344,1.0,0.9850000000000003,-0.20942144839106125,-0.3248573717923038,-0.004999999999999893,0.4296826106588476,0.39007751223051157,0.42614489460423444,0.8496251177964131,0.5844911597121114,-0.18082723982608417,0.008140366646208597,0.6399107258580554,0.3068062713600286,1.0,1.0,0.6896982917670497,0.798834563396861,0.9900000000000002,0.7220467676330413,0.08819654684662259,-0.2795169100997139,1.0,0.4775000000000005,0.7676967885916017,1.0,0.454704326802581,-1.0,0.7721333396497676,0.7817360530491628,1.0,-0.3331888348627632,0.9900000000000002,0.6417825506908308,-0.009999999999999787,0.11130524491495475,0.2015079358843177,-0.41353012625216096,-0.24011685430612562,0.1994106686556396,0.42619189780194366,0.5182966739161352,-1.0,-0.16389911883414876,1.0,1.0,0.48559269147262585,0.7122975192353516,0.8090244007900393,0.4008925725005432,1.0,0.9900000000000002,0.573175049120441,1.0,1.0,0.0,-0.11593413369100158,-1.0,0.38690094428649413,0.12922193533199433,0.9950000000000001,1.0,0.7681071003116875,0.6163621952774285,0.039629733798373756,0.9800000000000004,-0.01499999999999968,1.0,0.7270957268293228,-0.020547125765995933,-0.09426109668138127,-0.5384373126218236,0.8838808578636179,-0.009999999999999787,-0.03760657471577433,0.3878750765562047,0.9900000000000002,0.3029504174162039,0.6767624598410267,-1.0,0.20744644417556213,0.44998852802543077,1.0,0.9900000000000002,0.131383806725605,0.9626902505577846,-0.7137800236528467,0.9355238253076479,1.0,-0.2987315971722406,1.0,1.0,0.7729196931591318,0.3249211837028665,-0.06105301349281422,-0.24986064621872384,-0.004999999999999893,0.9900000000000002,0.10606917920840053,-1.0,0.24990859636991347,0.14187829497456983,-1.0,0.11479508297463958,0.8708728527571545,1.0,1.0,0.3136593538601253,-0.5049999999999999,0.6133466248732748,0.44982768639645965,0.6093269807901542,-0.17373438302691113,-0.2284797414380615,0.8361328709504531,-0.327632035984486,0.4171288464139815,0.9750000000000005,1.0,0.4775740972825675,-0.14915280757945837,-0.1406422212198506,0.8924213638448983,1.0,0.536447444187254,-0.7362988700179844,-0.9638489101133167,0.21186183777316359,0.8394859195563273,0.9900000000000002,-0.436058536383253,0.8599278166094493,-0.8970982269916279,0.9900000000000002,0.39448637815462373,-0.008798323912485806,0.952579156706105,-0.9164669883801677,0.9800000000000004,-0.2336008633998734,0.3649203441960962,0.44680162186340233,1.0,-1.0,0.9900000000000002,0.04516637626741549,1.0,-1.0,-0.6692741672657956,0.45354748079638885,0.15086674205476402,-1.0,-0.49364650813237443,-0.593066017487998,0.8259943926927167,0.35181301572202983,0.3845121643937288,0.10714586953850702,0.8250335997497908,-1.0,-0.08154936121886669,0.635718329709678,0.0776589798660634,0.9900000000000002,0.08238840274552572
-0.23424695780564386,0.13020997304493775,-0.5564982548041568,0.9900000000000002,0.2556248324218515,-0.08440354251166671,0.9900000000000002,0.8969857504757002,0.67300356448958,0.777661723111315,0.41035716485007256,0.9900000000000002,0.751474017471188,-0.9717702813463323,-0.2071409314907986,1.0,0.27820660446260614,0.9900000000000002,0.9900000000000002,-1.0,0.9900000000000002,0.15844023406733654,0.9900000000000002,1.0,0.0,0.9850000000000003,0.003538406348467138,0.16867209425574092,0.9900000000000002,1.0,0.8450912513900275,-0.1943850117106929,0.40967376844297365,0.22719438976543582,0.5886510272580581,0.5560890806077676,0.8585784892787034,-0.3078302884971782,0.8006192274551642,-0.10626864724270524,0.9773837664468128,-0.13928323911415674,0.3861797808945293,0.74875,0.0157002946403465,0.3700359391168072,-0.04467675073413879,0.7041403893362745,-0.5804229267414482,0.5129120846065237,0.561741932768989,0.39217078944746664,0.70341893023524,0.5721896279835119,0.10243628195992383,0.3810932415029604,0.859905167300047,0.772249780374252,0.9812500000000004,-0.8110307701851748,1.0,1.0,0.9900000000000002,0.42853134715480157,0.9875000000000003,0.3316608570947315,0.6058485340282154,0.7518955501167994,-0.1372616016087509,0.6342015753596628,0.6059070882214499,0.28119702867196406,-1.0,0.7504597333436751,-0.08543663128511869,0.5309573486594175,-0.05968272346974279,-0.11996199499871002,0.663081360501045,0.8942260877726307,-0.7165951625013253,0.14540806082425906,1.0,0.8134476009926297,0.5202380327005081,0.6639628518324836,-0.0955113426101879,0.03555289381467519,0.12329224176402415,-0.33094046519074805,0.56415790383857,0.1719697021989064,0.8164324466729103,-0.12208929052425127,0.15191238749364272,-0.21609977761707388,0.7472713658846319,0.8954431585993556,1.0,1.0,0.4932409656436967,0.2303486071473433,0.9900000000000002,-0.39777424323578914,0.6997312941681066,0.905294274808953,0.9100492355854715,0.7864322622401634,0.4509755705273497,0.6061123518271576,0.5145195016968631,-0.028739575428160774,-0.14761785521495852,0.6092749666109065,-1.0,1.0,0.39130819544728546,0.4782516508428939,0.2238182101647488,0.7789929515210878,1.0,0.6343538623753577,0.4140585212610444,0.6730265703623761,-1.0,0.4178708919064198,0.453283147881718,0.7394311796996446,1.0,0.42323907065167976,-0.26374999999999993,-0.12877241884519908,1.0,0.5095111608524967,0.8434667753025251,0.7022501982535205,1.0,-0.2841623183304122,0.7828474661529121,0.18708933686623053,0.44336593551473324,0.9355980893593774,1.0,-0.22345432227722473,0.29743180284812354,0.9347193099545663,1.0,0.5411563903898879,0.9800000000000004,0.10943260514272007,0.7496487426146086,0.9900000000000002,0.39398071715888916,0.22347696250406202,0.44559383391835605,0.4689364658390036,0.12330658625029667,0.42199787293409496,-0.4130075382426428,0.45513870958249647,0.7614383315041071,0.5341770010291311,0.5022086961819946,0.7374999999999998,0.0530389344731641,0.5447666323759508,-0.45223284282660003,0.365154402482573,0.795600916615258,0.5486479998471729,0.9372229039294311,-0.02435142550647651,0.4834910812903961,1.0,0.636400797730674,-0.6209979883184209,0.9745815760169483,0.9305050148328853,0.11142918522142597,0.5751452548684926,0.7293750000000001,-0.19217565011203064,1.0,0.37699341055019886,-0.06854362423021731,0.3398191377858186,-0.0794722607969578,0.4504164101868011,1.0,1.0,0.8123527121647696,1.0,1.0,0.2338840258907633,-0.6448671554846297,0.6248299288822567,0.6350928029656862,-0.009999999999999787,0.5290297199994921,0.3099957771724098,-0.3981096467813391,1.0,0.6487336362812239,0.6261935122798721,0.9164509492763653,0.7722391156687305,-0.25608055816118647,0.8834935571796638,0.2521702354188351,-0.31285732115675,0.32016876933505645,0.7862675879706194,-0.24581693503079893,-0.7595982812493347,1.0,-0.19639397513001766,-0.4827109024587286,0.5588750493216943,1.0,0.9900000000000002,0.29758714776277273,0.5359126584350058,1.0,0.27627117824230485,0.5094656658032872,-0.14757255592802965,0.13668600726256397,0.3291642713415657,0.9182616525957612,0.6232703507682755,-0.7193661220500202,0.5264105275150488,0.3609424795374787,0.1302851974876711,-0.04996375849795687,0.18193765184899247,0.2995516221749881,0.9766384423492336,0.20322152342376398,0.7131023556075231,-0.1329276267587286,0.6470315086676424,0.8594578706188987,0.7601292158622255,0.2886531042142002,0.4369761296530126,0.7467009631491921,-0.05626239715171444,0.7917575301983568,-0.3774945999097765,0.45100327173190813,0.4693902941498924,-0.19285204155496927,0.7847415579881885,1.0,0.3659676512599141,1.0,-1.0,0.6800671994995815,0.9900000000000002,-0.854253849114647,1.0,-0.7761253285285101,0.7612460791698128,0.9900000000000002
0.4602699235445167,0.49001611131406086,-0.5199680995921971,0.12275879893000585,-0.0019389474142563756,-0.47710988838089907,-0.8536254702829424,0.7211862616173272,1.0,-0.18212438998160607,0.633759741124944,-0.502961396911239,0.9900000000000002,-0.1458037589689436,-0.10198191951633317,0.6366602867263103,0.8602280406647442,1.0,0.9900000000000002,-0.903941496651588,-0.06322211077806461,1.0,0.9900000000000002,0.9900000000000002,0.9800000000000004,0.39886367656833066,0.9900000000000002,-0.3465723591425034,-0.3177152242038668,1.0,0.9623564983565966,0.8123737081104991,-1.0,0.9600000000000009,0.9700000000000006,-1.0,-0.3998841130993007,0.9900000000000002,-1.0,1.0,1.0,1.0,0.997851327336964,0.9800000000000004,0.5493568036259164,0.22613528100035563,0.9800000000000004,0.17647589596271462,0.17741858202467142,-1.0,0.657020906440176,0.9600000000000009,0.3968378604704803,-0.7101662971202725,-0.4649397439602332,1.0,-0.012818599841288414,0.9800000000000004,1.0,-0.11442343122317178,1.0,0.8337341190046796,0.7574739728692101,0.6080597773729366,0.24719987035398638,0.6941132402924155,0.7567804237433866,0.9808244659278516,0.371830982598369,1.0,1.0,0.5280515916871975,-1.0,0.36625948356064075,0.26720834654707826,-0.330880139082137,0.7719214602442319,-0.11412065344122657,-1.0,1.0,0.13316322025784944,-0.013241970571121975,0.6084356022350832,-0.024999999999999467,-1.0,0.4896230666265371,-0.06042070586319326,0.4586918461819598,0.3582168226232887,-1.0,0.7941579038385704,0.07269712992595423,0.6647785340725425,-0.0524186074889057,-0.46820753721376995,0.9900000000000002,-0.6085160644980947,0.8504338933479252,0.04809141538157635,0.9900000000000002,0.5981814656257605,0.08732493311811318,0.1593109234624963,0.174159517752412,1.0,0.9800000000000004,1.0,0.7402063299149193,0.9690747677120806,0.9900000000000002,0.5776863784423965,0.29631141913044035,1.0,1.0,-1.0,0.630797793035776,0.5255558165910266,-0.1654703986399717,0.9900000000000002,0.23986393768862113,1.0,0.0672729442231077,0.7807858147412983,0.912368760483168,0.3714071887874324,-0.11295156543814011,-0.08479473650282099,-1.0,0.2048952381644309,0.07063606125809674,0.6244295774931201,0.6835416631845517,-1.0,0.42591444064666284,0.4454977079475393,0.9618473621801025,-0.12620260521398724,0.18797850272355898,-1.0,0.1354215470808846,0.341243596733711,0.046239876238939104,0.8370578485134388,0.34286090882402753,0.6023228739506046,0.9464186478268357,0.5191256075709174,0.8507106508445621,0.33918420145089634,-0.36187532950960444,0.32853567976219367,1.0,-0.17901710249309638,0.8477887429017441,0.629737438593609,0.6622211436923604,0.550129202547927,-1.0,-0.18837699382117062,1.0,0.6398379332928075,1.0,0.5173143207897084,1.0,0.9614531518779246,0.7874916679139273,0.9900000000000002,1.0,0.3195694304998463,1.0,0.10836032297894516,1.0,0.5693178177479492,-1.0,0.3882014763564996,-0.15250935063916016,0.9131082720069581,-0.01499999999999968,0.08855251261267494,0.9900000000000002,0.850013968138044,1.0,0.7020344882891685,-0.5049999999999999,-0.03913006813211295,-0.5,1.0,0.9900000000000002,0.7171942723812188,0.22260803330607803,1.0,1.0,-0.45451098514536525,0.4663296094813312,1.0,0.023363550869054395,0.9900000000000002,0.48647141879303035,-0.36686576548797456,0.8955098284985307,-0.11570732943751372,0.5901028510557618,-0.10026401807754048,1.0,0.9824999999999999,0.13448172264367964,1.0,-1.0,-0.5664425530431778,0.5533112785181684,0.244099927014501,1.0,0.2569566159449459,0.7500660466742128,0.6522657419009059,-0.3437973003764454,0.5761183894363087,0.9297373816872172,1.0,0.2503232689627617,-0.27179099840208026,0.20533604524479543,0.9589089446872818,-0.2532469699538047,0.6401465016083003,-0.7537988700179845,-0.4622933093403936,0.9819235445588701,0.9623714798890819,0.4950000000000001,-0.45855853638325295,1.0,-0.4742745567479069,0.9850000000000003,0.9800000000000004,0.10920130137075379,1.0,-0.3471408099636166,0.9950000000000001,1.0,0.3549203441960964,0.9900000000000002,0.7521988007788929,-0.8679337274656751,0.973100305275131,0.0928477641612413,0.9900000000000002,0.3736999193302344,-0.6158306787466161,0.9900000000000002,0.22348987699525358,0.2562624871278705,1.0,-0.8044306528885627,0.5463595715929621,0.8336597074005363,1.0,-1.0,1.0,1.0,0.009754412569946247,-0.21341228119352795,0.9726562908356269,0.9900000000000002,-1.0
