0.08448895543080037,-0.8597985479145491,0.7582691441419924,0.06481506689695671,-0.48763664518241945,-0.09531841990540513,-0.36000176927046534,-0.781495580160199,-0.8599642929341385,0.04414818567576262,-0.6510570429569849,0.10060559800752866,-0.26917999914418167,-0.12548497325440278,-0.6047365112066414,0.030292207402559557,0.3583193389721111,-0.08411252119702195,0.002402602176271751,-0.16758491998101754,-0.3567391018965922,0.2880666322661034,-0.5269282236095236,-0.32586285492594524,0.829170480699567,-0.3729677974552348,-0.455008541795878,0.063508467215174,-0.02703671670618535,-0.8854169105884835,0.12287013421179616,-0.10401340454667962,0.6415678236206366,0.5813997554797565,0.15816021546207848,-0.8184575695612066,0.6592159206686858,0.5649220607239562,0.7082927293022561,0.412109601934751,0.4205731675257842,0.017485730663212573,-0.22761482946253242,-0.12948070254902988,-0.26257966893101803,0.5223021973628927,0.4372488222009592,0.19184089274248106,0.8516352591463874,-0.23351807242121203,-0.43173563432520434,-0.3148889788713314,0.6380454112858136,-0.44441034631887844,0.8856973352568367,-0.527054007879082,-0.10040893226335501,-0.44220216889511055,0.2780842558651999,-0.3870328530998626,-0.7887359490747043,0.6112957600905349,0.10064375828959471,-0.341362345630589,0.8108605653462972,-0.026442928247533803,-0.030086864156197324,-0.4894314964838571,-0.04677231600659293,-0.7050903054434197,-0.37300999993290396,0.3899400690142245,0.8694221475932269,-0.23469397620947485,0.12264143855918874,-0.39781877102719365,-0.597283573559223,-0.9952277671746457,-0.5456725023946645,0.3112355302052412,-0.09440520544384223,0.3467961992655302,0.1057953771820146,-0.7455344383495208,0.3529488500602087,0.9639952663581588,-0.8308723259646527,0.7657073079719503,0.25247384898300185,0.4377314329955597,0.2859888026112174,-0.6746229021693255,0.33420691169818273,0.5318586721053358,0.8507680549847654,-0.020003580274640553,-0.5091061524382516,-0.09334058414582813,-0.08257945097406627,0.37806649735635056,-0.3544274340374791,0.12764340433630839,0.7929722670441246,0.5958908272305115,0.039285048012128954,0.26491550647270623,0.7213738018121769,0.8141262541160219,0.19032306578172675,0.14023221811607445,-0.1364396953825988,-0.471919069022388,0.9375459582144119,-0.18201863432550436,-0.40189970075057757,-0.14317475206472463,0.344826471655723,-0.23818259754516502,0.14187470196240626,-0.812995942648292,-0.05609076876998276,-0.4138246746017129,0.9673628890355519,0.08816039020546351,-0.4190942602675618,0.7854374510159854,0.2860537224565025,-0.30226384812754103,0.9178815690415265,0.15150804689913655,-0.3271089915613574,0.8407747432913717,-0.32502435300467303,0.53736139845701,0.2895608433038077,-0.7444973350623036,0.10204549466685986,-0.5946302034485462,-0.011567512674740765,0.3699702153808684,-0.7961240092973234,-0.36444066935507036,-0.6474033045343657,0.25030755037399954,-0.039294843169565885,0.43131265750184244,-0.13611158903712495,0.027598079288342126,-0.15352515091088303,-0.2831766712188626,0.9362590775828079,-0.9186664726285827,0.9581873825296034,0.12079094770166132,-0.08553085647463887,-0.6361460563986752,-0.36332624722900864,0.04274807656537605,-0.6797768212349438,-0.39252572774637584,-0.3847188499225389,0.9702944674561458,0.44126664700859863,0.05224892279012283,-0.18833778292160996,0.6981499352771192,0.5862311332973633,-0.8489707378563054,-0.49421645377702794,-0.44053326985592145,0.5398612847779802,0.6020848746575058,0.024879769435189214,0.9211217227572253,0.01906377670296444,0.5163567817291241,0.724173845943989,-0.4020634801110965,-0.4320655848848798,0.41366163360237684,-0.6827910448152041,0.9466799384193507,-0.19248405589196937,-0.10699599197505028,-0.5214463721845459,0.7265035231601598,-0.6106175327324046,0.1608431422835508,-0.2655764099592357,-0.6751139573432869,0.1583167306962887,-0.38647523878277124,0.36077971303084544,-0.3198686629776586,-0.8593113758832511,-0.005780770882500397,0.8677916709466702,-0.5271937104733024,0.7949397018999582,0.856551830306937,-0.8831777167613022,-0.09127755154714645,-0.8459386664089674,0.3384125144792567,0.3768305254631452,-0.903042605735116,0.5044151454538346,-0.7394834518977462,-0.6561443672593168,0.6228254298203282,-0.2733105883464406,0.48303144127171116,0.09187750491912983,0.33478862324198344,-0.9164240239560748,0.6582774681225079,-0.8856000291340143,0.5975958607110301,0.5359218675787554,0.26713774027335857,-0.9332881512867446,0.08424457373037986,-0.7746085667172982,0.1396069140666747,-0.08790846439344624,-0.7215980129041939,0.17266397160451796,-0.8915380193481823,-0.2283541322614544,-0.5406754555563895,-0.03140585234729376,0.2874621596589664,0.7683423028477958,-0.07636964389466572,0.7928063519304069,0.3760951336706715,-0.4080072586185224,0.4481183226445504,0.030064937844189732,-0.5256704718829144,0.844886325439685,0.5520861670726844,-0.8535250148250049,-0.10941720146518485,0.6495076095606576,0.43636201135246777,0.25810048129232466,0.7315639338021491,0.7512607239970475,-0.0403552135915084,-0.05235935212137299,-0.683560805370538,0.33097551904123934,0.9148680118566945,-0.2872840549927618,-0.779221775869628,0.7402704081911418,0.7150072249750201,0.8689608445357646,0.03382903492847045,0.00835522756866558,0.7461982307211732,-0.812956832037129,0.8841233840561276,-0.5142089116570461
-0.8977945731798664,1.0,0.19995738661129892,-0.595856961508952,0.7903296564985363,-0.7901011807503524,0.6366154200784127,0.07827465979179049,0.3227350461161542,0.46346128688376487,-0.1644260221663072,-0.18292056402164292,0.7998455150010813,0.27976299927980897,0.753317845318402,-0.09872804048695683,0.13199049072212787,1.0,0.6022371484374567,-0.4407364784513472,1.0,0.6547720669164985,1.0,0.39992018691493136,0.7648245645513887,0.033396653491947426,0.36731461408354926,-1.0,-0.266646182163246,-0.7121207247133978,1.0,0.9735221175804885,-0.7273327043406193,-0.20620536085782382,1.0,0.4073596931979804,0.3150673485980029,-0.9263870999219552,-0.9394262062223753,-0.8033320407940137,-0.2713941923934411,1.0,-0.0719596905951505,0.10932825109874589,0.13944402321391447,0.49112390091470903,0.5750345059815816,-0.18510549528655296,-0.39645806010362605,-0.3686683522146268,-0.7561942111147504,0.15633773639253334,-0.3889204218627036,-0.5458315888658083,-0.8001630754294577,-0.19435161625842,1.0,-0.5819601391109606,0.5100468305660213,0.16741430373650168,0.6588959267204748,-0.44054642317936477,-0.6899229165010867,-1.0,1.0,0.05795357883461416,-0.8183919521698506,0.3885368241462581,0.24713380080716085,0.15188140282339635,-0.7068761701052058,0.9831423389595702,-0.47292829291754424,0.30316640001087514,1.0,0.6594512031957196,-0.8935778945514095,1.0,-0.7296549011476179,0.6554981789065311,0.2797696348257954,0.383615762366341,-0.9896860045926839,-0.3661965148199018,0.26595261109710666,-0.45634989084104793,-0.3021557686267933,0.9900000000000002,0.5208079269558588,1.0,0.5968782455183153,0.5218195368204661,0.740398106542413,-0.35111174029424097,0.11242312939150167,0.4719508102767995,0.9900000000000002,0.8647518205586255,0.6978619761133045,-0.13026552460182295,-0.682594142863377,0.552516375415018,0.7634715873880316,0.4906549288144726,-0.39707894638283836,-0.8511981656283676,-0.8764642464881409,0.12871201319665193,0.2731260201204764,-0.035341042406828116,-0.22308644247236398,0.6666125689957862,0.3059825917505412,0.28876079130034826,0.5409552311222061,1.0,1.0,-0.8857326379139092,0.12597587296249646,0.9900000000000002,1.0,-0.03928263389150688,-0.32436144808262046,-0.50787184899366,0.3550066405694867,-0.37424158695578646,1.0,-0.7013257131091084,0.4164806300202377,0.3445713527186758,-0.4168120821248751,-0.05058795240384595,0.8103163940712212,1.0,0.9900000000000002,0.19882216718067625,0.9900000000000002,1.0,-0.3416810439928857,0.33914392185923603,0.29968675403685463,-0.750521739628196,-0.5214638550324073,0.09387838839571971,1.0,-1.0,0.7569102910857237,-0.4825119651181007,-0.8623927376645797,-0.4356664792805436,0.33944993451132,0.7921157649244748,-0.3400591925056844,0.2386034635392953,0.6819084327931679,-0.4750719668628247,0.5767931468551928,-0.032449884241506854,0.6388673114059324,-0.2250395300759287,-0.038418285130011665,0.857065858424725,-0.029827148315025198,0.37942682831119345,0.19400177686482234,-0.584465835929846,0.9900000000000002,-0.21253303729530337,0.9329255694224112,-0.05400832494441321,-0.36516299678803366,-0.06144160185078196,-1.0,0.8322923592050477,1.0,0.9714153016746274,0.6337481950495036,0.5845485902885983,0.5434357751391534,0.6641911224815842,-1.0,1.0,0.7175847220981599,-0.16619392830964008,-0.4320577294219565,-0.5190103557964223,-0.8274721878825115,-0.7244487695558526,0.45024373022768494,1.0,0.6231682506637979,-0.46237679422378886,-0.8249765820694765,-0.03607134232819709,0.8931478169022702,-0.5460939256198034,1.0,-0.6862548824374524,0.48041048510184003,0.6301599443196144,0.16065724759969013,1.0,-0.6168328104833309,-0.1712644133571155,-0.1797921295389575,0.19225777422178503,-0.5449659723244493,-0.08392634984078384,0.28484058920552613,-0.15284084839624157,0.17392620807094872,1.0,-0.767694027023917,0.8046212893599725,-0.71541797052926,-0.18839455800677252,0.6623568641508015,-0.36563659971325535,-0.6611729149862731,0.9900000000000002,-0.815323156278696,-0.1211131813520705,1.0,0.4894220050458653,0.023967798361150816,0.8788351053137164,-0.8643562875626216,-0.5030320370931962,0.6418641437909871,-0.17728187779913274,-0.15259598673862929,-0.40132902211713795,0.5049019750137709,0.21638926587892104,0.2846448998509077,0.796373675199165,-0.9531304233746183,-0.8856547397430123,-0.34952828008092496,0.9363176353308083,-0.371659754278145,-0.3633217941151914,0.015170103797050416,1.0,-0.5105907422097322,-0.19714004053463574,0.9688416545378997,1.0,-0.7167410422548777,0.9520958020464376,-0.7790976678496078,1.0,-0.43982133540423884,-0.03414738564439146,0.1333828977591356,0.047247921384742764,0.20374374008063345,0.6477525636156254,1.0,0.25750591043515936,-0.4305867326088819,-0.15796765842063554,0.8254130338791681,0.43002420450515233,0.26957553554006086
0.636091131617107,-0.33763830137584216,-1.0,-0.6058569615089517,0.7903296564985363,-0.6808499884646073,0.6266154200784126,0.07827465979179049,0.332735046116154,0.3601722426397893,-0.15765909864356598,-0.10728778751865464,-0.18722059894573295,0.9526363535929487,-1.0,-0.27927124065391506,-0.5018719788407688,0.4958423413514632,0.008498071576216848,1.0,-0.10440693529191591,0.6547720669164985,0.3783890449567644,-0.2707102504802035,1.0,0.033396653491947426,0.34731461408354924,0.7261359366002385,-0.2566461821632462,-0.722120724713398,0.950633977536792,0.020760656830926205,-0.7173327043406195,0.9885301775290523,0.6839824590483572,0.42735969319798084,0.5188661029703714,-0.9163870999219554,-0.9294262062223755,-0.4414898697687568,-0.15988654471138952,1.0,-0.05195969059515071,1.0,0.14944402321391448,0.10150910397347235,0.7778607917672562,0.12475607403322542,-0.38645806010362604,-0.10633044956164106,-0.77619421111475,0.15633773639253334,-0.3689204218627036,0.910974658248185,-0.7546868597458394,-0.19435161625842,0.06871752431520295,0.9900000000000002,1.0,1.0,0.9900000000000002,-0.9209667512140873,-0.5770962576755951,-0.7318241249361024,-1.0,0.05795357883461416,-0.13436166110031245,0.3885368241462581,1.0,0.912164913585003,1.0,0.9831423389595702,1.0,0.30316640001087514,0.12221835252788349,0.6494512031957198,-0.8935778945514095,0.9376095312131456,-0.5527779050884551,0.23226623146355063,0.34514157608234086,-0.003673137596011067,0.4627541220781408,-0.3761965148199016,0.27595261109710645,-0.9829843158394098,-0.2921557686267935,1.0,0.3953269685390177,1.0,-0.21347028478755714,0.5318195368204659,0.740398106542413,-0.34111174029424096,0.11242312939150167,0.3206267196147783,0.9107731950653344,0.537634862935084,0.9900000000000002,-0.2220090831133985,-0.6725941428633773,-0.07366899405121385,-0.7274900964739788,1.0,-0.3970789463828379,-0.8511981656283676,0.767242909657647,0.12537235733018726,0.28312602012047616,0.9900000000000002,-0.6175271454988822,0.6666125689957862,-0.20642772306611024,0.896386374749313,-0.12552646058361194,0.0387399089473881,0.2891962984174503,-0.960020799524921,0.8565002609208019,-0.13372043023124514,0.2873817739910409,-0.562644589231263,-0.32436144808262046,-0.4978718489936602,1.0,0.04963010254918565,0.7380988225057843,-0.6913257131091084,1.0,0.3445713527186758,-0.4457133681950709,-1.0,0.8103163940712212,0.3745899678739786,-0.8343551494495527,-0.6617462885893346,0.48154188344777804,-0.7458574925491028,-0.021124289480520364,1.0,0.30968675403685486,0.8500006760055996,-0.5014638550324078,0.4221986556325401,0.8673404529027406,-1.0,1.0,-0.4625119651181009,1.0,-0.415666479280544,0.34944993451132,0.782115764924475,-0.3400591925056844,1.0,0.9900000000000002,-0.994673914881747,0.9900000000000002,-0.022449884241506846,0.25344563873663706,-0.6121108904207979,-0.038418285130011665,0.8470658584247248,0.4085234768492563,-0.6753209303797307,1.0,-0.574465835929846,0.9075125462611597,-0.19253303729530358,0.9229255694224112,-0.05400832494441321,0.40155847984760484,-0.06144160185078196,0.858646826178743,-0.3133647108978814,0.43985384609884615,0.9814153016746274,0.7422856854225683,0.5945485902885985,0.5434357751391534,0.02883758269710368,0.8591719440052672,1.0,0.7275847220981599,-0.6375503852043698,-0.4220577294219565,0.40392780422298635,-0.35717716923702714,-0.7244487695558526,-0.14571603045539172,0.6507601057803747,0.8169740464682884,-0.41360954363286595,-0.9813130825162641,-0.04107134232819698,0.1648338858933167,-0.5410939256198034,0.8355594533921499,-0.6912548824374525,0.4754104851018399,1.0,-0.010370978160481492,0.748446927423172,-0.6168328104833309,-0.1712644133571155,0.12345941072238453,0.21653409774184063,-0.6287659056319475,-0.35264303623952964,0.6324202946027633,-0.0026479588786987307,0.17392620807094872,0.9830107630376469,-0.15730159911074293,0.3488082789683744,0.22516167106431784,-0.1833945580067725,0.13629451678982596,0.14816172774053515,-0.666172914986273,0.9850000000000003,-0.5168325194167833,-0.13111318135207028,1.0,0.4894220050458653,0.033967798361150825,1.0,-0.8743562875626214,0.4257847691370382,1.0,-0.4704285006584228,-0.15259598673862929,-0.39132902211713794,-0.47110950177739763,0.22638926587892128,-0.05905826600498454,1.0,0.5465602674677594,-0.8656547397430125,-0.14132752341540522,0.9363176353308083,0.8142023739382465,-0.3633217941151914,0.025170103797050203,0.20991958326227067,-0.530590742209732,-0.4508709310950174,0.9788416545378995,0.22679319830438027,-0.6967410422548781,-0.803280117017751,-0.7890976678496076,0.9193933324983963,-0.06668938014535142,0.06854303446966181,0.14338289775913537,0.05724792138474277,0.5290355200975037,0.41659111629179035,0.11734241453522065,0.25750591043515936,-0.4105867326088821,-0.15796765842063554,0.2065286976366436,0.8036682135129656,1.0
0.4780446814814292,-1.0,0.9900000000000002,-0.7281028504212266,0.6695194128014332,-0.05157726532896678,-0.4986107825399886,-0.2504296839840583,0.5254543121296149,0.34778261985210435,1.0,-0.13967307294479725,0.5943247437427641,0.5377348047124322,1.0,0.31122084388250904,0.7446557054498166,0.1431670772002116,-0.23749643737324533,1.0,-0.26049750020997253,-0.6044572526693761,0.10357628821700704,-0.575948314267869,0.6106522089363287,-0.40044254278101654,-0.3510085805668144,-0.0787332550708757,0.9480506228094718,0.448075123184688,0.8125568038400761,0.8955070845628468,0.6335558714188876,-0.8939773359118748,0.8775101491788782,0.9743559799197823,0.2997715152719387,-0.38378722697907275,-0.4693076013383237,0.23504232532853386,-0.4001508169014185,0.06395561461708787,0.7223565207660796,0.5661887493037712,1.0,-0.7743859278786425,1.0,-0.37579647887980094,-0.41415785982357267,0.017205373017351144,0.8376052501624316,-0.027845484425354616,-0.19013769709728434,-0.3523774482747921,0.4039382053829512,1.0,0.43775315601439413,0.22653531998790966,-0.2154273701501106,0.5334431523936258,-0.8936653218194217,0.46882006488178707,-0.37927399087547475,0.9900000000000002,0.2697903868367755,0.12111912307956896,0.7190287418215131,-0.08217439427177942,-1.0,-0.26852184572315796,0.9457334714426939,0.35957321958816824,0.060645345335910816,-0.09373944262279954,0.1550405879262624,0.42665589361753486,0.5213325124075228,-0.8826185492126912,-0.6746384983046676,0.15327955115445913,-1.0,0.954960610806606,0.5849624631189791,-0.2824503532050615,0.8410641991978716,0.27205764713383407,0.004220097553479629,1.0,0.45689306251540973,0.2803055915632209,0.5537879494836502,-1.0,-0.5771526266153217,-0.32213994113585276,0.48947596588082165,-1.0,-0.22611599127010518,0.9900000000000002,-0.10918749921910287,-0.020558715810768735,-0.14784624324462037,0.5746440961504213,-0.12275480560656282,0.896478102898592,0.1191093224061992,0.7487817252801143,0.8001294689953582,0.6605643318875654,-0.6045285650922274,-0.08730445407920362,0.24902936714854906,-0.34183759474974784,-1.0,0.9900000000000002,-0.1851299540184761,0.8110349798485319,0.11938317604884485,0.9900000000000002,0.46574557067937494,1.0,-0.0671192541372787,-0.5400657030995486,0.7979019533031777,1.0,1.0,-0.054317468828408266,-0.3078816709742669,-0.42686499876199857,-1.0,-0.7562193477790409,-0.2863004495041457,0.8676021729889629,0.6269634090685043,-0.5286169576044264,-0.5522175584552436,-0.432408219816228,0.6487650095845634,-0.8805138267047479,0.45126562525702596,0.4639680000744395,-0.4408057083098136,0.9900000000000002,0.9900000000000002,0.007559004514292589,-0.8764188332259701,1.0,-0.6469514511580634,0.4058813979559428,0.7213095085433787,0.8472518601548282,0.7618047784108648,-0.44527681907989036,-0.5087333136549024,0.9900000000000002,-1.0,1.0,-0.25945528160622455,0.7235370204742955,-0.5922026853881963,0.5385659395111206,-0.38237839725846,0.4585842586144979,-0.9619228496190557,-0.9836232780443757,-0.6461602418139663,0.011698774891824915,1.0,0.610154391187236,0.24764349637180416,-0.8665077320981225,0.4110127870719107,0.8641201403402734,0.8992509200457866,0.3351498684958334,1.0,0.3184939939024902,0.9430782684615573,0.7599749053814049,0.01902899642667588,0.5190508760604047,0.882273509245961,0.08167512241466479,-0.8731642151376402,1.0,0.32176694369669523,0.37811408149091585,0.7131369193281352,0.017042021500736304,-0.6098915056687364,-0.6340279431393032,0.9768288576457054,-0.8470884816913609,0.4286588190374596,0.6700029366760409,0.09412328277069193,-1.0,0.36917278432142187,-0.3906029414554659,-0.38462224030946857,-0.31027519306437856,-0.15093239372655587,-0.7151088829993153,-0.42421296550596166,-0.06310578628045427,0.17400496684935352,0.048951883199988,0.01876347244898735,-0.08493900016642897,-1.0,-0.40595270153394214,0.5367897242275395,-0.5920074612044353,0.28894921343074653,-0.0767579435707022,-0.5693755820975941,-0.69542174816696,0.5196476214280974,-0.4578000779158615,0.09378150902211202,0.04783198494895202,-0.7574773595418098,-0.5140121891959715,0.9977600531726711,-0.25006023066352645,0.6417441260391157,0.0210263930905239,0.4518581768709271,0.38033814488505924,0.43568368304682714,-0.4755960406409807,0.6318383727086898,0.5835765170999019,0.7685087845823817,0.7724053060177223,0.4809400202832961,-0.3116810103874572,0.3294367345429565,0.9476532232956054,0.051866027194880204,-0.5796716053468556,-0.579714158808094,0.8791396182676698,1.0,1.0,-1.0,0.8680791500670062,0.9318410363548439,-0.3103661658356307,0.2892154365645814,0.14225310871600083,0.6697898993127813,-0.07434435897597713,0.23563797283860533,0.6646073062264546,0.8283425151731407,-1.0,0.9769174573558352,-0.5730054811514886,-0.4927211675927796,1.0,-0.5897845906134753,0.2607291652547803,-0.38118298528075023,-1.0,-0.9665010154933567
0.4780446814814292,-1.0,0.9900000000000002,-0.7281028504212266,0.6695194128014332,-0.05157726532896678,-0.4986107825399886,-0.2504296839840583,0.5254543121296149,1.0,1.0,-0.13967307294479725,0.5943247437427641,0.5377348047124322,1.0,0.31122084388250904,0.7446557054498166,0.1431670772002116,-0.23749643737324533,1.0,-0.19818055949536184,-0.6044572526693761,0.09357628821700725,-0.575948314267869,0.6106522089363287,-0.40044254278101654,-0.3510085805668144,-0.0787332550708757,0.938050622809472,0.448075123184688,0.8025568038400763,0.8955070845628468,0.6335558714188876,-0.9039773359118746,1.0,0.9743559799197823,0.2997715152719387,-0.38378722697907275,-0.4693076013383237,0.43627580010352673,-0.4101508169014183,0.06395561461708787,0.7223565207660796,0.5661887493037712,0.9900000000000002,-0.7743859278786425,1.0,-0.37579647887980094,-0.41415785982357267,0.017205373017351144,0.8376052501624316,-0.027845484425354616,-0.19013769709728434,-0.3523774482747921,0.393938205382951,1.0,0.43775315601439413,0.22653531998790966,-0.22542737015011038,1.0,-0.8936653218194217,0.46882006488178707,-0.37927399087547475,0.9900000000000002,0.2697903868367755,0.11111912307956917,0.7190287418215131,-0.08217439427177942,-1.0,-0.26852184572315796,0.9357334714426937,0.35957321958816824,1.0,-0.09373944262279954,0.1550405879262624,0.42665589361753486,0.5213325124075228,-0.8826185492126912,-0.6746384983046676,0.15327955115445913,-1.0,0.9449606108066062,0.5849624631189791,-0.2824503532050615,0.8310641991978716,0.27205764713383407,0.004220097553479629,0.9900000000000002,0.45689306251540973,0.2803055915632209,1.0,-1.0,-0.5771526266153217,0.9940561553199769,0.48947596588082165,-0.887117727374489,-0.23611599127010496,1.0,1.0,-0.020558715810768735,-0.14784624324462037,0.5746440961504213,-0.12275480560656282,0.8864781028985922,0.1191093224061992,0.7487817252801143,0.8001294689953582,0.6605643318875654,-0.6045285650922274,0.4766180953496355,0.6245146835742745,0.23293231873374343,-1.0,0.45288169579761717,0.05969160819576569,0.5746226361788869,0.5003626234825176,0.9850000000000003,0.4793057778036407,0.9142695663421501,0.2635048645547713,0.2199671484502259,0.31987229494531744,1.0,0.9800000000000004,0.35779233282111433,-0.25166716106480735,-0.20666522574837765,-0.004999999999999893,-0.2712839338861208,-0.2957626691311823,0.4406021532934037,0.8134817045342522,-0.49085498579077,-0.28667345760749896,0.2687958900918863,-1.0,-0.11619294489608034,1.0,0.7169840000372201,-0.04305989444285352,0.9900000000000002,0.29855420721122927,0.3564975231238847,-0.012923833182207467,0.9758436550562273,0.1765242744209683,0.7029406989779714,1.0,0.9036259300774141,0.8759023892054325,-0.010294442097231071,-0.075919471122182,-0.004999999999999893,-0.2872994501046282,0.7544500797686771,0.3096777983889325,-0.13823148976285227,0.0164739191817862,0.9174409750193044,0.18135412952901087,0.704292129307249,0.014038575190472247,-0.016811639022187297,-0.028279928817563693,0.357419950520667,0.765866907039999,-0.20492280440638222,0.41486027520892677,-0.0816509873656901,-0.05906807966640737,0.040738512986172815,-1.0,0.6675749342479167,0.16869060520593804,-0.017577533134419454,0.9415391342307791,-0.12001254730929756,0.03368003268151165,0.7595254380302023,0.05922312438472743,0.05280450263456471,0.04341789243118033,1.0,0.6068134032357255,0.674057040745458,0.8565684596640676,0.493521010750368,0.0026592337470265903,-0.18042799780618424,-0.011585571177147314,-0.1360097317751494,0.04695389844251796,0.8250014683380202,-0.45293835861465404,-0.7843725672630111,0.40511473637320083,-0.695301470727733,0.3026888798452658,-0.5308439562843001,1.0,-0.697227424317231,0.28789351724701917,0.46844710685977287,0.3779914206497277,-0.32851339244010114,0.4285872095830938,-0.5424695000832145,-1.0,0.25545062166535315,-0.23160513788623027,0.09964192601510646,0.31874361698302955,0.26087376197027945,-0.2426595685403108,-0.4692661842803245,-0.03535292209969754,0.26109996104206923,0.5368907545110562,0.3244993492216332,-0.36543900971705034,-0.1595429739415335,0.9938800265863357,0.12605923751174108,0.815872063019558,0.5055131965452621,0.7109290884354635,0.6901690724425296,0.7178418415234136,0.04313133039245276,0.6973354349304564,0.49995546929418744,0.879254392291191,0.07332008975826998,0.7304700101416479,-0.3116810103874572,0.42225902015198846,0.9376532232956052,0.051866027194880204,-0.5796716053468556,-0.579714158808094,0.8791396182676698,0.9900000000000002,1.0,-1.0,0.8680791500670062,0.9218410363548442,-0.3103661658356307,0.2892154365645814,0.9314378782346795,0.6697898993127813,-0.07434435897597713,0.2256379728386051,0.6546073062264544,0.8283425151731407,-1.0,0.9669174573558355,-0.5730054811514886,-0.5027211675927798,1.0,-0.5897845906134753,0.2607291652547803,-0.38118298528075023,-1.0,-0.9665010154933567
0.4780446814814292,-1.0,0.9900000000000002,-0.7281028504212266,0.6695194128014332,-0.05157726532896678,-0.4986107825399886,-0.2504296839840583,0.5254543121296149,1.0,1.0,-0.13967307294479725,0.5943247437427641,0.5377348047124322,1.0,0.31122084388250904,0.7446557054498166,0.1431670772002116,-0.23749643737324533,1.0,-0.19818055949536184,-0.6044572526693761,0.09357628821700725,-0.575948314267869,0.6106522089363287,-0.40044254278101654,-0.3510085805668144,-0.0787332550708757,0.938050622809472,0.448075123184688,0.8025568038400763,0.8955070845628468,0.6335558714188876,-0.9039773359118746,1.0,0.9743559799197823,0.2997715152719387,-0.38378722697907275,-0.4693076013383237,0.43627580010352673,-0.4101508169014183,0.06395561461708787,0.7223565207660796,0.5661887493037712,0.9900000000000002,-0.7743859278786425,1.0,-0.37579647887980094,-0.41415785982357267,0.017205373017351144,0.8376052501624316,-0.027845484425354616,-0.19013769709728434,-0.3523774482747921,0.393938205382951,1.0,0.43775315601439413,0.22653531998790966,-0.22542737015011038,1.0,-0.8936653218194217,0.46882006488178707,-0.37927399087547475,0.9900000000000002,0.2697903868367755,0.11111912307956917,0.7190287418215131,-0.08217439427177942,-1.0,-0.26852184572315796,0.9357334714426937,0.35957321958816824,1.0,-0.09373944262279954,0.1550405879262624,0.42665589361753486,0.5213325124075228,-0.8826185492126912,-0.6746384983046676,0.15327955115445913,-1.0,0.9449606108066062,0.5849624631189791,-0.2824503532050615,0.8310641991978716,0.27205764713383407,0.004220097553479629,0.9900000000000002,0.45689306251540973,0.2803055915632209,1.0,-1.0,-0.5771526266153217,0.9940561553199769,0.48947596588082165,-0.887117727374489,-0.23611599127010496,1.0,1.0,-0.020558715810768735,-0.14784624324462037,0.5746440961504213,-0.12275480560656282,0.8864781028985922,0.1191093224061992,0.7487817252801143,0.8001294689953582,0.6605643318875654,-0.6045285650922274,0.4766180953496355,0.6245146835742745,0.23293231873374343,-1.0,0.45288169579761717,0.05969160819576569,0.5746226361788869,0.5003626234825176,0.9850000000000003,0.4793057778036407,0.9142695663421501,0.2635048645547713,0.2199671484502259,0.31987229494531744,1.0,0.9800000000000004,0.35779233282111433,-0.25166716106480735,-0.20666522574837765,-0.004999999999999893,-0.2712839338861208,-0.2957626691311823,0.4406021532934037,0.8134817045342522,-0.49085498579077,-0.28667345760749896,0.2687958900918863,-1.0,-0.11619294489608034,1.0,0.7169840000372201,-0.04305989444285352,0.9900000000000002,0.29855420721122927,0.3564975231238847,-0.012923833182207467,0.9758436550562273,0.1765242744209683,0.7029406989779714,1.0,0.9036259300774141,0.8759023892054325,-0.010294442097231071,-0.075919471122182,-0.004999999999999893,-0.2872994501046282,0.7544500797686771,0.3096777983889325,-0.13823148976285227,0.0164739191817862,0.9174409750193044,0.18135412952901087,0.704292129307249,0.014038575190472247,-0.016811639022187297,-0.028279928817563693,0.357419950520667,0.765866907039999,-0.20492280440638222,0.41486027520892677,-0.0816509873656901,-0.05906807966640737,0.040738512986172815,-1.0,0.6675749342479167,0.16869060520593804,-0.017577533134419454,0.9415391342307791,-0.12001254730929756,0.03368003268151165,0.7595254380302023,0.05922312438472743,0.05280450263456471,0.04341789243118033,1.0,0.6068134032357255,0.674057040745458,0.8565684596640676,0.493521010750368,0.0026592337470265903,-0.18042799780618424,-0.011585571177147314,-0.1360097317751494,0.04695389844251796,0.8250014683380202,-0.45293835861465404,-0.7843725672630111,0.40511473637320083,-0.695301470727733,0.3026888798452658,-0.5308439562843001,1.0,-0.697227424317231,0.28789351724701917,0.46844710685977287,0.3779914206497277,-0.32851339244010114,0.4285872095830938,-0.5424695000832145,-1.0,0.25545062166535315,-0.23160513788623027,0.09964192601510646,0.31874361698302955,0.26087376197027945,-0.2426595685403108,-0.4692661842803245,-0.03535292209969754,0.26109996104206923,0.5368907545110562,0.3244993492216332,-0.36543900971705034,-0.1595429739415335,0.9938800265863357,0.12605923751174108,0.815872063019558,0.5055131965452621,0.7109290884354635,0.6901690724425296,0.7178418415234136,0.04313133039245276,0.6973354349304564,0.49995546929418744,0.879254392291191,0.07332008975826998,0.7304700101416479,-0.3116810103874572,0.42225902015198846,0.9376532232956052,0.051866027194880204,-0.5796716053468556,-0.579714158808094,0.8791396182676698,0.9900000000000002,1.0,-1.0,0.8680791500670062,0.9218410363548442,-0.3103661658356307,0.2892154365645814,0.9314378782346795,0.6697898993127813,-0.07434435897597713,0.2256379728386051,0.6546073062264544,0.8283425151731407,-1.0,0.9669174573558355,-0.5730054811514886,-0.5027211675927798,1.0,-0.5897845906134753,0.2607291652547803,-0.38118298528075023,-1.0,-0.9665010154933567
-1.0,1.0,-1.0,1.0,0.9800000000000004,-0.8297314165751004,-1.0,-0.5267356032717829,0.18205597583294253,0.9900000000000002,0.6289882397809254,-0.3955370326654335,0.0645556488955572,1.0,0.9334175377854601,-0.40035952664229946,0.4913390172871366,0.39175318258650327,-0.8988600059112652,1.0,-0.01744184952572514,-0.4176972817314253,1.0,0.338302954741339,0.8846032027087727,0.9262220798356822,0.7253292156107465,0.04881290862574339,-0.42335057714086677,-1.0,0.5235321785012026,0.06165127911378043,0.32506823589618117,0.5551351260979014,-0.6991465223982027,0.8907662699356198,0.04461922233402449,0.13396387958086775,0.9900000000000002,0.261038541107804,0.9900000000000002,0.7161336612567561,0.12916640368461696,0.6279978078926023,-1.0,0.5619618966279432,-0.010017603166450506,0.9900000000000002,0.37247142374716957,0.9900000000000002,1.0,0.4383922626642338,0.8173407933636883,0.2995276381315737,0.42220151232446224,1.0,-0.03982047311342418,-1.0,0.9900000000000002,-0.3379740544255654,0.444818493414763,-0.4369308066453872,0.7191545309415703,1.0,0.9900000000000002,0.39673069887652357,0.13455763490549355,1.0,0.6885517354530863,0.3295283833269895,-0.10149154585926468,-1.0,1.0,-0.4244565069855941,-0.5888220857203286,0.840681853160758,0.7993952094108732,-1.0,0.9900000000000002,0.006299211846184427,0.9800000000000004,0.9800000000000004,0.5516866011484507,0.33276780144606644,-1.0,1.0,-0.14588007520394353,0.9900000000000002,-0.5497919446836423,-1.0,0.25344460918304357,0.725519355478446,0.013204598314693783,0.25285352976088316,1.0,0.8084480258829987,-0.18405186047200672,0.22124599161330893,1.0,1.0,0.8688583265070307,0.9900000000000002,-0.801572680237292,0.728906623319518,-0.9636178729824172,0.14430175577354376,0.7249885913963405,-0.5595120752861478,-1.0,0.5757401622606588,0.9900000000000002,-0.07877182315311071,1.0,-0.6147629364229725,1.0,1.0,0.1503141080498036,1.0,0.36219148424188496,-0.7476729305942516,-1.0,-0.5006151643474137,0.3735392247048539,0.9026001280438907,0.6541698648341026,-0.7784531034417732,-1.0,-0.5510949007280468,0.5630483278210034,0.557484553876817,-1.0,0.7439979254695874,0.1562336572467613,0.43312796454121916,0.9800000000000004,-0.3987046905694296,-0.16624828877036357,0.09961419088210377,0.9900000000000002,-0.3721402277869337,-0.7612695041750381,0.5509010160962271,0.22897764291757916,-0.3131421736961526,0.6474412840881687,0.9655554970160658,0.9401341538149053,1.0,-0.4318080838410454,1.0,0.8400017353576565,0.9900000000000002,0.9537946849892593,1.0,-0.3296163733410147,0.1654259572032828,0.9800000000000004,0.9536599935479373,-0.04418825167631191,-0.2963799188049778,-0.3131948107964191,0.5179668851636849,-0.28774243432165925,0.4003069091283056,0.9900000000000002,0.9900000000000002,1.0,1.0,-1.0,0.6712191741703144,0.7653764747276002,0.04354848746546658,-0.35403923980737684,0.0938211728059759,0.9900000000000002,0.9800000000000004,-1.0,0.3642387174398585,0.646736097025379,0.7132198297497983,-0.20903735630539266,0.9784915365062199,0.5575750070798806,0.9900000000000002,-0.23787789381025526,-0.01734316309127104,-0.30599673026301755,0.8954795302661123,0.8474288655628355,0.9263569870976553,0.505014100752196,0.9900000000000002,0.9791585640266538,0.08968798571025782,-0.053584127809987336,-0.00033180644060770703,0.45658186015870417,0.8352099266301858,0.9900000000000002,-0.2243192810726855,0.8001615631625634,-0.18711214781324825,0.8217435364572072,0.9900000000000002,1.0,1.0,0.9320535542403237,0.9800000000000004,-0.02096007077070583,-0.4809833675412456,1.0,1.0,0.302634913316596,0.9702892154506344,0.9900000000000002,0.6932791201763369,0.5443655229712672,0.09362565399417999,0.659671553760294,0.908585855507396,0.9900000000000002,0.9184918665874524,1.0,1.0,1.0,0.17988665550711946,1.0,-1.0,0.9633121128028312,0.4342305450605055,0.15823349469491976,-0.20820776346658665,0.12743123056794525,1.0,-0.6402332003221547,-0.029280547966069825,1.0,1.0,-0.24688968882185325,-1.0,0.7204152153907151,0.31588560994935966,1.0,1.0,0.8459570894775963,0.1442038206001941,-0.5782400847993507,-0.13308795945574703,-0.6576540409365608,0.9900000000000002,0.38356980106736227,0.57165160345148,-0.33295226547246237,0.09821676410513058,0.6422887770824257,1.0,-0.4920958947759333,-0.44170627726671885,0.686090315586787,1.0,1.0,0.7032629277046532,0.48424116660148764,0.9900000000000002,0.6210708819184521
0.9900000000000002,0.7344430497536756,0.8800149261313086,0.1743036994652689,-0.10208546243399619,0.18289967790029316,0.24388775751254954,0.21852925292647818,-0.4497424863108792,0.6940152115561871,0.6944456996070554,0.6804795432697848,0.18659720083524434,-1.0,0.46898870511147894,-0.23457029693493414,0.9900000000000002,0.5129266823327234,0.8589885943145643,1.0,0.3388371956258993,0.009420833819119512,-0.22303495945952534,0.39836636974154827,0.6405830560986874,0.5001656552357592,0.6665441515452393,0.6586323520358366,1.0,0.6498908249011075,0.2733046033911881,0.7162077291469475,0.48141426594135606,0.5454838777206863,0.5668250075188479,0.22558105591761957,0.6576410124600769,0.517367229403543,-0.7964990765322764,-0.24341358539450297,1.0,-0.052736449890803616,-0.6726604840343122,0.3484695891696572,0.758833170987995,0.21302060432967718,-0.7231090181670838,0.20713382351151566,0.9950000000000001,-0.7157972180760135,1.0,-0.3089369746782138,-0.550514097227456,0.051696925057395315,-0.18481570622756838,-0.3479971547740208,0.43700221737151423,-0.028034511610237622,-0.8311262625825426,0.3306473210475307,1.0,0.8748723450263114,0.6323337714360404,0.09962650240836446,0.734548960235649,0.8712854070527576,-0.4363385671619935,1.0,1.0,1.0,-0.17841270303151802,-1.0,-0.04912214404282533,0.9900000000000002,-1.0,0.9010868932700085,0.34657599376309545,0.42941516578190564,0.3817988179212266,0.20497456054278596,-0.023560175861191635,0.15608260518526684,0.27791601684828393,0.9509527516261294,0.9900000000000002,-0.10961028189096522,0.6672859826208137,0.723597315557015,0.96756251352702,0.7983792270991268,1.0,0.10765500978922127,0.3989168977837263,0.9223094045589333,0.07372564211672206,1.0,0.7415849761150815,0.5518718424831426,1.0,0.20603753672576985,-0.46546702136113205,0.09422263954450916,1.0,0.6494969515622935,0.9950000000000001,0.7889494241673098,0.38214496076784843,0.5107131907493647,0.66126242650164,0.9126388689732261,1.0,0.026905155152022076,-0.14488156168270772,0.9678235987763654,0.0965677399535223,0.2416698359401952,1.0,0.3403254292561808,-0.03976917356363163,-0.5989904330101268,-0.028549758089422728,0.35502663868144335,0.48815409622320516,-0.17246494973052418,-0.043844735087553044,-0.38646979977946794,-0.702421435873594,-0.4197863704577529,1.0,0.21692027392432278,0.6122215597572294,0.4902572717591007,0.006064590808819714,0.6064831717092116,1.0,0.9825000000000004,0.5639706904982962,1.0,-0.7890857008117553,1.0,0.840737288616979,0.08240752435534235,-0.5955343799096346,0.8009505456124759,-0.40434868391465933,-0.8101361753531221,0.7464473481948701,0.5412638761857749,0.12813809033687407,0.6763500789967036,0.554063320200993,0.6307806143166039,0.9900000000000002,0.8632858613235506,0.4489088598199453,0.9655081826214746,0.42480243895321435,-0.6927034646787611,0.49054854047200047,0.8196547097752518,1.0,0.7996430771018432,0.5823671938930506,0.2913887950317924,0.30065417610156864,1.0,0.5276660837361966,0.5459304508327403,0.3470249524588016,-1.0,0.24628085498864127,0.49709423948178166,-0.711394014879061,0.3434604244687871,0.4417732191643555,1.0,0.09953160063077515,-0.7526009717332593,-0.119118742206346,0.5059646993668423,0.9900000000000002,1.0,1.0,0.38388011236939024,0.9900000000000002,0.14420116887949508,1.0,0.3031383355746433,-0.13365832707972913,0.43174697009991014,1.0,0.9800000000000004,0.6406493632641994,0.16839370408565735,-0.09044761820702485,-1.0,1.0,-0.6045762382322266,0.7366859012202518,-0.326524476139447,0.77544573457046,-0.019999999999999574,0.9900000000000002,0.9900000000000002,0.9614129858000373,1.0,0.9900000000000002,0.9800000000000004,0.0541894003743435,-0.6747631631768289,0.02344186055049491,-1.0,-1.0,-1.0,-0.12194697592483816,1.0,1.0,-0.5308010133058945,0.9500000000000011,0.8605448555934174,0.43285975798434473,0.1652046682315298,-0.8473074977508999,0.0662728281738385,0.9900000000000002,0.43961105704765746,-0.05679442407151791,1.0,-1.0,-1.0,0.3849245504676295,0.45259041068323747,0.7551501677958963,0.9800000000000004,0.9900000000000002,0.3666379792250858,-0.09886683589867129,0.8312136227391527,-0.507919057758933,-0.19568113187660074,-0.1911564940582675,0.7382792365353401,-0.27032073300054815,0.960270613721077,0.8705689947546889,0.504251692494651,-0.44078117583281795,-1.0,-0.6987100356563336,-0.22343880808920957,0.4053891757634327,0.0031910301019735243,-0.6767224843848072,-0.7052506342623466,-1.0,0.8526692594716261,0.17003732625185686,0.9072995513166902,0.9900000000000002,0.9900000000000002,-1.0,0.5147919187474921,-1.0,-0.72445635955662,-0.5305428346955257
0.978816101988889,0.14330263402648935,-1.0,-0.6158569615089515,0.7803296564985365,-0.6650297700509205,-1.0,0.7350161285446495,0.332735046116154,-1.0,-0.6143928310825624,-0.10728778751865464,-0.2172205989457323,0.48007890845185486,0.34179828019659997,0.24865795656426481,-0.5018719788407688,0.8524207902520815,0.1276691198458222,0.9746834674875755,0.9900000000000002,1.0,1.0,-0.2907102504802035,0.26988608495549293,1.0,0.33731461408354946,0.7261359366002385,1.0,-0.35626280084913065,0.9900000000000002,0.8344323208697055,0.10264421699239623,-0.22620536085782383,0.6639824590483574,0.3973596931979806,0.3525568272099311,-0.09631691869542802,0.19439052994939576,0.37431755730153293,-0.5344556921837222,-1.0,-0.05195969059515071,1.0,0.12944402321391468,0.07150910397347232,0.7578607917672562,-0.18510549528655296,0.37065348583361857,1.0,-0.7861942111147497,0.9900000000000002,0.8194194172310612,1.0,-0.6167481522309792,0.9919644188334837,1.0,0.9900000000000002,0.5000468305660215,0.943195495602752,1.0,-0.8634936370565471,-1.0,-1.0,-0.7809698254576065,0.06599103902586556,0.7293904108943154,0.9900000000000002,0.8056074192433922,0.9021649135850032,-0.19778593630680774,0.9800000000000004,0.6557186519974527,0.6993014157155795,0.12221835252788349,1.0,-0.6594006808762316,-1.0,0.9433808859691064,0.21226623146355106,0.44170218068361233,-0.03367313759601043,1.0,0.9627985911961288,0.26595261109710666,1.0,-0.32215576862679285,0.8354409204015729,-1.0,-0.3864470695345146,0.06863226150532498,0.5218195368204661,0.7303981065424132,0.6664242973195202,0.08242312939150231,0.3106267196147785,1.0,0.49763486293508485,0.9800000000000004,-0.2420090831133983,-0.7025941428633766,1.0,-0.7574900964739788,0.4906549288144726,-0.15459093490591558,-0.25680609646059427,1.0,0.12537235733018726,1.0,-1.0,0.8685694399808455,0.8815064222619893,0.8613927878889074,0.5234510138702948,0.41131907553837,1.0,0.25919629841745095,-1.0,1.0,-0.15372043023124515,0.9488086730231338,0.9900000000000002,0.2275906099338485,0.6662509642368812,0.9900000000000002,-0.39424158695578626,0.9282670846003183,-0.7013257131091084,1.0,0.3894791179268484,-0.4457133681950709,0.3791216087090392,1.0,0.4270615938122413,-0.49291880088461326,1.0,1.0,-0.7758574925491022,0.64811079646024,1.0,0.29968675403685463,1.0,0.9900000000000002,1.0,0.7802858533665393,-1.0,0.7369102910857235,0.9900000000000002,0.08614439545724295,0.6494387383950269,0.9700000000000006,0.7921157649244748,-0.36005919250568397,0.6599396542423683,-1.0,-0.994673914881747,1.0,1.0,0.9800000000000004,0.37168506468943896,-0.04841828513001145,0.9900000000000002,1.0,0.781439160701614,0.9700000000000006,-0.6144658359298454,1.0,-0.21253303729530337,-1.0,1.0,0.6107449250474719,0.6364749999645589,0.9900000000000002,-0.33336471089788144,0.9616829944731835,0.9614153016746272,0.7222856854225688,0.9900000000000002,1.0,-0.1951320887167407,0.8291719440052674,0.05016377190451049,0.29514044616133805,0.3990895681107771,0.07008338172039164,0.4146437422455387,-0.21671638067688637,0.2883100523625477,1.0,0.6407601057803749,1.0,-0.42360954363286574,0.8498385553353138,-0.0260713423281973,0.9800000000000004,-0.5460939256198034,0.6811189067842998,-0.44323170325442085,0.46041048510184,0.6101599443196148,-0.21139920392065292,0.9900000000000002,-0.26856899116532684,1.0,0.8257821162243628,0.8719893683416009,-0.7225658389394454,0.353389850147809,1.0,0.9900000000000002,0.7882913156119402,0.9560215260752938,0.45612452311781126,0.7913121255780897,0.2261032823580429,-0.21839455800677232,0.9900000000000002,1.0,0.8008556451567497,1.0,-0.31812740782160454,0.546386791729224,0.9900000000000002,0.9900000000000002,0.39492423678479316,-1.0,0.9900000000000002,0.7963290009625013,0.9750000000000005,0.7090470342009247,-1.0,1.0,0.2562955002398395,1.0,-0.5495291330024923,0.9850000000000003,0.9242567634856682,0.5523110848232173,0.7398301575585533,-0.05184118233459545,-1.0,0.2883391029424045,0.8108551490654081,0.12139224794099768,0.2247046288951342,-0.4796661928318535,0.8294780185374182,0.8368932165628289,0.654169165442573,0.40069621836154923,-0.5327575519692473,1.0,0.9900000000000002,1.0,0.4496075701782436,-0.44641133384815124,-0.3981281299596833,0.9723646248513025,0.5031243582546479,0.5582318040371468,0.9900000000000002,0.46067832713941304,0.4735191660326974,0.8036682135129656,-1.0
-1.0,1.0,-1.0,0.9900000000000002,1.0,-0.8297314165751004,-1.0,-0.5367356032717829,0.17205597583294274,0.9900000000000002,0.6189882397809257,-0.3955370326654335,0.05455564889555742,0.9900000000000002,1.0,0.4241190710668836,0.48133901728713635,0.39175318258650327,-0.7622309380722685,0.9900000000000002,-0.01744184952572514,0.2308608960347387,1.0,0.3283029547413392,0.547059208243315,0.9481110399178414,0.9299625551725148,0.34872263033079,0.11766913449642846,-0.2502078533676029,0.8712550043141052,0.5308256395568902,0.6625341179480906,0.2797472179190945,-0.8495732611991014,0.9453831349678099,0.22932500405103529,0.32066555449220524,0.09675046173386193,0.029958253854549977,0.8608734724594709,0.33669860568297627,-0.26674704017484757,0.2994192712567456,-0.9166820847118933,-1.0,-0.37156331066676707,0.621751333098365,0.6762357118735847,0.5651479614418324,0.0,0.2401438079776761,0.12841334806811622,0.15561228159448426,1.0,1.0,0.4800897634432879,-0.5290172558051189,0.3340794839160377,1.0,0.7224092467073815,0.2189707691904621,1.0,0.7492060715914608,0.6065437336448385,0.6783653494382618,-0.15589046612825008,0.4907246444934922,0.7409615254729642,0.6123872898891163,0.1400722945595625,-0.23088286093402832,0.5320214366775784,1.0,0.16409621741425884,0.8558843732153836,0.6014525331565141,-0.009999999999999787,1.0,0.04924458258084097,0.4782199120694044,0.553041302592634,0.28283432385040075,0.6513839007230331,-0.009999999999999787,0.9900000000000002,0.42705996239802824,0.9417572263995115,0.9420791784601552,0.05793979908404445,-0.3732776954084782,0.4283921238605082,0.21106074804921016,0.41530195138641357,0.5975513506020409,0.5896650781511164,0.2537665578215371,0.8294666728040956,1.0,0.598018768362885,0.7561338894079865,0.9900000000000002,-0.07063549798223567,1.0,0.9900000000000002,-1.0,0.6272253564069321,0.4276949850368563,-0.6049179295110241,0.5314793944489531,0.9661722342468715,-0.03093333400054421,0.5520817066382877,0.17653033117669642,1.0,0.7733606104066562,0.10147665195662059,0.5230151911829339,0.08290097600157398,0.8402506364143907,-0.5042748790447116,1.0,0.6767696123524267,0.9513000640219453,0.1706324815640743,1.0,-0.7136938877106476,-0.31637621350034495,0.7715241639105015,1.0,-1.0,-1.0,0.5781168286233807,-1.0,0.9900000000000002,-0.165611945209581,1.0,1.0,0.07648998667595919,-0.0993884224903463,-0.04489746347053947,0.7494458582689267,0.18413211828671994,-0.44877392214745715,0.6964466631904731,0.9727777485080331,-0.02993292309254736,1.0,1.0,1.0,0.9100008676788285,0.580314302778052,0.9768973424946297,-0.4544640470486918,-0.30075790842704375,-0.4172870213983586,0.6675513381658718,0.1254782644345882,1.0,-0.6581899594024891,-0.12091427377712893,1.0,0.15397173960018717,0.29989458183773143,0.6303270880507847,-0.004999999999999893,0.9127707347288561,0.9565929729309746,-0.7529959263681851,0.7218483649489196,0.39415355344949976,-0.4238328264870228,0.20484313254331354,1.0,0.9950000000000001,0.9781564466798569,-0.10501825632190842,0.15297030433157088,0.20714647134778952,1.0,0.6081736503013184,0.6347437465748094,0.08892794970127849,0.8751794484868984,0.3157079427278098,0.4863284184543646,-0.25174379076583475,0.9377397651330561,0.6984741646756936,-1.0,0.4179386949506254,1.0,0.48420623560628107,0.299418136358522,0.47320793609500633,-0.5001659032203039,1.0,0.16039499853900385,0.9800000000000004,0.14977290718274183,1.0,-0.22840280641184396,0.8858717682286041,0.126949225782782,0.024480483867249436,0.39055309155153317,0.3098166225418213,0.8780103692708754,-0.3609210201532138,0.2595083162293772,0.8470149564010276,0.31196204639215575,0.5470869069366495,0.10153808021989486,1.0,0.8316395600881687,0.09188817771892865,0.5100391506343076,0.7462073700069909,0.954292927753698,0.6539298167534406,0.9592459332937262,-1.0,0.9900000000000002,0.6676516505438768,1.0,0.6944049708522742,-0.027668482899670277,0.31212869238271423,0.2538690853506016,0.22135028909378907,0.3858961182667069,-0.19489924271697534,1.0,0.17988339983892265,0.06747867368853022,0.9721245735399577,0.9647352165170653,0.5167257505970118,-0.6124415008895578,1.0,0.6479428049746798,0.9900000000000002,1.0,0.8459570894775963,0.1442038206001941,-0.5782400847993507,-0.15308795945574705,-0.6676540409365606,1.0,0.553294858142312,0.5666516034514801,-0.2329976034252219,0.5441083820525654,0.6372887770824258,0.9850000000000003,-0.11977760836453388,-0.45670627726671853,-1.0,-1.0,1.0,0.7032629277046532,-1.0,1.0,0.6317207856183686
-1.0,1.0,-0.03452606064557884,0.9900000000000002,1.0,-0.8297314165751004,-1.0,-0.5367356032717829,0.17205597583294274,0.9900000000000002,0.6189882397809257,-0.3955370326654335,0.05455564889555742,0.9900000000000002,1.0,0.4241190710668836,0.48133901728713635,1.0,-0.7622309380722685,0.9900000000000002,-0.027441849525724926,0.2308608960347387,1.0,0.3283029547413392,0.547059208243315,0.9481110399178414,0.919962555172515,0.33872263033079,0.19497297720362594,-0.2502078533676029,0.8712550043141052,0.5308256395568902,0.6625341179480906,0.2797472179190945,-0.8495732611991014,0.9453831349678099,0.22932500405103529,0.32066555449220524,0.09675046173386193,0.029958253854549977,0.8508734724594706,0.33669860568297627,-0.26674704017484757,0.2894192712567456,-0.9166820847118933,-1.0,-0.37156331066676707,0.621751333098365,0.6762357118735847,0.5551479614418326,0.5467133379754823,0.2401438079776761,1.0,0.15561228159448426,0.9900000000000002,1.0,1.0,-0.5390172558051187,0.3340794839160377,1.0,0.7224092467073815,0.2089707691904623,1.0,1.0,0.6065437336448385,0.6783653494382618,-0.16589046612824987,0.4807246444934923,0.7409615254729642,0.6123872898891163,0.1400722945595625,0.2653062476061683,0.5320214366775784,0.9900000000000002,0.16409621741425884,0.8558843732153836,0.6014525331565141,-0.009999999999999787,1.0,0.04924458258084097,0.4782199120694044,0.5430413025926342,0.28283432385040075,0.6513839007230331,-0.009999999999999787,-1.0,0.42705996239802824,0.9317572263995118,0.9420791784601552,0.05793979908404445,0.1203770232606054,0.4283921238605082,0.21106074804921016,0.4053019513864138,0.5975513506020409,0.5896650781511164,0.2537665578215371,0.8294666728040956,1.0,0.598018768362885,0.7561338894079865,1.0,-0.07063549798223567,0.9900000000000002,0.9900000000000002,-1.0,0.6272253564069321,0.9916344589911263,-0.6149179295110239,-1.0,0.9561722342468713,-0.03093333400054421,0.5420817066382879,0.17653033117669642,0.9900000000000002,0.7733606104066562,0.10147665195662059,0.5130151911829337,0.08290097600157398,1.0,-0.5042748790447116,1.0,0.6767696123524267,0.9513000640219453,0.923714088364993,1.0,-0.7236938877106476,-0.3263762135003452,0.7715241639105015,0.9900000000000002,-1.0,-0.30956055467622035,0.5781168286233807,-1.0,0.9800000000000004,-0.165611945209581,-1.0,1.0,0.07648998667595919,-0.0993884224903463,-0.04489746347053947,0.7494458582689267,0.18413211828671994,0.7217195808714161,0.6864466631904733,0.9627777485080333,0.031202078062721128,1.0,1.0,0.9900000000000002,0.9100008676788285,1.0,0.9768973424946297,-0.444464047048692,-0.30075790842704375,-0.4172870213983586,0.6675513381658718,0.11547826443458842,0.9900000000000002,-0.6581899594024891,-0.12091427377712893,1.0,0.15397173960018717,0.29989458183773143,0.6303270880507847,1.0,0.9027707347288558,0.9565929729309746,-0.7529959263681851,0.7218483649489196,0.39415355344949976,-0.4238328264870228,0.20484313254331354,1.0,0.9950000000000001,0.9781564466798569,-0.10501825632190842,0.15297030433157088,0.1971464713477893,1.0,0.6081736503013184,0.6347437465748094,0.08892794970127849,1.0,0.30570794272780955,0.4863284184543646,-0.25174379076583475,0.9377397651330561,0.6884741646756938,-1.0,0.4179386949506254,1.0,0.48420623560628107,0.299418136358522,0.6575879809814715,-0.5001659032203039,1.0,0.16039499853900385,0.9700000000000006,0.14977290718274183,1.0,-0.22840280641184396,0.8858717682286041,0.11694922578278177,0.024480483867249436,0.39055309155153317,0.3098166225418213,0.8780103692708754,-0.3609210201532138,0.2595083162293772,0.8470149564010276,0.31196204639215575,0.5370869069366497,0.10153808021989486,1.0,0.8316395600881687,0.09188817771892865,0.5100391506343076,0.7362073700069907,0.954292927753698,0.6539298167534406,0.9592459332937262,-1.0,-1.0,0.6676516505438768,1.0,1.0,-0.027668482899670277,1.0,0.2538690853506016,0.22135028909378907,0.3858961182667069,-0.19489924271697534,1.0,0.17988339983892265,0.06747867368853022,0.9721245735399577,0.954735216517065,0.5167257505970118,-0.6124415008895578,1.0,0.6379428049746796,0.9900000000000002,1.0,0.8359570894775965,0.1442038206001941,-0.5882400847993505,-0.15308795945574705,0.15666208765848832,0.9900000000000002,0.553294858142312,0.5666516034514801,-0.2329976034252219,0.5441083820525654,0.627288777082426,0.9750000000000005,-0.11977760836453388,-0.45670627726671853,-1.0,-1.0,1.0,1.0,-1.0,0.9900000000000002,0.6317207856183686
