7.324193952486990344e-01
9.054450875916986163e-02
1.518569810650394203e-01
4.816704951210786234e-01
1.205423178458373545e-01
4.833453505246607662e-01
-5.467683360012252081e-01
-1.587671451246088772e-01
-5.342404049782820685e-01
-1.980235129095127000e-01
6.125674580814228776e-01
8.731004272625799700e-01
6.344156563719305364e-01
-6.450049258691057386e-01
1.738654840704012550e-01
-1.031080666277945923e-01
2.983977059557503253e-01
-1.234024822482133743e-01
-7.444826650988818351e-01
-3.882625994907613620e-01
5.671053057867569969e-01
2.600678954478801153e-01
6.996169312807323237e-01
9.647806132954617198e-01
-8.192444915577434816e-01
8.201230043196419128e-01
-7.791777396531307520e-01
3.173586832162040849e-01
1.831540673238407635e-01
-7.223528071848122067e-01
-3.626141682206007744e-01
-9.691152629428323451e-03
-8.945815636942680005e-01
7.840238287119034588e-01
9.663013030546370175e-01
6.654581944465367549e-01
2.144352617835783015e-01
-3.583368083127749237e-01
-4.045545227995896997e-01
-6.244017336137084317e-01
-2.734492188188619721e-02
-8.166955139833276256e-02
-3.944154597812530305e-01
-1.531405089370048156e-01
6.466196873280498636e-01
-3.626146579256872560e-01
8.307383287662390980e-01
5.523882701289135611e-01
4.496132457760815271e-03
-2.285189815775101607e-01
-4.334871552275143536e-02
9.185447555123880115e-01
-2.991611249022063657e-01
-9.474209639305555264e-01
3.015085639306316345e-01
-2.474604625955909576e-01
-3.228228754397846068e-01
6.764092535379995219e-01
6.973923085790147969e-01
5.374207760442770709e-01
8.282125878502970551e-01
-9.935480341984264108e-01
-1.410985166885447839e-01
-4.261238632015320604e-01
-3.799103154540035554e-01
3.109320353830968831e-01
6.541650432241423729e-01
-1.128903853773823851e-01
7.165228272417680788e-01
-1.177930559897470975e-01
8.529652653701231824e-01
1.976945335283630811e-01
-2.940174100437236149e-01
-5.897220808354788346e-01
-2.773879617302612566e-01
3.079108465966378105e-01
5.794439934085582333e-01
-2.344658440448896819e-01
4.995355801251042394e-01
-2.628217906019096883e-01
-4.410252365977607170e-01
4.077916727069186287e-02
-6.973914731423254132e-01
5.686319315368775218e-01
-6.184793384135212069e-01
-4.470387244437810104e-01
-9.077452312720168948e-02
4.565397590078812406e-02
7.664160026484689858e-01
-9.084349808082010647e-01
1.051144675373536508e-01
9.843744138924441778e-01
-2.008594618241494878e-01
5.884547145426002324e-01
1.481830779595822989e-01
-6.752876316156062320e-01
3.516350662033094210e-01
7.145733950437187509e-01
3.404985523115953150e-01
6.572529027416673664e-01
-4.622294301454226151e-01
6.649418745947650589e-01
6.212111939072213485e-01
-1.515973103922714227e-01
-8.787987921629236698e-01
8.504215641219317057e-01
-6.231104840970571601e-01
4.593305355750028074e-01
-5.759636161206946880e-01
-1.491682661347994987e-01
-5.254812337388417021e-01
-5.848303395026961393e-01
-7.007512466873624390e-01
-6.047949438007260703e-01
7.269604098622761690e-01
-2.887220574816364849e-01
-4.476849204232418167e-01
3.079806269991975931e-01
-5.395821748189644218e-02
-5.889394335542685877e-01
4.974989390297528402e-01
5.335361135313825276e-01
9.293414545237199675e-02
7.840544078579121390e-01
-1.244657006809843924e-01
6.969379308641374671e-01
-1.200614121578997828e-01
-3.768487973620162634e-01
-7.776656930890100128e-01
9.038622138345677737e-01
8.885690357393687400e-01
-8.995641948956905054e-01
8.625374573800148603e-01
-2.066257259669455060e-01
5.416424451508699001e-01
-4.327524561865880859e-01
5.951589713205560628e-01
4.320084498404876960e-01
-5.932759251165522496e-01
1.874322723664376689e-01
-8.324754991473493071e-01
-5.845143836007675731e-01
-6.280987098615951059e-01
5.525133629835357052e-01
-1.194355851117374634e-01
-4.526733061101420041e-01
6.226228286712851556e-01
-6.063243097732340381e-02
-4.774026810976801372e-01
4.259105982527635614e-01
6.823682821931167375e-01
1.793227250314297638e-01
-6.226831890193467167e-01
-3.235523934953057346e-01
-3.611922630871997608e-01
-9.257353342230030258e-01
-8.437605235913046009e-01
3.083391700497317700e-03
9.566216702029837204e-01
6.721234612279087806e-01
9.430364547290386312e-01
-7.221652106916875979e-01
4.047954081815952065e-01
-7.645771155237914840e-01
-2.492654692553075702e-01
-6.168279236635156870e-01
-7.408975487714659636e-01
4.146838049142385074e-01
3.076398955328860652e-01
5.015091641961555435e-01
-6.392819157809386255e-01
-4.415309909181672765e-01
-5.390241879779877898e-01
-4.767585797106286272e-01
-1.848818414280062328e-01
4.978097638605132325e-01
-8.802339931952452012e-01
7.364781192735814219e-01
-7.654777317564913641e-01
-8.729204141502957537e-01
6.559187441188352174e-01
-2.981784793481454532e-01
9.380939154202854180e-01
-6.354679863292547193e-01
-5.625849733572145794e-01
4.011953004647572651e-01
-5.852835405510548039e-01
3.877530926944117162e-01
-5.020789624021337882e-01
-2.083625069641048544e-01
6.511631275762619353e-01
-4.888728075475974322e-01
1.517502085096604780e-01
-1.659403186667427477e-01
8.288483595927425007e-01
-6.375117514606498670e-01
-6.547047180108627185e-01
-8.417291754432696393e-01
-1.898618116410415446e-01
7.271143889215272438e-01
9.254105823125522434e-01
6.238551812057058221e-01
-8.352965839366826017e-01
-4.135066489053533800e-01
5.917725216957461232e-01
-4.337046614106430109e-01
-8.537413657468069239e-01
-2.121586610308985321e-01
2.993186754229859581e-02
-5.904807510382066305e-01
-4.948348517662939372e-01
5.101408526159301182e-02
-1.680539323897769499e-01
-1.434254941865154009e-02
2.355467652670073520e-01
-8.355305795499265997e-01
-6.545188185503898470e-01
8.371696227080027697e-01
4.457547149624339067e-01
4.723943551726688117e-01
8.598676401168692252e-02
-7.653233923404478833e-01
4.850600901674564369e-01
9.157189110657917297e-01
-8.757783681642432594e-01
7.722402184282972648e-02
1.337405010384533632e-01
-3.568591915332759434e-01
-6.177188699551325879e-01
-2.136134843077692747e-01
1.254197591181598348e-01
2.744179934281554267e-02
-7.428840261624607422e-01
8.208702628006050439e-01
6.877805792704489996e-01
-5.422626624015940422e-01
4.311641586906997947e-01
8.480283278260962732e-01
-7.019787352126363178e-01
7.484143717616273950e-01
6.170119766539192696e-01
-6.619720091866916345e-01
-4.917741455620427971e-02
4.530796433985337934e-01
-7.624074147089823228e-01
3.333120447192161606e-02
9.596707771829016131e-01
-9.452467223084104475e-02
-2.507714960480322830e-02
-3.964500484758577414e-01
-5.038684756381592855e-01
4.299072406786552669e-01
5.930451304997639284e-01
-5.713774170663326046e-01
-7.154970842346877191e-01
1.728199215518197995e-01
-4.103179277758635113e-01
-2.358534397254981041e-01
9.447710320109585780e-01
7.109945761591469626e-01
-3.859548265710981418e-01
9.430463819420991101e-01
-3.335968589827635888e-01
-2.691492023789792132e-01
-8.911728429181553501e-01
