-9.728082347725712786e-01
-5.141436402836152553e-02
-3.617828354393397561e-01
-9.276215842132728984e-01
-9.909904917611058739e-01
-3.176765531449365909e-01
9.369304343942941316e-02
1.764261523865697789e-01
-2.684562678043609374e-01
8.265300999556468575e-01
1.276151180236162475e-04
9.535704048481978834e-01
-7.232174938886843929e-01
-5.440052108139419307e-01
-6.273662036738316683e-01
5.885385317160247709e-01
-9.331148712939436596e-01
1.587543848627437360e-01
-2.085807286107677072e-02
-3.932924977207497008e-01
2.193883588556007069e-01
5.579169527064600231e-01
6.711557972983723808e-01
4.501514198731462191e-01
9.553772490272818274e-01
4.503392218606929731e-01
-3.608472092294712219e-01
-9.114054798194151097e-01
1.167758503066975706e-01
3.868749976454419759e-01
-1.552576758443278138e-01
7.051948970317194476e-01
9.413244049566253935e-01
-1.391537785179139952e-01
-3.226654041899310599e-01
-3.649567133059101742e-01
6.236576373719260324e-01
6.342489734527938516e-01
2.630515323720985510e-01
9.393310451821055285e-01
3.892209377053674757e-01
9.620341155409661837e-03
-1.992748296968596122e-01
9.265749530950446733e-01
-4.546877218514371322e-01
6.828742893402672820e-01
4.435230353553039073e-01
-9.900221485154836465e-02
-8.716426592458308420e-01
-9.086641202341887436e-01
6.062422018612636521e-01
-6.366640014857614105e-01
8.448922566146732649e-01
6.789816758713118627e-01
-5.013715428261225071e-01
6.341436665125721461e-02
-2.595148296044063052e-01
7.985652399797822376e-01
9.011504686999602942e-01
6.634079275905504502e-01
8.777276475686432988e-01
-9.966450051403388244e-01
-7.924179148867638300e-01
-3.649287916666346110e-01
4.874413711834058027e-01
4.687747494561769201e-01
8.823544567822900753e-01
2.413861548500260135e-01
-2.646175949177287379e-02
-5.099175642412390186e-01
6.860787907206256087e-01
-5.259113543652633727e-01
-1.090399656416580765e-01
2.824072213284227750e-01
5.413258731020698100e-01
-5.867633889208592191e-01
9.130768372400943633e-02
-3.663410982009795980e-01
7.555480617053813575e-01
-3.549912708871760803e-01
7.561577962507533002e-01
1.522128198805066113e-01
8.102700641983062724e-02
4.924291494912580447e-02
7.239082887195529281e-01
2.067324633482905405e-01
3.949249168342889860e-01
-5.802624438671211138e-02
-8.187848239093546976e-01
5.746350767730468156e-01
-1.080139224449192525e-01
-4.783191321252975303e-01
3.102997264578981618e-01
-8.014611664689161863e-01
4.163477011880580836e-01
1.877391926255711496e-01
-9.397490692737617834e-01
-1.701655155691021992e-01
-2.068964172451792649e-01
7.396193954367331624e-01
4.291459668137165284e-01
-1.329921794120347833e-01
7.415850569601463160e-01
-9.145010566951348174e-01
8.194102108740481949e-01
-5.408064487276891263e-01
-5.948437616028434682e-01
-2.771664048767230604e-02
-2.476806353224803026e-01
4.529731487282442348e-01
6.009497628512388001e-01
-5.286224916522896944e-01
1.407182546658534150e-01
-1.471194754503839519e-01
4.545971976569795903e-01
-6.093035705891649556e-01
3.542129452871816131e-01
-1.320105433904510406e-01
-1.183568398061993765e-01
6.922517328403143821e-01
7.368586828282110979e-01
3.041761774563824794e-01
7.506481713694332925e-01
8.592126180140919889e-01
-5.144702851402311872e-01
6.588653564487834124e-02
-3.975984635556577551e-01
6.350744219216184483e-01
5.276477553807090715e-02
8.555178018390088290e-01
5.354043571273998658e-01
1.821092146145155688e-01
-4.116301323063222828e-01
-6.281993174479778563e-01
-6.072769809147482434e-02
-7.467261217122198591e-01
2.918624194660153215e-01
-5.645013947612376182e-01
-9.228347098593581155e-01
8.964258061810204126e-01
-9.653372493972178781e-01
5.611947915356927385e-01
-6.134758956645192107e-01
2.447753697118306704e-01
-2.726434006080651340e-01
7.959327871963255419e-01
-4.994473478926719778e-01
-3.083708162774638772e-01
3.342153226516111353e-01
-8.713146447497077673e-02
-7.510697687222831487e-01
-1.797566927969356243e-01
1.690736505901431208e-01
9.554460387141383571e-02
-8.570874136290926870e-01
7.566081266876807376e-01
9.812204038225249558e-01
-7.163983241949598568e-01
4.019795496443983041e-01
5.519910042926974292e-01
6.356218977920968793e-01
3.571119411032219748e-01
-4.037733904518432393e-01
-8.703372217301763580e-01
-3.987395372635136326e-01
-6.801649445254749349e-01
5.466994245935836716e-01
-6.700188844242442876e-01
6.498849509792958834e-01
6.232049265136563321e-01
-7.763144785371096646e-01
3.224316501659765244e-01
-6.035933521443952454e-01
-6.867763802167554665e-01
6.487391255530960965e-01
-5.461740263261996020e-01
9.670640441041493673e-01
3.917048172757953139e-02
8.225865763880859660e-01
-6.770561816815752199e-01
-5.906235239394621583e-01
4.046753627688377541e-01
7.340660015843436526e-02
-3.644439666917520526e-03
8.689196827530487610e-01
-5.254059167411717635e-01
2.436941781349528657e-01
-9.601304035082973698e-01
-9.791706589790791782e-01
8.768827957292746333e-02
9.404237653973757105e-01
8.196661638739919375e-01
-3.530430992416468960e-01
2.459226957588325213e-01
5.892418793027256463e-01
-8.340922561423995685e-01
1.211852596756193279e-01
6.857130296044768869e-01
9.945997053949862110e-01
-7.223293339698955151e-03
2.847491546218483549e-02
2.351126409819395136e-01
-8.415378160785638162e-01
-2.044008807317170273e-01
-5.093305332741735469e-01
-3.397245449262205064e-01
9.204777038009268608e-01
-3.674311498664220021e-01
-2.544043634977937174e-01
-1.206137962598892166e-01
4.985009088205067940e-01
3.596518832648971653e-01
-1.357719388369889035e-01
-6.414581484543000478e-01
9.021326217185223761e-01
-9.364119892026943059e-01
-9.748522765375853272e-01
1.803148001622958407e-01
6.482788216220751742e-01
-8.770111808226570549e-01
-9.920919973845987450e-01
5.437185713768295514e-01
9.969030531770952663e-01
4.144084201371449616e-01
5.781107882821479027e-01
-5.908538724410907772e-01
-9.294658496296697159e-01
9.578041790774252107e-01
9.257457742479326956e-01
7.993225042304441530e-02
-3.881337666609343540e-01
-2.087112958666890172e-01
-7.324102274457726658e-01
-2.946051857629123916e-01
6.963812346302611367e-01
-7.703893869978646336e-01
8.780836416124460087e-01
6.842913912332468929e-01
9.430639406744456554e-01
9.501899156178739148e-01
4.324277331832697691e-01
-4.932871608803213181e-01
-6.328877034326698681e-01
9.841650375008392793e-01
6.380972146418222302e-01
2.039385579758001832e-02
3.070455033101857634e-01
5.504150291341456391e-01
-3.295451126938884201e-01
2.248131548099339128e-01
-7.929880005824423428e-01
-4.856645884644215094e-01
6.795584743423361829e-01
-1.256269874385165242e-01
-5.726059447238649458e-01
1.299573681613166443e-01
-1.780254768973665858e-01
9.434495988918571996e-01
-1.285560190793844093e-02
4.177485848747983788e-01
7.688537933577412886e-01
-1.532524394506755705e-01
8.340959292902072608e-01
7.765205060242281743e-01
2.253147418858265638e-01
