-9.540083591163859289e-01
-5.678829473496975755e-01
-6.943613668037338371e-01
-3.958902335542215933e-01
-5.497431564967985018e-01
6.794665578891139202e-01
7.132663463203212650e-01
-3.455178420053450772e-01
5.205209621962310074e-01
-7.554006683476426343e-01
-8.914736498963355960e-01
2.025106971201757755e-01
-8.247078945326749011e-01
-9.770625898681819521e-01
-4.486473521598506320e-01
-1.950540557004836195e-01
-5.868282998084470847e-01
-4.319344279033134892e-01
5.661093083029289375e-02
-9.124251966124350410e-01
7.795153313083647006e-01
-3.651155678582242992e-01
-6.345116887101773795e-01
-7.176534423859366463e-01
-9.036001401684470302e-01
-7.217366723996332389e-02
-3.404643196456504928e-01
-7.563347154846669085e-01
2.250851436627447910e-01
7.393947459765026764e-02
6.945740702479017425e-01
-1.233828272983965579e-01
3.762552054525949430e-01
7.463597062490157086e-02
8.905584122043648243e-01
2.792261564901241666e-01
-4.507566182565763135e-01
2.990349109199552657e-02
1.446116050064536473e-01
8.939786437467533986e-02
7.029127065496538762e-01
-8.275213375715280151e-01
9.019992842596706861e-01
1.958792465558512053e-01
2.456466353034159056e-02
1.726420273663946681e-01
9.026739930507929888e-01
-2.636801350345552297e-01
-7.160962469297833533e-01
-9.261555364096434317e-01
4.776822849106903135e-01
-6.769238621279782819e-01
-6.531513079817141687e-02
9.509215161804120964e-01
-5.366699226047526583e-01
-6.698394926388995252e-01
-9.221683974032186537e-01
-7.594356147504712773e-01
-5.600584057904112179e-02
6.277267944524913545e-01
-7.184467304182631242e-01
-9.575076877499004713e-01
2.459648123555460142e-01
7.708983510945721651e-01
-7.517337585761640906e-01
5.916604557215685567e-01
-4.709042874845608129e-01
1.315965575457791470e-01
-6.654324638915363188e-01
6.562041411143273439e-01
1.480409490259650962e-01
5.552709842661220918e-01
7.303421269951435590e-01
-5.464259396964932236e-02
-7.891158024987618980e-01
1.987809594902301136e-02
-5.500418824880319857e-01
-2.772080711089224270e-01
2.352069849491738029e-01
2.452313674691497525e-02
3.323257419181009364e-01
-7.169393969460000626e-01
-6.379727665911056889e-01
6.882412043719443595e-02
2.460265294110630663e-01
-7.681025353356067953e-01
8.184384100641182158e-01
9.766293136774590877e-01
6.978574449717322992e-02
9.548020278498978719e-01
8.833794997553328088e-01
-6.367259587779536822e-01
-4.315564578995911837e-01
-4.069302859726180444e-01
9.803224728056383341e-01
5.230875852646348356e-01
-4.010146359420032613e-01
-1.607337355270470614e-01
-1.074616453694596796e-01
9.710807261435592252e-01
-5.477611280866412358e-02
-3.126694173421937784e-01
-8.934563718809713784e-01
3.049791435026691921e-01
7.807878241626309279e-01
-2.365739682484440110e-01
1.051705166504826039e-01
9.905902901535990068e-01
2.708000077421151008e-01
-7.839530081853895993e-02
-6.354037231835758526e-01
3.763568186925425607e-01
-2.248141721883818445e-01
5.310609066240257192e-04
3.894360379320929155e-01
-1.940720029182863016e-02
-4.563862293429425954e-01
2.341306545986689969e-01
6.411039163721887757e-01
7.954839552649790591e-01
-9.483821974705721747e-01
-4.723388663054666203e-01
-2.746554517361423642e-01
3.686063799776539973e-01
3.552191265502655515e-01
8.083960970470809304e-01
-6.496294411395464596e-01
5.449580769863038299e-02
6.214600956424254363e-02
-7.222398053365282067e-01
-1.231191372250433069e-01
5.865679359469901932e-01
-3.985403011923298600e-01
-1.522900628536749679e-01
-2.765936567711242411e-01
1.701935487077552711e-01
4.427533507388481393e-01
7.699459892406084194e-01
-5.947221023664985839e-01
7.279202108865538978e-01
8.915483868129479017e-01
-7.108873838544051971e-01
8.997208330430805923e-01
7.708786861395096057e-01
3.029469807709341822e-01
-3.281889926904677512e-01
-7.650958730069308267e-01
-4.015769402574020930e-01
9.503259613443804099e-01
2.052997200437189917e-01
2.878392956193343011e-02
4.678766636329401152e-01
-8.605266413120842284e-01
4.580908716975298223e-01
3.320456382711736154e-01
-6.867205055893266241e-01
6.621880901492405158e-01
6.670614958578071629e-01
6.863206238280481486e-01
-9.433450752849801280e-01
6.265839539102426858e-01
-6.943820785947838470e-01
-4.577065791391317084e-01
5.477538431135118291e-01
-6.232576585954900938e-01
2.711944518063593712e-01
-7.664319533515495664e-02
4.906308019400975606e-01
2.725277397353158548e-01
4.784249522112353770e-01
-4.034559459975186613e-01
7.866186989561718690e-02
-2.101119863111504671e-01
6.517762968087295050e-01
6.671175673387126359e-01
-1.857945257743329748e-01
8.866300671278035672e-01
5.163044274330497174e-02
-9.300182159241985325e-01
-7.742372237930950085e-02
-3.363613088692589681e-01
4.120281567285151159e-01
-8.182500108632582148e-01
-4.890473562140149610e-01
4.718751318425482566e-01
-9.852966956235456042e-01
-7.287900955319692731e-01
-3.351161178503514471e-01
2.104648927233723210e-01
-7.492577996004348151e-01
7.082590713796279580e-01
9.974704099071201036e-01
-5.768763730367885145e-01
-8.117873168111038318e-01
9.679186604484659728e-01
-7.912312820992042361e-01
6.601628142560074242e-01
4.554112417385451916e-01
6.956918229979616175e-01
2.288305748276764362e-02
-1.146992887835582842e-01
-9.493229213085512264e-01
7.358476440699481813e-01
9.544410027750709347e-01
5.482662529135897689e-01
2.819825792603383174e-01
6.940499381838334259e-01
-2.627090474079873950e-02
9.971997068785407592e-01
-8.003554627221021178e-02
-8.222965605028191849e-01
-6.111426573677922747e-01
5.797895905072956158e-01
2.595326756670304214e-01
-6.104818183151023980e-01
-2.482547062351887490e-01
-8.716388566741155586e-01
7.519215401790009246e-01
7.611533443211042638e-01
-5.729625611036857080e-01
4.991315991806586361e-01
-2.801464427008668601e-01
1.399690157991564377e-01
3.241919392296876978e-01
4.121318825288389220e-01
-1.954426823700607940e-01
8.122680770461281341e-01
-9.754542155683407767e-01
9.610464524979167589e-01
1.824802219915884205e-01
2.739018141369133907e-01
9.052628589695594918e-01
4.371154387114173367e-01
9.783398637626277150e-01
7.285117793919153595e-01
-4.885807668897568234e-01
-4.304562244932084170e-01
-7.989022039104201056e-01
-4.463248241266757343e-01
6.885587316390120449e-01
-7.472041875229709085e-01
-8.573675080457889841e-01
-5.351200927313417566e-01
-4.904846157657023475e-01
-5.700618502569370083e-01
-8.708199794035496044e-01
-4.954622444073284449e-01
5.395156856001281920e-01
-3.458195770698504479e-01
8.715682467239622699e-01
3.242407443698447356e-01
-2.315005418922331248e-01
3.399703925756256684e-01
7.026949568655131984e-01
-1.565003993250597691e-01
8.262399445961019495e-01
-2.104778026143023784e-01
5.722585835852678215e-01
9.428061057790959598e-01
-1.659829276274082943e-01
6.603315300549925659e-01
-9.478368807111252625e-01
2.101192340290525262e-01
-1.551930717475209498e-01
-4.659410213637811271e-01
