8.740647083951089691e-01
9.044755225383331876e-01
-1.880373463260678335e-01
-4.500063646161169828e-01
-5.971376977483937587e-01
-7.963688458539359694e-01
-5.919405662378074418e-01
8.747324152334507996e-01
-4.114423692035931168e-01
-8.713013903456374720e-01
-3.460102510057323499e-01
7.989651553020467034e-01
6.325785491381135106e-01
4.582268128316766553e-01
-7.204016967047204290e-01
4.666303956433699440e-01
-8.161393422002660714e-02
-3.807677858661773218e-01
4.134145991203814763e-01
6.317239223829600459e-01
-9.632996233468706926e-01
8.104775526334710989e-01
3.596279882838215869e-02
9.917765838129231071e-01
3.300431999847337483e-01
-1.374108790333763430e-01
5.019512027597554660e-01
7.312219345571673301e-01
4.088781287750180571e-01
-6.436623492656683432e-01
2.396709965720160707e-01
-4.194517160695308000e-01
4.827631435340324906e-01
-7.340828682195192911e-01
2.078032416093498203e-01
-3.877454023386117665e-01
9.763492703180867149e-01
-7.031417631825493952e-01
9.731464147829744782e-01
-2.801447612955525468e-01
-9.127057739792514557e-01
-9.796727673374361345e-02
-6.987706727530225148e-01
5.269509176397475514e-01
-9.885317681278427138e-01
-2.958235757361058482e-01
-4.065818924650816957e-01
-1.908966761838721826e-01
8.950410809581950122e-01
-6.709193266992117266e-01
6.442816800200676930e-01
8.249759349109027085e-01
-6.335443159101910027e-01
-2.353957899112955054e-01
7.335654963329052425e-01
8.057103108581040729e-01
9.956447925867077942e-01
-2.830863512121259973e-01
-1.793966975715202139e-01
-8.941543704018544148e-01
-4.934968259471146368e-01
-7.102097073500082125e-01
-5.625454933108624545e-01
-7.230097008067817299e-01
-1.833831118916111613e-01
8.541433809854885872e-01
-7.083284864315064766e-02
2.736611135782089921e-01
7.931202767516714047e-01
-7.714903391698215707e-01
1.560434564769368482e-01
2.759359379076515850e-01
-3.913585508504708876e-01
1.227009441810231749e-01
-5.812818176519072288e-01
3.944272978566818466e-01
-2.090871689156623692e-01
5.345085935570477176e-01
5.366954679396251926e-02
2.132477854641159354e-01
2.181697634705326294e-02
-1.666518668189240771e-01
7.045297760435076384e-02
-2.523891138099922937e-01
3.575932200790736815e-01
-8.166924237125299246e-01
4.144590536104066913e-01
7.658912751166937483e-01
2.698857101578180373e-01
-7.284988166218964167e-02
5.859430897619237744e-01
-7.798520753684812234e-03
2.967527801543170529e-01
4.777998838814410121e-01
9.993915842571767794e-01
6.597860544152385209e-01
9.240915210945530589e-01
8.532685486802531472e-01
-4.391488571254238416e-01
-3.187288807736619045e-01
4.991705803298689403e-01
-4.930906168780138099e-01
9.159206715486103434e-01
4.865346519728936947e-01
-8.755798447831015796e-01
-3.121461185885276990e-01
1.154409498118746935e-01
6.774831995085204284e-01
-1.228105893795108372e-01
-4.748258502041258211e-01
-9.124913111564278978e-01
3.328146345099303183e-01
8.196204839230549766e-01
7.042731521013616547e-01
2.453662149301902851e-01
-5.060964847974713798e-02
4.308315788051175765e-01
-7.409000287578886290e-01
-3.949327530525557073e-01
-1.692480260236552958e-01
-9.126448062856273857e-01
8.079816701213204944e-02
-4.982789351743204254e-01
-8.757613217209743173e-01
-1.510667498135915832e-01
3.046659320858693398e-01
-1.570607411038609236e-01
4.410265134383806185e-03
8.882361445577968695e-02
1.397671656878090030e-01
-7.491180397459196172e-01
-9.262287287661945534e-01
-2.872152670457688295e-01
-9.801690007989583009e-02
8.167662664947972218e-02
2.342553879196327404e-01
3.816032236712620929e-01
5.665762782869530056e-01
3.315318280823540409e-01
2.494617191872292583e-01
-9.170228176091326233e-01
-3.356481081794151500e-01
9.532509925014789331e-01
-4.760391220689612624e-01
-1.276030648527135547e-01
6.934463918298603424e-01
-5.434915615579578585e-01
-7.464365348151644763e-01
5.066730498688056805e-01
-9.856469330220258840e-01
7.116043155236124740e-01
3.686392932158202296e-01
6.549909082070681787e-01
7.205076015306919324e-01
8.758291945804299594e-01
-6.963484157419110865e-01
2.141653244404233547e-01
-8.617001050803196893e-01
2.639605980190804502e-01
-8.165620808781424156e-01
7.817059673885129456e-02
-3.350505761478805855e-01
-1.539381390968928009e-01
4.591351254157327588e-01
-2.322616330656535055e-01
-7.500467101031926820e-01
8.066594184647060128e-01
-3.853698360145094703e-01
7.111557489371556073e-01
1.355703143876829664e-01
9.509036266395378689e-01
-8.094722191587260252e-01
5.522567836989848988e-01
-1.599418095136762030e-01
7.005659262559729150e-01
7.506363161876827839e-01
4.639352414474957609e-01
-9.949691731830021535e-01
3.231345579449271810e-01
7.167216126738495952e-02
9.936170349518651523e-01
2.901634658426892610e-01
7.033277185376007878e-01
2.783077628150096849e-01
-1.511583002953980071e-01
9.814320086733512305e-01
3.431275247318039678e-01
2.602786494364259795e-01
-1.208009981069659844e-01
-1.707900263022930076e-01
8.372789896457701886e-01
-9.583937422873098910e-01
4.719023858512381153e-01
-8.714772387551659172e-01
-4.495137719680855071e-01
5.622657407570648136e-01
-9.186475955414679095e-01
8.505351304015915659e-01
8.297608499028710227e-01
6.312346854736361479e-01
6.078955918773369937e-01
-6.209677876353913994e-01
-8.313089626400274046e-01
-9.222975095568148873e-01
6.675485893914017144e-01
5.594121566985861271e-01
7.477537088001726673e-01
5.102281170180411607e-02
-5.771277233538769647e-01
-5.679833053347422833e-01
-7.598064839243054980e-01
-9.553626094944429603e-01
-5.605402189457109330e-02
5.858437686921107446e-01
-3.611429055598391891e-01
-1.489464775611715197e-02
-9.055354522436893649e-01
-6.037435320014468143e-01
8.371594428358977158e-01
-3.883117926647794427e-01
-7.493141322906839985e-01
-1.507162443827125831e-01
5.411455780286869022e-01
9.724364023662621648e-01
-8.749108878488349728e-01
-5.693241715198895658e-01
9.175969084759423300e-01
2.805097358215684622e-01
5.331432454264861676e-01
7.296505282515881596e-01
-8.162689361095010199e-01
-9.479017483480078887e-02
-3.888473486517769473e-01
-7.408624850782365989e-01
-9.825481590449600677e-01
-8.447236873588499506e-01
5.219937503023297509e-02
-9.008596312759078462e-01
-5.375627060776133614e-01
-4.456081137166563177e-01
-6.327596750254389502e-01
4.683186776677226160e-01
6.035865112652594178e-01
8.972096730775378504e-01
2.133393261713290023e-02
-9.658744787489912387e-01
2.581414444151572951e-01
8.171719598352462643e-01
5.148386318213802326e-01
3.540332813635562736e-01
-1.577969101095182403e-01
-9.118632223101901246e-01
-2.938321312828309217e-01
8.609285355395344119e-01
8.452301234578976086e-01
-6.519627403615930739e-01
8.413437756705977044e-01
8.132306745080093435e-01
5.579374954653433250e-01
-3.247459713624998301e-01
-1.645680904542003997e-01
7.598467866589317943e-01
5.674773644048731747e-01
8.471108633995854120e-01
-7.976643175025444066e-02
