1.618666112680136049e-01
-5.443378210683691432e-01
4.947791467322104619e-01
9.254725387894950916e-01
3.141096325324777006e-02
8.868451996031652129e-01
8.958481290800914820e-01
-6.183090930148422704e-01
-4.118409506679396870e-01
-6.858590038675382861e-01
-1.024526162949426222e-01
9.321889368329208114e-01
7.038511511999316905e-01
6.936962283228236270e-01
9.026087731159704308e-01
-8.857567274963760173e-01
2.966190673722941540e-01
5.190026941141632211e-01
-1.543781167795272857e-01
2.325086487607306296e-01
9.758584176220357342e-01
-5.372990414741340981e-01
6.440281062071462337e-02
-8.596926422730086781e-01
-4.828656025585793543e-01
7.606708486094868604e-01
-5.766225542585765584e-01
-1.444026987001874041e-01
1.881361106583927523e-01
8.118944879759837363e-03
-8.172851387658472966e-01
2.761532676856484070e-01
5.660164333283719262e-01
-1.155121871933897371e-01
-2.789205151280538253e-02
-2.392526970590560520e-01
-5.290023318023859833e-01
-3.442553938974728389e-01
4.708570802536584665e-01
4.317039757951226520e-01
8.086357265533377081e-01
-4.596068128494081861e-01
-6.057707392174171979e-02
-2.690981669677727783e-01
-4.165366736839075656e-01
7.994474286428983056e-01
-1.091005676189316098e-01
7.028856980181323877e-01
-5.487661674798975930e-01
-9.408638819335974901e-01
-6.655468825300316915e-01
-9.387442843629707490e-01
7.665552383799143499e-01
-7.339373077447026716e-01
7.238383281106077760e-01
3.510417129305447581e-01
8.510650699880235592e-01
-1.415558535349128455e-01
-5.261542951575135518e-01
-6.763948934023833459e-02
-2.669347907729360259e-01
-6.814362295539333481e-01
5.290253638104971401e-01
-9.034866608855067760e-01
1.546743340917717813e-01
-2.548318199028829500e-01
4.577845448975472742e-01
2.520266106666588790e-01
1.082775921689602683e-01
2.350957655451231254e-01
9.707963727299335766e-01
6.009630532056728924e-01
-5.792343257974228443e-01
3.101343067345041504e-02
2.154698005569199992e-02
5.631148857508978534e-01
-6.612451859337618032e-01
-9.435423637556872301e-02
-9.356120882543095263e-01
-2.405442295419768506e-01
4.717876314504634294e-01
9.308743974477935446e-01
9.051180874586877145e-01
4.914010149722243259e-01
4.681838946175731486e-02
6.247635331763223832e-01
5.750929338868939755e-01
-4.844539670518295260e-01
-7.812571912883277125e-01
4.840441756688518282e-02
-4.986665053160530547e-01
-6.220931751993514780e-01
2.938237027946413171e-01
7.811630069192523340e-01
4.328785574703866157e-01
1.864502307037254614e-01
-6.701695416765225399e-01
9.896312146523860154e-01
1.456163351002157658e-01
6.443571889318979729e-01
-5.801955836636696340e-02
9.458496574865318252e-01
-7.622091282716481064e-01
-1.867141847723823300e-01
-9.090271239540488324e-01
-2.277371565214241222e-01
2.367881380264367230e-01
-8.732811863335778746e-01
3.817126080117398956e-01
-3.258270852391966788e-01
7.035583846929265306e-01
2.331188722389978540e-01
-8.913764873265845878e-01
-7.060355863410801014e-01
-7.450783817521422492e-01
-8.943686148793710267e-01
-6.916906600597296784e-01
-6.151532654231988140e-01
-9.718413188260175417e-01
-9.255361889382482943e-01
5.696090981175934154e-01
-8.815886055726624981e-01
-3.585939475749164718e-01
1.661013429521223106e-01
3.563530795528082606e-01
4.851209748073950223e-01
5.225338124085854297e-01
-9.716021445600402373e-01
5.162824201629967469e-01
-3.881693923799969248e-01
-6.789266635861390675e-02
-2.375904358729241661e-01
-7.521178250126070441e-01
7.815961651166887236e-01
-7.696886798015547537e-01
2.420881720068717158e-01
-1.700148310577178634e-01
-4.999848118707783673e-01
-7.030344170174700480e-01
-1.772414512059694580e-02
-6.063453940034488898e-01
9.204340887633692958e-01
-6.835039559725462066e-01
5.111099179191498365e-01
3.945055620750341774e-01
-2.968976389125108639e-01
1.604375334055352376e-01
5.697972850371524345e-02
1.914036598914461429e-01
4.800925069326251737e-01
2.546970985195962101e-01
7.147651987789098715e-01
-4.064527987129409325e-01
-8.771415946212497428e-01
3.991196200030577845e-01
-7.784110719507042475e-01
3.906255249923298312e-01
1.399032149776306966e-01
2.824484691789961310e-01
9.938469577026607382e-01
6.588351675624957160e-01
3.675067920896117890e-01
-5.951400542472451427e-02
-6.556769975206659939e-01
-8.403270250523395823e-01
3.462673025557760909e-02
-1.926963357508864050e-01
-4.057192622535292781e-01
2.015123801090878963e-01
8.419820849196639756e-01
-3.416526100462953242e-01
-2.881755762388671371e-02
2.729626392532193968e-01
-8.864874916139342531e-02
-5.210243437681261192e-02
-7.320415661195278645e-01
-3.382185993375921296e-01
-8.826777848287463701e-01
8.949136922492826329e-01
-9.202535390013537597e-01
-4.110965732379845416e-01
-7.047371546772971396e-01
1.792923298828890122e-01
4.071561956717988373e-01
-1.074638383567474431e-01
-3.605356224140146004e-01
-7.972105130349205204e-01
2.797530106954884133e-01
-9.355532043813137300e-01
-4.808310130320845310e-01
-4.291869586531129599e-01
-3.857421011188038040e-01
8.617995975855219370e-02
1.564529299138741614e-01
-4.806262215684045103e-01
-5.448154818534143295e-01
-5.042392687138044227e-01
-6.948579354879989012e-01
-7.437700044819117728e-01
3.404772967756506397e-01
9.981239125159193648e-01
1.116232739967371046e-02
5.603210817354149498e-01
2.011082602297644684e-01
8.193522745407837427e-01
1.656520365982951937e-01
-6.569081239712941667e-01
-4.208753944023788662e-01
-8.068529013997534083e-01
-8.130798633673652631e-02
-4.344623821424671295e-01
-9.655340928546003454e-01
4.506098466858823315e-01
6.049117057409187925e-01
5.325142323627709562e-01
-5.483240919382743606e-01
6.746209863712782084e-01
9.089112843602600300e-01
6.877641639134199902e-01
-7.496427517701147458e-01
-9.023230358756402225e-01
-6.258994079539819122e-01
2.680309380903120875e-01
-5.326011564856205638e-01
3.670383182567444891e-01
1.599589293770857790e-01
3.354800196154128500e-02
-9.010694240821655043e-01
-7.446718182250122720e-01
9.127928972819603359e-01
6.064906156621534539e-01
4.959837058690168554e-01
5.222555295130133501e-01
-7.635506922792274498e-01
-3.076719885152903178e-01
-3.425579241088263505e-01
1.862446267318520476e-01
8.979480118686855583e-02
8.259567460071417511e-01
-6.763439856172162035e-01
-6.307864469991120160e-01
-2.061115798944332944e-01
-9.303309220006639180e-02
4.325753015629421050e-01
-4.931349345379314464e-01
-8.881438073247314158e-01
-9.422130619961164300e-01
-4.148060734986489528e-01
9.093491866802634327e-01
3.344640950158821457e-01
6.566344937701238393e-01
-9.004881903623616068e-01
5.042519266292824209e-01
-5.112733604383612462e-01
-5.096355518886743763e-01
-5.112831740173129358e-01
3.750890207162700385e-01
-7.632292080495495235e-02
-2.995944221684927466e-01
-8.234133400743886000e-01
-5.850079935775058804e-01
-2.551426974759807287e-01
7.916678898441231738e-02
3.829742298025560210e-01
3.364640915510406227e-01
