19.603581132114385,-0.7376892557305388,-0.40567185804520944,0.5149235372205834,-0.13001229251655388,0.16953176766951272,0.707088081293793,-0.204262256310767,0.026854383850682284,-0.7675716937516781,-0.45479220154400135,-0.24295923816816423,-0.5477185170060368,-0.01720004308237577,-0.2330273308682489,0.25238461541312884,-0.41124506961273277,-0.4564759954205817,0.05980938912779532,-0.9134610327295458,0.6765419526167165,0.33145094883156,-0.8665276236445063,0.6624353447665323,0.8182786759325082,-0.2007569254277377,-0.49686292196905835,-0.23442931650614174,-0.34990492395552164,-0.47854487875199836,0.7626291300461885,0.7565140900841976,0.9279783008313729,-0.736147448098331,0.981430305064682,0.3581879622527693,0.11574246804076305,-0.9449908995382821,-0.2723418153354744,-0.495930169194186,-0.9907896941720096,-0.13253630560158958,0.6397312145411247,0.09414413760009332,0.7092350615945386,-0.4000386938094307,0.7881619726272087,0.5553443115572836,-0.5256477500271468,0.07225606481811364,-0.28442665095312236,0.8366786349054212,-0.08583427988956749,0.4318058459725018,0.5257342856138099,0.9842340656383293,0.7153214258420306,-0.4551733718751698,0.9576597683066084,-0.18059410752943372,0.7370712298037532,-0.9855300937111493,0.26981406895075866,-0.7519220567006777,-0.8520848091290394,-0.884470043487589,0.14281004322092472,-0.23468850676897723,0.6147942473426724,0.003041700892545629,-0.9941730499172146,0.8382843765251398,0.7447694364576658,0.9447363166965903,0.8691970377852396,-0.26422910519903686,-0.8292409010126838,-0.851010981851934,-0.6958951051410331,0.21041296186684044,-0.6950739414176115,-0.6972607451109032,0.258827946695102,-0.936014220041399,-0.8534198836271729,0.933064680797209,-0.12706071958577603,0.2274120424770978,-0.6977290976140222,0.4657165276873476,0.2084076992829471,-0.9651700098233311,-0.7291700269365118,-0.6838320102397024,0.41689646709507633,0.9339963971052316,-0.8143882942052338,0.7215837056439149,-0.6520693938200219,0.528644833386217,-0.13681118536044545,-0.06886771568799821,-0.4432489730458724,0.3195572426533164,-0.734376546198588,-0.8612941506634015,-0.9831029013511112,-0.24390904521841006,-0.10226252971331018,-0.2919326925705843,-0.03960981152289622,-0.48547831053046875,0.7659751763127203,0.11507101881962889,-0.7547213685628027,-0.8425950849135055,-0.7448945580937969,-0.1583544083082511,-0.6333799972875858,0.8037253472434003,0.04891109892106571,0.6572382954086733,0.5770017192840826,0.7133900292966653,0.9975812307570227,-0.9197118297138269,0.022792794173996045,-0.8063071547590528,0.40832146060253605,-0.5802698785699321,-0.05596238513551488,-0.1731380167053802,-0.5471641056056193,0.37339904926464595,0.3801194172491127,0.2241856092334391,-0.8997458892654824,-0.18157753401716792,-0.16633814296147942,0.6154445001790474,-0.6965805422436779,-0.7841438834053616,0.2130673203418625,0.5971557805443992,-0.9563967195269383,0.8716345377486221,-0.05031384189677146,-0.4738362179333564,0.06656377403388869,0.010365973993506028,-0.42681032133880437,0.4645706024377878,-0.3299423385356308,-0.012479834041110971,-0.3499903306463863,0.05372610427326885,-0.26307802418168236,0.9293467560218014,-0.9878946251452703,0.05388401253687669,0.12691631641034373,-0.3761720734056966,-0.5278223536665769,-0.4285130210794119,-0.9884664254689983,-0.24024397358236693,0.31047358554403615,0.5044276623668524,0.9612274364660005,-0.6057577892859562,-0.48398397787457603,-0.7750087814792348,-0.1336534794221691,0.742045322685146,-0.973454084275817,-0.611929160426868,-0.2002584916363619,0.31296816611116896,0.7514226458169484,0.047665985061627,-0.7199750980420481,0.48760132769155673,-0.7679424588065433,-0.6526889276555312,0.14524264559047562,-0.7840221386471129,-0.06974635185935574,-0.9181936929777441,-0.11427105259867454,0.05614744729976029,-0.809340535657769,0.7564092924378769,0.7639539458799349,-0.7807926127250766,-0.5406944287006032,0.2239823096972502,0.6401748940555605,-0.302971972141572,-0.714348230770059,0.3692686314444804,0.31922281189031354,0.18799093846679127,-0.3030159259674836,0.586861846351598,-0.22391528331434896,-0.26582956868099084,-0.30213647184419523,-0.7956088330051736,-0.805162812578196,0.03890121158705662,-0.3974727160383573,-0.2217352058260864,0.08273187797157378,0.5019132938703692,0.10685526732850814,0.7314921946459298,0.7775204469520591,0.4633061457677725,0.4466198896953124,0.5167039146822674,-0.1457249098288671,-0.18099051081516482,0.7044095720431076,-0.8303002808579101,0.917050244122839,0.645660665744568,-0.19291865369632544,0.3953363856993142,-0.7291775083365934,0.054096834320339626,-0.17197651340135534,-0.009435668181640988,-0.2552177437782108,0.9635847436798242,-0.027561960632710658,-0.38873413739587015,0.799587513316881,-0.9176964955827944,0.8606405227670453,0.2091217388122737,0.9827456800062713,0.3870887333286688,-0.53755105942774,0.1883782517638508,0.9906657811257786,-0.08710177004959352,-0.23797084245631717,0.11443501424239932,-0.13969479224791193,0.6870103984438192,-0.07217171392423971,0.9404297879574275,0.39102724439061265,0.0780741866864827,0.06771959099894276,-0.9975803446781091,-0.49105492161686537,-0.07319432539379478,0.33436235161306427,0.35243584311908793,-0.121551729964543,-0.07588920369880925,0.6638312986108272,-0.20420149562844325,0.15229036356953451,0.25892448993935435
19.603581132114385,-0.7376892557305388,-0.40567185804520944,0.5149235372205834,-0.13001229251655388,0.16953176766951272,0.707088081293793,-0.204262256310767,0.026854383850682284,-0.7675716937516781,-0.45479220154400135,-0.24295923816816423,-0.5477185170060368,-0.01720004308237577,-0.2330273308682489,0.25238461541312884,-0.41124506961273277,-0.4564759954205817,0.05980938912779532,-0.9134610327295458,0.6765419526167165,0.33145094883156,-0.8665276236445063,0.6624353447665323,0.8182786759325082,-0.2007569254277377,-0.49686292196905835,-0.23442931650614174,-0.34990492395552164,-0.47854487875199836,0.7626291300461885,0.7565140900841976,0.9279783008313729,-0.736147448098331,0.981430305064682,0.3581879622527693,0.11574246804076305,-0.9449908995382821,-0.2723418153354744,-0.495930169194186,-0.9907896941720096,-0.13253630560158958,0.6397312145411247,0.09414413760009332,0.7092350615945386,-0.4000386938094307,0.7881619726272087,0.5553443115572836,-0.5256477500271468,0.07225606481811364,-0.28442665095312236,0.8366786349054212,-0.08583427988956749,0.4318058459725018,0.5257342856138099,0.9842340656383293,0.7153214258420306,-0.4551733718751698,0.9576597683066084,-0.18059410752943372,0.7370712298037532,-0.9855300937111493,0.26981406895075866,-0.7519220567006777,-0.8520848091290394,-0.884470043487589,0.14281004322092472,-0.23468850676897723,0.6147942473426724,0.003041700892545629,-0.9941730499172146,0.8382843765251398,0.7447694364576658,0.9447363166965903,0.8691970377852396,-0.26422910519903686,-0.8292409010126838,-0.851010981851934,-0.6958951051410331,0.21041296186684044,-0.6950739414176115,-0.6972607451109032,0.258827946695102,-0.936014220041399,-0.8534198836271729,0.933064680797209,-0.12706071958577603,0.2274120424770978,-0.6977290976140222,0.4657165276873476,0.2084076992829471,-0.9651700098233311,-0.7291700269365118,-0.6838320102397024,0.41689646709507633,0.9339963971052316,-0.8143882942052338,0.7215837056439149,-0.6520693938200219,0.528644833386217,-0.13681118536044545,-0.06886771568799821,-0.4432489730458724,0.3195572426533164,-0.734376546198588,-0.8612941506634015,-0.9831029013511112,-0.24390904521841006,-0.10226252971331018,-0.2919326925705843,-0.03960981152289622,-0.48547831053046875,0.7659751763127203,0.11507101881962889,-0.7547213685628027,-0.8425950849135055,-0.7448945580937969,-0.1583544083082511,-0.6333799972875858,0.8037253472434003,0.04891109892106571,0.6572382954086733,0.5770017192840826,0.7133900292966653,0.9975812307570227,-0.9197118297138269,0.022792794173996045,-0.8063071547590528,0.40832146060253605,-0.5802698785699321,-0.05596238513551488,-0.1731380167053802,-0.5471641056056193,0.37339904926464595,0.3801194172491127,0.2241856092334391,-0.8997458892654824,-0.18157753401716792,-0.16633814296147942,0.6154445001790474,-0.6965805422436779,-0.7841438834053616,0.2130673203418625,0.5971557805443992,-0.9563967195269383,0.8716345377486221,-0.05031384189677146,-0.4738362179333564,0.06656377403388869,0.010365973993506028,-0.42681032133880437,0.4645706024377878,-0.3299423385356308,-0.012479834041110971,-0.3499903306463863,0.05372610427326885,-0.26307802418168236,0.9293467560218014,-0.9878946251452703,0.05388401253687669,0.12691631641034373,-0.3761720734056966,-0.5278223536665769,-0.4285130210794119,-0.9884664254689983,-0.24024397358236693,0.31047358554403615,0.5044276623668524,0.9612274364660005,-0.6057577892859562,-0.48398397787457603,-0.7750087814792348,-0.1336534794221691,0.742045322685146,-0.973454084275817,-0.611929160426868,-0.2002584916363619,0.31296816611116896,0.7514226458169484,0.047665985061627,-0.7199750980420481,0.48760132769155673,-0.7679424588065433,-0.6526889276555312,0.14524264559047562,-0.7840221386471129,-0.06974635185935574,-0.9181936929777441,-0.11427105259867454,0.05614744729976029,-0.809340535657769,0.7564092924378769,0.7639539458799349,-0.7807926127250766,-0.5406944287006032,0.2239823096972502,0.6401748940555605,-0.302971972141572,-0.714348230770059,0.3692686314444804,0.31922281189031354,0.18799093846679127,-0.3030159259674836,0.586861846351598,-0.22391528331434896,-0.26582956868099084,-0.30213647184419523,-0.7956088330051736,-0.805162812578196,0.03890121158705662,-0.3974727160383573,-0.2217352058260864,0.08273187797157378,0.5019132938703692,0.10685526732850814,0.7314921946459298,0.7775204469520591,0.4633061457677725,0.4466198896953124,0.5167039146822674,-0.1457249098288671,-0.18099051081516482,0.7044095720431076,-0.8303002808579101,0.917050244122839,0.645660665744568,-0.19291865369632544,0.3953363856993142,-0.7291775083365934,0.054096834320339626,-0.17197651340135534,-0.009435668181640988,-0.2552177437782108,0.9635847436798242,-0.027561960632710658,-0.38873413739587015,0.799587513316881,-0.9176964955827944,0.8606405227670453,0.2091217388122737,0.9827456800062713,0.3870887333286688,-0.53755105942774,0.1883782517638508,0.9906657811257786,-0.08710177004959352,-0.23797084245631717,0.11443501424239932,-0.13969479224791193,0.6870103984438192,-0.07217171392423971,0.9404297879574275,0.39102724439061265,0.0780741866864827,0.06771959099894276,-0.9975803446781091,-0.49105492161686537,-0.07319432539379478,0.33436235161306427,0.35243584311908793,-0.121551729964543,-0.07588920369880925,0.6638312986108272,-0.20420149562844325,0.15229036356953451,0.25892448993935435
22.05000494605109,-0.7376892557305388,-0.40567185804520944,0.5149235372205834,-0.13001229251655388,0.16953176766951272,0.707088081293793,-0.204262256310767,0.026854383850682284,-0.7675716937516781,-0.45479220154400135,-0.24295923816816423,-0.5477185170060368,-0.01720004308237577,-0.2330273308682489,0.25238461541312884,-0.41124506961273277,-0.4564759954205817,0.05980938912779532,-0.9134610327295458,0.6765419526167165,0.33145094883156,-0.8665276236445063,0.6624353447665323,0.8182786759325082,-0.2007569254277377,-0.49686292196905835,-0.23442931650614174,-0.34990492395552164,-0.47854487875199836,0.7626291300461885,0.7565140900841976,0.9279783008313729,-0.736147448098331,0.981430305064682,0.3581879622527693,0.11574246804076305,-0.9449908995382821,-0.2723418153354744,-0.495930169194186,-0.9907896941720096,-0.13253630560158958,0.6397312145411247,0.09414413760009332,0.7092350615945386,-0.4000386938094307,0.7881619726272087,0.5553443115572836,-0.5256477500271468,0.07225606481811364,-0.28442665095312236,0.8366786349054212,-0.08583427988956749,0.4318058459725018,0.5257342856138099,0.9842340656383293,0.7153214258420306,-0.4551733718751698,0.9576597683066084,-0.18059410752943372,0.7370712298037532,-0.9855300937111493,0.26981406895075866,-0.7519220567006777,-0.8520848091290394,-0.884470043487589,0.14281004322092472,-0.23468850676897723,0.6147942473426724,0.003041700892545629,-0.9941730499172146,0.8382843765251398,0.7447694364576658,0.9447363166965903,0.8691970377852396,-0.26422910519903686,-0.8292409010126838,-0.851010981851934,-0.6958951051410331,0.21041296186684044,-0.6950739414176115,-0.6972607451109032,0.258827946695102,-0.936014220041399,-0.8534198836271729,0.933064680797209,-0.12706071958577603,0.2274120424770978,-0.6977290976140222,0.4657165276873476,0.2084076992829471,-0.9651700098233311,-0.7291700269365118,-0.6838320102397024,0.41689646709507633,0.9339963971052316,-0.8143882942052338,0.7215837056439149,-0.6520693938200219,0.528644833386217,-0.13681118536044545,-0.06886771568799821,-0.4432489730458724,0.3195572426533164,-0.734376546198588,-0.8612941506634015,-0.9831029013511112,-0.24390904521841006,-0.10226252971331018,-0.2919326925705843,-0.03960981152289622,-0.48547831053046875,-0.7357502103562892,0.11507101881962889,-0.7547213685628027,-0.8425950849135055,-0.7448945580937969,-0.1583544083082511,-0.6333799972875858,0.8037253472434003,0.04891109892106571,0.6572382954086733,0.5770017192840826,0.7133900292966653,0.9975812307570227,-0.9197118297138269,0.022792794173996045,-0.8834571180146229,0.40832146060253605,-0.5802698785699321,-0.05596238513551488,-0.1731380167053802,-0.5471641056056193,0.37339904926464595,0.3801194172491127,0.2241856092334391,-0.8997458892654824,-0.18157753401716792,-0.16633814296147942,0.6154445001790474,-0.6965805422436779,-0.7841438834053616,0.2130673203418625,0.5971557805443992,-0.9563967195269383,0.8716345377486221,-0.05031384189677146,-0.4738362179333564,0.06656377403388869,0.010365973993506028,-0.42681032133880437,0.4645706024377878,-0.3299423385356308,-0.012479834041110971,-0.3499903306463863,0.05372610427326885,-0.26307802418168236,0.9293467560218014,-0.9878946251452703,0.05388401253687669,0.12691631641034373,-0.3761720734056966,-0.5278223536665769,-0.4285130210794119,-0.9884664254689983,-0.24024397358236693,0.31047358554403615,0.5044276623668524,0.9612274364660005,-0.6057577892859562,-0.48398397787457603,-0.7750087814792348,-0.1336534794221691,0.742045322685146,-0.973454084275817,-0.611929160426868,-0.2002584916363619,0.31296816611116896,0.7514226458169484,0.047665985061627,-0.7199750980420481,0.48760132769155673,-0.7679424588065433,-0.6526889276555312,0.14524264559047562,-0.7840221386471129,-0.06974635185935574,-0.9181936929777441,-0.11427105259867454,0.05614744729976029,-0.809340535657769,0.7564092924378769,0.7639539458799349,-0.7807926127250766,-0.5406944287006032,0.2239823096972502,0.6401748940555605,-0.302971972141572,-0.714348230770059,0.3692686314444804,0.31922281189031354,0.18799093846679127,-0.7527661911179815,0.586861846351598,-0.22391528331434896,-0.26582956868099084,-0.30213647184419523,-0.7956088330051736,-0.805162812578196,0.03890121158705662,-0.3974727160383573,-0.2217352058260864,0.08273187797157378,0.5019132938703692,0.10685526732850814,0.5823049891517185,-0.8995568684143003,-0.20808159851413244,0.2584218155005922,0.8132078733180952,-0.5833889948492792,0.24880408745643146,0.7044095720431076,-0.8303002808579101,0.917050244122839,0.645660665744568,-0.19291865369632544,0.3953363856993142,-0.7291775083365934,0.054096834320339626,-0.2918246785806118,-0.009435668181640988,-0.2552177437782108,0.9635847436798242,-0.027561960632710658,-0.38873413739587015,0.799587513316881,-0.9176964955827944,0.8606405227670453,0.2091217388122737,0.9827456800062713,0.3870887333286688,-0.53755105942774,0.1883782517638508,0.9906657811257786,-0.08710177004959352,-0.23797084245631717,0.11443501424239932,-0.13969479224791193,0.6870103984438192,-0.07217171392423971,0.9404297879574275,0.39102724439061265,0.0780741866864827,0.06771959099894276,-0.9975803446781091,-0.49105492161686537,-0.07319432539379478,0.33436235161306427,0.35243584311908793,-0.121551729964543,-0.07588920369880925,0.6638312986108272,-0.20420149562844325,0.15229036356953451,0.25892448993935435
19.407539179238583,0.4043973431757615,-0.6992637853600776,0.9360054756357448,-0.29524607751035803,-0.693710348342987,-0.9301236597795042,-0.15120847318174135,-0.18621215602670005,-0.6155143402106513,-0.8304942809487179,0.8094329564648923,0.03598981545942648,0.7886673050997748,-0.08892021119190208,0.9664961607025679,0.28619759572628034,-0.8203434460350694,-0.3233640515161864,0.26734012672066965,-0.7183521941804965,0.9459139915090116,0.3670759969899129,0.26681566404113455,0.32964725196430233,0.807025109671087,-0.198766470540106,-0.5455223152031725,0.13757035878317847,0.44359222153926803,0.1964003669735641,-0.5906929500179379,-0.43354230803170934,-0.0002987078945406729,0.34908201258941185,-0.3866826701750443,-0.30918615071959166,0.7590283540480465,0.08398815846429675,0.9118558416800719,-0.15633362345439772,-0.20666983343278478,-0.894501023867035,0.12589333733236518,0.04037187342357673,-0.4199727814444718,-0.8879452148268143,0.062154175893524455,0.15969565086041237,-0.8647433084197993,-0.9852757907392449,-0.9084379216869918,-0.29333137801356113,-0.31048971918592905,0.040613821833019204,0.42951643109637905,0.09209654563392111,-0.18716292734501616,0.33784439671968913,-0.512605601891831,-0.21768640779825987,-0.2272073592687598,0.3909888273461761,-0.394685645512997,0.5382049962999778,-0.7429826392682026,-0.6914601203697359,-0.557846871318429,-0.47833990761977807,-0.37711066126497306,0.530407251589557,-0.19560486084019013,-0.3968878553804327,0.5063600448001928,0.32650497761864994,0.7838830240794215,-0.08866369557996423,-0.6481314203109858,0.31242376500112323,-0.5143881229299749,-0.4988416636465225,0.6444559578135556,-0.10859192470064971,0.7122285136523514,-0.8556840390126419,0.28868723136375984,-0.664627277890989,0.19227484662682648,-0.4764093697109437,-0.03273653533328735,-4.3398758231782963e-05,-0.8845690755994748,-0.9118611485899366,-0.08886163139624559,0.2920415126474898,0.20840016285143337,0.049395816338145604,-0.43670647163981435,-0.3857454908772979,-0.778273893573804,-0.3489055570248052,-0.6240323942444863,-0.8445444534109454,-0.07325721459942747,0.6880826117536858,0.5427281051420385,0.44871997187342694,-0.04898373117614563,0.8185038960481246,-0.5488997812093883,-0.9884845223604593,0.6124512775138735,0.5549864669009585,-0.07730757092336482,-0.497812448887484,0.4001115780605462,0.11034735773028981,0.24945137530863049,0.3549017950617035,0.41566617670850237,0.2857726665552176,-0.9817571971130692,-0.12112618021654709,0.7786446491033625,-0.013135825852501393,-0.04193342928378385,-0.866980385542804,-0.7414530404568183,-0.7759392893460297,0.8944948173229041,-0.8242749103051108,-0.95107354768932,0.44715274358727974,-0.03987243636783666,0.15219273892808793,-0.9698815878815956,-0.9634921970420678,-0.7521300268402695,0.4194678901422768,-0.5057628728026022,-0.29351266565659273,-0.2368872550322212,0.6046571120445772,0.5687867062925407,0.7387739383320115,-0.3485235290613191,-0.9335098064388174,0.4777744614457857,-0.401983587330883,0.8744775914287577,-0.6667341639676161,0.21076177227758253,0.018176581243004808,-0.8242959897667923,0.6460962067551752,0.0791446577772319,-0.12795454678184814,0.5657898195819191,-0.7571296969500951,-0.21330955588885114,-0.6371962204040127,-0.46670864254254774,-0.2535805658602177,-0.674943499975569,0.15210068728429516,0.44728123179254475,0.6389913569193741,-0.10553599393671531,-0.15199015243632452,0.9925420068147757,-0.0008409416943822023,0.8602842227715319,0.34114786266614416,0.7170108109702775,0.625958921961667,-0.5569769420355264,-0.5630894302751293,0.8013017996603999,-0.8660585732545434,-0.0995340450111808,-0.22496924952508413,0.7338660583498617,-0.09233583940169288,0.5729511417235766,0.8029443162131542,-0.3297379488365759,0.5313382842647996,-0.19559123956307567,-0.7237490131688173,0.7538234371636576,-0.4068019337853752,-0.5008472707231926,0.07050764752661998,0.12623212026559383,0.41349654075840836,-0.4010127502338594,-0.08279155067521304,0.48708321139876354,0.20251346889348687,-0.9060475809940605,-0.5027944918003098,0.8403694007739555,-0.007774600164393686,-0.9065883419113805,-0.47056365887121054,-0.5853418666326342,-0.30213647184419523,-0.7956088330051736,-0.805162812578196,0.03890121158705662,-0.3974727160383573,-0.2217352058260864,0.08273187797157378,-0.7088259790053055,0.10685526732850814,0.7314921946459298,0.7775204469520591,0.4633061457677725,0.4466198896953124,0.5167039146822674,-0.1457249098288671,-0.18099051081516482,0.7044095720431076,-0.8303002808579101,0.917050244122839,0.645660665744568,-0.19291865369632544,0.3953363856993142,-0.7291775083365934,0.054096834320339626,-0.17197651340135534,-0.009435668181640988,-0.2552177437782108,0.9635847436798242,-0.027561960632710658,-0.38873413739587015,0.799587513316881,0.4358989953478627,0.8606405227670453,0.2091217388122737,0.9827456800062713,0.3870887333286688,-0.53755105942774,0.1883782517638508,0.9906657811257786,-0.34965145331858505,-0.2716433822917592,0.9358457960456978,0.04952071166255401,0.6780348729445673,0.45060994666891485,0.1602012139771023,0.22459419975493788,0.9209882953289379,-0.18167102827008508,0.4822866990358612,-0.8814211381997832,0.5425872298146042,0.41735835588566284,0.2250942275021277,0.622868415104155,-0.2637096867897568,0.1815247007494789,0.18020372167392074,-0.2795056882238418,0.844496813232952
11.788341530011877,-0.4380639232529331,-0.7832296559471257,0.2683667624581991,0.5022655879658171,-0.7003992227457003,0.2235778710010008,0.5729034814995069,0.6450419703755432,-0.6673281416486678,-0.33066257343183514,-0.7266381177620977,-0.5400645394923664,0.01778903648624164,-0.866631005825496,0.44972663873365293,-0.2723636095788473,-0.1130904370419088,-0.2604615986138179,0.8489812747884424,0.07888405006762156,-0.20240019313021795,0.4170914672591226,-0.08672031086075571,0.8132781754748104,-0.6454111670473419,-0.9958836776239102,0.27434564346383183,0.48171259698612423,0.2483375100214582,0.1610999883405222,-0.5408694934697931,0.6983631552588503,-0.06384594390538667,0.8131522742794723,0.03938096925279022,-0.2290631782995518,-0.7144194554420153,0.47104356393092583,-0.25073566802864633,0.14020082169213244,0.8981340701354452,-0.8604971588971819,-0.8025541228432951,-0.3596891854717337,-0.19825039737441297,-0.5383959865554466,0.8253983002891025,-0.07728174812830924,0.8037348570256435,-0.18069630710044082,0.734817211346418,0.936104814310071,0.1256386048885958,0.2127194624680795,-0.28728524963340907,-0.6410214011113813,0.1416864341181705,-0.4522470963468248,-0.013763014253754369,0.28318094808114314,0.091346175741297,-0.9941242285399814,-0.49038606964927434,-0.28880481983558237,-0.3567005110278474,0.8103431346318644,-0.8603827596256068,-0.38627044554815604,0.3278530639240753,-0.10695233458676645,-0.7941438025673333,-0.1641087428521404,-0.10758533983909446,-0.4666688636031988,-0.131129473767992,0.8460646116361035,0.9210946806396378,-0.5842728592487112,0.3466445541009562,-0.15267295148604432,0.7672095648420827,-0.5090428212881997,0.2218893994430413,-0.653144707306822,-0.03930154506218342,-0.23609189377539397,0.9992075509512826,0.12717122898170952,0.27620785643903667,-0.826512661774939,-0.836544114805176,0.5933402415514184,0.5450331556204424,-0.2927733392308747,-0.5699536121147519,-0.9106795318803571,0.3050375700193937,-0.02625061482995239,-0.5124191168904411,0.7467855291858387,0.485106254938106,-0.9968896347412028,0.898361741071988,-0.21804013690066704,-0.08003543614378206,-0.48800154588818545,-0.40861030712141533,-0.2697997806380672,-0.6703782355269843,0.31370275249693247,0.15524681611639957,-0.2530215559798945,-0.4281895565024274,-0.8182952812984527,0.1830168266096428,0.2983822178396398,-0.9844153423562818,-0.2810249347563831,0.8054570987161036,-0.9567728332443868,0.2818458276196216,0.9022233779237276,0.4348994023317545,-0.20364422624349876,0.9174633394593652,-0.7521210901487703,0.48469011691546626,-0.4334756734845029,0.8969612479817335,-0.7096752588314172,-0.8979160956316408,-0.20608899417041848,0.04234161915825396,0.8456323200137656,0.43778160473215366,0.013696339081735287,-0.16356744314805516,-0.16785828605624786,0.20406056982665355,-0.7277521712610744,0.025672763581482627,0.016618986542670022,0.0818492140286653,0.6810965519699999,0.9601709988416673,0.6177391876868856,0.9831895146655467,-0.6839853025884872,0.4672522082806574,-0.6857183054357079,0.44879176587788217,0.9919747688517944,0.4168371439083147,0.7018143235949665,0.6843130189141211,-0.31160807531093315,-0.7387063758710015,0.1877657937990076,-0.5184292914187194,0.495302577178087,0.7016840829482542,0.7141179705685192,-0.8124577997122233,0.3214393547626033,-0.9234742495500075,0.5319152698111362,-0.5954384588173245,0.4496269399843167,-0.6446234158667006,0.13441125083982897,-0.34843426517800036,-0.8171637348174359,0.18985085882488972,-0.80542046816214,-0.21563484724725335,0.6270328261699747,0.038952326113971036,-0.7981354887413845,0.9960606680535355,-0.8593469316921423,0.5299713169825129,0.7773516591761931,-0.15128590793948837,0.28781338149607394,0.9438847846512024,0.8579285126905312,-0.26367853557054954,0.35690075413034683,-0.45347221131282023,0.7769443442627271,-0.9214521882268609,-0.15396851221231223,0.2708498455106496,-0.7916987946622207,0.38556841027694655,-0.6369056281593026,0.8680655598423059,-0.15092060740539126,0.45471555463454316,0.2391024307126901,-0.08851161308495237,-0.6132429160413664,-0.2863094470250711,-0.9858379254616534,0.6730034155593234,-0.39004536048226157,0.3424484611763561,-0.10968559920153109,-0.006889203790930276,0.040985359068613336,-0.8562634178260742,-0.26891722443398103,-0.5369739630140047,-0.0749857011493602,0.5823049891517185,-0.8995568684143003,-0.20808159851413244,0.2584218155005922,0.8132078733180952,-0.5833889948492792,0.24880408745643146,-0.4607897951336748,0.49437007324724647,0.4715166287492665,0.06092681980479053,-0.6012039165888694,0.6569579493977773,0.8537537264986903,-0.9500249938726435,0.7595587219449067,-0.6172660327011688,0.672962234911836,-0.32691757446487957,0.7648665361169493,-0.020944957146996623,0.01863548066943732,0.6007251698360279,-0.4480032568347163,0.6413358439035377,0.22624443118104032,0.8919438601282992,-0.8878593605898606,-0.2847198547256111,0.7993797316685178,-0.799638519430103,0.27555997961559586,-0.18406757995809708,0.7516127415423142,0.5968999904720045,0.330965515194906,-0.33914507240927483,-0.8495217993077802,0.8129293337039452,-0.7793821957125029,0.39066011106579746,-0.2881220788177652,-0.8277117422840221,-0.48241492565528876,-0.1386015493984134,-0.43573845934288125,-0.8490113213483028,0.8871740328092805,-0.584736275111857,0.8824165281001246,0.8859003408181891
13.801356497022148,0.7880898596373151,0.9604077550470984,-0.349987442327631,-0.9634006522219101,-0.7153869635347783,0.5833877150913802,0.4209531712186845,0.3573346105123629,-0.15096470640735982,-0.9678850993321739,-0.0627001540700094,-0.489522362996055,-0.8363359253103735,0.15228583537602391,0.49815386778912574,0.2577136198175556,-0.04884801264734362,-0.17270358115664308,0.656716121370019,-0.2412468534148835,-0.8915413586396244,-0.5159068713811044,0.1400096694440518,-0.9143804885687428,0.9977245464972195,-0.6221728548636929,0.4074364056779822,0.9404475891191721,-0.26189155767349015,0.6739628837328686,0.045309032997627785,0.15100284124574137,0.22086043623858842,0.571425843929644,-0.8611980665641255,0.026548319142139842,-0.5955879809197062,0.8141203548889018,0.9947321518348393,0.6380284889128645,-0.11547215560174906,-0.3153150856253213,0.9011662274765291,0.28011601811479436,0.8807076462792895,0.7922710737074852,0.23223918306747793,0.34428047216981894,0.9724905360216216,-0.221632162413548,0.09997595450526386,-0.27291675974247975,-0.7824670725542655,-0.8308519670074199,0.320776612837508,-0.1964818027117401,0.2950477825693316,-0.6923767656778903,0.3045087397644206,-0.5934725131816623,-0.9059775056352821,0.42032465778217776,0.7947847028731863,-0.6375650568416762,0.9697639270357328,-0.3754287298635064,-0.5429994695281017,0.2482915044583729,-0.6039425984723472,-0.7994545591534541,-0.4574796583402123,0.2889848469279348,0.34441729359564266,-0.04451093465179623,0.2157206545939203,-0.11636067038803755,0.6898438918677896,0.5708967747877509,0.45394769242046573,-0.5818798194652111,-0.9606964967055913,-0.10660392415810493,-0.5397097232083312,-0.38969224184275597,-0.38639109150192774,-0.5638517467221109,0.9689982745945542,0.35401715297599856,0.775435728854182,0.15608654477824602,0.6671735609329046,0.7423391763512426,-0.9908769073729244,0.44623840520074043,0.8881759595313641,-0.12752966071821326,-0.8274447717714326,-0.19479144321162045,0.9495318916170719,-0.38317744932044784,0.8549749977492658,0.9362522216153735,-0.4238110294256774,-0.4773509947046237,0.20256294540067654,0.8720387397349603,0.9961908823857899,0.8323859787470897,-0.8671961261596728,0.7407716541466574,-0.373609258365434,-0.6038925372635715,0.33441953680174996,-0.46222027679589694,-0.40920757619029957,0.876739031017352,0.3641641768173385,-0.916776040825876,-0.2762251582431767,0.3388869137857715,-0.7561580714455651,0.7131894262601524,-0.563539307467724,0.38250799870700725,0.8396399558412058,0.60264712217985,-0.3269921896748722,-0.9618571857736202,0.607283512198135,0.18395235286544875,0.29095952583959384,0.5551561490245833,0.43565287296271094,0.584508456962006,0.2101580437006889,0.6948365049155747,-0.5718844787313844,-0.07550359826485975,-0.15396850141623908,-0.17272719517534973,0.5866533954421438,0.3500698310190069,-0.6602690557262363,0.20959173093002148,-0.47412419920070237,-0.8741909751517736,0.5967992524626349,0.4147848351829808,-0.6586530642116355,-0.0517007554611193,0.7892115524249008,-0.7402756746841122,0.30221172872605906,-0.793867488268474,0.19584144338475284,-0.363175885352677,0.5191015929782881,-0.51443093992498,0.9684864029982623,-0.9890626813390155,0.8343556693583951,-0.5948232808459204,-0.7122618411946218,-0.6248822071428273,-0.922999910981708,0.36690109903703894,-0.6062865784654041,-0.4310884123825327,-0.9628685429315305,-0.382945758634474,0.07036417174584675,0.36215233402264335,0.4860001207568252,-0.14461841989614999,0.1650425838272067,0.0809152760744245,0.22831725987246254,0.9205970461445778,0.5080540847354771,0.8104581578296035,0.35412782673473675,-0.3634975975848338,0.9236453110778158,0.07496551317333555,0.770363676797631,-0.39059635122186,0.33435020900325596,-0.032011931810039806,-0.4571834920401756,-0.24013838251508335,-0.31046774268513166,0.7741994105841767,0.018850901641602746,-0.9980753849097561,0.5753461865897327,0.8087410291428967,-0.19589604175836728,-0.17328794785547652,-0.8167420695177317,-0.7953960614220745,0.4284413032575842,-0.6538104446909141,-0.6311669214769315,0.689039227040896,-0.2868640366099253,-0.24869686635807509,0.171891319292113,0.8988054184866392,-0.15556048207567552,0.8304991049187873,0.3287699213318904,-0.5428765008884093,0.4203078918199523,0.5878808779024278,0.3476532673096424,-0.08582346147338615,-0.343861761650718,0.00024873264836333675,0.5149639715863015,0.16121826240600812,-0.3650300978926333,-0.806685650831664,-0.4125654110685435,0.8570656565052959,0.8172383452680678,-0.6633389524687903,-0.42590765775887096,0.20175867114830037,-0.6993072693887981,0.6114684176150478,0.8283922598249145,0.9834402831854689,-0.673362967708727,0.6862101540126389,-0.6704410205584876,-0.6930574977807962,0.815663750327273,-0.421341800018727,-0.15966838636768488,-0.6284079712246498,-0.1639560991633131,-0.09388690001234967,0.6434659280964146,0.3235726459289405,0.2300669280282559,-0.297955739277709,-0.3427208283500611,0.7055045229032637,0.04525528858074934,0.9300756913853425,0.7940612781791785,0.14750953646339426,0.3841374525479584,0.4907624096225238,0.7503604945543076,-0.2101695015219649,-0.28995901243213784,-0.37822716012740654,-0.0459234307808305,0.8858293437101405,0.022319024649843033,-0.671640234331131,-0.30684072688888775,0.7862807162728394,-0.8586345861526634
19.69017817478825,0.7801745170904173,0.15495887873578806,-0.9838932906259974,0.380102195422263,-0.22123122013104668,-0.7068609955544405,0.1480592141664685,-0.5838409726771865,0.45299950638769193,0.8219541668614332,-0.4511473394446541,-0.9742181053274932,0.5324488772705902,-0.8845847546297667,0.25704612248874215,0.958366245532019,0.31580662568249385,-0.16675754729231174,-0.47964326888917497,0.17070586248699327,0.708692517149675,0.9197994028547056,-0.20532202111037257,-0.8287916150183028,-0.20075585419471564,0.17250143309321686,-0.0900945930285657,-0.3047779590243682,-0.6591740317050292,0.16638963024191944,0.5635526384497545,0.061146348936280015,0.4240082460437413,0.9149870591957687,0.19286196221420737,0.617673270265017,-0.9932768082791863,0.8699577491512931,0.029800943583761397,-0.8218715867566908,0.0024595794838362384,0.7166879406841427,0.9992622779297329,-0.33456649516274206,0.7471009501347008,-0.11384248139080921,-0.13250902494190298,0.27946802802569337,0.4732925283634566,0.7737262373362559,0.09997595450526386,-0.27291675974247975,-0.7824670725542655,-0.8308519670074199,0.320776612837508,-0.1964818027117401,0.2950477825693316,-0.6923767656778903,-0.07528383453018117,-0.5934725131816623,-0.9059775056352821,0.42032465778217776,0.7947847028731863,-0.6375650568416762,0.9697639270357328,-0.3754287298635064,-0.5429994695281017,0.2482915044583729,-0.6039425984723472,-0.7994545591534541,-0.0674009199393737,0.2889848469279348,0.34441729359564266,-0.04451093465179623,-0.5631296584645764,0.6780275915825755,0.45454213803653265,-0.9914764063271819,0.8056212566787195,-0.4413272079414414,0.6713563462064007,0.6329195894411119,-0.8490539641613772,-0.5033717630387307,-0.5456000055064696,0.6783156741210077,-0.6433851242169226,-0.06960916991186616,-0.524965205902719,-0.8050978859382378,-0.11889188677315587,-0.5535104479066788,-0.8154332619276734,0.2754414804073202,0.8227600813339611,-0.16559726031600275,0.9188749874857909,0.30652917442543104,-0.3339932169246962,0.7013470056888464,0.4617915935975958,0.17061686988043756,0.8865564775138886,-0.40954581229543185,-0.005325322794427878,-0.5520052098050172,-0.3146828538359283,-0.3742369157914074,-0.4115006510632986,-0.04948995738633366,0.5827953688568244,0.05698637117101368,-0.0181635761588268,0.28566536056491,0.2067516240051781,0.3209302737655171,-0.15313989961001173,-0.7404790203581852,-0.6417837565914672,0.2325910390257988,-0.42896636460262805,-0.8724268101222252,-0.6647985584188671,-0.4780806650646985,0.2221950895890492,0.9783671859854004,-0.45773355648187053,0.041871335599247494,0.36064338684916786,0.5036291940631399,-0.10677028672310263,-0.16761261771353086,0.9640043305499582,-0.7108188045858828,0.07412224893657426,0.3049167824839214,-0.6058097326156238,-0.9937797393500092,0.5498858287549975,-0.4246089525758878,-0.1649562739405106,0.40780139622930833,0.24903877789886186,0.2842192977147222,-0.9078611527930702,0.15503673365887916,0.48895899792711894,0.8605283867770623,-0.4708563032544597,-0.040952231451921284,0.9595779106037725,-0.2629371726709615,0.14076064207635897,-0.9943827700315402,-0.9990563679393425,0.8847098158775033,-0.7377126926785018,-0.6919140496682266,-0.08763025009682579,0.6905318356390313,0.8953372846842167,-0.29508486394490885,0.9362517106178585,-0.610401659573643,0.34804378365689104,0.92517186314763,-0.18278712922503604,-0.14418106321812618,-0.35792039090395855,-0.7642624074849746,0.5840353738437647,0.6686604790057733,0.07546737669960768,-0.9806157720233288,-0.7972714622592898,-0.4744127362802337,-0.7338532184210826,0.013611218169308659,-0.30070628363105767,-0.9449405079827595,0.8368742202519579,0.8974282324912215,-0.09669085319943949,0.5573935598382413,-0.2633154219766711,0.8394373062488509,0.9632839075713349,0.7708700024358333,0.06334807315944446,-0.34439442521804686,0.2187748643904861,-0.8745124501761916,0.023908533605919713,0.15218779074922528,0.7712387265206351,0.8541647888816171,-0.5551623439432329,-0.04470757838892658,0.43103644567644195,-0.5839418326780137,0.16678068686144498,-0.16611722782313132,0.540983833091691,-0.29069657719866626,-0.6061850855299886,-0.5655252347848347,0.8005632777309273,0.6521644068676453,-0.7960555976927888,-0.8231694899882054,-0.7596985610729519,0.025255951998621073,-0.9049976764149359,0.9826842138233689,-0.28583277250721983,-0.3799706119812678,-0.7505504468566422,-0.9177044071020244,0.2072099889085517,0.5892372000104871,-0.03458232556462648,-0.49571945685351015,-0.5895961530105804,0.415964943440537,0.6909773290476964,-0.8114873192719079,0.43867803518588544,0.9007960967686031,0.6166471596312,0.25188180215103206,0.20212118497864484,-0.4815014477999564,-0.39025073963139434,-0.31747169039694767,-0.49610529803346415,-0.3355130300430522,0.28460471196058457,-0.34967920126083585,0.9115228503165613,0.92882136386248,0.2433264272807032,0.8687398461744531,0.7580568153320941,0.018513525396284702,0.9268084547286803,-0.012565233264019371,0.062474152624737433,-0.3751662765030148,-0.15022762441728177,0.24677833885842837,0.867974421053378,-0.6199193501434792,-0.3335558516324435,0.44701042818851766,0.9202858864475667,0.5546801976283884,-0.7739158811552755,0.884812037619092,-0.9203001688555466,0.5799126112818156,0.44185356768700346,-0.22680619013288084,0.38854980900312075,0.25931694817247886,0.8219259648067236
16.463204890612094,0.04883048700695203,0.454886648795521,0.859880270679722,0.43538063838055363,0.05854526659833037,0.24943344539373125,-0.40471832317702083,0.550377919129486,-0.780117424794049,-0.399278126073608,0.6069493313112182,0.38659531128504887,-0.7557738975828989,0.45316599554715453,-0.3396696991138801,0.5824063027244524,0.7896766210562993,-0.6201509942528098,-0.12725801068121023,-0.2596720638856609,-0.6883505612045946,0.03440141016446763,-0.2744696947252099,0.9561655503440716,-0.4269486483447853,0.7671153669656083,0.5738837292865271,-0.3210511767116353,0.5585330469524059,-0.18846162042401704,-0.7125184240351086,-0.43614004886348656,0.9946517443080503,0.9219460477328318,0.12968104190495233,-0.35887440603266096,-0.7570919573551569,-0.8600085706902358,0.20830250262621175,0.9620887741105504,-0.1339083237605232,0.12381248141118228,-0.8629632698348693,-0.7801372785011791,0.8118048890695881,-0.4041933048790085,-0.8298452053465086,0.3249446650811134,0.6887719874460334,0.06536285981809575,-0.02945145830924001,-0.6387243551657433,0.4975857024254229,0.36333293177521586,0.6042231627146255,-0.6410214011113813,0.1416864341181705,-0.4522470963468248,-0.013763014253754369,-0.429132287521683,0.196342322882735,-0.9941242285399814,0.8507184222177315,0.054078919395316616,-0.3567005110278474,0.8103431346318644,-0.8603827596256068,-0.7440154205220275,0.3278530639240753,-0.10695233458676645,-0.7941438025673333,-0.1641087428521404,-0.10758533983909446,-0.4666688636031988,0.04023319275959358,0.8460646116361035,0.9210946806396378,-0.5842728592487112,0.3466445541009562,0.2735680054592371,0.7672095648420827,-0.5090428212881997,0.2218893994430413,-0.653144707306822,-0.6801266194880147,-0.23609189377539397,0.9992075509512826,0.12717122898170952,0.27620785643903667,-0.826512661774939,-0.836544114805176,0.5933402415514184,0.5450331556204424,-0.2927733392308747,-0.5699536121147519,-0.9106795318803571,0.3050375700193937,-0.02625061482995239,-0.5124191168904411,0.7467855291858387,0.485106254938106,-0.7986882689781476,0.898361741071988,-0.21804013690066704,-0.47433689274528335,-0.48800154588818545,-0.40861030712141533,-0.2697997806380672,-0.6703782355269843,0.31370275249693247,0.15524681611639957,0.997406360503831,-0.4281895565024274,-0.8182952812984527,0.1830168266096428,0.2983822178396398,-0.49600679752968047,-0.058070097429421486,0.7311625245927418,-0.24384705894879644,-0.6037092963392707,0.22514113550188308,-0.38505605347345684,-0.04664530449613169,0.5159640536778969,-0.4449312599283177,-0.8989647612792315,0.16183863880454674,-0.4943364179845591,0.42206809521753286,-0.1386319567571177,-0.605786298137621,-0.32934042232728866,0.3551728078274565,-0.024178250765123144,-0.7329531204900224,-0.40330912817665254,-0.16633814296147942,0.6154445001790474,-0.6965805422436779,-0.7841438834053616,0.2130673203418625,0.5971557805443992,-0.9563967195269383,0.8716345377486221,-0.05031384189677146,-0.4738362179333564,0.5835491624714648,0.010365973993506028,-0.42681032133880437,-0.2141565558151246,-0.8045207541705843,-0.012479834041110971,-0.3499903306463863,0.05372610427326885,-0.26307802418168236,0.9293467560218014,-0.039111816968316226,0.05388401253687669,0.12691631641034373,-0.3761720734056966,-0.5278223536665769,-0.4285130210794119,-0.9884664254689983,-0.2836153866537561,0.31047358554403615,0.5044276623668524,0.9612274364660005,-0.6057577892859562,0.1759318769066307,-0.7750087814792348,-0.1336534794221691,0.742045322685146,-0.973454084275817,-0.611929160426868,-0.2002584916363619,0.31296816611116896,0.7514226458169484,0.047665985061627,-0.7199750980420481,0.48760132769155673,-0.7679424588065433,-0.6526889276555312,0.14524264559047562,-0.7840221386471129,-0.06974635185935574,-0.7521174343822192,-0.11427105259867454,0.05614744729976029,0.3442497868011891,-0.47333160210251135,-0.9906579062001637,-0.7740445215551761,-0.4293276566052078,-0.6413497975755986,-0.8830170751647217,-0.693166149053744,0.7814436237536027,-0.3211834140609444,0.013288442818452095,-0.3685400842888069,-0.7503285813661078,0.3204809096812291,-0.45327260540916625,0.6791932154720866,0.7751607442705049,-0.7119073103925038,-0.805162812578196,0.03890121158705662,-0.3974727160383573,-0.2217352058260864,0.08273187797157378,0.5019132938703692,0.36773854364032,0.7314921946459298,0.7775204469520591,0.5234147370767301,0.4466198896953124,0.5167039146822674,-0.1457249098288671,-0.18099051081516482,0.7044095720431076,-0.8303002808579101,0.917050244122839,0.645660665744568,-0.2925164909441911,0.3953363856993142,-0.7291775083365934,0.054096834320339626,-0.17197651340135534,-0.009435668181640988,-0.2552177437782108,0.9635847436798242,-0.027561960632710658,-0.38873413739587015,0.799587513316881,-0.9176964955827944,0.8606405227670453,0.2091217388122737,0.024536566800547277,0.3870887333286688,0.20487781318196152,0.06577707989115211,0.6530585580139812,0.22997289245324914,-0.9082505855578955,-0.2230911976656993,-0.43726446551242604,-0.5441101551228209,0.9427321084375926,0.14924017079364615,-0.3801234038547443,0.9809607773861804,0.3097233025928521,0.39066011106579746,-0.2881220788177652,-0.8277117422840221,-0.48241492565528876,-0.1386015493984134,0.648363595749003,-0.5479493559906015,-0.9978005470379829,0.45567651282439736,-0.9739690269365608,-0.195308715845814
25.26796298487498,-0.7376892557305388,-0.40567185804520944,0.5149235372205834,-0.13001229251655388,0.5124387061080866,0.707088081293793,-0.163836678726331,0.026854383850682284,-0.7675716937516781,-0.45479220154400135,-0.24295923816816423,-0.23605631001601712,-0.01720004308237577,-0.2330273308682489,0.25238461541312884,-0.41124506961273277,-0.4564759954205817,0.05980938912779532,-0.9134610327295458,-0.04711998487416835,0.33145094883156,-0.8665276236445063,0.6624353447665323,0.8182786759325082,-0.2007569254277377,-0.49686292196905835,-0.23442931650614174,-0.34990492395552164,-0.9257964007988932,0.7626291300461885,-0.5408694934697931,0.6983631552588503,-0.06384594390538667,0.8131522742794723,0.03938096925279022,-0.2290631782995518,-0.7144194554420153,0.47104356393092583,-0.25073566802864633,-0.5978051926137689,0.8981340701354452,-0.7596542956714714,-0.8025541228432951,-0.3596891854717337,-0.19825039737441297,-0.5383959865554466,0.8253983002891025,-0.07728174812830924,0.8037348570256435,-0.18069630710044082,0.734817211346418,0.936104814310071,0.4666337897718231,0.2127194624680795,0.05807836603372607,-0.6410214011113813,0.1416864341181705,-0.4522470963468248,-0.013763014253754369,0.28318094808114314,0.7904474992049642,0.6404059987086272,0.04229381100534524,0.4565319386884541,-0.221143740950833,0.41493346034837053,0.12455443404547561,0.7624263991685138,-0.7903192352174417,-0.9502371344644862,0.2699341855512971,0.21123074066425174,-0.279329207079817,-0.34922616884070923,0.7475833728486867,0.8460646116361035,-0.5729586462401255,-0.9156773953382209,0.3466445541009562,-0.15267295148604432,0.7672095648420827,-0.5090428212881997,0.2218893994430413,-0.653144707306822,-0.4487199055818025,-0.23609189377539397,-0.29858300598222587,0.12717122898170952,0.27620785643903667,-0.826512661774939,-0.836544114805176,0.8688768300737539,0.5450331556204424,-0.2927733392308747,-0.5699536121147519,-0.9106795318803571,0.3050375700193937,-0.02625061482995239,-0.5124191168904411,0.7467855291858387,0.485106254938106,-0.9968896347412028,0.898361741071988,-0.21804013690066704,-0.47433689274528335,0.9138922175724948,-0.40861030712141533,-0.2697997806380672,-0.6703782355269843,-0.7230060900702038,0.15524681611639957,-0.2530215559798945,-0.3080244523781095,-0.8182952812984527,0.1830168266096428,0.5303652897734226,-0.9844153423562818,-0.2810249347563831,0.8054570987161036,-0.9567728332443868,0.2818458276196216,0.9022233779237276,0.4348994023317545,-0.20364422624349876,0.9174633394593652,-0.7521210901487703,0.48469011691546626,0.5405717293897383,0.8969612479817335,0.6412309723355616,-0.8979160956316408,-0.20608899417041848,-0.37187841242000985,0.8456323200137656,0.43778160473215366,0.013696339081735287,-0.16356744314805516,-0.16785828605624786,0.7023696203508143,-0.7277521712610744,0.025672763581482627,0.016618986542670022,0.0818492140286653,0.6810965519699999,-0.06499664402193672,0.6177391876868856,0.9831895146655467,-0.6839853025884872,0.4672522082806574,-0.6857183054357079,0.44879176587788217,0.9919747688517944,0.4168371439083147,0.7018143235949665,0.6843130189141211,-0.31160807531093315,-0.7387063758710015,0.1877657937990076,-0.5184292914187194,0.495302577178087,0.7016840829482542,0.7508126271227831,-0.8124577997122233,0.3214393547626033,-0.9234742495500075,0.5319152698111362,-0.5954384588173245,0.4496269399843167,0.43831175961922253,0.13441125083982897,-0.34843426517800036,-0.5240389323438064,0.03361588995627818,-0.80542046816214,-0.21563484724725335,0.6270328261699747,0.038952326113971036,-0.9072947906384574,-0.9038309545076064,0.36995568376466625,-0.2679388362157964,0.7773516591761931,-0.15128590793948837,0.28781338149607394,0.9438847846512024,0.8579285126905312,-0.26367853557054954,-0.2050971698037849,-0.45347221131282023,0.7769443442627271,-0.9214521882268609,-0.15396851221231223,0.2708498455106496,-0.7916987946622207,0.38556841027694655,-0.5063602924102979,0.8680655598423059,-0.15092060740539126,0.45471555463454316,0.2391024307126901,-0.08851161308495237,-0.6132429160413664,-0.2863094470250711,0.44827752154782097,-0.40225510726405833,-0.39004536048226157,0.7709003386863342,0.7148534938633981,-0.006889203790930276,0.040985359068613336,-0.8562634178260742,-0.26891722443398103,-0.5369739630140047,-0.0749857011493602,0.5823049891517185,-0.8995568684143003,-0.20808159851413244,-0.7141825967259376,0.8030557871816513,-0.5833889948492792,0.24880408745643146,-0.4607897951336748,0.4246207873433798,0.07341886192627944,0.5297821238242961,-0.6012039165888694,0.6569579493977773,0.8537537264986903,0.054096834320339626,-0.17197651340135534,-0.009435668181640988,-0.2552177437782108,0.9635847436798242,-0.027561960632710658,-0.38873413739587015,0.799587513316881,0.3534894958541235,0.8606405227670453,0.2091217388122737,0.9827456800062713,0.3870887333286688,-0.53755105942774,-0.9913326398842832,0.9906657811257786,-0.08710177004959352,-0.23797084245631717,0.11443501424239932,-0.13969479224791193,0.6870103984438192,-0.07217171392423971,0.789912853589803,0.39102724439061265,0.0780741866864827,0.06771959099894276,-0.9975803446781091,-0.49105492161686537,-0.07319432539379478,0.33436235161306427,0.7237738974234518,-0.6315239500441261,-0.5571353856830972,0.6638312986108272,-0.45761769162984556,0.15229036356953451,0.25892448993935435
26.299843809481494,-0.7376892557305388,-0.40567185804520944,0.5149235372205834,-0.13001229251655388,0.16953176766951272,0.707088081293793,-0.204262256310767,0.026854383850682284,0.4240821179791543,-0.45479220154400135,-0.24295923816816423,-0.5477185170060368,-0.4727401598359977,-0.2330273308682489,-0.7775320967827466,-0.41124506961273277,0.37964495177478064,0.05980938912779532,-0.9134610327295458,0.6765419526167165,0.33145094883156,-0.8665276236445063,0.6624353447665323,0.8182786759325082,-0.2007569254277377,-0.49686292196905835,-0.23442931650614174,-0.34990492395552164,-0.47854487875199836,0.7626291300461885,0.7565140900841976,0.9279783008313729,-0.736147448098331,0.981430305064682,0.3581879622527693,0.11574246804076305,-0.9449908995382821,-0.2723418153354744,-0.495930169194186,0.4174324374129983,-0.7111939372909357,-0.5766898983675619,0.8561627211073626,-0.7045078821537618,-0.7953086682086541,-0.48840788076347574,-0.4800164124084074,-0.6996967079435905,-0.39223745932633713,0.7499823818378426,-0.5789357384265499,-0.36388060902516406,-0.3672733809073965,-0.678725076014856,-0.16573049496869086,0.13718682400985838,0.7647321506365024,-0.06023088638807694,-0.7754650713946538,0.6733488600506297,-0.7536254725847995,0.19738417275400688,0.02969305332284966,-0.7820437061246466,0.12822351139528387,-0.42034598467837947,0.034074038921239946,-0.6518313668700102,-0.4696807444368205,0.4068783170307366,0.19267114735020607,0.423859229853802,-0.6522795286414798,0.12843343829176734,-0.291435027507738,-0.5568450738340296,-0.8854891637079108,0.8311987316487657,-0.2654336660797316,0.32621939778287334,0.4585547078904808,0.20165092436625387,-0.19459124419242801,0.7133112348517736,-0.5995488186947147,-0.10843745251057157,-0.7512810980805318,-0.634684403100668,-0.8176457661423633,0.2854079938484526,-0.10771051313824209,-0.193420064049862,-0.26650342926391923,-0.9039389535344913,0.8491812021895504,0.9063134652423961,0.21539895827633115,0.43187264224446653,-0.7269354579606575,0.4797514211905143,-0.33403456366171835,0.7983458855777541,0.7542420414703856,0.44321256965471023,-0.261543168559198,-0.7993757651442135,-0.47751393131519526,-0.7156791353022391,-0.209828553728993,-0.9809147722303444,-0.5699615976415515,0.8228420278496857,0.19574982206741298,-0.7884315144266807,-0.37363362003321887,-0.39825791273759337,0.5369841702336338,-0.058070097429421486,0.7311625245927418,-0.24384705894879644,-0.6037092963392707,-0.3973059389268849,0.24885316331771268,0.6437385090789429,0.32636011859154745,-0.8580594877541159,-0.10701577773969895,-0.6000906330669753,0.42706972281878675,0.7633013638898463,0.9321271934357096,-0.3888933918825428,-0.161451954423792,-0.057189150045875214,-0.45696101017905555,0.843657040228595,-0.9288414219176788,-0.015650102665515586,-0.33047306082693995,-0.36231681262917204,0.2627467078356369,0.5547089298291887,0.4408841929722209,0.6086939848635962,-0.4518625740458684,-0.9580845833117546,-0.691767694103784,-0.26122865408259965,0.27648102419229015,0.5204656928309088,-0.24475395165137126,0.9107916018608349,0.488987740533791,-0.3770284653363425,-0.3450398448561427,-0.9806975607715203,-0.5411825902366194,-0.8379527016830846,0.9860447619691834,-0.10511241874154797,0.8953372846842167,-0.29508486394490885,0.9362517106178585,-0.610401659573643,0.2521092486597405,0.92517186314763,-0.18278712922503604,-0.14418106321812618,-0.35792039090395855,-0.7642624074849746,0.5840353738437647,0.5624509019536812,0.07546737669960768,-0.9806157720233288,-0.7972714622592898,-0.4744127362802337,-0.7338532184210826,0.013611218169308659,-0.30070628363105767,-0.9449405079827595,0.8368742202519579,0.8974282324912215,-0.09669085319943949,0.6532632211779195,-0.2633154219766711,-0.02351111422895258,0.9632839075713349,0.7708700024358333,0.06334807315944446,-0.34439442521804686,0.2187748643904861,-0.8745124501761916,0.023908533605919713,0.15218779074922528,0.7712387265206351,-0.6856572233522769,-0.5551623439432329,-0.04470757838892658,0.43103644567644195,-0.5839418326780137,0.16678068686144498,-0.16611722782313132,0.6310401149993237,-0.22391528331434896,-0.26582956868099084,-0.30213647184419523,-0.7956088330051736,-0.805162812578196,0.03890121158705662,-0.3974727160383573,-0.2217352058260864,0.08273187797157378,0.5019132938703692,0.10685526732850814,0.7314921946459298,0.7775204469520591,0.4633061457677725,0.4466198896953124,0.5167039146822674,-0.1457249098288671,-0.18099051081516482,0.7044095720431076,-0.8303002808579101,0.917050244122839,0.645660665744568,-0.19291865369632544,0.3953363856993142,-0.7291775083365934,0.054096834320339626,-0.17197651340135534,-0.009435668181640988,-0.2552177437782108,0.9635847436798242,-0.027561960632710658,-0.38873413739587015,0.799587513316881,-0.9176964955827944,0.8606405227670453,0.2091217388122737,0.9827456800062713,0.3870887333286688,-0.53755105942774,0.1883782517638508,0.9906657811257786,-0.08710177004959352,-0.23797084245631717,0.11443501424239932,-0.13969479224791193,0.6870103984438192,-0.07217171392423971,0.9404297879574275,0.39102724439061265,0.0780741866864827,0.06771959099894276,-0.9975803446781091,-0.49105492161686537,-0.07319432539379478,0.33436235161306427,0.7237738974234518,-0.6315239500441261,-0.5571353856830972,0.6638312986108272,-0.20420149562844325,0.15229036356953451,0.25892448993935435
26.299843809481494,-0.7376892557305388,-0.40567185804520944,0.5149235372205834,-0.13001229251655388,0.16953176766951272,0.707088081293793,-0.204262256310767,0.026854383850682284,0.4240821179791543,-0.45479220154400135,-0.24295923816816423,-0.5477185170060368,-0.4727401598359977,-0.2330273308682489,-0.7775320967827466,-0.41124506961273277,0.37964495177478064,0.05980938912779532,-0.9134610327295458,0.6765419526167165,0.33145094883156,-0.8665276236445063,0.6624353447665323,0.8182786759325082,-0.2007569254277377,-0.49686292196905835,-0.23442931650614174,-0.34990492395552164,-0.47854487875199836,0.7626291300461885,0.7565140900841976,0.9279783008313729,-0.736147448098331,0.981430305064682,0.3581879622527693,0.11574246804076305,-0.9449908995382821,-0.2723418153354744,-0.495930169194186,0.4174324374129983,-0.7111939372909357,-0.5766898983675619,0.8561627211073626,-0.7045078821537618,-0.7953086682086541,-0.48840788076347574,-0.4800164124084074,-0.6996967079435905,-0.39223745932633713,0.7499823818378426,-0.5789357384265499,-0.36388060902516406,-0.3672733809073965,-0.678725076014856,-0.16573049496869086,0.13718682400985838,0.7647321506365024,-0.06023088638807694,-0.7754650713946538,0.6733488600506297,-0.7536254725847995,0.19738417275400688,0.02969305332284966,-0.7820437061246466,0.12822351139528387,-0.42034598467837947,0.034074038921239946,-0.6518313668700102,-0.4696807444368205,0.4068783170307366,0.19267114735020607,0.423859229853802,-0.6522795286414798,0.12843343829176734,-0.291435027507738,-0.5568450738340296,-0.8854891637079108,0.8311987316487657,-0.2654336660797316,0.32621939778287334,0.4585547078904808,0.20165092436625387,-0.19459124419242801,0.7133112348517736,-0.5995488186947147,-0.10843745251057157,-0.7512810980805318,-0.634684403100668,-0.8176457661423633,0.2854079938484526,-0.10771051313824209,-0.193420064049862,-0.26650342926391923,-0.9039389535344913,0.8491812021895504,0.9063134652423961,0.21539895827633115,0.43187264224446653,-0.7269354579606575,0.4797514211905143,-0.33403456366171835,0.7983458855777541,0.7542420414703856,0.44321256965471023,-0.261543168559198,-0.7993757651442135,-0.47751393131519526,-0.7156791353022391,-0.209828553728993,-0.9809147722303444,-0.5699615976415515,0.8228420278496857,0.19574982206741298,-0.7884315144266807,-0.37363362003321887,-0.39825791273759337,0.5369841702336338,-0.058070097429421486,0.7311625245927418,-0.24384705894879644,-0.6037092963392707,-0.3973059389268849,0.24885316331771268,0.6437385090789429,0.32636011859154745,-0.8580594877541159,-0.10701577773969895,-0.6000906330669753,0.42706972281878675,0.7633013638898463,0.9321271934357096,-0.3888933918825428,-0.161451954423792,-0.057189150045875214,-0.45696101017905555,0.843657040228595,-0.9288414219176788,-0.015650102665515586,-0.33047306082693995,-0.36231681262917204,0.2627467078356369,0.5547089298291887,0.4408841929722209,0.6086939848635962,-0.4518625740458684,-0.9580845833117546,-0.691767694103784,-0.26122865408259965,0.27648102419229015,0.5204656928309088,-0.24475395165137126,0.9107916018608349,0.488987740533791,-0.3770284653363425,-0.3450398448561427,-0.9806975607715203,-0.5411825902366194,-0.8379527016830846,0.9860447619691834,-0.10511241874154797,0.8953372846842167,-0.29508486394490885,0.9362517106178585,-0.610401659573643,0.2521092486597405,0.92517186314763,-0.18278712922503604,-0.14418106321812618,-0.35792039090395855,-0.7642624074849746,0.5840353738437647,0.5624509019536812,0.07546737669960768,-0.9806157720233288,-0.7972714622592898,-0.4744127362802337,-0.7338532184210826,0.013611218169308659,-0.30070628363105767,-0.9449405079827595,0.8368742202519579,0.8974282324912215,-0.09669085319943949,0.6532632211779195,-0.2633154219766711,-0.02351111422895258,0.9632839075713349,0.7708700024358333,0.06334807315944446,-0.34439442521804686,0.2187748643904861,-0.8745124501761916,0.023908533605919713,0.15218779074922528,0.7712387265206351,-0.6856572233522769,-0.5551623439432329,-0.04470757838892658,0.43103644567644195,-0.5839418326780137,0.16678068686144498,-0.16611722782313132,0.6310401149993237,-0.22391528331434896,-0.26582956868099084,-0.30213647184419523,-0.7956088330051736,-0.805162812578196,0.03890121158705662,-0.3974727160383573,-0.2217352058260864,0.08273187797157378,0.5019132938703692,0.10685526732850814,0.7314921946459298,0.7775204469520591,0.4633061457677725,0.4466198896953124,0.5167039146822674,-0.1457249098288671,-0.18099051081516482,0.7044095720431076,-0.8303002808579101,0.917050244122839,0.645660665744568,-0.19291865369632544,0.3953363856993142,-0.7291775083365934,0.054096834320339626,-0.17197651340135534,-0.009435668181640988,-0.2552177437782108,0.9635847436798242,-0.027561960632710658,-0.38873413739587015,0.799587513316881,-0.9176964955827944,0.8606405227670453,0.2091217388122737,0.9827456800062713,0.3870887333286688,-0.53755105942774,0.1883782517638508,0.9906657811257786,-0.08710177004959352,-0.23797084245631717,0.11443501424239932,-0.13969479224791193,0.6870103984438192,-0.07217171392423971,0.9404297879574275,0.39102724439061265,0.0780741866864827,0.06771959099894276,-0.9975803446781091,-0.49105492161686537,-0.07319432539379478,0.33436235161306427,0.7237738974234518,-0.6315239500441261,-0.5571353856830972,0.6638312986108272,-0.20420149562844325,0.15229036356953451,0.25892448993935435
26.299843809481494,-0.7376892557305388,-0.40567185804520944,0.5149235372205834,-0.13001229251655388,0.16953176766951272,0.707088081293793,-0.204262256310767,0.026854383850682284,0.4240821179791543,-0.45479220154400135,-0.24295923816816423,-0.5477185170060368,-0.4727401598359977,-0.2330273308682489,-0.7775320967827466,-0.41124506961273277,0.37964495177478064,0.05980938912779532,-0.9134610327295458,0.6765419526167165,0.33145094883156,-0.8665276236445063,0.6624353447665323,0.8182786759325082,-0.2007569254277377,-0.49686292196905835,-0.23442931650614174,-0.34990492395552164,-0.47854487875199836,0.7626291300461885,0.7565140900841976,0.9279783008313729,-0.736147448098331,0.981430305064682,0.3581879622527693,0.11574246804076305,-0.9449908995382821,-0.2723418153354744,-0.495930169194186,0.4174324374129983,-0.7111939372909357,-0.5766898983675619,0.8561627211073626,-0.7045078821537618,-0.7953086682086541,-0.48840788076347574,-0.4800164124084074,-0.6996967079435905,-0.39223745932633713,0.7499823818378426,-0.5789357384265499,-0.36388060902516406,-0.3672733809073965,-0.678725076014856,-0.16573049496869086,0.13718682400985838,0.7647321506365024,-0.06023088638807694,-0.7754650713946538,0.6733488600506297,-0.7536254725847995,0.19738417275400688,0.02969305332284966,-0.7820437061246466,0.12822351139528387,-0.42034598467837947,0.034074038921239946,-0.6518313668700102,-0.4696807444368205,0.4068783170307366,0.19267114735020607,0.423859229853802,-0.6522795286414798,0.12843343829176734,-0.291435027507738,-0.5568450738340296,-0.8854891637079108,0.8311987316487657,-0.2654336660797316,0.32621939778287334,0.4585547078904808,0.20165092436625387,-0.19459124419242801,0.7133112348517736,-0.5995488186947147,-0.10843745251057157,-0.7512810980805318,-0.634684403100668,-0.8176457661423633,0.2854079938484526,-0.10771051313824209,-0.193420064049862,-0.26650342926391923,-0.9039389535344913,0.8491812021895504,0.9063134652423961,0.21539895827633115,0.43187264224446653,-0.7269354579606575,0.4797514211905143,-0.33403456366171835,0.7983458855777541,0.7542420414703856,0.44321256965471023,-0.261543168559198,-0.7993757651442135,-0.47751393131519526,-0.7156791353022391,-0.209828553728993,-0.9809147722303444,-0.5699615976415515,0.8228420278496857,0.19574982206741298,-0.7884315144266807,-0.37363362003321887,-0.39825791273759337,0.5369841702336338,-0.058070097429421486,0.7311625245927418,-0.24384705894879644,-0.6037092963392707,-0.3973059389268849,0.24885316331771268,0.6437385090789429,0.32636011859154745,-0.8580594877541159,-0.10701577773969895,-0.6000906330669753,0.42706972281878675,0.7633013638898463,0.9321271934357096,-0.3888933918825428,-0.161451954423792,-0.057189150045875214,-0.45696101017905555,0.843657040228595,-0.9288414219176788,-0.015650102665515586,-0.33047306082693995,-0.36231681262917204,0.2627467078356369,0.5547089298291887,0.4408841929722209,0.6086939848635962,-0.4518625740458684,-0.9580845833117546,-0.691767694103784,-0.26122865408259965,0.27648102419229015,0.5204656928309088,-0.24475395165137126,0.9107916018608349,0.488987740533791,-0.3770284653363425,-0.3450398448561427,-0.9806975607715203,-0.5411825902366194,-0.8379527016830846,0.9860447619691834,-0.10511241874154797,0.8953372846842167,-0.29508486394490885,0.9362517106178585,-0.610401659573643,0.2521092486597405,0.92517186314763,-0.18278712922503604,-0.14418106321812618,-0.35792039090395855,-0.7642624074849746,0.5840353738437647,0.5624509019536812,0.07546737669960768,-0.9806157720233288,-0.7972714622592898,-0.4744127362802337,-0.7338532184210826,0.013611218169308659,-0.30070628363105767,-0.9449405079827595,0.8368742202519579,0.8974282324912215,-0.09669085319943949,0.6532632211779195,-0.2633154219766711,-0.02351111422895258,0.9632839075713349,0.7708700024358333,0.06334807315944446,-0.34439442521804686,0.2187748643904861,-0.8745124501761916,0.023908533605919713,0.15218779074922528,0.7712387265206351,-0.6856572233522769,-0.5551623439432329,-0.04470757838892658,0.43103644567644195,-0.5839418326780137,0.16678068686144498,-0.16611722782313132,0.6310401149993237,-0.22391528331434896,-0.26582956868099084,-0.30213647184419523,-0.7956088330051736,-0.805162812578196,0.03890121158705662,-0.3974727160383573,-0.2217352058260864,0.08273187797157378,0.5019132938703692,0.10685526732850814,0.7314921946459298,0.7775204469520591,0.4633061457677725,0.4466198896953124,0.5167039146822674,-0.1457249098288671,-0.18099051081516482,0.7044095720431076,-0.8303002808579101,0.917050244122839,0.645660665744568,-0.19291865369632544,0.3953363856993142,-0.7291775083365934,0.054096834320339626,-0.17197651340135534,-0.009435668181640988,-0.2552177437782108,0.9635847436798242,-0.027561960632710658,-0.38873413739587015,0.799587513316881,-0.9176964955827944,0.8606405227670453,0.2091217388122737,0.9827456800062713,0.3870887333286688,-0.53755105942774,0.1883782517638508,0.9906657811257786,-0.08710177004959352,-0.23797084245631717,0.11443501424239932,-0.13969479224791193,0.6870103984438192,-0.07217171392423971,0.9404297879574275,0.39102724439061265,0.0780741866864827,0.06771959099894276,-0.9975803446781091,-0.49105492161686537,-0.07319432539379478,0.33436235161306427,0.7237738974234518,-0.6315239500441261,-0.5571353856830972,0.6638312986108272,-0.20420149562844325,0.15229036356953451,0.25892448993935435
26.299843809481494,-0.7376892557305388,-0.40567185804520944,0.5149235372205834,-0.13001229251655388,0.16953176766951272,0.707088081293793,-0.204262256310767,0.026854383850682284,0.4240821179791543,-0.45479220154400135,-0.24295923816816423,-0.5477185170060368,-0.4727401598359977,-0.2330273308682489,-0.7775320967827466,-0.41124506961273277,0.37964495177478064,0.05980938912779532,-0.9134610327295458,0.6765419526167165,0.33145094883156,-0.8665276236445063,0.6624353447665323,0.8182786759325082,-0.2007569254277377,-0.49686292196905835,-0.23442931650614174,-0.34990492395552164,-0.47854487875199836,0.7626291300461885,0.7565140900841976,0.9279783008313729,-0.736147448098331,0.981430305064682,0.3581879622527693,0.11574246804076305,-0.9449908995382821,-0.2723418153354744,-0.495930169194186,0.4174324374129983,-0.7111939372909357,-0.5766898983675619,0.8561627211073626,-0.7045078821537618,-0.7953086682086541,-0.48840788076347574,-0.4800164124084074,-0.6996967079435905,-0.39223745932633713,0.7499823818378426,-0.5789357384265499,-0.36388060902516406,-0.3672733809073965,-0.678725076014856,-0.16573049496869086,0.13718682400985838,0.7647321506365024,-0.06023088638807694,-0.7754650713946538,0.6733488600506297,-0.7536254725847995,0.19738417275400688,0.02969305332284966,-0.7820437061246466,0.12822351139528387,-0.42034598467837947,0.034074038921239946,-0.6518313668700102,-0.4696807444368205,0.4068783170307366,0.19267114735020607,0.423859229853802,-0.6522795286414798,0.12843343829176734,-0.291435027507738,-0.5568450738340296,-0.8854891637079108,0.8311987316487657,-0.2654336660797316,0.32621939778287334,0.4585547078904808,0.20165092436625387,-0.19459124419242801,0.7133112348517736,-0.5995488186947147,-0.10843745251057157,-0.7512810980805318,-0.634684403100668,-0.8176457661423633,0.2854079938484526,-0.10771051313824209,-0.193420064049862,-0.26650342926391923,-0.9039389535344913,0.8491812021895504,0.9063134652423961,0.21539895827633115,0.43187264224446653,-0.7269354579606575,0.4797514211905143,-0.33403456366171835,0.7983458855777541,0.7542420414703856,0.44321256965471023,-0.261543168559198,-0.7993757651442135,-0.47751393131519526,-0.7156791353022391,-0.209828553728993,-0.9809147722303444,-0.5699615976415515,0.8228420278496857,0.19574982206741298,-0.7884315144266807,-0.37363362003321887,-0.39825791273759337,0.5369841702336338,-0.058070097429421486,0.7311625245927418,-0.24384705894879644,-0.6037092963392707,-0.3973059389268849,0.24885316331771268,0.6437385090789429,0.32636011859154745,-0.8580594877541159,-0.10701577773969895,-0.6000906330669753,0.42706972281878675,0.7633013638898463,0.9321271934357096,-0.3888933918825428,-0.161451954423792,-0.057189150045875214,-0.45696101017905555,0.843657040228595,-0.9288414219176788,-0.015650102665515586,-0.33047306082693995,-0.36231681262917204,0.2627467078356369,0.5547089298291887,0.4408841929722209,0.6086939848635962,-0.4518625740458684,-0.9580845833117546,-0.691767694103784,-0.26122865408259965,0.27648102419229015,0.5204656928309088,-0.24475395165137126,0.9107916018608349,0.488987740533791,-0.3770284653363425,-0.3450398448561427,-0.9806975607715203,-0.5411825902366194,-0.8379527016830846,0.9860447619691834,-0.10511241874154797,0.8953372846842167,-0.29508486394490885,0.9362517106178585,-0.610401659573643,0.2521092486597405,0.92517186314763,-0.18278712922503604,-0.14418106321812618,-0.35792039090395855,-0.7642624074849746,0.5840353738437647,0.5624509019536812,0.07546737669960768,-0.9806157720233288,-0.7972714622592898,-0.4744127362802337,-0.7338532184210826,0.013611218169308659,-0.30070628363105767,-0.9449405079827595,0.8368742202519579,0.8974282324912215,-0.09669085319943949,0.6532632211779195,-0.2633154219766711,-0.02351111422895258,0.9632839075713349,0.7708700024358333,0.06334807315944446,-0.34439442521804686,0.2187748643904861,-0.8745124501761916,0.023908533605919713,0.15218779074922528,0.7712387265206351,-0.6856572233522769,-0.5551623439432329,-0.04470757838892658,0.43103644567644195,-0.5839418326780137,0.16678068686144498,-0.16611722782313132,0.6310401149993237,-0.22391528331434896,-0.26582956868099084,-0.30213647184419523,-0.7956088330051736,-0.805162812578196,0.03890121158705662,-0.3974727160383573,-0.2217352058260864,0.08273187797157378,0.5019132938703692,0.10685526732850814,0.7314921946459298,0.7775204469520591,0.4633061457677725,0.4466198896953124,0.5167039146822674,-0.1457249098288671,-0.18099051081516482,0.7044095720431076,-0.8303002808579101,0.917050244122839,0.645660665744568,-0.19291865369632544,0.3953363856993142,-0.7291775083365934,0.054096834320339626,-0.17197651340135534,-0.009435668181640988,-0.2552177437782108,0.9635847436798242,-0.027561960632710658,-0.38873413739587015,0.799587513316881,-0.9176964955827944,0.8606405227670453,0.2091217388122737,0.9827456800062713,0.3870887333286688,-0.53755105942774,0.1883782517638508,0.9906657811257786,-0.08710177004959352,-0.23797084245631717,0.11443501424239932,-0.13969479224791193,0.6870103984438192,-0.07217171392423971,0.9404297879574275,0.39102724439061265,0.0780741866864827,0.06771959099894276,-0.9975803446781091,-0.49105492161686537,-0.07319432539379478,0.33436235161306427,0.7237738974234518,-0.6315239500441261,-0.5571353856830972,0.6638312986108272,-0.20420149562844325,0.15229036356953451,0.25892448993935435
28.393778996582885,-0.7376892557305388,-0.40567185804520944,0.5149235372205834,-0.13001229251655388,0.16953176766951272,0.707088081293793,-0.204262256310767,0.026854383850682284,0.4240821179791543,-0.45479220154400135,-0.24295923816816423,-0.5477185170060368,-0.4727401598359977,-0.2330273308682489,-0.7775320967827466,-0.41124506961273277,0.37964495177478064,0.05980938912779532,-0.9134610327295458,0.6765419526167165,0.33145094883156,-0.8665276236445063,0.6624353447665323,0.8182786759325082,-0.2007569254277377,-0.49686292196905835,-0.23442931650614174,-0.34990492395552164,-0.47854487875199836,0.7626291300461885,0.7565140900841976,0.9279783008313729,-0.736147448098331,0.981430305064682,0.31221047974321636,0.11574246804076305,0.5155647772662943,-0.2723418153354744,-0.495930169194186,0.4174324374129983,-0.7111939372909357,-0.5766898983675619,0.8561627211073626,-0.7045078821537618,-0.7953086682086541,-0.9997680545848702,-0.4800164124084074,-0.6996967079435905,-0.39223745932633713,0.7499823818378426,-0.5789357384265499,-0.36388060902516406,-0.3672733809073965,-0.678725076014856,-0.16573049496869086,0.13718682400985838,0.7647321506365024,-0.06023088638807694,-0.7754650713946538,0.6733488600506297,-0.7536254725847995,0.19738417275400688,0.02969305332284966,-0.7820437061246466,0.12822351139528387,-0.42034598467837947,0.034074038921239946,-0.6518313668700102,-0.4696807444368205,0.4068783170307366,0.19267114735020607,0.423859229853802,-0.6522795286414798,0.12843343829176734,-0.291435027507738,-0.5568450738340296,-0.8854891637079108,0.8311987316487657,-0.2654336660797316,0.32621939778287334,0.4585547078904808,0.20165092436625387,-0.19459124419242801,0.7133112348517736,-0.5995488186947147,-0.10843745251057157,-0.7512810980805318,-0.634684403100668,-0.8176457661423633,0.2854079938484526,-0.10771051313824209,-0.193420064049862,-0.26650342926391923,-0.9039389535344913,0.8491812021895504,0.9063134652423961,0.21539895827633115,0.43187264224446653,-0.7269354579606575,0.4797514211905143,-0.33403456366171835,0.7983458855777541,0.7542420414703856,0.44321256965471023,-0.261543168559198,-0.7993757651442135,-0.47751393131519526,-0.7156791353022391,-0.209828553728993,-0.9809147722303444,-0.5699615976415515,0.8228420278496857,0.19574982206741298,-0.7884315144266807,-0.37363362003321887,-0.39825791273759337,0.5369841702336338,-0.058070097429421486,0.7311625245927418,-0.24384705894879644,-0.6037092963392707,-0.3973059389268849,-0.40010466579745896,0.6437385090789429,0.32636011859154745,-0.8580594877541159,-0.10701577773969895,-0.6000906330669753,0.42706972281878675,0.7633013638898463,0.9321271934357096,-0.3888933918825428,-0.161451954423792,-0.057189150045875214,-0.45696101017905555,0.843657040228595,0.8038306307535108,-0.015650102665515586,-0.1418002274619703,-0.36231681262917204,0.2627467078356369,0.5547089298291887,0.4408841929722209,-0.1012818843707779,-0.4518625740458684,-0.9580845833117546,-0.9019286590114173,-0.26122865408259965,0.27648102419229015,0.5204656928309088,-0.24475395165137126,0.9107916018608349,0.488987740533791,-0.3770284653363425,-0.3450398448561427,-0.9806975607715203,-0.5411825902366194,-0.8379527016830846,0.9860447619691834,-0.10511241874154797,0.8953372846842167,-0.29508486394490885,0.46814632252431565,-0.610401659573643,0.2521092486597405,0.7189968256591153,-0.18278712922503604,-0.14418106321812618,-0.35792039090395855,-0.9822062520029706,0.5840353738437647,0.5624509019536812,0.07546737669960768,-0.9806157720233288,-0.7972714622592898,-0.4744127362802337,-0.7338532184210826,0.013611218169308659,-0.30070628363105767,-0.9449405079827595,0.8368742202519579,0.8974282324912215,-0.09669085319943949,0.6532632211779195,-0.2633154219766711,-0.02351111422895258,0.9632839075713349,0.7708700024358333,0.06334807315944446,-0.34439442521804686,0.2187748643904861,-0.8745124501761916,0.023908533605919713,0.15218779074922528,0.7712387265206351,-0.6856572233522769,-0.5551623439432329,-0.04470757838892658,0.43103644567644195,-0.5839418326780137,0.16678068686144498,-0.16611722782313132,0.6310401149993237,-0.22391528331434896,-0.26582956868099084,-0.30213647184419523,-0.7956088330051736,-0.805162812578196,0.03890121158705662,-0.3974727160383573,-0.2217352058260864,0.08273187797157378,0.5019132938703692,0.10685526732850814,0.7314921946459298,0.7775204469520591,-0.39501707514621476,0.4466198896953124,0.5167039146822674,-0.1457249098288671,-0.18099051081516482,0.7044095720431076,-0.8303002808579101,0.917050244122839,0.645660665744568,-0.19291865369632544,0.3953363856993142,-0.7291775083365934,0.054096834320339626,-0.17197651340135534,-0.009435668181640988,-0.2552177437782108,0.9635847436798242,-0.027561960632710658,-0.38873413739587015,0.799587513316881,-0.9176964955827944,0.8606405227670453,0.2091217388122737,0.9827456800062713,0.3870887333286688,-0.53755105942774,0.1883782517638508,0.9906657811257786,-0.08710177004959352,-0.23797084245631717,0.11443501424239932,-0.13969479224791193,0.6870103984438192,-0.07217171392423971,0.9404297879574275,0.39102724439061265,0.0780741866864827,0.06771959099894276,-0.9975803446781091,-0.49105492161686537,-0.07319432539379478,0.33436235161306427,0.7237738974234518,-0.6315239500441261,-0.5571353856830972,0.6638312986108272,-0.20420149562844325,0.15229036356953451,0.25892448993935435
28.393778996582885,-0.7376892557305388,-0.40567185804520944,0.5149235372205834,-0.13001229251655388,0.16953176766951272,0.707088081293793,-0.204262256310767,0.026854383850682284,0.4240821179791543,-0.45479220154400135,-0.24295923816816423,-0.5477185170060368,-0.4727401598359977,-0.2330273308682489,-0.7775320967827466,-0.41124506961273277,0.37964495177478064,0.05980938912779532,-0.9134610327295458,0.6765419526167165,0.33145094883156,-0.8665276236445063,0.6624353447665323,0.8182786759325082,-0.2007569254277377,-0.49686292196905835,-0.23442931650614174,-0.34990492395552164,-0.47854487875199836,0.7626291300461885,0.7565140900841976,0.9279783008313729,-0.736147448098331,0.981430305064682,0.31221047974321636,0.11574246804076305,0.5155647772662943,-0.2723418153354744,-0.495930169194186,0.4174324374129983,-0.7111939372909357,-0.5766898983675619,0.8561627211073626,-0.7045078821537618,-0.7953086682086541,-0.9997680545848702,-0.4800164124084074,-0.6996967079435905,-0.39223745932633713,0.7499823818378426,-0.5789357384265499,-0.36388060902516406,-0.3672733809073965,-0.678725076014856,-0.16573049496869086,0.13718682400985838,0.7647321506365024,-0.06023088638807694,-0.7754650713946538,0.6733488600506297,-0.7536254725847995,0.19738417275400688,0.02969305332284966,-0.7820437061246466,0.12822351139528387,-0.42034598467837947,0.034074038921239946,-0.6518313668700102,-0.4696807444368205,0.4068783170307366,0.19267114735020607,0.423859229853802,-0.6522795286414798,0.12843343829176734,-0.291435027507738,-0.5568450738340296,-0.8854891637079108,0.8311987316487657,-0.2654336660797316,0.32621939778287334,0.4585547078904808,0.20165092436625387,-0.19459124419242801,0.7133112348517736,-0.5995488186947147,-0.10843745251057157,-0.7512810980805318,-0.634684403100668,-0.8176457661423633,0.2854079938484526,-0.10771051313824209,-0.193420064049862,-0.26650342926391923,-0.9039389535344913,0.8491812021895504,0.9063134652423961,0.21539895827633115,0.43187264224446653,-0.7269354579606575,0.4797514211905143,-0.33403456366171835,0.7983458855777541,0.7542420414703856,0.44321256965471023,-0.261543168559198,-0.7993757651442135,-0.47751393131519526,-0.7156791353022391,-0.209828553728993,-0.9809147722303444,-0.5699615976415515,0.8228420278496857,0.19574982206741298,-0.7884315144266807,-0.37363362003321887,-0.39825791273759337,0.5369841702336338,-0.058070097429421486,0.7311625245927418,-0.24384705894879644,-0.6037092963392707,-0.3973059389268849,-0.40010466579745896,0.6437385090789429,0.32636011859154745,-0.8580594877541159,-0.10701577773969895,-0.6000906330669753,0.42706972281878675,0.7633013638898463,0.9321271934357096,-0.3888933918825428,-0.161451954423792,-0.057189150045875214,-0.45696101017905555,0.843657040228595,0.8038306307535108,-0.015650102665515586,-0.1418002274619703,-0.36231681262917204,0.2627467078356369,0.5547089298291887,0.4408841929722209,-0.1012818843707779,-0.4518625740458684,-0.9580845833117546,-0.9019286590114173,-0.26122865408259965,0.27648102419229015,0.5204656928309088,-0.24475395165137126,0.9107916018608349,0.488987740533791,-0.3770284653363425,-0.3450398448561427,-0.9806975607715203,-0.5411825902366194,-0.8379527016830846,0.9860447619691834,-0.10511241874154797,0.8953372846842167,-0.29508486394490885,0.46814632252431565,-0.610401659573643,0.2521092486597405,0.7189968256591153,-0.18278712922503604,-0.14418106321812618,-0.35792039090395855,-0.9822062520029706,0.5840353738437647,0.5624509019536812,0.07546737669960768,-0.9806157720233288,-0.7972714622592898,-0.4744127362802337,-0.7338532184210826,0.013611218169308659,-0.30070628363105767,-0.9449405079827595,0.8368742202519579,0.8974282324912215,-0.09669085319943949,0.6532632211779195,-0.2633154219766711,-0.02351111422895258,0.9632839075713349,0.7708700024358333,0.06334807315944446,-0.34439442521804686,0.2187748643904861,-0.8745124501761916,0.023908533605919713,0.15218779074922528,0.7712387265206351,-0.6856572233522769,-0.5551623439432329,-0.04470757838892658,0.43103644567644195,-0.5839418326780137,0.16678068686144498,-0.16611722782313132,0.6310401149993237,-0.22391528331434896,-0.26582956868099084,-0.30213647184419523,-0.7956088330051736,-0.805162812578196,0.03890121158705662,-0.3974727160383573,-0.2217352058260864,0.08273187797157378,0.5019132938703692,0.10685526732850814,0.7314921946459298,0.7775204469520591,-0.39501707514621476,0.4466198896953124,0.5167039146822674,-0.1457249098288671,-0.18099051081516482,0.7044095720431076,-0.8303002808579101,0.917050244122839,0.645660665744568,-0.19291865369632544,0.3953363856993142,-0.7291775083365934,0.054096834320339626,-0.17197651340135534,-0.009435668181640988,-0.2552177437782108,0.9635847436798242,-0.027561960632710658,-0.38873413739587015,0.799587513316881,-0.9176964955827944,0.8606405227670453,0.2091217388122737,0.9827456800062713,0.3870887333286688,-0.53755105942774,0.1883782517638508,0.9906657811257786,-0.08710177004959352,-0.23797084245631717,0.11443501424239932,-0.13969479224791193,0.6870103984438192,-0.07217171392423971,0.9404297879574275,0.39102724439061265,0.0780741866864827,0.06771959099894276,-0.9975803446781091,-0.49105492161686537,-0.07319432539379478,0.33436235161306427,0.7237738974234518,-0.6315239500441261,-0.5571353856830972,0.6638312986108272,-0.20420149562844325,0.15229036356953451,0.25892448993935435
26.299843809481494,-0.7376892557305388,-0.40567185804520944,0.5149235372205834,-0.13001229251655388,0.16953176766951272,0.707088081293793,-0.204262256310767,0.026854383850682284,0.4240821179791543,-0.45479220154400135,-0.24295923816816423,-0.5477185170060368,-0.4727401598359977,-0.2330273308682489,-0.7775320967827466,-0.41124506961273277,0.37964495177478064,0.05980938912779532,-0.9134610327295458,0.6765419526167165,0.33145094883156,-0.8665276236445063,0.6624353447665323,0.8182786759325082,-0.2007569254277377,-0.49686292196905835,-0.23442931650614174,-0.34990492395552164,-0.47854487875199836,0.7626291300461885,0.7565140900841976,0.9279783008313729,-0.736147448098331,0.981430305064682,0.3581879622527693,0.11574246804076305,-0.9449908995382821,-0.2723418153354744,-0.495930169194186,0.4174324374129983,-0.7111939372909357,-0.5766898983675619,0.8561627211073626,-0.7045078821537618,-0.7953086682086541,-0.48840788076347574,-0.4800164124084074,-0.6996967079435905,-0.39223745932633713,0.7499823818378426,-0.5789357384265499,-0.36388060902516406,-0.3672733809073965,-0.678725076014856,-0.16573049496869086,0.13718682400985838,0.7647321506365024,-0.06023088638807694,-0.7754650713946538,0.6733488600506297,-0.7536254725847995,0.19738417275400688,0.02969305332284966,-0.7820437061246466,0.12822351139528387,-0.42034598467837947,0.034074038921239946,-0.6518313668700102,-0.4696807444368205,0.4068783170307366,0.19267114735020607,0.423859229853802,-0.6522795286414798,0.12843343829176734,-0.291435027507738,-0.5568450738340296,-0.8854891637079108,0.8311987316487657,-0.2654336660797316,0.32621939778287334,0.4585547078904808,0.20165092436625387,-0.19459124419242801,0.7133112348517736,-0.5995488186947147,-0.10843745251057157,-0.7512810980805318,-0.634684403100668,-0.8176457661423633,0.2854079938484526,-0.10771051313824209,-0.193420064049862,-0.26650342926391923,-0.9039389535344913,0.8491812021895504,0.9063134652423961,0.21539895827633115,0.43187264224446653,-0.7269354579606575,0.4797514211905143,-0.33403456366171835,0.7983458855777541,0.7542420414703856,0.44321256965471023,-0.261543168559198,-0.7993757651442135,-0.47751393131519526,-0.7156791353022391,-0.209828553728993,-0.9809147722303444,-0.5699615976415515,0.8228420278496857,0.19574982206741298,-0.7884315144266807,-0.37363362003321887,-0.39825791273759337,0.5369841702336338,-0.058070097429421486,0.7311625245927418,-0.24384705894879644,-0.6037092963392707,-0.3973059389268849,0.24885316331771268,0.6437385090789429,0.32636011859154745,-0.8580594877541159,-0.10701577773969895,-0.6000906330669753,0.42706972281878675,0.7633013638898463,0.9321271934357096,-0.3888933918825428,-0.161451954423792,-0.057189150045875214,-0.45696101017905555,0.843657040228595,-0.9288414219176788,-0.015650102665515586,-0.33047306082693995,-0.36231681262917204,0.2627467078356369,0.5547089298291887,0.4408841929722209,0.6086939848635962,-0.4518625740458684,-0.9580845833117546,-0.691767694103784,-0.26122865408259965,0.27648102419229015,0.5204656928309088,-0.24475395165137126,0.9107916018608349,0.488987740533791,-0.3770284653363425,-0.3450398448561427,-0.9806975607715203,-0.5411825902366194,-0.8379527016830846,0.9860447619691834,-0.10511241874154797,0.8953372846842167,-0.29508486394490885,0.9362517106178585,-0.610401659573643,0.2521092486597405,0.92517186314763,-0.18278712922503604,-0.14418106321812618,-0.35792039090395855,-0.7642624074849746,0.5840353738437647,0.5624509019536812,0.07546737669960768,-0.9806157720233288,-0.7972714622592898,-0.4744127362802337,-0.7338532184210826,0.013611218169308659,-0.30070628363105767,-0.9449405079827595,0.8368742202519579,0.8974282324912215,-0.09669085319943949,0.6532632211779195,-0.2633154219766711,-0.02351111422895258,0.9632839075713349,0.7708700024358333,0.06334807315944446,-0.34439442521804686,0.2187748643904861,-0.8745124501761916,0.023908533605919713,0.15218779074922528,0.7712387265206351,-0.6856572233522769,-0.5551623439432329,-0.04470757838892658,0.43103644567644195,-0.5839418326780137,0.16678068686144498,-0.16611722782313132,0.6310401149993237,-0.22391528331434896,-0.26582956868099084,-0.30213647184419523,-0.7956088330051736,-0.805162812578196,0.03890121158705662,-0.3974727160383573,-0.2217352058260864,0.08273187797157378,0.5019132938703692,0.10685526732850814,0.7314921946459298,0.7775204469520591,0.4633061457677725,0.4466198896953124,0.5167039146822674,-0.1457249098288671,-0.18099051081516482,0.7044095720431076,-0.8303002808579101,0.917050244122839,0.645660665744568,-0.19291865369632544,0.3953363856993142,-0.7291775083365934,0.054096834320339626,-0.17197651340135534,-0.009435668181640988,-0.2552177437782108,0.9635847436798242,-0.027561960632710658,-0.38873413739587015,0.799587513316881,-0.9176964955827944,0.8606405227670453,0.2091217388122737,0.9827456800062713,0.3870887333286688,-0.53755105942774,0.1883782517638508,0.9906657811257786,-0.08710177004959352,-0.23797084245631717,0.11443501424239932,-0.13969479224791193,0.6870103984438192,-0.07217171392423971,0.9404297879574275,0.39102724439061265,0.0780741866864827,0.06771959099894276,-0.9975803446781091,-0.49105492161686537,-0.07319432539379478,0.33436235161306427,0.7237738974234518,-0.6315239500441261,-0.5571353856830972,0.6638312986108272,-0.20420149562844325,0.15229036356953451,0.25892448993935435
27.778222966046368,-0.7376892557305388,-0.3078965380245835,0.5149235372205834,-0.13001229251655388,0.36743492020521984,0.707088081293793,-0.204262256310767,0.026854383850682284,-0.43295771936319527,-0.45479220154400135,-0.24295923816816423,-0.5477185170060368,-0.01720004308237577,-0.13831977843299947,0.25238461541312884,-0.41124506961273277,-0.4564759954205817,-0.16336994343130962,-0.9134610327295458,0.6765419526167165,0.33145094883156,-0.8665276236445063,0.6624353447665323,0.8182786759325082,-0.2007569254277377,-0.49686292196905835,-0.23442931650614174,-0.34990492395552164,-0.47854487875199836,0.7626291300461885,0.7565140900841976,0.9279783008313729,-0.736147448098331,0.981430305064682,0.3581879622527693,0.11574246804076305,0.11113616805602722,-0.2723418153354744,-0.495930169194186,0.4174324374129983,-0.7111939372909357,-0.5766898983675619,-0.1934945159861008,-0.7045078821537618,-0.7953086682086541,-0.48840788076347574,-0.4800164124084074,-0.6996967079435905,-0.39223745932633713,0.7499823818378426,-0.5789357384265499,0.19139319367328245,0.7975585432483165,0.6012947064760523,-0.16573049496869086,0.18887452078248468,0.7647321506365024,-0.19385067618446383,-0.2183767560618073,0.3553027012888337,-0.7536254725847995,0.19738417275400688,0.02969305332284966,-0.7820437061246466,0.12822351139528387,-0.42034598467837947,0.034074038921239946,-0.6518313668700102,-0.4696807444368205,0.4068783170307366,0.19267114735020607,0.423859229853802,-0.6522795286414798,0.12843343829176734,-0.291435027507738,-0.5568450738340296,0.35130559242888704,0.8311987316487657,-0.38389961062982425,0.32621939778287334,0.4585547078904808,0.20165092436625387,-0.3949773170497144,0.7133112348517736,-0.5995488186947147,0.805226309831943,-0.7512810980805318,-0.634684403100668,-0.8176457661423633,0.2854079938484526,-0.10771051313824209,-0.193420064049862,-0.26650342926391923,-0.9039389535344913,0.8491812021895504,0.9063134652423961,0.21539895827633115,-0.6254343938088343,-0.7269354579606575,0.4797514211905143,-0.33403456366171835,0.7983458855777541,0.7542420414703856,0.44321256965471023,-0.261543168559198,-0.7993757651442135,-0.47751393131519526,-0.965871265075178,-0.209828553728993,0.9069641915607685,-0.828583806344031,0.8228420278496857,0.19574982206741298,-0.7884315144266807,-0.37363362003321887,-0.39825791273759337,0.5369841702336338,0.4848816689299156,0.8587901547488248,-0.1885618115955976,-0.6037092963392707,-0.3973059389268849,0.24885316331771268,-0.04664530449613169,0.5159640536778969,-0.4449312599283177,-0.8989647612792315,-0.9207875365570592,-0.4943364179845591,0.42206809521753286,0.37800621778253385,-0.605786298137621,-0.32934042232728866,0.3551728078274565,-0.024178250765123144,-0.29401478647243695,-0.40330912817665254,0.8949009703615864,-0.12782363506262895,0.3564112158107613,0.914914074917001,-0.9221136296109731,0.13014914367073604,-0.1437430503258632,0.875727462554809,-0.4181330350862631,-0.4302564505368549,-0.8290941180565032,-0.44493737679596634,0.7384285621758206,-0.3544356824466188,-0.5717774169728318,-0.1477933984566968,-0.39979058842244153,-0.587803204970796,-0.7041613981173378,0.6395684332057805,0.46274770380095176,0.6314828280956424,0.12691631641034373,-0.3761720734056966,-0.5278223536665769,0.9871549476269865,-0.9884664254689983,-0.24024397358236693,-0.009095656743162595,0.5044276623668524,0.9612274364660005,-0.6057577892859562,-0.48398397787457603,0.9707506565018105,-0.1336534794221691,-0.43927050424967584,-0.973454084275817,-0.611929160426868,-0.2002584916363619,0.3221192441962255,0.7514226458169484,0.047665985061627,0.34001938322341996,-0.8637300214277901,-0.7679424588065433,0.2859349342257096,0.14524264559047562,-0.7840221386471129,-0.06974635185935574,-0.9181936929777441,-0.11427105259867454,0.05614744729976029,-0.809340535657769,0.7564092924378769,-0.272196005252638,-0.10600253773166557,-0.5406944287006032,0.2239823096972502,0.6401748940555605,-0.302971972141572,-0.714348230770059,0.45471555463454316,-0.8825145870165407,-0.08851161308495237,-0.6132429160413664,0.45479791344062015,0.6875768249785112,0.6730034155593234,-0.39004536048226157,0.7709003386863342,-0.10968559920153109,-0.6784043088384621,0.040985359068613336,-0.8562634178260742,-0.26891722443398103,-0.5369739630140047,-0.0749857011493602,0.7314921946459298,0.7775204469520591,-0.343861761650718,0.00024873264836333675,0.5149639715863015,-0.9688750832915525,-0.3650300978926333,-0.806685650831664,-0.4125654110685435,0.8570656565052959,0.8172383452680678,-0.19291865369632544,0.3953363856993142,-0.7291775083365934,0.054096834320339626,-0.17197651340135534,-0.009435668181640988,-0.11709738027664551,0.8348567345623028,-0.027561960632710658,-0.38873413739587015,0.799587513316881,-0.8565495170008366,0.8606405227670453,0.2091217388122737,0.9827456800062713,0.3870887333286688,-0.53755105942774,-0.6153154779010499,0.9906657811257786,0.9268084547286803,-0.012565233264019371,0.062474152624737433,-0.3751662765030148,-0.15022762441728177,0.24677833885842837,0.867974421053378,-0.6199193501434792,-0.3335558516324435,0.44701042818851766,0.9202858864475667,0.5546801976283884,-0.7739158811552755,0.884812037619092,-0.9203001688555466,0.5799126112818156,-0.5571353856830972,0.6638312986108272,-0.20420149562844325,0.15229036356953451,0.25892448993935435
26.463882319335546,-0.7376892557305388,-0.3078965380245835,0.5149235372205834,-0.13001229251655388,0.36743492020521984,0.707088081293793,-0.204262256310767,0.026854383850682284,-0.43295771936319527,-0.45479220154400135,-0.24295923816816423,-0.5477185170060368,-0.01720004308237577,-0.13831977843299947,0.25238461541312884,-0.41124506961273277,-0.4564759954205817,-0.16336994343130962,-0.9134610327295458,0.6765419526167165,0.33145094883156,-0.8665276236445063,0.6624353447665323,0.8182786759325082,-0.2007569254277377,-0.49686292196905835,-0.23442931650614174,-0.34990492395552164,-0.47854487875199836,0.7626291300461885,-0.5737063390315855,0.9279783008313729,-0.736147448098331,0.981430305064682,0.3581879622527693,0.38906601596267354,0.11113616805602722,-0.2723418153354744,-0.495930169194186,0.4174324374129983,-0.7111939372909357,-0.5766898983675619,-0.1934945159861008,-0.7045078821537618,-0.7953086682086541,-0.48840788076347574,-0.4800164124084074,-0.6996967079435905,-0.39223745932633713,0.7499823818378426,-0.5789357384265499,0.728746454737669,0.7975585432483165,0.6012947064760523,-0.16573049496869086,0.18887452078248468,0.7647321506365024,-0.19385067618446383,-0.2183767560618073,0.3553027012888337,-0.7536254725847995,0.19738417275400688,0.02969305332284966,-0.7820437061246466,0.12822351139528387,-0.42034598467837947,0.034074038921239946,-0.6518313668700102,-0.4696807444368205,0.4068783170307366,0.19267114735020607,0.423859229853802,-0.6522795286414798,0.12843343829176734,-0.291435027507738,-0.5568450738340296,0.35130559242888704,0.8311987316487657,-0.38389961062982425,0.32621939778287334,0.4585547078904808,0.20165092436625387,-0.3949773170497144,0.7133112348517736,-0.5995488186947147,0.805226309831943,-0.7512810980805318,-0.634684403100668,-0.8176457661423633,0.2854079938484526,-0.10771051313824209,-0.193420064049862,-0.26650342926391923,-0.9039389535344913,0.8491812021895504,0.9063134652423961,0.21539895827633115,-0.6254343938088343,-0.7269354579606575,0.4797514211905143,-0.33403456366171835,0.7983458855777541,0.7542420414703856,0.44321256965471023,-0.261543168559198,-0.7993757651442135,-0.9612836620436818,-0.965871265075178,-0.209828553728993,0.9069641915607685,-0.828583806344031,0.8228420278496857,0.19574982206741298,-0.7884315144266807,-0.37363362003321887,-0.39825791273759337,0.5369841702336338,0.4848816689299156,0.8587901547488248,-0.1885618115955976,-0.6037092963392707,-0.3973059389268849,0.24885316331771268,-0.04664530449613169,0.5159640536778969,-0.4449312599283177,-0.8989647612792315,-0.9207875365570592,-0.4943364179845591,0.42206809521753286,0.37800621778253385,-0.605786298137621,-0.32934042232728866,0.3551728078274565,-0.024178250765123144,-0.29401478647243695,-0.40330912817665254,0.8949009703615864,-0.12782363506262895,0.3564112158107613,0.914914074917001,-0.9221136296109731,0.13014914367073604,-0.1437430503258632,0.875727462554809,-0.4181330350862631,-0.4302564505368549,0.1730906961766241,-0.44493737679596634,0.7384285621758206,-0.3544356824466188,-0.5717774169728318,-0.1477933984566968,-0.39979058842244153,-0.587803204970796,-0.7041613981173378,0.6395684332057805,0.46274770380095176,0.6314828280956424,0.12691631641034373,-0.3761720734056966,-0.5278223536665769,0.9871549476269865,-0.9884664254689983,-0.24024397358236693,-0.009095656743162595,0.5044276623668524,0.9612274364660005,-0.6057577892859562,-0.48398397787457603,0.9707506565018105,-0.1336534794221691,-0.43927050424967584,-0.973454084275817,-0.611929160426868,-0.2002584916363619,0.3221192441962255,0.7514226458169484,0.047665985061627,0.34001938322341996,-0.8637300214277901,-0.7679424588065433,-0.9955794037214993,0.14524264559047562,-0.7840221386471129,0.26924103126057286,-0.9181936929777441,-0.11427105259867454,0.05614744729976029,-0.809340535657769,0.7564092924378769,-0.272196005252638,-0.10600253773166557,-0.5406944287006032,0.2239823096972502,-0.3834804233200284,-0.302971972141572,-0.714348230770059,0.45471555463454316,-0.8825145870165407,-0.08851161308495237,-0.6132429160413664,0.45479791344062015,0.6875768249785112,-0.813053501158459,-0.39004536048226157,0.25534648765063594,-0.10968559920153109,-0.6784043088384621,0.040985359068613336,-0.8562634178260742,-0.26891722443398103,-0.5369739630140047,-0.0749857011493602,0.7314921946459298,0.7775204469520591,-0.343861761650718,0.00024873264836333675,0.5149639715863015,-0.9688750832915525,-0.3650300978926333,-0.806685650831664,-0.4125654110685435,0.8570656565052959,0.8172383452680678,-0.19291865369632544,0.3953363856993142,-0.7291775083365934,0.054096834320339626,-0.17197651340135534,-0.009435668181640988,-0.11709738027664551,0.8348567345623028,-0.027561960632710658,-0.38873413739587015,0.799587513316881,-0.8565495170008366,0.8606405227670453,0.2091217388122737,0.9827456800062713,0.3870887333286688,-0.53755105942774,-0.6153154779010499,0.9906657811257786,0.9268084547286803,-0.012565233264019371,0.062474152624737433,-0.3751662765030148,-0.15022762441728177,0.24677833885842837,0.867974421053378,-0.6199193501434792,-0.3335558516324435,0.05781279682017404,0.9202858864475667,0.5546801976283884,-0.7739158811552755,0.884812037619092,-0.9203001688555466,0.5799126112818156,-0.5571353856830972,0.6638312986108272,-0.20420149562844325,0.15229036356953451,0.25892448993935435
