6.539056170407020474e-01
-3.586606888091947720e-01
1.526636541110351075e-01
7.976356366065524561e-01
-2.235972727678525729e-01
3.150021343955478059e-02
6.997441617031840977e-02
1.557029899583175503e-01
-3.308111035005132372e-01
-2.379493018429736928e-01
4.959856477909836414e-01
6.328488062766033373e-01
2.280588606570221888e-01
-2.529007932572180373e-02
5.877653573852641422e-01
-8.025325055569099142e-01
3.152844696154586401e-01
4.094687475082541273e-01
1.662067295079379114e-01
-9.351217138568455045e-01
3.463865840245925476e-01
-9.153537246317995368e-01
-7.541633197144701484e-01
9.088456409206235875e-01
7.510323308511237528e-01
3.419153721220145048e-01
-9.111740589340864283e-01
2.355786047530989968e-01
-9.164299332265288811e-01
4.329184923773461424e-01
-7.525992606140539110e-01
-2.306182320895113769e-01
1.374643207431665015e-01
-7.732812288978643256e-01
4.256290408654714863e-01
1.744211523731851177e-01
-2.716801661069472296e-01
8.571177810222954108e-01
2.945533328735852052e-01
-3.832323961684855895e-01
4.089410160794313409e-01
-9.961927454686043681e-01
-1.482370945882194313e-02
7.542229719414259570e-01
4.779395465024451894e-01
2.977059347189858762e-01
-6.609405714633953544e-01
7.967041186088816840e-01
-3.497492904865768804e-01
-1.814061206915211777e-01
8.749763457577817150e-01
-3.897108995084026528e-01
1.132775090728515011e-01
2.774835431527695739e-01
-1.164384996061462729e-02
-7.080908168596713459e-01
6.174337714689668299e-01
-6.359789019575954327e-01
-9.006085650898096873e-01
2.724345204967926204e-01
-8.533148552643987639e-01
-4.580282055773383654e-01
-5.916397964982142987e-01
-7.583631687004728228e-01
6.539375781316445480e-01
-7.375242017997960531e-01
-5.411762293838875415e-01
4.461122747702057634e-01
-2.988583889461500220e-01
1.091169824430029411e-01
1.629491671794949248e-01
-2.989368663838507523e-01
8.270831408566392540e-02
2.385938310178845612e-01
3.950874315158512395e-01
-4.469202530223850278e-01
-8.334881659067132631e-01
-6.069359276003953862e-01
6.192737747781054125e-01
-2.365272965663851590e-01
-7.916018496518988368e-01
-2.948452375005850001e-03
-2.333518083833017176e-01
6.906181339626091820e-01
-1.487074147898332921e-01
2.175201312648789020e-01
-3.887459637397236989e-01
3.306161292663891693e-01
-6.780796066897782914e-01
8.534393521543139904e-01
3.430948577797829913e-01
-3.179366497101980826e-01
-6.335318692308102850e-01
-7.922742362680117445e-01
3.921474750972462342e-01
-3.056131508909696315e-01
1.882278559847696542e-01
-1.143100673960157909e-01
4.218612058658406383e-01
-4.019238314131357015e-02
3.494687350266603154e-01
-3.605717151425731348e-01
-6.627220602829799745e-01
-7.490936219564927612e-01
8.688631464614284816e-01
9.848022644767686629e-01
-8.836948828070791961e-01
-4.384673433628960559e-02
5.540764518143443951e-01
-8.162609844335277920e-02
8.321713226531803898e-01
9.028824927918450705e-01
2.366936126507572791e-01
-3.211965189997003645e-01
6.561447914080613675e-01
7.390434205873857021e-01
-3.033203877252514946e-01
-2.589524303131063299e-01
-4.521418048467795714e-01
9.067888336498002300e-01
-5.837527623709368729e-01
6.797736387685398007e-01
-8.345694591198693502e-01
-2.657413980960974254e-01
-3.968157532463971737e-01
1.917720583643935939e-01
-3.510551312544540892e-02
1.230684614089065931e-01
-2.673005255693656768e-01
2.443256050382971445e-01
-2.154477074972867001e-01
1.494577828382974705e-01
-7.761725922119941945e-01
1.160656799403063655e-01
-4.704333034762453458e-01
5.514243316416562735e-01
-8.657215136065410377e-01
-3.776457244523028223e-01
-3.767441573330885252e-01
-3.453396553112875189e-02
3.277103750991061659e-02
8.229355204584432038e-01
1.740425779176324461e-01
-4.115417198785520370e-01
-4.828842765050902486e-01
8.032940132779309295e-01
1.038939653861010726e-01
-6.603666829847041342e-01
-6.853477832534009551e-01
-3.809315417545899862e-01
-5.519839177771903582e-01
-6.041351850236313936e-01
5.108017558547424120e-01
9.121138155722479102e-01
-4.381396972576419024e-01
4.485020779924342449e-01
3.986588586336252682e-01
-6.307440416236853586e-01
-5.475278346711154320e-01
-8.372996817122979607e-02
-9.995188459740014242e-01
-1.102529763774029448e-02
4.765831362083212674e-01
-8.841757176599005508e-01
6.156479945108261909e-02
-2.362745882240397943e-01
-5.560700147632129386e-01
-4.321970243705823833e-01
7.807132300748937936e-01
-2.226026602196955473e-01
6.032331974370948036e-01
1.212476307459322555e-01
-9.098549567727534093e-01
5.098893450819628193e-01
-4.678067287697622589e-01
5.726752444811562537e-01
-6.455207129187026105e-01
-2.640516056060417949e-01
-1.994330867196343338e-01
1.480639363857505497e-01
-4.372758604119011405e-01
-8.643678061246400368e-01
-7.839134929145694652e-01
3.190555508458274847e-01
-4.152623239522654774e-01
3.899391740682074392e-01
-7.480971419041164694e-01
-2.945467585687779888e-01
-4.760562276372881652e-01
-5.422450057152110592e-01
7.466636582356400709e-01
1.589492364198634711e-01
1.602268960490398353e-01
-6.210412935964331194e-01
-2.282611580194586764e-01
-7.544108658840436021e-01
7.875108675542814574e-01
9.905006553665418600e-02
-9.414251885158075872e-01
7.738730814263630187e-01
-2.323908023872947037e-01
-4.910863927405897389e-01
-1.107038948508825005e-01
-8.021236917744347661e-01
4.273198634110508820e-02
-3.921426611167471155e-01
-9.557865120853792362e-01
-2.605645086438634905e-01
2.985400646587743623e-01
-6.277722303711148477e-01
6.923617985206687031e-02
4.552553491017206078e-01
3.438698640621211666e-01
9.801897015925891132e-01
2.516159571159424235e-01
8.534790786119765826e-01
9.135361589721835429e-01
1.127134030741616666e-01
3.757160772120182735e-02
3.707559915348030977e-01
-9.829683673750757578e-01
4.288792174689537440e-02
5.041237923248398367e-01
-1.758553927311850007e-01
-6.191867275691054218e-01
-1.964206279006193157e-01
-6.070485379942209825e-01
-5.071986082844230914e-01
5.003591069295154625e-02
7.310055055823894143e-02
-1.062759795135626018e-01
4.096418145907740893e-01
-1.868971125485281437e-01
9.327088300410295574e-01
-9.924843019841467218e-01
-4.537421687690954553e-01
-4.506657700851799397e-01
2.707449454554864410e-01
9.005919432778388689e-01
-6.131598557897539603e-01
-8.158762237659251682e-01
-8.361491406948911020e-01
3.790516864663784347e-02
-8.315765266910883913e-01
5.138780643907845391e-01
-6.972224771014647882e-01
8.170251509701587089e-02
-3.051239300207857497e-01
9.347291769772541059e-01
-3.495142403071571646e-01
3.059806648528273776e-01
-6.436287863091987305e-01
8.660337480964948043e-01
3.858109617599394525e-01
6.606531720480606218e-01
7.655011021766986445e-01
-4.375541984376751792e-01
-3.721066447488627915e-01
3.459173423216488352e-01
-8.277583191206474567e-01
-7.133340560703311795e-01
-8.497496850729180373e-01
-2.870754375972162098e-01
-4.576562672145434441e-02
-3.715023971730357921e-01
