16.453420100237388,-0.43851406226373113,-0.40419637667747277,0.1787884304994205,0.3184086872707599,0.744073036574195,0.0032538335856466816,0.47088702021496154,0.7463914556233209,-0.9254377990793528,-0.46802498535495474,-0.004044033934274216,0.8788881193321547,0.6105947794865934,-0.9729092740297645,0.281278186455727,0.49293928012086674,0.09449675776461275,-0.5407076607733385,-0.9290032451504919,-0.71180046950918,0.12521818863536693,-0.6594172054665366,-0.8000508137299778,-0.05557131629377565,-0.728807030732392,-0.6520546833789327,0.6398938271046855,0.8076751585191022,-0.1880336596934966,0.6091452575504794,0.39415515980866167,0.1502259801542678,-0.809992244413066,0.426006074490592,-0.003866144284969897,0.5838698075457185,0.5993793284290663,-0.22630142957128085,-0.33105583295932095,-0.6929856867253641,-0.34149463850409667,0.6704327791938411,0.6650598909952241,-0.8212141029247131,0.6930178891233791,0.027717327666011204,0.9630334409517005,0.16453869769752294,0.39852574833509746,0.8780539290019671,-0.472638214545249,0.19335583974682113,0.8040549358906723,-0.5184909815638246,0.2774936881176482,-0.07788820213510506,0.019467112050986835,0.9116835348998731,-0.08964841823612746,0.8063146157784382,-0.9141909298917439,-0.4798716567163481,0.13197829293493624,0.6292707975775715,0.03428351208259239,-0.37706037278041316,-0.15076028297528143,0.6064555820046436,-0.9007546677084703,-0.7997301358633304,0.6926728574927239,0.3167024400415086,-0.5794780632639773,0.8823928010566378,0.18777098818060534,0.5520425525698716,-0.2864722104700923,-0.2871715119168958,-0.49048974893551645,-0.5384859006933425,0.24900240315750843,-0.21167285296271876,0.007994336649205014,0.36068723219028986,-0.21990850830425157,0.6861064375422659,-0.5998934178418704,0.14505715550731213,-0.6648161892507867,-0.8995638857926174,-0.3830309927998492,-0.44502014995518024,-0.2792851390116058,-0.025999992592216303,0.46060381821609453,-0.4967070925984096,-0.8492965991012469,-0.3772909858266731,-0.8183450739758622,0.878472333588497,-0.6226886355000469,0.6242819125925694,0.15831959150976727,-0.729115365917431,0.10750333162213987,0.7877217201667428,-0.4597236944218026,0.6006312427515397,-0.17019810882376674,0.1870834169955382,-0.2890062216094702,-0.02530652365754449,0.4924101994542873,-0.984760155893144,-0.7885363226848747,-0.6601773528993626,-0.30621568201529836,0.7310411488397355,0.9065506732097313,-0.43524844979591903,-0.2693044398670228,-0.0351038396076333,-0.2480547472391108,0.19302169898836574,-0.28874176724163636,0.6342673061253827,-0.3163896617878126,-0.2561637923281028,-0.6025606383250472,-0.6090595946352821,0.6838019504416,-0.20264942669670893,-0.8389759239071595,-0.9311532167241767,-0.7513846555355741,-0.16580082815688324,0.15179500809959623,0.9355619821665055,-0.06891979209163646,0.6247370025162731,-0.4776401543925377,0.8532587134022542,-0.4021577423558853,-0.2976924434120707,0.7298445742231288,0.06685902024720614,0.10684400778760228,0.3792597441304819,-0.19419762273374896,-0.09954573326110316,-0.744268774878043,-0.14191403679191295,0.10662678273834403,-0.6570904431753906,-0.012251423569933584,-0.6294100290170375,0.06914577465883442,-0.034197789872306705,-0.24224966712708818,0.979587325869989,0.5647437228766765,0.7715772075846938,0.7878883325478743,-0.11970910559858372,0.054479542482638976,0.10587755460355708,-0.1970754180366352,-0.2760153456635708,0.0448736668299865,0.9996357049928233,-0.03887011862662404,-0.3818223845427753,0.30151534097780286,-0.8995526401958458,0.10867482164390196,0.5453132867780839,0.736728898736764,-0.9471172965882528,0.6925639920971647,-0.4932520658407211,0.2778740793835093,-0.28796036296032446,0.06804814994142405,-0.7663187369204094,0.8290547183421892,0.554950971240636,0.9660371305402298,-0.7535975337863106,-0.34971212377814354,0.6338811096649293,0.6781682048527458,-0.17842489818497853,0.6213113921704911,0.42776760519778967,-0.1558274189778872,-0.5236417477984401,-0.7189355589644562,0.5618839391978736,-0.3177037526081039,-0.1688102317358402,-0.57140251728494,-0.07008283223593303,0.27547361203138343,-0.8125786884180781,0.16738540904753796,0.05568621682971253,-0.04629760891640666,0.4068458864593507,-0.5748364899222627,0.34372452479066906,-0.928607970697412,0.7703297078918145,-0.6506278516757595,0.09126555699912897,0.9982991134455312,0.28475175721214496,0.04427850157322477,-0.8912304037518299,0.7942541385372519,0.3826450610870702,0.7755249295691675,0.8898362383141016,-0.4648657773145397,-0.36975176910880014,-0.635751899305486,0.41092748114254074,0.11400195992921325,-0.1775274751422391,0.9433224170205099,-0.5156145450587666,0.15646691811845548,-0.5767641978604641,-0.007767973197454481,-0.39229871112952486,0.10886157851067524,0.9297522549653623,-0.4523956709944419,0.9865802691900536,0.307950907701773,0.6716432120401896,0.40509523778089007,-0.9173216428788264,-0.4023726729717607,-0.5549822379620932,-0.5877887961086194,-0.4177440622211497,0.24627594250590756,0.006850974323052705,0.883240089196087,0.22134550883733373,0.16536128733689148,0.8822151819704735,0.35187159969807236,-0.00819315178439628,0.4529459431356184,0.9193355985188041,-0.24314520855486954,0.3900912945974244,-0.7048403347764658,-0.9014587147118707,-0.9602764103343424,0.6132004898447454,0.8965982267167278,-0.06842301400520423,0.6455441983923389
16.453420100237388,-0.43851406226373113,-0.40419637667747277,0.1787884304994205,0.3184086872707599,0.744073036574195,0.0032538335856466816,0.47088702021496154,0.7463914556233209,-0.9254377990793528,-0.46802498535495474,-0.004044033934274216,0.8788881193321547,0.6105947794865934,-0.9729092740297645,0.281278186455727,0.49293928012086674,0.09449675776461275,-0.5407076607733385,-0.9290032451504919,-0.71180046950918,0.12521818863536693,-0.6594172054665366,-0.8000508137299778,-0.05557131629377565,-0.728807030732392,-0.6520546833789327,0.6398938271046855,0.8076751585191022,-0.1880336596934966,0.6091452575504794,0.39415515980866167,0.1502259801542678,-0.809992244413066,0.426006074490592,-0.003866144284969897,0.5838698075457185,0.5993793284290663,-0.22630142957128085,-0.33105583295932095,-0.6929856867253641,-0.34149463850409667,0.6704327791938411,0.6650598909952241,-0.8212141029247131,0.6930178891233791,0.027717327666011204,0.9630334409517005,0.16453869769752294,0.39852574833509746,0.8780539290019671,-0.472638214545249,0.19335583974682113,0.8040549358906723,-0.5184909815638246,0.2774936881176482,-0.07788820213510506,0.019467112050986835,0.9116835348998731,-0.08964841823612746,0.8063146157784382,-0.9141909298917439,-0.4798716567163481,0.13197829293493624,0.6292707975775715,0.03428351208259239,-0.37706037278041316,-0.15076028297528143,0.6064555820046436,-0.9007546677084703,-0.7997301358633304,0.6926728574927239,0.3167024400415086,-0.5794780632639773,0.8823928010566378,0.18777098818060534,0.5520425525698716,-0.2864722104700923,-0.2871715119168958,-0.49048974893551645,-0.5384859006933425,0.24900240315750843,-0.21167285296271876,0.007994336649205014,0.36068723219028986,-0.21990850830425157,0.6861064375422659,-0.5998934178418704,0.14505715550731213,-0.6648161892507867,-0.8995638857926174,-0.3830309927998492,-0.44502014995518024,-0.2792851390116058,-0.025999992592216303,0.46060381821609453,-0.4967070925984096,-0.8492965991012469,-0.3772909858266731,-0.8183450739758622,0.878472333588497,-0.6226886355000469,0.6242819125925694,0.15831959150976727,-0.729115365917431,0.10750333162213987,0.7877217201667428,-0.4597236944218026,0.6006312427515397,-0.17019810882376674,0.1870834169955382,-0.2890062216094702,-0.02530652365754449,0.4924101994542873,-0.984760155893144,-0.7885363226848747,-0.6601773528993626,-0.30621568201529836,0.7310411488397355,0.9065506732097313,-0.43524844979591903,-0.2693044398670228,-0.0351038396076333,-0.2480547472391108,0.19302169898836574,-0.28874176724163636,0.6342673061253827,-0.3163896617878126,-0.2561637923281028,-0.6025606383250472,-0.6090595946352821,0.6838019504416,-0.20264942669670893,-0.8389759239071595,-0.9311532167241767,-0.7513846555355741,-0.16580082815688324,0.15179500809959623,0.9355619821665055,-0.06891979209163646,0.6247370025162731,-0.4776401543925377,0.8532587134022542,-0.4021577423558853,-0.2976924434120707,0.7298445742231288,0.06685902024720614,0.10684400778760228,0.3792597441304819,-0.19419762273374896,-0.09954573326110316,-0.744268774878043,-0.14191403679191295,0.10662678273834403,-0.6570904431753906,-0.012251423569933584,-0.6294100290170375,0.06914577465883442,-0.034197789872306705,-0.24224966712708818,0.979587325869989,0.5647437228766765,0.7715772075846938,0.7878883325478743,-0.11970910559858372,0.054479542482638976,0.10587755460355708,-0.1970754180366352,-0.2760153456635708,0.0448736668299865,0.9996357049928233,-0.03887011862662404,-0.3818223845427753,0.30151534097780286,-0.8995526401958458,0.10867482164390196,0.5453132867780839,0.736728898736764,-0.9471172965882528,0.6925639920971647,-0.4932520658407211,0.2778740793835093,-0.28796036296032446,0.06804814994142405,-0.7663187369204094,0.8290547183421892,0.554950971240636,0.9660371305402298,-0.7535975337863106,-0.34971212377814354,0.6338811096649293,0.6781682048527458,-0.17842489818497853,0.6213113921704911,0.42776760519778967,-0.1558274189778872,-0.5236417477984401,-0.7189355589644562,0.5618839391978736,-0.3177037526081039,-0.1688102317358402,-0.57140251728494,-0.07008283223593303,0.27547361203138343,-0.8125786884180781,0.16738540904753796,0.05568621682971253,-0.04629760891640666,0.4068458864593507,-0.5748364899222627,0.34372452479066906,-0.928607970697412,0.7703297078918145,-0.6506278516757595,0.09126555699912897,0.9982991134455312,0.28475175721214496,0.04427850157322477,-0.8912304037518299,0.7942541385372519,0.3826450610870702,0.7755249295691675,0.8898362383141016,-0.4648657773145397,-0.36975176910880014,-0.635751899305486,0.41092748114254074,0.11400195992921325,-0.1775274751422391,0.9433224170205099,-0.5156145450587666,0.15646691811845548,-0.5767641978604641,-0.007767973197454481,-0.39229871112952486,0.10886157851067524,0.9297522549653623,-0.4523956709944419,0.9865802691900536,0.307950907701773,0.6716432120401896,0.40509523778089007,-0.9173216428788264,-0.4023726729717607,-0.5549822379620932,-0.5877887961086194,-0.4177440622211497,0.24627594250590756,0.006850974323052705,0.883240089196087,0.22134550883733373,0.16536128733689148,0.8822151819704735,0.35187159969807236,-0.00819315178439628,0.4529459431356184,0.9193355985188041,-0.24314520855486954,0.3900912945974244,-0.7048403347764658,-0.9014587147118707,-0.9602764103343424,0.6132004898447454,0.8965982267167278,-0.06842301400520423,0.6455441983923389
17.416049202163837,0.2110899073707304,0.7364877327155266,-0.0009404119972493685,0.40952505232675596,-0.020158620615181144,-0.8986180518018017,0.9718833071968291,0.8510514610975743,-0.4132438320006575,-0.0187723052649591,0.14245906561447375,0.7842868021847591,0.33034624381716693,-0.311145466722774,-0.38754816718344,-0.002817920951050601,0.8237489019678497,-0.39861586248352454,-0.9189649201783598,-0.7581142481441494,-0.5091597477695327,-0.9549263467398357,-0.3488357397422508,-0.3228996409682008,0.40075651888136465,-0.7498779581868857,0.6590644893849522,0.7674780913329093,-0.54243081935583,0.9330190819342385,0.6460730834060693,-0.531001785864325,-0.835272303832022,0.9806683215532641,-0.5461100187788661,-0.04834486247044989,0.899596824018329,0.5159219345790638,-0.8427604495088072,-0.5104186341145942,-0.20994392526508587,0.16249114684476385,-0.44881452299932656,-0.12496654245913108,-0.24405597748125185,-0.26065447907032,0.8486785725911314,0.9342417026193617,0.2961127385975495,-0.08715866882037848,0.49061427756951304,0.7591193535623582,-0.4826847631292037,-0.667063442495506,-0.19289890622195505,-0.1267990700916275,-0.8943776990732732,0.6176159381972501,0.4238872343300648,0.4647582875976133,0.008887784723094372,-0.5817940578176226,-0.6282357939976495,-0.9081505045711851,-0.9442110047858487,0.4329807551274063,-0.9575182813977781,0.21784806201895335,0.06161389884053814,0.2495689480307619,0.9822133577344332,-0.29307944559638055,0.28841276023034723,0.5099595529928129,0.09770771115968402,0.9497167345225661,0.6369608907007818,0.5097741994740352,0.6969311560921396,-0.525818942759084,0.5044660680166091,-0.8204325076311769,0.2289102957753697,-0.561312838780438,-0.06656268426525269,-0.022831930546466817,0.5183242118949927,0.39594764799058124,-0.2366264014220929,0.1583597997695072,-0.8374652109545562,0.7623410714071801,-0.1986361862739423,-0.6781695453934089,-0.9006226013450309,-0.3017544367111218,0.4503320500135939,-0.5133148330631521,-0.8048910721527978,0.15072288614004048,-0.5467778864790254,-0.3599893863553707,0.45313779289759526,0.9676865535768009,0.6435680971239908,-0.00313911491363128,-0.0552827191524059,0.11623294659892247,0.0028069277921514146,0.5556741840574526,0.10069546021157016,-0.3219270224725024,-0.05888633318873149,0.05143719558636439,-0.7923038529012469,-0.07342445441320544,0.07192283529801924,0.9213992519268501,-0.4911654351914403,-0.8197844204616267,-0.1988640973655642,0.1099257143997674,-0.013157306595592777,-0.25494688809489263,0.635504906410189,0.5338279285669436,-0.6027067325626609,-0.060585414266567605,0.22925339272222534,0.931057982648821,-0.2514983221691558,-0.6387911935534647,0.8298367256048893,0.2677917584598464,-0.8771147356894144,-0.4570685667985812,0.24526991462633996,0.49032422282293897,0.4451038987208453,0.5679620567840635,0.5743406262713948,0.6445987069116885,0.09580554872556313,0.04855179280764266,-0.08512241522676134,-0.3592179331507541,-0.6708560737811338,0.1146546606526575,0.5769270655357994,0.32036179418648114,0.06338376964944592,0.5157459366779673,0.02834691618049323,0.730910555649332,-0.015808706978182707,-0.34010155063651437,-0.7050455195207228,-0.44616148966818026,0.9308357290267166,0.35164360945562745,0.8340559006892065,-0.36932260279145934,-0.5547376171864025,0.9430069603510458,0.17147430227977578,0.8740691913181664,-0.0034276490657749736,0.04378870890891817,0.3371581836330111,0.07157531516603766,0.49125622767754273,-0.8572240382602856,0.7321397671074468,0.6513926147997751,0.8593328943677625,0.8598231277415169,0.18608605608474926,-0.4280705365582831,-0.35659796682081835,-0.0547581995209272,0.2691663842963594,-0.39265986620781557,0.9284866633916293,-0.12880651745994487,-0.6151114330087102,0.8343494198867456,0.9772408678268814,0.43508940319647493,-0.7144658505488477,0.6039291608888584,0.5598970315831582,0.6614054479381957,0.11747946675225696,-0.5422603425194394,0.43328212179224335,0.5239131503457495,-0.4445415299619697,0.4791272281595984,0.7005204927045963,0.27578842230400347,0.1711980576585026,0.03348241241448746,0.23139160126777125,0.8369085188746412,-0.9688442022102304,-0.2449872495896972,0.9983274735044356,-0.710448906362315,0.4616699916922016,-0.300748918525402,-0.6607949412231582,-0.845122624427658,-0.7623272210064407,-0.27252571371668166,-0.23402418143279102,-0.4173244352952481,-0.06093106609502397,0.9473387195080896,0.9352821071218647,0.6472187050414462,0.527300321558537,-0.3723002448740462,0.06606651321653434,-0.09170636716308556,-0.7574582482582146,-0.20702426898027126,-0.2011487842785855,-0.8835040012571012,-0.7199284684741256,-0.5157949978854788,0.7891599504211566,-0.5678026334013608,0.7843378179163711,0.5201777618865302,0.6180099348650503,-0.3144917180608784,-0.12371671412945284,0.07662469704720931,-0.08867938773005979,-0.013816482002281472,0.10370060139663506,0.9517353694969817,0.5707713773414282,0.9792047350826003,-0.21693365649671414,0.5097652009685509,-0.18085115472702218,-0.8530278521771473,-0.07104361029052453,-0.9018533878557708,-0.9208285311584941,0.07781543578418004,0.5180505450342654,-0.4240128457140364,-0.4124216404443839,-0.3380317271899764,-0.4346558858237486,0.5395691780772174,0.4164539413474173,0.900010792652848,-0.9847451686605133,-0.18584816013299155,0.15067824764003568,0.3276518792485503,0.8186374250651343
18.15481152693476,0.2110899073707304,0.7364877327155266,-0.0009404119972493685,0.40952505232675596,-0.041756541448144,-0.8986180518018017,0.9718833071968291,0.8510514610975743,-0.4132438320006575,-0.0187723052649591,0.14245906561447375,0.7842868021847591,0.33034624381716693,-0.311145466722774,-0.38754816718344,-0.002817920951050601,0.8237489019678497,-0.39861586248352454,-0.9189649201783598,-0.7581142481441494,0.9481530756171552,-0.9549263467398357,-0.3488357397422508,-0.3228996409682008,0.40075651888136465,-0.7498779581868857,0.6590644893849522,0.7674780913329093,-0.54243081935583,0.9330190819342385,0.6460730834060693,-0.531001785864325,-0.835272303832022,0.9806683215532641,-0.5461100187788661,0.9238542664560567,-0.7832150758850038,0.5159219345790638,-0.8427604495088072,-0.5104186341145942,-0.20994392526508587,0.16249114684476385,-0.44881452299932656,-0.12496654245913108,-0.24405597748125185,-0.26065447907032,0.8486785725911314,0.9342417026193617,0.2961127385975495,-0.08715866882037848,0.49061427756951304,0.7591193535623582,-0.4826847631292037,-0.667063442495506,-0.19289890622195505,-0.1267990700916275,-0.8943776990732732,0.6176159381972501,0.4238872343300648,0.4647582875976133,0.008887784723094372,-0.5817940578176226,-0.6282357939976495,-0.9081505045711851,-0.9442110047858487,0.4329807551274063,0.6783409692460056,0.21784806201895335,0.06161389884053814,0.2495689480307619,0.9822133577344332,-0.29307944559638055,0.9585923495657283,0.5099595529928129,0.09770771115968402,0.9497167345225661,0.6369608907007818,0.5097741994740352,0.6969311560921396,-0.525818942759084,0.5044660680166091,-0.8204325076311769,0.2289102957753697,-0.561312838780438,-0.28868693753007535,-0.022831930546466817,0.5183242118949927,0.39594764799058124,-0.2366264014220929,0.1583597997695072,-0.8374652109545562,0.7623410714071801,-0.1986361862739423,-0.6781695453934089,-0.9006226013450309,-0.3017544367111218,0.4503320500135939,-0.5133148330631521,-0.8048910721527978,0.15072288614004048,-0.5467778864790254,-0.3459181982769879,0.45313779289759526,-0.8869052760735838,0.6435680971239908,-0.1228052303806737,-0.9896071452252821,-0.9672955019457412,-0.5438660401391977,0.38666778502354804,-0.597645927636772,0.8031582648103963,-0.9553283593898936,0.04858323231010098,0.0030008632609801467,0.28609421996865425,0.2219339118316983,-0.277655038398694,0.0914549891765748,0.17884188443460713,-0.7959198515153989,0.3645932284087783,0.7015389788963273,0.3026971243934735,-0.34801851963681596,0.31166091418675923,-0.8460918291677655,0.25035640717040986,0.9213457733924493,-0.5133417009897674,0.7575109922253338,-0.9982113905981902,-0.6714041897377527,0.9436552011937345,-0.22753963938578625,-0.9255957475629557,0.23782247293107228,-0.8503509117526855,0.47098433821429597,0.611371815233503,-0.37915187585019017,-0.3147676603144389,-0.31585790640373146,0.605165110941871,0.9147206870392837,0.28213264552661754,-0.5445350816388677,-0.44388806378452283,-0.9769260728586961,0.3263783957866464,-0.29044109208218005,0.4668986272131357,0.144489775017141,-0.659576752406261,-0.3954548175632888,0.4310767679110379,-0.878418003734813,0.3719959616671802,0.5369088602916636,0.27659227065806014,0.045314131582640416,0.10783911929196344,-0.013724716904629064,-0.5636780240100459,-0.5049636056285545,-0.11175175296197049,0.3837856250372531,-0.0920010427169835,0.5843219555436934,0.45501847864600387,0.7957445357168416,-0.7097305485533576,-0.6685822167505846,-0.19070631978515595,-0.829834524409234,-0.18112392653864484,-0.6021039588692316,-0.4947636396899613,0.053801924331163375,0.6623480875756564,-0.14853714395259843,0.9634924651215739,0.9176760636535803,0.7110596325692304,-0.483824763243649,-0.5693305840144476,-0.22416629285198075,-0.31985655359905696,0.9537166742074006,0.07241943721410204,0.3709480089002415,0.7940502256933697,0.5890464935297879,0.18268661457484114,0.17006857591849722,-0.37102413567126447,-0.8236228296354173,-0.28689912636523296,0.49191191548724333,-0.8957487021899897,0.2313211711994292,0.8110073946644194,-0.07496206693731433,0.31350873785514066,-0.8345732438512901,0.516677511440452,0.865337488983488,-0.99332262132747,0.9114002495016444,0.5384275139435986,-0.6873091939783373,0.8402391047545426,0.889771381503863,0.44985614965653054,0.9461313805422198,0.8567237684137221,0.07730510509192845,0.7348972099470714,-0.07163045273775492,-0.43310746705863945,0.2084581127665417,-0.13659502270706647,-0.8608913574799697,-0.2627402857253198,-0.36075211535591367,-0.8564162010700196,-0.36756503678288555,-0.6828965075608309,-0.7654128612586291,-0.025861736960660853,-0.6733030185329723,0.13196662643427381,0.3466762706366209,0.12835630666135445,-0.18448992740466275,0.41670987716912045,-0.388681520515884,0.26154661943738455,-0.9445311548292246,0.4612127262066894,-0.8885771363024377,0.0451511947839176,-0.7403166787559605,0.615993280927954,0.008727440229503225,-0.20712145447132135,-0.8784453134514243,0.9892725544537442,0.9754680555999167,0.5223025503609537,-0.6932664399324937,-0.8922375786269969,0.36037565848724684,-0.1998342206131658,0.8416519760886096,0.663534579486454,0.26414139474546516,0.5729806260104962,0.6150897097324415,0.900010792652848,-0.9847451686605133,-0.18584816013299155,0.9148986607427267,0.3276518792485503,0.8186374250651343
18.178298044795746,0.2110899073707304,0.7364877327155266,-0.0009404119972493685,0.40952505232675596,-0.041756541448144,-0.8986180518018017,0.9718833071968291,0.8510514610975743,-0.4132438320006575,-0.0187723052649591,0.14245906561447375,0.7842868021847591,0.33034624381716693,-0.311145466722774,-0.38754816718344,-0.002817920951050601,0.8237489019678497,-0.39861586248352454,-0.9189649201783598,-0.7581142481441494,0.9481530756171552,-0.9549263467398357,-0.3488357397422508,-0.3228996409682008,0.40075651888136465,-0.7498779581868857,0.6590644893849522,0.7674780913329093,-0.54243081935583,0.9330190819342385,0.6460730834060693,-0.531001785864325,-0.835272303832022,0.9806683215532641,-0.5461100187788661,0.9238542664560567,-0.7832150758850038,0.5159219345790638,-0.8427604495088072,-0.5104186341145942,-0.20994392526508587,0.16249114684476385,-0.44881452299932656,-0.12496654245913108,-0.24405597748125185,-0.26065447907032,0.8486785725911314,0.9342417026193617,0.2961127385975495,-0.08715866882037848,0.49061427756951304,0.7591193535623582,-0.4826847631292037,-0.667063442495506,-0.19289890622195505,-0.1267990700916275,-0.8943776990732732,0.6176159381972501,0.4238872343300648,0.4647582875976133,0.008887784723094372,-0.5817940578176226,-0.6282357939976495,-0.9081505045711851,-0.9442110047858487,0.4329807551274063,0.6783409692460056,0.21784806201895335,0.06161389884053814,0.2495689480307619,0.9822133577344332,-0.29307944559638055,0.9585923495657283,0.5099595529928129,0.09770771115968402,0.9497167345225661,0.6369608907007818,0.5097741994740352,0.6969311560921396,-0.525818942759084,0.5044660680166091,-0.8204325076311769,0.2289102957753697,-0.8754856160218807,-0.28868693753007535,-0.022831930546466817,0.5183242118949927,0.39594764799058124,-0.2366264014220929,0.1583597997695072,-0.8374652109545562,0.7623410714071801,-0.1986361862739423,-0.6781695453934089,-0.9006226013450309,-0.3017544367111218,0.4503320500135939,-0.5133148330631521,-0.8048910721527978,0.15072288614004048,-0.5467778864790254,-0.3459181982769879,0.5491301403965847,-0.8869052760735838,0.6435680971239908,-0.1228052303806737,-0.9896071452252821,-0.9672955019457412,-0.5438660401391977,0.38666778502354804,-0.597645927636772,0.8031582648103963,-0.9553283593898936,0.04858323231010098,0.0030008632609801467,0.28609421996865425,0.2219339118316983,-0.277655038398694,0.0914549891765748,0.17884188443460713,-0.7959198515153989,0.3645932284087783,0.7015389788963273,0.3026971243934735,-0.34801851963681596,0.31166091418675923,-0.8460918291677655,0.25035640717040986,0.9213457733924493,-0.5133417009897674,0.7575109922253338,-0.9982113905981902,-0.6714041897377527,0.9436552011937345,-0.22753963938578625,-0.9255957475629557,0.23782247293107228,-0.8503509117526855,0.47098433821429597,0.611371815233503,-0.28457296661898734,-0.3147676603144389,-0.31585790640373146,0.605165110941871,0.9147206870392837,0.28213264552661754,-0.5445350816388677,-0.317520008893752,-0.9769260728586961,0.3263783957866464,-0.29044109208218005,0.4668986272131357,0.144489775017141,-0.659576752406261,-0.3954548175632888,0.4310767679110379,-0.878418003734813,0.3719959616671802,0.5369088602916636,0.27659227065806014,0.045314131582640416,0.10783911929196344,-0.013724716904629064,-0.5636780240100459,-0.5049636056285545,-0.11175175296197049,0.3837856250372531,-0.0920010427169835,0.5843219555436934,0.45501847864600387,0.7957445357168416,-0.7097305485533576,-0.6685822167505846,-0.19070631978515595,-0.829834524409234,-0.18112392653864484,-0.6021039588692316,-0.4947636396899613,0.053801924331163375,0.6623480875756564,0.8248766169272885,0.9634924651215739,0.9176760636535803,0.7110596325692304,-0.483824763243649,-0.5693305840144476,-0.22416629285198075,-0.31985655359905696,0.9537166742074006,0.07241943721410204,0.3709480089002415,0.7940502256933697,0.5890464935297879,0.18268661457484114,0.17006857591849722,-0.37102413567126447,-0.8236228296354173,-0.28689912636523296,0.49191191548724333,-0.8957487021899897,-0.15788141114324716,0.8110073946644194,-0.07496206693731433,0.31350873785514066,-0.8345732438512901,0.516677511440452,0.865337488983488,-0.99332262132747,0.9114002495016444,0.5384275139435986,-0.6873091939783373,0.8402391047545426,0.889771381503863,0.44985614965653054,0.9461313805422198,0.8567237684137221,0.07730510509192845,0.7348972099470714,-0.07163045273775492,-0.43310746705863945,0.2084581127665417,-0.13659502270706647,-0.8608913574799697,-0.2627402857253198,-0.36075211535591367,-0.8564162010700196,-0.36756503678288555,0.8458893217439596,-0.7654128612586291,-0.025861736960660853,-0.6733030185329723,0.13196662643427381,0.3466762706366209,0.5501625643576582,-0.18448992740466275,0.3399015058160493,-0.388681520515884,0.26154661943738455,-0.9445311548292246,0.4612127262066894,-0.8885771363024377,0.0451511947839176,-0.7403166787559605,0.615993280927954,0.008727440229503225,-0.20712145447132135,-0.8784453134514243,0.9892725544537442,0.9754680555999167,0.5223025503609537,-0.6932664399324937,-0.8922375786269969,0.36037565848724684,-0.1998342206131658,0.8416519760886096,0.663534579486454,0.26414139474546516,0.5729806260104962,0.6150897097324415,0.900010792652848,-0.9847451686605133,-0.18584816013299155,0.9148986607427267,0.3276518792485503,0.8186374250651343
20.390140360363677,0.9237654158040478,0.4031845736234758,-0.49005783759907606,0.5679322544145955,-0.20422717708446414,0.8578517136708919,-0.02317690554934093,-0.420753103622856,0.19671117718156395,-0.5549194495138121,0.5943294642497547,0.42355499435374444,-0.1320151481766363,-0.139184437046441,0.2873129142856734,0.392425379384576,-0.8958105168978316,-0.28576391953255165,0.919630575582778,-0.5615777782855289,-0.16452928725538518,-0.2668345777528991,-0.058208549618128824,0.3253121912184742,0.16784338727130033,0.9016781941220879,-0.8189329342239304,-0.09115174593303088,0.5503448013303158,0.2643021874629239,-0.9551726748406848,0.4793450426213952,0.4718250923124141,-0.06758616044013532,0.8656329781807912,0.6235255495674954,0.8534362713973134,-0.04033517691007793,0.18148523560385854,-0.9113209537526497,0.547714354727493,-0.10785839948624032,-0.23714856199192869,0.7511886090260647,0.818959745318292,0.7320595007954209,-0.839492968513317,0.3584576040839007,-0.9110322480062112,0.7201654589206328,0.04898306092340521,0.3043377766798412,0.5431218408569449,-0.4640526612341196,0.6252368601123088,0.15616676727548717,-0.7055457325151282,0.1704474794064501,-0.9030223581083825,-0.08810765923859454,-0.32161610715782696,0.6138363960324205,0.3210833975547167,-0.19485468796509497,-0.13690279294401497,-0.9104772110523742,-0.8916839631529461,0.6784403366471001,-0.6494426202011407,-0.28172140918599586,-0.597501050711922,0.4944203021605822,-0.972566899102999,0.2950546498081841,0.16193475129549473,0.44824825241770894,-0.0858521831312673,-0.6668433840355696,0.4612200152713002,0.19170687851140866,-0.5144556144147481,-0.19504020115830634,0.33407249477365175,0.6431760790660366,-0.15072418423804046,0.5469699531795575,-0.72358654473502,-0.6548024683983611,-0.021010628982670587,0.06482313978892384,0.03878880375899496,-0.023459937420373222,-0.9831087036369639,0.9164352193095635,-0.43337888742307196,-0.35049195226021124,-0.45995350573422056,-0.7658228952583528,-0.4936117095302399,0.420610257117775,0.18923835737059846,-0.5346917373485829,0.44000600567659864,0.26529850586890014,0.3701395481209899,0.7404328294386449,0.8582797774985529,0.08718506452752717,0.332753967246626,0.043850718045305825,-0.09205119323389943,0.2773899731250127,0.24624032816702113,-0.7504746865508372,-0.46217800028840705,0.12784591245971844,-0.028801235703093342,0.6663425330865307,0.22037836620196605,0.7203166304963611,0.5303331319968865,0.8893570126659114,-0.834689949612011,-0.29940679666321435,0.3736552312421224,-0.5722369698438468,-0.14135723624291607,0.6609746730582986,0.6175298386024375,0.7019244524845585,0.6807823834246429,-0.8480694337509933,0.5425896955459293,0.940474162683484,0.14158025165718136,0.972208394911112,0.26305584974714447,-0.9501470772889842,0.18905491204020475,0.449465484371403,-0.5636333136842577,-0.9553400235812113,-0.27715439402319264,0.1129422195143841,0.8243446896223623,-0.33624567175296827,-0.5764457398277105,0.26339582561960095,0.4332407091803401,0.5056895432658719,-0.7832860497923195,-0.6185402163429317,-0.9756447297260398,0.11837646953417158,0.9821501899035261,0.13002491717902265,-0.5239449460393377,0.8624006972005438,0.754798011643204,0.47223312913472815,-0.7513099574784068,0.9216035386374852,-0.31812899378785664,-0.5876350797019045,0.34059439872758324,-0.8420880585269717,0.5594544993732216,0.3604016180013301,-0.0271637193194727,-0.31537159483536925,-0.2624925184620459,-0.891929158442917,-0.4441346051449382,-0.2080033304376241,-0.09006033087935261,-0.9673265862218219,-0.8490394878408787,0.5214261986458837,0.033861504432524336,0.22294700007452506,0.275580384409466,0.043131361156754755,-0.3760593455823271,-0.054734225308382234,0.5600126063825805,-0.005361904908539827,0.3600167230486049,0.8815601397308563,0.6064895537515318,0.29587299249704335,-0.25656389610891916,0.1290116257424505,0.38924512108872866,0.34991133756705817,-0.5071579100623054,-0.12338421037434433,-0.323729614971626,0.8082115970427695,0.8535543006829809,-0.30092341574755266,-0.016605871919200155,-0.32891139398351266,-0.19980274051607094,-0.21988203834988296,0.5748986363895205,0.9711885062036179,0.9609564661582011,0.28325147732786427,0.6702521539529593,0.8672634463438056,-0.3075289471584144,0.6088860628584758,-0.99495749015556,-0.796630089701515,-0.6688195595868931,-0.5572626190300689,-0.5886906607436655,0.3137235247935779,0.8711248205191517,0.089503957517729,0.6435156024639219,0.6913460792861548,-0.6559528196889046,-0.5511235973113231,0.14107420997846076,0.26304179819555484,-0.3984595065577776,-0.13207512500587626,-0.9802559970479849,0.9199648304182915,-0.3706996833148828,-0.923667778858732,0.2692775036259589,0.842741709563124,-0.9763832051834711,0.9293826847608644,-0.10894737181802117,0.3121017866427458,0.6047788888008219,0.37905456259813275,-0.4521043949043695,0.3051645619017418,0.8065435604355167,-0.9315986331714037,0.32914474984266406,0.034972275337001646,0.4325338596844943,0.9675244567570274,0.18253484982665213,0.6892098361631485,0.3789080649425127,-0.8594128678983259,0.6962561040685205,0.38037956680470897,0.896740145351494,-0.9184064058663697,0.19187224286775506,-0.20776018791862572,0.4994587402025006,0.3529402226084495,-0.6068270545677898,0.3693412690304334,-0.2747262225599123,0.7094225052821572,0.7859373009410153
21.05895647212776,0.9237654158040478,0.4031845736234758,-0.49005783759907606,0.5679322544145955,-0.20422717708446414,0.8578517136708919,-0.02317690554934093,-0.420753103622856,0.19671117718156395,-0.5549194495138121,0.5943294642497547,0.42355499435374444,-0.1320151481766363,-0.139184437046441,0.2873129142856734,0.392425379384576,-0.8958105168978316,-0.28576391953255165,0.919630575582778,-0.5615777782855289,-0.16452928725538518,-0.2668345777528991,-0.058208549618128824,0.3253121912184742,0.16784338727130033,0.9016781941220879,-0.8189329342239304,-0.09115174593303088,0.5503448013303158,0.2643021874629239,-0.9551726748406848,0.4793450426213952,0.4718250923124141,-0.06758616044013532,0.8656329781807912,0.6235255495674954,0.8534362713973134,-0.04033517691007793,0.18148523560385854,-0.9113209537526497,0.547714354727493,-0.10785839948624032,-0.23714856199192869,0.7511886090260647,0.818959745318292,0.7320595007954209,-0.839492968513317,0.3584576040839007,-0.9110322480062112,0.7201654589206328,0.04898306092340521,0.3043377766798412,0.5431218408569449,-0.4640526612341196,0.6252368601123088,0.15616676727548717,-0.7055457325151282,0.1704474794064501,-0.9030223581083825,-0.08810765923859454,-0.32161610715782696,0.6138363960324205,0.3210833975547167,-0.19485468796509497,-0.13690279294401497,-0.9104772110523742,-0.8916839631529461,0.6784403366471001,-0.6494426202011407,-0.28172140918599586,-0.597501050711922,0.4944203021605822,-0.972566899102999,0.2950546498081841,0.16193475129549473,0.44824825241770894,-0.0858521831312673,-0.6668433840355696,0.4612200152713002,0.19170687851140866,-0.5144556144147481,-0.19504020115830634,0.33407249477365175,0.6431760790660366,-0.28311914620794565,0.5469699531795575,-0.72358654473502,-0.6548024683983611,-0.021010628982670587,0.06482313978892384,0.03878880375899496,-0.023459937420373222,-0.9831087036369639,0.9164352193095635,-0.43337888742307196,-0.35049195226021124,-0.45995350573422056,-0.7658228952583528,-0.4936117095302399,0.420610257117775,0.18923835737059846,-0.5346917373485829,0.44000600567659864,0.26529850586890014,0.3701395481209899,0.7404328294386449,0.8582797774985529,0.08718506452752717,0.332753967246626,0.15859515390679868,-0.09205119323389943,0.2773899731250127,0.24624032816702113,-0.7504746865508372,-0.46217800028840705,0.12784591245971844,-0.028801235703093342,0.6663425330865307,0.22037836620196605,0.7203166304963611,0.5303331319968865,0.8893570126659114,-0.834689949612011,-0.29940679666321435,0.3736552312421224,-0.5722369698438468,-0.14135723624291607,0.6609746730582986,0.6175298386024375,0.7019244524845585,0.6807823834246429,-0.8480694337509933,0.5425896955459293,0.940474162683484,0.14158025165718136,0.972208394911112,0.26305584974714447,-0.9501470772889842,0.18905491204020475,0.449465484371403,-0.5636333136842577,-0.9553400235812113,-0.27715439402319264,0.1129422195143841,0.8243446896223623,-0.33624567175296827,-0.5764457398277105,0.26339582561960095,0.4332407091803401,0.5056895432658719,-0.7832860497923195,-0.6185402163429317,-0.9756447297260398,0.11837646953417158,0.9821501899035261,0.13002491717902265,-0.5239449460393377,0.8624006972005438,0.754798011643204,0.47223312913472815,-0.7513099574784068,0.9216035386374852,-0.31812899378785664,-0.5876350797019045,0.34059439872758324,-0.8420880585269717,0.5594544993732216,0.3604016180013301,-0.0271637193194727,-0.31537159483536925,-0.2624925184620459,-0.891929158442917,-0.4441346051449382,-0.2080033304376241,-0.09006033087935261,-0.9673265862218219,-0.8490394878408787,0.5214261986458837,0.033861504432524336,0.22294700007452506,0.275580384409466,0.043131361156754755,-0.3760593455823271,-0.054734225308382234,0.5600126063825805,-0.005361904908539827,0.07139032877021978,0.8815601397308563,0.6064895537515318,0.29587299249704335,-0.25656389610891916,0.1290116257424505,0.38924512108872866,0.34991133756705817,-0.5071579100623054,-0.12338421037434433,-0.323729614971626,0.8082115970427695,0.8535543006829809,-0.30092341574755266,-0.016605871919200155,-0.32891139398351266,-0.19980274051607094,-0.21988203834988296,0.5748986363895205,0.9711885062036179,0.9609564661582011,0.28325147732786427,0.6702521539529593,0.8672634463438056,-0.3075289471584144,0.6088860628584758,-0.99495749015556,-0.796630089701515,0.8713371937358039,-0.5572626190300689,-0.5886906607436655,0.3137235247935779,0.8711248205191517,0.089503957517729,0.6435156024639219,0.6913460792861548,-0.6559528196889046,-0.5511235973113231,0.14107420997846076,0.26304179819555484,-0.3984595065577776,-0.13207512500587626,-0.9802559970479849,0.9199648304182915,-0.3706996833148828,-0.923667778858732,0.2692775036259589,0.842741709563124,-0.9763832051834711,0.9293826847608644,-0.10894737181802117,0.3121017866427458,0.6047788888008219,0.37905456259813275,-0.4521043949043695,0.3051645619017418,0.8065435604355167,-0.9315986331714037,0.32914474984266406,0.034972275337001646,0.4325338596844943,0.9675244567570274,0.18253484982665213,0.6892098361631485,0.3789080649425127,-0.8594128678983259,0.6962561040685205,0.38037956680470897,0.896740145351494,-0.9184064058663697,0.19187224286775506,-0.20776018791862572,0.4994587402025006,0.3529402226084495,-0.6068270545677898,0.3693412690304334,-0.2747262225599123,0.7094225052821572,0.7859373009410153
21.296411695143927,0.8862648806591622,-0.9110078949013121,0.5074312578050131,0.3528013796449241,0.07093797835456939,0.7346690720878628,0.31418131610305267,0.8352477724011058,-0.8737724757949095,0.4144063875979984,0.954024982454657,0.2807903968824559,-0.5564997181985103,-0.6464117401545402,0.7699411271048104,0.05715901680706481,-0.04063062726261002,-0.5613028485760527,0.19401311133502186,0.7316960758058639,-0.3477647025199466,0.7814697615100101,-0.8050920090808165,0.7319730665052273,-0.489641569405173,-0.37633605960716676,0.10122901971357723,-0.9705194401526205,0.03424695712571979,0.1832801389507892,0.8090621086088441,-0.8572463040302167,-0.4496874035826013,0.33244484476062297,0.8894418965244992,0.9034382256633071,0.3289472822641102,-0.13141993064727142,-0.9984485307179518,0.8562704549758833,0.8636228831625667,-0.36316308203386605,-0.9113601480015419,-0.3185746061913355,0.4320114165280067,0.7453700272024477,-0.55597958528696,-0.19040124050538476,0.11709678944862922,-0.26155366534935354,0.12081986314362081,0.7591193535623582,0.3502473481520012,-0.667063442495506,0.14110350990614884,-0.1267990700916275,-0.8943776990732732,0.6176159381972501,0.4238872343300648,0.4647582875976133,0.008887784723094372,-0.5817940578176226,-0.6282357939976495,-0.9081505045711851,-0.9442110047858487,0.4329807551274063,0.6783409692460056,-0.33067321410272044,0.9797157608155145,0.2495689480307619,0.9822133577344332,-0.29307944559638055,0.9585923495657283,0.5099595529928129,0.4998272888860251,0.9497167345225661,0.6369608907007818,0.24329507041131415,0.6969311560921396,-0.5143027403521616,0.5044660680166091,-0.8204325076311769,0.2289102957753697,-0.561312838780438,0.07430248089879976,-0.022831930546466817,0.5183242118949927,0.39594764799058124,-0.2366264014220929,0.1583597997695072,-0.8374652109545562,0.7623410714071801,-0.7631171465170308,-0.6781695453934089,0.8627599957743883,-0.3017544367111218,0.4503320500135939,-0.5133148330631521,-0.8048910721527978,0.15072288614004048,-0.5467778864790254,-0.3599893863553707,0.45313779289759526,-0.21945166067760202,0.08909195207570453,0.04876996949819756,0.49614364847662706,0.35377864602745435,-0.4411031047914653,0.8221917852371647,-0.31674526306741724,-0.9046515521905922,-0.0557983224017633,0.9965140933853056,-0.46147000902059876,-0.5692558704566997,-0.46302521098134264,0.5299790489728238,0.43108847449711907,-0.34244378462397984,0.6177354129795305,-0.011156465621215084,-0.7940857476635155,-0.23562992336631705,-0.5122139440275344,-0.7605005314377664,0.7661601888337042,0.4624689478930055,0.8567870920862672,-0.8610021226207256,0.1586505146435988,0.7256368645599989,-0.012565251952622258,0.7297675022180314,-0.1937375639657939,-0.2123484013857717,0.6089276670682051,0.6524766800382598,0.5251072523077083,0.06984920355350455,0.09292386146242837,-0.10542909906752351,-0.039297041817077716,0.20208947815232858,0.2107570585216838,0.1877169416752904,0.3151794290247891,0.9660070164830641,0.8239473490522631,-0.24085029898375376,-0.18309261141279753,-0.6511458739417104,0.2477643544826056,-0.7658247381757983,0.32611789663555135,0.01712704891064698,-0.4120846927732478,0.5764969999740097,0.18045760143048528,-0.49198283538328513,0.18534927918634936,0.49651552620385453,0.6029314176820617,0.7412350467976105,-0.18084869694338046,-0.2783981326817595,0.1380276332656818,-0.5061237958069404,0.45079553217207,0.9328938195510528,0.7606384782772251,-0.43404635315640827,0.3372727675016678,-0.789865930031042,-0.2323720558676623,0.9033779763106715,-0.1499833933608572,0.8246705163268333,0.49526042773593804,0.29456452829792634,-0.23912873189619765,-0.3091478524937685,-0.7068858493573922,-0.41899992834345223,0.01899560866915917,0.9023120488710747,0.6159981087888806,0.9210899793508742,0.5890763752452854,-0.5666340014684517,0.9487674070416614,-0.4687453444368346,-0.18801290089629408,0.9585513520346371,0.08454025261937392,-0.7393394647717546,0.6947365431513401,-0.7756648752560023,0.7789840744614818,-0.3482872670918027,-0.9787405944356078,0.3525315616174578,-0.652303281385261,0.23645056008569787,0.7001757797789938,0.6314038512766675,-0.5390089608974225,-0.5308829122605738,0.6080880877233339,0.8633672555860146,-0.2920396544237682,0.1581213977709508,-0.45765313716538736,0.07547791608533494,0.18653980469965448,-0.2248712043365102,-0.51189424966505,0.337758369562676,-0.7709150363593154,0.9142263855876249,0.22124717097922098,-0.8087630185244643,0.22704681974048424,0.8088893733189548,0.14107420997846076,0.26304179819555484,-0.3984595065577776,-0.13207512500587626,-0.9802559970479849,0.9199648304182915,-0.3706996833148828,-0.923667778858732,0.2692775036259589,0.842741709563124,-0.9763832051834711,-0.5850237145968917,0.21225423778880037,0.3121017866427458,0.6047788888008219,0.37905456259813275,-0.4521043949043695,0.3051645619017418,0.8065435604355167,-0.9315986331714037,0.32914474984266406,0.034972275337001646,0.4325338596844943,0.9675244567570274,0.18253484982665213,0.6892098361631485,0.3789080649425127,-0.8594128678983259,0.6962561040685205,0.38037956680470897,-0.9887983055611498,0.7616994652382201,0.19187224286775506,-0.20776018791862572,0.5805384639956488,0.3529402226084495,-0.6068270545677898,-0.026218809110419627,0.06994647131300047,-0.5250271279261767,0.4437101634697589
21.296411695143927,0.8862648806591622,-0.9110078949013121,0.5074312578050131,0.3528013796449241,0.07093797835456939,0.7346690720878628,0.31418131610305267,0.8352477724011058,-0.8737724757949095,0.4144063875979984,0.954024982454657,0.2807903968824559,-0.5564997181985103,-0.6464117401545402,0.7699411271048104,0.05715901680706481,-0.04063062726261002,-0.5613028485760527,0.19401311133502186,0.7316960758058639,-0.3477647025199466,0.7814697615100101,-0.8050920090808165,0.7319730665052273,-0.489641569405173,-0.37633605960716676,0.10122901971357723,-0.9705194401526205,0.03424695712571979,0.1832801389507892,0.8090621086088441,-0.8572463040302167,-0.4496874035826013,0.33244484476062297,0.8894418965244992,0.9034382256633071,0.3289472822641102,-0.13141993064727142,-0.9984485307179518,0.8562704549758833,0.8636228831625667,-0.36316308203386605,-0.9113601480015419,-0.3185746061913355,0.4320114165280067,0.7453700272024477,-0.55597958528696,-0.19040124050538476,0.11709678944862922,-0.26155366534935354,0.12081986314362081,0.7591193535623582,0.3502473481520012,-0.667063442495506,0.14110350990614884,-0.1267990700916275,-0.8943776990732732,0.6176159381972501,0.4238872343300648,0.4647582875976133,0.008887784723094372,-0.5817940578176226,-0.6282357939976495,-0.9081505045711851,-0.9442110047858487,0.4329807551274063,0.6783409692460056,-0.33067321410272044,0.9797157608155145,0.2495689480307619,0.9822133577344332,-0.29307944559638055,0.9585923495657283,0.5099595529928129,0.4998272888860251,0.9497167345225661,0.6369608907007818,0.24329507041131415,0.6969311560921396,-0.5143027403521616,0.5044660680166091,-0.8204325076311769,0.2289102957753697,-0.561312838780438,0.07430248089879976,-0.022831930546466817,0.5183242118949927,0.39594764799058124,-0.2366264014220929,0.1583597997695072,-0.8374652109545562,0.7623410714071801,-0.7631171465170308,-0.6781695453934089,0.8627599957743883,-0.3017544367111218,0.4503320500135939,-0.5133148330631521,-0.8048910721527978,0.15072288614004048,-0.5467778864790254,-0.3599893863553707,0.45313779289759526,-0.21945166067760202,0.08909195207570453,0.04876996949819756,0.49614364847662706,0.35377864602745435,-0.4411031047914653,0.8221917852371647,-0.31674526306741724,-0.9046515521905922,-0.0557983224017633,0.9965140933853056,-0.46147000902059876,-0.5692558704566997,-0.46302521098134264,0.5299790489728238,0.43108847449711907,-0.34244378462397984,0.6177354129795305,-0.011156465621215084,-0.7940857476635155,-0.23562992336631705,-0.5122139440275344,-0.7605005314377664,0.7661601888337042,0.4624689478930055,0.8567870920862672,-0.8610021226207256,0.1586505146435988,0.7256368645599989,-0.012565251952622258,0.7297675022180314,-0.1937375639657939,-0.2123484013857717,0.6089276670682051,0.6524766800382598,0.5251072523077083,0.06984920355350455,0.09292386146242837,-0.10542909906752351,-0.039297041817077716,0.20208947815232858,0.2107570585216838,0.1877169416752904,0.3151794290247891,0.9660070164830641,0.8239473490522631,-0.24085029898375376,-0.18309261141279753,-0.6511458739417104,0.2477643544826056,-0.7658247381757983,0.32611789663555135,0.01712704891064698,-0.4120846927732478,0.5764969999740097,0.18045760143048528,-0.49198283538328513,0.18534927918634936,0.49651552620385453,0.6029314176820617,0.7412350467976105,-0.18084869694338046,-0.2783981326817595,0.1380276332656818,-0.5061237958069404,0.45079553217207,0.9328938195510528,0.7606384782772251,-0.43404635315640827,0.3372727675016678,-0.789865930031042,-0.2323720558676623,0.9033779763106715,-0.1499833933608572,0.8246705163268333,0.49526042773593804,0.29456452829792634,-0.23912873189619765,-0.3091478524937685,-0.7068858493573922,-0.41899992834345223,0.01899560866915917,0.9023120488710747,0.6159981087888806,0.9210899793508742,0.5890763752452854,-0.5666340014684517,0.9487674070416614,-0.4687453444368346,-0.18801290089629408,0.9585513520346371,0.08454025261937392,-0.7393394647717546,0.6947365431513401,-0.7756648752560023,0.7789840744614818,-0.3482872670918027,-0.9787405944356078,0.3525315616174578,-0.652303281385261,0.23645056008569787,0.7001757797789938,0.6314038512766675,-0.5390089608974225,-0.5308829122605738,0.6080880877233339,0.8633672555860146,-0.2920396544237682,0.1581213977709508,-0.45765313716538736,0.07547791608533494,0.18653980469965448,-0.2248712043365102,-0.51189424966505,0.337758369562676,-0.7709150363593154,0.9142263855876249,0.22124717097922098,-0.8087630185244643,0.22704681974048424,0.8088893733189548,0.14107420997846076,0.26304179819555484,-0.3984595065577776,-0.13207512500587626,-0.9802559970479849,0.9199648304182915,-0.3706996833148828,-0.923667778858732,0.2692775036259589,0.842741709563124,-0.9763832051834711,-0.5850237145968917,0.21225423778880037,0.3121017866427458,0.6047788888008219,0.37905456259813275,-0.4521043949043695,0.3051645619017418,0.8065435604355167,-0.9315986331714037,0.32914474984266406,0.034972275337001646,0.4325338596844943,0.9675244567570274,0.18253484982665213,0.6892098361631485,0.3789080649425127,-0.8594128678983259,0.6962561040685205,0.38037956680470897,-0.9887983055611498,0.7616994652382201,0.19187224286775506,-0.20776018791862572,0.5805384639956488,0.3529402226084495,-0.6068270545677898,-0.026218809110419627,0.06994647131300047,-0.5250271279261767,0.4437101634697589
21.296411695143927,0.8862648806591622,-0.9110078949013121,0.5074312578050131,0.3528013796449241,0.07093797835456939,0.7346690720878628,0.31418131610305267,0.8352477724011058,-0.8737724757949095,0.4144063875979984,0.954024982454657,0.2807903968824559,-0.5564997181985103,-0.6464117401545402,0.7699411271048104,0.05715901680706481,-0.04063062726261002,-0.5613028485760527,0.19401311133502186,0.7316960758058639,-0.3477647025199466,0.7814697615100101,-0.8050920090808165,0.7319730665052273,-0.489641569405173,-0.37633605960716676,0.10122901971357723,-0.9705194401526205,0.03424695712571979,0.1832801389507892,0.8090621086088441,-0.8572463040302167,-0.4496874035826013,0.33244484476062297,0.8894418965244992,0.9034382256633071,0.3289472822641102,-0.13141993064727142,-0.9984485307179518,0.8562704549758833,0.8636228831625667,-0.36316308203386605,-0.9113601480015419,-0.3185746061913355,0.4320114165280067,0.7453700272024477,-0.55597958528696,-0.19040124050538476,0.11709678944862922,-0.26155366534935354,0.12081986314362081,0.7591193535623582,0.3502473481520012,-0.667063442495506,0.14110350990614884,-0.1267990700916275,-0.8943776990732732,0.6176159381972501,0.4238872343300648,0.4647582875976133,0.008887784723094372,-0.5817940578176226,-0.6282357939976495,-0.9081505045711851,-0.9442110047858487,0.4329807551274063,0.6783409692460056,-0.33067321410272044,0.9797157608155145,0.2495689480307619,0.9822133577344332,-0.29307944559638055,0.9585923495657283,0.5099595529928129,0.4998272888860251,0.9497167345225661,0.6369608907007818,0.24329507041131415,0.6969311560921396,-0.5143027403521616,0.5044660680166091,-0.8204325076311769,0.2289102957753697,-0.561312838780438,0.07430248089879976,-0.022831930546466817,0.5183242118949927,0.39594764799058124,-0.2366264014220929,0.1583597997695072,-0.8374652109545562,0.7623410714071801,-0.7631171465170308,-0.6781695453934089,0.8627599957743883,-0.3017544367111218,0.4503320500135939,-0.5133148330631521,-0.8048910721527978,0.15072288614004048,-0.5467778864790254,-0.3599893863553707,0.45313779289759526,-0.21945166067760202,0.08909195207570453,0.04876996949819756,0.49614364847662706,0.35377864602745435,-0.4411031047914653,0.8221917852371647,-0.31674526306741724,-0.9046515521905922,-0.0557983224017633,0.9965140933853056,-0.46147000902059876,-0.5692558704566997,-0.46302521098134264,0.5299790489728238,0.43108847449711907,-0.34244378462397984,0.6177354129795305,-0.011156465621215084,-0.7940857476635155,-0.23562992336631705,-0.5122139440275344,-0.7605005314377664,0.7661601888337042,0.4624689478930055,0.8567870920862672,-0.8610021226207256,0.1586505146435988,0.7256368645599989,-0.012565251952622258,0.7297675022180314,-0.1937375639657939,-0.2123484013857717,0.6089276670682051,0.6524766800382598,0.5251072523077083,0.06984920355350455,0.09292386146242837,-0.10542909906752351,-0.039297041817077716,0.20208947815232858,0.2107570585216838,0.1877169416752904,0.3151794290247891,0.9660070164830641,0.8239473490522631,-0.24085029898375376,-0.18309261141279753,-0.6511458739417104,0.2477643544826056,-0.7658247381757983,0.32611789663555135,0.01712704891064698,-0.4120846927732478,0.5764969999740097,0.18045760143048528,-0.49198283538328513,0.18534927918634936,0.49651552620385453,0.6029314176820617,0.7412350467976105,-0.18084869694338046,-0.2783981326817595,0.1380276332656818,-0.5061237958069404,0.45079553217207,0.9328938195510528,0.7606384782772251,-0.43404635315640827,0.3372727675016678,-0.789865930031042,-0.2323720558676623,0.9033779763106715,-0.1499833933608572,0.8246705163268333,0.49526042773593804,0.29456452829792634,-0.23912873189619765,-0.3091478524937685,-0.7068858493573922,-0.41899992834345223,0.01899560866915917,0.9023120488710747,0.6159981087888806,0.9210899793508742,0.5890763752452854,-0.5666340014684517,0.9487674070416614,-0.4687453444368346,-0.18801290089629408,0.9585513520346371,0.08454025261937392,-0.7393394647717546,0.6947365431513401,-0.7756648752560023,0.7789840744614818,-0.3482872670918027,-0.9787405944356078,0.3525315616174578,-0.652303281385261,0.23645056008569787,0.7001757797789938,0.6314038512766675,-0.5390089608974225,-0.5308829122605738,0.6080880877233339,0.8633672555860146,-0.2920396544237682,0.1581213977709508,-0.45765313716538736,0.07547791608533494,0.18653980469965448,-0.2248712043365102,-0.51189424966505,0.337758369562676,-0.7709150363593154,0.9142263855876249,0.22124717097922098,-0.8087630185244643,0.22704681974048424,0.8088893733189548,0.14107420997846076,0.26304179819555484,-0.3984595065577776,-0.13207512500587626,-0.9802559970479849,0.9199648304182915,-0.3706996833148828,-0.923667778858732,0.2692775036259589,0.842741709563124,-0.9763832051834711,-0.5850237145968917,0.21225423778880037,0.3121017866427458,0.6047788888008219,0.37905456259813275,-0.4521043949043695,0.3051645619017418,0.8065435604355167,-0.9315986331714037,0.32914474984266406,0.034972275337001646,0.4325338596844943,0.9675244567570274,0.18253484982665213,0.6892098361631485,0.3789080649425127,-0.8594128678983259,0.6962561040685205,0.38037956680470897,-0.9887983055611498,0.7616994652382201,0.19187224286775506,-0.20776018791862572,0.5805384639956488,0.3529402226084495,-0.6068270545677898,-0.026218809110419627,0.06994647131300047,-0.5250271279261767,0.4437101634697589
21.296411695143927,0.8862648806591622,-0.9110078949013121,0.5074312578050131,0.3528013796449241,0.07093797835456939,0.7346690720878628,0.31418131610305267,0.8352477724011058,-0.8737724757949095,0.4144063875979984,0.954024982454657,0.2807903968824559,-0.5564997181985103,-0.6464117401545402,0.7699411271048104,0.05715901680706481,-0.04063062726261002,-0.5613028485760527,0.19401311133502186,0.7316960758058639,-0.3477647025199466,0.7814697615100101,-0.8050920090808165,0.7319730665052273,-0.489641569405173,-0.37633605960716676,0.10122901971357723,-0.9705194401526205,0.03424695712571979,0.1832801389507892,0.8090621086088441,-0.8572463040302167,-0.4496874035826013,0.33244484476062297,0.8894418965244992,0.9034382256633071,0.3289472822641102,-0.13141993064727142,-0.9984485307179518,0.8562704549758833,0.8636228831625667,-0.36316308203386605,-0.9113601480015419,-0.3185746061913355,0.4320114165280067,0.7453700272024477,-0.55597958528696,-0.19040124050538476,0.11709678944862922,-0.26155366534935354,0.12081986314362081,0.7591193535623582,0.3502473481520012,-0.667063442495506,0.14110350990614884,-0.1267990700916275,-0.8943776990732732,0.6176159381972501,0.4238872343300648,0.4647582875976133,0.008887784723094372,-0.5817940578176226,-0.6282357939976495,-0.9081505045711851,-0.9442110047858487,0.4329807551274063,0.6783409692460056,-0.33067321410272044,0.9797157608155145,0.2495689480307619,0.9822133577344332,-0.29307944559638055,0.9585923495657283,0.5099595529928129,0.4998272888860251,0.9497167345225661,0.6369608907007818,0.24329507041131415,0.6969311560921396,-0.5143027403521616,0.5044660680166091,-0.8204325076311769,0.2289102957753697,-0.561312838780438,0.07430248089879976,-0.022831930546466817,0.5183242118949927,0.39594764799058124,-0.2366264014220929,0.1583597997695072,-0.8374652109545562,0.7623410714071801,-0.7631171465170308,-0.6781695453934089,0.8627599957743883,-0.3017544367111218,0.4503320500135939,-0.5133148330631521,-0.8048910721527978,0.15072288614004048,-0.5467778864790254,-0.3599893863553707,0.45313779289759526,-0.21945166067760202,0.08909195207570453,0.04876996949819756,0.49614364847662706,0.35377864602745435,-0.4411031047914653,0.8221917852371647,-0.31674526306741724,-0.9046515521905922,-0.0557983224017633,0.9965140933853056,-0.46147000902059876,-0.5692558704566997,-0.46302521098134264,0.5299790489728238,0.43108847449711907,-0.34244378462397984,0.6177354129795305,-0.011156465621215084,-0.7940857476635155,-0.23562992336631705,-0.5122139440275344,-0.7605005314377664,0.7661601888337042,0.4624689478930055,0.8567870920862672,-0.8610021226207256,0.1586505146435988,0.7256368645599989,-0.012565251952622258,0.7297675022180314,-0.1937375639657939,-0.2123484013857717,0.6089276670682051,0.6524766800382598,0.5251072523077083,0.06984920355350455,0.09292386146242837,-0.10542909906752351,-0.039297041817077716,0.20208947815232858,0.2107570585216838,0.1877169416752904,0.3151794290247891,0.9660070164830641,0.8239473490522631,-0.24085029898375376,-0.18309261141279753,-0.6511458739417104,0.2477643544826056,-0.7658247381757983,0.32611789663555135,0.01712704891064698,-0.4120846927732478,0.5764969999740097,0.18045760143048528,-0.49198283538328513,0.18534927918634936,0.49651552620385453,0.6029314176820617,0.7412350467976105,-0.18084869694338046,-0.2783981326817595,0.1380276332656818,-0.5061237958069404,0.45079553217207,0.9328938195510528,0.7606384782772251,-0.43404635315640827,0.3372727675016678,-0.789865930031042,-0.2323720558676623,0.9033779763106715,-0.1499833933608572,0.8246705163268333,0.49526042773593804,0.29456452829792634,-0.23912873189619765,-0.3091478524937685,-0.7068858493573922,-0.41899992834345223,0.01899560866915917,0.9023120488710747,0.6159981087888806,0.9210899793508742,0.5890763752452854,-0.5666340014684517,0.9487674070416614,-0.4687453444368346,-0.18801290089629408,0.9585513520346371,0.08454025261937392,-0.7393394647717546,0.6947365431513401,-0.7756648752560023,0.7789840744614818,-0.3482872670918027,-0.9787405944356078,0.3525315616174578,-0.652303281385261,0.23645056008569787,0.7001757797789938,0.6314038512766675,-0.5390089608974225,-0.5308829122605738,0.6080880877233339,0.8633672555860146,-0.2920396544237682,0.1581213977709508,-0.45765313716538736,0.07547791608533494,0.18653980469965448,-0.2248712043365102,-0.51189424966505,0.337758369562676,-0.7709150363593154,0.9142263855876249,0.22124717097922098,-0.8087630185244643,0.22704681974048424,0.8088893733189548,0.14107420997846076,0.26304179819555484,-0.3984595065577776,-0.13207512500587626,-0.9802559970479849,0.9199648304182915,-0.3706996833148828,-0.923667778858732,0.2692775036259589,0.842741709563124,-0.9763832051834711,-0.5850237145968917,0.21225423778880037,0.3121017866427458,0.6047788888008219,0.37905456259813275,-0.4521043949043695,0.3051645619017418,0.8065435604355167,-0.9315986331714037,0.32914474984266406,0.034972275337001646,0.4325338596844943,0.9675244567570274,0.18253484982665213,0.6892098361631485,0.3789080649425127,-0.8594128678983259,0.6962561040685205,0.38037956680470897,-0.9887983055611498,0.7616994652382201,0.19187224286775506,-0.20776018791862572,0.5805384639956488,0.3529402226084495,-0.6068270545677898,-0.026218809110419627,0.06994647131300047,-0.5250271279261767,0.4437101634697589
21.876781170736166,-0.5163818898756116,-0.35866068880919477,0.7668057970253717,-0.8890807119349415,-0.8852643254096748,0.1160268206248467,-0.014936347499384661,0.15570298995831755,0.7696612904755431,-0.2379493018429737,0.8515356082306831,0.649818795304316,0.2280588606570222,0.4612131184291599,0.38276298193759506,0.11656832944294115,-0.20649696377547477,0.5908473888058352,-0.08640414422283094,-0.9351217138568455,0.7438692587176443,-0.8763655994055364,-0.03876940575736243,0.06235679899746005,0.5326383407974127,0.3419153721220145,-0.9111740589340864,-0.4938171973385328,0.19491707595169805,0.6825929791411081,-0.10142077880822464,-0.23061823208951138,0.1374643207431665,-0.7732812288978643,0.0913473793064068,0.41854726839833156,-0.3946880070916019,-0.8833155519418383,-0.20848095131116695,0.9633215330246401,0.40894101607943134,0.05088299815840225,-0.014823709458821943,0.754222971941426,0.4779395465024452,0.6712869013557212,0.94354373359534,0.7967041186088817,-0.3497492904865769,-0.7141859037225868,0.8668551337882615,-0.38971089950840265,0.9327375219766512,0.3066448033999618,0.3808344950705389,0.6153938061717594,0.5405921260180189,0.9660178062031703,-0.9006085650898097,0.2724345204967926,0.5697310053648776,0.6396905234608188,0.193425959416067,0.6115112386939945,0.9457489249757414,0.7048804263817452,0.3103605275707273,0.44611227477020576,0.6736701765404185,0.5535917922384963,0.8882700161316344,-0.2367880752747582,-0.004461704422310309,-0.12361960468158983,-0.994553481128065,0.2354141035028865,-0.8334881659067133,-0.1836234492923341,0.6192737747781054,-0.08571315874296626,-0.5143530226246147,0.1682783686711462,0.5924200852773516,-0.2878286331308815,-0.9338048068796279,0.3888094539672664,-0.7704913361809693,0.4926749889090567,0.007918857849480432,0.6243803874307725,-0.20374531585672973,-0.8856058450456592,0.3808522172483586,0.6225754135206103,0.39214747509724623,-0.8824257048518178,-0.21748322353365013,-0.37227401785772307,0.42186120586584064,0.026722499325814164,0.3494687350266603,0.11926949064267478,-0.66272206028298,-0.562711425027451,0.22908769335605728,0.9084111991176507,0.978948035894676,-0.09881285583076793,-0.9825221310375394,-0.08162609844335278,0.2912744499354585,0.9028824927918451,0.23669361265075728,0.588756092463766,-0.24428326318884563,-0.9772044393707597,-0.3033203877252515,-0.3273587341605786,0.006109993580516004,0.05255970228430118,0.4704487415125316,-0.3810089516821793,0.7158782159787107,0.7441776828659545,0.5112611155561866,0.8260346234037914,0.2857605426545211,0.7519399252686352,0.34218156003111755,0.8112461965859006,0.4384290300963678,0.44101770030471377,-0.33517230194905023,-0.8983752363833413,-0.10110098319512395,0.8763422302695152,-0.2504271755072931,0.6926131311124741,0.12726897156322226,-0.18575151441699922,-0.1068809427046824,-0.38640915122702424,-0.5786050737468056,0.8304335918571684,-0.34154071851847445,-0.10620447685246037,-0.665129094457493,-0.9745753582026959,0.37733977811372976,-0.6409682058218518,-0.7774382228567636,0.2943366268941041,-0.728360731374657,-0.17228728354002532,-0.7882177511460222,-0.009235306692010559,0.5393160769450265,-0.8153116131671003,-0.5475278346711154,0.22399168191005203,-0.9995188459740014,0.171746659238315,0.47658313620832127,-0.8841757176599006,-0.324913267214459,-0.6539988073697418,-0.5560700147632129,-0.5249223965136065,-0.019425998230035768,-0.8195238406409509,-0.4337185758545248,-0.7896763954600736,0.46823031012909166,0.5098893450819628,0.8160253623303111,-0.03952655848387665,-0.6466900250222389,0.8808909957653936,-0.7003423169164025,0.14806393638575055,0.6683105723664378,0.827183392644109,-0.7839134929145695,0.3190555508458275,0.6682573765222366,-0.09364846934002458,0.6866757775805985,-0.7115583457893684,-0.47605622763728817,-0.5279791055812466,-0.15354952996235083,-0.2543100429716256,0.20861189253656431,-0.6210412935964331,0.9187051952444829,0.7693234126324899,-0.9558244196663608,0.09905006553665419,0.484529934629502,-0.7166737681687685,-0.4432987442914009,0.44498846878703224,-0.5129420934912923,0.9127254076044771,0.18161665056247123,-0.3921426611167471,-0.8134531419004234,0.7716385960257566,0.4767871192433075,-0.6277722303711148,0.06923617985206687,-0.16702346068864093,0.5526133033698093,0.5656246180186721,0.2516159571159424,-0.48185478277758453,-0.6980188470785613,0.7716329044444135,-0.455639929407361,-0.8317901875903515,-0.9829683673750758,-0.28763511515348616,-0.488101215415673,-0.175855392731185,0.03173391923685509,0.3758235007532327,-0.5065972867370321,-0.07965147272950746,0.24235918192563433,0.07310055055823894,-0.1062759795135626,0.8240695186310432,0.6042954874854554,-0.22491428516258116,0.3906479089174675,-0.3896523946664523,-0.8739251579751468,0.27074494545548644,0.9061932786542379,-0.6605519322429187,-0.33984948905503476,-0.6339717584213509,-0.7870221830514792,-0.9383902576669099,0.5138780643907845,-0.005313660671486531,0.08170251509701587,-0.07301289347293993,0.7325589554412781,-0.306090096012692,0.38836862242284487,-0.6436287863091987,0.8660337480964948,-0.7692451452470097,0.6606531720480606,0.9541417216396373,-0.4375541984376752,-0.3721066447488628,0.9362240301183609,0.021613547669832478,-0.005363326877632524,-0.94494027175719,-0.14664595725165475,0.7094225052821572,-0.9258586388723689
21.876781170736166,-0.5163818898756116,-0.35866068880919477,0.7668057970253717,-0.8890807119349415,-0.8852643254096748,0.1160268206248467,-0.014936347499384661,0.15570298995831755,0.7696612904755431,-0.2379493018429737,0.8515356082306831,0.649818795304316,0.2280588606570222,0.4612131184291599,0.38276298193759506,0.11656832944294115,-0.20649696377547477,0.5908473888058352,-0.08640414422283094,-0.9351217138568455,0.7438692587176443,-0.8763655994055364,-0.03876940575736243,0.06235679899746005,0.5326383407974127,0.3419153721220145,-0.9111740589340864,-0.4938171973385328,0.19491707595169805,0.6825929791411081,-0.10142077880822464,-0.23061823208951138,0.1374643207431665,-0.7732812288978643,0.0913473793064068,0.41854726839833156,-0.3946880070916019,-0.8833155519418383,-0.20848095131116695,0.9633215330246401,0.40894101607943134,0.05088299815840225,-0.014823709458821943,0.754222971941426,0.4779395465024452,0.6712869013557212,0.94354373359534,0.7967041186088817,-0.3497492904865769,-0.7141859037225868,0.8668551337882615,-0.38971089950840265,0.9327375219766512,0.3066448033999618,0.3808344950705389,0.6153938061717594,0.5405921260180189,0.9660178062031703,-0.9006085650898097,0.2724345204967926,0.5697310053648776,0.6396905234608188,0.193425959416067,0.6115112386939945,0.9457489249757414,0.7048804263817452,0.3103605275707273,0.44611227477020576,0.6736701765404185,0.5535917922384963,0.8882700161316344,-0.2367880752747582,-0.004461704422310309,-0.12361960468158983,-0.994553481128065,0.2354141035028865,-0.8334881659067133,-0.1836234492923341,0.6192737747781054,-0.08571315874296626,-0.5143530226246147,0.1682783686711462,0.5924200852773516,-0.2878286331308815,-0.9338048068796279,0.3888094539672664,-0.7704913361809693,0.4926749889090567,0.007918857849480432,0.6243803874307725,-0.20374531585672973,-0.8856058450456592,0.3808522172483586,0.6225754135206103,0.39214747509724623,-0.8824257048518178,-0.21748322353365013,-0.37227401785772307,0.42186120586584064,0.026722499325814164,0.3494687350266603,0.11926949064267478,-0.66272206028298,-0.562711425027451,0.22908769335605728,0.9084111991176507,0.978948035894676,-0.09881285583076793,-0.9825221310375394,-0.08162609844335278,0.2912744499354585,0.9028824927918451,0.23669361265075728,0.588756092463766,-0.24428326318884563,-0.9772044393707597,-0.3033203877252515,-0.3273587341605786,0.006109993580516004,0.05255970228430118,0.4704487415125316,-0.3810089516821793,0.7158782159787107,0.7441776828659545,0.5112611155561866,0.8260346234037914,0.2857605426545211,0.7519399252686352,0.34218156003111755,0.8112461965859006,0.4384290300963678,0.44101770030471377,-0.33517230194905023,-0.8983752363833413,-0.10110098319512395,0.8763422302695152,-0.2504271755072931,0.6926131311124741,0.12726897156322226,-0.18575151441699922,-0.1068809427046824,-0.38640915122702424,-0.5786050737468056,0.8304335918571684,-0.34154071851847445,-0.10620447685246037,-0.665129094457493,-0.9745753582026959,0.37733977811372976,-0.6409682058218518,-0.7774382228567636,0.2943366268941041,-0.728360731374657,-0.17228728354002532,-0.7882177511460222,-0.009235306692010559,0.5393160769450265,-0.8153116131671003,-0.5475278346711154,0.22399168191005203,-0.9995188459740014,0.171746659238315,0.47658313620832127,-0.8841757176599006,-0.324913267214459,-0.6539988073697418,-0.5560700147632129,-0.5249223965136065,-0.019425998230035768,-0.8195238406409509,-0.4337185758545248,-0.7896763954600736,0.46823031012909166,0.5098893450819628,0.8160253623303111,-0.03952655848387665,-0.6466900250222389,0.8808909957653936,-0.7003423169164025,0.14806393638575055,0.6683105723664378,0.827183392644109,-0.7839134929145695,0.3190555508458275,0.6682573765222366,-0.09364846934002458,0.6866757775805985,-0.7115583457893684,-0.47605622763728817,-0.5279791055812466,-0.15354952996235083,-0.2543100429716256,0.20861189253656431,-0.6210412935964331,0.9187051952444829,0.7693234126324899,-0.9558244196663608,0.09905006553665419,0.484529934629502,-0.7166737681687685,-0.4432987442914009,0.44498846878703224,-0.5129420934912923,0.9127254076044771,0.18161665056247123,-0.3921426611167471,-0.8134531419004234,0.7716385960257566,0.4767871192433075,-0.6277722303711148,0.06923617985206687,-0.16702346068864093,0.5526133033698093,0.5656246180186721,0.2516159571159424,-0.48185478277758453,-0.6980188470785613,0.7716329044444135,-0.455639929407361,-0.8317901875903515,-0.9829683673750758,-0.28763511515348616,-0.488101215415673,-0.175855392731185,0.03173391923685509,0.3758235007532327,-0.5065972867370321,-0.07965147272950746,0.24235918192563433,0.07310055055823894,-0.1062759795135626,0.8240695186310432,0.6042954874854554,-0.22491428516258116,0.3906479089174675,-0.3896523946664523,-0.8739251579751468,0.27074494545548644,0.9061932786542379,-0.6605519322429187,-0.33984948905503476,-0.6339717584213509,-0.7870221830514792,-0.9383902576669099,0.5138780643907845,-0.005313660671486531,0.08170251509701587,-0.07301289347293993,0.7325589554412781,-0.306090096012692,0.38836862242284487,-0.6436287863091987,0.8660337480964948,-0.7692451452470097,0.6606531720480606,0.9541417216396373,-0.4375541984376752,-0.3721066447488628,0.9362240301183609,0.021613547669832478,-0.005363326877632524,-0.94494027175719,-0.14664595725165475,0.7094225052821572,-0.9258586388723689
21.876781170736166,-0.5163818898756116,-0.35866068880919477,0.7668057970253717,-0.8890807119349415,-0.8852643254096748,0.1160268206248467,-0.014936347499384661,0.15570298995831755,0.7696612904755431,-0.2379493018429737,0.8515356082306831,0.649818795304316,0.2280588606570222,0.4612131184291599,0.38276298193759506,0.11656832944294115,-0.20649696377547477,0.5908473888058352,-0.08640414422283094,-0.9351217138568455,0.7438692587176443,-0.8763655994055364,-0.03876940575736243,0.06235679899746005,0.5326383407974127,0.3419153721220145,-0.9111740589340864,-0.4938171973385328,0.19491707595169805,0.6825929791411081,-0.10142077880822464,-0.23061823208951138,0.1374643207431665,-0.7732812288978643,0.0913473793064068,0.41854726839833156,-0.3946880070916019,-0.8833155519418383,-0.20848095131116695,0.9633215330246401,0.40894101607943134,0.05088299815840225,-0.014823709458821943,0.754222971941426,0.4779395465024452,0.6712869013557212,0.94354373359534,0.7967041186088817,-0.3497492904865769,-0.7141859037225868,0.8668551337882615,-0.38971089950840265,0.9327375219766512,0.3066448033999618,0.3808344950705389,0.6153938061717594,0.5405921260180189,0.9660178062031703,-0.9006085650898097,0.2724345204967926,0.5697310053648776,0.6396905234608188,0.193425959416067,0.6115112386939945,0.9457489249757414,0.7048804263817452,0.3103605275707273,0.44611227477020576,0.6736701765404185,0.5535917922384963,0.8882700161316344,-0.2367880752747582,-0.004461704422310309,-0.12361960468158983,-0.994553481128065,0.2354141035028865,-0.8334881659067133,-0.1836234492923341,0.6192737747781054,-0.08571315874296626,-0.5143530226246147,0.1682783686711462,0.5924200852773516,-0.2878286331308815,-0.9338048068796279,0.3888094539672664,-0.7704913361809693,0.4926749889090567,0.007918857849480432,0.6243803874307725,-0.20374531585672973,-0.8856058450456592,0.3808522172483586,0.6225754135206103,0.39214747509724623,-0.8824257048518178,-0.21748322353365013,-0.37227401785772307,0.42186120586584064,0.026722499325814164,0.3494687350266603,0.11926949064267478,-0.66272206028298,-0.562711425027451,0.22908769335605728,0.9084111991176507,0.978948035894676,-0.09881285583076793,-0.9825221310375394,-0.08162609844335278,0.2912744499354585,0.9028824927918451,0.23669361265075728,0.588756092463766,-0.24428326318884563,-0.9772044393707597,-0.3033203877252515,-0.3273587341605786,0.006109993580516004,0.05255970228430118,0.4704487415125316,-0.3810089516821793,0.7158782159787107,0.7441776828659545,0.5112611155561866,0.8260346234037914,0.2857605426545211,0.7519399252686352,0.34218156003111755,0.8112461965859006,0.4384290300963678,0.44101770030471377,-0.33517230194905023,-0.8983752363833413,-0.10110098319512395,0.8763422302695152,-0.2504271755072931,0.6926131311124741,0.12726897156322226,-0.18575151441699922,-0.1068809427046824,-0.38640915122702424,-0.5786050737468056,0.8304335918571684,-0.34154071851847445,-0.10620447685246037,-0.665129094457493,-0.9745753582026959,0.37733977811372976,-0.6409682058218518,-0.7774382228567636,0.2943366268941041,-0.728360731374657,-0.17228728354002532,-0.7882177511460222,-0.009235306692010559,0.5393160769450265,-0.8153116131671003,-0.5475278346711154,0.22399168191005203,-0.9995188459740014,0.171746659238315,0.47658313620832127,-0.8841757176599006,-0.324913267214459,-0.6539988073697418,-0.5560700147632129,-0.5249223965136065,-0.019425998230035768,-0.8195238406409509,-0.4337185758545248,-0.7896763954600736,0.46823031012909166,0.5098893450819628,0.8160253623303111,-0.03952655848387665,-0.6466900250222389,0.8808909957653936,-0.7003423169164025,0.14806393638575055,0.6683105723664378,0.827183392644109,-0.7839134929145695,0.3190555508458275,0.6682573765222366,-0.09364846934002458,0.6866757775805985,-0.7115583457893684,-0.47605622763728817,-0.5279791055812466,-0.15354952996235083,-0.2543100429716256,0.20861189253656431,-0.6210412935964331,0.9187051952444829,0.7693234126324899,-0.9558244196663608,0.09905006553665419,0.484529934629502,-0.7166737681687685,-0.4432987442914009,0.44498846878703224,-0.5129420934912923,0.9127254076044771,0.18161665056247123,-0.3921426611167471,-0.8134531419004234,0.7716385960257566,0.4767871192433075,-0.6277722303711148,0.06923617985206687,-0.16702346068864093,0.5526133033698093,0.5656246180186721,0.2516159571159424,-0.48185478277758453,-0.6980188470785613,0.7716329044444135,-0.455639929407361,-0.8317901875903515,-0.9829683673750758,-0.28763511515348616,-0.488101215415673,-0.175855392731185,0.03173391923685509,0.3758235007532327,-0.5065972867370321,-0.07965147272950746,0.24235918192563433,0.07310055055823894,-0.1062759795135626,0.8240695186310432,0.6042954874854554,-0.22491428516258116,0.3906479089174675,-0.3896523946664523,-0.8739251579751468,0.27074494545548644,0.9061932786542379,-0.6605519322429187,-0.33984948905503476,-0.6339717584213509,-0.7870221830514792,-0.9383902576669099,0.5138780643907845,-0.005313660671486531,0.08170251509701587,-0.07301289347293993,0.7325589554412781,-0.306090096012692,0.38836862242284487,-0.6436287863091987,0.8660337480964948,-0.7692451452470097,0.6606531720480606,0.9541417216396373,-0.4375541984376752,-0.3721066447488628,0.9362240301183609,0.021613547669832478,-0.005363326877632524,-0.94494027175719,-0.14664595725165475,0.7094225052821572,-0.9258586388723689
34.10621286995211,-0.5163818898756116,-0.35866068880919477,0.7668057970253717,-0.8890807119349415,-0.8852643254096748,0.1160268206248467,-0.014936347499384661,0.15570298995831755,0.7696612904755431,-0.2379493018429737,0.8515356082306831,0.649818795304316,0.2280588606570222,0.4612131184291599,0.38276298193759506,0.11656832944294115,-0.20649696377547477,0.5908473888058352,-0.08640414422283094,-0.9351217138568455,0.7438692587176443,-0.8763655994055364,-0.03876940575736243,0.06235679899746005,0.5326383407974127,0.3419153721220145,-0.9111740589340864,-0.4938171973385328,0.19491707595169805,0.6825929791411081,-0.10142077880822464,-0.23061823208951138,0.1374643207431665,-0.7732812288978643,0.0913473793064068,0.41854726839833156,-0.3946880070916019,-0.8833155519418383,0.06702508631423143,0.9633215330246401,0.40894101607943134,0.05088299815840225,-0.014823709458821943,0.754222971941426,0.4779395465024452,0.49560819828306446,0.94354373359534,0.7967041186088817,-0.3497492904865769,-0.7141859037225868,0.8668551337882615,-0.38971089950840265,0.9327375219766512,0.9187501432555396,0.3808344950705389,0.6153938061717594,0.5405921260180189,0.9660178062031703,-0.9006085650898097,0.2724345204967926,0.5697310053648776,0.6396905234608188,0.193425959416067,0.6115112386939945,0.9457489249757414,0.7048804263817452,0.3103605275707273,0.44611227477020576,0.6736701765404185,0.5535917922384963,0.8882700161316344,-0.2367880752747582,-0.004461704422310309,-0.12361960468158983,0.2748623634513736,0.2354141035028865,-0.8334881659067133,-0.1836234492923341,0.6192737747781054,-0.08571315874296626,-0.5143530226246147,0.1682783686711462,0.5924200852773516,-0.2878286331308815,-0.9338048068796279,0.3888094539672664,-0.7704913361809693,0.4926749889090567,0.007918857849480432,0.6243803874307725,-0.20374531585672973,-0.8856058450456592,0.3808522172483586,0.6225754135206103,0.39214747509724623,-0.8824257048518178,-0.21748322353365013,-0.9252001619170458,0.42186120586584064,0.026722499325814164,0.3494687350266603,0.11926949064267478,-0.66272206028298,-0.562711425027451,0.22908769335605728,0.9084111991176507,0.978948035894676,-0.09881285583076793,-0.9825221310375394,-0.08162609844335278,0.2912744499354585,0.9028824927918451,0.23669361265075728,0.588756092463766,-0.24428326318884563,-0.9772044393707597,-0.3033203877252515,-0.3273587341605786,0.006109993580516004,0.05255970228430118,0.4704487415125316,-0.3810089516821793,0.7158782159787107,0.7441776828659545,0.5112611155561866,0.8260346234037914,0.2857605426545211,0.7519399252686352,0.34218156003111755,0.8112461965859006,0.4384290300963678,0.44101770030471377,-0.33517230194905023,-0.8983752363833413,-0.10110098319512395,0.8763422302695152,-0.2504271755072931,0.6926131311124741,0.12726897156322226,-0.18575151441699922,-0.1068809427046824,-0.38640915122702424,-0.5786050737468056,0.8304335918571684,-0.34154071851847445,-0.10620447685246037,-0.665129094457493,-0.9745753582026959,0.37733977811372976,-0.6409682058218518,-0.7774382228567636,0.2943366268941041,-0.728360731374657,-0.17228728354002532,-0.7882177511460222,-0.009235306692010559,0.5393160769450265,-0.8153116131671003,-0.5475278346711154,0.02845922618084229,-0.9995188459740014,0.171746659238315,0.47658313620832127,-0.8841757176599006,-0.324913267214459,-0.6539988073697418,-0.5560700147632129,-0.5249223965136065,-0.019425998230035768,-0.8195238406409509,-0.4337185758545248,-0.7896763954600736,0.46823031012909166,0.5098893450819628,0.8160253623303111,-0.03952655848387665,-0.6466900250222389,0.8808909957653936,-0.7003423169164025,0.14806393638575055,0.6683105723664378,0.827183392644109,-0.7839134929145695,0.3190555508458275,0.6682573765222366,-0.09364846934002458,0.6866757775805985,-0.7115583457893684,-0.47605622763728817,-0.5279791055812466,-0.15354952996235083,-0.2543100429716256,0.20861189253656431,-0.6210412935964331,0.9187051952444829,0.7693234126324899,-0.9558244196663608,0.09905006553665419,0.484529934629502,-0.7166737681687685,-0.4432987442914009,0.44498846878703224,-0.5129420934912923,0.9127254076044771,0.18161665056247123,-0.3921426611167471,-0.8134531419004234,0.7716385960257566,0.4767871192433075,-0.6277722303711148,0.06923617985206687,-0.16702346068864093,0.5526133033698093,0.5656246180186721,0.2516159571159424,-0.48185478277758453,-0.6980188470785613,0.7716329044444135,-0.455639929407361,-0.8317901875903515,-0.9829683673750758,-0.28763511515348616,-0.488101215415673,-0.175855392731185,0.03173391923685509,0.3758235007532327,-0.5065972867370321,-0.07965147272950746,0.24235918192563433,0.07310055055823894,-0.1062759795135626,0.8240695186310432,0.6042954874854554,-0.22491428516258116,0.3906479089174675,-0.3896523946664523,-0.8739251579751468,0.27074494545548644,0.9061932786542379,-0.6605519322429187,-0.33984948905503476,-0.6339717584213509,-0.7870221830514792,-0.9383902576669099,0.5138780643907845,-0.005313660671486531,0.08170251509701587,-0.07301289347293993,0.7325589554412781,-0.306090096012692,0.38836862242284487,-0.6436287863091987,0.8660337480964948,-0.7692451452470097,0.6606531720480606,0.9541417216396373,-0.4375541984376752,-0.3721066447488628,0.9362240301183609,0.021613547669832478,-0.005363326877632524,-0.94494027175719,-0.14664595725165475,0.7094225052821572,-0.9258586388723689
34.10621286995211,-0.5163818898756116,-0.35866068880919477,0.7668057970253717,-0.8890807119349415,-0.8852643254096748,0.1160268206248467,-0.014936347499384661,0.15570298995831755,0.7696612904755431,-0.2379493018429737,0.8515356082306831,0.649818795304316,0.2280588606570222,0.4612131184291599,0.38276298193759506,0.11656832944294115,-0.20649696377547477,0.5908473888058352,-0.08640414422283094,-0.9351217138568455,0.7438692587176443,-0.8763655994055364,-0.03876940575736243,0.06235679899746005,0.5326383407974127,0.3419153721220145,-0.9111740589340864,-0.4938171973385328,0.19491707595169805,0.6825929791411081,-0.10142077880822464,-0.23061823208951138,0.1374643207431665,-0.7732812288978643,0.0913473793064068,0.41854726839833156,-0.3946880070916019,-0.8833155519418383,0.06702508631423143,0.9633215330246401,0.40894101607943134,0.05088299815840225,-0.014823709458821943,0.754222971941426,0.4779395465024452,0.49560819828306446,0.94354373359534,0.7967041186088817,-0.3497492904865769,-0.7141859037225868,0.8668551337882615,-0.38971089950840265,0.9327375219766512,0.9187501432555396,0.3808344950705389,0.6153938061717594,0.5405921260180189,0.9660178062031703,-0.9006085650898097,0.2724345204967926,0.5697310053648776,0.6396905234608188,0.193425959416067,0.6115112386939945,0.9457489249757414,0.7048804263817452,0.3103605275707273,0.44611227477020576,0.6736701765404185,0.5535917922384963,0.8882700161316344,-0.2367880752747582,-0.004461704422310309,-0.12361960468158983,0.2748623634513736,0.2354141035028865,-0.8334881659067133,-0.1836234492923341,0.6192737747781054,-0.08571315874296626,-0.5143530226246147,0.1682783686711462,0.5924200852773516,-0.2878286331308815,-0.9338048068796279,0.3888094539672664,-0.7704913361809693,0.4926749889090567,0.007918857849480432,0.6243803874307725,-0.20374531585672973,-0.8856058450456592,0.3808522172483586,0.6225754135206103,0.39214747509724623,-0.8824257048518178,-0.21748322353365013,-0.9252001619170458,0.42186120586584064,0.026722499325814164,0.3494687350266603,0.11926949064267478,-0.66272206028298,-0.562711425027451,0.22908769335605728,0.9084111991176507,0.978948035894676,-0.09881285583076793,-0.9825221310375394,-0.08162609844335278,0.2912744499354585,0.9028824927918451,0.23669361265075728,0.588756092463766,-0.24428326318884563,-0.9772044393707597,-0.3033203877252515,-0.3273587341605786,0.006109993580516004,0.05255970228430118,0.4704487415125316,-0.3810089516821793,0.7158782159787107,0.7441776828659545,0.5112611155561866,0.8260346234037914,0.2857605426545211,0.7519399252686352,0.34218156003111755,0.8112461965859006,0.4384290300963678,0.44101770030471377,-0.33517230194905023,-0.8983752363833413,-0.10110098319512395,0.8763422302695152,-0.2504271755072931,0.6926131311124741,0.12726897156322226,-0.18575151441699922,-0.1068809427046824,-0.38640915122702424,-0.5786050737468056,0.8304335918571684,-0.34154071851847445,-0.10620447685246037,-0.665129094457493,-0.9745753582026959,0.37733977811372976,-0.6409682058218518,-0.7774382228567636,0.2943366268941041,-0.728360731374657,-0.17228728354002532,-0.7882177511460222,-0.009235306692010559,0.5393160769450265,-0.8153116131671003,-0.5475278346711154,0.02845922618084229,-0.9995188459740014,0.171746659238315,0.47658313620832127,-0.8841757176599006,-0.324913267214459,-0.6539988073697418,-0.5560700147632129,-0.5249223965136065,-0.019425998230035768,-0.8195238406409509,-0.4337185758545248,-0.7896763954600736,0.46823031012909166,0.5098893450819628,0.8160253623303111,-0.03952655848387665,-0.6466900250222389,0.8808909957653936,-0.7003423169164025,0.14806393638575055,0.6683105723664378,0.827183392644109,-0.7839134929145695,0.3190555508458275,0.6682573765222366,-0.09364846934002458,0.6866757775805985,-0.7115583457893684,-0.47605622763728817,-0.5279791055812466,-0.15354952996235083,-0.2543100429716256,0.20861189253656431,-0.6210412935964331,0.9187051952444829,0.7693234126324899,-0.9558244196663608,0.09905006553665419,0.484529934629502,-0.7166737681687685,-0.4432987442914009,0.44498846878703224,-0.5129420934912923,0.9127254076044771,0.18161665056247123,-0.3921426611167471,-0.8134531419004234,0.7716385960257566,0.4767871192433075,-0.6277722303711148,0.06923617985206687,-0.16702346068864093,0.5526133033698093,0.5656246180186721,0.2516159571159424,-0.48185478277758453,-0.6980188470785613,0.7716329044444135,-0.455639929407361,-0.8317901875903515,-0.9829683673750758,-0.28763511515348616,-0.488101215415673,-0.175855392731185,0.03173391923685509,0.3758235007532327,-0.5065972867370321,-0.07965147272950746,0.24235918192563433,0.07310055055823894,-0.1062759795135626,0.8240695186310432,0.6042954874854554,-0.22491428516258116,0.3906479089174675,-0.3896523946664523,-0.8739251579751468,0.27074494545548644,0.9061932786542379,-0.6605519322429187,-0.33984948905503476,-0.6339717584213509,-0.7870221830514792,-0.9383902576669099,0.5138780643907845,-0.005313660671486531,0.08170251509701587,-0.07301289347293993,0.7325589554412781,-0.306090096012692,0.38836862242284487,-0.6436287863091987,0.8660337480964948,-0.7692451452470097,0.6606531720480606,0.9541417216396373,-0.4375541984376752,-0.3721066447488628,0.9362240301183609,0.021613547669832478,-0.005363326877632524,-0.94494027175719,-0.14664595725165475,0.7094225052821572,-0.9258586388723689
34.10621286995211,-0.5163818898756116,-0.35866068880919477,0.7668057970253717,-0.8890807119349415,-0.8852643254096748,0.1160268206248467,-0.014936347499384661,0.15570298995831755,0.7696612904755431,-0.2379493018429737,0.8515356082306831,0.649818795304316,0.2280588606570222,0.4612131184291599,0.38276298193759506,0.11656832944294115,-0.20649696377547477,0.5908473888058352,-0.08640414422283094,-0.9351217138568455,0.7438692587176443,-0.8763655994055364,-0.03876940575736243,0.06235679899746005,0.5326383407974127,0.3419153721220145,-0.9111740589340864,-0.4938171973385328,0.19491707595169805,0.6825929791411081,-0.10142077880822464,-0.23061823208951138,0.1374643207431665,-0.7732812288978643,0.0913473793064068,0.41854726839833156,-0.3946880070916019,-0.8833155519418383,0.06702508631423143,0.9633215330246401,0.40894101607943134,0.05088299815840225,-0.014823709458821943,0.754222971941426,0.4779395465024452,0.49560819828306446,0.94354373359534,0.7967041186088817,-0.3497492904865769,-0.7141859037225868,0.8668551337882615,-0.38971089950840265,0.9327375219766512,0.9187501432555396,0.3808344950705389,0.6153938061717594,0.5405921260180189,0.9660178062031703,-0.9006085650898097,0.2724345204967926,0.5697310053648776,0.6396905234608188,0.193425959416067,0.6115112386939945,0.9457489249757414,0.7048804263817452,0.3103605275707273,0.44611227477020576,0.6736701765404185,0.5535917922384963,0.8882700161316344,-0.2367880752747582,-0.004461704422310309,-0.12361960468158983,0.2748623634513736,0.2354141035028865,-0.8334881659067133,-0.1836234492923341,0.6192737747781054,-0.08571315874296626,-0.5143530226246147,0.1682783686711462,0.5924200852773516,-0.2878286331308815,-0.9338048068796279,0.3888094539672664,-0.7704913361809693,0.4926749889090567,0.007918857849480432,0.6243803874307725,-0.20374531585672973,-0.8856058450456592,0.3808522172483586,0.6225754135206103,0.39214747509724623,-0.8824257048518178,-0.21748322353365013,-0.9252001619170458,0.42186120586584064,0.026722499325814164,0.3494687350266603,0.11926949064267478,-0.66272206028298,-0.562711425027451,0.22908769335605728,0.9084111991176507,0.978948035894676,-0.09881285583076793,-0.9825221310375394,-0.08162609844335278,0.2912744499354585,0.9028824927918451,0.23669361265075728,0.588756092463766,-0.24428326318884563,-0.9772044393707597,-0.3033203877252515,-0.3273587341605786,0.006109993580516004,0.05255970228430118,0.4704487415125316,-0.3810089516821793,0.7158782159787107,0.7441776828659545,0.5112611155561866,0.8260346234037914,0.2857605426545211,0.7519399252686352,0.34218156003111755,0.8112461965859006,0.4384290300963678,0.44101770030471377,-0.33517230194905023,-0.8983752363833413,-0.10110098319512395,0.8763422302695152,-0.2504271755072931,0.6926131311124741,0.12726897156322226,-0.18575151441699922,-0.1068809427046824,-0.38640915122702424,-0.5786050737468056,0.8304335918571684,-0.34154071851847445,-0.10620447685246037,-0.665129094457493,-0.9745753582026959,0.37733977811372976,-0.6409682058218518,-0.7774382228567636,0.2943366268941041,-0.728360731374657,-0.17228728354002532,-0.7882177511460222,-0.009235306692010559,0.5393160769450265,-0.8153116131671003,-0.5475278346711154,0.02845922618084229,-0.9995188459740014,0.171746659238315,0.47658313620832127,-0.8841757176599006,-0.324913267214459,-0.6539988073697418,-0.5560700147632129,-0.5249223965136065,-0.019425998230035768,-0.8195238406409509,-0.4337185758545248,-0.7896763954600736,0.46823031012909166,0.5098893450819628,0.8160253623303111,-0.03952655848387665,-0.6466900250222389,0.8808909957653936,-0.7003423169164025,0.14806393638575055,0.6683105723664378,0.827183392644109,-0.7839134929145695,0.3190555508458275,0.6682573765222366,-0.09364846934002458,0.6866757775805985,-0.7115583457893684,-0.47605622763728817,-0.5279791055812466,-0.15354952996235083,-0.2543100429716256,0.20861189253656431,-0.6210412935964331,0.9187051952444829,0.7693234126324899,-0.9558244196663608,0.09905006553665419,0.484529934629502,-0.7166737681687685,-0.4432987442914009,0.44498846878703224,-0.5129420934912923,0.9127254076044771,0.18161665056247123,-0.3921426611167471,-0.8134531419004234,0.7716385960257566,0.4767871192433075,-0.6277722303711148,0.06923617985206687,-0.16702346068864093,0.5526133033698093,0.5656246180186721,0.2516159571159424,-0.48185478277758453,-0.6980188470785613,0.7716329044444135,-0.455639929407361,-0.8317901875903515,-0.9829683673750758,-0.28763511515348616,-0.488101215415673,-0.175855392731185,0.03173391923685509,0.3758235007532327,-0.5065972867370321,-0.07965147272950746,0.24235918192563433,0.07310055055823894,-0.1062759795135626,0.8240695186310432,0.6042954874854554,-0.22491428516258116,0.3906479089174675,-0.3896523946664523,-0.8739251579751468,0.27074494545548644,0.9061932786542379,-0.6605519322429187,-0.33984948905503476,-0.6339717584213509,-0.7870221830514792,-0.9383902576669099,0.5138780643907845,-0.005313660671486531,0.08170251509701587,-0.07301289347293993,0.7325589554412781,-0.306090096012692,0.38836862242284487,-0.6436287863091987,0.8660337480964948,-0.7692451452470097,0.6606531720480606,0.9541417216396373,-0.4375541984376752,-0.3721066447488628,0.9362240301183609,0.021613547669832478,-0.005363326877632524,-0.94494027175719,-0.14664595725165475,0.7094225052821572,-0.9258586388723689
34.10621286995211,-0.5163818898756116,-0.35866068880919477,0.7668057970253717,-0.8890807119349415,-0.8852643254096748,0.1160268206248467,-0.014936347499384661,0.15570298995831755,0.7696612904755431,-0.2379493018429737,0.8515356082306831,0.649818795304316,0.2280588606570222,0.4612131184291599,0.38276298193759506,0.11656832944294115,-0.20649696377547477,0.5908473888058352,-0.08640414422283094,-0.9351217138568455,0.7438692587176443,-0.8763655994055364,-0.03876940575736243,0.06235679899746005,0.5326383407974127,0.3419153721220145,-0.9111740589340864,-0.4938171973385328,0.19491707595169805,0.6825929791411081,-0.10142077880822464,-0.23061823208951138,0.1374643207431665,-0.7732812288978643,0.0913473793064068,0.41854726839833156,-0.3946880070916019,-0.8833155519418383,0.06702508631423143,0.9633215330246401,0.40894101607943134,0.05088299815840225,-0.014823709458821943,0.754222971941426,0.4779395465024452,0.49560819828306446,0.94354373359534,0.7967041186088817,-0.3497492904865769,-0.7141859037225868,0.8668551337882615,-0.38971089950840265,0.9327375219766512,0.9187501432555396,0.3808344950705389,0.6153938061717594,0.5405921260180189,0.9660178062031703,-0.9006085650898097,0.2724345204967926,0.5697310053648776,0.6396905234608188,0.193425959416067,0.6115112386939945,0.9457489249757414,0.7048804263817452,0.3103605275707273,0.44611227477020576,0.6736701765404185,0.5535917922384963,0.8882700161316344,-0.2367880752747582,-0.004461704422310309,-0.12361960468158983,0.2748623634513736,0.2354141035028865,-0.8334881659067133,-0.1836234492923341,0.6192737747781054,-0.08571315874296626,-0.5143530226246147,0.1682783686711462,0.5924200852773516,-0.2878286331308815,-0.9338048068796279,0.3888094539672664,-0.7704913361809693,0.4926749889090567,0.007918857849480432,0.6243803874307725,-0.20374531585672973,-0.8856058450456592,0.3808522172483586,0.6225754135206103,0.39214747509724623,-0.8824257048518178,-0.21748322353365013,-0.9252001619170458,0.42186120586584064,0.026722499325814164,0.3494687350266603,0.11926949064267478,-0.66272206028298,-0.562711425027451,0.22908769335605728,0.9084111991176507,0.978948035894676,-0.09881285583076793,-0.9825221310375394,-0.08162609844335278,0.2912744499354585,0.9028824927918451,0.23669361265075728,0.588756092463766,-0.24428326318884563,-0.9772044393707597,-0.3033203877252515,-0.3273587341605786,0.006109993580516004,0.05255970228430118,0.4704487415125316,-0.3810089516821793,0.7158782159787107,0.7441776828659545,0.5112611155561866,0.8260346234037914,0.2857605426545211,0.7519399252686352,0.34218156003111755,0.8112461965859006,0.4384290300963678,0.44101770030471377,-0.33517230194905023,-0.8983752363833413,-0.10110098319512395,0.8763422302695152,-0.2504271755072931,0.6926131311124741,0.12726897156322226,-0.18575151441699922,-0.1068809427046824,-0.38640915122702424,-0.5786050737468056,0.8304335918571684,-0.34154071851847445,-0.10620447685246037,-0.665129094457493,-0.9745753582026959,0.37733977811372976,-0.6409682058218518,-0.7774382228567636,0.2943366268941041,-0.728360731374657,-0.17228728354002532,-0.7882177511460222,-0.009235306692010559,0.5393160769450265,-0.8153116131671003,-0.5475278346711154,0.02845922618084229,-0.9995188459740014,0.171746659238315,0.47658313620832127,-0.8841757176599006,-0.324913267214459,-0.6539988073697418,-0.5560700147632129,-0.5249223965136065,-0.019425998230035768,-0.8195238406409509,-0.4337185758545248,-0.7896763954600736,0.46823031012909166,0.5098893450819628,0.8160253623303111,-0.03952655848387665,-0.6466900250222389,0.8808909957653936,-0.7003423169164025,0.14806393638575055,0.6683105723664378,0.827183392644109,-0.7839134929145695,0.3190555508458275,0.6682573765222366,-0.09364846934002458,0.6866757775805985,-0.7115583457893684,-0.47605622763728817,-0.5279791055812466,-0.15354952996235083,-0.2543100429716256,0.20861189253656431,-0.6210412935964331,0.9187051952444829,0.7693234126324899,-0.9558244196663608,0.09905006553665419,0.484529934629502,-0.7166737681687685,-0.4432987442914009,0.44498846878703224,-0.5129420934912923,0.9127254076044771,0.18161665056247123,-0.3921426611167471,-0.8134531419004234,0.7716385960257566,0.4767871192433075,-0.6277722303711148,0.06923617985206687,-0.16702346068864093,0.5526133033698093,0.5656246180186721,0.2516159571159424,-0.48185478277758453,-0.6980188470785613,0.7716329044444135,-0.455639929407361,-0.8317901875903515,-0.9829683673750758,-0.28763511515348616,-0.488101215415673,-0.175855392731185,0.03173391923685509,0.3758235007532327,-0.5065972867370321,-0.07965147272950746,0.24235918192563433,0.07310055055823894,-0.1062759795135626,0.8240695186310432,0.6042954874854554,-0.22491428516258116,0.3906479089174675,-0.3896523946664523,-0.8739251579751468,0.27074494545548644,0.9061932786542379,-0.6605519322429187,-0.33984948905503476,-0.6339717584213509,-0.7870221830514792,-0.9383902576669099,0.5138780643907845,-0.005313660671486531,0.08170251509701587,-0.07301289347293993,0.7325589554412781,-0.306090096012692,0.38836862242284487,-0.6436287863091987,0.8660337480964948,-0.7692451452470097,0.6606531720480606,0.9541417216396373,-0.4375541984376752,-0.3721066447488628,0.9362240301183609,0.021613547669832478,-0.005363326877632524,-0.94494027175719,-0.14664595725165475,0.7094225052821572,-0.9258586388723689
34.10621286995211,-0.5163818898756116,-0.35866068880919477,0.7668057970253717,-0.8890807119349415,-0.8852643254096748,0.1160268206248467,-0.014936347499384661,0.15570298995831755,0.7696612904755431,-0.2379493018429737,0.8515356082306831,0.649818795304316,0.2280588606570222,0.4612131184291599,0.38276298193759506,0.11656832944294115,-0.20649696377547477,0.5908473888058352,-0.08640414422283094,-0.9351217138568455,0.7438692587176443,-0.8763655994055364,-0.03876940575736243,0.06235679899746005,0.5326383407974127,0.3419153721220145,-0.9111740589340864,-0.4938171973385328,0.19491707595169805,0.6825929791411081,-0.10142077880822464,-0.23061823208951138,0.1374643207431665,-0.7732812288978643,0.0913473793064068,0.41854726839833156,-0.3946880070916019,-0.8833155519418383,0.06702508631423143,0.9633215330246401,0.40894101607943134,0.05088299815840225,-0.014823709458821943,0.754222971941426,0.4779395465024452,0.49560819828306446,0.94354373359534,0.7967041186088817,-0.3497492904865769,-0.7141859037225868,0.8668551337882615,-0.38971089950840265,0.9327375219766512,0.9187501432555396,0.3808344950705389,0.6153938061717594,0.5405921260180189,0.9660178062031703,-0.9006085650898097,0.2724345204967926,0.5697310053648776,0.6396905234608188,0.193425959416067,0.6115112386939945,0.9457489249757414,0.7048804263817452,0.3103605275707273,0.44611227477020576,0.6736701765404185,0.5535917922384963,0.8882700161316344,-0.2367880752747582,-0.004461704422310309,-0.12361960468158983,0.2748623634513736,0.2354141035028865,-0.8334881659067133,-0.1836234492923341,0.6192737747781054,-0.08571315874296626,-0.5143530226246147,0.1682783686711462,0.5924200852773516,-0.2878286331308815,-0.9338048068796279,0.3888094539672664,-0.7704913361809693,0.4926749889090567,0.007918857849480432,0.6243803874307725,-0.20374531585672973,-0.8856058450456592,0.3808522172483586,0.6225754135206103,0.39214747509724623,-0.8824257048518178,-0.21748322353365013,-0.9252001619170458,0.42186120586584064,0.026722499325814164,0.3494687350266603,0.11926949064267478,-0.66272206028298,-0.562711425027451,0.22908769335605728,0.9084111991176507,0.978948035894676,-0.09881285583076793,-0.9825221310375394,-0.08162609844335278,0.2912744499354585,0.9028824927918451,0.23669361265075728,0.588756092463766,-0.24428326318884563,-0.9772044393707597,-0.3033203877252515,-0.3273587341605786,0.006109993580516004,0.05255970228430118,0.4704487415125316,-0.3810089516821793,0.7158782159787107,0.7441776828659545,0.5112611155561866,0.8260346234037914,0.2857605426545211,0.7519399252686352,0.34218156003111755,0.8112461965859006,0.4384290300963678,0.44101770030471377,-0.33517230194905023,-0.8983752363833413,-0.10110098319512395,0.8763422302695152,-0.2504271755072931,0.6926131311124741,0.12726897156322226,-0.18575151441699922,-0.1068809427046824,-0.38640915122702424,-0.5786050737468056,0.8304335918571684,-0.34154071851847445,-0.10620447685246037,-0.665129094457493,-0.9745753582026959,0.37733977811372976,-0.6409682058218518,-0.7774382228567636,0.2943366268941041,-0.728360731374657,-0.17228728354002532,-0.7882177511460222,-0.009235306692010559,0.5393160769450265,-0.8153116131671003,-0.5475278346711154,0.02845922618084229,-0.9995188459740014,0.171746659238315,0.47658313620832127,-0.8841757176599006,-0.324913267214459,-0.6539988073697418,-0.5560700147632129,-0.5249223965136065,-0.019425998230035768,-0.8195238406409509,-0.4337185758545248,-0.7896763954600736,0.46823031012909166,0.5098893450819628,0.8160253623303111,-0.03952655848387665,-0.6466900250222389,0.8808909957653936,-0.7003423169164025,0.14806393638575055,0.6683105723664378,0.827183392644109,-0.7839134929145695,0.3190555508458275,0.6682573765222366,-0.09364846934002458,0.6866757775805985,-0.7115583457893684,-0.47605622763728817,-0.5279791055812466,-0.15354952996235083,-0.2543100429716256,0.20861189253656431,-0.6210412935964331,0.9187051952444829,0.7693234126324899,-0.9558244196663608,0.09905006553665419,0.484529934629502,-0.7166737681687685,-0.4432987442914009,0.44498846878703224,-0.5129420934912923,0.9127254076044771,0.18161665056247123,-0.3921426611167471,-0.8134531419004234,0.7716385960257566,0.4767871192433075,-0.6277722303711148,0.06923617985206687,-0.16702346068864093,0.5526133033698093,0.5656246180186721,0.2516159571159424,-0.48185478277758453,-0.6980188470785613,0.7716329044444135,-0.455639929407361,-0.8317901875903515,-0.9829683673750758,-0.28763511515348616,-0.488101215415673,-0.175855392731185,0.03173391923685509,0.3758235007532327,-0.5065972867370321,-0.07965147272950746,0.24235918192563433,0.07310055055823894,-0.1062759795135626,0.8240695186310432,0.6042954874854554,-0.22491428516258116,0.3906479089174675,-0.3896523946664523,-0.8739251579751468,0.27074494545548644,0.9061932786542379,-0.6605519322429187,-0.33984948905503476,-0.6339717584213509,-0.7870221830514792,-0.9383902576669099,0.5138780643907845,-0.005313660671486531,0.08170251509701587,-0.07301289347293993,0.7325589554412781,-0.306090096012692,0.38836862242284487,-0.6436287863091987,0.8660337480964948,-0.7692451452470097,0.6606531720480606,0.9541417216396373,-0.4375541984376752,-0.3721066447488628,0.9362240301183609,0.021613547669832478,-0.005363326877632524,-0.94494027175719,-0.14664595725165475,0.7094225052821572,-0.9258586388723689
