4.622569610055129452e-01
-8.875673275658002570e-01
6.193797247384960070e-01
-6.406471391405794691e-01
-5.867881390289606536e-01
-3.608688357701546057e-01
-6.017302941388358306e-02
-4.662561714490662812e-01
-1.226799519069565747e-02
3.402226937419352559e-01
-4.177498557385170841e-01
7.485576290821003287e-01
-5.803797689433893847e-01
1.628368396275228225e-01
-2.144851398796054909e-03
6.573755301135930651e-01
2.505356176484925257e-01
1.828833792708852712e-01
5.396907586494361642e-01
4.781292431091164197e-01
2.334400078523601874e-01
3.403400367339008969e-01
-3.209290762988643575e-01
-2.051470106164119400e-01
8.647505054845732175e-01
4.977266037462995119e-01
-7.507973077067853218e-01
-7.851977238769320966e-01
4.977706214345731794e-01
-4.600237313329060829e-01
1.345248675172627806e-02
3.066562519686866217e-01
-6.699407760340225781e-01
-6.854022302393063537e-01
-6.330022379209809813e-02
1.908946192549449972e-01
-4.729314875210999247e-01
9.569275161439083632e-01
-3.397194289834883918e-01
-7.226188844820549129e-01
-8.604616111997618333e-01
-6.761215092758154910e-01
-9.830986371543133373e-01
-4.794118262570472577e-01
-6.598167411334521226e-02
-9.931082988530373079e-01
-8.295499450263705832e-01
1.744562702747927130e-01
5.243241289693090224e-02
1.218367525579915345e-01
5.186892712208595047e-01
-6.550456391867147676e-01
-9.938418356486460326e-01
3.345292538999071752e-01
3.301849590469165818e-01
9.461618553122379538e-01
4.193103087943754748e-01
-1.900711063782360988e-01
-4.855778328509885444e-01
5.154303035444691705e-01
-4.122615451318270008e-01
3.234717931300326033e-01
6.920611958489160109e-01
8.530504419551643291e-01
-5.453995299392058183e-01
5.758607341861998741e-01
-3.045684055973758575e-01
4.684130893869142831e-01
-1.892012293457028260e-01
-1.129683243692618522e-01
1.479699078588621042e-01
-4.161693139447493195e-01
-7.098674415986550024e-02
-8.888388344856799073e-01
2.919961071803696129e-01
1.218576912550548563e-01
5.872023620284247958e-01
9.934759067103979824e-01
-5.875761065677753692e-01
-4.606489199075403107e-01
-7.042573649495689203e-01
-1.011848111316686616e-01
-6.389817462833189410e-01
-7.804516856219803067e-01
4.823646541725468140e-02
9.265624835308914342e-01
-7.299109050885845829e-01
-2.465021656136350270e-01
5.225760669464349917e-01
-3.343567145619581460e-01
3.528069001579989816e-01
-9.772301909074339044e-01
5.169998216803066704e-01
2.133140953901122572e-01
8.256673604987363468e-01
-7.566880703256924079e-01
3.678090165862069050e-02
-4.522157373100503808e-01
5.401567032803848978e-01
-7.110483254139132736e-01
7.732837792876381400e-01
-1.060333815026048843e-01
-8.379823252631071195e-01
2.744313451776851931e-01
5.477450768046399077e-03
5.142464673915896345e-01
-3.377679639980097903e-01
1.490434572585574990e-01
-3.956342190357238220e-01
-3.455872513066584606e-01
-8.593164624213309732e-01
-9.604400232415850613e-01
5.337336170056021789e-01
-5.387547143933493210e-01
-5.843017706395401412e-01
8.068937700888296760e-01
-6.405666311944986369e-01
-8.162878536971296395e-01
3.255937818507268489e-01
4.248524223422949220e-01
9.620842251493644248e-01
-6.939598286569275132e-01
-2.717480076074125783e-01
2.388247025498091425e-02
-5.975628908562093944e-01
8.359073187616099521e-01
4.504138721237569420e-01
-7.717368267964093143e-01
-6.457557378755129918e-02
-7.440937273131249530e-01
1.388003295713122753e-01
5.938196435674032436e-01
-4.026535225752585490e-01
-8.151792097133954140e-01
-2.185624210936096823e-01
-2.037114560757276038e-01
6.411316766511157006e-01
6.843397295701576510e-01
9.596130024450804097e-01
2.693126483540331240e-01
7.135339386081200885e-01
-5.362339832353424374e-01
-8.639973072254876207e-01
8.321882862966363259e-01
2.616913869498560530e-02
5.252709205022736416e-01
-4.287168412990822741e-01
-9.667254228321844334e-01
-9.076645637773190778e-01
-3.848478806074386860e-01
4.280642432888097648e-01
1.945617368385370582e-01
-6.880550359836106189e-01
3.840558576582613348e-01
5.591084899470888381e-01
-5.390575748817836299e-01
-8.777863179923826031e-01
5.090077785591611281e-01
-6.831432527233913810e-01
-6.100354643314580549e-01
-7.054987318114318562e-01
-7.019981237134920171e-01
-7.510460755542758271e-01
-3.643624546394836905e-01
6.081052234283692570e-01
2.424866981668030164e-01
1.603605655446722622e-01
8.522412518437842976e-01
6.202091750509843848e-01
-2.257741383889626530e-01
-7.865449323131672443e-01
9.711525776444398517e-01
-7.807140771927540968e-01
3.400458133268191574e-02
-6.739276617475606912e-01
-3.623229060597559226e-01
-6.413213744961099305e-01
4.835892412575404364e-01
9.130113626753333378e-01
-9.391800504165974672e-01
-6.799333248573444788e-01
3.189414447832383814e-01
8.164011641169155453e-01
6.039908155946345225e-01
-6.740075338101985114e-01
-3.649319941511757204e-01
-6.272270267034953939e-01
7.611162420010166851e-01
-1.465430868524524310e-01
-9.388315208886930385e-01
-8.490639581091774524e-01
8.133658633639386792e-01
5.533871726624637333e-01
-6.870144796595201164e-02
1.208375906566283575e-02
-2.269703034039904921e-02
3.735399273977857426e-01
-8.837848039257809596e-01
-4.031774014735867162e-02
3.293049588829586316e-01
-1.007772873564622973e-01
-9.706070135676656552e-01
-7.553456253313073354e-02
5.392357764248023599e-02
7.860721485054364965e-01
9.344217219398582852e-01
5.014247683159660518e-01
-3.727305195038737029e-01
-7.897433916039251489e-01
6.547001718165059714e-01
-9.563994882303594736e-01
-7.790611672165275170e-01
7.103750062640017404e-01
6.218070118578249428e-01
-2.908056692344487271e-01
-1.103747386356115356e-01
-9.917068979380223581e-01
-8.103570494214520359e-01
3.434874096510287522e-01
-7.516799490847119181e-01
-6.466729559773489733e-01
5.774961633528774563e-01
9.004154126722863083e-01
7.259322678163728781e-01
4.960209410111138251e-01
-4.029441116338845497e-01
6.397434092902551939e-01
-8.408649495707032351e-01
-2.229427480595629341e-01
-4.261283012566878803e-01
-5.457135076229289172e-01
-7.497462763839792821e-01
-3.145083086674878015e-01
-9.400455728290970647e-01
-1.127040831585057745e-02
-8.293115766271548228e-01
8.451183338824903579e-01
-7.537792441621071760e-02
5.105710666641429807e-01
-3.310221700056015237e-01
-4.718855223547548938e-01
-6.133439380181828771e-01
2.431370843101658963e-01
4.901265155562830600e-01
6.514760211791412736e-01
-6.459010169554657566e-02
-9.407405121323353381e-01
2.329091138557513041e-01
-8.104493212812096115e-01
-4.769909380100461060e-01
-1.580361064626842893e-01
-4.041007329271981696e-01
2.655165022677232756e-01
6.866914749751713565e-01
-3.920027320370311763e-02
1.506408095571525330e-01
-1.992813541860927185e-01
4.309335022238047763e-01
-7.549287727838074336e-01
3.309177698290888259e-02
9.547052309439738593e-01
2.694389791575346749e-01
-9.261089157480184575e-02
-1.238486829799545497e-01
7.163344514093736848e-01
