1.236863408761248451e-01
-4.818185723962795652e-01
5.536267122592875012e-01
7.331475413650547779e-01
-4.275964179266513732e-01
7.415684721305790816e-01
-2.243086567670982134e-02
1.304446896296631575e-01
-2.328770277785277010e-01
6.471158007712107807e-01
-9.710613577927151852e-01
3.399112009583551419e-01
1.431677588166215820e-01
4.881097804589371592e-01
6.374314233738465063e-01
-9.130019955356967198e-01
4.260266178235068146e-01
-6.173238771029712080e-01
-7.405172948726961302e-01
6.887945677245868037e-01
-3.564656074121077545e-01
4.966208706533832284e-01
-2.094027167487038099e-01
8.255274567655119800e-01
-2.271188651587228158e-01
6.685003321737967852e-01
-8.911851189878432500e-01
3.407729431659900499e-03
4.689709819035556837e-01
7.034017477725957868e-01
-8.166470354861052883e-01
-4.189666464385188860e-02
3.546837661384305562e-01
4.943585175696663114e-01
7.091310877655230271e-01
5.049536704334598447e-01
5.741710048591857074e-01
2.103556053623232280e-01
6.625152752094694009e-01
5.864230543345367863e-01
-6.576904137014567553e-01
-3.416154346861977054e-01
-5.903417526309950869e-01
4.642446607304038242e-01
-3.270092477538883990e-01
4.430666466459722841e-01
9.841722686476739312e-01
-8.809907891727624119e-01
6.705169474217509418e-03
4.841092479084077027e-01
5.131100296700805696e-01
-8.250574003749111540e-01
8.668067602943125838e-01
-6.309170626653237690e-01
-9.166746546471826740e-02
-4.181878822797204798e-01
4.809236417927471585e-01
-3.615392298302801954e-01
5.656141673337531373e-01
5.352595441855387826e-01
-5.522438201126480539e-01
-6.734820894311399631e-01
-9.516993494490595396e-01
4.440047560075401911e-01
6.320048152973214428e-01
4.861114750979180776e-01
-3.000377229185868799e-02
-7.777531798348678027e-01
5.064135076145270808e-02
1.114209713642575483e-01
4.352864461950360919e-01
4.256563324745199495e-02
-6.154570425247856136e-01
-2.726127714105734956e-01
4.686553824976356086e-01
4.841985582095083007e-01
-6.276745690837788327e-01
4.240446420152421680e-03
-2.091508791437204362e-01
-7.894950920222922885e-01
-5.963153887647809626e-01
2.013762185605503241e-01
-5.225667739491175467e-01
8.918321592394917730e-01
-9.835273304933811467e-02
-6.668590096911986009e-01
-5.817916150459101488e-01
-7.185304090917088438e-02
-8.591561705588652842e-01
-3.159794877276924652e-01
4.839239028672670528e-01
-2.799917653759034231e-01
2.801685412989085577e-01
-9.670566278961483242e-01
5.047209065559101759e-01
1.819773310624352991e-01
-7.395258157695971946e-01
9.767689123840743726e-01
8.183782581894321062e-01
-6.514387830315704342e-02
5.117796138615418045e-01
3.807264229990390270e-01
1.605548915976484636e-01
-5.864714646172313195e-01
-8.077480327663675297e-01
-1.474114061682829657e-01
-4.143781292806689720e-01
-2.947929777464040058e-01
-1.429165315104432565e-01
6.556255646454369757e-01
-4.119603008213834627e-02
-2.067118164659995649e-01
5.090638346907478962e-01
-8.581783762128560866e-01
5.802235238647082127e-01
-4.659611628530235805e-02
6.681785298831499631e-01
-5.904564390309723354e-01
8.006079427550383265e-01
-2.978867374468556761e-01
9.777472641484132865e-01
5.907639546638598915e-01
4.550087389767591972e-01
1.659761214611581437e-01
1.788010439915992400e-01
-1.351961425466767786e-01
1.361498145683115446e-02
8.659443122076349031e-01
-1.887284034590850368e-01
6.949589375821130233e-02
-3.396178018627815653e-02
2.370211805311512876e-01
-8.436523004183311691e-01
-3.783868650920048093e-01
-2.721196865939028431e-01
9.742909089582960647e-01
-1.743193650009304818e-01
-3.851776592829359025e-02
5.321578860585287618e-01
-3.066606208055548954e-01
-5.184565607181990110e-01
-5.594457425684318252e-02
-4.768530707845610728e-01
-3.210423486472440135e-01
-4.923769347039699262e-01
9.788003747628568618e-01
3.679649844213357390e-01
6.553934907522593889e-01
-2.171822787247046360e-01
-3.434009025355782008e-01
7.367478117824841632e-01
2.692271271494095508e-02
-7.973746273330175605e-01
-8.912154241763059481e-01
-7.397365863854996615e-01
9.004912041803083689e-01
-6.053048771513773740e-01
-9.990455269629305857e-01
7.415023574154666619e-01
9.166886550381061483e-01
-2.118345472282214814e-01
8.652496614148716958e-01
-9.029058430521719192e-01
4.404133222423551874e-01
-4.218277338126208420e-01
-3.772625004629863721e-01
-1.589494533954138866e-02
-5.983869124937220008e-01
-4.208350268167941888e-01
-4.578869743261875236e-01
-6.966549744917711617e-01
8.008559636630376843e-01
-7.866694340766620108e-01
-7.436519897314122218e-01
9.272186734890484061e-01
-9.125592206918211602e-01
-6.457341536780503155e-02
-8.045650106442701066e-01
8.978288771601636853e-01
4.514078611840819377e-01
-6.247724578947082552e-01
7.341157097901389594e-01
1.896881234193092958e-02
-4.807622103691417959e-01
-4.560493777930978432e-01
-9.609260933654777403e-01
-9.792281992338487395e-01
4.602635196807589590e-01
3.515472904294321133e-01
9.520881528408446925e-01
-1.893727817152823789e-02
5.570205230727944823e-01
8.206096471565078598e-01
9.697121343461934107e-01
-4.366151556210107199e-01
-5.978091562664231695e-01
-1.207370623581145441e-01
4.870883892177462204e-01
-8.093915554880268814e-01
-6.075739916873028612e-01
-8.691981276260325462e-01
-5.994397983949570907e-01
6.190850417927333815e-01
7.472996473150617103e-01
-7.947000347010453325e-01
-4.231409292180021708e-03
-3.125755101502702971e-02
-9.515341833743562461e-02
-3.352178056863073241e-01
-4.291417646897150995e-01
-8.464268317220340343e-01
-7.345000847388056808e-01
-2.918469287144014324e-01
5.829382841047170416e-02
8.543059552594269856e-01
6.203887255864406480e-01
-6.887551676817413870e-01
3.512342813523519069e-01
8.471042379266273681e-01
-8.353109488606527133e-01
-1.643740906219808284e-01
-1.100715091276331936e-01
4.084238387983130103e-02
-8.650907037028467972e-01
9.808579701791328986e-01
8.255816410067051692e-02
-5.637852740621567271e-01
-3.341684883407913809e-01
-7.092946525554699733e-01
4.281482697668521631e-01
-6.753766427239003001e-01
6.077026017932893875e-01
7.473301427204919190e-01
9.534930643584536014e-01
8.098748565481248551e-01
5.397020982467859440e-02
-4.117712779465612094e-01
4.356638318233008178e-02
7.423243947293824974e-01
-3.679346267420486871e-01
1.628751134864758754e-01
9.173533317066586701e-01
4.574520993286292914e-01
3.530919976393604998e-01
6.731372048289905319e-01
3.413046581612473318e-01
-8.552629371749094211e-01
7.929734769276435280e-01
7.839113595812756685e-01
-5.407281425050856072e-01
-5.686490605612954941e-01
2.124952824648356220e-01
-8.377152489780081979e-01
-5.025255490214279863e-01
-5.534642207461359931e-02
7.728183766121361487e-01
-4.060937516656695223e-01
1.250828647902364477e-01
5.966057428993623013e-01
1.877015176276017883e-01
2.533138312692868599e-01
3.700975293764152685e-01
-2.653604278060406330e-02
-3.999029327336647288e-01
4.425461000428938529e-01
