-8.780164305526865220e-01
1.790233782278543018e-01
-2.874279450899448474e-01
-8.682666563184389119e-01
4.180290776949595610e-01
9.825787150676763559e-01
-1.187041039488638816e-01
-8.361755906308387942e-02
-7.549683005684864057e-01
-4.440762752523661483e-01
9.586472020529057669e-01
-3.271076380091280100e-01
-7.775992459218366015e-01
9.679811595667731083e-01
-4.643963306156853044e-01
-5.073383729037472811e-02
-4.115357804149049059e-01
1.693771458304953459e-01
6.284775872632608618e-02
-2.519593252025644770e-01
7.511435733693505590e-02
-3.396838860774906710e-01
-9.081011787025117243e-01
9.967541864223896653e-01
-5.153776324029828437e-01
-1.823861056537039449e-01
1.053227637015186069e-01
2.929611216059568868e-01
-5.451209019043947723e-01
-6.390619445127052600e-01
2.870061827901082552e-01
2.565735434908189561e-02
5.832281331827604554e-01
-2.031573287780332748e-01
-5.756302791094267679e-01
-9.064815272443160765e-01
-9.494295379328656637e-01
9.243685392202380946e-01
-7.068669142796015770e-01
-5.291469814383717996e-01
-3.372135452686428891e-01
-5.195941674760662377e-01
3.115518669726236034e-02
3.552856948992575425e-01
6.384337186984248014e-01
5.855333210633637542e-01
7.269995400434634547e-01
8.905060985651427341e-01
-4.374170037885871665e-03
3.019588250109999095e-01
2.102426726403141544e-01
6.208424115329538306e-01
5.100191893860226422e-01
7.528368726579026671e-01
1.693324856169671211e-01
1.505800932274450332e-01
5.332425597858838628e-01
-1.785135041461147765e-01
4.610776386654804604e-01
-2.241042927198533263e-01
-7.675413133200990057e-01
7.590791479527299046e-01
-5.048459852188482699e-01
6.561770889167455323e-01
8.834565347771325960e-01
-5.836724406496704987e-01
6.873295281799127743e-01
7.278603874317814970e-01
-1.634772066528871193e-01
1.098559781734653740e-01
-6.947790964805289349e-02
-4.749084565109364942e-01
5.164426338165015729e-01
-3.711709364026942737e-01
3.805410767101435887e-01
5.446637905078102193e-01
-3.447185776938781476e-01
6.566377473362505768e-01
8.315417622881151605e-01
-2.286698248231866515e-02
4.319465906753745532e-01
1.275799704406832547e-03
1.946908980119181898e-01
-8.369344172783481639e-01
1.157346871593105675e-01
-9.210979847018130329e-03
7.713508909927755397e-01
-8.412067720406333216e-01
9.628955160614971476e-02
-5.090487162282513189e-01
2.446925205593128982e-01
1.710792113392889391e-02
6.915896011712634461e-01
2.964965385558013811e-01
-6.124241556320326740e-01
1.198364926870614244e-01
-2.041980593958832024e-01
-7.302589489998876360e-01
1.785086313918169409e-01
-7.745681484237247894e-01
2.820740869936555484e-01
-5.095694936965209365e-01
6.630948529719482565e-02
-6.764949472894816740e-01
7.246055376195119635e-01
-1.019749720822473726e-01
-7.773632023770660204e-02
6.531653306722582375e-01
-1.849838928364011537e-02
-6.093317432636906616e-01
-4.015822930527204182e-01
-4.888629284522811869e-01
5.907953616609236125e-01
6.147352450245682220e-01
8.734217278537212970e-01
4.106497487913296496e-01
-8.260298930231670944e-01
4.214345197017119737e-01
-2.574301376429917187e-01
-5.860174014461085878e-01
9.530609185846885545e-01
-3.095259474780802655e-01
-3.605426458328140349e-01
7.586670401649024953e-01
4.419184519405563449e-01
-9.982647311702199655e-01
9.277137650501252608e-01
2.149178497442785218e-01
-2.596292703417675263e-01
6.448944379302645746e-01
-4.524305245509929740e-01
-6.173354456167261528e-01
9.340465828841604257e-02
-6.071948731985108427e-01
4.702739690584454291e-01
2.104890419633393961e-01
-6.069453357530802950e-01
-2.415308091851313677e-01
6.510751275937041171e-01
-3.399031482465850740e-01
-6.306606360540498724e-01
3.388816414836248736e-01
8.731957585363829821e-01
-5.208323521109270438e-01
-7.261097754058938314e-01
5.979718809373053556e-01
3.474308121450615516e-01
2.668462073388311318e-01
-5.616587214676016515e-02
6.871393666532654709e-01
4.712492422635030653e-01
9.022530135677189200e-01
-8.202680786875560237e-01
4.062099566538051043e-01
-8.374546782573379922e-01
3.674168753151951794e-01
-8.931517435084663781e-01
-1.399845804848898201e-01
6.640928869102680210e-01
1.214130933526580414e-02
5.974410448486904279e-01
-8.685808948475677305e-01
9.943027996845605898e-01
2.718306113209967290e-01
4.444497305947310295e-01
-8.508442878874971083e-01
-9.441623945585180255e-01
7.201242957933517985e-02
-9.344935370236551186e-01
1.721351497026097910e-01
-6.723781010359939359e-01
-3.039753649101490929e-01
4.008996955628214565e-01
-7.698727469840336290e-01
-9.857173335006002013e-01
3.453466498713142485e-02
-7.122305838084070917e-01
-3.699665494824453393e-01
7.752051493108647051e-02
-1.268812842130229157e-02
-6.200762366238468104e-01
5.211582719035607880e-01
9.160688080301615521e-02
-9.751321230246854377e-01
2.949070138704059652e-01
-6.862604505905651742e-01
6.281311401931644056e-01
6.620796896063443349e-01
8.678392390167248838e-01
-7.986261703982937554e-01
6.222569106947477557e-01
1.266487607033219831e-01
-2.990646225246811341e-01
-3.048039088039624644e-01
-2.845092504548998313e-01
-8.518770777591615495e-01
-3.632823058604102151e-01
-1.477530169629770462e-01
-4.196159995255901443e-01
-9.843613057981515091e-01
3.139835622813968996e-02
1.811444367107182263e-01
-5.495998095388163751e-01
-1.875217225472201044e-01
-7.021077277926845994e-02
-9.187968201807648061e-01
-5.205126332485430218e-01
-3.392635589528054663e-01
-6.886246480568884998e-01
7.500688759893376911e-01
4.835055253596487468e-01
4.346521868407327016e-01
3.278927154938351407e-01
4.154895535987821464e-01
3.384000750040336847e-01
-5.942041535451036971e-01
8.383576830328109963e-02
8.156840182173734632e-01
-7.202838767272856657e-01
-9.915390965286803304e-01
2.731733679097003709e-02
5.370579082870456933e-01
-6.630138543894945613e-01
6.928767292159481173e-01
-9.610606458028660981e-01
2.218267696955478208e-01
3.729141764771228829e-01
1.642979378602769103e-01
7.226277446281264005e-01
1.242131762937033201e-01
7.750304642952667855e-01
5.062146301742305177e-01
-8.322454274008499464e-01
6.243642908329598562e-01
-4.557742722860333995e-01
-7.146720351364921342e-01
6.897976207696303597e-01
-1.608221733856203262e-01
9.194676066737172970e-01
-7.621126349077744777e-04
-9.478053193414992528e-02
-5.487999281577207178e-01
-5.423075538957711217e-01
5.819420272495348101e-01
7.106510132772994037e-01
-1.082389236603114036e-01
3.211558644489931336e-01
1.689096308389186341e-01
-3.194723490075475070e-01
-6.811922286265053028e-01
-6.410518515694496600e-01
-5.391082066889332225e-01
1.360315238734688403e-01
2.299828162839183676e-01
6.874739695135705375e-01
9.250302152782206022e-01
-8.368148384877931445e-01
7.729125700760048900e-01
-5.486232506715680302e-01
-5.836110143141375328e-01
2.932221540361041878e-01
7.514658165615120122e-01
7.246089799776611606e-01
3.347023368744965754e-01
8.302690063902149475e-01
