9.008840430690343570e-01
-3.171181905659050670e-01
-5.372345463879124594e-01
-8.113311905405062863e-01
-1.479468956115750355e-01
-2.742115037699339730e-01
2.353249130636747566e-02
9.468175967346117439e-01
4.165135052446216068e-01
8.570151063743141062e-01
-8.255528161689513755e-01
6.524364045575030691e-01
9.991732398858377273e-02
-3.076809289228785715e-01
5.396042075440337094e-01
1.574570540702870947e-01
4.070882064521186283e-01
8.473984627976030026e-01
-5.259991106867623056e-01
-5.598632013576589905e-01
2.916104034131350442e-01
9.396309431374290089e-01
7.896911476508123862e-01
8.799503152589598365e-01
4.334272388120607999e-01
-4.610940389743767298e-02
6.021280909447597196e-01
-4.270283525097866573e-01
-1.036973185062535219e-01
9.994605702539196557e-01
8.376772807622334671e-01
8.263893779941893225e-01
7.278776982904422432e-01
9.781942718086271693e-01
4.167121101602406785e-01
3.105202715003159142e-01
-6.301783845073054557e-01
-3.382608387916015147e-01
-3.189704307645806480e-01
6.612004498341381709e-01
8.065103635418373607e-01
2.550149726289911989e-01
-2.943118229387009510e-01
-4.843597305102220751e-01
-9.515765033481935475e-01
4.077520479316918411e-01
8.981994871216825160e-01
-6.051033419638736088e-01
-6.754418143643525774e-01
-4.829211455758377625e-01
3.873336969053771117e-01
-6.126463775147319435e-01
7.345678203128480632e-03
-9.951042846163964395e-01
-1.482577030193614753e-01
-6.192989424524564246e-01
-1.800488032884652867e-01
9.017065853396446506e-01
-7.157253513393078137e-01
9.919873329549360186e-01
6.566213611350197876e-01
3.395956298012361430e-01
5.815048009769505644e-01
-5.360170662481085202e-01
-2.164917104007442195e-01
-7.931685722038788189e-01
2.608162235279067875e-01
-7.928621014172660963e-01
9.009289599036223173e-01
8.742027433973342809e-03
-5.557382472446237287e-02
-7.821495260555642037e-01
7.791803272905162281e-02
-4.584833707276665393e-01
3.029621057234963555e-01
7.538010533223458154e-01
-9.958508078468364388e-02
3.457232078233132277e-01
-6.932554812992828275e-01
8.988175974033540960e-01
8.383808966398074158e-01
5.466506710741136921e-02
2.451737883556601716e-01
3.447081812031420611e-01
5.817431743125160981e-01
1.638505123247491202e-01
3.135254465012504710e-03
6.797574180890637585e-01
8.709226838213817157e-01
-4.862435475102189208e-01
-2.326311870788178027e-01
-4.009601099988298056e-01
-4.569416676422874968e-01
-1.074720137314844060e-01
-1.595479953820586605e-01
3.349125553319067805e-01
8.112080190599384455e-01
-7.508939537913932316e-01
2.018317499121762282e-01
-8.995362694025645922e-01
-7.454557211977850262e-01
5.482490569300235705e-02
8.380130164351733413e-01
3.973008833955999908e-01
1.073195021837656249e-01
9.581673231308427408e-01
7.670109962927831315e-01
-1.718771588436749376e-01
1.537438525590846261e-01
5.090812056738911462e-01
9.961170766037334978e-01
-6.340959678505890817e-01
-9.104596895490404407e-01
3.373186179239229254e-01
3.743931252797452203e-01
7.542826445561034987e-02
-3.064631583848100860e-01
5.995930699721321311e-01
-6.889516316067769708e-01
-3.817677996202306634e-01
-2.099884812474965834e-01
-2.235814090809187249e-01
5.332433211279288265e-01
6.819808506403137738e-01
-7.011926683894280643e-01
-2.250111661157936371e-01
-7.295854550490734614e-01
-7.644029243381740280e-01
-5.071111503268608267e-01
-5.660293499253563620e-01
7.583811718114206180e-01
9.769047710017417785e-01
-9.845597247393857998e-01
7.562562228862557134e-02
7.986347720050601673e-01
8.498497186589499819e-01
-8.437572315634245257e-02
7.768125113201160836e-01
9.466698219979896578e-02
-3.168903541901726406e-01
2.901016072858015882e-01
-2.504701845744929933e-01
-1.422100318839851774e-01
-1.924415624003805725e-01
-7.862499569246623743e-01
-8.222136759921021554e-01
6.307535196515994258e-01
-9.469017825787622300e-01
-3.139629093559381801e-01
-4.450466411229523356e-01
2.436790527817616070e-01
9.299357328869710670e-01
3.026079227559246299e-01
5.981037234741899411e-01
-6.007140361077993873e-01
-1.425972425720707371e-01
6.779558034700055025e-01
8.897479244047481473e-01
1.392907579386180039e-01
-9.030516658370444372e-01
6.742495360952367456e-01
-7.080760270836534698e-01
-1.940537879900938734e-01
5.764634610057850495e-02
-3.127939626067874901e-01
-6.941842635999830868e-01
7.911814076778287408e-01
-1.481675978896130896e-01
-8.352131965594886687e-01
2.086163145937478536e-01
8.525135665271643681e-01
-5.745256833533418650e-02
-5.775820047452955297e-01
6.612341013687514923e-01
2.545671862683871467e-01
-1.264477922251767694e-01
-1.432466343171185930e-01
-4.183469852003955936e-01
7.055494130495962857e-01
-7.742860817689203312e-01
9.561826223793956636e-02
-9.728570193918222309e-01
-8.521595632014478117e-01
-9.887215222047567309e-01
-3.363283823593570254e-01
-7.055162618574346567e-01
-7.510038887466110591e-01
1.031640856130913164e-01
-4.584443779001621255e-01
-4.184058121519775852e-01
1.113277804349612765e-01
-7.081040811682921543e-01
-9.553440017131777928e-01
2.396487906827222680e-01
-6.988531653430825052e-01
-2.648329453150402024e-01
-1.233241356966716662e-01
-3.755145764559650878e-01
-6.714605517158407366e-01
3.325837659764929732e-02
1.464908640715725241e-01
5.257248296648975305e-02
-8.880190316315017540e-01
4.847966844087450156e-01
-9.877880923431501259e-01
-8.065368283242839720e-01
-3.233565934853375179e-01
6.575124589156684518e-01
3.548849397502276126e-01
1.235638203377122935e-01
-3.986463904077091058e-01
-2.336214642553353649e-01
-1.336569127815889768e-01
8.805466701064412760e-01
-5.958210635923373300e-01
-9.604675352343605699e-01
-6.440699742074862399e-01
7.346252613550761090e-01
-1.892888020183944864e-01
5.341511597387076371e-01
9.913374421138687609e-01
2.787765462017826046e-01
-7.704724397730844387e-01
3.790854258577556202e-01
8.647180424271958543e-01
-7.982877646415498241e-02
4.064119191670330089e-01
8.193808090435705793e-02
-7.676429115187328733e-01
-2.006415746355902918e-01
-1.085078250330588912e-01
6.762786873744195404e-01
-5.855403340751630381e-01
7.037116598372872289e-01
2.530839756501186422e-01
5.591344025787692296e-02
-4.035056815782580575e-01
-6.136143048215438878e-01
-3.855843020041174185e-01
1.035627793586577639e-01
-9.802966361880760537e-01
-2.097117946825388657e-01
-1.792232870540169110e-01
-3.468139830573235827e-02
8.194351931212984219e-01
1.611795569115899163e-01
6.232123260887008076e-01
6.998766617284200020e-01
-5.253886427701164319e-01
-5.612618804417901508e-02
-9.629203143755338257e-01
-1.251240624261518164e-02
-9.015872583538779850e-01
6.043265295797701775e-01
-7.139655150671808670e-02
-3.997766607595780730e-01
-9.964113236419978037e-01
4.634543478424466567e-01
-6.037208556602899900e-01
5.674720153119034993e-01
9.970199561613333206e-01
-2.536009986207254929e-01
4.050775027578323861e-01
-6.838540672919979357e-02
7.450612679106027869e-02
