-4.362420206002750600e-01
-5.505362006116434337e-01
5.893000436902113837e-01
-4.751985180679005882e-01
1.568690722045085195e-02
2.007580168528204645e-01
6.148147827521066588e-01
9.006091492936629805e-02
-2.444793576676680402e-01
-4.845833090378002250e-01
-4.716007208769381620e-01
-9.048265717169678979e-02
5.918175752823571223e-01
-1.978439917151895155e-01
2.704700565047921668e-01
7.896982941436414549e-01
4.191818489228475997e-01
4.525667067028220636e-01
8.876165510827376259e-01
3.994706504411547066e-01
8.397578066522841667e-01
-3.450852754058284511e-01
7.319882297759661149e-02
-5.396210128216154533e-01
8.618631950080803961e-01
-8.224484265810290129e-01
8.129060552502997972e-01
8.104505454156436528e-01
-5.994676252946253836e-01
-9.362270170422504201e-02
4.897481825425129554e-01
-7.462166994975893974e-01
9.886553950711149952e-01
-6.457820417173871785e-01
-6.991928856775693202e-01
-1.169152228683492112e-01
-1.006285423539414747e-01
1.209703416598517656e-01
-3.372930179259971961e-01
2.341599255448054695e-01
7.800391912863666732e-01
-4.669498886297356322e-01
6.818535089256301251e-01
-4.448071703731586446e-01
-1.718027726553974510e-01
-8.120356496929614920e-01
-7.992238371333999503e-01
6.630216472866679034e-01
3.296344708964302761e-01
-8.576112302764715700e-01
9.725755355025513804e-01
2.727148415344426979e-01
4.984359311198480746e-01
-2.599238844284297301e-01
-1.758019508448498414e-01
4.375850557482083847e-01
-9.229146926121751804e-01
7.179856568706706188e-01
1.980804042848516300e-01
-8.629090401300301139e-01
-4.621780002884070537e-01
6.720768020142051657e-01
3.550936105469904014e-01
6.663425330865306861e-01
-4.893851035069667343e-01
-2.947433556309686509e-02
5.126147201079360727e-01
-9.737735553697490776e-01
-8.346899496120110395e-01
-2.994067966632143474e-01
-6.720309256783421059e-01
9.265982174858784504e-01
-1.413572362429160734e-01
-5.917450582376686530e-01
1.591151308938196784e-01
-7.699037464149294241e-01
9.690182401835034653e-01
-8.480694337509933067e-01
-1.013360860286083298e-01
9.404741626834840496e-01
-4.529515161935897538e-01
1.182969750222406802e-02
-4.677460355338380893e-02
7.739721885891959197e-02
1.890549120402047478e-01
4.494654843714029901e-01
-2.004438368540526483e-01
8.612331332419165264e-01
-3.667121793127734453e-01
5.184406188616059730e-01
-9.639543089222475380e-01
-2.074367051481309510e-01
-5.318866474379224663e-01
4.314304168194573741e-01
1.962531049443527742e-01
5.056895432658718992e-01
8.310459904164628764e-01
3.963715766427231557e-01
1.043367342874732540e-01
5.611025467570538439e-01
6.124220612752384607e-01
-9.359860260239756258e-01
-5.239449460393377223e-01
9.239733540534476042e-01
2.374500161708794632e-01
-9.088311401476367735e-01
9.058767880876712475e-01
-1.037312546897717347e-01
-2.402306397737796750e-02
-7.496656846329554647e-01
3.405943987275832363e-01
5.509919320334799586e-01
-9.178748392171578452e-01
-9.882793003679273269e-01
-5.665840278041707201e-01
3.934689533906263748e-01
-1.671388937075155567e-01
-8.388487765237788718e-01
3.532165404418248222e-01
8.608109223405602251e-01
8.593328943677625009e-01
6.036791781027517345e-01
5.515321102389805219e-01
-4.280705365582830879e-01
-7.110653186499200640e-01
-5.475819952092719767e-02
2.691663842963594178e-01
7.262991349357275084e-01
9.284866633916293299e-01
7.857975244450301489e-01
3.826547246533227309e-01
-7.015710180231948812e-01
5.729671753411533786e-01
6.588124400978809803e-01
8.742148782695902121e-02
1.634060421576539746e-01
9.145851180224817689e-01
8.422835424939709714e-01
2.582574555999661570e-02
2.786045509102459405e-01
8.833767690368241610e-01
6.306696276193322070e-01
7.242075766313516016e-01
1.129958158152613024e-01
6.459545132357717989e-01
1.100408899006710683e-02
-1.099420225808755980e-01
2.496111952125041888e-01
-5.195610172707816332e-01
7.475137294336304805e-01
-1.934714346020105502e-01
-1.296190802103469597e-01
-6.000838420269916096e-01
9.313713565079733137e-01
-5.479430712547190829e-01
3.551144147111549021e-01
-8.504576185383339038e-01
-8.672766141181513788e-01
-8.835610453995030866e-01
7.152986974329769154e-01
-1.291500391638695788e-01
-4.555509713815704131e-01
6.450633292177965217e-01
8.782618993119799544e-01
-4.727605323216745870e-01
-9.390398507168742359e-01
7.357570632464291993e-01
-7.031795010641104238e-01
9.968451114836662796e-01
9.845109757938401707e-01
6.887263018670020109e-02
8.556236164892736529e-01
1.997919129270497862e-03
-2.320457239674909022e-01
8.017980886207867197e-01
2.862966761121110704e-01
-4.255358604766352748e-01
9.210756450597801237e-01
9.606607526334864922e-02
-7.491574666859563969e-01
-6.292859812539675080e-01
-7.195804440199662366e-01
6.335341356829307102e-01
-7.306760502763334220e-01
-8.767782712858003258e-01
9.443491646495296710e-01
-4.919308650864164800e-01
6.401223816196597305e-01
-1.097582366999942938e-01
-9.925407838109381320e-01
-3.860560886689641258e-01
-7.593952149408769170e-01
-6.178619187775213906e-01
8.376340905968073791e-01
5.126891851174562031e-01
2.513923596278038186e-01
-7.557110919510356961e-01
4.754533537890939243e-01
-3.319295429307711487e-02
3.767363045879843497e-01
-2.294649252455347455e-01
1.285401392505474139e-01
-6.955740938269119322e-01
2.002871938816439545e-01
-6.887387439566983183e-01
9.660038784723714578e-01
-9.938121336906424741e-01
4.183199138993003441e-01
-7.528616797624430035e-01
6.556472556584163058e-01
-9.533050001832024112e-01
2.896342759738650408e-01
9.307769692453475852e-01
9.997193372373014419e-01
6.962112558909372417e-02
-1.842352107719973375e-01
-8.331430878210106528e-01
2.693213184849678754e-01
-7.078997884602977742e-02
-5.018541629421533479e-01
-5.215601584989659756e-02
-9.763775151820905940e-01
-7.300810807682966974e-02
1.800605187963988385e-03
-4.119697330312823702e-01
-2.286595111127898150e-02
8.549198500005523726e-01
-2.810525626120985443e-01
9.039428697583478112e-01
2.481116984239895018e-01
-5.803421591143977931e-01
-2.675880747867092069e-01
7.974596873348240855e-01
8.045852028967406255e-01
6.933865774760210599e-01
-3.325202145550987254e-01
-2.273805225289153853e-01
9.304468065839839319e-01
-8.991093333456940950e-01
-3.824594451189855526e-02
-6.840227211488691950e-02
8.819865055959472677e-01
-4.753209406833249773e-01
7.298715765999146399e-01
-2.131359250694129237e-01
4.577884610251075070e-01
-4.893491628497030899e-01
-4.505605550124247571e-01
-4.610367198380593834e-02
-8.147911270120633542e-01
-7.537154878173841777e-01
6.338780842625046930e-02
3.418511029419333269e-01
-1.206687430035320308e-01
1.120210886443471221e-01
7.361513256650997761e-01
4.755876287256697310e-01
-9.684425823334863459e-02
4.270652120869122825e-02
-4.049530907752201259e-01
9.255596079559431644e-01
-8.650053735031417723e-01
7.616606397479968038e-01
-5.774686153639245756e-01
5.168160571678770410e-01
