-8.919084785721069775e-01
-3.444036079312031706e-01
-1.337747352407041568e-01
-1.341993828839482816e-02
8.915810648969488827e-01
3.037330134387652425e-01
9.841253427172036439e-02
4.645473728919440326e-01
8.945170057177631584e-02
8.129464022379329080e-01
1.149831834449845935e-01
-9.702804733222651912e-01
1.916251180606094451e-01
-8.997311806634988862e-01
7.424698161145455444e-01
7.943407099850097186e-01
-3.683753849880155862e-01
-1.919463090851094567e-01
9.503110373659346966e-01
9.137291758186383284e-01
3.121131219778423560e-01
-9.311203997467072391e-01
8.755275517165705956e-02
9.566000017566016478e-01
5.282477895401360701e-01
-9.844225107887480952e-01
-6.197021777146050070e-01
-3.461735851712668399e-01
-2.594952439623969820e-01
9.411113978157930049e-01
-7.749691672648153506e-01
5.256974032617454107e-01
-6.243330558213255888e-01
5.644193798564476339e-01
-4.288684643724072210e-02
1.556715631497700425e-01
6.969634854625272880e-02
-8.812928489028741819e-01
3.250382053402178784e-02
2.039386370085236599e-01
-4.980515192173275985e-01
-9.749593861045391385e-01
-3.359963017266027752e-01
-1.743774678888541096e-01
-2.938688223088883333e-01
6.021514203816256128e-01
-9.459512053376450957e-01
-2.615912450287545266e-01
3.626223267134731643e-01
5.925532242980138253e-01
-2.691262396060654094e-01
-5.104689542882232534e-01
8.578280804033970863e-01
7.177614119547561788e-01
3.486662328727407889e-02
6.994530898591975188e-01
8.363334062983551753e-02
-6.386888342480305791e-01
-5.522554837994702037e-01
1.340594561585952693e-01
-4.806133233676912475e-02
8.355326240088050138e-01
-5.611336259391919157e-02
1.835155320525334588e-01
9.060694142882788071e-01
7.596604423757491453e-02
-5.939429449533031313e-01
-2.505615604951796360e-01
1.340478983008503988e-01
5.241578932835955218e-01
-6.272069908939574834e-01
-6.877993577368470834e-01
2.517284699455557551e-02
-9.164569902404160473e-01
-7.642675335782551649e-01
-7.592406485961085139e-01
-8.683270994548413224e-01
-7.435473052456851306e-01
-8.065927992362766918e-01
1.073495433185545078e-01
9.739751619486067824e-01
-2.071849470769149271e-01
-1.601719094108906560e-01
9.898984338522740511e-01
6.956279817135089250e-01
8.043809089549469604e-02
5.046809544921995183e-01
-3.091409805148059853e-01
9.326928865193389040e-01
-9.480346988072398950e-01
4.060061394888716535e-01
-8.033418911808678509e-01
-2.632180328089235299e-01
5.132007583942674867e-01
5.412999778925353667e-01
8.249737621748700622e-01
9.536952040099717642e-01
7.904085379805483313e-01
9.795784417060113825e-01
-9.150494847953343225e-01
4.871092657571263196e-01
-2.605191863931066720e-02
2.304374667473017002e-01
7.145364874074058292e-01
-1.349657299955770995e-01
-6.595071810006825075e-01
7.680740462169044491e-02
-1.008328211479860848e-01
-5.881070040689191369e-01
4.825990121461241067e-01
-7.713095191760959146e-01
-9.841114682192046992e-01
3.395051818115195630e-01
-4.955722131944839681e-01
-2.368454802772326229e-01
-7.344827326622427321e-01
4.652707909757070048e-01
-2.300484030471441343e-01
-3.594681411164049045e-01
8.698174698660943172e-01
4.507572948919529310e-01
-7.391752547992518352e-01
1.228237952283333101e-01
4.331103254022317106e-01
-6.556138086138643128e-01
-1.654690280402433267e-01
1.426707758487320010e-01
-4.792324206789664309e-01
3.776132769053344163e-01
-5.478325987028744848e-01
-3.419554195934764174e-01
-4.250664675444535412e-01
-4.577511883252398661e-01
-1.448234372381349555e-01
-4.352282833995433364e-01
1.100344480987733853e-01
7.724342825652437128e-01
8.321608367884119062e-01
9.737815996666459029e-01
-5.431655047525669744e-01
9.092795831951865360e-01
2.695202177133284582e-01
5.909325403196818982e-01
5.731302309376973270e-01
3.807917033330787682e-02
-6.377141608475505041e-01
-4.788773801639440997e-01
-9.784805755719494513e-03
-5.831273980238327326e-02
9.596865465382244942e-01
-7.085302792749970102e-01
9.843038640889489876e-01
9.460986888122664418e-01
-3.189292177936220440e-01
-5.609485678979027057e-01
-9.305415764551923097e-01
5.138994563307084373e-01
8.804462104390275989e-02
-3.961389858501807026e-03
-1.368869826815548585e-01
-6.175997660265466482e-01
-6.226522423996292410e-01
-1.892394005877737762e-01
-1.975661669020529754e-01
-6.774443504549814143e-01
-6.099936761726905132e-01
9.009139309409459617e-01
-4.649963278294424462e-01
-3.033202327388164754e-01
-1.094229649581652808e-01
-1.890743503908232093e-02
7.751109423094866280e-01
-6.830787097152917209e-01
-3.055765315350162936e-01
-7.332504111637339062e-01
-5.407885397138898487e-01
5.185924926413292280e-01
9.746795229665257132e-01
-1.170608980840948110e-01
-2.674389953145654975e-01
-7.660476204958734936e-01
-7.366505591890113447e-01
-9.554824258731464681e-01
-5.456809123283132834e-01
2.522655724997575621e-01
-9.135072306204350401e-01
-9.488090935926738467e-01
-2.044713662882087224e-01
7.288851075502877919e-02
-7.392567243161414225e-01
-9.100693601118159393e-01
-9.782462746621229943e-01
5.668801525972542166e-01
1.732972525549376641e-01
4.843581451516190128e-01
4.041581912402103516e-01
-2.734302372088075472e-01
-7.054966046206709862e-01
2.675985429286287243e-01
7.799547566442401880e-01
5.333907506561690326e-01
-9.538792270570184417e-01
5.590045265321474943e-02
-4.738009280152069014e-01
9.711667411769313585e-01
1.203050105320953023e-01
-8.080034769600219491e-02
7.311804986452370425e-01
6.073389373805260227e-02
3.466189479000902907e-03
2.649105718099020734e-01
-1.453314539241272740e-01
4.551758859337911023e-01
-8.304173187975703030e-01
1.479223629260792983e-01
-1.202725462560918501e-01
-8.599688235269900005e-01
6.484996176172295179e-01
-2.670957264811237852e-01
-8.707688925210121944e-01
1.319727581699683405e-01
-1.830042651457215452e-01
7.671988126721598356e-01
-7.925385643280105086e-01
8.161641648364093005e-01
4.615265830591397389e-01
-3.580556996313968288e-01
-1.056057387132764980e-01
9.892889238642426086e-01
3.018330326408968922e-01
-9.614390746095078377e-01
-2.262559339029142080e-01
4.242053386921318392e-02
3.239094753822904238e-01
9.907290233954491043e-01
5.155699272116032184e-01
8.679963540120827492e-01
4.183365762632873519e-01
8.058547691534165835e-01
5.503658067404730847e-01
5.760054523565052431e-01
-9.316151695515249020e-01
-5.070720477688857031e-01
6.831543618098718795e-01
4.563405844318042526e-01
-6.465616786528183280e-01
1.931639959638755677e-01
-1.120512601793131058e-01
1.594029129821938895e-02
3.908507151555622450e-01
-6.422192873837553329e-01
-2.623569969107799604e-01
-5.063430019902119827e-01
-2.356395763756937711e-01
1.599463370943277063e-01
-9.474332342355511472e-01
-4.330482203612471270e-01
9.387707739019217623e-01
1.976453786858445305e-01
-7.667987906068258752e-01
3.790641956307696514e-01
2.843552932155279933e-01
7.848926552075847773e-01
2.988223922348298700e-02
-6.410615940516457556e-01
