-0.4421911309797235,0.4912294111298017,0.133885931292981,0.623625923793909,0.3156232172528053,0.1767295512384648,0.6667120077994957,0.15867561465851665,-0.4691198934847942,-0.827033388154246,-0.7201172570070324,0.909805519524076,-0.469815298903844,0.9960159500094528,0.3415310128600042,-0.2115375797796064,-0.1128845842447117,-0.3275470966065086,0.5360494180648168,0.9478999651266391,-0.8464471385448629,-0.5451336607737407,-0.1819696305136309,-0.6428236415608835,-0.010910705866098658,-0.4612573494733194,0.9083961986166658,-0.2136748716749568,-0.4375386022668457,0.29317762967079086,-0.7026067002243328,0.9226788674733739,0.4107421216369551,0.6494199200080959,0.0573436322387757,-0.07976574292835514,-0.8837802290351047,-0.41276656890377383,0.7328600737704685,0.23754151428418901,0.9039371054433472,0.607107596822591,0.6586119033220714,-0.10245053807688698,0.6662297770941821,-0.22541717382039006,-0.4189831263345103,-0.9588800401173465,0.25023427395327213,-0.7890470569072285,0.952259403664198,0.532189713633455,-0.36188797707067755,0.5115424869975935,-0.25707029690063155,0.2558254308401038,-0.7458514977563984,-0.412374156675559,0.9955002664732331,0.12116944878525016,0.02001781931495006,0.6528966297524319,0.15951539902064327,0.6272179653833823,0.763162118819122,0.7024108437523751,-0.7567850942970387,0.2635792612669905,-0.29686857064816197,-0.10215331405024775,0.33478687050310674,-0.3229062713487061,0.17175148988188482,-0.44500792083406804,-0.6605836592085794,0.222081016692812,-0.3433981902845622,-0.3644246449365738,0.3306636965016714,-0.9509541152597172,-0.2978226646472557,-0.4421679504877807,-0.9429571345329226,0.9027142272958837,0.8512084642209974,0.0562631097270887,-0.6329134262644858,0.07390582699931203,-0.692127578912074,0.646023687180258,-0.9299115584352697,0.0050642486549867805,-0.8624617154826624,0.08046683085203665,-0.9284751128655355,0.4153216482264943,0.9023896684054304,-0.8458822433974642,-0.506056639326314,-0.6632893581077044,0.9625114674960111,0.3935336844150197,-0.6254036551503805,0.679227969103325,0.372717303363445,-0.07874718789699386,-0.1292624563979945,0.652880463541138,0.7541611445811323,0.5010998472015424,0.2975183580256213,0.11200021678101835,-0.6093737347075974,-0.8886166925912657,-0.028335820436825143,0.33767093881876087,0.24709154339037998,0.21875338568645253,0.07581185418243375,-0.7002175572981497,-0.9251532633634598,0.2933916936758716,0.4815411929299509,-0.1987001813209479,0.9982617248527814,-0.5836931627352147,-0.2028047258263035,0.9752889990203295,-0.5868127051968066,0.46232626291806134,-0.5631423599786951,0.8675110711241811,0.13237495411307965,0.25034399664272144,-0.06955064561007607,0.06885168530066177,-0.4363860645208686,0.20294277649963854,-0.05125190621208753,0.7445983064738309,-0.1303075597502339,0.05758938987187623,-0.7922960555920675,-0.1578954830907997,-0.660715416990346,0.46301150410170533,-0.5886133204355659,-0.9837889987763353,0.6066948824793343,-0.1941460329468958,-0.8695120803791732,-0.1239957829323759,0.551036773217239,-0.8565970283226712,-0.009211955263583427,0.6201673961559959,-0.7573809708630783,-0.6665226109046978,-0.053432030791701335,-0.3491711421789272,-0.5162772148513812,-0.9883845382539782,-0.6237848265693109,-0.03238090982796238,0.05005055141025849,-0.2933614417511141,0.9370386645918216,-0.32743771600022753,-0.1896917694491007,-0.9500356927695159,-0.7895226956226109,0.801867145081409,-0.2635611878588544,-0.3786743931062697,0.3960016277609282,0.9517735105408012,-0.5591591566193883,-0.9776089998074751,-0.8236655533247899,-0.7915306269503297,0.8021010796471304,0.7527973694203278,0.09787261190375829,0.8439180985797565,0.7487514293587312,0.31769828838196057,-0.28412994024211713,0.768186096778499,-0.2654912839949346,0.5005198783603373,0.14538626902851437,0.4798687416433287,-0.06517442695765574,-0.08533687933541168,0.7554182635002566,-0.14984472463681775,-0.17674816083331812,0.4986534252019199,-0.4979309012971602,-0.4150333511907378,-0.664467117113059,-0.13733903619669863,0.1510826823431184,-0.0324056770972474,0.5060781612756724,-0.7233122417089564,-0.6732566737590377,0.5850729244401347,-0.6219387988581233,0.18337690756475133,0.1729537105849761,0.5388189469074407,0.5836600420400677,0.6803901590484995,0.2549051942189504,0.8862003192202104,-0.9712027526453342,-0.668173724057006,-0.7332169084616724,-0.05577665599558035,-0.317807085489229,-0.38543338309280073,0.9230023603802755,0.48638996529114853,0.3256404358145051,-0.6089692995836262,-0.016643038781062325,0.1230301364546067,0.5560678509223487,0.6611957883295234,0.12882133151510167,-0.9113082882736376,0.09828001493366201,0.8399142951063714,-0.9915393451751331,-0.010288437508203518,0.21133302959938471,-0.7582021540114658,-0.5293976233761271,-0.15961068984386872,-0.7109254245369783,0.8138258445766449,0.9337239548806173,-0.8784020813152995,-0.029024543956380322,-0.5753504114023995,0.22123073796761972,0.607785303432653,0.26958081244570375,0.30729759330843787,-0.4853712737172111,0.6409057906787965,0.1575753464775016,-0.56262882809061,0.3926920030476828,0.5368501438542175,-0.2588275482700886,0.9948596590236729,0.4629309374085038,-0.2343526840017598,-0.09078725499312457,0.30016829028590464,0.5036110128760047,-0.07314330079194353,-0.832329003041987
-0.823146179793965,-0.6029335593381697,1.0,0.585175214613417,0.8590214634612972,0.4010609322810157,-0.5874475466452651,-0.789374846660047,0.37479476077679275,-0.03711838477629992,1.0,-1.0,0.1887499246073694,0.7385756470784965,-0.16220285823898983,-0.867625491829159,0.9844444403824721,-0.6518382040814483,0.8832952473604925,-0.27225149330050735,0.11850991720118653,0.25245781791961464,0.896539322287667,0.49650059718673845,0.24378561093494877,0.17355878985448925,-0.5743719100692943,0.01191798493749019,-0.8014773490897453,0.762374123961354,-0.5357826623654596,-1.0,0.6243545866441371,-0.6702967706187881,-0.6135759259683593,-0.4427953200324479,0.900173536134651,0.31516017694715437,-0.44692657494821675,-0.487812793895265,-0.9744757414168694,-0.8443760425873381,-0.05551682857758822,1.0,0.6215325926406683,0.1843858625779946,-0.09944151106801202,-0.12221153078612401,-0.8590028596860368,1.0,-0.27137340022435197,0.6973197085155678,0.6012403239708366,-0.18854916260311505,-0.8640352836534353,-0.3124465551999105,-0.470822236533631,0.3706496107172814,1.0,0.8101350019256852,0.32519892870761336,0.6389438900367885,0.8755603964446586,-0.7685443212102419,-0.7594738529885294,-0.6936405473346632,-0.020153093766842378,-0.11032603297632937,-0.11948335185507863,1.0,-0.1440647072670309,-0.9974347551843206,0.2600755645799153,-0.7415066793052993,0.7375130041811016,0.38750195667100895,-0.07000743244058594,-0.1594588341979044,-0.5823484982903699,0.9109150837477089,-0.8138356109400489,-0.20135684652487118,1.0,1.0,0.6423936694224257,-0.08357468933457701,0.6870761811547785,-0.9886598256466401,0.6359177661916369,1.0,-0.2749316403510731,-0.9793571356078461,0.19759092287786162,0.8993835390184839,-0.057311702540316034,1.0,0.7441498606256056,-1.0,-0.4406370440358711,0.6166614544308473,-0.12539415411589871,-0.34081590678867624,0.8899650833706696,0.8057275221256734,0.5430815494551311,0.5984242807873201,0.18002621971266608,0.4254291818446341,0.4245980659199349,-0.40725465112459425,1.0,1.0,-0.7045423048548893,0.008332459186729757,-0.3377776705070179,-0.06080261456935787,-0.5491612389144906,0.19591794065285173,-0.47880246078776967,0.09043175202117393,-0.43050546412955204,0.7839072381413947,1.0,-0.18779893778311685,1.0,0.9892910126831538,0.31543656273213627,0.7881406337580046,-0.07176111692730602,-0.4227055102280035,0.38025829162721303,0.6568119153029501,0.8841949675140914,1.0,0.15394409811236343,1.0,-0.020660888601639726,-1.0,-0.40939771367868616,1.0,0.41659978552802635,1.0,0.12183754393736201,0.1333424335013751,-0.09832362323056953,-0.8540454537532747,-1.0,-0.638268855215312,0.9478579114724996,0.8875765464644658,-0.43239700665828895,0.6497221272443259,-0.44158513581024117,-0.10759196019807327,0.7120626261529424,0.8318240276699846,0.12474178146720694,-0.30923703194546937,0.6202378539915872,-0.30911685057949256,1.0,-0.48974989263901314,0.7966307642569337,-0.60158935735714,0.980285057966622,0.7052531350720948,0.8090134264934219,-0.13781394750541676,-0.5635473311508123,0.06127942195263447,0.16495482857696908,-0.30142876259370954,0.7091166802228073,0.4855841359860271,0.6404488017505381,-0.1232181897151472,-0.3450436858461843,-0.6738369514322002,-0.6776444390807148,-0.6554660650089068,-0.10045277560491739,0.40351966411088336,-0.36280027507473633,-0.7071744594576086,-0.3718970358810443,-0.22719668079588917,-0.7694388601696545,-0.7507704042765422,0.47427563132829986,-0.48100556122131266,0.28471890264216304,-0.6749617293908168,0.04356908162967876,-0.9770636147303351,-0.5084964528252596,-0.07804188011136115,-0.563032897032862,-0.09283187396885628,0.5380500844089466,-0.07818872854834602,0.1507550025052542,-0.2440419203111408,0.7401489346844086,-0.48184966736708734,-0.40757619018140545,0.6706124322631286,-0.5898102888313521,0.2613886668589993,-1.0,0.6850386038227512,0.3182284199281322,-0.5251175077604122,-0.8306681414737449,1.0,-0.8933549836178396,-1.0,0.7780524373585118,0.16467750868883568,-0.6537367445626332,0.9507916117199053,0.3897614687063733,0.09544826589955058,0.9401617424345545,-0.7589020220052296,0.43191480260836856,-0.3904301474420193,0.05800528112418002,0.3425600954408532,-0.0016622933530840989,0.5525233612986011,-0.9625933462040681,-0.5679991202022046,0.17188968489216538,0.9055859240436472,1.0,-0.7645770676522643,0.1767399513784529,-0.8126614204789173,1.0,-0.8337453623761761,0.04259246606974054,1.0,-0.6915756724272595,0.5265806405540667,-1.0,0.4568967881069672,-1.0,-0.4922633836760557,-0.08404803328998778,-0.18473573806864252,0.559337765341267,0.17695699030504564,-0.4835166379708249,-0.09824672232581522,1.0,0.012297291702078716,-0.9366940202052425,0.459040769881359,-0.6249299939393069,0.9207265432217655,-0.44084317467847267,-0.10772088212135467,-1.0,-0.03326068829027573,-0.060663221056493244
-0.8986723517874347,1.0,0.7633526209602204,0.13447076899672306,-0.3476035259132222,0.473470830437841,0.40793104815858783,0.9618935483816902,-0.9935082326136759,0.6105108751881132,-0.8862379970802312,-0.011899942448876821,0.4266904721234974,-0.5587454197313724,-0.4599482835673874,0.7475095160591261,0.9760371726951629,0.021437313440167305,0.30167375788372297,-0.7981653563449644,-0.3985636128069907,0.5322752875746577,-0.4648125933101679,0.48506678470203024,0.30119774423563994,0.9116923538821449,-0.49509535009016226,-0.15726495840123755,0.1663089060921692,0.790560363903337,0.598131341934613,-0.2929993630815124,0.010604155595573594,0.479636243527362,-0.09307153754774022,-0.3249659671078806,-0.34844274582823953,-1.0,0.8055197001357284,-0.4519411650270708,0.24296250562442934,0.26106930992388433,-0.04576707443357719,0.22819286396712535,-0.9555550038365963,0.3253056123263236,1.0,0.30455164030699855,-0.18057106730051853,0.7524228712291285,0.35245361343113,-0.06014319018206704,0.9040181334853106,0.41970718002394003,-0.6204088245767565,0.8547902421660849,-0.5584040772016277,-1.0,-0.9030095550723818,0.7112051911837369,-0.5558976225388967,1.0,-0.6280777980800254,-0.3857557018586246,-0.27665514602684915,0.5198170988934909,0.23320405930684385,0.49555826828789495,-0.17874535586589602,-0.02475322872363761,0.5654729907375478,0.7080763036010618,-0.44295098865982485,0.1875375059227089,-0.643431554089495,0.04668054938629851,0.6864416934901092,0.6844391366090301,0.1121197642032965,-0.03725980306873211,0.032222570829872677,-0.03598727455478823,0.12517085315137955,-0.7514800617972823,1.0,0.6404234888565243,-0.23540076460882098,0.759205599899885,0.5864050154768252,-0.08284410189814029,-0.9195598168969616,0.46547952004734494,-0.6506907008820653,-0.9513475303828525,0.1643684334572857,0.6036213723816082,0.6002346076004681,-0.3602381882031782,-0.24424629212931492,-0.6014187122397319,0.840711627622821,0.1512213870233754,0.13166768593024836,0.18197795297114405,0.3426508267481765,0.627132823407988,-0.6764270735028661,-0.5139465871369551,-0.8270370535987617,-0.08086839703335125,0.7672389195480394,1.0,-0.8384458278761366,-0.9044524484377303,-0.23101540933595643,-0.08870977868157137,0.33920264870295425,0.5047459821473863,0.8343174971955665,0.8427280208450174,-0.6529127109761712,-0.6651606619257548,1.0,0.6034148892679487,0.19246223296843912,-1.0,1.0,-0.4896669871498118,-0.5093918844140042,-0.43710851341648294,-0.09264141698025852,1.0,0.45987205360989125,1.0,-0.731596813301655,-0.9550718913034708,-0.4683364990476673,0.5370387586707555,-0.999736781995054,0.40794031606820624,1.0,-0.7426969197208617,0.14058684653512366,-0.23283980350306943,0.42048398593009884,-1.0,0.41690322433474414,0.3785948861857795,0.8170989579280541,0.11325109785530563,1.0,0.10941279821531325,0.8137984692181801,1.0,-0.8846592550113366,1.0,0.5257826566299868,-0.9990957405814815,-0.818668925805708,-0.30889725597223494,-0.016793378701287942,0.7934921683146543,0.29700389664296845,-0.2071255713378144,-0.5822525751480092,-0.13519307718330076,0.07188047075984727,-0.11940413529171057,0.12820339163343686,-0.8863029875649293,-0.3352270604280978,-0.7329557149312942,0.4634419523944002,-0.06327356195119016,-0.3504373911152072,-0.47739525552218876,-0.7517003113500897,0.3121568617847432,0.7052543052586708,0.01383614563648461,-0.7151157415784586,-0.0866362861967529,0.2906110072906434,-0.5628687595295325,0.09551184347718844,1.0,1.0,0.684038959806549,0.16599251810121896,-0.7837972722495872,0.2010529485259469,-0.03341670472325298,0.5023377757978738,-0.6956633552995051,-0.032260156687119235,0.5954951155907025,-0.5082494737742831,0.006341598826397288,0.9816424330502687,0.0789905761087808,0.056550350663044924,-0.7604529064990437,0.6122130299735722,0.9259035606669617,-0.16238581978668076,1.0,1.0,0.9481746497373722,-0.0036531259223711032,0.7163904104580849,0.4432844299996712,0.3979450955103001,-0.21536401383596449,0.8184812231947989,1.0,-0.42298750841348287,-0.9021661325323564,-0.38645493081404547,-0.3615176823812418,-0.20616573320173126,0.18260928500911788,-0.6979855350780015,1.0,0.2675637261628827,-0.9131883816012909,-0.05262523376112238,-0.8330041246621906,1.0,-0.09308397912401212,0.10234527077215727,-0.4910733858513674,0.1614841637647857,-0.9162589684828495,0.8526450497883218,0.08425196797943268,1.0,0.6262667756330478,-0.39618591477623744,-0.00854721594827268,0.07194743473668641,-0.4307669365861755,0.44656574349227185,0.851940898010759,-0.3565894410700339,-0.13231489364016302,-0.14056388406142162,0.7031460048353111,-0.2617557731883067,-0.15440777395645844,1.0,-0.8018974690314646,-0.9408745027466532,-0.8596900243514352,0.5829368648251441,-0.4987547585962122,0.46782537938632585,0.9192504418799565,0.10238402953714987,0.948243229926995,-0.21908169044592007,-0.01332262579924759,0.27721199502127014,0.8895388549681922,-0.6597406990944599,-0.02089490547835471
-0.8986723517874347,1.0,0.7633526209602204,0.13447076899672306,-0.3476035259132222,0.473470830437841,0.40793104815858783,0.9618935483816902,-0.9935082326136759,0.6105108751881132,-0.8862379970802312,-0.011899942448876821,0.4266904721234974,-0.5587454197313724,-0.4599482835673874,0.7475095160591261,0.9760371726951629,0.021437313440167305,0.30167375788372297,-0.7981653563449644,-0.3985636128069907,0.5322752875746577,-0.4648125933101679,0.48506678470203024,0.30119774423563994,0.9116923538821449,-0.49509535009016226,-0.15726495840123755,0.1663089060921692,0.790560363903337,0.598131341934613,-0.2929993630815124,0.010604155595573594,0.479636243527362,-0.09307153754774022,-0.3249659671078806,-0.34844274582823953,-1.0,0.8055197001357284,-0.4519411650270708,0.24296250562442934,0.26106930992388433,-0.04576707443357719,0.22819286396712535,-0.9555550038365963,0.3253056123263236,1.0,0.30455164030699855,-0.18057106730051853,0.7524228712291285,0.35245361343113,-0.06014319018206704,0.9040181334853106,0.41970718002394003,-0.6204088245767565,0.8547902421660849,-0.5584040772016277,-1.0,-0.9030095550723818,0.7112051911837369,-0.5558976225388967,1.0,-0.6280777980800254,-0.3857557018586246,-0.27665514602684915,0.5198170988934909,0.23320405930684385,0.49555826828789495,-0.17874535586589602,-0.02475322872363761,0.5654729907375478,0.7080763036010618,-0.44295098865982485,0.1875375059227089,-0.643431554089495,0.04668054938629851,0.6864416934901092,0.6844391366090301,0.1121197642032965,-0.03725980306873211,0.032222570829872677,-0.03598727455478823,0.12517085315137955,-0.7514800617972823,1.0,0.6404234888565243,-0.23540076460882098,0.759205599899885,0.5864050154768252,-0.08284410189814029,-0.9195598168969616,0.46547952004734494,-0.6506907008820653,-0.9513475303828525,0.1643684334572857,0.6036213723816082,0.6002346076004681,-0.3602381882031782,-0.24424629212931492,-0.6014187122397319,0.840711627622821,0.1512213870233754,0.13166768593024836,0.18197795297114405,0.3426508267481765,0.627132823407988,-0.6764270735028661,-0.5139465871369551,-0.8270370535987617,-0.08086839703335125,0.7672389195480394,1.0,-0.8384458278761366,-0.9044524484377303,-0.23101540933595643,-0.08870977868157137,0.33920264870295425,0.5047459821473863,0.8343174971955665,0.8427280208450174,-0.6529127109761712,-0.6651606619257548,1.0,0.6034148892679487,0.19246223296843912,-1.0,1.0,-0.4896669871498118,-0.5093918844140042,-0.43710851341648294,-0.09264141698025852,1.0,0.45987205360989125,1.0,-0.731596813301655,-0.9550718913034708,-0.4683364990476673,0.5370387586707555,-0.999736781995054,0.40794031606820624,1.0,-0.7426969197208617,0.14058684653512366,-0.23283980350306943,0.42048398593009884,-1.0,0.41690322433474414,0.3785948861857795,0.8170989579280541,0.11325109785530563,1.0,0.10941279821531325,0.8137984692181801,1.0,-0.8846592550113366,1.0,0.5257826566299868,-0.9990957405814815,-0.818668925805708,-0.30889725597223494,-0.016793378701287942,0.7934921683146543,0.29700389664296845,-0.2071255713378144,-0.5822525751480092,-0.13519307718330076,0.07188047075984727,-0.11940413529171057,0.12820339163343686,-0.8863029875649293,-0.3352270604280978,-0.7329557149312942,0.4634419523944002,-0.06327356195119016,-0.3504373911152072,-0.47739525552218876,-0.7517003113500897,0.3121568617847432,0.7052543052586708,0.01383614563648461,-0.7151157415784586,-0.0866362861967529,0.2906110072906434,-0.5628687595295325,0.09551184347718844,1.0,1.0,0.684038959806549,0.16599251810121896,-0.7837972722495872,0.2010529485259469,-0.03341670472325298,0.5023377757978738,-0.6956633552995051,-0.032260156687119235,0.5954951155907025,-0.5082494737742831,0.006341598826397288,0.9816424330502687,0.0789905761087808,0.056550350663044924,-0.7604529064990437,0.6122130299735722,0.9259035606669617,-0.16238581978668076,1.0,1.0,0.9481746497373722,-0.0036531259223711032,0.7163904104580849,0.4432844299996712,0.3979450955103001,-0.21536401383596449,0.8184812231947989,1.0,-0.42298750841348287,-0.9021661325323564,-0.38645493081404547,-0.3615176823812418,-0.20616573320173126,0.18260928500911788,-0.6979855350780015,1.0,0.2675637261628827,-0.9131883816012909,-0.05262523376112238,-0.8330041246621906,1.0,-0.09308397912401212,0.10234527077215727,-0.4910733858513674,0.1614841637647857,-0.9162589684828495,0.8526450497883218,0.08425196797943268,1.0,0.6262667756330478,-0.39618591477623744,-0.00854721594827268,0.07194743473668641,-0.4307669365861755,0.44656574349227185,0.851940898010759,-0.3565894410700339,-0.13231489364016302,-0.14056388406142162,0.7031460048353111,-0.2617557731883067,-0.15440777395645844,1.0,-0.8018974690314646,-0.9408745027466532,-0.8596900243514352,0.5829368648251441,-0.4987547585962122,0.46782537938632585,0.9192504418799565,0.10238402953714987,0.948243229926995,-0.21908169044592007,-0.01332262579924759,0.27721199502127014,0.8895388549681922,-0.6597406990944599,-0.02089490547835471
-0.9150383460331124,1.0,0.935999856202085,0.5651752146134168,-1.0,0.3810609322810157,-0.7017889118225353,0.3638435778891047,1.0,0.1318557752053815,0.9800000000000004,0.9900000000000002,0.4975919996694058,-1.0,0.28073439294567315,0.9793479226120798,0.9800000000000004,0.4002826586296804,0.8732952473604927,-0.15398112251211504,0.9800000000000004,0.5827305608618429,1.0,0.6696078346975671,0.23378561093494898,0.61048645421132,0.8072331007400928,1.0,-0.8214773490897453,0.7423741239613539,-0.6196272678528061,-0.9692295587293716,0.6043545866441375,0.3772509850021071,-0.24723001198012318,-0.4527953200324477,0.8801735361346514,0.31516017694715437,-0.008852494113307685,-0.487812793895265,0.36455628981651955,-0.7767306766126469,0.32425978212544937,0.7383093440210442,0.6115325926406685,-0.7494777913591903,-0.0050438545832491855,-0.5732099635934151,-0.8690028596860371,0.9293350987223139,-0.2398772695289706,-1.0,0.016952822472049434,0.5596009760810201,0.05876568082417277,-0.17648128734203938,0.938034675353677,0.9800000000000004,0.8373038027508111,0.8201350019256854,1.0,0.9900000000000002,0.9900000000000002,0.7319325744641905,-0.7281477976207689,0.20931098210445676,1.0,1.0,-1.0,1.0,-0.1540647072670307,-0.6226648325788791,1.0,-0.7415066793052993,0.7339820492753848,0.751784366186742,0.3240922953124583,-0.1594588341979044,-0.5823484982903699,0.8809150837477091,0.9900000000000002,-1.0,-1.0,0.9388791440116409,0.9900000000000002,-0.0935746893345768,0.6970761811547783,-0.15489451196286153,0.6259177661916366,0.40445696986907764,-0.29493164035107267,-0.6136902812126896,-0.8517397171270362,0.8793835390184839,0.2693849258844425,0.5449804862700396,0.9900000000000002,-0.9330233640897223,0.6656477372892908,0.6066614544308475,-1.0,0.5129036634919473,1.0,0.3500200910263622,0.5430815494551311,1.0,0.589340486628708,0.41542918184463407,0.5379287668462256,-1.0,1.0,0.7425529171894585,0.27499538474574914,-0.0016675408132700298,-0.3377776705070179,-0.07080261456935766,-0.20162741325147993,1.0,0.9386452044903111,0.824074912172621,0.1409227896566465,0.8639146125581272,-1.0,0.4806963135044944,0.8988224358471051,-1.0,-1.0,0.8550370699241969,-0.7821966148875088,0.6098090836402505,0.5260412670399965,1.0,-1.0,0.8741874796123463,1.0,1.0,0.41094497456182033,1.0,-0.41939771367868595,1.0,0.059771695082280196,0.9900000000000002,1.0,0.5300993600576032,-0.10832362323056932,-0.23516581268754422,0.9900000000000002,-0.4601885067263032,-1.0,0.6789075470127637,0.4034717242024537,1.0,-0.46158513581024074,-0.44814118852629026,0.9739947236833624,0.8218240276699849,0.4521882626511662,0.9030287791702176,0.0830550685053657,0.06868544218729511,-0.30695536462589423,0.6268958602075618,0.9800000000000004,0.57402626702424,0.12312597251013724,0.9900000000000002,0.9900000000000002,-0.6944990360639802,-0.5835473311508119,0.7759101080912174,0.3832370503622231,1.0,1.0,0.05396176299269051,1.0,0.5848557685887288,0.9882696544443297,0.5366658219435694,-0.4833370994662127,0.6130252171031421,0.42628111728330387,0.5198237825047003,0.33348762366120344,-0.06823215883226341,1.0,0.5112891809075171,0.18853465339621867,-0.250040586928054,0.47427563132829986,-0.49100556122131245,-1.0,0.09556206284105562,0.5472323718179362,-1.0,-0.5184964528252598,0.03983850988802207,1.0,0.4978396456323093,1.0,1.0,0.1307550025052544,-0.8941655984861638,0.7680960789677989,-0.48184966736708734,0.9900000000000002,-1.0,1.0,0.24138866685899973,1.0,1.0,0.7572707463421025,-0.535117507760412,-0.8506681414737445,-0.27969309145876053,-0.8933549836178396,-1.0,0.7880524373585116,0.15467750868883545,0.9900000000000002,0.9207916117199053,-1.0,0.08544826589955079,1.0,-0.7689020220052294,-1.0,-0.11244926700245994,-0.8363068608077784,-1.0,0.5189223849652143,0.9900000000000002,-0.9725933462040679,0.2712989898594307,0.1618896848921656,0.9209573484464775,1.0,-0.7745770676522641,1.0,-0.19426450390421923,0.9800000000000004,-0.27842400500491093,1.0,-1.0,-0.9783406373273054,1.0,1.0,0.4268967881069674,0.5212987976972601,0.8288449724807414,0.9900000000000002,0.8744341857039126,-0.5523380364215873,1.0,-1.0,0.4348811452452508,1.0,0.9716581984982735,-0.623273942759405,0.7026793790207737,-1.0,0.4723902381814149,-0.45084317467847246,-0.43368545759977284,1.0,0.15131185422268345,0.8598792207142898
0.21456877379085215,1.0,1.0,0.5651752146134168,-0.6665244460169584,1.0,-0.7117889118225351,0.2737134433875581,0.5710270514993199,0.12185577520538171,0.9900000000000002,0.9800000000000004,0.5075919996694056,-0.5764032004202626,-0.47668086929719333,1.0,0.9900000000000002,0.8129406680321569,0.8532952473604931,-0.16398112251211483,0.9800000000000004,1.0,0.8865393222876667,0.6696078346975671,1.0,1.0,1.0,0.9800000000000004,0.12251118311058562,1.0,0.00012023241767522563,-0.9592295587293713,0.5943545866441378,-0.6902967706187884,0.06663535352888372,-0.4627953200324475,0.8701735361346516,1.0,1.0,-0.47781279389526476,-0.8097293297325265,-0.8343760425873381,0.33425978212544916,0.7383093440210442,1.0,-0.7694777913591899,0.4126263348724999,-0.0983473771326917,1.0,0.9093350987223143,-0.24987726952897038,0.9900000000000002,-0.00304717752795014,-0.20854916260311462,0.038765680824172755,-0.3224465551999103,0.6140950790554172,0.9700000000000006,0.8173038027508115,0.8101350019256852,0.9233434941060503,0.9900000000000002,0.9900000000000002,-1.0,-0.7894738529885288,0.19931098210445697,0.6097820462775045,-0.1303260329763294,0.4800516040566061,0.9900000000000002,0.8111412163625031,-0.8508119332345836,-1.0,-0.7515066793052991,0.723982049275385,-1.0,0.8872055221968003,-0.14945883419790462,-0.5923484982903702,-1.0,0.9800000000000004,0.3448296591468365,0.8450397685877791,0.05641628973808466,-0.7884727504339213,0.3354983920310586,0.7971183298182298,0.13637906019071533,0.6259177661916366,0.3944569698690774,-0.30493164035107245,-0.9993571356078457,-0.715572936315259,0.9900000000000002,0.38309589821095713,-1.0,-1.0,-0.7737845247249071,-0.001919833482659783,0.5966614544308477,1.0,0.15786232955616875,0.86996508337067,0.3500200910263622,0.5230815494551315,0.5784242807873206,0.589340486628708,0.9900000000000002,0.8468658349657581,0.6083637401506996,-1.0,0.7225529171894589,0.6728362555893184,1.0,-0.3477776705070177,-0.08080261456935744,0.21741492168521992,0.1859179406528515,0.6019404743233245,0.06043175202117457,-0.46050546412955207,0.46232346825738624,0.034055817310272296,0.4806963135044944,0.8788224358471055,-1.0,0.3546168739125175,0.8450370699241967,-0.9966592840436004,0.7725715790666223,0.4425999431523753,0.6268119153029508,1.0,0.8741874796123463,0.39217840953711613,0.729527827954322,1.0,0.44545677696790165,-0.4393977136786855,1.0,1.0,-1.0,1.0,0.5200993600576034,-0.11832362323056911,-0.18778905992687633,1.0,-0.13963600870432824,0.9800000000000004,0.6889075470127635,-0.4523970066582885,0.9800000000000004,-0.03592165615791654,-0.46814118852628983,0.6084902784740489,0.8118240276699851,0.4321882626511666,1.0,1.0,0.31472870132080333,1.0,0.6068958602075618,0.9900000000000002,0.8768434022753144,0.9537085905907725,1.0,0.9700000000000006,-1.0,-0.03171841654841234,0.9900000000000002,0.884943489423506,1.0,1.0,0.0639617629926903,0.9900000000000002,0.8010016566629021,0.7892010020119695,-0.4062842673998235,-0.6876444390807146,0.6130252171031421,0.41628111728330364,0.9061076429822634,0.31348762366120386,-0.29021307772811866,-0.3918970358810441,0.4912891809075175,-0.4476033111858735,1.0,0.7715698900067074,-0.5010055612213122,0.9800000000000004,-0.6749617293908168,-1.0,-1.0,-0.5184964528252598,0.03983850988802207,-0.21780791553850554,0.7232745562640743,0.25839548117408384,0.9800000000000004,0.12075500250525462,-0.9041655984861636,0.7580960789677986,-0.49184966736708713,0.9900000000000002,0.9900000000000002,0.9260995316415617,0.521189755458856,0.9900000000000002,0.6450386038227514,0.6532365836716103,0.48867411890151535,-0.6148335158231824,-0.3556438571578777,-0.2342279188021168,-1.0,0.768052437358512,0.5612444770920675,0.9900000000000002,0.9207916117199053,0.3876846834933061,0.3522009337678136,0.920161742434555,1.0,-1.0,-0.13244926700245951,-0.44514815825545195,0.8227324216345826,0.27764365411236414,0.39571168041454907,-0.5204480040403192,-0.30542850090697904,0.1518896848921658,0.9688768563669887,1.0,-0.7845770676522639,0.7424946980139335,0.8317642713726996,0.9800000000000004,-0.8537453623761762,0.9700000000000006,-0.8461502285658202,-0.9883406373273056,0.9800000000000004,1.0,0.4368967881069672,-1.0,0.8188449724807416,1.0,0.8744341857039126,0.10385679573526119,0.47919002917948195,0.5848257488680089,-0.09824672232581522,-1.0,-0.007702708297920857,-0.6332739427594047,0.9900000000000002,1.0,1.0,-0.46084317467847224,-0.4436854575997726,1.0,0.9900000000000002,1.0
-0.5129748246294108,0.5448577888209227,1.0,0.575175214613417,-1.0,0.39106093228101546,-0.7117889118225351,-0.5699744597439667,0.3647947607767925,0.7147971790574106,0.9800000000000004,1.0,0.4975919996694058,-1.0,-0.46668086929719355,0.96934792261208,0.9800000000000004,0.41028265862968016,0.8632952473604929,-0.15398112251211504,0.9800000000000004,1.0,0.8865393222876667,0.6696078346975671,0.2237856109349492,0.6204864542113198,0.2190005628851992,0.9900000000000002,-0.4944184516708021,0.7423741239613539,-0.6196272678528061,-0.9692295587293716,0.6043545866441375,-0.3160889047966511,0.9950491578008371,-0.4427953200324479,0.8701735361346516,1.0,-0.008852494113307685,-0.47781279389526476,-0.3116450011315397,-0.7931135914986109,1.0,1.0,0.6215325926406683,-0.7594777913591901,-0.9741621628887875,0.4223546273947303,-0.8590028596860368,0.9193350987223141,0.6626653348823832,0.9900000000000002,0.016952822472049434,-0.20854916260311462,0.04876568082417254,-0.3224465551999103,0.935827006697155,0.9800000000000004,0.8373038027508111,0.8101350019256852,0.9433434941060499,1.0,-1.0,0.7319325744641905,-0.7894738529885288,0.20931098210445676,0.6097820462775045,-0.11032603297632937,0.4800516040566061,1.0,-0.1540647072670307,0.035105344456172194,0.9900000000000002,-0.728123425547742,0.7339820492753848,0.7417843661867423,0.4128976037184433,-0.1594588341979044,-0.36999519463326624,0.8909150837477089,1.0,0.7708836761801048,0.8450397685877791,0.06641628973808489,0.9900000000000002,-0.08357468933457701,0.6870761811547785,0.48469113669075137,0.6259177661916366,0.40445696986907764,-0.29493164035107267,-0.9893571356078459,0.6366568875982974,0.8793835390184839,0.2693849258844425,0.5449804862700396,0.9900000000000002,-0.9330233640897223,-0.45063704403587135,0.6066614544308475,0.560615586671176,0.20876701570591427,-1.0,0.8003847063659206,0.5330815494551313,0.5784242807873206,0.589340486628708,0.41542918184463407,0.5815280053877641,0.7254400233157803,0.8724711378433572,0.7425529171894585,-0.049220555222494244,1.0,0.6134574100687251,0.7189291661046391,-0.1146999975797316,0.19591794065285173,0.5540331399715654,0.08043175202117414,0.9095331028708538,0.443335927814827,-1.0,0.49069631350449416,0.8988224358471051,0.9900000000000002,0.36461687391251774,0.8450370699241967,-0.5531327893608236,0.6198090836402508,0.4425999431523753,0.6368119153029506,-1.0,0.8741874796123463,0.14394409811236342,0.961690171132104,-0.0406608886016393,1.0,-0.41939771367868595,1.0,0.059771695082280196,1.0,0.9900000000000002,1.0,-0.09832362323056953,-0.23516581268754422,1.0,0.16815614202195617,1.0,0.6789075470127637,-0.44239700665828874,0.9900000000000002,-0.45158513581024096,0.7832508646039607,0.6184902784740487,0.8218240276699849,0.4521882626511662,0.8930287791702174,0.39484338547931763,0.08868544218729468,-0.316955364625894,1.0,-1.0,-0.6215893573571396,0.11312597251013745,0.9900000000000002,0.9900000000000002,-1.0,-0.5835473311508119,0.7659101080912176,1.0,-0.3314287625937089,0.6891166802228073,0.05396176299269051,0.9900000000000002,0.5848557685887288,1.0,-0.6738369514322002,-0.1954542237542256,-1.0,0.6772077436685784,0.3935196641108831,0.47745385628910686,-0.2802130777281189,-0.3718970358810443,0.5012891809075173,-0.7894388601696543,-0.2400405869280542,1.0,0.2728052578300666,1.0,-0.6649617293908168,0.5372323718179359,-1.0,0.3168604754721773,0.03983850988802207,-0.4748440407396739,0.4978396456323093,1.0,0.9900000000000002,0.1407550025052542,-0.8941655984861638,1.0,-0.07536832985332786,1.0,1.0,0.9360995316415615,0.7295248426423266,0.9900000000000002,0.6872906994338148,-1.0,-0.07882355075755099,-0.8506681414737445,-0.18234668327192205,-0.9033549836178398,-1.0,-1.0,0.15467750868883545,0.9900000000000002,0.9307916117199051,0.3697614687063737,0.8198117279385801,0.9776223199737708,-0.7689020220052294,0.8032919065253363,-0.11244926700245994,-0.8363068608077784,1.0,1.0,1.0,-0.9725933462040679,-0.750217672107194,0.4764030949283429,0.9309573484464773,0.6259071390942648,-0.7745770676522641,1.0,-0.184264503904219,0.9900000000000002,-0.8537453623761762,0.9900000000000002,-1.0,-0.9883406373273056,0.9900000000000002,1.0,0.4368967881069672,0.5312987976972599,0.8288449724807414,1.0,0.8644341857039128,-0.5523380364215873,0.09383181707288735,0.5848257488680089,-0.08824672232581543,0.8491473080367875,-0.007702708297920857,-0.623273942759405,1.0,0.9900000000000002,0.4723902381814149,0.43789531796996517,0.7264666377877731,1.0,0.490572029529865,-0.09066322105649283
-0.9250383460331122,0.5448577888209227,0.9159998562020855,0.5651752146134168,-1.0,0.7887426978678471,-0.7017889118225353,-0.5581308565953496,0.37479476077679275,0.4677593766406627,-1.0,0.9900000000000002,0.8621287939982478,0.6154720677617704,-0.08480321746450414,0.9793479226120798,-1.0,0.4002826586296804,-1.0,1.0,-1.0,0.5727305608618432,-1.0,0.6796078346975669,1.0,1.0,0.2190005628851992,1.0,-0.8314773490897451,1.0,-0.6296272678528059,0.6359698595250167,0.6043545866441375,-0.7002967706187881,0.654424086614434,0.8250388163785014,1.0,0.2951601769471548,1.0,-0.4978127938952648,-0.9944757414168697,-0.8543760425873383,0.3142597821254496,1.0,0.6015325926406687,-0.7594777913591901,-0.9202621896652916,-0.503319733527559,-0.8790028596860369,0.9093350987223143,-0.2398772695289706,0.9900000000000002,0.9288295234353248,-0.20854916260311462,0.04876568082417254,-0.3224465551999103,1.0,1.0,1.0,0.8101350019256852,0.9233434941060503,1.0,-1.0,0.9738180127725835,-0.453153799997819,0.19931098210445697,0.5997820462775048,-0.1303260329763294,0.4700516040566063,1.0,0.469038048142417,-1.0,0.9900000000000002,0.10277619242245617,1.0,0.7417843661867423,1.0,-0.1594588341979044,-0.5823484982903699,0.8709150837477093,-1.0,0.3348296591468367,1.0,0.04641628973808487,0.9900000000000002,-0.10357468933457659,1.0,-0.17489451196286154,0.8111814542538811,0.7088246927679691,-0.2355781638091754,-1.0,-0.4323204351324428,0.8693835390184841,0.6680745361955029,0.5249804862700396,0.9900000000000002,-0.9330233640897223,-0.22004600411091157,0.6066614544308475,0.5506155866711762,0.27620942723512343,0.86996508337067,0.8477870457747176,0.5230815494551315,0.627144257380253,1.0,0.3954291818446345,0.5279287668462258,-1.0,-1.0,0.8581924979936986,0.13446545145643096,0.6691980350848405,-0.3477776705070177,-0.07080261456935766,1.0,1.0,0.5440331399715657,1.0,0.9224652362954511,0.1455303346975807,0.030038907850681973,0.4806963135044944,0.9373846669270218,1.0,0.3446168739125177,1.0,-1.0,0.644102760004154,0.6957461319798881,0.6268119153029508,0.8841949675140914,0.599826748876354,0.2318143869910374,0.9516901711321042,1.0,0.4254567769679021,0.8699251199601195,0.9800000000000004,0.25959116928111525,1.0,-1.0,1.0,0.45909241937586076,-0.23516581268754422,0.9900000000000002,0.2706818038574301,-1.0,1.0,-0.4523970066582885,1.0,-0.47158513581024053,-0.46814118852628983,0.6184902784740487,0.9900000000000002,0.4521882626511662,0.8830287791702176,0.9144412161904594,1.0,-0.3269553646258938,0.9900000000000002,1.0,-0.5437677506154319,0.9537368208874435,0.9900000000000002,0.9800000000000004,-1.0,0.04176682914035368,0.7559101080912178,0.40691891925188717,-0.3414287625937087,0.6791166802228075,0.04396176299269072,-1.0,0.9900000000000002,0.7792010020119697,-0.6938369514321998,-0.5390683815336681,0.6030252171031423,0.42628111728330387,1.0,0.38691871689069135,-0.2802130777281189,-0.3818970358810443,0.5012891809075173,-0.39713409865972515,-0.004816664424442063,-0.6958293134280211,-0.511005561221312,-1.0,-0.6749617293908168,1.0,-0.6736085410098016,-0.48860400010070926,0.03983850988802207,1.0,0.4878396456323095,1.0,1.0,0.12075500250525462,-0.8941655984861638,0.7580960789677986,-0.40725702563907396,1.0,1.0,0.9360995316415615,0.32377250091927845,0.9900000000000002,1.0,-1.0,-0.535117507760412,-0.6670223147642869,0.7444647060411018,0.04984976030074506,-1.0,0.768052437358512,0.16467750868883568,1.0,1.0,0.35976146870637393,1.0,0.920161742434555,-0.7689020220052294,0.8301305935764169,-0.11244926700245994,-0.05364307594841833,0.9900000000000002,0.9900000000000002,0.9900000000000002,-0.8419976175422228,-0.4165888627961287,0.17188968489216538,1.0,0.615907139094265,-0.5949090290738157,0.7424946980139335,-0.19426450390421923,0.9800000000000004,1.0,0.9900000000000002,-1.0,-0.5146027819483683,-1.0,1.0,0.491764664867663,0.5112987976972603,1.0,0.9900000000000002,0.854434185703913,-0.44287395774834515,-1.0,0.5848257488680089,-0.108246722325815,1.0,-0.017702708297920644,-0.623273942759405,0.44904076988135877,0.9900000000000002,1.0,0.4810678776755477,0.7812190909600756,0.9259608224223408,0.16131185422268368,-0.10066322105649261
-0.9586723517874338,0.06056099116382008,0.938864774628998,-0.19735024809646706,0.4071631051759428,-1.0,0.6593420688389999,-1.0,-0.013278899629500351,0.9700000000000006,-0.8834139244441381,0.2638320732317414,-0.7581267120465869,-0.4906959881794033,0.6931191937821675,1.0,1.0,-1.0,1.0,0.9700000000000006,-0.4285636128069905,1.0,0.7872334987256338,1.0,-1.0,-1.0,-0.4927123965519793,-0.39729964129267037,-1.0,0.383233258252778,-1.0,-0.1834214847249922,1.0,1.0,0.9800000000000004,-0.1323159782826302,1.0,0.9700000000000006,0.7955197001357286,0.1902651038615284,-0.4501339292005486,0.008477927537261287,0.9900000000000002,1.0,-0.9473290867536432,0.7473515925671577,-0.9610700688408498,1.0,1.0,0.9700000000000006,0.8208348816301472,0.9800000000000004,1.0,1.0,-0.5521618922689249,0.9900000000000002,0.7773009537753808,0.7025451140250336,0.9800000000000004,0.6812051911837376,-0.5540251702581749,1.0,0.9900000000000002,0.9838358537416023,-0.3266551460268481,0.7844484840801069,0.20320405930684426,1.0,0.9900000000000002,0.9900000000000002,0.5254729907375486,0.7315916519615584,1.0,0.9900000000000002,-0.6834315540894949,0.007889257086399759,-1.0,0.6644391366090305,0.9900000000000002,-0.057259803068731685,0.17910396377251292,0.9900000000000002,0.4936495607196685,-0.42599474796672343,1.0,1.0,0.9360930417321338,0.622284147299446,-0.884251670814602,-0.7278119167245647,0.31321073241437514,0.8230924520843361,1.0,0.587843623185929,1.0,0.9141547682842139,0.12671360734997972,1.0,-1.0,-0.37464001931031676,-0.647496416759898,0.4658017222257893,1.0,0.9900000000000002,1.0,0.5971328234079882,1.0,0.9900000000000002,-0.611139274172225,-0.15337851711523331,-1.0,0.23795579888337048,0.7424309102133915,0.3291175741591261,0.6492858372004253,0.9700000000000006,0.2822276568896882,0.9800000000000004,-1.0,-0.7520981202664778,0.06400752560775569,-1.0,-0.06949100476370473,1.0,0.9800000000000004,0.6597225677038079,0.9700000000000006,-0.5296669871498114,0.1349610948277551,-1.0,-0.1326414169802579,-0.7707851669782757,1.0,-0.8975093698742791,0.9800000000000004,-0.766349364614415,-0.4983364990476673,0.9800000000000004,-0.7595297320077545,0.9900000000000002,1.0,0.8594805750798105,-1.0,1.0,1.0,0.9800000000000004,1.0,-0.5286239213457247,1.0,-0.9213301806441541,1.0,0.9900000000000002,0.8495040548241972,-0.8949857342126712,0.9900000000000002,0.09400540270781388,0.6076412713143915,-1.0,0.05984471543003611,1.0,-1.0,0.5623687381455085,0.6636859016400214,-0.15537927383745442,0.10128701788034,-1.0,0.4367477987445403,-0.14940413529170993,1.0,0.48272003823351106,0.9900000000000002,0.1453015567869942,-1.0,0.6406845383496123,1.0,0.4786543914023391,0.2993644706902314,0.3052800642411526,-1.0,-1.0,-0.2959164923130908,-0.19234699931621435,0.8368970922813626,-0.7640817880877906,0.9388797637664634,0.9365520987011946,0.9800000000000004,0.9700000000000006,-1.0,0.10345521264473057,-1.0,1.0,0.4623377757978746,-0.7156633552995046,0.9900000000000002,0.8448347896182264,0.08683611000170721,1.0,-1.0,0.9800000000000004,1.0,0.9700000000000006,0.7377002499272818,0.9700000000000006,-0.18238581978668034,0.6659800665420832,0.9800000000000004,-1.0,-1.0,-1.0,-0.3147273889500668,0.6460068970000705,0.9700000000000006,1.0,0.9900000000000002,0.9155876156768343,0.9900000000000002,0.6495273493403451,1.0,0.11107195020170035,0.1626092850091183,0.4185072139566879,0.9800000000000004,-1.0,0.34193372590971993,-1.0,-0.7398592543272127,-1.0,-0.14308397912401105,0.04818427881300469,-0.15703601671926126,0.9800000000000004,1.0,-1.0,0.9900000000000002,0.9900000000000002,-1.0,-0.12193124440705416,0.9800000000000004,1.0,-0.4507669365861755,-1.0,-1.0,-1.0,0.007449850349269482,-0.18056388406142077,0.5021573897312024,-1.0,1.0,-0.22110779299343974,-0.8418974690314638,-0.28848520061332206,-0.8796900243514347,0.9800000000000004,-1.0,0.9800000000000004,-1.0,0.07238402953715006,0.1613239428111104,-0.3001092104278298,1.0,0.49185555183576923,1.0,-0.7097406990944588,0.42301271857957
-0.19088016023093868,-1.0,1.0,0.5451752146134172,1.0,-1.0,-0.5299984862655283,0.6348551772059627,-1.0,-1.0,-1.0,-1.0,0.45759199966940667,0.9749941718470296,1.0,0.9393479226120807,1.0,1.0,-1.0,0.9800000000000004,0.9900000000000002,-1.0,1.0,1.0,0.20378561093494962,0.9900000000000002,1.0,1.0,-0.5144184516708021,1.0,-0.6296272678528059,0.8139140699869838,0.9800000000000004,0.6195480020041244,0.9800000000000004,1.0,1.0,1.0,1.0,0.9800000000000004,0.9900000000000002,0.7817257125678561,0.05576871398767125,0.9700000000000006,1.0,-0.29864762354822494,0.4110178686895569,1.0,-0.16366244078249625,1.0,1.0,0.9900000000000002,0.006952822472049647,1.0,0.4565454029836866,-0.35244655519990964,0.9058270066971552,-1.0,0.8073038027508117,-0.13173919785192867,1.0,1.0,-1.0,0.6919325744641913,-0.08855913470322774,0.6414532438746541,-1.0,-1.0,0.4600516040566065,1.0,-0.034795852704757824,0.18518413893608,0.9900000000000002,-0.7581234255477414,0.9276107055316984,0.9900000000000002,0.6601638515660984,0.024782734446866073,-0.30370374838141334,0.9800000000000004,0.9600000000000009,-1.0,0.9800000000000004,0.8059089799267465,0.9900000000000002,0.7597499732749107,1.0,1.0,0.6159177661916369,-1.0,0.9900000000000002,0.6701020995302214,1.0,0.8593835390184843,0.25938492588444273,0.5349804862700394,1.0,-0.8570638151885226,1.0,0.9700000000000006,0.7420934235005454,1.0,0.3066596509945754,1.0,-1.0,0.36770998414482037,1.0,0.9900000000000002,0.6968551594422951,0.9900000000000002,0.9900000000000002,0.9900000000000002,1.0,1.0,-0.8898079095281801,0.6989291661046391,0.021919368544712547,0.22684848186856854,0.5140331399715663,0.9900000000000002,0.8895331028708542,-0.7115987382100837,0.2801090576150962,-1.0,1.0,-1.0,0.32461687391251814,-1.0,0.3341847575683077,0.9596597600594379,0.4025999431523761,0.9900000000000002,-0.5678409140327032,0.844187479612347,0.11394409811236361,0.9800000000000004,1.0,0.9600000000000009,-0.4393977136786855,-1.0,0.6160544501802612,-1.0,0.9800000000000004,1.0,-0.12832362323056934,-0.27516581268754337,1.0,0.12815614202195658,0.9800000000000004,0.6934402971370339,-0.06722801118244792,-0.6307216504862985,0.4786928182637107,0.9900000000000002,0.12296825540039169,1.0,1.0,1.0,0.684134561697844,0.24700212900493224,0.616823022758374,1.0,-1.0,-0.651589357357139,1.0,0.9800000000000004,0.0052443339130556765,-0.6769551038071082,1.0,-1.0,0.9900000000000002,1.0,0.9800000000000004,0.9900000000000002,1.0,0.5648557685887292,1.0,-0.24992028748520134,0.6926420668958988,-0.8542597406029802,-1.0,0.37351966411088355,0.9464106105357528,0.6040466405959704,1.0,0.9900000000000002,1.0,1.0,0.9800000000000004,0.9632261121963257,0.9800000000000004,-0.5484905044092674,-1.0,1.0,0.9800000000000004,0.009838509888022706,0.8404866238108681,0.45783964563231017,1.0,0.9500000000000011,0.9900000000000002,-0.36066896852645014,0.9700000000000006,-0.10536832985332723,0.9900000000000002,0.9900000000000002,0.9160995316415619,1.0,1.0,0.6672906994338152,-1.0,-0.09882355075755056,-0.870668141473744,0.9900000000000002,-0.7522027844580474,-0.3312040927234019,-0.6269774862743134,0.9800000000000004,1.0,0.9107916117199055,-1.0,1.0,-1.0,0.4229565733365539,0.9900000000000002,-0.1424492670024593,-0.24037060371823316,0.9900000000000002,-0.9845747344835765,0.9800000000000004,-0.17050836690340576,-0.7442094231970069,1.0,1.0,1.0,-0.8045770676522634,-1.0,1.0,0.9900000000000002,0.6639492979554147,0.9800000000000004,-1.0,0.031196460244637514,0.9600000000000009,0.987311496305034,-1.0,1.0,0.8088449724807418,-1.0,1.0,-0.5823380364215867,0.07383181707288777,0.5548257488680095,-0.108246722325815,1.0,-1.0,0.7777442587957717,1.0,-1.0,0.44239023818141554,0.4278953179699654,0.9800000000000004,0.9900000000000002,-1.0,0.18949853341539225
-0.45201714695598394,-0.09630239158676268,1.0,0.5879604384995414,1.0,0.9900000000000002,0.9800000000000004,0.9800000000000004,0.38326318199730824,1.0,1.0,0.8619519205095978,0.9800000000000004,0.9800000000000004,0.7217551907550757,0.9900000000000002,0.012407453459950979,1.0,-0.02562904957400214,0.9900000000000002,0.504428878720935,-1.0,0.9600000000000009,1.0,0.9700000000000006,-0.9248906095695455,0.8285297090482269,-1.0,0.9700000000000006,0.5357038424835308,1.0,0.5117743600890776,1.0,0.6870113004601937,1.0,0.967398252533906,0.9600000000000009,-0.08045149706135524,-1.0,-0.39679070073043965,0.009629389146846634,0.12480486293924864,0.9900000000000002,0.546815638724679,-0.08989295595581481,0.8066340779015437,1.0,0.7989585863844333,-0.060426031344782416,-0.44634687605501266,-1.0,0.5485903145590099,0.9900000000000002,0.4344450966993021,0.9900000000000002,0.9900000000000002,0.9600000000000009,-0.263818266182156,1.0,0.605511068707627,-1.0,1.0,0.0948652771694869,-0.7618747403157275,1.0,0.8952711530872417,-0.03656722589053274,0.9700000000000006,0.40821651463371644,1.0,0.0649356557797871,-0.5443596560732473,0.9275681130819535,0.9900000000000002,0.16017983091502508,-1.0,0.9800000000000004,-1.0,0.9600000000000009,0.8108775339749705,0.4404180365906063,0.9900000000000002,0.7482768593810887,0.9900000000000002,-1.0,0.2548450682838759,0.9800000000000004,-1.0,0.7337966649568863,1.0,0.9900000000000002,0.9800000000000004,0.9800000000000004,0.9600000000000009,0.4939286721203775,0.9900000000000002,-0.49759877066754044,0.6261419665698895,1.0,-0.9843891006784888,-1.0,0.5119956381070798,-1.0,-0.7172987091535017,0.668838241125135,-0.9035126366594284,0.828450114638601,0.9900000000000002,-0.47906880060167367,-1.0,0.3083378519938256,-1.0,0.9900000000000002,-1.0,0.31606900532761895,1.0,-0.24918158751255026,1.0,-0.9121627136383594,-0.27327474115604033,0.3799631236843908,-0.11085550047156456,0.19106850526320684,-1.0,-0.10849792631132216,0.9700000000000006,1.0,-1.0,1.0,0.44696878426079145,0.5338827325110129,0.9900000000000002,0.9800000000000004,-0.7471670960647092,-0.5545518347808756,0.9900000000000002,0.9900000000000002,-1.0,0.9900000000000002,0.9900000000000002,1.0,-0.8071812043938289,-0.13064648564224468,1.0,0.9700000000000006,1.0,0.9900000000000002,-0.9032805168924352,0.9700000000000006,0.29529396604974556,-0.32749479867933484,-0.9721438094124997,0.9700000000000006,-0.6242207649850284,0.6632212928861128,0.19194173885240495,0.6543930690577984,0.9800000000000004,-1.0,1.0,0.41792033628101066,0.5693786342935807,0.669474429932631,1.0,0.7698393091297202,0.9624334773150816,-1.0,0.7319863155895021,0.9500000000000011,0.9800000000000004,0.1544546056469409,0.9800000000000004,0.9900000000000002,0.9900000000000002,-0.018167586852859685,-0.816079676655761,-1.0,-1.0,0.9437327753008913,0.9900000000000002,1.0,-1.0,-0.5039843627924956,0.9900000000000002,-1.0,0.8381550948177043,-0.10372453515082869,1.0,0.9700000000000006,0.9356888291627738,1.0,1.0,0.029552542839878626,0.9900000000000002,-1.0,0.8110998723219276,-1.0,0.3641862817588999,0.4023476834172799,0.9800000000000004,0.39478236306216097,-0.39562670445009473,1.0,-1.0,-1.0,1.0,0.9172628754699401,0.9900000000000002,-0.625950050543973,0.5075382592916382,-0.22743790894686056,1.0,-0.23353447314237918,0.6926743041867391,-0.47594011127313474,0.639314377103883,1.0,0.6363451278837688,0.4352546129637185,0.27308803737768717,1.0,0.9966940205655681,1.0,-0.6571616082242491,1.0,1.0,-0.5104512141025177,-1.0,-1.0,0.5205643429189708,-1.0,-0.7813321460663412,0.6753262921108085,0.9800000000000004,0.9683202070675447,-0.6508416389492888,0.8286711367171993,-0.06346609990615626,0.7110264182859014,1.0,0.9800000000000004,-1.0,0.9900000000000002,1.0,-0.7168027962286274,0.9800000000000004,0.9900000000000002,0.48892533633256896,0.9800000000000004,0.90638923477617,-0.8989609008367405,-0.4940062364260758,0.9900000000000002,0.3330398904094407,-0.34784104738572363,-1.0,-0.929689835573777,0.9900000000000002,0.9537512762837475,-0.7946061421782113,-0.9013999056521191,-1.0,-1.0,1.0,0.9900000000000002
-0.9125904732763965,-1.0,1.0,-0.3538314087410104,0.9900000000000002,0.9900000000000002,1.0,0.9700000000000006,0.38326318199730824,0.9505166460797856,0.9900000000000002,1.0,0.9900000000000002,0.9800000000000004,-1.0,-1.0,0.03240745345995055,1.0,1.0,0.9800000000000004,1.0,0.9700000000000006,0.9600000000000009,1.0,0.9700000000000006,-0.30268178529816003,0.9800000000000004,0.9315703517018661,0.9900000000000002,0.5357038424835308,1.0,-0.6703920676043849,-1.0,-0.8118464595729398,1.0,0.9900000000000002,0.9600000000000009,-0.4729895054558293,-1.0,-1.0,0.9900000000000002,1.0,1.0,0.5368156387246792,0.47313465844544345,0.8066340779015437,0.27272258386587556,1.0,0.8568082627114277,-1.0,-1.0,0.9900000000000002,0.6553019918529612,0.3476334165147845,-0.9900000000000002,0.9700000000000006,-1.0,-0.27381826618215577,0.9900000000000002,0.9900000000000002,-1.0,0.9900000000000002,0.0948652771694869,-0.48498940599413487,-1.0,0.8952711530872417,1.0,0.9900000000000002,0.2399551804986393,0.45997089608944286,-0.30535604305707764,0.016397601366970882,0.907568113081954,0.9900000000000002,0.4060870417070239,-0.10082164775942859,0.9700000000000006,-1.0,0.9900000000000002,0.790877533974971,0.4404180365906063,0.9900000000000002,0.6911693028006258,0.9800000000000004,0.3999944350417186,0.3626726012436823,0.9700000000000006,-1.0,0.5921304929102504,0.9900000000000002,-1.0,1.0,0.9900000000000002,0.9600000000000009,-0.2078571726096632,0.9900000000000002,1.0,0.6161419665698897,0.8826777086323103,0.6838407820263432,0.6235830889898324,0.9900000000000002,0.9900000000000002,-0.6240532881762437,1.0,-0.2935383799067264,0.9761503553101258,0.9900000000000002,-0.7982179547425305,1.0,0.35294356437132013,1.0,-0.07784489022079688,0.8040226375598962,0.30606900532761916,1.0,-0.5898382398935764,0.9600000000000009,0.9755668477880124,0.6397148861256179,0.3799631236843908,-0.13085550047156413,-1.0,0.28587420060177315,-0.4673468189956962,0.9600000000000009,-1.0,-0.33036420929339805,-1.0,0.43696878426079167,-0.06232127594858472,0.9800000000000004,1.0,-0.7671670960647088,-1.0,-1.0,-1.0,1.0,0.9700000000000006,0.9900000000000002,0.9800000000000004,0.7402534916678141,-1.0,1.0,0.9800000000000004,1.0,0.9900000000000002,-1.0,0.9700000000000006,-1.0,0.14309655640901697,-0.02210308891088708,1.0,-0.6142207649850282,0.653221292886113,-0.12052514545113402,0.6543930690577984,0.9700000000000006,1.0,-1.0,0.7082524301949404,1.0,-0.5222499543944723,0.017709075068394142,-1.0,-1.0,0.9900000000000002,-1.0,0.9700000000000006,0.9700000000000006,0.24824836033495945,1.0,1.0,1.0,-0.028167586852859472,-1.0,0.3625924580977502,-0.14033169785970045,0.7587001813918448,0.12426862769679836,0.4737725601123204,1.0,-0.5239843627924952,0.9900000000000002,-1.0,0.8481550948177046,-0.7882757813714907,-1.0,-1.0,0.9900000000000002,0.9800000000000004,1.0,0.01955254283987884,0.9900000000000002,0.9600000000000009,-0.0789836273604343,-1.0,0.9800000000000004,0.8693836790653338,1.0,0.9900000000000002,-0.38562670445009495,0.9440740694009362,0.7741148177053851,1.0,0.9900000000000002,0.18800368076646645,-1.0,0.3490027697328162,1.0,-0.7166930729420233,-1.0,0.49233368161794555,0.6926743041867391,0.5054531023375506,1.0,0.9900000000000002,1.0,-0.015101440512040654,0.20308530174655015,1.0,0.19669213215649517,1.0,-0.6771616082242486,0.9800000000000004,-1.0,0.5700171447017501,-0.5848798112796398,1.0,1.0,-0.9934928563980474,-1.0,0.6653262921108087,1.0,0.4125378731825018,-0.6508416389492888,0.8186711367171995,-0.06346609990615626,1.0,1.0,0.9800000000000004,-1.0,0.9800000000000004,0.9900000000000002,-0.29579787115142997,0.9700000000000006,0.9900000000000002,-1.0,1.0,0.602155106749489,-1.0,-0.0901041224637873,-1.0,0.3230398904094409,-0.3578410473857234,-0.24429494841074817,-0.49238117724908115,-0.6285146611967241,0.9900000000000002,-0.7854733134494785,-0.960847160842178,-1.0,-1.0,0.9700000000000006,-1.0
-0.9125904732763965,-1.0,1.0,-0.3538314087410104,0.9900000000000002,0.9900000000000002,1.0,0.9700000000000006,0.38326318199730824,0.9505166460797856,0.9900000000000002,1.0,0.9900000000000002,0.9800000000000004,-1.0,-1.0,0.03240745345995055,1.0,1.0,0.9800000000000004,1.0,0.9700000000000006,0.9600000000000009,1.0,0.9700000000000006,-0.30268178529816003,0.9800000000000004,0.9315703517018661,0.9900000000000002,0.5357038424835308,1.0,-0.6703920676043849,-1.0,-0.8118464595729398,1.0,0.9900000000000002,0.9600000000000009,-0.4729895054558293,-1.0,-1.0,0.9900000000000002,1.0,1.0,0.5368156387246792,0.47313465844544345,0.8066340779015437,0.27272258386587556,1.0,0.8568082627114277,-1.0,-1.0,0.9900000000000002,0.6553019918529612,0.3476334165147845,-0.9900000000000002,0.9700000000000006,-1.0,-0.27381826618215577,0.9900000000000002,0.9900000000000002,-1.0,0.9900000000000002,0.0948652771694869,-0.48498940599413487,-1.0,0.8952711530872417,1.0,0.9900000000000002,0.2399551804986393,0.45997089608944286,-0.30535604305707764,0.016397601366970882,0.907568113081954,0.9900000000000002,0.4060870417070239,-0.10082164775942859,0.9700000000000006,-1.0,0.9900000000000002,0.790877533974971,0.4404180365906063,0.9900000000000002,0.6911693028006258,0.9800000000000004,0.3999944350417186,0.3626726012436823,0.9700000000000006,-1.0,0.5921304929102504,0.9900000000000002,-1.0,1.0,0.9900000000000002,0.9600000000000009,-0.2078571726096632,0.9900000000000002,1.0,0.6161419665698897,0.8826777086323103,0.6838407820263432,0.6235830889898324,0.9900000000000002,0.9900000000000002,-0.6240532881762437,1.0,-0.2935383799067264,0.9761503553101258,0.9900000000000002,-0.7982179547425305,1.0,0.35294356437132013,1.0,-0.07784489022079688,0.8040226375598962,0.30606900532761916,1.0,-0.5898382398935764,0.9600000000000009,0.9755668477880124,0.6397148861256179,0.3799631236843908,-0.13085550047156413,-1.0,0.28587420060177315,-0.4673468189956962,0.9600000000000009,-1.0,-0.33036420929339805,-1.0,0.43696878426079167,-0.06232127594858472,0.9800000000000004,1.0,-0.7671670960647088,-1.0,-1.0,-1.0,1.0,0.9700000000000006,0.9900000000000002,0.9800000000000004,0.7402534916678141,-1.0,1.0,0.9800000000000004,1.0,0.9900000000000002,-1.0,0.9700000000000006,-1.0,0.14309655640901697,-0.02210308891088708,1.0,-0.6142207649850282,0.653221292886113,-0.12052514545113402,0.6543930690577984,0.9700000000000006,1.0,-1.0,0.7082524301949404,1.0,-0.5222499543944723,0.017709075068394142,-1.0,-1.0,0.9900000000000002,-1.0,0.9700000000000006,0.9700000000000006,0.24824836033495945,1.0,1.0,1.0,-0.028167586852859472,-1.0,0.3625924580977502,-0.14033169785970045,0.7587001813918448,0.12426862769679836,0.4737725601123204,1.0,-0.5239843627924952,0.9900000000000002,-1.0,0.8481550948177046,-0.7882757813714907,-1.0,-1.0,0.9900000000000002,0.9800000000000004,1.0,0.01955254283987884,0.9900000000000002,0.9600000000000009,-0.0789836273604343,-1.0,0.9800000000000004,0.8693836790653338,1.0,0.9900000000000002,-0.38562670445009495,0.9440740694009362,0.7741148177053851,1.0,0.9900000000000002,0.18800368076646645,-1.0,0.3490027697328162,1.0,-0.7166930729420233,-1.0,0.49233368161794555,0.6926743041867391,0.5054531023375506,1.0,0.9900000000000002,1.0,-0.015101440512040654,0.20308530174655015,1.0,0.19669213215649517,1.0,-0.6771616082242486,0.9800000000000004,-1.0,0.5700171447017501,-0.5848798112796398,1.0,1.0,-0.9934928563980474,-1.0,0.6653262921108087,1.0,0.4125378731825018,-0.6508416389492888,0.8186711367171995,-0.06346609990615626,1.0,1.0,0.9800000000000004,-1.0,0.9800000000000004,0.9900000000000002,-0.29579787115142997,0.9700000000000006,0.9900000000000002,-1.0,1.0,0.602155106749489,-1.0,-0.0901041224637873,-1.0,0.3230398904094409,-0.3578410473857234,-0.24429494841074817,-0.49238117724908115,-0.6285146611967241,0.9900000000000002,-0.7854733134494785,-0.960847160842178,-1.0,-1.0,0.9700000000000006,-1.0
-0.9225904732763963,-1.0,1.0,-0.36383140874101016,0.9800000000000004,0.9800000000000004,-1.0,0.9700000000000006,0.4861848570898428,0.9505166460797856,1.0,1.0,1.0,0.9700000000000006,-1.0,-1.0,0.725106549902959,1.0,0.9900000000000002,0.9700000000000006,0.9900000000000002,0.9700000000000006,0.9500000000000011,0.9900000000000002,0.9700000000000006,-0.30268178529816003,0.9700000000000006,1.0,0.9800000000000004,0.5357038424835308,0.9900000000000002,-0.6803920676043846,-1.0,0.19709845569930362,1.0,1.0,1.0,-0.4729895054558293,-1.0,-1.0,1.0,0.9900000000000002,1.0,0.5268156387246794,0.6042576548254406,0.796634077901544,0.26272258386587577,0.9900000000000002,0.8568082627114277,-0.6138954341442107,-0.521913857878455,0.9800000000000004,-1.0,1.0,-1.0,1.0,-0.007816114696498566,1.0,0.9800000000000004,0.9800000000000004,-1.0,0.9800000000000004,0.08486527716948711,-0.41815034084355807,-1.0,0.8852711530872419,0.9900000000000002,0.9800000000000004,0.2299551804986395,0.4499708960894431,-0.30535604305707764,0.006397601366971095,0.907568113081954,0.9800000000000004,0.39608704170702413,-0.10082164775942859,-1.0,-1.0,0.9900000000000002,0.7808775339749712,0.4304180365906065,0.9900000000000002,0.681169302800626,0.9700000000000006,0.3999944350417186,0.5309751132506912,0.9700000000000006,-1.0,0.5821304929102507,0.9900000000000002,-1.0,0.9900000000000002,0.9900000000000002,0.9600000000000009,-0.2078571726096632,0.9900000000000002,1.0,0.60614196656989,0.8726777086323105,0.6738407820263435,0.6235830889898324,0.9900000000000002,1.0,-0.6340532881762435,1.0,-0.30353837990672616,0.9761503553101258,0.9800000000000004,-0.7982179547425305,0.9900000000000002,0.34294356437132034,1.0,-0.08784489022079667,0.7940226375598964,0.30606900532761916,-1.0,0.545316708868385,0.7944489523306486,0.9877834238940062,0.7036516277220435,0.6849815618421955,0.4245722497642177,-0.16452336031302472,0.2860226432693054,1.0,0.9700000000000006,1.0,0.3198178953533013,0.3164166719369179,0.18014787409767807,0.35665310248016713,0.06931118549670146,0.9320974837570457,0.16328357228694923,0.0,-1.0,0.0,0.9900000000000002,0.9850000000000003,0.37564473813523325,-1.0,0.7689844230995728,-0.004999999999999893,0.0,-0.019999999999999574,0.6109365019372106,-0.004999999999999893,-0.009999999999999787,-0.024999999999999467,0.7019914149874436,1.0,0.6897926949638036,0.9900000000000002,-0.6242207649850284,1.0,-0.12052514545113402,0.6543930690577984,0.9700000000000006,1.0,-1.0,0.7082524301949404,0.9900000000000002,-0.5222499543944723,0.2991572707340895,-1.0,-1.0,0.9900000000000002,-1.0,0.9700000000000006,0.9700000000000006,-1.0,1.0,0.9900000000000002,1.0,-0.03816758685285926,-1.0,0.3625924580977502,-0.15033169785970024,0.9629346925432585,1.0,0.4737725601123204,0.9900000000000002,-0.533984362792495,1.0,-1.0,0.8481550948177046,-0.523308227938263,0.2164002637851392,-1.0,0.9800000000000004,1.0,1.0,0.009552542839879052,1.0,0.9500000000000011,-0.08898362736043408,-1.0,0.9700000000000006,1.0,0.9900000000000002,1.0,-0.38562670445009495,0.9836727380960406,0.7741148177053851,1.0,1.0,0.9928460744800995,-1.0,0.3490027697328162,0.9900000000000002,-0.7266930729420231,-1.0,0.49233368161794555,0.6926743041867391,1.0,0.9900000000000002,0.9900000000000002,0.9900000000000002,-0.015101440512040654,0.19308530174655036,1.0,0.18669213215649538,1.0,-0.6771616082242486,-1.0,-0.6731377593544945,0.5600171447017503,-0.5848798112796398,1.0,0.9900000000000002,-1.0,-0.7574532211705791,0.655326292110809,1.0,0.4125378731825018,-0.6508416389492888,0.8186711367171995,-0.07346609990615605,0.9900000000000002,0.9900000000000002,0.9700000000000006,-1.0,0.9700000000000006,-1.0,1.0,0.9700000000000006,0.9900000000000002,-1.0,0.9900000000000002,1.0,-0.22821966415381967,1.0,-1.0,0.5590222601719548,-0.3678410473857232,0.15087967060063612,-0.49238117724908115,-0.6385146611967238,0.9900000000000002,-0.35681180707247373,-0.9708471608421778,-1.0,-0.7977767159049103,0.9600000000000009,-1.0
-0.4071149603916169,-0.8286300289848514,0.9600000000000009,-0.05871184656372774,-0.22824403584564656,-0.6585924970676151,0.4917108468361615,1.0,0.9900000000000002,-0.4904431747587692,0.4161650290282677,1.0,0.763735180414745,0.4695924828274314,1.0,1.0,0.9700000000000006,-0.1012616407310909,-0.4797404349337757,0.9700000000000006,0.49985310522521376,1.0,0.7672334987256342,0.4336388452330575,-1.0,0.30798220825346645,0.9900000000000002,1.0,1.0,0.060138190287566395,0.9800000000000004,-0.18892993506638245,-1.0,0.9800000000000004,1.0,0.9800000000000004,-1.0,0.3758666381143829,0.775519700135729,0.4199277123194607,0.9600000000000009,0.16103991589239453,0.9900000000000002,-1.0,0.028374985007997733,0.03199204354405438,-0.861352365986467,0.9900000000000002,-0.049618290131677956,1.0,0.8008348816301476,0.9800000000000004,-1.0,1.0,-0.6804088245767552,1.0,0.39287041609523765,-0.6741930897953434,0.25144960643559555,0.9500000000000011,0.9800000000000004,1.0,0.9900000000000002,-1.0,0.06244047780859674,0.7873091140882464,-1.0,-0.8862407930367571,0.9700000000000006,1.0,0.9800000000000004,0.7115916519615588,0.9800000000000004,1.0,0.19483279389001673,-1.0,-1.0,1.0,1.0,0.2646901892670801,0.4594013174272247,0.9900000000000002,0.6124402812257048,0.08310954024938955,-0.7222072589667383,1.0,-1.0,0.5722841472994471,-0.22482145854736757,0.8975710083354702,0.9900000000000002,1.0,0.9700000000000006,-1.0,-1.0,0.5749941551138571,0.9694026535417368,0.9800000000000004,-0.791270806859282,0.3358418615319776,1.0,-1.0,0.9900000000000002,1.0,1.0,0.9900000000000002,1.0,1.0,-0.020720649674833336,0.9700000000000006,-0.8352921555864103,0.6012586255183399,1.0,-0.010762634292892148,0.9700000000000006,0.9800000000000004,0.6786537457996102,0.9900000000000002,0.23729492994985968,-0.22780522746092213,-0.6099692385037834,0.9400000000000013,0.3435122948552545,1.0,0.9800000000000004,0.6297225677038085,1.0,-0.19947670159577946,0.6416631651369782,-1.0,1.0,-1.0,0.39987205360989186,-0.020465378976314952,-1.0,0.8610898432557463,0.9900000000000002,0.9700000000000006,-0.7895297320077539,0.9800000000000004,0.21425025510052498,0.619962521112412,0.06337285386333358,1.0,-1.0,1.0,-0.4076248560045923,-0.5335698423242583,-0.8531208001494672,-1.0,1.0,1.0,-0.8269780739957122,0.193697630627228,0.9900000000000002,0.9800000000000004,0.7175803058728984,1.0,0.9900000000000002,-0.09137349008762596,1.0,-1.0,0.9777744743736467,-0.12942476873840203,0.038074038053467874,0.09133981822680304,-0.630400513892384,0.28483870774448494,-0.8761934805819616,1.0,-1.0,0.7125574063551801,-0.10783145175287379,0.6106845383496129,0.6649158381221856,0.6391885637656411,0.9900000000000002,-1.0,-0.8672637564342276,1.0,0.9126705087280769,-0.07219352936540746,-1.0,-0.39688374706642104,0.9800000000000004,0.9900000000000002,-0.43158215763713503,-0.4760154839052224,0.07991922144533303,-1.0,0.9288114310575608,-1.0,0.8512133295960425,-0.26042248776160015,-1.0,0.19302201078978243,0.9900000000000002,0.9900000000000002,0.9900000000000002,0.9700000000000006,0.9800000000000004,-1.0,0.8230872791677264,1.0,-0.7646519543932699,1.0,1.0,0.9900000000000002,1.0,-1.0,-1.0,1.0,0.9900000000000002,1.0,0.9800000000000004,-1.0,-1.0,1.0,0.7375048807658793,1.0,1.0,-0.838521558645068,0.3407698350840134,-1.0,1.0,-1.0,-0.769859254327212,-0.8764235481990363,0.9900000000000002,0.9900000000000002,-0.08581414361236472,-1.0,-1.0,0.3042705426043639,0.9800000000000004,-1.0,0.5989493113686355,0.47182598793976016,0.9900000000000002,1.0,-1.0,0.6915074066329443,0.9800000000000004,1.0,0.9900000000000002,0.09218803441949941,-1.0,1.0,-0.2523395859372295,1.0,1.0,0.8301239073517439,-0.1469107965094949,0.9600000000000009,-0.21646991200647303,-1.0,1.0,0.0423840295371507,0.6482830575122938,0.5598732229973393,-0.4342360636969649,0.4518555518357701,0.9200000000000017,-1.0,-0.9900000000000002
-0.4071149603916169,-0.8286300289848514,0.9600000000000009,-0.05871184656372774,-0.22824403584564656,-0.6585924970676151,0.4917108468361615,1.0,0.9900000000000002,-0.4904431747587692,0.4161650290282677,1.0,0.763735180414745,0.4695924828274314,1.0,1.0,0.9700000000000006,-0.1012616407310909,-0.4797404349337757,0.9700000000000006,0.49985310522521376,1.0,0.7672334987256342,0.4336388452330575,-1.0,0.30798220825346645,0.9900000000000002,1.0,1.0,0.060138190287566395,0.9800000000000004,-0.18892993506638245,-1.0,0.9800000000000004,1.0,0.9800000000000004,-1.0,0.3758666381143829,0.775519700135729,0.4199277123194607,0.9600000000000009,0.16103991589239453,0.9900000000000002,-1.0,0.028374985007997733,0.03199204354405438,-0.861352365986467,0.9900000000000002,-0.049618290131677956,1.0,0.8008348816301476,0.9800000000000004,-1.0,1.0,-0.6804088245767552,1.0,0.39287041609523765,-0.6741930897953434,0.25144960643559555,0.9500000000000011,0.9800000000000004,1.0,0.9900000000000002,-1.0,0.06244047780859674,0.7873091140882464,-1.0,-0.8862407930367571,0.9700000000000006,1.0,0.9800000000000004,0.7115916519615588,0.9800000000000004,1.0,0.19483279389001673,-1.0,-1.0,1.0,1.0,0.2646901892670801,0.4594013174272247,0.9900000000000002,0.6124402812257048,0.08310954024938955,-0.7222072589667383,1.0,-1.0,0.5722841472994471,-0.22482145854736757,0.8975710083354702,0.9900000000000002,1.0,0.9700000000000006,-1.0,-1.0,0.5749941551138571,0.9694026535417368,0.9800000000000004,-0.791270806859282,0.3358418615319776,1.0,-1.0,0.9900000000000002,1.0,1.0,0.9900000000000002,1.0,1.0,-0.020720649674833336,0.9700000000000006,-0.8352921555864103,0.6012586255183399,1.0,-0.010762634292892148,0.9700000000000006,0.9800000000000004,0.6786537457996102,0.9900000000000002,0.23729492994985968,-0.22780522746092213,-0.6099692385037834,0.9400000000000013,0.3435122948552545,1.0,0.9800000000000004,0.6297225677038085,1.0,-0.19947670159577946,0.6416631651369782,-1.0,1.0,-1.0,0.39987205360989186,-0.020465378976314952,-1.0,0.8610898432557463,0.9900000000000002,0.9700000000000006,-0.7895297320077539,0.9800000000000004,0.21425025510052498,0.619962521112412,0.06337285386333358,1.0,-1.0,1.0,-0.4076248560045923,-0.5335698423242583,-0.8531208001494672,-1.0,1.0,1.0,-0.8269780739957122,0.193697630627228,0.9900000000000002,0.9800000000000004,0.7175803058728984,1.0,0.9900000000000002,-0.09137349008762596,1.0,-1.0,0.9777744743736467,-0.12942476873840203,0.038074038053467874,0.09133981822680304,-0.630400513892384,0.28483870774448494,-0.8761934805819616,1.0,-1.0,0.7125574063551801,-0.10783145175287379,0.6106845383496129,0.6649158381221856,0.6391885637656411,0.9900000000000002,-1.0,-0.8672637564342276,1.0,0.9126705087280769,-0.07219352936540746,-1.0,-0.39688374706642104,0.9800000000000004,0.9900000000000002,-0.43158215763713503,-0.4760154839052224,0.07991922144533303,-1.0,0.9288114310575608,-1.0,0.8512133295960425,-0.26042248776160015,-1.0,0.19302201078978243,0.9900000000000002,0.9900000000000002,0.9900000000000002,0.9700000000000006,0.9800000000000004,-1.0,0.8230872791677264,1.0,-0.7646519543932699,1.0,1.0,0.9900000000000002,1.0,-1.0,-1.0,1.0,0.9900000000000002,1.0,0.9800000000000004,-1.0,-1.0,1.0,0.7375048807658793,1.0,1.0,-0.838521558645068,0.3407698350840134,-1.0,1.0,-1.0,-0.769859254327212,-0.8764235481990363,0.9900000000000002,0.9900000000000002,-0.08581414361236472,-1.0,-1.0,0.3042705426043639,0.9800000000000004,-1.0,0.5989493113686355,0.47182598793976016,0.9900000000000002,1.0,-1.0,0.6915074066329443,0.9800000000000004,1.0,0.9900000000000002,0.09218803441949941,-1.0,1.0,-0.2523395859372295,1.0,1.0,0.8301239073517439,-0.1469107965094949,0.9600000000000009,-0.21646991200647303,-1.0,1.0,0.0423840295371507,0.6482830575122938,0.5598732229973393,-0.4342360636969649,0.4518555518357701,0.9200000000000017,-1.0,-0.9900000000000002
-0.4071149603916169,-0.8286300289848514,0.9600000000000009,-0.05871184656372774,-0.22824403584564656,-0.6585924970676151,0.4917108468361615,1.0,0.9900000000000002,-0.4904431747587692,0.4161650290282677,1.0,0.763735180414745,0.4695924828274314,1.0,1.0,0.9700000000000006,-0.1012616407310909,-0.4797404349337757,0.9700000000000006,0.49985310522521376,1.0,0.7672334987256342,0.4336388452330575,-1.0,0.30798220825346645,0.9900000000000002,1.0,1.0,0.060138190287566395,0.9800000000000004,-0.18892993506638245,-1.0,0.9800000000000004,1.0,0.9800000000000004,-1.0,0.3758666381143829,0.775519700135729,0.4199277123194607,0.9600000000000009,0.16103991589239453,0.9900000000000002,-1.0,0.028374985007997733,0.03199204354405438,-0.861352365986467,0.9900000000000002,-0.049618290131677956,1.0,0.8008348816301476,0.9800000000000004,-1.0,1.0,-0.6804088245767552,1.0,0.39287041609523765,-0.6741930897953434,0.25144960643559555,0.9500000000000011,0.9800000000000004,1.0,0.9900000000000002,-1.0,0.06244047780859674,0.7873091140882464,-1.0,-0.8862407930367571,0.9700000000000006,1.0,0.9800000000000004,0.7115916519615588,0.9800000000000004,1.0,0.19483279389001673,-1.0,-1.0,1.0,1.0,0.2646901892670801,0.4594013174272247,0.9900000000000002,0.6124402812257048,0.08310954024938955,-0.7222072589667383,1.0,-1.0,0.5722841472994471,-0.22482145854736757,0.8975710083354702,0.9900000000000002,1.0,0.9700000000000006,-1.0,-1.0,0.5749941551138571,0.9694026535417368,0.9800000000000004,-0.791270806859282,0.3358418615319776,1.0,-1.0,0.9900000000000002,1.0,1.0,0.9900000000000002,1.0,1.0,-0.020720649674833336,0.9700000000000006,-0.8352921555864103,0.6012586255183399,1.0,-0.010762634292892148,0.9700000000000006,0.9800000000000004,0.6786537457996102,0.9900000000000002,0.23729492994985968,-0.22780522746092213,-0.6099692385037834,0.9400000000000013,0.3435122948552545,1.0,0.9800000000000004,0.6297225677038085,1.0,-0.19947670159577946,0.6416631651369782,-1.0,1.0,-1.0,0.39987205360989186,-0.020465378976314952,-1.0,0.8610898432557463,0.9900000000000002,0.9700000000000006,-0.7895297320077539,0.9800000000000004,0.21425025510052498,0.619962521112412,0.06337285386333358,1.0,-1.0,1.0,-0.4076248560045923,-0.5335698423242583,-0.8531208001494672,-1.0,1.0,1.0,-0.8269780739957122,0.193697630627228,0.9900000000000002,0.9800000000000004,0.7175803058728984,1.0,0.9900000000000002,-0.09137349008762596,1.0,-1.0,0.9777744743736467,-0.12942476873840203,0.038074038053467874,0.09133981822680304,-0.630400513892384,0.28483870774448494,-0.8761934805819616,1.0,-1.0,0.7125574063551801,-0.10783145175287379,0.6106845383496129,0.6649158381221856,0.6391885637656411,0.9900000000000002,-1.0,-0.8672637564342276,1.0,0.9126705087280769,-0.07219352936540746,-1.0,-0.39688374706642104,0.9800000000000004,0.9900000000000002,-0.43158215763713503,-0.4760154839052224,0.07991922144533303,-1.0,0.9288114310575608,-1.0,0.8512133295960425,-0.26042248776160015,-1.0,0.19302201078978243,0.9900000000000002,0.9900000000000002,0.9900000000000002,0.9700000000000006,0.9800000000000004,-1.0,0.8230872791677264,1.0,-0.7646519543932699,1.0,1.0,0.9900000000000002,1.0,-1.0,-1.0,1.0,0.9900000000000002,1.0,0.9800000000000004,-1.0,-1.0,1.0,0.7375048807658793,1.0,1.0,-0.838521558645068,0.3407698350840134,-1.0,1.0,-1.0,-0.769859254327212,-0.8764235481990363,0.9900000000000002,0.9900000000000002,-0.08581414361236472,-1.0,-1.0,0.3042705426043639,0.9800000000000004,-1.0,0.5989493113686355,0.47182598793976016,0.9900000000000002,1.0,-1.0,0.6915074066329443,0.9800000000000004,1.0,0.9900000000000002,0.09218803441949941,-1.0,1.0,-0.2523395859372295,1.0,1.0,0.8301239073517439,-0.1469107965094949,0.9600000000000009,-0.21646991200647303,-1.0,1.0,0.0423840295371507,0.6482830575122938,0.5598732229973393,-0.4342360636969649,0.4518555518357701,0.9200000000000017,-1.0,-0.9900000000000002
-0.17377574815418706,-0.8386300289848512,1.0,-0.07871184656372732,-0.22824403584564656,-0.6685924970676149,-1.0,1.0,-1.0,0.39776990062499396,0.4161650290282677,-1.0,0.763735180414745,0.44959248282743136,0.9800000000000004,1.0,0.9700000000000006,0.8621548754949879,-0.4797404349337757,0.9600000000000009,0.9854879690041729,1.0,0.7572334987256344,0.4136388452330575,0.039070086206834276,1.0,0.9900000000000002,-1.0,0.009875900278095262,0.05013819028756661,0.9800000000000004,-0.18892993506638245,-1.0,1.0,1.0,0.9700000000000006,-1.0,0.36586663811438314,1.0,0.4099277123194609,0.9500000000000011,0.14103991589239495,-1.0,-1.0,0.028374985007997733,0.021992043544054596,-0.861352365986467,1.0,-0.06961829013167753,0.9800000000000004,0.7908348816301478,1.0,-1.0,1.0,-0.33589490770707453,1.0,0.38287041609523786,-0.6841930897953432,0.5473743710196608,1.0,1.0,0.9900000000000002,0.9900000000000002,-1.0,0.05244047780859695,-1.0,-0.6045882894056893,-0.19708528493320188,1.0,0.9900000000000002,0.9700000000000006,0.8158984183370315,0.9700000000000006,1.0,0.18483279389001694,-1.0,-1.0,0.9900000000000002,0.9800000000000004,0.2546901892670803,0.9700018985458128,0.9800000000000004,0.5924402812257048,0.9570507939478103,-0.7322072589667386,-1.0,-0.19454416802622365,0.7021114180945789,-0.1845492259331385,0.8875710083354704,0.9900000000000002,0.9900000000000002,0.9600000000000009,-1.0,-1.0,0.9900000000000002,-1.0,0.9700000000000006,0.34021453225911635,0.6782323313206922,0.9900000000000002,-1.0,0.9900000000000002,1.0,1.0,0.9700000000000006,1.0,-1.0,0.588562883661528,-1.0,-0.8352921555864103,0.6012586255183399,-1.0,0.14984584959953828,-1.0,0.9700000000000006,1.0,0.9900000000000002,0.2272949299498599,-0.23780522746092192,-0.6199692385037832,0.9200000000000017,0.3235122948552549,0.9900000000000002,0.9900000000000002,1.0,1.0,-0.19291769960007343,0.7921074913618975,-1.0,0.9900000000000002,-1.0,0.7890966973853919,0.4503576323725471,-0.407965563787434,1.0,0.9900000000000002,0.9700000000000006,-0.7895297320077539,0.9600000000000009,0.21425025510052498,0.6099625211124122,0.04337285386333356,0.9900000000000002,-1.0,0.9900000000000002,0.3787322459897835,0.06619271297665907,-0.8531208001494672,-1.0,0.9900000000000002,1.0,-0.836978073995712,0.193697630627228,0.9900000000000002,0.9800000000000004,0.9900000000000002,1.0,1.0,-0.11137349008762554,0.9900000000000002,0.10828970872798749,0.9777744743736467,-0.12942476873840203,0.028074038053468087,0.08133981822680303,-0.6504005138923841,0.26483870774448537,-0.8761934805819616,1.0,0.23690427228721855,1.0,-0.11783145175287357,0.6006845383496131,0.6549158381221858,0.6191885637656416,-1.0,-0.010149267708998266,0.3652390754220556,1.0,0.9126705087280769,-0.09219352936540703,-1.0,0.195700675629765,0.9900000000000002,0.9800000000000004,-0.43158215763713503,-0.3732100155821785,0.0699192214453328,-0.27135244954921767,0.918811431057561,-1.0,1.0,1.0,-1.0,0.2996081022940196,0.9800000000000004,0.9900000000000002,0.9900000000000002,0.9700000000000006,0.9600000000000009,-1.0,0.8230872791677264,1.0,0.06225293520845776,0.9900000000000002,1.0,0.9800000000000004,1.0,-1.0,-0.7008049263695195,-1.0,0.9900000000000002,1.0,0.9700000000000006,-1.0,-1.0,0.9900000000000002,0.9900000000000002,0.9900000000000002,0.9900000000000002,-0.8485215586450678,-1.0,-1.0,1.0,-1.0,0.24957511808947608,-0.5766367178450187,1.0,0.9700000000000006,0.8698919959638567,-0.8119732436515719,-0.24818059761039146,0.3042705426043639,0.9700000000000006,-1.0,0.5789493113686355,0.4518259879397606,0.9800000000000004,0.9800000000000004,-1.0,0.6815074066329441,1.0,1.0,-1.0,-1.0,-1.0,-1.0,-0.2523395859372295,-1.0,0.9900000000000002,1.0,-0.011477520529454388,-1.0,-0.22646991200647282,-1.0,-1.0,0.032384029537150916,1.0,1.0,-0.4542360636969649,0.4318555518357705,-1.0,-1.0,-0.9356229000279903
-0.17377574815418706,-0.8386300289848512,1.0,-0.07871184656372732,-0.22824403584564656,-0.6685924970676149,-1.0,1.0,-1.0,0.39776990062499396,0.4161650290282677,-1.0,0.763735180414745,0.44959248282743136,0.9800000000000004,1.0,0.9700000000000006,0.8621548754949879,-0.4797404349337757,0.9600000000000009,0.9854879690041729,1.0,0.7572334987256344,0.4136388452330575,0.039070086206834276,1.0,0.9900000000000002,-1.0,0.009875900278095262,0.05013819028756661,0.9800000000000004,-0.18892993506638245,-1.0,1.0,1.0,0.9700000000000006,-1.0,0.36586663811438314,1.0,0.4099277123194609,0.9500000000000011,0.14103991589239495,-1.0,-1.0,0.028374985007997733,0.021992043544054596,-0.861352365986467,1.0,-0.06961829013167753,0.9800000000000004,0.7908348816301478,1.0,-1.0,1.0,-0.33589490770707453,1.0,0.38287041609523786,-0.6841930897953432,0.5473743710196608,1.0,1.0,0.9900000000000002,0.9900000000000002,-1.0,0.05244047780859695,-1.0,-0.6045882894056893,-0.19708528493320188,1.0,0.9900000000000002,0.9700000000000006,0.8158984183370315,0.9700000000000006,1.0,0.18483279389001694,-1.0,-1.0,0.9900000000000002,0.9800000000000004,0.2546901892670803,0.9700018985458128,0.9800000000000004,0.5924402812257048,0.9570507939478103,-0.7322072589667386,-1.0,-0.19454416802622365,0.7021114180945789,-0.1845492259331385,0.8875710083354704,0.9900000000000002,0.9900000000000002,0.9600000000000009,-1.0,-1.0,0.9900000000000002,-1.0,0.9700000000000006,0.34021453225911635,0.6782323313206922,0.9900000000000002,-1.0,0.9900000000000002,1.0,1.0,0.9700000000000006,1.0,-1.0,0.588562883661528,-1.0,-0.8352921555864103,0.6012586255183399,-1.0,0.14984584959953828,-1.0,0.9700000000000006,1.0,0.9900000000000002,0.2272949299498599,-0.23780522746092192,-0.6199692385037832,0.9200000000000017,0.3235122948552549,0.9900000000000002,0.9900000000000002,1.0,1.0,-0.19291769960007343,0.7921074913618975,-1.0,0.9900000000000002,-1.0,0.7890966973853919,0.4503576323725471,-0.407965563787434,1.0,0.9900000000000002,0.9700000000000006,-0.7895297320077539,0.9600000000000009,0.21425025510052498,0.6099625211124122,0.04337285386333356,0.9900000000000002,-1.0,0.9900000000000002,0.3787322459897835,0.06619271297665907,-0.8531208001494672,-1.0,0.9900000000000002,1.0,-0.836978073995712,0.193697630627228,0.9900000000000002,0.9800000000000004,0.9900000000000002,1.0,1.0,-0.11137349008762554,0.9900000000000002,0.10828970872798749,0.9777744743736467,-0.12942476873840203,0.028074038053468087,0.08133981822680303,-0.6504005138923841,0.26483870774448537,-0.8761934805819616,1.0,0.23690427228721855,1.0,-0.11783145175287357,0.6006845383496131,0.6549158381221858,0.6191885637656416,-1.0,-0.010149267708998266,0.3652390754220556,1.0,0.9126705087280769,-0.09219352936540703,-1.0,0.195700675629765,0.9900000000000002,0.9800000000000004,-0.43158215763713503,-0.3732100155821785,0.0699192214453328,-0.27135244954921767,0.918811431057561,-1.0,1.0,1.0,-1.0,0.2996081022940196,0.9800000000000004,0.9900000000000002,0.9900000000000002,0.9700000000000006,0.9600000000000009,-1.0,0.8230872791677264,1.0,0.06225293520845776,0.9900000000000002,1.0,0.9800000000000004,1.0,-1.0,-0.7008049263695195,-1.0,0.9900000000000002,1.0,0.9700000000000006,-1.0,-1.0,0.9900000000000002,0.9900000000000002,0.9900000000000002,0.9900000000000002,-0.8485215586450678,-1.0,-1.0,1.0,-1.0,0.24957511808947608,-0.5766367178450187,1.0,0.9700000000000006,0.8698919959638567,-0.8119732436515719,-0.24818059761039146,0.3042705426043639,0.9700000000000006,-1.0,0.5789493113686355,0.4518259879397606,0.9800000000000004,0.9800000000000004,-1.0,0.6815074066329441,1.0,1.0,-1.0,-1.0,-1.0,-1.0,-0.2523395859372295,-1.0,0.9900000000000002,1.0,-0.011477520529454388,-1.0,-0.22646991200647282,-1.0,-1.0,0.032384029537150916,1.0,1.0,-0.4542360636969649,0.4318555518357705,-1.0,-1.0,-0.9356229000279903
-0.17377574815418706,-0.8386300289848512,1.0,-0.07871184656372732,-0.22824403584564656,-0.6685924970676149,-1.0,1.0,-1.0,0.39776990062499396,0.4161650290282677,-1.0,0.763735180414745,0.44959248282743136,0.9800000000000004,1.0,0.9700000000000006,0.8621548754949879,-0.4797404349337757,0.9600000000000009,0.9854879690041729,1.0,0.7572334987256344,0.4136388452330575,0.039070086206834276,1.0,0.9900000000000002,-1.0,0.009875900278095262,0.05013819028756661,0.9800000000000004,-0.18892993506638245,-1.0,1.0,1.0,0.9700000000000006,-1.0,0.36586663811438314,1.0,0.4099277123194609,0.9500000000000011,0.14103991589239495,-1.0,-1.0,0.028374985007997733,0.021992043544054596,-0.861352365986467,1.0,-0.06961829013167753,0.9800000000000004,0.7908348816301478,1.0,-1.0,1.0,-0.33589490770707453,1.0,0.38287041609523786,-0.6841930897953432,0.5473743710196608,1.0,1.0,0.9900000000000002,0.9900000000000002,-1.0,0.05244047780859695,-1.0,-0.6045882894056893,-0.19708528493320188,1.0,0.9900000000000002,0.9700000000000006,0.8158984183370315,0.9700000000000006,1.0,0.18483279389001694,-1.0,-1.0,0.9900000000000002,0.9800000000000004,0.2546901892670803,0.9700018985458128,0.9800000000000004,0.5924402812257048,0.9570507939478103,-0.7322072589667386,-1.0,-0.19454416802622365,0.7021114180945789,-0.1845492259331385,0.8875710083354704,0.9900000000000002,0.9900000000000002,0.9600000000000009,-1.0,-1.0,0.9900000000000002,-1.0,0.9700000000000006,0.34021453225911635,0.6782323313206922,0.9900000000000002,-1.0,0.9900000000000002,1.0,1.0,0.9700000000000006,1.0,-1.0,0.588562883661528,-1.0,-0.8352921555864103,0.6012586255183399,-1.0,0.14984584959953828,-1.0,0.9700000000000006,1.0,0.9900000000000002,0.2272949299498599,-0.23780522746092192,-0.6199692385037832,0.9200000000000017,0.3235122948552549,0.9900000000000002,0.9900000000000002,1.0,1.0,-0.19291769960007343,0.7921074913618975,-1.0,0.9900000000000002,-1.0,0.7890966973853919,0.4503576323725471,-0.407965563787434,1.0,0.9900000000000002,0.9700000000000006,-0.7895297320077539,0.9600000000000009,0.21425025510052498,0.6099625211124122,0.04337285386333356,0.9900000000000002,-1.0,0.9900000000000002,0.3787322459897835,0.06619271297665907,-0.8531208001494672,-1.0,0.9900000000000002,1.0,-0.836978073995712,0.193697630627228,0.9900000000000002,0.9800000000000004,0.9900000000000002,1.0,1.0,-0.11137349008762554,0.9900000000000002,0.10828970872798749,0.9777744743736467,-0.12942476873840203,0.028074038053468087,0.08133981822680303,-0.6504005138923841,0.26483870774448537,-0.8761934805819616,1.0,0.23690427228721855,1.0,-0.11783145175287357,0.6006845383496131,0.6549158381221858,0.6191885637656416,-1.0,-0.010149267708998266,0.3652390754220556,1.0,0.9126705087280769,-0.09219352936540703,-1.0,0.195700675629765,0.9900000000000002,0.9800000000000004,-0.43158215763713503,-0.3732100155821785,0.0699192214453328,-0.27135244954921767,0.918811431057561,-1.0,1.0,1.0,-1.0,0.2996081022940196,0.9800000000000004,0.9900000000000002,0.9900000000000002,0.9700000000000006,0.9600000000000009,-1.0,0.8230872791677264,1.0,0.06225293520845776,0.9900000000000002,1.0,0.9800000000000004,1.0,-1.0,-0.7008049263695195,-1.0,0.9900000000000002,1.0,0.9700000000000006,-1.0,-1.0,0.9900000000000002,0.9900000000000002,0.9900000000000002,0.9900000000000002,-0.8485215586450678,-1.0,-1.0,1.0,-1.0,0.24957511808947608,-0.5766367178450187,1.0,0.9700000000000006,0.8698919959638567,-0.8119732436515719,-0.24818059761039146,0.3042705426043639,0.9700000000000006,-1.0,0.5789493113686355,0.4518259879397606,0.9800000000000004,0.9800000000000004,-1.0,0.6815074066329441,1.0,1.0,-1.0,-1.0,-1.0,-1.0,-0.2523395859372295,-1.0,0.9900000000000002,1.0,-0.011477520529454388,-1.0,-0.22646991200647282,-1.0,-1.0,0.032384029537150916,1.0,1.0,-0.4542360636969649,0.4318555518357705,-1.0,-1.0,-0.9356229000279903
-0.17377574815418706,-0.848630028984851,1.0,0.01939646309659615,-0.24824403584564614,-0.6685924970676149,0.354388162160844,1.0,0.0,0.688884950312497,0.6930825145141339,-0.004999999999999893,0.31127300355798626,0.22331979233726207,0.9800000000000004,0.0175717071076682,0.696990647472818,0.9160774377474943,0.24512978253311246,0.9439113505719865,0.9827439845020862,-1.0,-0.1263832506371827,1.0,-0.48546495689658276,0.9896172019776026,0.9750000000000005,-0.06161416403110653,0.49493795013904784,1.0,0.318852184561234,0.4005350324668089,-0.19060581426947398,0.48262498640847085,-0.009999999999999787,0.38096956698050555,0.0,-0.31706668094280843,0.5299491234298572,-1.0,-0.03999999999999915,0.5705199579461975,-0.7865425902846184,0.4210547714001889,1.0,0.9458926040309192,-0.9406761829932337,1.0,0.46519085493416124,0.9800000000000004,-0.08924532876005387,1.0,-0.04717876232548157,-0.009999999999999787,-0.3458949077070743,0.9900000000000002,0.6210846013279272,-0.6841930897953432,0.5273743710196612,-1.0,0.9800000000000004,1.0,1.0,-1.0,0.25657714805248943,-1.0,0.27769490576227707,-0.20708528493320166,-1.0,1.0,1.0,-1.0,1.0,1.0,0.17483279389001716,-1.0,-1.0,0.9800000000000004,0.9700000000000006,0.33917499645770555,0.960001898545813,0.9900000000000002,1.0,-1.0,-0.37261178928477845,-1.0,1.0,-1.0,0.0691408232007511,0.8875710083354704,0.9800000000000004,-1.0,0.9500000000000011,-0.1564389845888785,-1.0,0.9800000000000004,-0.08339611290374549,-1.0,0.6672791379471308,0.6582323313206926,1.0,0.2985461393331006,0.9900000000000002,1.0,0.9800000000000004,1.0,0.9900000000000002,-0.5492051917671565,0.588562883661528,-1.0,1.0,0.5912586255183401,-1.0,1.0,-1.0,-1.0,1.0,0.9800000000000004,0.2272949299498599,-0.10114189506984772,-0.6399692385037827,1.0,0.3135122948552551,0.9900000000000002,1.0,0.9900000000000002,0.9900000000000002,-0.212917699600073,0.7821074913618977,-1.0,0.9700000000000006,-1.0,0.9900000000000002,0.4503576323725471,0.9183762431532987,0.9900000000000002,0.9800000000000004,0.9600000000000009,-0.7795297320077541,-1.0,0.21425025510052498,0.5999625211124124,0.9900000000000002,1.0,-1.0,1.0,0.3787322459897835,0.0461927129766595,0.9470520292985531,-0.9385115862494136,0.9800000000000004,1.0,-0.8469780739957118,0.7632518855081236,1.0,1.0,0.9700000000000006,0.9900000000000002,0.9800000000000004,-0.13137349008762556,0.9800000000000004,0.0982897087279877,0.9900000000000002,0.34724098050838803,0.028074038053468087,0.06133981822680301,-0.3627762583624712,0.26483870774448537,-0.8861934805819613,0.9900000000000002,0.23690427228721855,1.0,-0.1278314517528738,0.5806845383496135,0.6549158381221858,0.599188563765642,0.5412120793386954,-0.020149267708998053,1.0,0.9900000000000002,0.8926705087280773,-0.11219352936540661,1.0,0.18570067562976522,0.9800000000000004,0.9800000000000004,-0.4515821576371346,-0.30722494190140015,0.0699192214453328,-0.29135244954921724,1.0,-1.0,0.9900000000000002,0.9900000000000002,-0.9719348839572253,0.2996081022940196,-1.0,0.9800000000000004,1.0,-1.0,-1.0,-1.0,0.9670224253891981,1.0,0.06225293520845776,-1.0,0.9900000000000002,0.9600000000000009,-1.0,-0.3873619743566068,0.47704921128111,-1.0,0.9800000000000004,0.9900000000000002,1.0,-1.0,-1.0,0.9800000000000004,0.9900000000000002,0.9800000000000004,0.9800000000000004,0.946845663798523,-0.9335212489955467,-1.0,1.0,0.5689130223359706,0.24957511808947608,-0.5866367178450185,-1.0,1.0,0.8598919959638565,-0.8219732436515717,-0.24818059761039146,1.0,-1.0,-1.0,0.9900000000000002,0.5139259421519173,-0.7544593991627373,0.9900000000000002,-1.0,0.9900000000000002,0.9900000000000002,0.9900000000000002,-1.0,-1.0,-1.0,0.2641783099534889,-0.2623395859372293,1.0,1.0,0.9800000000000004,-0.021477520529454175,0.3068411690349455,0.40986730214002787,-1.0,-0.06585175992228987,0.7096590864119046,0.9800000000000004,0.9900000000000002,-0.47423606369696447,0.4218555518357707,-1.0,-0.6965294538519053,1.0
-0.286870411414462,-1.0,1.0,0.9500000000000011,1.0,-1.0,0.0684187294142875,0.9600000000000009,-0.9009698115337232,-0.4512192028889723,1.0,-0.9283979031374807,0.9800000000000004,1.0,0.9800000000000004,-0.44314962744263653,0.9900000000000002,1.0,-0.523036449671137,-1.0,1.0,0.9900000000000002,0.9900000000000002,0.9600000000000009,0.9300000000000015,-0.19117320096125656,1.0,0.9800000000000004,1.0,1.0,0.9800000000000004,1.0,0.9900000000000002,1.0,0.8191049345646011,-1.0,-1.0,1.0,1.0,-1.0,0.9800000000000004,-1.0,0.9600000000000009,0.5218156387246795,1.0,0.9650000000000007,0.7971175065266172,-0.009999999999999787,0.9920289495562473,-0.07690273148837923,0.3001541792054838,-0.250704842720495,1.0,1.0,-0.575283148906931,1.0,0.9900000000000002,0.3816553968750025,-1.0,0.2857254770125812,1.0,-0.16117889268617613,0.8503126703264972,1.0,-0.0033516226054195464,0.9850000000000003,-0.009999999999999787,1.0,1.0,0.10460644344578363,-0.009999999999999787,0.20358445392693625,0.48398779663707714,0.7529607813436074,1.0,1.0,0.16518126291289237,-0.9964377428606461,1.0,0.6754163353919544,0.2968265514258279,-0.01499999999999968,0.9900000000000002,0.9900000000000002,-0.23050416751507274,0.4103224039532156,-0.009999999999999787,0.1396295626243731,0.9750000000000005,-0.5199999999999996,-0.046209539577156455,-1.0,0.8819524029030026,-0.8626265921834726,1.0,1.0,0.9000985561262871,0.9900000000000002,-0.01499999999999968,1.0,0.5239768525365296,0.18273751585612663,1.0,1.0,-0.564607638679298,-1.0,0.6488378089961984,0.9625000000000004,-0.791945059177861,1.0,0.5312970012228277,0.9900000000000002,0.5074249721067909,0.23904060129417903,-1.0,1.0,0.1900808800532121,0.33929760711040036,0.042999022420791455,-0.8465140627344843,0.9900000000000002,0.5977104387284098,0.762740690055665,0.5310213334988747,0.8042897927672152,0.9800000000000004,-1.0,1.0,-0.5436179714538625,-0.1816681408883829,1.0,0.2979535502663193,0.7762882662701802,-0.7062969690354821,0.3123994629686675,-0.7036271853103515,0.6063644366199314,0.25467719150383283,1.0,0.5159040142299234,0.9265478332921617,-0.47679530109845736,0.7404714719381458,0.768387501679122,0.9700000000000006,-0.20748659610890208,0.9900000000000002,0.9850000000000003,0.041305489376713744,0.7083433578897358,0.11151839121954943,-0.13260433102060887,1.0,0.5044486964364303,0.6166782673239668,1.0,1.0,-1.0,0.9750000000000005,0.4739785431640655,0.9950000000000001,-0.024999999999999467,0.10593362459405409,1.0,-0.5450202362298151,-0.015490079728696315,0.9750000000000005,0.7182376751115922,0.9450000000000012,1.0,-0.8557696699406492,1.0,1.0,-1.0,-0.01499999999999968,-0.578616750022495,0.9632933663018255,0.9320649740905553,0.7740251360438846,0.9700000000000006,-0.6309837038411263,0.9454668173965439,0.015884592898379957,0.9775,-0.18352920665843842,1.0,0.182160467189322,0.9900000000000002,0.6002478769367308,0.9900000000000002,-0.009999999999999787,0.5838565899713553,-0.09160571875876222,1.0,-0.08261137349206571,1.0,0.2671374036442291,-0.012630264068583141,-0.5912861309738346,0.29129809221621183,-0.009999999999999787,0.1419849033628715,0.7547468524241232,1.0,-0.01499999999999968,0.8842668206632331,0.08696779223700268,0.5888484698228962,-1.0,0.8325835724261643,-0.8000198047065172,-0.008455343495754608,-0.7954628169612539,0.7963371520933702,0.9900000000000002,1.0,0.9900000000000002,-1.0,-0.754397717551198,0.31939800767192583,0.03966003101213866,0.5783460660782476,1.0,-0.30894187159565156,0.9700000000000006,0.5260503618605519,-0.20318986122259064,0.15001812902501754,0.8884884434003606,0.9900000000000002,-0.7401619656730682,1.0,0.8051165144639061,1.0,0.9800000000000004,-3.7705152722722346e-05,-1.0,0.9700000000000006,0.8355132091429507,1.0,-1.0,-1.0,0.8535498435061015,-0.8999753649959601,0.45987498880512545,-0.1672514296256047,-0.5741834889813999,-1.0,0.2787187378847511,0.846544731863557,-0.740754238124762,0.08359225006242266,1.0,1.0,1.0,0.16455827369858067,1.0,0.9900000000000002,0.8976011419442891,-0.8446061421782103,-0.2504413955106104,-0.828456814555067,-1.0,1.0,-0.6483496381415641
-0.286870411414462,-1.0,1.0,0.9500000000000011,1.0,-1.0,0.0684187294142875,0.9600000000000009,-0.9009698115337232,-0.4512192028889723,1.0,-0.9283979031374807,0.9800000000000004,1.0,0.9800000000000004,-0.44314962744263653,0.9900000000000002,1.0,-0.523036449671137,-1.0,1.0,0.9900000000000002,0.9900000000000002,0.9600000000000009,0.9300000000000015,-0.19117320096125656,1.0,0.9800000000000004,1.0,1.0,0.9800000000000004,1.0,0.9900000000000002,1.0,0.8191049345646011,-1.0,-1.0,1.0,1.0,-1.0,0.9800000000000004,-1.0,0.9600000000000009,0.5218156387246795,1.0,0.9650000000000007,0.7971175065266172,-0.009999999999999787,0.9920289495562473,-0.07690273148837923,0.3001541792054838,-0.250704842720495,1.0,1.0,-0.575283148906931,1.0,0.9900000000000002,0.3816553968750025,-1.0,0.2857254770125812,1.0,-0.16117889268617613,0.8503126703264972,1.0,-0.0033516226054195464,0.9850000000000003,-0.009999999999999787,1.0,1.0,0.10460644344578363,-0.009999999999999787,0.20358445392693625,0.48398779663707714,0.7529607813436074,1.0,1.0,0.16518126291289237,-0.9964377428606461,1.0,0.6754163353919544,0.2968265514258279,-0.01499999999999968,0.9900000000000002,0.9900000000000002,-0.23050416751507274,0.4103224039532156,-0.009999999999999787,0.1396295626243731,0.9750000000000005,-0.5199999999999996,-0.046209539577156455,-1.0,0.8819524029030026,-0.8626265921834726,1.0,1.0,0.9000985561262871,0.9900000000000002,-0.01499999999999968,1.0,0.5239768525365296,0.18273751585612663,1.0,1.0,-0.564607638679298,-1.0,0.6488378089961984,0.9625000000000004,-0.791945059177861,1.0,0.5312970012228277,0.9900000000000002,0.5074249721067909,0.23904060129417903,-1.0,1.0,0.1900808800532121,0.33929760711040036,0.042999022420791455,-0.8465140627344843,0.9900000000000002,0.5977104387284098,0.762740690055665,0.5310213334988747,0.8042897927672152,0.9800000000000004,-1.0,1.0,-0.5436179714538625,-0.1816681408883829,1.0,0.2979535502663193,0.7762882662701802,-0.7062969690354821,0.3123994629686675,-0.7036271853103515,0.6063644366199314,0.25467719150383283,1.0,0.5159040142299234,0.9265478332921617,-0.47679530109845736,0.7404714719381458,0.768387501679122,0.9700000000000006,-0.20748659610890208,0.9900000000000002,0.9850000000000003,0.041305489376713744,0.7083433578897358,0.11151839121954943,-0.13260433102060887,1.0,0.5044486964364303,0.6166782673239668,1.0,1.0,-1.0,0.9750000000000005,0.4739785431640655,0.9950000000000001,-0.024999999999999467,0.10593362459405409,1.0,-0.5450202362298151,-0.015490079728696315,0.9750000000000005,0.7182376751115922,0.9450000000000012,1.0,-0.8557696699406492,1.0,1.0,-1.0,-0.01499999999999968,-0.578616750022495,0.9632933663018255,0.9320649740905553,0.7740251360438846,0.9700000000000006,-0.6309837038411263,0.9454668173965439,0.015884592898379957,0.9775,-0.18352920665843842,1.0,0.182160467189322,0.9900000000000002,0.6002478769367308,0.9900000000000002,-0.009999999999999787,0.5838565899713553,-0.09160571875876222,1.0,-0.08261137349206571,1.0,0.2671374036442291,-0.012630264068583141,-0.5912861309738346,0.29129809221621183,-0.009999999999999787,0.1419849033628715,0.7547468524241232,1.0,-0.01499999999999968,0.8842668206632331,0.08696779223700268,0.5888484698228962,-1.0,0.8325835724261643,-0.8000198047065172,-0.008455343495754608,-0.7954628169612539,0.7963371520933702,0.9900000000000002,1.0,0.9900000000000002,-1.0,-0.754397717551198,0.31939800767192583,0.03966003101213866,0.5783460660782476,1.0,-0.30894187159565156,0.9700000000000006,0.5260503618605519,-0.20318986122259064,0.15001812902501754,0.8884884434003606,0.9900000000000002,-0.7401619656730682,1.0,0.8051165144639061,1.0,0.9800000000000004,-3.7705152722722346e-05,-1.0,0.9700000000000006,0.8355132091429507,1.0,-1.0,-1.0,0.8535498435061015,-0.8999753649959601,0.45987498880512545,-0.1672514296256047,-0.5741834889813999,-1.0,0.2787187378847511,0.846544731863557,-0.740754238124762,0.08359225006242266,1.0,1.0,1.0,0.16455827369858067,1.0,0.9900000000000002,0.8976011419442891,-0.8446061421782103,-0.2504413955106104,-0.828456814555067,-1.0,1.0,-0.6483496381415641
-0.17377574815418706,-0.848630028984851,1.0,0.01939646309659615,-0.24824403584564614,-0.6685924970676149,0.354388162160844,1.0,0.0,0.688884950312497,0.6930825145141339,-0.004999999999999893,0.31127300355798626,0.22331979233726207,0.9800000000000004,0.0175717071076682,0.696990647472818,0.9160774377474943,0.24512978253311246,0.9439113505719865,0.9827439845020862,-1.0,-0.1263832506371827,1.0,-0.48546495689658276,0.9896172019776026,0.9750000000000005,-0.06161416403110653,0.49493795013904784,1.0,0.318852184561234,0.4005350324668089,-0.19060581426947398,0.48262498640847085,-0.009999999999999787,0.38096956698050555,0.0,-0.31706668094280843,0.5299491234298572,-1.0,-0.03999999999999915,0.5705199579461975,-0.7865425902846184,0.4210547714001889,1.0,0.9458926040309192,-0.9406761829932337,1.0,0.46519085493416124,0.9800000000000004,-0.08924532876005387,1.0,-0.04717876232548157,-0.009999999999999787,-0.3458949077070743,0.9900000000000002,0.6210846013279272,-0.6841930897953432,0.5273743710196612,-1.0,0.9800000000000004,1.0,1.0,-1.0,0.25657714805248943,-1.0,0.27769490576227707,-0.20708528493320166,-1.0,1.0,1.0,-1.0,1.0,1.0,0.17483279389001716,-1.0,-1.0,0.9800000000000004,0.9700000000000006,0.33917499645770555,0.960001898545813,0.9900000000000002,1.0,-1.0,-0.37261178928477845,-1.0,1.0,-1.0,0.0691408232007511,0.8875710083354704,0.9800000000000004,-1.0,0.9500000000000011,-0.1564389845888785,-1.0,0.9800000000000004,-0.08339611290374549,-1.0,0.6672791379471308,0.6582323313206926,1.0,0.2985461393331006,0.9900000000000002,1.0,0.9800000000000004,1.0,0.9900000000000002,-0.5492051917671565,0.588562883661528,-1.0,1.0,0.5912586255183401,-1.0,1.0,-1.0,-1.0,1.0,0.9800000000000004,0.2272949299498599,-0.10114189506984772,-0.6399692385037827,1.0,0.3135122948552551,0.9900000000000002,1.0,0.9900000000000002,0.9900000000000002,-0.212917699600073,0.7821074913618977,-1.0,0.9700000000000006,-1.0,0.9900000000000002,0.4503576323725471,0.9183762431532987,0.9900000000000002,0.9800000000000004,0.9600000000000009,-0.7795297320077541,-1.0,0.21425025510052498,0.5999625211124124,0.9900000000000002,1.0,-1.0,1.0,0.3787322459897835,0.0461927129766595,0.9470520292985531,-0.9385115862494136,0.9800000000000004,1.0,-0.8469780739957118,0.7632518855081236,1.0,1.0,0.9700000000000006,0.9900000000000002,0.9800000000000004,-0.13137349008762556,0.9800000000000004,0.0982897087279877,0.9900000000000002,0.34724098050838803,0.028074038053468087,0.06133981822680301,-0.3627762583624712,0.26483870774448537,-0.8861934805819613,0.9900000000000002,0.23690427228721855,1.0,-0.1278314517528738,0.5806845383496135,0.6549158381221858,0.599188563765642,0.5412120793386954,-0.020149267708998053,1.0,0.9900000000000002,0.8926705087280773,-0.11219352936540661,1.0,0.18570067562976522,0.9800000000000004,0.9800000000000004,-0.4515821576371346,-0.30722494190140015,0.0699192214453328,-0.29135244954921724,1.0,-1.0,0.9900000000000002,0.9900000000000002,-0.9719348839572253,0.2996081022940196,-1.0,0.9800000000000004,1.0,-1.0,-1.0,-1.0,0.9670224253891981,1.0,0.06225293520845776,-1.0,0.9900000000000002,0.9600000000000009,-1.0,-0.3873619743566068,0.47704921128111,-1.0,0.9800000000000004,0.9900000000000002,1.0,-1.0,-1.0,0.9800000000000004,0.9900000000000002,0.9800000000000004,0.9800000000000004,0.946845663798523,-0.9335212489955467,-1.0,1.0,0.5689130223359706,0.24957511808947608,-0.5866367178450185,-1.0,1.0,0.8598919959638565,-0.8219732436515717,-0.24818059761039146,1.0,-1.0,-1.0,0.9900000000000002,0.5139259421519173,-0.7544593991627373,0.9900000000000002,-1.0,0.9900000000000002,0.9900000000000002,0.9900000000000002,-1.0,-1.0,-1.0,0.2641783099534889,-0.2623395859372293,1.0,1.0,0.9800000000000004,-0.021477520529454175,0.3068411690349455,0.40986730214002787,-1.0,-0.06585175992228987,0.7096590864119046,0.9800000000000004,0.9900000000000002,-0.47423606369696447,0.4218555518357707,-1.0,-0.6965294538519053,1.0
