-2.771594340780214605e-01
2.742168692507127581e-01
-4.502386911185098928e-01
5.693901646246180004e-01
2.725717296887777419e-01
4.586630485379450395e-01
-1.209905248062534966e-01
-1.936954780758950445e-01
8.041093719164122966e-01
-6.341219349455813337e-01
-2.947480549270413697e-01
5.380926403463159868e-01
-4.560745682030455939e-01
6.601327872141418140e-01
2.734271079676275917e-01
-4.622770757539080844e-01
-1.592961684231661845e-01
-8.077900503207076088e-01
-2.688244045734726750e-01
2.370771883149696002e-01
6.969280247781084459e-01
2.445538878192934362e-01
7.512156421204325696e-01
-7.189846875229104484e-01
6.150942241998491600e-01
8.776343228558529663e-01
-1.743101789442109695e-01
-1.607519224834497162e-01
4.212985504998032482e-01
7.086877656687367022e-01
-6.954729142255509089e-01
7.031090803382220589e-01
5.358816078460550969e-01
6.351882585945727300e-01
1.606102280484082989e-01
5.193955610789069421e-01
7.911888330052181395e-01
9.793771459006950231e-01
3.777495405565016728e-01
7.231006193633724433e-01
-8.433317692949970912e-01
2.622910387135324317e-01
-1.083734222078944764e-01
-9.753298183057044213e-01
3.994127090218968501e-01
-2.608828443347754877e-01
1.327524733667526657e-01
7.881201165824363031e-01
1.688746967697412060e-01
9.921172936311342117e-01
9.767844364770450483e-01
-8.214295532389743748e-01
6.840116673278227033e-01
9.056456635597347482e-01
7.938284122431658041e-01
6.674109222850985734e-01
-8.770096665179489825e-01
4.897070529436002850e-01
2.456994111947077286e-01
2.726391080787271548e-02
9.305485278840450736e-01
5.421678944491277186e-01
4.720061747177262124e-01
3.663904840389933248e-01
3.322763769080334662e-01
7.736647132491503154e-01
1.071477090815413646e-01
8.101830477306246614e-01
-4.543235176261783970e-01
9.808527222050673622e-01
5.357917932474423051e-01
1.783286817297753402e-01
5.152685420073053191e-01
8.337149896146982542e-01
-6.006593583643415890e-01
-8.350530020713455848e-01
4.605986126935306402e-01
-1.496680671804344609e-01
8.431329063261245871e-01
-5.978140978690023033e-01
6.063184760686193275e-01
-6.977662059971607711e-01
3.053323791282025468e-01
-7.796165358329825157e-01
-7.313096769763929306e-01
8.217472196002364448e-01
4.781251268671888877e-01
-2.165588301397192161e-02
2.252391041941979033e-01
-9.572689932203748420e-02
6.065069825756863597e-01
-3.017323674770584496e-01
-1.080802602226171860e-01
6.358728072712733770e-01
9.869980630338814898e-02
7.056509121378631288e-01
-2.282929842384679997e-01
-1.501771168778551768e-01
4.801175444290957106e-01
-9.615635625877778647e-01
1.676548470966370274e-01
-7.914005412723081889e-01
1.502697245744051280e-01
-8.026519817663788636e-01
5.348428588621647606e-01
4.089812139392470236e-01
-8.099519154806300580e-01
-8.205812960727478789e-01
-5.550967387806220454e-01
-5.183493672532382135e-01
3.286379395221807886e-01
1.955700772630535322e-01
-6.544034284873663232e-01
-9.059690012231342848e-01
-4.661360531387392925e-02
-6.462658547298063549e-01
9.357709124540125600e-02
6.704536767142532661e-02
4.560174857128496129e-02
6.446965568412557079e-01
-6.579238632411326115e-01
6.486185134801105701e-01
1.781729980688198101e-01
9.381225593272140006e-01
2.107572052242852045e-01
-9.768214533390087162e-01
2.751873417575867453e-01
7.281853088514456118e-02
-4.063061908999263672e-01
4.051462190628853932e-01
-2.319070208272586697e-01
-8.617863063938857593e-02
1.784059634372998637e-01
1.918117994777148727e-01
6.434990173220471732e-01
8.466756286471404103e-01
6.592204870315911958e-01
4.114533757770122424e-01
4.964008620628090895e-01
8.090764159490300145e-01
-8.886288053063240433e-02
-1.864305455879362583e-01
-4.175497906120995140e-02
6.236623221066508460e-01
4.523771718058009483e-01
-9.903771651382009544e-02
3.762007207056445868e-01
-8.606258954865189104e-01
-6.644407889193619798e-01
7.172338125472941250e-01
-5.407595235608624318e-01
1.040434276550028514e-02
-6.154465812929532653e-01
-8.584768850072985735e-01
4.280475219548609545e-01
1.591416143305135478e-01
3.545955486126239897e-02
9.237539640102903071e-01
9.648944955527487544e-01
-3.582174884063213938e-01
4.529332257559937069e-02
5.927675570054236065e-01
5.370635107038450595e-01
-9.259307527937497007e-01
3.466202092536272428e-01
-2.271993349631407089e-01
-9.392465028359133772e-01
-9.370420349173245178e-01
-5.173409274773326239e-01
7.739287876958425016e-01
-6.017212400778788606e-01
2.767075707861816891e-01
-6.858235153107721249e-01
-2.209054770774869780e-01
9.098197368945000196e-01
-4.458324121212595692e-01
-7.404365525829004202e-01
4.351715080301852279e-01
-5.046923004880961017e-01
3.503915722918027331e-01
6.129342351243285414e-01
-7.880005210004372707e-01
-9.453292961289314622e-01
-4.574795317196993505e-01
-6.447237052182575034e-01
-5.716237983183602989e-01
-1.568191858563066088e-01
-3.783190932932554151e-01
9.025282008935537892e-01
1.380593123163014191e-01
-6.424764016859720872e-01
-4.343789737313530352e-02
7.372079075253801239e-01
2.891863595919330621e-02
-9.190690923264461798e-01
9.188627883616504732e-01
2.933662218032950797e-02
-4.664567111527149201e-01
-8.856602855171080702e-01
4.917645159603067917e-02
5.786436482882324484e-01
9.513273258259915544e-01
-8.617421035696215537e-01
1.809377291048814840e-01
8.806778824167922348e-01
-5.094475493966017510e-01
9.529499615401535451e-01
7.738463208413732808e-01
6.900929402701898585e-01
8.233698618634139876e-01
-1.370198106640114766e-01
9.002002204611048164e-02
3.721000788950057370e-01
7.928424707079095857e-01
3.056006028354769644e-01
-7.387470271880314243e-01
-5.396345448536687961e-01
-7.142252113194995644e-01
-1.738924986412699880e-01
-5.249327496652536063e-01
8.174922051004476220e-01
-8.933321139018446377e-01
-9.997964870520847924e-02
7.789262936089800249e-01
-6.776298657238799539e-01
-3.839028483092541411e-01
7.513895970719322026e-01
5.713518647656457006e-01
5.602283024228493780e-01
-2.596912056728379881e-01
-6.124878795463228887e-01
-8.210107971740729926e-01
-2.454599267985200228e-01
-5.197523524025755570e-01
-2.048098321364257846e-01
8.723965618730566973e-02
7.748523775137039493e-01
5.264360684827229520e-02
-4.983702526373574582e-01
8.060779327675298145e-01
-5.886820575009010792e-01
7.206566742485940313e-01
8.997116119297567938e-01
7.761250724387029898e-01
-7.156598619072798151e-01
-4.750870084765097534e-01
3.817582129511902789e-01
-3.805734328522525356e-01
-4.919653740629317262e-01
4.549786290578983206e-01
-7.740368035909162003e-03
-6.495826504248236599e-01
-6.291856303797662697e-01
3.108469966681859376e-02
-2.042364792978288435e-01
3.119225661194324761e-01
-6.629603201991691730e-01
8.400331314683688877e-01
4.147967184643401861e-01
3.874061085435491769e-01
-5.346053390770313385e-01
3.628513371341242078e-01
4.056014272641412788e-01
6.519852555759682033e-01
2.858738084048986217e-01
