21.157684596196965,0.8318174165157219,-0.6144216765612229,-0.08002087246572787,0.22261629644874437,0.4716043470070861,0.6945019401378132,0.4802823496139299,-0.451763343347545,-0.10991778586604672,-0.08375515605768147,0.6310947564178746,0.6276257025696999,-0.702146300107571,0.08464651826703018,-0.7864301296637142,0.8205632095069924,-0.8202422785468275,-0.5773342514539299,-0.511732903966271,-0.9938228712543156,0.009546940811305582,-0.15301941524332907,-0.25728187097433786,0.14453179354648005,0.20058978995604781,-0.24620492837380903,0.7591162492418488,0.14202303574860142,-0.13698385214597986,0.4205082712018928,0.787716475552003,-0.7894141179853067,-0.9201982100345794,0.3892776143906156,0.8864479650311305,-0.3467061278903216,-0.9370946517284953,-0.038063614237769716,0.2843432483341546,-0.03556585962789516,-0.5738914941913662,-0.07293190688692874,0.8361319570293924,0.3706361717971831,0.4524662638333279,-0.843585177133813,0.7054485923970326,-0.6296782955931199,-0.7076331538129497,0.786765939523083,0.16457839768912308,-0.549113023192251,0.9291048021929054,0.9853467340691968,0.5767805798330927,-0.015423641108954556,-0.9628262460878714,0.12111599376960624,0.09163565460147738,0.5622471308000709,-0.23132875317167456,0.17631197420368916,-0.8291983771305518,-0.24340459781428336,-0.14372333662484338,0.16096710815485382,0.04168551668876885,-0.7102434479695836,-0.5651814514372586,-0.06938106095678442,0.5276192764495418,-0.681260758700168,-0.2833530040567984,0.31685159419774034,-0.1621320053516464,-0.19969073600684206,0.401322624394598,-0.43255247107132333,-0.22768048435488386,0.22476501091811052,-0.9924932958217783,-0.09029804061095215,-0.05634312923758311,0.2172458211137318,0.4293061670429037,-0.8185942297364905,0.8362634057254559,-0.8820026517050072,0.301649262582836,0.344591224316938,0.6892166274216764,0.19291976417962187,0.8500049014352178,-0.8545728043748912,0.3840501638044709,-0.6229434846915667,-0.05097266794117483,-0.8753852824958657,0.6642106844253224,-0.7423263397528126,0.899921363872616,0.5718856477738106,-0.32239883551214676,-0.8734034029749056,-0.41795302475084095,0.44687554527568163,0.870430169031847,0.7840501727179261,-0.7840137524442088,0.5137800516237321,0.07724074014914017,0.29244337274957277,-0.43539686537853717,0.5860293607441791,-0.9668096230194769,0.845319132257617,-0.8865449071762423,-0.11070694362385969,-0.28910752681095064,-0.15224410830105972,-0.8087362594165102,0.8293665894035245,0.02078515510059531,-0.9800483262825983,-0.5855273049626841,-0.6259117471092639,-0.1928653495610959,-0.7520398540483029,-0.4320558179747118,0.2527631517307456,0.7607550234826355,0.48070799465297176,0.98229999602815,0.5038711244100265,-0.8296425542189281,0.707750335692964,-0.8942882406257091,0.7192556740988658,-0.8003371370538326,-0.5278275111191457,0.43421466849527235,-0.9198340790962629,0.0028226146646701533,-0.4832426586389227,0.8605441582366358,-0.9269447615058997,0.2529207697150033,-0.3234630351413874,-0.06744496421436752,-0.8504367646627136,-0.6056686015111432,0.39960216887097433,0.5817921922319629,0.2585095026473865,-0.9090588415447152,0.7385425675800714,0.653158238624511,0.7356248860465415,0.7569708626234914,-0.47262742536578695,-0.9094811339350428,0.5560791151477926,-0.4914639692271192,0.40397028156819337,-0.7758001037738891,-0.8336751695951188,-0.17198024255314048,-0.3833324417440511,-0.692266491584254,0.30339119211074816,-0.5062145969020224,0.9029867342588827,0.24759011438197587,0.11462030626221398,-0.22309343007259796,-0.3788623930815953,-0.7591760381193262,-0.06543140718273976,0.2624166626308093,0.16864496833496045,-0.3580906537925994,-0.9101654271021911,0.5126747284402899,0.8882407760432689,-0.03462598494189839,-0.4894554099130637,0.6936998868020674,0.8739410579686782,0.036230016033194756,0.9304176069895422,-0.7683397008467985,-0.12780022638963628,0.561290828218642,0.23132452526300074,-0.9284140203114843,0.3773177177121727,-0.8584768266993887,0.3102740721181698,-0.55365845172262,0.05459970504184941,-0.4609450895295557,0.22632667067689605,-0.0835413786958048,0.9657187715238362,0.4049531722359738,0.8817091415544553,0.6322050351851942,0.17920076837900267,0.07095539120835936,0.32138080809978975,-0.5176153625894095,-0.6187908369470347,0.5885097154441192,0.17343974663943262,0.618181164502269,-0.6356694938112208,0.5342041027234083,-0.06907885188016638,0.2637321359689415,-0.30663446531457006,0.41539361589693535,-0.37604574172673777,-0.5942201698478415,-0.18312257259131104,-0.8321154050202482,-0.5227572115339656,0.5336447249645451,-0.3602657588867977,0.8833944253414472,-0.6793116607913581,-0.8573704282697101,0.14475968121893512,0.7246862782863346,0.24963067204762335,-0.6720652897194246,-0.4611852730511792,-0.03989716538810506,-0.3447749481340274,0.353192527823708,0.1303597346145644,0.7799725568125568,0.8156708769529959,0.9561135147642035,-0.22505022318923618,0.1755667594270962,-0.936835166134387,-0.7515070489320332,0.7055899567690345,0.5392262738096754,0.8925460097160851,-0.5408273630465297,-0.8982758244736357,0.20807757728587517,0.8492082913416619,-0.6276750716140806,-0.9874137858894902,-0.4777181960843073,-0.8830974635957685,0.1705646355216952,0.5115620937477763,0.9770814815165854,-0.288851020368599,0.4922775806027466,-0.9680515977646802,0.39893404470847504
33.31585093420904,-0.648181635283166,0.9828602074595227,-0.4520680399289012,-0.06161903429803983,-0.8995071142360109,-0.9202814211363199,0.01714437297921778,0.6804934825645939,0.6084962602953239,0.0071578676992143375,0.2651179636151171,-0.7380268978507363,0.900251483723354,0.7132511151316108,0.3681819106305937,0.34423650607716527,0.28035783382860036,-0.08478814677611268,-0.7192793240378805,0.5565763162202588,-0.26128315782012224,0.5595356901634554,0.6639065101182071,0.3961500906756268,-0.6723668110271326,-0.6760750000565989,0.613992635867987,0.0428012802251847,0.4857437329205485,0.3031318256371993,0.45377930040438885,-0.33218997940873374,-0.26482988725257006,0.27818148911012086,-0.8269999797273,-0.1337209762481677,-0.9593519816932723,0.37659668991565076,-0.3543827889098865,-0.9747330551817164,0.7387492414471608,0.870486542259093,-0.2686922221126735,-0.4635230976454552,-0.6551383811608016,0.42791817304020174,0.40347937466480777,-0.06378141643832702,-0.8370161927082496,-0.1478203751993028,-0.681664580891393,0.04040424752281235,-0.30834975147781685,0.6590567105977532,-0.5558476833475232,0.7832918653263039,-0.07961112884603172,-0.02184244331932872,-0.9708418618489378,0.30752240706639467,-0.1955147741389327,-0.05237052335118175,0.29416923932032324,0.07947252788981674,-0.29891882144849946,-0.35879231894586905,0.278407522992024,-0.09165307819659652,-0.7434145906293321,0.5612323832289616,-0.12092483996170111,-0.03330726772197257,0.9795951140462538,0.05558976952656325,0.4034254712443994,0.7591724842483325,0.9953293135649137,-0.9929416369515158,0.9758571254293369,0.4716075749572488,-0.7592158787290655,0.40422113415123007,0.7809079520568638,0.2954537139120159,-0.4566017724823348,-0.40541963948766857,0.07418454055855728,0.7178272564034296,-0.09646000594013082,0.6515586202293047,-0.24175415256407096,-0.5912363368069711,-0.4450826699924342,-0.3324628073858431,-0.3727847158989821,-0.7601927875976249,0.35441549423944396,0.038931147434565716,0.11754326214767796,0.20923485715448709,0.13448847594996494,0.0868552347686462,-0.5551171018109033,-0.5082525965980649,0.5506861097201099,0.1531286674848238,-0.9110310022305435,-0.4991080884871275,0.38479971795128165,-0.4933848463218802,-0.6475031967263054,-0.2526039911629896,0.2860155280829697,0.26862920807357327,0.042706187129248896,0.5197686272123556,-0.16993386972251656,0.18558225036017606,-0.010795879037290845,0.33766291839748774,0.07897047065029716,0.4814544863562409,0.09329247208782765,-0.29311603386158525,0.42821639914761533,0.5577949573534857,-0.09535006346439978,0.5619741452854798,0.6270905024130318,-0.8670786257644905,-0.49353238372391295,0.8661613563030288,-0.1329685877861697,0.20880225647185968,-0.5188757094907694,0.1873008510317944,-0.9434971897385072,-0.4623743877175652,-0.7990736166526116,-0.26015701173016326,0.5738647102684586,0.36340067626467776,0.7326228160360295,0.502790292207763,-0.41721841241695756,-0.92473042707282,0.06214879145072638,-0.7233517928132378,0.9400701827155316,-0.014638720489937418,0.5963556703006141,-0.6758893139261162,0.981842186421517,0.5874340109846055,-0.07033062967917636,-0.809896725834728,0.2137015391641799,0.23618507490009488,-0.7117902713757172,0.47820186425614897,0.6325475638856874,0.7698769510846064,0.8823250525326882,-0.549951039890439,0.8832481766781679,-0.2610549463791927,-0.16988491059457833,0.8247623416167738,-0.28413849467162233,0.92272770962243,0.1984390635818276,-0.6134360495350979,0.038589622088150755,0.5155795197335513,-0.5226556664572197,0.041620899731767524,-0.7120997936758293,0.8829619170578364,0.3277761406810309,0.6258573954149502,0.33204884266226165,-0.9755705971561424,-0.1722874382183679,0.7185223718969178,-0.33917056411139623,-0.8038541403942494,0.7138641790548383,-0.5255230622558458,0.32566938914692245,-0.33970587385731643,-0.34121932083332873,-0.18422738289503093,0.8884454744360595,-0.004168424386886915,-0.6685357422669942,-0.6064667053715012,-0.011240298301537388,-0.096096513233358,-0.25376217935630785,0.7867264714698374,0.6928248279402185,-0.8559700119306153,0.13664514750548973,-0.945821822626193,0.8194962892562827,0.7091288863685359,0.45153885736400357,0.7240243236896335,0.3387095840683849,0.1626718611071314,-0.40774986040645,-0.920245102370538,0.8699616761367284,-0.3844409155125652,-0.23230550753449197,0.512284030019692,0.061977664732340676,-0.1541805892016066,0.5457197707467085,0.42724906758608605,-0.2647859325053137,-0.9701449273246103,-2.8526655029725845e-05,0.6497822081432905,-0.07319956927129345,-0.9811839272716771,-0.31279709053906957,-0.7392322495213441,0.9173489353019666,0.14429232498656774,0.6942159892612283,0.14475968121893512,0.7246862782863346,0.24963067204762335,-0.6720652897194246,-0.4611852730511792,-0.19718918141165354,-0.3447749481340274,-0.5047284722318686,-0.8819784745211856,0.4258059698689467,0.9665912347042647,0.24509303545391337,-0.7564048341337044,-0.7103567639621822,0.8332730949032667,-0.24640832497809595,0.9730140538493537,-0.3640752859586629,-0.1771394005039757,0.5204831553502525,-0.14093070560699816,-0.6504015229435551,-0.4755878648032603,-0.4375803734993402,-0.887613320858512,-0.7329872637584249,-0.26674957414729805,-0.4667857237767685,-0.3232006725109504,-0.3202837836714645,0.13266899480092964,-0.5438368229845698,0.7500203182196559,-0.7289341587617235
33.31585093420904,-0.648181635283166,0.9828602074595227,-0.4520680399289012,-0.06161903429803983,-0.8995071142360109,-0.9202814211363199,0.01714437297921778,0.6804934825645939,0.6084962602953239,0.0071578676992143375,0.2651179636151171,-0.7380268978507363,0.900251483723354,0.7132511151316108,0.3681819106305937,0.34423650607716527,0.28035783382860036,-0.08478814677611268,-0.7192793240378805,0.5565763162202588,-0.26128315782012224,0.5595356901634554,0.6639065101182071,0.3961500906756268,-0.6723668110271326,-0.6760750000565989,0.613992635867987,0.0428012802251847,0.4857437329205485,0.3031318256371993,0.45377930040438885,-0.33218997940873374,-0.26482988725257006,0.27818148911012086,-0.8269999797273,-0.1337209762481677,-0.9593519816932723,0.37659668991565076,-0.3543827889098865,-0.9747330551817164,0.7387492414471608,0.870486542259093,-0.2686922221126735,-0.4635230976454552,-0.6551383811608016,0.42791817304020174,0.40347937466480777,-0.06378141643832702,-0.8370161927082496,-0.1478203751993028,-0.681664580891393,0.04040424752281235,-0.30834975147781685,0.6590567105977532,-0.5558476833475232,0.7832918653263039,-0.07961112884603172,-0.02184244331932872,-0.9708418618489378,0.30752240706639467,-0.1955147741389327,-0.05237052335118175,0.29416923932032324,0.07947252788981674,-0.29891882144849946,-0.35879231894586905,0.278407522992024,-0.09165307819659652,-0.7434145906293321,0.5612323832289616,-0.12092483996170111,-0.03330726772197257,0.9795951140462538,0.05558976952656325,0.4034254712443994,0.7591724842483325,0.9953293135649137,-0.9929416369515158,0.9758571254293369,0.4716075749572488,-0.7592158787290655,0.40422113415123007,0.7809079520568638,0.2954537139120159,-0.4566017724823348,-0.40541963948766857,0.07418454055855728,0.7178272564034296,-0.09646000594013082,0.6515586202293047,-0.24175415256407096,-0.5912363368069711,-0.4450826699924342,-0.3324628073858431,-0.3727847158989821,-0.7601927875976249,0.35441549423944396,0.038931147434565716,0.11754326214767796,0.20923485715448709,0.13448847594996494,0.0868552347686462,-0.5551171018109033,-0.5082525965980649,0.5506861097201099,0.1531286674848238,-0.9110310022305435,-0.4991080884871275,0.38479971795128165,-0.4933848463218802,-0.6475031967263054,-0.2526039911629896,0.2860155280829697,0.26862920807357327,0.042706187129248896,0.5197686272123556,-0.16993386972251656,0.18558225036017606,-0.010795879037290845,0.33766291839748774,0.07897047065029716,0.4814544863562409,0.09329247208782765,-0.29311603386158525,0.42821639914761533,0.5577949573534857,-0.09535006346439978,0.5619741452854798,0.6270905024130318,-0.8670786257644905,-0.49353238372391295,0.8661613563030288,-0.1329685877861697,0.20880225647185968,-0.5188757094907694,0.1873008510317944,-0.9434971897385072,-0.4623743877175652,-0.7990736166526116,-0.26015701173016326,0.5738647102684586,0.36340067626467776,0.7326228160360295,0.502790292207763,-0.41721841241695756,-0.92473042707282,0.06214879145072638,-0.7233517928132378,0.9400701827155316,-0.014638720489937418,0.5963556703006141,-0.6758893139261162,0.981842186421517,0.5874340109846055,-0.07033062967917636,-0.809896725834728,0.2137015391641799,0.23618507490009488,-0.7117902713757172,0.47820186425614897,0.6325475638856874,0.7698769510846064,0.8823250525326882,-0.549951039890439,0.8832481766781679,-0.2610549463791927,-0.16988491059457833,0.8247623416167738,-0.28413849467162233,0.92272770962243,0.1984390635818276,-0.6134360495350979,0.038589622088150755,0.5155795197335513,-0.5226556664572197,0.041620899731767524,-0.7120997936758293,0.8829619170578364,0.3277761406810309,0.6258573954149502,0.33204884266226165,-0.9755705971561424,-0.1722874382183679,0.7185223718969178,-0.33917056411139623,-0.8038541403942494,0.7138641790548383,-0.5255230622558458,0.32566938914692245,-0.33970587385731643,-0.34121932083332873,-0.18422738289503093,0.8884454744360595,-0.004168424386886915,-0.6685357422669942,-0.6064667053715012,-0.011240298301537388,-0.096096513233358,-0.25376217935630785,0.7867264714698374,0.6928248279402185,-0.8559700119306153,0.13664514750548973,-0.945821822626193,0.8194962892562827,0.7091288863685359,0.45153885736400357,0.7240243236896335,0.3387095840683849,0.1626718611071314,-0.40774986040645,-0.920245102370538,0.8699616761367284,-0.3844409155125652,-0.23230550753449197,0.512284030019692,0.061977664732340676,-0.1541805892016066,0.5457197707467085,0.42724906758608605,-0.2647859325053137,-0.9701449273246103,-2.8526655029725845e-05,0.6497822081432905,-0.07319956927129345,-0.9811839272716771,-0.31279709053906957,-0.7392322495213441,0.9173489353019666,0.14429232498656774,0.6942159892612283,0.14475968121893512,0.7246862782863346,0.24963067204762335,-0.6720652897194246,-0.4611852730511792,-0.19718918141165354,-0.3447749481340274,-0.5047284722318686,-0.8819784745211856,0.4258059698689467,0.9665912347042647,0.24509303545391337,-0.7564048341337044,-0.7103567639621822,0.8332730949032667,-0.24640832497809595,0.9730140538493537,-0.3640752859586629,-0.1771394005039757,0.5204831553502525,-0.14093070560699816,-0.6504015229435551,-0.4755878648032603,-0.4375803734993402,-0.887613320858512,-0.7329872637584249,-0.26674957414729805,-0.4667857237767685,-0.3232006725109504,-0.3202837836714645,0.13266899480092964,-0.5438368229845698,0.7500203182196559,-0.7289341587617235
33.31585093420904,-0.648181635283166,0.9828602074595227,-0.4520680399289012,-0.06161903429803983,-0.8995071142360109,-0.9202814211363199,0.01714437297921778,0.6804934825645939,0.6084962602953239,0.0071578676992143375,0.2651179636151171,-0.7380268978507363,0.900251483723354,0.7132511151316108,0.3681819106305937,0.34423650607716527,0.28035783382860036,-0.08478814677611268,-0.7192793240378805,0.5565763162202588,-0.26128315782012224,0.5595356901634554,0.6639065101182071,0.3961500906756268,-0.6723668110271326,-0.6760750000565989,0.613992635867987,0.0428012802251847,0.4857437329205485,0.3031318256371993,0.45377930040438885,-0.33218997940873374,-0.26482988725257006,0.27818148911012086,-0.8269999797273,-0.1337209762481677,-0.9593519816932723,0.37659668991565076,-0.3543827889098865,-0.9747330551817164,0.7387492414471608,0.870486542259093,-0.2686922221126735,-0.4635230976454552,-0.6551383811608016,0.42791817304020174,0.40347937466480777,-0.06378141643832702,-0.8370161927082496,-0.1478203751993028,-0.681664580891393,0.04040424752281235,-0.30834975147781685,0.6590567105977532,-0.5558476833475232,0.7832918653263039,-0.07961112884603172,-0.02184244331932872,-0.9708418618489378,0.30752240706639467,-0.1955147741389327,-0.05237052335118175,0.29416923932032324,0.07947252788981674,-0.29891882144849946,-0.35879231894586905,0.278407522992024,-0.09165307819659652,-0.7434145906293321,0.5612323832289616,-0.12092483996170111,-0.03330726772197257,0.9795951140462538,0.05558976952656325,0.4034254712443994,0.7591724842483325,0.9953293135649137,-0.9929416369515158,0.9758571254293369,0.4716075749572488,-0.7592158787290655,0.40422113415123007,0.7809079520568638,0.2954537139120159,-0.4566017724823348,-0.40541963948766857,0.07418454055855728,0.7178272564034296,-0.09646000594013082,0.6515586202293047,-0.24175415256407096,-0.5912363368069711,-0.4450826699924342,-0.3324628073858431,-0.3727847158989821,-0.7601927875976249,0.35441549423944396,0.038931147434565716,0.11754326214767796,0.20923485715448709,0.13448847594996494,0.0868552347686462,-0.5551171018109033,-0.5082525965980649,0.5506861097201099,0.1531286674848238,-0.9110310022305435,-0.4991080884871275,0.38479971795128165,-0.4933848463218802,-0.6475031967263054,-0.2526039911629896,0.2860155280829697,0.26862920807357327,0.042706187129248896,0.5197686272123556,-0.16993386972251656,0.18558225036017606,-0.010795879037290845,0.33766291839748774,0.07897047065029716,0.4814544863562409,0.09329247208782765,-0.29311603386158525,0.42821639914761533,0.5577949573534857,-0.09535006346439978,0.5619741452854798,0.6270905024130318,-0.8670786257644905,-0.49353238372391295,0.8661613563030288,-0.1329685877861697,0.20880225647185968,-0.5188757094907694,0.1873008510317944,-0.9434971897385072,-0.4623743877175652,-0.7990736166526116,-0.26015701173016326,0.5738647102684586,0.36340067626467776,0.7326228160360295,0.502790292207763,-0.41721841241695756,-0.92473042707282,0.06214879145072638,-0.7233517928132378,0.9400701827155316,-0.014638720489937418,0.5963556703006141,-0.6758893139261162,0.981842186421517,0.5874340109846055,-0.07033062967917636,-0.809896725834728,0.2137015391641799,0.23618507490009488,-0.7117902713757172,0.47820186425614897,0.6325475638856874,0.7698769510846064,0.8823250525326882,-0.549951039890439,0.8832481766781679,-0.2610549463791927,-0.16988491059457833,0.8247623416167738,-0.28413849467162233,0.92272770962243,0.1984390635818276,-0.6134360495350979,0.038589622088150755,0.5155795197335513,-0.5226556664572197,0.041620899731767524,-0.7120997936758293,0.8829619170578364,0.3277761406810309,0.6258573954149502,0.33204884266226165,-0.9755705971561424,-0.1722874382183679,0.7185223718969178,-0.33917056411139623,-0.8038541403942494,0.7138641790548383,-0.5255230622558458,0.32566938914692245,-0.33970587385731643,-0.34121932083332873,-0.18422738289503093,0.8884454744360595,-0.004168424386886915,-0.6685357422669942,-0.6064667053715012,-0.011240298301537388,-0.096096513233358,-0.25376217935630785,0.7867264714698374,0.6928248279402185,-0.8559700119306153,0.13664514750548973,-0.945821822626193,0.8194962892562827,0.7091288863685359,0.45153885736400357,0.7240243236896335,0.3387095840683849,0.1626718611071314,-0.40774986040645,-0.920245102370538,0.8699616761367284,-0.3844409155125652,-0.23230550753449197,0.512284030019692,0.061977664732340676,-0.1541805892016066,0.5457197707467085,0.42724906758608605,-0.2647859325053137,-0.9701449273246103,-2.8526655029725845e-05,0.6497822081432905,-0.07319956927129345,-0.9811839272716771,-0.31279709053906957,-0.7392322495213441,0.9173489353019666,0.14429232498656774,0.6942159892612283,0.14475968121893512,0.7246862782863346,0.24963067204762335,-0.6720652897194246,-0.4611852730511792,-0.19718918141165354,-0.3447749481340274,-0.5047284722318686,-0.8819784745211856,0.4258059698689467,0.9665912347042647,0.24509303545391337,-0.7564048341337044,-0.7103567639621822,0.8332730949032667,-0.24640832497809595,0.9730140538493537,-0.3640752859586629,-0.1771394005039757,0.5204831553502525,-0.14093070560699816,-0.6504015229435551,-0.4755878648032603,-0.4375803734993402,-0.887613320858512,-0.7329872637584249,-0.26674957414729805,-0.4667857237767685,-0.3232006725109504,-0.3202837836714645,0.13266899480092964,-0.5438368229845698,0.7500203182196559,-0.7289341587617235
33.31585093420904,-0.648181635283166,0.9828602074595227,-0.4520680399289012,-0.06161903429803983,-0.8995071142360109,-0.9202814211363199,0.01714437297921778,0.6804934825645939,0.6084962602953239,0.0071578676992143375,0.2651179636151171,-0.7380268978507363,0.900251483723354,0.7132511151316108,0.3681819106305937,0.34423650607716527,0.28035783382860036,-0.08478814677611268,-0.7192793240378805,0.5565763162202588,-0.26128315782012224,0.5595356901634554,0.6639065101182071,0.3961500906756268,-0.6723668110271326,-0.6760750000565989,0.613992635867987,0.0428012802251847,0.4857437329205485,0.3031318256371993,0.45377930040438885,-0.33218997940873374,-0.26482988725257006,0.27818148911012086,-0.8269999797273,-0.1337209762481677,-0.9593519816932723,0.37659668991565076,-0.3543827889098865,-0.9747330551817164,0.7387492414471608,0.870486542259093,-0.2686922221126735,-0.4635230976454552,-0.6551383811608016,0.42791817304020174,0.40347937466480777,-0.06378141643832702,-0.8370161927082496,-0.1478203751993028,-0.681664580891393,0.04040424752281235,-0.30834975147781685,0.6590567105977532,-0.5558476833475232,0.7832918653263039,-0.07961112884603172,-0.02184244331932872,-0.9708418618489378,0.30752240706639467,-0.1955147741389327,-0.05237052335118175,0.29416923932032324,0.07947252788981674,-0.29891882144849946,-0.35879231894586905,0.278407522992024,-0.09165307819659652,-0.7434145906293321,0.5612323832289616,-0.12092483996170111,-0.03330726772197257,0.9795951140462538,0.05558976952656325,0.4034254712443994,0.7591724842483325,0.9953293135649137,-0.9929416369515158,0.9758571254293369,0.4716075749572488,-0.7592158787290655,0.40422113415123007,0.7809079520568638,0.2954537139120159,-0.4566017724823348,-0.40541963948766857,0.07418454055855728,0.7178272564034296,-0.09646000594013082,0.6515586202293047,-0.24175415256407096,-0.5912363368069711,-0.4450826699924342,-0.3324628073858431,-0.3727847158989821,-0.7601927875976249,0.35441549423944396,0.038931147434565716,0.11754326214767796,0.20923485715448709,0.13448847594996494,0.0868552347686462,-0.5551171018109033,-0.5082525965980649,0.5506861097201099,0.1531286674848238,-0.9110310022305435,-0.4991080884871275,0.38479971795128165,-0.4933848463218802,-0.6475031967263054,-0.2526039911629896,0.2860155280829697,0.26862920807357327,0.042706187129248896,0.5197686272123556,-0.16993386972251656,0.18558225036017606,-0.010795879037290845,0.33766291839748774,0.07897047065029716,0.4814544863562409,0.09329247208782765,-0.29311603386158525,0.42821639914761533,0.5577949573534857,-0.09535006346439978,0.5619741452854798,0.6270905024130318,-0.8670786257644905,-0.49353238372391295,0.8661613563030288,-0.1329685877861697,0.20880225647185968,-0.5188757094907694,0.1873008510317944,-0.9434971897385072,-0.4623743877175652,-0.7990736166526116,-0.26015701173016326,0.5738647102684586,0.36340067626467776,0.7326228160360295,0.502790292207763,-0.41721841241695756,-0.92473042707282,0.06214879145072638,-0.7233517928132378,0.9400701827155316,-0.014638720489937418,0.5963556703006141,-0.6758893139261162,0.981842186421517,0.5874340109846055,-0.07033062967917636,-0.809896725834728,0.2137015391641799,0.23618507490009488,-0.7117902713757172,0.47820186425614897,0.6325475638856874,0.7698769510846064,0.8823250525326882,-0.549951039890439,0.8832481766781679,-0.2610549463791927,-0.16988491059457833,0.8247623416167738,-0.28413849467162233,0.92272770962243,0.1984390635818276,-0.6134360495350979,0.038589622088150755,0.5155795197335513,-0.5226556664572197,0.041620899731767524,-0.7120997936758293,0.8829619170578364,0.3277761406810309,0.6258573954149502,0.33204884266226165,-0.9755705971561424,-0.1722874382183679,0.7185223718969178,-0.33917056411139623,-0.8038541403942494,0.7138641790548383,-0.5255230622558458,0.32566938914692245,-0.33970587385731643,-0.34121932083332873,-0.18422738289503093,0.8884454744360595,-0.004168424386886915,-0.6685357422669942,-0.6064667053715012,-0.011240298301537388,-0.096096513233358,-0.25376217935630785,0.7867264714698374,0.6928248279402185,-0.8559700119306153,0.13664514750548973,-0.945821822626193,0.8194962892562827,0.7091288863685359,0.45153885736400357,0.7240243236896335,0.3387095840683849,0.1626718611071314,-0.40774986040645,-0.920245102370538,0.8699616761367284,-0.3844409155125652,-0.23230550753449197,0.512284030019692,0.061977664732340676,-0.1541805892016066,0.5457197707467085,0.42724906758608605,-0.2647859325053137,-0.9701449273246103,-2.8526655029725845e-05,0.6497822081432905,-0.07319956927129345,-0.9811839272716771,-0.31279709053906957,-0.7392322495213441,0.9173489353019666,0.14429232498656774,0.6942159892612283,0.14475968121893512,0.7246862782863346,0.24963067204762335,-0.6720652897194246,-0.4611852730511792,-0.19718918141165354,-0.3447749481340274,-0.5047284722318686,-0.8819784745211856,0.4258059698689467,0.9665912347042647,0.24509303545391337,-0.7564048341337044,-0.7103567639621822,0.8332730949032667,-0.24640832497809595,0.9730140538493537,-0.3640752859586629,-0.1771394005039757,0.5204831553502525,-0.14093070560699816,-0.6504015229435551,-0.4755878648032603,-0.4375803734993402,-0.887613320858512,-0.7329872637584249,-0.26674957414729805,-0.4667857237767685,-0.3232006725109504,-0.3202837836714645,0.13266899480092964,-0.5438368229845698,0.7500203182196559,-0.7289341587617235
33.31585093420904,-0.648181635283166,0.9828602074595227,-0.4520680399289012,-0.06161903429803983,-0.8995071142360109,-0.9202814211363199,0.01714437297921778,0.6804934825645939,0.6084962602953239,0.0071578676992143375,0.2651179636151171,-0.7380268978507363,0.900251483723354,0.7132511151316108,0.3681819106305937,0.34423650607716527,0.28035783382860036,-0.08478814677611268,-0.7192793240378805,0.5565763162202588,-0.26128315782012224,0.5595356901634554,0.6639065101182071,0.3961500906756268,-0.6723668110271326,-0.6760750000565989,0.613992635867987,0.0428012802251847,0.4857437329205485,0.3031318256371993,0.45377930040438885,-0.33218997940873374,-0.26482988725257006,0.27818148911012086,-0.8269999797273,-0.1337209762481677,-0.9593519816932723,0.37659668991565076,-0.3543827889098865,-0.9747330551817164,0.7387492414471608,0.870486542259093,-0.2686922221126735,-0.4635230976454552,-0.6551383811608016,0.42791817304020174,0.40347937466480777,-0.06378141643832702,-0.8370161927082496,-0.1478203751993028,-0.681664580891393,0.04040424752281235,-0.30834975147781685,0.6590567105977532,-0.5558476833475232,0.7832918653263039,-0.07961112884603172,-0.02184244331932872,-0.9708418618489378,0.30752240706639467,-0.1955147741389327,-0.05237052335118175,0.29416923932032324,0.07947252788981674,-0.29891882144849946,-0.35879231894586905,0.278407522992024,-0.09165307819659652,-0.7434145906293321,0.5612323832289616,-0.12092483996170111,-0.03330726772197257,0.9795951140462538,0.05558976952656325,0.4034254712443994,0.7591724842483325,0.9953293135649137,-0.9929416369515158,0.9758571254293369,0.4716075749572488,-0.7592158787290655,0.40422113415123007,0.7809079520568638,0.2954537139120159,-0.4566017724823348,-0.40541963948766857,0.07418454055855728,0.7178272564034296,-0.09646000594013082,0.6515586202293047,-0.24175415256407096,-0.5912363368069711,-0.4450826699924342,-0.3324628073858431,-0.3727847158989821,-0.7601927875976249,0.35441549423944396,0.038931147434565716,0.11754326214767796,0.20923485715448709,0.13448847594996494,0.0868552347686462,-0.5551171018109033,-0.5082525965980649,0.5506861097201099,0.1531286674848238,-0.9110310022305435,-0.4991080884871275,0.38479971795128165,-0.4933848463218802,-0.6475031967263054,-0.2526039911629896,0.2860155280829697,0.26862920807357327,0.042706187129248896,0.5197686272123556,-0.16993386972251656,0.18558225036017606,-0.010795879037290845,0.33766291839748774,0.07897047065029716,0.4814544863562409,0.09329247208782765,-0.29311603386158525,0.42821639914761533,0.5577949573534857,-0.09535006346439978,0.5619741452854798,0.6270905024130318,-0.8670786257644905,-0.49353238372391295,0.8661613563030288,-0.1329685877861697,0.20880225647185968,-0.5188757094907694,0.1873008510317944,-0.9434971897385072,-0.4623743877175652,-0.7990736166526116,-0.26015701173016326,0.5738647102684586,0.36340067626467776,0.7326228160360295,0.502790292207763,-0.41721841241695756,-0.92473042707282,0.06214879145072638,-0.7233517928132378,0.9400701827155316,-0.014638720489937418,0.5963556703006141,-0.6758893139261162,0.981842186421517,0.5874340109846055,-0.07033062967917636,-0.809896725834728,0.2137015391641799,0.23618507490009488,-0.7117902713757172,0.47820186425614897,0.6325475638856874,0.7698769510846064,0.8823250525326882,-0.549951039890439,0.8832481766781679,-0.2610549463791927,-0.16988491059457833,0.8247623416167738,-0.28413849467162233,0.92272770962243,0.1984390635818276,-0.6134360495350979,0.038589622088150755,0.5155795197335513,-0.5226556664572197,0.041620899731767524,-0.7120997936758293,0.8829619170578364,0.3277761406810309,0.6258573954149502,0.33204884266226165,-0.9755705971561424,-0.1722874382183679,0.7185223718969178,-0.33917056411139623,-0.8038541403942494,0.7138641790548383,-0.5255230622558458,0.32566938914692245,-0.33970587385731643,-0.34121932083332873,-0.18422738289503093,0.8884454744360595,-0.004168424386886915,-0.6685357422669942,-0.6064667053715012,-0.011240298301537388,-0.096096513233358,-0.25376217935630785,0.7867264714698374,0.6928248279402185,-0.8559700119306153,0.13664514750548973,-0.945821822626193,0.8194962892562827,0.7091288863685359,0.45153885736400357,0.7240243236896335,0.3387095840683849,0.1626718611071314,-0.40774986040645,-0.920245102370538,0.8699616761367284,-0.3844409155125652,-0.23230550753449197,0.512284030019692,0.061977664732340676,-0.1541805892016066,0.5457197707467085,0.42724906758608605,-0.2647859325053137,-0.9701449273246103,-2.8526655029725845e-05,0.6497822081432905,-0.07319956927129345,-0.9811839272716771,-0.31279709053906957,-0.7392322495213441,0.9173489353019666,0.14429232498656774,0.6942159892612283,0.14475968121893512,0.7246862782863346,0.24963067204762335,-0.6720652897194246,-0.4611852730511792,-0.19718918141165354,-0.3447749481340274,-0.5047284722318686,-0.8819784745211856,0.4258059698689467,0.9665912347042647,0.24509303545391337,-0.7564048341337044,-0.7103567639621822,0.8332730949032667,-0.24640832497809595,0.9730140538493537,-0.3640752859586629,-0.1771394005039757,0.5204831553502525,-0.14093070560699816,-0.6504015229435551,-0.4755878648032603,-0.4375803734993402,-0.887613320858512,-0.7329872637584249,-0.26674957414729805,-0.4667857237767685,-0.3232006725109504,-0.3202837836714645,0.13266899480092964,-0.5438368229845698,0.7500203182196559,-0.7289341587617235
33.31585093420904,-0.648181635283166,0.9828602074595227,-0.4520680399289012,-0.06161903429803983,-0.8995071142360109,-0.9202814211363199,0.01714437297921778,0.6804934825645939,0.6084962602953239,0.0071578676992143375,0.2651179636151171,-0.7380268978507363,0.900251483723354,0.7132511151316108,0.3681819106305937,0.34423650607716527,0.28035783382860036,-0.08478814677611268,-0.7192793240378805,0.5565763162202588,-0.26128315782012224,0.5595356901634554,0.6639065101182071,0.3961500906756268,-0.6723668110271326,-0.6760750000565989,0.613992635867987,0.0428012802251847,0.4857437329205485,0.3031318256371993,0.45377930040438885,-0.33218997940873374,-0.26482988725257006,0.27818148911012086,-0.8269999797273,-0.1337209762481677,-0.9593519816932723,0.37659668991565076,-0.3543827889098865,-0.9747330551817164,0.7387492414471608,0.870486542259093,-0.2686922221126735,-0.4635230976454552,-0.6551383811608016,0.42791817304020174,0.40347937466480777,-0.06378141643832702,-0.8370161927082496,-0.1478203751993028,-0.681664580891393,0.04040424752281235,-0.30834975147781685,0.6590567105977532,-0.5558476833475232,0.7832918653263039,-0.07961112884603172,-0.02184244331932872,-0.9708418618489378,0.30752240706639467,-0.1955147741389327,-0.05237052335118175,0.29416923932032324,0.07947252788981674,-0.29891882144849946,-0.35879231894586905,0.278407522992024,-0.09165307819659652,-0.7434145906293321,0.5612323832289616,-0.12092483996170111,-0.03330726772197257,0.9795951140462538,0.05558976952656325,0.4034254712443994,0.7591724842483325,0.9953293135649137,-0.9929416369515158,0.9758571254293369,0.4716075749572488,-0.7592158787290655,0.40422113415123007,0.7809079520568638,0.2954537139120159,-0.4566017724823348,-0.40541963948766857,0.07418454055855728,0.7178272564034296,-0.09646000594013082,0.6515586202293047,-0.24175415256407096,-0.5912363368069711,-0.4450826699924342,-0.3324628073858431,-0.3727847158989821,-0.7601927875976249,0.35441549423944396,0.038931147434565716,0.11754326214767796,0.20923485715448709,0.13448847594996494,0.0868552347686462,-0.5551171018109033,-0.5082525965980649,0.5506861097201099,0.1531286674848238,-0.9110310022305435,-0.4991080884871275,0.38479971795128165,-0.4933848463218802,-0.6475031967263054,-0.2526039911629896,0.2860155280829697,0.26862920807357327,0.042706187129248896,0.5197686272123556,-0.16993386972251656,0.18558225036017606,-0.010795879037290845,0.33766291839748774,0.07897047065029716,0.4814544863562409,0.09329247208782765,-0.29311603386158525,0.42821639914761533,0.5577949573534857,-0.09535006346439978,0.5619741452854798,0.6270905024130318,-0.8670786257644905,-0.49353238372391295,0.8661613563030288,-0.1329685877861697,0.20880225647185968,-0.5188757094907694,0.1873008510317944,-0.9434971897385072,-0.4623743877175652,-0.7990736166526116,-0.26015701173016326,0.5738647102684586,0.36340067626467776,0.7326228160360295,0.502790292207763,-0.41721841241695756,-0.92473042707282,0.06214879145072638,-0.7233517928132378,0.9400701827155316,-0.014638720489937418,0.5963556703006141,-0.6758893139261162,0.981842186421517,0.5874340109846055,-0.07033062967917636,-0.809896725834728,0.2137015391641799,0.23618507490009488,-0.7117902713757172,0.47820186425614897,0.6325475638856874,0.7698769510846064,0.8823250525326882,-0.549951039890439,0.8832481766781679,-0.2610549463791927,-0.16988491059457833,0.8247623416167738,-0.28413849467162233,0.92272770962243,0.1984390635818276,-0.6134360495350979,0.038589622088150755,0.5155795197335513,-0.5226556664572197,0.041620899731767524,-0.7120997936758293,0.8829619170578364,0.3277761406810309,0.6258573954149502,0.33204884266226165,-0.9755705971561424,-0.1722874382183679,0.7185223718969178,-0.33917056411139623,-0.8038541403942494,0.7138641790548383,-0.5255230622558458,0.32566938914692245,-0.33970587385731643,-0.34121932083332873,-0.18422738289503093,0.8884454744360595,-0.004168424386886915,-0.6685357422669942,-0.6064667053715012,-0.011240298301537388,-0.096096513233358,-0.25376217935630785,0.7867264714698374,0.6928248279402185,-0.8559700119306153,0.13664514750548973,-0.945821822626193,0.8194962892562827,0.7091288863685359,0.45153885736400357,0.7240243236896335,0.3387095840683849,0.1626718611071314,-0.40774986040645,-0.920245102370538,0.8699616761367284,-0.3844409155125652,-0.23230550753449197,0.512284030019692,0.061977664732340676,-0.1541805892016066,0.5457197707467085,0.42724906758608605,-0.2647859325053137,-0.9701449273246103,-2.8526655029725845e-05,0.6497822081432905,-0.07319956927129345,-0.9811839272716771,-0.31279709053906957,-0.7392322495213441,0.9173489353019666,0.14429232498656774,0.6942159892612283,0.14475968121893512,0.7246862782863346,0.24963067204762335,-0.6720652897194246,-0.4611852730511792,-0.19718918141165354,-0.3447749481340274,-0.5047284722318686,-0.8819784745211856,0.4258059698689467,0.9665912347042647,0.24509303545391337,-0.7564048341337044,-0.7103567639621822,0.8332730949032667,-0.24640832497809595,0.9730140538493537,-0.3640752859586629,-0.1771394005039757,0.5204831553502525,-0.14093070560699816,-0.6504015229435551,-0.4755878648032603,-0.4375803734993402,-0.887613320858512,-0.7329872637584249,-0.26674957414729805,-0.4667857237767685,-0.3232006725109504,-0.3202837836714645,0.13266899480092964,-0.5438368229845698,0.7500203182196559,-0.7289341587617235
33.31585093420904,-0.648181635283166,0.9828602074595227,-0.4520680399289012,-0.06161903429803983,-0.8995071142360109,-0.9202814211363199,0.01714437297921778,0.6804934825645939,0.6084962602953239,0.0071578676992143375,0.2651179636151171,-0.7380268978507363,0.900251483723354,0.7132511151316108,0.3681819106305937,0.34423650607716527,0.28035783382860036,-0.08478814677611268,-0.7192793240378805,0.5565763162202588,-0.26128315782012224,0.5595356901634554,0.6639065101182071,0.3961500906756268,-0.6723668110271326,-0.6760750000565989,0.613992635867987,0.0428012802251847,0.4857437329205485,0.3031318256371993,0.45377930040438885,-0.33218997940873374,-0.26482988725257006,0.27818148911012086,-0.8269999797273,-0.1337209762481677,-0.9593519816932723,0.37659668991565076,-0.3543827889098865,-0.9747330551817164,0.7387492414471608,0.870486542259093,-0.2686922221126735,-0.4635230976454552,-0.6551383811608016,0.42791817304020174,0.40347937466480777,-0.06378141643832702,-0.8370161927082496,-0.1478203751993028,-0.681664580891393,0.04040424752281235,-0.30834975147781685,0.6590567105977532,-0.5558476833475232,0.7832918653263039,-0.07961112884603172,-0.02184244331932872,-0.9708418618489378,0.30752240706639467,-0.1955147741389327,-0.05237052335118175,0.29416923932032324,0.07947252788981674,-0.29891882144849946,-0.35879231894586905,0.278407522992024,-0.09165307819659652,-0.7434145906293321,0.5612323832289616,-0.12092483996170111,-0.03330726772197257,0.9795951140462538,0.05558976952656325,0.4034254712443994,0.7591724842483325,0.9953293135649137,-0.9929416369515158,0.9758571254293369,0.4716075749572488,-0.7592158787290655,0.40422113415123007,0.7809079520568638,0.2954537139120159,-0.4566017724823348,-0.40541963948766857,0.07418454055855728,0.7178272564034296,-0.09646000594013082,0.6515586202293047,-0.24175415256407096,-0.5912363368069711,-0.4450826699924342,-0.3324628073858431,-0.3727847158989821,-0.7601927875976249,0.35441549423944396,0.038931147434565716,0.11754326214767796,0.20923485715448709,0.13448847594996494,0.0868552347686462,-0.5551171018109033,-0.5082525965980649,0.5506861097201099,0.1531286674848238,-0.9110310022305435,-0.4991080884871275,0.38479971795128165,-0.4933848463218802,-0.6475031967263054,-0.2526039911629896,0.2860155280829697,0.26862920807357327,0.042706187129248896,0.5197686272123556,-0.16993386972251656,0.18558225036017606,-0.010795879037290845,0.33766291839748774,0.07897047065029716,0.4814544863562409,0.09329247208782765,-0.29311603386158525,0.42821639914761533,0.5577949573534857,-0.09535006346439978,0.5619741452854798,0.6270905024130318,-0.8670786257644905,-0.49353238372391295,0.8661613563030288,-0.1329685877861697,0.20880225647185968,-0.5188757094907694,0.1873008510317944,-0.9434971897385072,-0.4623743877175652,-0.7990736166526116,-0.26015701173016326,0.5738647102684586,0.36340067626467776,0.7326228160360295,0.502790292207763,-0.41721841241695756,-0.92473042707282,0.06214879145072638,-0.7233517928132378,0.9400701827155316,-0.014638720489937418,0.5963556703006141,-0.6758893139261162,0.981842186421517,0.5874340109846055,-0.07033062967917636,-0.809896725834728,0.2137015391641799,0.23618507490009488,-0.7117902713757172,0.47820186425614897,0.6325475638856874,0.7698769510846064,0.8823250525326882,-0.549951039890439,0.8832481766781679,-0.2610549463791927,-0.16988491059457833,0.8247623416167738,-0.28413849467162233,0.92272770962243,0.1984390635818276,-0.6134360495350979,0.038589622088150755,0.5155795197335513,-0.5226556664572197,0.041620899731767524,-0.7120997936758293,0.8829619170578364,0.3277761406810309,0.6258573954149502,0.33204884266226165,-0.9755705971561424,-0.1722874382183679,0.7185223718969178,-0.33917056411139623,-0.8038541403942494,0.7138641790548383,-0.5255230622558458,0.32566938914692245,-0.33970587385731643,-0.34121932083332873,-0.18422738289503093,0.8884454744360595,-0.004168424386886915,-0.6685357422669942,-0.6064667053715012,-0.011240298301537388,-0.096096513233358,-0.25376217935630785,0.7867264714698374,0.6928248279402185,-0.8559700119306153,0.13664514750548973,-0.945821822626193,0.8194962892562827,0.7091288863685359,0.45153885736400357,0.7240243236896335,0.3387095840683849,0.1626718611071314,-0.40774986040645,-0.920245102370538,0.8699616761367284,-0.3844409155125652,-0.23230550753449197,0.512284030019692,0.061977664732340676,-0.1541805892016066,0.5457197707467085,0.42724906758608605,-0.2647859325053137,-0.9701449273246103,-2.8526655029725845e-05,0.6497822081432905,-0.07319956927129345,-0.9811839272716771,-0.31279709053906957,-0.7392322495213441,0.9173489353019666,0.14429232498656774,0.6942159892612283,0.14475968121893512,0.7246862782863346,0.24963067204762335,-0.6720652897194246,-0.4611852730511792,-0.19718918141165354,-0.3447749481340274,-0.5047284722318686,-0.8819784745211856,0.4258059698689467,0.9665912347042647,0.24509303545391337,-0.7564048341337044,-0.7103567639621822,0.8332730949032667,-0.24640832497809595,0.9730140538493537,-0.3640752859586629,-0.1771394005039757,0.5204831553502525,-0.14093070560699816,-0.6504015229435551,-0.4755878648032603,-0.4375803734993402,-0.887613320858512,-0.7329872637584249,-0.26674957414729805,-0.4667857237767685,-0.3232006725109504,-0.3202837836714645,0.13266899480092964,-0.5438368229845698,0.7500203182196559,-0.7289341587617235
33.31585093420904,-0.648181635283166,0.9828602074595227,-0.4520680399289012,-0.06161903429803983,-0.8995071142360109,-0.9202814211363199,0.01714437297921778,0.6804934825645939,0.6084962602953239,0.0071578676992143375,0.2651179636151171,-0.7380268978507363,0.900251483723354,0.7132511151316108,0.3681819106305937,0.34423650607716527,0.28035783382860036,-0.08478814677611268,-0.7192793240378805,0.5565763162202588,-0.26128315782012224,0.5595356901634554,0.6639065101182071,0.3961500906756268,-0.6723668110271326,-0.6760750000565989,0.613992635867987,0.0428012802251847,0.4857437329205485,0.3031318256371993,0.45377930040438885,-0.33218997940873374,-0.26482988725257006,0.27818148911012086,-0.8269999797273,-0.1337209762481677,-0.9593519816932723,0.37659668991565076,-0.3543827889098865,-0.9747330551817164,0.7387492414471608,0.870486542259093,-0.2686922221126735,-0.4635230976454552,-0.6551383811608016,0.42791817304020174,0.40347937466480777,-0.06378141643832702,-0.8370161927082496,-0.1478203751993028,-0.681664580891393,0.04040424752281235,-0.30834975147781685,0.6590567105977532,-0.5558476833475232,0.7832918653263039,-0.07961112884603172,-0.02184244331932872,-0.9708418618489378,0.30752240706639467,-0.1955147741389327,-0.05237052335118175,0.29416923932032324,0.07947252788981674,-0.29891882144849946,-0.35879231894586905,0.278407522992024,-0.09165307819659652,-0.7434145906293321,0.5612323832289616,-0.12092483996170111,-0.03330726772197257,0.9795951140462538,0.05558976952656325,0.4034254712443994,0.7591724842483325,0.9953293135649137,-0.9929416369515158,0.9758571254293369,0.4716075749572488,-0.7592158787290655,0.40422113415123007,0.7809079520568638,0.2954537139120159,-0.4566017724823348,-0.40541963948766857,0.07418454055855728,0.7178272564034296,-0.09646000594013082,0.6515586202293047,-0.24175415256407096,-0.5912363368069711,-0.4450826699924342,-0.3324628073858431,-0.3727847158989821,-0.7601927875976249,0.35441549423944396,0.038931147434565716,0.11754326214767796,0.20923485715448709,0.13448847594996494,0.0868552347686462,-0.5551171018109033,-0.5082525965980649,0.5506861097201099,0.1531286674848238,-0.9110310022305435,-0.4991080884871275,0.38479971795128165,-0.4933848463218802,-0.6475031967263054,-0.2526039911629896,0.2860155280829697,0.26862920807357327,0.042706187129248896,0.5197686272123556,-0.16993386972251656,0.18558225036017606,-0.010795879037290845,0.33766291839748774,0.07897047065029716,0.4814544863562409,0.09329247208782765,-0.29311603386158525,0.42821639914761533,0.5577949573534857,-0.09535006346439978,0.5619741452854798,0.6270905024130318,-0.8670786257644905,-0.49353238372391295,0.8661613563030288,-0.1329685877861697,0.20880225647185968,-0.5188757094907694,0.1873008510317944,-0.9434971897385072,-0.4623743877175652,-0.7990736166526116,-0.26015701173016326,0.5738647102684586,0.36340067626467776,0.7326228160360295,0.502790292207763,-0.41721841241695756,-0.92473042707282,0.06214879145072638,-0.7233517928132378,0.9400701827155316,-0.014638720489937418,0.5963556703006141,-0.6758893139261162,0.981842186421517,0.5874340109846055,-0.07033062967917636,-0.809896725834728,0.2137015391641799,0.23618507490009488,-0.7117902713757172,0.47820186425614897,0.6325475638856874,0.7698769510846064,0.8823250525326882,-0.549951039890439,0.8832481766781679,-0.2610549463791927,-0.16988491059457833,0.8247623416167738,-0.28413849467162233,0.92272770962243,0.1984390635818276,-0.6134360495350979,0.038589622088150755,0.5155795197335513,-0.5226556664572197,0.041620899731767524,-0.7120997936758293,0.8829619170578364,0.3277761406810309,0.6258573954149502,0.33204884266226165,-0.9755705971561424,-0.1722874382183679,0.7185223718969178,-0.33917056411139623,-0.8038541403942494,0.7138641790548383,-0.5255230622558458,0.32566938914692245,-0.33970587385731643,-0.34121932083332873,-0.18422738289503093,0.8884454744360595,-0.004168424386886915,-0.6685357422669942,-0.6064667053715012,-0.011240298301537388,-0.096096513233358,-0.25376217935630785,0.7867264714698374,0.6928248279402185,-0.8559700119306153,0.13664514750548973,-0.945821822626193,0.8194962892562827,0.7091288863685359,0.45153885736400357,0.7240243236896335,0.3387095840683849,0.1626718611071314,-0.40774986040645,-0.920245102370538,0.8699616761367284,-0.3844409155125652,-0.23230550753449197,0.512284030019692,0.061977664732340676,-0.1541805892016066,0.5457197707467085,0.42724906758608605,-0.2647859325053137,-0.9701449273246103,-2.8526655029725845e-05,0.6497822081432905,-0.07319956927129345,-0.9811839272716771,-0.31279709053906957,-0.7392322495213441,0.9173489353019666,0.14429232498656774,0.6942159892612283,0.14475968121893512,0.7246862782863346,0.24963067204762335,-0.6720652897194246,-0.4611852730511792,-0.19718918141165354,-0.3447749481340274,-0.5047284722318686,-0.8819784745211856,0.4258059698689467,0.9665912347042647,0.24509303545391337,-0.7564048341337044,-0.7103567639621822,0.8332730949032667,-0.24640832497809595,0.9730140538493537,-0.3640752859586629,-0.1771394005039757,0.5204831553502525,-0.14093070560699816,-0.6504015229435551,-0.4755878648032603,-0.4375803734993402,-0.887613320858512,-0.7329872637584249,-0.26674957414729805,-0.4667857237767685,-0.3232006725109504,-0.3202837836714645,0.13266899480092964,-0.5438368229845698,0.7500203182196559,-0.7289341587617235
34.04519353208572,-0.648181635283166,0.9828602074595227,-0.4520680399289012,-0.06161903429803983,-0.8995071142360109,-0.9202814211363199,0.01714437297921778,0.6804934825645939,0.6084962602953239,0.0071578676992143375,0.10969150070192146,-0.7380268978507363,0.900251483723354,0.7132511151316108,0.3681819106305937,0.34423650607716527,0.28035783382860036,-0.08478814677611268,-0.7192793240378805,0.5565763162202588,-0.26128315782012224,0.5595356901634554,0.6639065101182071,0.3961500906756268,-0.6723668110271326,-0.7585637269607524,0.613992635867987,0.0428012802251847,0.9725933527922888,0.3031318256371993,0.45377930040438885,-0.33218997940873374,0.48966045156751226,0.27818148911012086,-0.8269999797273,-0.1337209762481677,-0.9593519816932723,0.37659668991565076,-0.3543827889098865,-0.9747330551817164,0.7387492414471608,0.870486542259093,-0.2686922221126735,-0.4635230976454552,-0.6551383811608016,0.42791817304020174,0.40347937466480777,-0.06378141643832702,-0.8370161927082496,-0.1478203751993028,-0.681664580891393,0.04040424752281235,-0.30834975147781685,0.6590567105977532,-0.5558476833475232,0.7832918653263039,-0.07961112884603172,-0.02184244331932872,-0.9708418618489378,0.30752240706639467,-0.1955147741389327,-0.05237052335118175,0.29416923932032324,0.07947252788981674,-0.29891882144849946,-0.35879231894586905,0.278407522992024,-0.543485641541777,-0.7434145906293321,0.5612323832289616,-0.12092483996170111,-0.03330726772197257,-0.21110055375542225,0.05558976952656325,0.4034254712443994,0.7591724842483325,0.9953293135649137,-0.9929416369515158,0.9758571254293369,0.4716075749572488,-0.7592158787290655,-0.17410727388426883,0.7809079520568638,0.2954537139120159,-0.4566017724823348,-0.40541963948766857,0.07418454055855728,0.7178272564034296,-0.09646000594013082,0.6515586202293047,-0.24175415256407096,-0.5912363368069711,-0.4450826699924342,-0.3324628073858431,-0.3727847158989821,-0.7601927875976249,0.35441549423944396,0.038931147434565716,0.11754326214767796,0.20923485715448709,0.13448847594996494,0.0868552347686462,-0.5551171018109033,-0.5082525965980649,0.5506861097201099,0.1531286674848238,-0.9110310022305435,-0.4991080884871275,0.38479971795128165,-0.4933848463218802,-0.6475031967263054,-0.2526039911629896,0.2860155280829697,0.26862920807357327,0.042706187129248896,0.5197686272123556,-0.16993386972251656,0.18558225036017606,-0.010795879037290845,0.33766291839748774,0.924139149072225,0.4814544863562409,0.09329247208782765,-0.29311603386158525,0.42821639914761533,0.5577949573534857,-0.09535006346439978,0.5619741452854798,0.6270905024130318,0.5825188473026683,-0.49353238372391295,0.7545510498294195,-0.1329685877861697,0.34301499516274436,-0.5188757094907694,0.1873008510317944,-0.9434971897385072,-0.4623743877175652,-0.7990736166526116,-0.26015701173016326,0.5738647102684586,0.36340067626467776,0.7326228160360295,0.502790292207763,-0.5292811711692806,-0.92473042707282,-0.6993218264488659,-0.7233517928132378,0.9400701827155316,-0.5273570168106301,0.5963556703006141,-0.6758893139261162,0.981842186421517,0.5874340109846055,-0.07033062967917636,-0.809896725834728,0.2137015391641799,0.23618507490009488,-0.7117902713757172,0.47820186425614897,0.9244173710909984,0.7698769510846064,0.13673007329896247,-0.549951039890439,0.8832481766781679,-0.2610549463791927,-0.16988491059457833,-0.6767183940716937,-0.28413849467162233,0.92272770962243,0.1984390635818276,-0.6134360495350979,0.038589622088150755,0.5155795197335513,-0.5226556664572197,0.041620899731767524,-0.7120997936758293,0.8829619170578364,0.3277761406810309,0.6258573954149502,0.33204884266226165,-0.9755705971561424,-0.1722874382183679,0.7185223718969178,-0.33917056411139623,-0.8038541403942494,0.7138641790548383,-0.5255230622558458,0.32566938914692245,-0.33970587385731643,-0.34121932083332873,-0.18422738289503093,0.8884454744360595,-0.004168424386886915,-0.6685357422669942,-0.6064667053715012,-0.011240298301537388,-0.096096513233358,-0.25376217935630785,0.7867264714698374,0.6928248279402185,-0.8559700119306153,0.13664514750548973,-0.945821822626193,0.8194962892562827,0.7091288863685359,0.45153885736400357,0.7240243236896335,0.3387095840683849,0.1626718611071314,-0.40774986040645,-0.920245102370538,0.8699616761367284,-0.3844409155125652,-0.23230550753449197,0.512284030019692,0.061977664732340676,-0.1541805892016066,0.5457197707467085,0.42724906758608605,-0.2647859325053137,-0.9701449273246103,-2.8526655029725845e-05,0.6497822081432905,-0.07319956927129345,-0.9811839272716771,-0.31279709053906957,-0.7392322495213441,0.9173489353019666,0.14429232498656774,0.6942159892612283,0.14475968121893512,0.7246862782863346,0.24963067204762335,-0.6720652897194246,-0.4611852730511792,-0.19718918141165354,-0.3447749481340274,-0.2075087182641795,-0.3301554222296319,-0.6790139375001711,0.9665912347042647,0.24509303545391337,-0.7564048341337044,-0.7103567639621822,0.8332730949032667,-0.24640832497809595,0.9730140538493537,-0.3640752859586629,-0.1771394005039757,0.5204831553502525,-0.14093070560699816,-0.6504015229435551,-0.4755878648032603,-0.4375803734993402,-0.887613320858512,-0.7329872637584249,-0.26674957414729805,-0.4667857237767685,-0.3232006725109504,-0.3202837836714645,0.13266899480092964,-0.5438368229845698,0.7500203182196559,-0.7289341587617235
34.04519353208572,-0.648181635283166,0.9828602074595227,-0.4520680399289012,-0.06161903429803983,-0.8995071142360109,-0.9202814211363199,0.01714437297921778,0.6804934825645939,0.6084962602953239,0.0071578676992143375,0.10969150070192146,-0.7380268978507363,0.900251483723354,0.7132511151316108,0.3681819106305937,0.34423650607716527,0.28035783382860036,-0.08478814677611268,-0.7192793240378805,0.5565763162202588,-0.26128315782012224,0.5595356901634554,0.6639065101182071,0.3961500906756268,-0.6723668110271326,-0.7585637269607524,0.613992635867987,0.0428012802251847,0.9725933527922888,0.3031318256371993,0.45377930040438885,-0.33218997940873374,0.48966045156751226,0.27818148911012086,-0.8269999797273,-0.1337209762481677,-0.9593519816932723,0.37659668991565076,-0.3543827889098865,-0.9747330551817164,0.7387492414471608,0.870486542259093,-0.2686922221126735,-0.4635230976454552,-0.6551383811608016,0.42791817304020174,0.40347937466480777,-0.06378141643832702,-0.8370161927082496,-0.1478203751993028,-0.681664580891393,0.04040424752281235,-0.30834975147781685,0.6590567105977532,-0.5558476833475232,0.7832918653263039,-0.07961112884603172,-0.02184244331932872,-0.9708418618489378,0.30752240706639467,-0.1955147741389327,-0.05237052335118175,0.29416923932032324,0.07947252788981674,-0.29891882144849946,-0.35879231894586905,0.278407522992024,-0.543485641541777,-0.7434145906293321,0.5612323832289616,-0.12092483996170111,-0.03330726772197257,-0.21110055375542225,0.05558976952656325,0.4034254712443994,0.7591724842483325,0.9953293135649137,-0.9929416369515158,0.9758571254293369,0.4716075749572488,-0.7592158787290655,-0.17410727388426883,0.7809079520568638,0.2954537139120159,-0.4566017724823348,-0.40541963948766857,0.07418454055855728,0.7178272564034296,-0.09646000594013082,0.6515586202293047,-0.24175415256407096,-0.5912363368069711,-0.4450826699924342,-0.3324628073858431,-0.3727847158989821,-0.7601927875976249,0.35441549423944396,0.038931147434565716,0.11754326214767796,0.20923485715448709,0.13448847594996494,0.0868552347686462,-0.5551171018109033,-0.5082525965980649,0.5506861097201099,0.1531286674848238,-0.9110310022305435,-0.4991080884871275,0.38479971795128165,-0.4933848463218802,-0.6475031967263054,-0.2526039911629896,0.2860155280829697,0.26862920807357327,0.042706187129248896,0.5197686272123556,-0.16993386972251656,0.18558225036017606,-0.010795879037290845,0.33766291839748774,0.924139149072225,0.4814544863562409,0.09329247208782765,-0.29311603386158525,0.42821639914761533,0.5577949573534857,-0.09535006346439978,0.5619741452854798,0.6270905024130318,0.5825188473026683,-0.49353238372391295,0.7545510498294195,-0.1329685877861697,0.34301499516274436,-0.5188757094907694,0.1873008510317944,-0.9434971897385072,-0.4623743877175652,-0.7990736166526116,-0.26015701173016326,0.5738647102684586,0.36340067626467776,0.7326228160360295,0.502790292207763,-0.5292811711692806,-0.92473042707282,-0.6993218264488659,-0.7233517928132378,0.9400701827155316,-0.5273570168106301,0.5963556703006141,-0.6758893139261162,0.981842186421517,0.5874340109846055,-0.07033062967917636,-0.809896725834728,0.2137015391641799,0.23618507490009488,-0.7117902713757172,0.47820186425614897,0.9244173710909984,0.7698769510846064,0.13673007329896247,-0.549951039890439,0.8832481766781679,-0.2610549463791927,-0.16988491059457833,-0.6767183940716937,-0.28413849467162233,0.92272770962243,0.1984390635818276,-0.6134360495350979,0.038589622088150755,0.5155795197335513,-0.5226556664572197,0.041620899731767524,-0.7120997936758293,0.8829619170578364,0.3277761406810309,0.6258573954149502,0.33204884266226165,-0.9755705971561424,-0.1722874382183679,0.7185223718969178,-0.33917056411139623,-0.8038541403942494,0.7138641790548383,-0.5255230622558458,0.32566938914692245,-0.33970587385731643,-0.34121932083332873,-0.18422738289503093,0.8884454744360595,-0.004168424386886915,-0.6685357422669942,-0.6064667053715012,-0.011240298301537388,-0.096096513233358,-0.25376217935630785,0.7867264714698374,0.6928248279402185,-0.8559700119306153,0.13664514750548973,-0.945821822626193,0.8194962892562827,0.7091288863685359,0.45153885736400357,0.7240243236896335,0.3387095840683849,0.1626718611071314,-0.40774986040645,-0.920245102370538,0.8699616761367284,-0.3844409155125652,-0.23230550753449197,0.512284030019692,0.061977664732340676,-0.1541805892016066,0.5457197707467085,0.42724906758608605,-0.2647859325053137,-0.9701449273246103,-2.8526655029725845e-05,0.6497822081432905,-0.07319956927129345,-0.9811839272716771,-0.31279709053906957,-0.7392322495213441,0.9173489353019666,0.14429232498656774,0.6942159892612283,0.14475968121893512,0.7246862782863346,0.24963067204762335,-0.6720652897194246,-0.4611852730511792,-0.19718918141165354,-0.3447749481340274,-0.2075087182641795,-0.3301554222296319,-0.6790139375001711,0.9665912347042647,0.24509303545391337,-0.7564048341337044,-0.7103567639621822,0.8332730949032667,-0.24640832497809595,0.9730140538493537,-0.3640752859586629,-0.1771394005039757,0.5204831553502525,-0.14093070560699816,-0.6504015229435551,-0.4755878648032603,-0.4375803734993402,-0.887613320858512,-0.7329872637584249,-0.26674957414729805,-0.4667857237767685,-0.3232006725109504,-0.3202837836714645,0.13266899480092964,-0.5438368229845698,0.7500203182196559,-0.7289341587617235
34.04519353208572,-0.648181635283166,0.9828602074595227,-0.4520680399289012,-0.06161903429803983,-0.8995071142360109,-0.9202814211363199,0.01714437297921778,0.6804934825645939,0.6084962602953239,0.0071578676992143375,0.10969150070192146,-0.7380268978507363,0.900251483723354,0.7132511151316108,0.3681819106305937,0.34423650607716527,0.28035783382860036,-0.08478814677611268,-0.7192793240378805,0.5565763162202588,-0.26128315782012224,0.5595356901634554,0.6639065101182071,0.3961500906756268,-0.6723668110271326,-0.7585637269607524,0.613992635867987,0.0428012802251847,0.9725933527922888,0.3031318256371993,0.45377930040438885,-0.33218997940873374,0.48966045156751226,0.27818148911012086,-0.8269999797273,-0.1337209762481677,-0.9593519816932723,0.37659668991565076,-0.3543827889098865,-0.9747330551817164,0.7387492414471608,0.870486542259093,-0.2686922221126735,-0.4635230976454552,-0.6551383811608016,0.42791817304020174,0.40347937466480777,-0.06378141643832702,-0.8370161927082496,-0.1478203751993028,-0.681664580891393,0.04040424752281235,-0.30834975147781685,0.6590567105977532,-0.5558476833475232,0.7832918653263039,-0.07961112884603172,-0.02184244331932872,-0.9708418618489378,0.30752240706639467,-0.1955147741389327,-0.05237052335118175,0.29416923932032324,0.07947252788981674,-0.29891882144849946,-0.35879231894586905,0.278407522992024,-0.543485641541777,-0.7434145906293321,0.5612323832289616,-0.12092483996170111,-0.03330726772197257,-0.21110055375542225,0.05558976952656325,0.4034254712443994,0.7591724842483325,0.9953293135649137,-0.9929416369515158,0.9758571254293369,0.4716075749572488,-0.7592158787290655,-0.17410727388426883,0.7809079520568638,0.2954537139120159,-0.4566017724823348,-0.40541963948766857,0.07418454055855728,0.7178272564034296,-0.09646000594013082,0.6515586202293047,-0.24175415256407096,-0.5912363368069711,-0.4450826699924342,-0.3324628073858431,-0.3727847158989821,-0.7601927875976249,0.35441549423944396,0.038931147434565716,0.11754326214767796,0.20923485715448709,0.13448847594996494,0.0868552347686462,-0.5551171018109033,-0.5082525965980649,0.5506861097201099,0.1531286674848238,-0.9110310022305435,-0.4991080884871275,0.38479971795128165,-0.4933848463218802,-0.6475031967263054,-0.2526039911629896,0.2860155280829697,0.26862920807357327,0.042706187129248896,0.5197686272123556,-0.16993386972251656,0.18558225036017606,-0.010795879037290845,0.33766291839748774,0.924139149072225,0.4814544863562409,0.09329247208782765,-0.29311603386158525,0.42821639914761533,0.5577949573534857,-0.09535006346439978,0.5619741452854798,0.6270905024130318,0.5825188473026683,-0.49353238372391295,0.7545510498294195,-0.1329685877861697,0.34301499516274436,-0.5188757094907694,0.1873008510317944,-0.9434971897385072,-0.4623743877175652,-0.7990736166526116,-0.26015701173016326,0.5738647102684586,0.36340067626467776,0.7326228160360295,0.502790292207763,-0.5292811711692806,-0.92473042707282,-0.6993218264488659,-0.7233517928132378,0.9400701827155316,-0.5273570168106301,0.5963556703006141,-0.6758893139261162,0.981842186421517,0.5874340109846055,-0.07033062967917636,-0.809896725834728,0.2137015391641799,0.23618507490009488,-0.7117902713757172,0.47820186425614897,0.9244173710909984,0.7698769510846064,0.13673007329896247,-0.549951039890439,0.8832481766781679,-0.2610549463791927,-0.16988491059457833,-0.6767183940716937,-0.28413849467162233,0.92272770962243,0.1984390635818276,-0.6134360495350979,0.038589622088150755,0.5155795197335513,-0.5226556664572197,0.041620899731767524,-0.7120997936758293,0.8829619170578364,0.3277761406810309,0.6258573954149502,0.33204884266226165,-0.9755705971561424,-0.1722874382183679,0.7185223718969178,-0.33917056411139623,-0.8038541403942494,0.7138641790548383,-0.5255230622558458,0.32566938914692245,-0.33970587385731643,-0.34121932083332873,-0.18422738289503093,0.8884454744360595,-0.004168424386886915,-0.6685357422669942,-0.6064667053715012,-0.011240298301537388,-0.096096513233358,-0.25376217935630785,0.7867264714698374,0.6928248279402185,-0.8559700119306153,0.13664514750548973,-0.945821822626193,0.8194962892562827,0.7091288863685359,0.45153885736400357,0.7240243236896335,0.3387095840683849,0.1626718611071314,-0.40774986040645,-0.920245102370538,0.8699616761367284,-0.3844409155125652,-0.23230550753449197,0.512284030019692,0.061977664732340676,-0.1541805892016066,0.5457197707467085,0.42724906758608605,-0.2647859325053137,-0.9701449273246103,-2.8526655029725845e-05,0.6497822081432905,-0.07319956927129345,-0.9811839272716771,-0.31279709053906957,-0.7392322495213441,0.9173489353019666,0.14429232498656774,0.6942159892612283,0.14475968121893512,0.7246862782863346,0.24963067204762335,-0.6720652897194246,-0.4611852730511792,-0.19718918141165354,-0.3447749481340274,-0.2075087182641795,-0.3301554222296319,-0.6790139375001711,0.9665912347042647,0.24509303545391337,-0.7564048341337044,-0.7103567639621822,0.8332730949032667,-0.24640832497809595,0.9730140538493537,-0.3640752859586629,-0.1771394005039757,0.5204831553502525,-0.14093070560699816,-0.6504015229435551,-0.4755878648032603,-0.4375803734993402,-0.887613320858512,-0.7329872637584249,-0.26674957414729805,-0.4667857237767685,-0.3232006725109504,-0.3202837836714645,0.13266899480092964,-0.5438368229845698,0.7500203182196559,-0.7289341587617235
34.04519353208572,-0.648181635283166,0.9828602074595227,-0.4520680399289012,-0.06161903429803983,-0.8995071142360109,-0.9202814211363199,0.01714437297921778,0.6804934825645939,0.6084962602953239,0.0071578676992143375,0.10969150070192146,-0.7380268978507363,0.900251483723354,0.7132511151316108,0.3681819106305937,0.34423650607716527,0.28035783382860036,-0.08478814677611268,-0.7192793240378805,0.5565763162202588,-0.26128315782012224,0.5595356901634554,0.6639065101182071,0.3961500906756268,-0.6723668110271326,-0.7585637269607524,0.613992635867987,0.0428012802251847,0.9725933527922888,0.3031318256371993,0.45377930040438885,-0.33218997940873374,0.48966045156751226,0.27818148911012086,-0.8269999797273,-0.1337209762481677,-0.9593519816932723,0.37659668991565076,-0.3543827889098865,-0.9747330551817164,0.7387492414471608,0.870486542259093,-0.2686922221126735,-0.4635230976454552,-0.6551383811608016,0.42791817304020174,0.40347937466480777,-0.06378141643832702,-0.8370161927082496,-0.1478203751993028,-0.681664580891393,0.04040424752281235,-0.30834975147781685,0.6590567105977532,-0.5558476833475232,0.7832918653263039,-0.07961112884603172,-0.02184244331932872,-0.9708418618489378,0.30752240706639467,-0.1955147741389327,-0.05237052335118175,0.29416923932032324,0.07947252788981674,-0.29891882144849946,-0.35879231894586905,0.278407522992024,-0.543485641541777,-0.7434145906293321,0.5612323832289616,-0.12092483996170111,-0.03330726772197257,-0.21110055375542225,0.05558976952656325,0.4034254712443994,0.7591724842483325,0.9953293135649137,-0.9929416369515158,0.9758571254293369,0.4716075749572488,-0.7592158787290655,-0.17410727388426883,0.7809079520568638,0.2954537139120159,-0.4566017724823348,-0.40541963948766857,0.07418454055855728,0.7178272564034296,-0.09646000594013082,0.6515586202293047,-0.24175415256407096,-0.5912363368069711,-0.4450826699924342,-0.3324628073858431,-0.3727847158989821,-0.7601927875976249,0.35441549423944396,0.038931147434565716,0.11754326214767796,0.20923485715448709,0.13448847594996494,0.0868552347686462,-0.5551171018109033,-0.5082525965980649,0.5506861097201099,0.1531286674848238,-0.9110310022305435,-0.4991080884871275,0.38479971795128165,-0.4933848463218802,-0.6475031967263054,-0.2526039911629896,0.2860155280829697,0.26862920807357327,0.042706187129248896,0.5197686272123556,-0.16993386972251656,0.18558225036017606,-0.010795879037290845,0.33766291839748774,0.924139149072225,0.4814544863562409,0.09329247208782765,-0.29311603386158525,0.42821639914761533,0.5577949573534857,-0.09535006346439978,0.5619741452854798,0.6270905024130318,0.5825188473026683,-0.49353238372391295,0.7545510498294195,-0.1329685877861697,0.34301499516274436,-0.5188757094907694,0.1873008510317944,-0.9434971897385072,-0.4623743877175652,-0.7990736166526116,-0.26015701173016326,0.5738647102684586,0.36340067626467776,0.7326228160360295,0.502790292207763,-0.5292811711692806,-0.92473042707282,-0.6993218264488659,-0.7233517928132378,0.9400701827155316,-0.5273570168106301,0.5963556703006141,-0.6758893139261162,0.981842186421517,0.5874340109846055,-0.07033062967917636,-0.809896725834728,0.2137015391641799,0.23618507490009488,-0.7117902713757172,0.47820186425614897,0.9244173710909984,0.7698769510846064,0.13673007329896247,-0.549951039890439,0.8832481766781679,-0.2610549463791927,-0.16988491059457833,-0.6767183940716937,-0.28413849467162233,0.92272770962243,0.1984390635818276,-0.6134360495350979,0.038589622088150755,0.5155795197335513,-0.5226556664572197,0.041620899731767524,-0.7120997936758293,0.8829619170578364,0.3277761406810309,0.6258573954149502,0.33204884266226165,-0.9755705971561424,-0.1722874382183679,0.7185223718969178,-0.33917056411139623,-0.8038541403942494,0.7138641790548383,-0.5255230622558458,0.32566938914692245,-0.33970587385731643,-0.34121932083332873,-0.18422738289503093,0.8884454744360595,-0.004168424386886915,-0.6685357422669942,-0.6064667053715012,-0.011240298301537388,-0.096096513233358,-0.25376217935630785,0.7867264714698374,0.6928248279402185,-0.8559700119306153,0.13664514750548973,-0.945821822626193,0.8194962892562827,0.7091288863685359,0.45153885736400357,0.7240243236896335,0.3387095840683849,0.1626718611071314,-0.40774986040645,-0.920245102370538,0.8699616761367284,-0.3844409155125652,-0.23230550753449197,0.512284030019692,0.061977664732340676,-0.1541805892016066,0.5457197707467085,0.42724906758608605,-0.2647859325053137,-0.9701449273246103,-2.8526655029725845e-05,0.6497822081432905,-0.07319956927129345,-0.9811839272716771,-0.31279709053906957,-0.7392322495213441,0.9173489353019666,0.14429232498656774,0.6942159892612283,0.14475968121893512,0.7246862782863346,0.24963067204762335,-0.6720652897194246,-0.4611852730511792,-0.19718918141165354,-0.3447749481340274,-0.2075087182641795,-0.3301554222296319,-0.6790139375001711,0.9665912347042647,0.24509303545391337,-0.7564048341337044,-0.7103567639621822,0.8332730949032667,-0.24640832497809595,0.9730140538493537,-0.3640752859586629,-0.1771394005039757,0.5204831553502525,-0.14093070560699816,-0.6504015229435551,-0.4755878648032603,-0.4375803734993402,-0.887613320858512,-0.7329872637584249,-0.26674957414729805,-0.4667857237767685,-0.3232006725109504,-0.3202837836714645,0.13266899480092964,-0.5438368229845698,0.7500203182196559,-0.7289341587617235
34.04519353208572,-0.648181635283166,0.9828602074595227,-0.4520680399289012,-0.06161903429803983,-0.8995071142360109,-0.9202814211363199,0.01714437297921778,0.6804934825645939,0.6084962602953239,0.0071578676992143375,0.10969150070192146,-0.7380268978507363,0.900251483723354,0.7132511151316108,0.3681819106305937,0.34423650607716527,0.28035783382860036,-0.08478814677611268,-0.7192793240378805,0.5565763162202588,-0.26128315782012224,0.5595356901634554,0.6639065101182071,0.3961500906756268,-0.6723668110271326,-0.7585637269607524,0.613992635867987,0.0428012802251847,0.9725933527922888,0.3031318256371993,0.45377930040438885,-0.33218997940873374,0.48966045156751226,0.27818148911012086,-0.8269999797273,-0.1337209762481677,-0.9593519816932723,0.37659668991565076,-0.3543827889098865,-0.9747330551817164,0.7387492414471608,0.870486542259093,-0.2686922221126735,-0.4635230976454552,-0.6551383811608016,0.42791817304020174,0.40347937466480777,-0.06378141643832702,-0.8370161927082496,-0.1478203751993028,-0.681664580891393,0.04040424752281235,-0.30834975147781685,0.6590567105977532,-0.5558476833475232,0.7832918653263039,-0.07961112884603172,-0.02184244331932872,-0.9708418618489378,0.30752240706639467,-0.1955147741389327,-0.05237052335118175,0.29416923932032324,0.07947252788981674,-0.29891882144849946,-0.35879231894586905,0.278407522992024,-0.543485641541777,-0.7434145906293321,0.5612323832289616,-0.12092483996170111,-0.03330726772197257,-0.21110055375542225,0.05558976952656325,0.4034254712443994,0.7591724842483325,0.9953293135649137,-0.9929416369515158,0.9758571254293369,0.4716075749572488,-0.7592158787290655,-0.17410727388426883,0.7809079520568638,0.2954537139120159,-0.4566017724823348,-0.40541963948766857,0.07418454055855728,0.7178272564034296,-0.09646000594013082,0.6515586202293047,-0.24175415256407096,-0.5912363368069711,-0.4450826699924342,-0.3324628073858431,-0.3727847158989821,-0.7601927875976249,0.35441549423944396,0.038931147434565716,0.11754326214767796,0.20923485715448709,0.13448847594996494,0.0868552347686462,-0.5551171018109033,-0.5082525965980649,0.5506861097201099,0.1531286674848238,-0.9110310022305435,-0.4991080884871275,0.38479971795128165,-0.4933848463218802,-0.6475031967263054,-0.2526039911629896,0.2860155280829697,0.26862920807357327,0.042706187129248896,0.5197686272123556,-0.16993386972251656,0.18558225036017606,-0.010795879037290845,0.33766291839748774,0.924139149072225,0.4814544863562409,0.09329247208782765,-0.29311603386158525,0.42821639914761533,0.5577949573534857,-0.09535006346439978,0.5619741452854798,0.6270905024130318,0.5825188473026683,-0.49353238372391295,0.7545510498294195,-0.1329685877861697,0.34301499516274436,-0.5188757094907694,0.1873008510317944,-0.9434971897385072,-0.4623743877175652,-0.7990736166526116,-0.26015701173016326,0.5738647102684586,0.36340067626467776,0.7326228160360295,0.502790292207763,-0.5292811711692806,-0.92473042707282,-0.6993218264488659,-0.7233517928132378,0.9400701827155316,-0.5273570168106301,0.5963556703006141,-0.6758893139261162,0.981842186421517,0.5874340109846055,-0.07033062967917636,-0.809896725834728,0.2137015391641799,0.23618507490009488,-0.7117902713757172,0.47820186425614897,0.9244173710909984,0.7698769510846064,0.13673007329896247,-0.549951039890439,0.8832481766781679,-0.2610549463791927,-0.16988491059457833,-0.6767183940716937,-0.28413849467162233,0.92272770962243,0.1984390635818276,-0.6134360495350979,0.038589622088150755,0.5155795197335513,-0.5226556664572197,0.041620899731767524,-0.7120997936758293,0.8829619170578364,0.3277761406810309,0.6258573954149502,0.33204884266226165,-0.9755705971561424,-0.1722874382183679,0.7185223718969178,-0.33917056411139623,-0.8038541403942494,0.7138641790548383,-0.5255230622558458,0.32566938914692245,-0.33970587385731643,-0.34121932083332873,-0.18422738289503093,0.8884454744360595,-0.004168424386886915,-0.6685357422669942,-0.6064667053715012,-0.011240298301537388,-0.096096513233358,-0.25376217935630785,0.7867264714698374,0.6928248279402185,-0.8559700119306153,0.13664514750548973,-0.945821822626193,0.8194962892562827,0.7091288863685359,0.45153885736400357,0.7240243236896335,0.3387095840683849,0.1626718611071314,-0.40774986040645,-0.920245102370538,0.8699616761367284,-0.3844409155125652,-0.23230550753449197,0.512284030019692,0.061977664732340676,-0.1541805892016066,0.5457197707467085,0.42724906758608605,-0.2647859325053137,-0.9701449273246103,-2.8526655029725845e-05,0.6497822081432905,-0.07319956927129345,-0.9811839272716771,-0.31279709053906957,-0.7392322495213441,0.9173489353019666,0.14429232498656774,0.6942159892612283,0.14475968121893512,0.7246862782863346,0.24963067204762335,-0.6720652897194246,-0.4611852730511792,-0.19718918141165354,-0.3447749481340274,-0.2075087182641795,-0.3301554222296319,-0.6790139375001711,0.9665912347042647,0.24509303545391337,-0.7564048341337044,-0.7103567639621822,0.8332730949032667,-0.24640832497809595,0.9730140538493537,-0.3640752859586629,-0.1771394005039757,0.5204831553502525,-0.14093070560699816,-0.6504015229435551,-0.4755878648032603,-0.4375803734993402,-0.887613320858512,-0.7329872637584249,-0.26674957414729805,-0.4667857237767685,-0.3232006725109504,-0.3202837836714645,0.13266899480092964,-0.5438368229845698,0.7500203182196559,-0.7289341587617235
34.04519353208572,-0.648181635283166,0.9828602074595227,-0.4520680399289012,-0.06161903429803983,-0.8995071142360109,-0.9202814211363199,0.01714437297921778,0.6804934825645939,0.6084962602953239,0.0071578676992143375,0.10969150070192146,-0.7380268978507363,0.900251483723354,0.7132511151316108,0.3681819106305937,0.34423650607716527,0.28035783382860036,-0.08478814677611268,-0.7192793240378805,0.5565763162202588,-0.26128315782012224,0.5595356901634554,0.6639065101182071,0.3961500906756268,-0.6723668110271326,-0.7585637269607524,0.613992635867987,0.0428012802251847,0.9725933527922888,0.3031318256371993,0.45377930040438885,-0.33218997940873374,0.48966045156751226,0.27818148911012086,-0.8269999797273,-0.1337209762481677,-0.9593519816932723,0.37659668991565076,-0.3543827889098865,-0.9747330551817164,0.7387492414471608,0.870486542259093,-0.2686922221126735,-0.4635230976454552,-0.6551383811608016,0.42791817304020174,0.40347937466480777,-0.06378141643832702,-0.8370161927082496,-0.1478203751993028,-0.681664580891393,0.04040424752281235,-0.30834975147781685,0.6590567105977532,-0.5558476833475232,0.7832918653263039,-0.07961112884603172,-0.02184244331932872,-0.9708418618489378,0.30752240706639467,-0.1955147741389327,-0.05237052335118175,0.29416923932032324,0.07947252788981674,-0.29891882144849946,-0.35879231894586905,0.278407522992024,-0.543485641541777,-0.7434145906293321,0.5612323832289616,-0.12092483996170111,-0.03330726772197257,-0.21110055375542225,0.05558976952656325,0.4034254712443994,0.7591724842483325,0.9953293135649137,-0.9929416369515158,0.9758571254293369,0.4716075749572488,-0.7592158787290655,-0.17410727388426883,0.7809079520568638,0.2954537139120159,-0.4566017724823348,-0.40541963948766857,0.07418454055855728,0.7178272564034296,-0.09646000594013082,0.6515586202293047,-0.24175415256407096,-0.5912363368069711,-0.4450826699924342,-0.3324628073858431,-0.3727847158989821,-0.7601927875976249,0.35441549423944396,0.038931147434565716,0.11754326214767796,0.20923485715448709,0.13448847594996494,0.0868552347686462,-0.5551171018109033,-0.5082525965980649,0.5506861097201099,0.1531286674848238,-0.9110310022305435,-0.4991080884871275,0.38479971795128165,-0.4933848463218802,-0.6475031967263054,-0.2526039911629896,0.2860155280829697,0.26862920807357327,0.042706187129248896,0.5197686272123556,-0.16993386972251656,0.18558225036017606,-0.010795879037290845,0.33766291839748774,0.924139149072225,0.4814544863562409,0.09329247208782765,-0.29311603386158525,0.42821639914761533,0.5577949573534857,-0.09535006346439978,0.5619741452854798,0.6270905024130318,0.5825188473026683,-0.49353238372391295,0.7545510498294195,-0.1329685877861697,0.34301499516274436,-0.5188757094907694,0.1873008510317944,-0.9434971897385072,-0.4623743877175652,-0.7990736166526116,-0.26015701173016326,0.5738647102684586,0.36340067626467776,0.7326228160360295,0.502790292207763,-0.5292811711692806,-0.92473042707282,-0.6993218264488659,-0.7233517928132378,0.9400701827155316,-0.5273570168106301,0.5963556703006141,-0.6758893139261162,0.981842186421517,0.5874340109846055,-0.07033062967917636,-0.809896725834728,0.2137015391641799,0.23618507490009488,-0.7117902713757172,0.47820186425614897,0.9244173710909984,0.7698769510846064,0.13673007329896247,-0.549951039890439,0.8832481766781679,-0.2610549463791927,-0.16988491059457833,-0.6767183940716937,-0.28413849467162233,0.92272770962243,0.1984390635818276,-0.6134360495350979,0.038589622088150755,0.5155795197335513,-0.5226556664572197,0.041620899731767524,-0.7120997936758293,0.8829619170578364,0.3277761406810309,0.6258573954149502,0.33204884266226165,-0.9755705971561424,-0.1722874382183679,0.7185223718969178,-0.33917056411139623,-0.8038541403942494,0.7138641790548383,-0.5255230622558458,0.32566938914692245,-0.33970587385731643,-0.34121932083332873,-0.18422738289503093,0.8884454744360595,-0.004168424386886915,-0.6685357422669942,-0.6064667053715012,-0.011240298301537388,-0.096096513233358,-0.25376217935630785,0.7867264714698374,0.6928248279402185,-0.8559700119306153,0.13664514750548973,-0.945821822626193,0.8194962892562827,0.7091288863685359,0.45153885736400357,0.7240243236896335,0.3387095840683849,0.1626718611071314,-0.40774986040645,-0.920245102370538,0.8699616761367284,-0.3844409155125652,-0.23230550753449197,0.512284030019692,0.061977664732340676,-0.1541805892016066,0.5457197707467085,0.42724906758608605,-0.2647859325053137,-0.9701449273246103,-2.8526655029725845e-05,0.6497822081432905,-0.07319956927129345,-0.9811839272716771,-0.31279709053906957,-0.7392322495213441,0.9173489353019666,0.14429232498656774,0.6942159892612283,0.14475968121893512,0.7246862782863346,0.24963067204762335,-0.6720652897194246,-0.4611852730511792,-0.19718918141165354,-0.3447749481340274,-0.2075087182641795,-0.3301554222296319,-0.6790139375001711,0.9665912347042647,0.24509303545391337,-0.7564048341337044,-0.7103567639621822,0.8332730949032667,-0.24640832497809595,0.9730140538493537,-0.3640752859586629,-0.1771394005039757,0.5204831553502525,-0.14093070560699816,-0.6504015229435551,-0.4755878648032603,-0.4375803734993402,-0.887613320858512,-0.7329872637584249,-0.26674957414729805,-0.4667857237767685,-0.3232006725109504,-0.3202837836714645,0.13266899480092964,-0.5438368229845698,0.7500203182196559,-0.7289341587617235
34.04519353208572,-0.648181635283166,0.9828602074595227,-0.4520680399289012,-0.06161903429803983,-0.8995071142360109,-0.9202814211363199,0.01714437297921778,0.6804934825645939,0.6084962602953239,0.0071578676992143375,0.10969150070192146,-0.7380268978507363,0.900251483723354,0.7132511151316108,0.3681819106305937,0.34423650607716527,0.28035783382860036,-0.08478814677611268,-0.7192793240378805,0.5565763162202588,-0.26128315782012224,0.5595356901634554,0.6639065101182071,0.3961500906756268,-0.6723668110271326,-0.7585637269607524,0.613992635867987,0.0428012802251847,0.9725933527922888,0.3031318256371993,0.45377930040438885,-0.33218997940873374,0.48966045156751226,0.27818148911012086,-0.8269999797273,-0.1337209762481677,-0.9593519816932723,0.37659668991565076,-0.3543827889098865,-0.9747330551817164,0.7387492414471608,0.870486542259093,-0.2686922221126735,-0.4635230976454552,-0.6551383811608016,0.42791817304020174,0.40347937466480777,-0.06378141643832702,-0.8370161927082496,-0.1478203751993028,-0.681664580891393,0.04040424752281235,-0.30834975147781685,0.6590567105977532,-0.5558476833475232,0.7832918653263039,-0.07961112884603172,-0.02184244331932872,-0.9708418618489378,0.30752240706639467,-0.1955147741389327,-0.05237052335118175,0.29416923932032324,0.07947252788981674,-0.29891882144849946,-0.35879231894586905,0.278407522992024,-0.543485641541777,-0.7434145906293321,0.5612323832289616,-0.12092483996170111,-0.03330726772197257,-0.21110055375542225,0.05558976952656325,0.4034254712443994,0.7591724842483325,0.9953293135649137,-0.9929416369515158,0.9758571254293369,0.4716075749572488,-0.7592158787290655,-0.17410727388426883,0.7809079520568638,0.2954537139120159,-0.4566017724823348,-0.40541963948766857,0.07418454055855728,0.7178272564034296,-0.09646000594013082,0.6515586202293047,-0.24175415256407096,-0.5912363368069711,-0.4450826699924342,-0.3324628073858431,-0.3727847158989821,-0.7601927875976249,0.35441549423944396,0.038931147434565716,0.11754326214767796,0.20923485715448709,0.13448847594996494,0.0868552347686462,-0.5551171018109033,-0.5082525965980649,0.5506861097201099,0.1531286674848238,-0.9110310022305435,-0.4991080884871275,0.38479971795128165,-0.4933848463218802,-0.6475031967263054,-0.2526039911629896,0.2860155280829697,0.26862920807357327,0.042706187129248896,0.5197686272123556,-0.16993386972251656,0.18558225036017606,-0.010795879037290845,0.33766291839748774,0.924139149072225,0.4814544863562409,0.09329247208782765,-0.29311603386158525,0.42821639914761533,0.5577949573534857,-0.09535006346439978,0.5619741452854798,0.6270905024130318,0.5825188473026683,-0.49353238372391295,0.7545510498294195,-0.1329685877861697,0.34301499516274436,-0.5188757094907694,0.1873008510317944,-0.9434971897385072,-0.4623743877175652,-0.7990736166526116,-0.26015701173016326,0.5738647102684586,0.36340067626467776,0.7326228160360295,0.502790292207763,-0.5292811711692806,-0.92473042707282,-0.6993218264488659,-0.7233517928132378,0.9400701827155316,-0.5273570168106301,0.5963556703006141,-0.6758893139261162,0.981842186421517,0.5874340109846055,-0.07033062967917636,-0.809896725834728,0.2137015391641799,0.23618507490009488,-0.7117902713757172,0.47820186425614897,0.9244173710909984,0.7698769510846064,0.13673007329896247,-0.549951039890439,0.8832481766781679,-0.2610549463791927,-0.16988491059457833,-0.6767183940716937,-0.28413849467162233,0.92272770962243,0.1984390635818276,-0.6134360495350979,0.038589622088150755,0.5155795197335513,-0.5226556664572197,0.041620899731767524,-0.7120997936758293,0.8829619170578364,0.3277761406810309,0.6258573954149502,0.33204884266226165,-0.9755705971561424,-0.1722874382183679,0.7185223718969178,-0.33917056411139623,-0.8038541403942494,0.7138641790548383,-0.5255230622558458,0.32566938914692245,-0.33970587385731643,-0.34121932083332873,-0.18422738289503093,0.8884454744360595,-0.004168424386886915,-0.6685357422669942,-0.6064667053715012,-0.011240298301537388,-0.096096513233358,-0.25376217935630785,0.7867264714698374,0.6928248279402185,-0.8559700119306153,0.13664514750548973,-0.945821822626193,0.8194962892562827,0.7091288863685359,0.45153885736400357,0.7240243236896335,0.3387095840683849,0.1626718611071314,-0.40774986040645,-0.920245102370538,0.8699616761367284,-0.3844409155125652,-0.23230550753449197,0.512284030019692,0.061977664732340676,-0.1541805892016066,0.5457197707467085,0.42724906758608605,-0.2647859325053137,-0.9701449273246103,-2.8526655029725845e-05,0.6497822081432905,-0.07319956927129345,-0.9811839272716771,-0.31279709053906957,-0.7392322495213441,0.9173489353019666,0.14429232498656774,0.6942159892612283,0.14475968121893512,0.7246862782863346,0.24963067204762335,-0.6720652897194246,-0.4611852730511792,-0.19718918141165354,-0.3447749481340274,-0.2075087182641795,-0.3301554222296319,-0.6790139375001711,0.9665912347042647,0.24509303545391337,-0.7564048341337044,-0.7103567639621822,0.8332730949032667,-0.24640832497809595,0.9730140538493537,-0.3640752859586629,-0.1771394005039757,0.5204831553502525,-0.14093070560699816,-0.6504015229435551,-0.4755878648032603,-0.4375803734993402,-0.887613320858512,-0.7329872637584249,-0.26674957414729805,-0.4667857237767685,-0.3232006725109504,-0.3202837836714645,0.13266899480092964,-0.5438368229845698,0.7500203182196559,-0.7289341587617235
34.04519353208572,-0.648181635283166,0.9828602074595227,-0.4520680399289012,-0.06161903429803983,-0.8995071142360109,-0.9202814211363199,0.01714437297921778,0.6804934825645939,0.6084962602953239,0.0071578676992143375,0.10969150070192146,-0.7380268978507363,0.900251483723354,0.7132511151316108,0.3681819106305937,0.34423650607716527,0.28035783382860036,-0.08478814677611268,-0.7192793240378805,0.5565763162202588,-0.26128315782012224,0.5595356901634554,0.6639065101182071,0.3961500906756268,-0.6723668110271326,-0.7585637269607524,0.613992635867987,0.0428012802251847,0.9725933527922888,0.3031318256371993,0.45377930040438885,-0.33218997940873374,0.48966045156751226,0.27818148911012086,-0.8269999797273,-0.1337209762481677,-0.9593519816932723,0.37659668991565076,-0.3543827889098865,-0.9747330551817164,0.7387492414471608,0.870486542259093,-0.2686922221126735,-0.4635230976454552,-0.6551383811608016,0.42791817304020174,0.40347937466480777,-0.06378141643832702,-0.8370161927082496,-0.1478203751993028,-0.681664580891393,0.04040424752281235,-0.30834975147781685,0.6590567105977532,-0.5558476833475232,0.7832918653263039,-0.07961112884603172,-0.02184244331932872,-0.9708418618489378,0.30752240706639467,-0.1955147741389327,-0.05237052335118175,0.29416923932032324,0.07947252788981674,-0.29891882144849946,-0.35879231894586905,0.278407522992024,-0.543485641541777,-0.7434145906293321,0.5612323832289616,-0.12092483996170111,-0.03330726772197257,-0.21110055375542225,0.05558976952656325,0.4034254712443994,0.7591724842483325,0.9953293135649137,-0.9929416369515158,0.9758571254293369,0.4716075749572488,-0.7592158787290655,-0.17410727388426883,0.7809079520568638,0.2954537139120159,-0.4566017724823348,-0.40541963948766857,0.07418454055855728,0.7178272564034296,-0.09646000594013082,0.6515586202293047,-0.24175415256407096,-0.5912363368069711,-0.4450826699924342,-0.3324628073858431,-0.3727847158989821,-0.7601927875976249,0.35441549423944396,0.038931147434565716,0.11754326214767796,0.20923485715448709,0.13448847594996494,0.0868552347686462,-0.5551171018109033,-0.5082525965980649,0.5506861097201099,0.1531286674848238,-0.9110310022305435,-0.4991080884871275,0.38479971795128165,-0.4933848463218802,-0.6475031967263054,-0.2526039911629896,0.2860155280829697,0.26862920807357327,0.042706187129248896,0.5197686272123556,-0.16993386972251656,0.18558225036017606,-0.010795879037290845,0.33766291839748774,0.924139149072225,0.4814544863562409,0.09329247208782765,-0.29311603386158525,0.42821639914761533,0.5577949573534857,-0.09535006346439978,0.5619741452854798,0.6270905024130318,0.5825188473026683,-0.49353238372391295,0.7545510498294195,-0.1329685877861697,0.34301499516274436,-0.5188757094907694,0.1873008510317944,-0.9434971897385072,-0.4623743877175652,-0.7990736166526116,-0.26015701173016326,0.5738647102684586,0.36340067626467776,0.7326228160360295,0.502790292207763,-0.5292811711692806,-0.92473042707282,-0.6993218264488659,-0.7233517928132378,0.9400701827155316,-0.5273570168106301,0.5963556703006141,-0.6758893139261162,0.981842186421517,0.5874340109846055,-0.07033062967917636,-0.809896725834728,0.2137015391641799,0.23618507490009488,-0.7117902713757172,0.47820186425614897,0.9244173710909984,0.7698769510846064,0.13673007329896247,-0.549951039890439,0.8832481766781679,-0.2610549463791927,-0.16988491059457833,-0.6767183940716937,-0.28413849467162233,0.92272770962243,0.1984390635818276,-0.6134360495350979,0.038589622088150755,0.5155795197335513,-0.5226556664572197,0.041620899731767524,-0.7120997936758293,0.8829619170578364,0.3277761406810309,0.6258573954149502,0.33204884266226165,-0.9755705971561424,-0.1722874382183679,0.7185223718969178,-0.33917056411139623,-0.8038541403942494,0.7138641790548383,-0.5255230622558458,0.32566938914692245,-0.33970587385731643,-0.34121932083332873,-0.18422738289503093,0.8884454744360595,-0.004168424386886915,-0.6685357422669942,-0.6064667053715012,-0.011240298301537388,-0.096096513233358,-0.25376217935630785,0.7867264714698374,0.6928248279402185,-0.8559700119306153,0.13664514750548973,-0.945821822626193,0.8194962892562827,0.7091288863685359,0.45153885736400357,0.7240243236896335,0.3387095840683849,0.1626718611071314,-0.40774986040645,-0.920245102370538,0.8699616761367284,-0.3844409155125652,-0.23230550753449197,0.512284030019692,0.061977664732340676,-0.1541805892016066,0.5457197707467085,0.42724906758608605,-0.2647859325053137,-0.9701449273246103,-2.8526655029725845e-05,0.6497822081432905,-0.07319956927129345,-0.9811839272716771,-0.31279709053906957,-0.7392322495213441,0.9173489353019666,0.14429232498656774,0.6942159892612283,0.14475968121893512,0.7246862782863346,0.24963067204762335,-0.6720652897194246,-0.4611852730511792,-0.19718918141165354,-0.3447749481340274,-0.2075087182641795,-0.3301554222296319,-0.6790139375001711,0.9665912347042647,0.24509303545391337,-0.7564048341337044,-0.7103567639621822,0.8332730949032667,-0.24640832497809595,0.9730140538493537,-0.3640752859586629,-0.1771394005039757,0.5204831553502525,-0.14093070560699816,-0.6504015229435551,-0.4755878648032603,-0.4375803734993402,-0.887613320858512,-0.7329872637584249,-0.26674957414729805,-0.4667857237767685,-0.3232006725109504,-0.3202837836714645,0.13266899480092964,-0.5438368229845698,0.7500203182196559,-0.7289341587617235
34.04519353208572,-0.648181635283166,0.9828602074595227,-0.4520680399289012,-0.06161903429803983,-0.8995071142360109,-0.9202814211363199,0.01714437297921778,0.6804934825645939,0.6084962602953239,0.0071578676992143375,0.10969150070192146,-0.7380268978507363,0.900251483723354,0.7132511151316108,0.3681819106305937,0.34423650607716527,0.28035783382860036,-0.08478814677611268,-0.7192793240378805,0.5565763162202588,-0.26128315782012224,0.5595356901634554,0.6639065101182071,0.3961500906756268,-0.6723668110271326,-0.7585637269607524,0.613992635867987,0.0428012802251847,0.9725933527922888,0.3031318256371993,0.45377930040438885,-0.33218997940873374,0.48966045156751226,0.27818148911012086,-0.8269999797273,-0.1337209762481677,-0.9593519816932723,0.37659668991565076,-0.3543827889098865,-0.9747330551817164,0.7387492414471608,0.870486542259093,-0.2686922221126735,-0.4635230976454552,-0.6551383811608016,0.42791817304020174,0.40347937466480777,-0.06378141643832702,-0.8370161927082496,-0.1478203751993028,-0.681664580891393,0.04040424752281235,-0.30834975147781685,0.6590567105977532,-0.5558476833475232,0.7832918653263039,-0.07961112884603172,-0.02184244331932872,-0.9708418618489378,0.30752240706639467,-0.1955147741389327,-0.05237052335118175,0.29416923932032324,0.07947252788981674,-0.29891882144849946,-0.35879231894586905,0.278407522992024,-0.543485641541777,-0.7434145906293321,0.5612323832289616,-0.12092483996170111,-0.03330726772197257,-0.21110055375542225,0.05558976952656325,0.4034254712443994,0.7591724842483325,0.9953293135649137,-0.9929416369515158,0.9758571254293369,0.4716075749572488,-0.7592158787290655,-0.17410727388426883,0.7809079520568638,0.2954537139120159,-0.4566017724823348,-0.40541963948766857,0.07418454055855728,0.7178272564034296,-0.09646000594013082,0.6515586202293047,-0.24175415256407096,-0.5912363368069711,-0.4450826699924342,-0.3324628073858431,-0.3727847158989821,-0.7601927875976249,0.35441549423944396,0.038931147434565716,0.11754326214767796,0.20923485715448709,0.13448847594996494,0.0868552347686462,-0.5551171018109033,-0.5082525965980649,0.5506861097201099,0.1531286674848238,-0.9110310022305435,-0.4991080884871275,0.38479971795128165,-0.4933848463218802,-0.6475031967263054,-0.2526039911629896,0.2860155280829697,0.26862920807357327,0.042706187129248896,0.5197686272123556,-0.16993386972251656,0.18558225036017606,-0.010795879037290845,0.33766291839748774,0.924139149072225,0.4814544863562409,0.09329247208782765,-0.29311603386158525,0.42821639914761533,0.5577949573534857,-0.09535006346439978,0.5619741452854798,0.6270905024130318,0.5825188473026683,-0.49353238372391295,0.7545510498294195,-0.1329685877861697,0.34301499516274436,-0.5188757094907694,0.1873008510317944,-0.9434971897385072,-0.4623743877175652,-0.7990736166526116,-0.26015701173016326,0.5738647102684586,0.36340067626467776,0.7326228160360295,0.502790292207763,-0.5292811711692806,-0.92473042707282,-0.6993218264488659,-0.7233517928132378,0.9400701827155316,-0.5273570168106301,0.5963556703006141,-0.6758893139261162,0.981842186421517,0.5874340109846055,-0.07033062967917636,-0.809896725834728,0.2137015391641799,0.23618507490009488,-0.7117902713757172,0.47820186425614897,0.9244173710909984,0.7698769510846064,0.13673007329896247,-0.549951039890439,0.8832481766781679,-0.2610549463791927,-0.16988491059457833,-0.6767183940716937,-0.28413849467162233,0.92272770962243,0.1984390635818276,-0.6134360495350979,0.038589622088150755,0.5155795197335513,-0.5226556664572197,0.041620899731767524,-0.7120997936758293,0.8829619170578364,0.3277761406810309,0.6258573954149502,0.33204884266226165,-0.9755705971561424,-0.1722874382183679,0.7185223718969178,-0.33917056411139623,-0.8038541403942494,0.7138641790548383,-0.5255230622558458,0.32566938914692245,-0.33970587385731643,-0.34121932083332873,-0.18422738289503093,0.8884454744360595,-0.004168424386886915,-0.6685357422669942,-0.6064667053715012,-0.011240298301537388,-0.096096513233358,-0.25376217935630785,0.7867264714698374,0.6928248279402185,-0.8559700119306153,0.13664514750548973,-0.945821822626193,0.8194962892562827,0.7091288863685359,0.45153885736400357,0.7240243236896335,0.3387095840683849,0.1626718611071314,-0.40774986040645,-0.920245102370538,0.8699616761367284,-0.3844409155125652,-0.23230550753449197,0.512284030019692,0.061977664732340676,-0.1541805892016066,0.5457197707467085,0.42724906758608605,-0.2647859325053137,-0.9701449273246103,-2.8526655029725845e-05,0.6497822081432905,-0.07319956927129345,-0.9811839272716771,-0.31279709053906957,-0.7392322495213441,0.9173489353019666,0.14429232498656774,0.6942159892612283,0.14475968121893512,0.7246862782863346,0.24963067204762335,-0.6720652897194246,-0.4611852730511792,-0.19718918141165354,-0.3447749481340274,-0.2075087182641795,-0.3301554222296319,-0.6790139375001711,0.9665912347042647,0.24509303545391337,-0.7564048341337044,-0.7103567639621822,0.8332730949032667,-0.24640832497809595,0.9730140538493537,-0.3640752859586629,-0.1771394005039757,0.5204831553502525,-0.14093070560699816,-0.6504015229435551,-0.4755878648032603,-0.4375803734993402,-0.887613320858512,-0.7329872637584249,-0.26674957414729805,-0.4667857237767685,-0.3232006725109504,-0.3202837836714645,0.13266899480092964,-0.5438368229845698,0.7500203182196559,-0.7289341587617235
