-1.981401666491762192e-01
-5.052688801205540425e-01
-1.559789837641822885e-03
9.634320895108481331e-01
8.997458520578787144e-01
4.189157759117483337e-01
7.106647735972546620e-01
2.396250554765266827e-01
7.033653859760748972e-01
-1.289487017051458295e-01
-6.904710129493607518e-01
6.509664086498982982e-01
-6.325991493968778911e-01
2.531478003170419822e-01
8.759298232059036238e-01
4.347300164986158677e-01
2.335735538256067390e-01
4.745108514259679389e-01
-1.442776451087004475e-01
4.115187194880443045e-01
-4.738643502103396798e-01
1.512447280975770525e-03
-6.930915324461019988e-01
3.436569296057534473e-01
-1.361837277996325035e-01
-2.093322281001122054e-01
-6.847680907073683265e-01
-7.086903125294496952e-02
9.956888179638629932e-01
-2.616497620240521016e-02
9.100016975928042484e-01
-3.180944418119460160e-01
-6.295399621688411163e-01
7.426719432118620290e-01
-9.162727220060473687e-01
1.278540149646056889e-02
-5.573706468333368136e-01
-6.858953733345283243e-01
-9.294542313116083143e-02
1.345193683229743975e-01
4.435902929972284081e-01
-7.545201186880170496e-01
1.204016887422438842e-01
3.809521341128561112e-01
1.738724251084304839e-01
-9.273261520411422154e-01
6.637656810281815645e-01
6.073293827431771597e-01
4.194911887732981626e-01
-3.646693712377209184e-01
6.898728118509847018e-01
-2.147537576693507866e-01
-2.759758503479359248e-02
7.851668483853040392e-01
-9.247792796556406625e-01
-1.867885758327856305e-01
5.603307862232247416e-01
-8.863579101637573121e-01
-4.414484723291129953e-01
1.588734686431458876e-01
3.141577711163321407e-01
8.668966229514580846e-01
1.368922073784268889e-01
5.764720908438825120e-03
6.888366027729126984e-01
6.748612076818369943e-01
1.074444543174677413e-01
2.780523824220328954e-01
-3.076408589944046312e-02
1.253722625501465515e-01
-4.008826207261235730e-01
-8.202899750426868586e-01
1.908073750224543730e-01
-3.347541991018327945e-01
-6.939217727076969489e-01
-5.585136408134470098e-01
9.870841858126233603e-01
-7.293357513106299983e-01
-9.395944907468005702e-01
-4.519085078161126923e-01
-2.943313546494286115e-01
-6.662980062977721385e-01
-1.151689460125071562e-01
-5.900032722297061660e-01
2.336934489166138107e-01
-2.754497973766616425e-01
-6.307640292364276036e-01
7.949855264329779292e-01
-2.047386050323478646e-01
-1.904087442910380457e-01
9.564330205928017747e-02
-9.692078723503025905e-01
-1.087303838603175254e-01
8.557050724007151388e-01
8.585191546650581262e-01
3.822164547591013761e-01
-5.543097026436734076e-01
-8.542942284518906249e-01
-9.500018893246517937e-01
2.519761943343681310e-01
-9.405314717380877099e-01
-4.289162302122211390e-01
1.044914356334438743e-01
8.008672187486154392e-02
3.950372521511225088e-02
7.047796928215106504e-01
-6.381456619262677599e-01
-6.020977647937433286e-01
3.451533548621710246e-01
-9.600900223708817016e-01
5.110818422380911663e-01
8.247440999930830685e-01
3.452290166639229163e-01
-6.688845503330262954e-01
-1.468585340163470754e-01
6.705864166476414034e-01
-1.099300225785144747e-01
9.929636652507469741e-01
-8.882628239546539461e-01
-7.497559120206136463e-01
3.844903647850350659e-01
-3.574206910643589197e-01
7.381868331443244280e-01
-5.933953765482273823e-01
-9.207921314612816932e-01
-9.059700467290099368e-02
1.812178759373945791e-01
7.314725896809788352e-01
2.976479614322475875e-01
-1.049796906892996873e-03
-7.751279242182034235e-01
5.523150871953235175e-01
3.418158827694279811e-01
-3.781958201075359405e-01
9.735152722245292711e-01
-6.489199509491880846e-01
9.620633837730387938e-01
5.812906932637476043e-01
6.906946424147579755e-01
-8.055735355088633476e-01
1.069897486189046454e-01
-3.238400817545892263e-01
2.139211040578126166e-02
-5.550256820549115400e-01
7.035012994398726072e-02
-6.558035665228678646e-01
-7.701113255629679077e-01
1.278702819831458726e-01
-4.418807347621345194e-01
-4.610460522449333354e-01
-7.291729119171435070e-01
-6.273023650564502063e-01
-5.930226851882913763e-02
9.944604490525192908e-01
-8.410413835017436224e-01
-3.840891595036999284e-02
-9.393434967289748805e-01
9.552021957343330705e-01
-9.723800307839498558e-01
-5.715439147017264965e-01
-7.828279950877510274e-01
-6.647197652505192345e-01
6.344158061831395301e-01
-6.405399475179847091e-01
5.556245226056297781e-01
1.578489308371791022e-01
-5.870869939216769584e-01
-1.696815560771562925e-01
3.561790693136006603e-01
-5.083621564499223311e-01
-5.983378500473826023e-01
4.617975151439601689e-02
8.651754413179655323e-01
6.627992416899788353e-01
9.648449644154803995e-01
2.748815085283280446e-01
-1.814719750374633733e-01
5.069438675543955775e-01
8.945531365596735007e-01
4.100648158412019129e-01
4.793851141154781281e-01
8.126784327974538868e-01
8.945603102546288987e-01
8.141081313199318714e-01
-7.640238799220724353e-01
-3.794261821383173583e-01
-1.428265427703845347e-02
6.032287523093973203e-01
8.516588546946897154e-01
8.051884970046394585e-01
-6.709757639649698291e-01
-9.925249420864545868e-01
8.586018798548578079e-01
-3.317049182191587064e-01
4.721528650997837140e-01
-8.596019213703720574e-01
-2.412451733610510018e-02
5.569851070984235264e-01
3.418297099317189058e-01
-5.540978634463471497e-01
1.334080324113751104e-03
7.547681713753984223e-01
3.425916110903863832e-01
2.478695024264099267e-02
7.015146385909458715e-01
4.927506435290074371e-01
4.886050860691986131e-01
-9.509843516550586795e-01
-3.026522190536782286e-01
3.698620930500964299e-01
9.708604170802903610e-02
-9.847942030478149533e-01
-6.344779792510102379e-01
9.882939715114420487e-01
2.397968242986578957e-01
1.674022107822927818e-01
-9.012166320668790753e-01
2.791205208194311727e-01
-7.342343069652779164e-02
4.185173098908947509e-01
-4.690744554677799272e-01
2.599518339675512824e-01
6.468517454827100721e-01
-6.038595939436082194e-01
4.280212173410915533e-01
-3.811551960487400414e-01
-2.425097921593817318e-01
6.061041330071725852e-01
-2.737079305722109890e-01
-4.414884915872976379e-01
2.071385239639988995e-01
-2.069547553811199592e-01
2.563876153682771442e-01
6.068003497109015765e-01
2.915094215888127671e-01
-8.259394477977872739e-01
9.396113724231911490e-01
9.085703948097378913e-01
-6.721233410557989618e-01
4.787475853343658994e-01
5.510525392131575551e-01
-5.276674359714152995e-01
-2.054869262457146295e-01
-4.527958247558254712e-01
4.511312590620644158e-01
8.973349870829807617e-01
-4.290612571334284642e-01
-7.496458265493886053e-01
5.413865154772392607e-01
-3.095803220281370116e-01
-4.816082821115004187e-01
8.271489247657850541e-01
5.436509511611935519e-01
7.776014396570154474e-01
-6.148034854579667030e-01
-7.274578306438534980e-01
5.382185403724568662e-01
9.862251547403459995e-01
5.231216221298118363e-02
8.115160089834070334e-01
-2.688398289552860199e-01
-7.212974096249125111e-01
-3.601558711851522432e-01
3.279205226981742882e-01
5.353759909914486137e-01
