2.245934088056866784e-01
6.314635019479721834e-01
2.349754154692094144e-01
2.216041550462644061e-02
-7.314239154636879015e-01
4.590745329835455024e-02
-2.598908859434612140e-01
2.523888865116921121e-01
9.809850545279970024e-01
-9.942329728149899015e-01
8.602773488419148684e-01
-9.905014189294258919e-02
5.789665034245494724e-01
-4.944653873319497794e-01
-5.254462772935091230e-01
9.988215960161390683e-01
-3.282893754003148867e-01
-7.614537471337972097e-01
-5.243747906722977525e-01
2.539571921463494864e-01
-9.351539149524490391e-02
5.819138671271881780e-01
-1.129643194139662299e-03
-2.807953331696271260e-01
6.361846397632957562e-01
9.958113589072561389e-01
-5.895095910727810029e-01
4.399433879782614909e-01
2.282503494364984675e-02
-2.392146542411845989e-01
7.727726012786946264e-01
3.598962426749157117e-01
-6.323643812798713792e-01
-3.168602809614240456e-01
-4.220155987782197027e-01
3.143763636393659411e-02
2.508768364297031539e-01
6.237161434140681138e-02
-5.763242486082287286e-01
-4.714965987795891600e-01
-6.356258456733656637e-01
8.700254287914748197e-01
5.962566171549839034e-01
-8.815664149902189273e-01
7.458031571639902602e-01
1.914263925172339231e-01
7.792990277753615302e-01
-5.488073410402092289e-01
-3.577473803454056522e-01
8.279833541682433129e-01
1.851579399768787937e-02
7.662341503157166223e-01
5.886972659768825444e-01
9.024860580499258766e-01
8.535970240997277081e-01
-5.482366621606351575e-01
-4.850305817373943285e-01
1.596699288460712296e-02
-4.528678731548685388e-01
-9.849923528048523114e-01
-1.825403189946772642e-01
-5.253657951568857509e-01
6.831599839421826914e-01
-2.283978296009754327e-01
1.677332690478132715e-01
-8.301186519130883124e-01
-2.082105370113334075e-01
-9.848033040840511454e-01
-5.000553756877819112e-01
-2.437684674129718676e-01
-7.804951095300780572e-01
-5.276693800650189559e-02
7.087029124892565424e-01
7.678696459650460326e-01
-9.915317244320671630e-01
-5.894950477798395205e-01
9.545476360825513318e-01
-3.158577355297480516e-01
8.312685040982443763e-01
-7.396599594584478687e-01
4.213673332104304059e-01
-5.554189828476876478e-01
2.396994281178896902e-01
1.520530230341190503e-01
6.719914062614606998e-01
-1.023527455708905798e-02
9.655657395373509200e-01
-8.625786552829568521e-01
1.172585359362228186e-01
-1.918631864094755279e-02
3.922464026740777321e-01
-7.493049987910680443e-01
-3.648203546920796292e-01
-7.696392358642789588e-01
4.825385249072424720e-01
-8.988126035657062474e-01
-5.313894939384196103e-01
-4.383101053959999049e-01
-8.646308099662964874e-01
6.033127679990935022e-02
3.750533509061950710e-01
-1.132366417251429169e-01
5.873263051522239486e-01
7.862229903141086940e-01
5.805224875025010167e-01
-3.277516220116769574e-01
8.838640242035624706e-01
7.589653032424461543e-01
9.208968445474763342e-01
4.857414966547015656e-01
-7.824434881695181421e-01
1.712599214463312869e-01
-1.935676291076715572e-02
1.982339780191384460e-01
8.706463685833156774e-01
-5.307697293954962703e-01
1.333769640439410598e-01
8.681054224322317658e-01
-2.137083164645638966e-01
1.111289621320330490e-01
-7.608134796108694253e-01
-5.328614946973382338e-01
-5.195298232105807212e-01
-4.503772612983580892e-01
-2.539109697510804065e-01
7.938772850719775231e-01
8.012869813626197768e-01
-8.074024589585468981e-01
-5.450486704539891925e-01
8.886220042994192880e-01
-4.759317793398318841e-01
-6.553688608876899746e-01
-3.301607603096465837e-01
-6.386852944211174332e-02
-4.790293159061158601e-01
5.648842511126557220e-01
6.872367006677646550e-01
3.484707224100578316e-01
1.134762157741886490e-01
7.216258803489896678e-01
-9.370051118383790900e-01
1.286165272961738992e-01
-3.440293401339160617e-01
-6.902428208722077851e-01
5.765170411572850817e-02
-5.374927746341671142e-01
-9.490487006505456957e-01
6.045676020083359248e-01
4.054579073187469795e-01
-2.426021608811343988e-01
8.551382359724546411e-01
-4.754340509757331024e-01
-3.205493239693877339e-01
-9.158000788915203749e-01
-2.855432534041240089e-01
1.240688896515518280e-02
2.516642194727158888e-02
4.842827187765805785e-01
-4.744354254499421053e-01
-8.300936204501270232e-01
-8.782895361047433624e-01
9.151808407916544041e-01
5.915619328619303730e-02
-2.150104009994289189e-01
2.343053524119749209e-01
2.150654377793141947e-01
-9.671323832286642386e-01
2.648391065153847812e-01
-3.835644350792029034e-01
-6.553866090088644736e-01
-1.384552527084303986e-01
-3.612482195678827779e-01
-4.140178578381790153e-01
-4.018338421649105818e-01
-2.005773869024878309e-01
6.667256719500507245e-01
-6.976055913589673807e-01
-7.613342939238023632e-01
6.932700334909567275e-01
-6.515119067557337829e-01
7.249398114441523155e-01
6.088947202813930204e-01
4.045905542160022073e-01
-7.229927518649870155e-01
9.271013070761298103e-01
-4.800614963689309178e-02
-7.683603891403971708e-01
5.547794117042315065e-01
-2.467312649181825357e-01
-8.144750846046202586e-01
-7.073128222187707870e-01
2.352129973258323403e-01
-1.561465251820655098e-01
2.970881288392734909e-01
3.252122522054128329e-01
9.849282758470270238e-01
8.589790245821049552e-01
6.035208603206152489e-01
2.761352698526160498e-01
1.436810718028045386e-01
-5.358888888067521172e-01
-2.456445930067447936e-01
-5.715369279872823949e-01
-2.755128191995948050e-02
-1.264584044550287611e-01
8.765627718102173560e-01
8.836649587410194684e-01
3.247655005542346984e-01
-5.081082538834154061e-01
-7.995686478624108862e-01
-2.298207752793088865e-01
-1.892970206162127855e-01
8.124261884049226445e-01
-9.956240639513416202e-01
4.225992825167457223e-01
-7.927851029537800187e-01
7.701982961976452380e-01
1.556275066506516147e-01
-1.206803950848958085e-01
-7.715617759492541250e-01
-9.339077284428971559e-01
-2.285506006609754337e-01
7.501482016363190120e-01
-2.177434463375336193e-01
-3.052377498117546661e-01
-4.199414755760948470e-01
-1.770734928102128958e-01
-3.573236138015314367e-01
2.508317355180351704e-01
-6.446910467085054108e-01
2.326536693788958665e-01
-9.758430195679677066e-01
-5.178827178841667322e-01
9.508039071949276888e-01
-2.476268489736581646e-01
-7.548794883016913815e-01
-9.809859769309263733e-01
6.467256542224975036e-01
7.011598462941526222e-01
1.029469021784321647e-01
-6.613256414327137733e-01
-1.346791042734560850e-01
2.897566493737884219e-01
6.173354165491489187e-01
9.873858464705798088e-01
-8.667818374554900895e-01
5.413608284259252557e-02
2.677268059013309109e-01
-3.589242520545050663e-01
-5.278859967128990416e-01
7.299339786436775945e-01
-3.516728310425865089e-02
-9.935193559388835194e-01
6.034748267902703134e-01
1.701091347458218994e-01
-2.993059924190515364e-01
7.384840948207134215e-01
5.142537307360106613e-01
2.179207005380479067e-01
-7.323715828459085309e-01
5.450462766515600244e-01
9.300510693384949068e-01
8.858730700330204044e-01
7.730455099262858454e-01
2.537191059607457611e-01
