9.361485340121178389e-01
2.867460410245092906e-01
-5.981813105036817291e-01
-9.727381409621718156e-01
-8.096603506033677178e-01
-8.030931299484345143e-01
2.511748849866428657e-01
-7.362424315398095054e-01
7.182008811390687697e-01
4.463829373975687353e-01
9.261611523758168651e-01
8.839177380855600674e-02
5.859828696407829440e-01
6.222293550367130610e-01
9.748841002704975445e-01
-4.977087053040434306e-01
2.283182514543464769e-01
7.277387268805899367e-01
8.859264743642976114e-01
4.656017241963779085e-01
-6.859536506048695692e-01
2.276544342254815945e-02
-5.007763817889929747e-01
8.575966748934389372e-01
8.107974858594508838e-01
-1.255669106623003017e-03
-6.938036301158692076e-01
2.911144417671616136e-01
1.083606496770908034e-01
1.168297982150983128e-01
-4.946641071045108085e-01
6.124703376739257799e-01
4.123866783157241755e-01
6.262171395725857348e-01
-1.211261039766589054e-01
1.780705195463079260e-01
-9.841241448886521859e-01
7.656013772688088359e-01
-4.537225385548868672e-01
-3.498727906148817457e-01
7.028691078720228358e-01
-6.079181493507181955e-01
-8.226118038060259430e-01
2.464132789704978066e-01
-3.979475451492486826e-01
-4.775427124532867218e-01
-9.796364286308594238e-01
-6.885942444209587343e-01
-7.389722523433455148e-01
1.140598582656404680e-01
6.350183898399788252e-01
-6.898698642788749780e-01
5.752615297249983328e-01
2.912576707447933622e-01
8.517019579556799336e-01
-2.979203325346846398e-01
6.669116958903265058e-03
3.317971212960406646e-01
-4.341412977588061661e-01
-5.131770251453073861e-01
-4.760635618166100258e-01
9.502988374230785240e-01
5.664461545997672154e-01
-9.675662906376241157e-01
-3.209333612498539434e-01
2.912716040214893276e-01
-5.425475409595104104e-02
2.008786107302049651e-01
4.927476748147023855e-01
-5.863378525145870324e-01
8.909044890153958729e-01
-2.211359377179964447e-01
-2.158378356650467733e-01
-4.245198134713237259e-01
-1.955624428226410139e-02
-4.671117373388655736e-03
-6.960330830815639747e-01
-6.236493937505542817e-01
7.947067035382835432e-01
-5.246707455505239537e-02
-8.591460442787877128e-01
-6.156094499563715683e-01
5.975741070605378180e-01
3.481847670636932790e-01
-1.345671304629276754e-01
5.232629318988031297e-01
5.945606250254671377e-01
1.909030958792761190e-01
-8.153068536794398913e-01
4.784486898091322438e-02
9.543153341315524507e-02
8.897191349579800512e-01
-1.334732313630362377e-01
8.430284320856129554e-02
2.401169980643946822e-02
-8.171564373970214845e-01
-2.072978363311386296e-01
-3.222612864865426197e-02
9.398456726683912521e-02
-7.694569889081011027e-01
8.784214594129911013e-01
-8.122027868345325086e-01
6.012106093879616697e-01
9.634129679601168839e-01
-1.771866348136965641e-01
-6.557970346563675168e-01
9.444112940447024762e-02
4.136586146266338915e-01
9.418712936589757057e-01
3.287221649677494195e-01
-1.873810619371996111e-02
6.185088508208083091e-01
9.361950375169012517e-01
4.841691575444628803e-01
8.282313148587276963e-01
3.326787978589840211e-01
3.664780255300801315e-01
-9.188056314905068689e-02
6.572815830721681074e-01
8.359174960445092673e-01
5.506546912885110778e-01
3.908877447070273625e-01
-7.738966236238693508e-01
5.278329961345886723e-01
-7.994511367989691752e-01
-4.321007007071830941e-01
9.943311873373898990e-01
9.730256270108861294e-02
6.773914366552922228e-01
5.477829748623663786e-01
-4.868495358241877735e-01
-5.790261507355582982e-01
3.149396736047194167e-01
6.065075879575037021e-01
9.413448181774048962e-01
9.783327360865516908e-01
6.224820774328747586e-01
-1.337951343254439873e-01
5.464322176695630695e-01
7.919105195872404579e-01
-8.628804865419841263e-01
3.430411296525670561e-01
6.309167571647953388e-01
8.730952024192450978e-01
9.042738540767250033e-01
-7.609868417737741808e-01
-6.831320351797018908e-01
1.266470978023583882e-01
-6.948055857774952937e-01
5.543950947089579806e-01
-6.715207242930931741e-01
6.705788225311075657e-01
1.443129496505439757e-01
-7.040484580176142870e-03
-1.803842525670318331e-02
-8.971060356084004095e-01
-9.332706152628773566e-01
3.551296690448393356e-01
-9.838099342284234439e-01
2.744584165270076426e-01
-9.132599584912513002e-01
6.575173859368144136e-01
-5.973299219720540343e-01
-5.694821954147508691e-01
-4.240675988111897166e-01
4.051745188507676065e-01
-3.655542855832250027e-02
-1.904843687414303766e-02
7.992363534324946617e-01
4.373000876351471611e-01
-4.909570736818080761e-01
5.664425753116768547e-01
-2.835851329718050984e-01
-5.757351082606607662e-01
9.099911358834764652e-01
6.178920150246467458e-01
-5.987343437095318244e-01
7.512978300034287571e-01
-4.668001204795761971e-01
4.821239169177495842e-01
8.558473887723603291e-01
4.527648627282223615e-01
-7.125690772230099945e-01
5.011901699000387289e-01
6.497412583046346946e-01
5.972927857187073641e-01
-8.443655009351687113e-01
8.054848193397643463e-01
7.113333932006371541e-02
6.199808040706495937e-01
-2.981858340727612244e-01
3.527500696290464255e-01
8.743122523460151729e-01
-6.521327876574065652e-01
-7.067158049071653458e-01
-5.974835808425220662e-01
6.318083817367465826e-01
-6.620339065149827285e-02
-4.626896843123888825e-01
-9.763347468237864035e-01
-8.110019883188108736e-01
-6.789276822073042617e-02
-9.297776138216169439e-01
-2.096815854922673417e-02
-7.974716601599984855e-03
-3.869399570115414910e-01
-4.929261715789774456e-01
-5.440322480757018297e-01
-5.549837893521574195e-01
2.565745122457387950e-01
-2.330451767299328569e-01
-9.086131280516467346e-01
-3.680326075925950402e-01
2.260774367584637012e-01
3.180603778848238861e-01
7.420541958293958018e-02
6.324467851055128875e-01
-6.873468137357086061e-01
5.984648068134585941e-01
-9.669498400222160672e-01
-3.555753014756612984e-01
9.221617274433930866e-01
4.348577095756862576e-01
-1.928694450823837947e-01
2.160964272332228653e-01
-6.448395280946455088e-01
5.873195205733861002e-02
1.076193284235853476e-01
6.910807328155765816e-02
4.472102166181555205e-01
-7.859996462152449848e-01
-2.754637401323032364e-01
-2.838066359043707187e-01
-1.929890239419418396e-01
-4.652761605537216738e-01
-7.006353748399181125e-01
-5.830972339235103163e-01
8.763232584960731764e-01
4.709287238402481979e-01
-5.803475368745207863e-01
-7.256747458668384443e-01
9.883535717568074919e-01
-1.012378731763248219e-01
8.267772598551439422e-01
5.151616012107855802e-01
-1.416977620343939925e-01
2.294870537720594683e-02
8.167045949878031230e-01
-3.836663745303532380e-01
-8.024928064659175853e-01
-8.372309774768138535e-01
1.287456057112001950e-01
6.923227034096459676e-01
8.562701825995395755e-01
6.556296672788479718e-01
6.894381100411552943e-01
-3.220395699708071824e-01
8.229441317658237054e-02
9.470487659926201118e-01
-5.804208194372710850e-01
8.740793002326472383e-01
-1.369431060271797396e-01
8.825120081425970042e-01
7.343886959873646703e-02
1.728780824956175355e-01
