-1.606636905685321359e-01
-2.918250179036179226e-01
-7.982025294461667642e-01
9.973355007661204308e-01
-9.917969508608908136e-01
-4.949474207704129824e-02
-9.849207054524455884e-02
-2.864715752979494212e-01
9.753556157289136053e-01
-3.483983097529717021e-01
-2.626242223405002019e-01
-9.946187273418483077e-01
-1.237249090983840727e-01
-4.024418764683668215e-02
-8.030878294292387309e-03
-2.007242982509069851e-01
4.322686300686005012e-01
-2.259904386617037630e-01
-6.820726163736465786e-01
8.506245128620963936e-01
-5.572483919070920777e-01
8.817777890686477882e-01
-1.356219980500488198e-01
-2.232965403983482311e-01
8.207318908227321241e-01
5.932782469700348393e-01
5.659227997582820802e-01
9.407429394283552959e-01
-6.160544630299229496e-01
9.730286209852141432e-01
9.670904239410269554e-01
-5.072134061463040577e-01
7.916822108826853110e-01
5.342033853640781871e-01
5.590429661612164036e-01
-5.995631070699090071e-01
8.177603925706766752e-01
3.947107403227314570e-01
5.645817389277143494e-01
6.308946714793854937e-01
6.879513887036434738e-01
-4.243077689732914770e-01
4.643138738799610366e-01
7.735018419959183156e-02
7.964656595683778928e-01
-2.560440343871610569e-01
-2.560708611616600017e-01
-4.629719349912158055e-01
7.804113522870772535e-01
-2.386385762125959875e-01
-1.567840199049379546e-01
-4.326348804918762614e-01
2.375282344528724110e-01
-3.624869631674036974e-01
-7.477584170506084149e-01
-3.810793604999000994e-01
-4.533919725752966201e-02
5.732526656805689846e-01
-5.484339293519284730e-01
-3.040675939190515820e-01
7.610675450896304817e-01
-8.793306140394285819e-02
-3.591161315584885383e-01
2.050831460883930646e-01
1.327679604602947094e-01
7.418393844163020390e-01
-3.751457683822387867e-01
-5.349231954225655006e-01
-5.245679630333637267e-01
2.153222814791044826e-02
-8.741470652383827034e-01
-3.332493818596677926e-01
4.864027307634377628e-02
-8.124172433948095851e-01
-6.909107479269684937e-01
9.965029472531667931e-01
3.384007017580530352e-01
-5.532198241640322589e-01
-9.221293370104310938e-01
-3.185767818443308030e-02
-4.415527731487938201e-01
-2.116542311167288748e-01
-4.349532356568341918e-02
3.915284187899170654e-02
2.805198161152118175e-01
6.379669479851728386e-01
-2.645650378603199293e-01
-2.661564151003232848e-01
1.188330682598910393e-01
-8.558139029395928077e-02
7.128717457914657274e-02
-8.532334339726865835e-01
-8.567259594768832365e-01
6.609047310869700098e-01
3.989119549201201043e-01
-1.665519356994960010e-01
5.431033082081964114e-01
-6.653680522267704234e-01
3.195773198206040000e-01
-8.297142148609339962e-01
7.321998880867492954e-01
4.977841161325606834e-01
-7.589340653825171756e-01
-1.420973317803042590e-01
-8.666967557010707424e-02
-3.820291663840857943e-01
-7.153309760561543662e-01
-7.381167525645797589e-01
-8.761924426625298246e-01
-2.937641418003136273e-01
8.011840277497350726e-02
-3.830045780607971295e-03
-5.859468225431996302e-01
3.694138786792184881e-01
6.571997475018829249e-01
3.891271236762401386e-01
9.236687779621592931e-01
-5.263577326044559523e-01
-7.376336525257936039e-01
-2.660794893436986275e-01
5.019118197612451038e-01
6.634149808337519438e-01
3.849213698120728111e-01
-8.548329515700960890e-01
4.231331671821954021e-01
4.913445358153847309e-01
-2.651842818149905412e-01
2.620754352598930748e-01
-8.315063822252308778e-01
-6.935842065450705807e-01
2.364889572510218141e-01
7.131658417562198871e-01
-5.335700378440333402e-01
-7.195957868635627364e-02
-9.116285867973403789e-01
7.798732582571721306e-01
-5.226889985055747090e-01
-7.730275127414065750e-02
1.397960543131258060e-01
9.798873048128171614e-01
-2.183472748593577872e-01
2.236657811416336017e-01
-7.037469860710861003e-01
7.154269205553047684e-01
-1.453621277830325909e-01
3.716207804205491350e-01
5.926961192143669344e-01
2.851085823212313741e-01
3.644777241228116527e-01
8.196390746034252217e-01
-6.677568600435002111e-01
-9.002342835540566579e-01
-2.642013645294456481e-01
3.719665922768515820e-01
1.549214726236993744e-01
-3.838708777452111143e-01
-5.834568498634218336e-02
7.612403347027640876e-02
-7.701391406848516752e-01
-7.097922387018507084e-01
-8.808632388189596707e-01
-2.969308705192033049e-01
3.855429300233614853e-02
9.372682421417368737e-01
4.360239886298176160e-01
-8.791025419280109610e-01
-9.033941283260897848e-01
-4.017639142304765265e-01
3.296976335993115903e-01
8.255590552610363453e-01
-8.711676143027282659e-01
-4.562235189930272661e-01
-6.179429310547281951e-01
-5.690435162734901464e-01
-9.585053891079509114e-02
6.989265997144074039e-01
-2.985518932781636714e-01
-9.856832750122606068e-01
-9.768479979132074220e-01
4.426741498628272709e-01
-2.448827748527118153e-01
8.380801794354382217e-01
-8.350661742350657946e-01
-5.508233827161952423e-01
8.404525438131498216e-01
5.806292382083828585e-01
-1.012828327673598316e-02
-3.040754221817700831e-01
-1.782285455371059868e-01
5.503110609128900599e-01
4.734488581784779271e-01
-6.583417022119928408e-01
9.569235649343230676e-01
-4.273398092203444243e-01
-3.381706950105807241e-01
4.734554649671469662e-01
5.405172412051182373e-01
5.364190676796178892e-01
-1.790727555556519413e-01
-7.748039337063405974e-01
-2.996107169715824803e-01
8.817542877033224258e-01
6.697840794245486506e-01
-9.253449316061392871e-01
1.238144854309863874e-01
6.264790125019508160e-01
6.798343469784415838e-01
-3.891089993340335340e-01
6.570267993728589051e-01
-1.312245566758660775e-01
-8.318997044221694281e-01
5.061967066529682313e-02
-6.304644071531462224e-02
5.027289821051930119e-01
7.272587327058026574e-01
-3.737174149440012361e-01
-2.556344045833074397e-01
8.987217554138737796e-01
-4.644138839008529196e-01
7.560978179119390852e-01
1.943924731332340450e-01
-7.094178694533972429e-01
7.146595715340557931e-01
-5.320000191531053524e-01
-8.586447756550239507e-01
6.159207924263838674e-01
-9.190082114181201689e-01
-7.148150439920013532e-01
-8.637196867199359307e-01
-7.900210440672819079e-01
5.334852135192780231e-01
-9.587008420268081643e-01
7.827824293068705863e-01
-2.157888619150838405e-01
-1.650390001897223957e-01
-9.639991410151291795e-01
3.126122529886083967e-01
9.567192042554619746e-01
6.098648557101040701e-01
2.647934359853181263e-01
2.141113548904600705e-01
1.146510888344551837e-01
8.218089075900114615e-01
9.492208026201347515e-01
6.845365541304446744e-01
-9.198869176053570129e-02
2.889445167930970726e-02
4.835143815421778513e-01
1.178743081805353476e-01
7.143211593910687718e-01
7.661191309250101611e-01
-4.997625465436530412e-01
5.676310060962590498e-01
9.722251511166866145e-01
6.408464607784409850e-01
-6.304368742962576100e-01
-6.410736308261260064e-01
2.943185508685270957e-01
-9.088740204932483913e-01
9.346117939413898235e-01
8.191709494009185022e-01
7.183841344901287229e-01
9.807174293778979646e-01
8.025624134836344403e-01
4.756373302690306559e-01
