17.617797227463416,0.055633787662205725,0.4255268269854966,0.7506958217057136,-0.6187812508956072,0.9596315308032519,0.25111910318834796,0.13103747521673648,-0.5113427500469161,-0.31127907004363586,-0.1524658512632835,-0.97107974896309,0.24465321609254764,-0.8352188571455639,-0.2875781478396189,-0.014776094811138396,-0.32716974859012615,-0.18503975907838188,0.460003916098884,-0.8550102695371751,-0.48981624665019496,0.5195590887689265,0.88759173639067,0.6492470965413266,0.20627301152521604,-0.9345101848185804,-0.9279639530908563,-0.7560087837762757,-0.7118659676126313,0.30526177867679194,0.626099641802466,-0.37811067840418544,-0.643604758627969,-0.5235624805315566,-0.9887558310265461,-0.10388901868825662,-0.9481065790776779,0.40805819244795494,-0.18581044262821655,-0.5444987377661139,-0.7738800569410382,-0.05063361917206688,0.8630384243956399,-0.4989337403453564,-0.8789057560648443,-0.4188574497384874,-0.556141025799711,0.989296313348967,0.202297154513158,0.3152569766265958,-0.882902365659469,-0.8570770203467921,0.4954709944496656,0.5327182758234317,0.5831535685425691,0.9906002255364799,-0.9660131269365153,0.10013648754632998,0.8952280259156944,0.36430901044313435,0.9291871417307602,-0.7094074633816518,-0.8825447889151008,0.7220558438607416,0.892306997673687,0.3894191002833698,0.7152508825270565,0.0729771925461884,-0.6449485515399505,0.44687572311874946,0.8376814546220941,-0.19006371747024753,0.3979744772710727,-0.7301162477393079,-0.5160934426660404,0.24519164387926962,0.630141410191746,0.16997366000845004,0.9586021381869492,0.8819733807939072,-0.6079176520151262,0.10813540517085407,0.6349612965476497,0.4683546076966061,-0.1695732214802783,-0.05101820512925581,-0.34154372418266044,0.051542106489870676,0.600352204264601,-0.29977165151975127,-0.741936319462029,0.8755869108716043,-0.7586985100171739,-0.9886210341218948,-0.4692403693888527,0.12688645407827215,0.32779449332498367,-0.7072873848291774,0.5410722408645849,0.5970765011463495,-0.5165023052763849,0.48648223942033497,0.9190506279759219,0.7655912217761811,-0.7135815494872495,0.9539437171952136,-0.3638984233343374,-0.8841975876300816,0.14884786613572598,-0.3983327235553247,0.7192173885791486,0.8011356986055349,0.11073342431730038,-0.6673082783300044,0.7974628573352451,-0.30089642488053014,0.014346086965105309,0.031692889033877014,-0.6867238015295998,0.5816646908644931,0.6544022952706812,-0.6017665653084372,-0.6209177646432558,0.5827071818936793,-0.5006468803475048,0.32675035594624124,-0.12413224672874934,0.8648360149384384,0.3689494727807805,-0.11746265189727945,0.3927956689553609,0.15247929452635312,-0.8144039930270273,0.5475721967053795,0.6982544397994861,0.6204492684564578,-0.2081118077516546,0.15127567808915776,-0.05660380299950285,-0.4290440987669424,0.6046212102485484,-0.5457112516971425,0.7093796840474897,0.0921657166017491,-0.9138260671478868,-0.8321944414084117,-0.19562527592915147,-0.011288737449393738,-0.6910925339201079,0.5969456186708575,0.6120596477458613,0.5485417095464291,-0.2987263759112282,-0.35669473371680693,-0.12028967124920453,0.7890019051673542,0.8634829207995081,-0.41531159732032497,0.7375137707143598,0.2811686478577293,0.8538204487694456,0.9268818767309537,0.8049079573497568,0.9693686002706359,0.33705212353619296,0.9568762568938627,0.730723406374669,0.7825881195005142,-0.28341680774597844,-0.49744335879825186,0.532199253139295,-0.8006984630440783,-0.8678151260372593,-0.6947886160259698,-0.2224646990150967,0.6071990644170764,0.03222053036046724,0.08498881938735625,-0.8121552644014316,0.6653841659112758,-0.7649907022737876,0.23926861263852728,0.38415222909903113,0.05747797013610989,-0.2513738478667098,-0.6690896198680656,-0.6101551012734767,-0.32132367223605907,0.8820505241091283,0.37167191070299244,0.04481559958258141,-0.05027980621701911,0.14359888539072352,0.1057427628145089,0.9051454887387829,-0.39661463495379157,-0.7151388121527165,-0.8134268802200351,0.6606765594590946,-0.7389743510889719,0.3979981591838344,-0.18155126465236116,0.6890616299227779,0.2826621608672917,0.20259160242149044,-0.20898901365170408,-0.8349028682684323,-0.41948908090537307,-0.7716948535449981,-0.61867207790934,-0.4074968956696241,-0.40222942356720237,-0.7115504247321656,-0.17305768132594146,-0.6659700309887635,0.1725557125665187,0.9249311081015059,-0.30985962000322376,0.8565164282141624,0.6340424525203048,-0.2872724231179171,0.12115540662706392,-0.8172673549260505,-0.8672022920626188,-0.2861097961582837,0.4174850573380764,-0.20743537026436298,0.12065198080135642,0.4327084733014226,0.7272912009261852,0.676071205446912,0.6489728399006747,0.17402555051581858,0.731355051811422,-0.4062635332661364,-0.9458940624554082,-0.05187653566968464,-0.9118573161242385,0.3087932497395145,-0.39388276357298113,0.1751023517492165,0.2132913422332865,0.22694053940557612,0.20707869155718872,0.09617844582115276,0.5165048178562202,0.17064351259126864,0.3387570481298996,-0.3247439348721348,-0.2669883544488689,-0.7941444570168232,-0.5165628662623172,0.022870848206520966,0.9488574153191167,-0.1057449977490601,-0.6344686434658402,0.08423779711278967,0.16644381990946022,0.2305544827175081,0.7893707158829335,-0.9702064878651822,-0.6027867931543485,0.7633128105161329,-0.3095317456387796,-0.0924598545991484,0.23711544266318074
17.617797227463416,0.055633787662205725,0.4255268269854966,0.7506958217057136,-0.6187812508956072,0.9596315308032519,0.25111910318834796,0.13103747521673648,-0.5113427500469161,-0.31127907004363586,-0.1524658512632835,-0.97107974896309,0.24465321609254764,-0.8352188571455639,-0.2875781478396189,-0.014776094811138396,-0.32716974859012615,-0.18503975907838188,0.460003916098884,-0.8550102695371751,-0.48981624665019496,0.5195590887689265,0.88759173639067,0.6492470965413266,0.20627301152521604,-0.9345101848185804,-0.9279639530908563,-0.7560087837762757,-0.7118659676126313,0.30526177867679194,0.626099641802466,-0.37811067840418544,-0.643604758627969,-0.5235624805315566,-0.9887558310265461,-0.10388901868825662,-0.9481065790776779,0.40805819244795494,-0.18581044262821655,-0.5444987377661139,-0.7738800569410382,-0.05063361917206688,0.8630384243956399,-0.4989337403453564,-0.8789057560648443,-0.4188574497384874,-0.556141025799711,0.989296313348967,0.202297154513158,0.3152569766265958,-0.882902365659469,-0.8570770203467921,0.4954709944496656,0.5327182758234317,0.5831535685425691,0.9906002255364799,-0.9660131269365153,0.10013648754632998,0.8952280259156944,0.36430901044313435,0.9291871417307602,-0.7094074633816518,-0.8825447889151008,0.7220558438607416,0.892306997673687,0.3894191002833698,0.7152508825270565,0.0729771925461884,-0.6449485515399505,0.44687572311874946,0.8376814546220941,-0.19006371747024753,0.3979744772710727,-0.7301162477393079,-0.5160934426660404,0.24519164387926962,0.630141410191746,0.16997366000845004,0.9586021381869492,0.8819733807939072,-0.6079176520151262,0.10813540517085407,0.6349612965476497,0.4683546076966061,-0.1695732214802783,-0.05101820512925581,-0.34154372418266044,0.051542106489870676,0.600352204264601,-0.29977165151975127,-0.741936319462029,0.8755869108716043,-0.7586985100171739,-0.9886210341218948,-0.4692403693888527,0.12688645407827215,0.32779449332498367,-0.7072873848291774,0.5410722408645849,0.5970765011463495,-0.5165023052763849,0.48648223942033497,0.9190506279759219,0.7655912217761811,-0.7135815494872495,0.9539437171952136,-0.3638984233343374,-0.8841975876300816,0.14884786613572598,-0.3983327235553247,0.7192173885791486,0.8011356986055349,0.11073342431730038,-0.6673082783300044,0.7974628573352451,-0.30089642488053014,0.014346086965105309,0.031692889033877014,-0.6867238015295998,0.5816646908644931,0.6544022952706812,-0.6017665653084372,-0.6209177646432558,0.5827071818936793,-0.5006468803475048,0.32675035594624124,-0.12413224672874934,0.8648360149384384,0.3689494727807805,-0.11746265189727945,0.3927956689553609,0.15247929452635312,-0.8144039930270273,0.5475721967053795,0.6982544397994861,0.6204492684564578,-0.2081118077516546,0.15127567808915776,-0.05660380299950285,-0.4290440987669424,0.6046212102485484,-0.5457112516971425,0.7093796840474897,0.0921657166017491,-0.9138260671478868,-0.8321944414084117,-0.19562527592915147,-0.011288737449393738,-0.6910925339201079,0.5969456186708575,0.6120596477458613,0.5485417095464291,-0.2987263759112282,-0.35669473371680693,-0.12028967124920453,0.7890019051673542,0.8634829207995081,-0.41531159732032497,0.7375137707143598,0.2811686478577293,0.8538204487694456,0.9268818767309537,0.8049079573497568,0.9693686002706359,0.33705212353619296,0.9568762568938627,0.730723406374669,0.7825881195005142,-0.28341680774597844,-0.49744335879825186,0.532199253139295,-0.8006984630440783,-0.8678151260372593,-0.6947886160259698,-0.2224646990150967,0.6071990644170764,0.03222053036046724,0.08498881938735625,-0.8121552644014316,0.6653841659112758,-0.7649907022737876,0.23926861263852728,0.38415222909903113,0.05747797013610989,-0.2513738478667098,-0.6690896198680656,-0.6101551012734767,-0.32132367223605907,0.8820505241091283,0.37167191070299244,0.04481559958258141,-0.05027980621701911,0.14359888539072352,0.1057427628145089,0.9051454887387829,-0.39661463495379157,-0.7151388121527165,-0.8134268802200351,0.6606765594590946,-0.7389743510889719,0.3979981591838344,-0.18155126465236116,0.6890616299227779,0.2826621608672917,0.20259160242149044,-0.20898901365170408,-0.8349028682684323,-0.41948908090537307,-0.7716948535449981,-0.61867207790934,-0.4074968956696241,-0.40222942356720237,-0.7115504247321656,-0.17305768132594146,-0.6659700309887635,0.1725557125665187,0.9249311081015059,-0.30985962000322376,0.8565164282141624,0.6340424525203048,-0.2872724231179171,0.12115540662706392,-0.8172673549260505,-0.8672022920626188,-0.2861097961582837,0.4174850573380764,-0.20743537026436298,0.12065198080135642,0.4327084733014226,0.7272912009261852,0.676071205446912,0.6489728399006747,0.17402555051581858,0.731355051811422,-0.4062635332661364,-0.9458940624554082,-0.05187653566968464,-0.9118573161242385,0.3087932497395145,-0.39388276357298113,0.1751023517492165,0.2132913422332865,0.22694053940557612,0.20707869155718872,0.09617844582115276,0.5165048178562202,0.17064351259126864,0.3387570481298996,-0.3247439348721348,-0.2669883544488689,-0.7941444570168232,-0.5165628662623172,0.022870848206520966,0.9488574153191167,-0.1057449977490601,-0.6344686434658402,0.08423779711278967,0.16644381990946022,0.2305544827175081,0.7893707158829335,-0.9702064878651822,-0.6027867931543485,0.7633128105161329,-0.3095317456387796,-0.0924598545991484,0.23711544266318074
17.617797227463416,0.055633787662205725,0.4255268269854966,0.7506958217057136,-0.6187812508956072,0.9596315308032519,0.25111910318834796,0.13103747521673648,-0.5113427500469161,-0.31127907004363586,-0.1524658512632835,-0.97107974896309,0.24465321609254764,-0.8352188571455639,-0.2875781478396189,-0.014776094811138396,-0.32716974859012615,-0.18503975907838188,0.460003916098884,-0.8550102695371751,-0.48981624665019496,0.5195590887689265,0.88759173639067,0.6492470965413266,0.20627301152521604,-0.9345101848185804,-0.9279639530908563,-0.7560087837762757,-0.7118659676126313,0.30526177867679194,0.626099641802466,-0.37811067840418544,-0.643604758627969,-0.5235624805315566,-0.9887558310265461,-0.10388901868825662,-0.9481065790776779,0.40805819244795494,-0.18581044262821655,-0.5444987377661139,-0.7738800569410382,-0.05063361917206688,0.8630384243956399,-0.4989337403453564,-0.8789057560648443,-0.4188574497384874,-0.556141025799711,0.989296313348967,0.202297154513158,0.3152569766265958,-0.882902365659469,-0.8570770203467921,0.4954709944496656,0.5327182758234317,0.5831535685425691,0.9906002255364799,-0.9660131269365153,0.10013648754632998,0.8952280259156944,0.36430901044313435,0.9291871417307602,-0.7094074633816518,-0.8825447889151008,0.7220558438607416,0.892306997673687,0.3894191002833698,0.7152508825270565,0.0729771925461884,-0.6449485515399505,0.44687572311874946,0.8376814546220941,-0.19006371747024753,0.3979744772710727,-0.7301162477393079,-0.5160934426660404,0.24519164387926962,0.630141410191746,0.16997366000845004,0.9586021381869492,0.8819733807939072,-0.6079176520151262,0.10813540517085407,0.6349612965476497,0.4683546076966061,-0.1695732214802783,-0.05101820512925581,-0.34154372418266044,0.051542106489870676,0.600352204264601,-0.29977165151975127,-0.741936319462029,0.8755869108716043,-0.7586985100171739,-0.9886210341218948,-0.4692403693888527,0.12688645407827215,0.32779449332498367,-0.7072873848291774,0.5410722408645849,0.5970765011463495,-0.5165023052763849,0.48648223942033497,0.9190506279759219,0.7655912217761811,-0.7135815494872495,0.9539437171952136,-0.3638984233343374,-0.8841975876300816,0.14884786613572598,-0.3983327235553247,0.7192173885791486,0.8011356986055349,0.11073342431730038,-0.6673082783300044,0.7974628573352451,-0.30089642488053014,0.014346086965105309,0.031692889033877014,-0.6867238015295998,0.5816646908644931,0.6544022952706812,-0.6017665653084372,-0.6209177646432558,0.5827071818936793,-0.5006468803475048,0.32675035594624124,-0.12413224672874934,0.8648360149384384,0.3689494727807805,-0.11746265189727945,0.3927956689553609,0.15247929452635312,-0.8144039930270273,0.5475721967053795,0.6982544397994861,0.6204492684564578,-0.2081118077516546,0.15127567808915776,-0.05660380299950285,-0.4290440987669424,0.6046212102485484,-0.5457112516971425,0.7093796840474897,0.0921657166017491,-0.9138260671478868,-0.8321944414084117,-0.19562527592915147,-0.011288737449393738,-0.6910925339201079,0.5969456186708575,0.6120596477458613,0.5485417095464291,-0.2987263759112282,-0.35669473371680693,-0.12028967124920453,0.7890019051673542,0.8634829207995081,-0.41531159732032497,0.7375137707143598,0.2811686478577293,0.8538204487694456,0.9268818767309537,0.8049079573497568,0.9693686002706359,0.33705212353619296,0.9568762568938627,0.730723406374669,0.7825881195005142,-0.28341680774597844,-0.49744335879825186,0.532199253139295,-0.8006984630440783,-0.8678151260372593,-0.6947886160259698,-0.2224646990150967,0.6071990644170764,0.03222053036046724,0.08498881938735625,-0.8121552644014316,0.6653841659112758,-0.7649907022737876,0.23926861263852728,0.38415222909903113,0.05747797013610989,-0.2513738478667098,-0.6690896198680656,-0.6101551012734767,-0.32132367223605907,0.8820505241091283,0.37167191070299244,0.04481559958258141,-0.05027980621701911,0.14359888539072352,0.1057427628145089,0.9051454887387829,-0.39661463495379157,-0.7151388121527165,-0.8134268802200351,0.6606765594590946,-0.7389743510889719,0.3979981591838344,-0.18155126465236116,0.6890616299227779,0.2826621608672917,0.20259160242149044,-0.20898901365170408,-0.8349028682684323,-0.41948908090537307,-0.7716948535449981,-0.61867207790934,-0.4074968956696241,-0.40222942356720237,-0.7115504247321656,-0.17305768132594146,-0.6659700309887635,0.1725557125665187,0.9249311081015059,-0.30985962000322376,0.8565164282141624,0.6340424525203048,-0.2872724231179171,0.12115540662706392,-0.8172673549260505,-0.8672022920626188,-0.2861097961582837,0.4174850573380764,-0.20743537026436298,0.12065198080135642,0.4327084733014226,0.7272912009261852,0.676071205446912,0.6489728399006747,0.17402555051581858,0.731355051811422,-0.4062635332661364,-0.9458940624554082,-0.05187653566968464,-0.9118573161242385,0.3087932497395145,-0.39388276357298113,0.1751023517492165,0.2132913422332865,0.22694053940557612,0.20707869155718872,0.09617844582115276,0.5165048178562202,0.17064351259126864,0.3387570481298996,-0.3247439348721348,-0.2669883544488689,-0.7941444570168232,-0.5165628662623172,0.022870848206520966,0.9488574153191167,-0.1057449977490601,-0.6344686434658402,0.08423779711278967,0.16644381990946022,0.2305544827175081,0.7893707158829335,-0.9702064878651822,-0.6027867931543485,0.7633128105161329,-0.3095317456387796,-0.0924598545991484,0.23711544266318074
18.78560137412903,-0.8521783099180511,-0.6383999248379435,0.9820919441962261,0.5203377503926916,-0.5690389897020753,-0.9843530842058739,0.3250706589981147,0.9898092212985785,0.5638970120622471,-0.632161426879664,-0.8361459850441493,0.42921031510254726,0.9153462598417859,-0.4921924739023853,0.5935601343856312,0.40374041443879993,0.05372929146488281,0.27650329570069476,-0.343866132399141,-0.7211806052754504,-0.7518771067401118,0.9958732787157858,-0.18567234627458795,-0.965523301058409,0.9911406717361928,-0.15325487667234694,0.08049593682487655,-0.9983002751880883,0.23187314061110542,0.6348660699286439,0.10266682446365416,0.07040079937842214,-0.8679926457376286,-0.8578093197959369,-0.1520019294261319,0.40958921889338784,-0.30888210663442917,-0.7922843864850964,-0.08161732013663037,0.5852474312560207,-0.6471839553800707,0.023735573541441513,0.9302309821976549,0.6700778756887267,0.1683825198039104,0.5202066773992966,-0.4998360458329896,-0.718024215711148,-0.7558967058675017,0.11899431400508487,0.9817560170628894,-0.7845803887099012,-0.45839554647124636,-0.2041176828611304,-0.30975741102422183,-0.035067068213940455,0.5103069583656359,-0.3002037993862492,-0.5431605126999608,0.18780662464344267,0.20665472346754976,0.08253621195668459,0.4263647291166692,-0.9403022353613095,-0.22190922467570484,0.6502185555036766,-0.39792841158698833,-0.9338058234006308,0.6671788603831947,-0.9767696177283187,-0.8230478252617401,0.5403280254018517,-0.10843417696921387,-0.44428196944128295,0.8607738654859727,0.8507373905336282,-0.7352937469071097,-0.03148807965215883,0.8581812787454055,0.7434254066541737,-0.8703842718879311,0.8064664135199116,-0.6932651713128732,-0.3117862964337257,0.7357454872154237,0.6417036218079133,-0.8094678804753037,-0.30538504923200027,-0.5506968277854216,0.5532838648817766,-0.964791953220105,-0.36587808978179814,-0.3306987891761435,0.5680690092183318,-0.125123702749234,-0.19287232775981122,-0.8834053932230852,0.6787176877117087,0.8464561677383375,0.7320819856072156,-0.6740085299907996,-0.026264673088570722,-0.5868425768707957,0.3906148265260332,0.28966183738040363,-0.3989479400703526,-0.7115791679297656,-0.5835873560127995,0.9265858227074812,0.9734833479879845,-0.0736243523546547,0.045414481556621755,-0.46941205073813874,-0.09759420835691102,-0.08833507173374233,0.0605771516813316,-0.4491215012214729,-0.4780753496111354,-0.5225703046867487,-0.09737035463469179,0.08832951175732617,-0.1427715887984664,0.061305731291005916,-0.6156618308585697,-0.20173807191323645,-0.0401559157250404,0.09080417687751119,-0.0654804860511844,-0.5587934351353863,0.8864036855697137,-0.12371813144713184,-0.8498248437649161,-0.22183487417612646,-0.8496815176927306,-0.6365102994192064,-0.6569372536408062,-0.29755174056222367,-0.07390802662646578,0.36786003364362374,0.10081859157046491,0.7792039872041991,-0.8467091215896552,0.7576780674399339,-0.2068282134523769,-0.8389278982172854,0.0424812619530317,0.6837309384871089,0.48831166245184643,0.7707913019215911,-0.6306473644978778,0.732315265356789,-0.22371562188158367,0.19108958224470118,-0.19442118058319036,-0.8310260455480405,0.34015182421688905,-0.38753020045217546,0.15203107540372152,0.9779750355325265,0.100994926864862,-0.8992680962615833,0.8923299021278097,0.4031581184536297,0.5294935851613267,-0.8884941471069401,-0.9575902281630189,-0.9630361099072065,-0.534958327196057,0.010854758518962226,0.08491797892478647,-0.75521929200142,-0.9358934344538941,0.6933130880689158,-0.36403154050038244,-0.7120605694754691,0.8597028799349893,-0.22619826502234064,0.23690273805591788,0.08307098489178144,0.0634604784496704,-0.9275864606254236,0.3579653777611931,-0.8123712819371094,-0.050163065581461774,-0.5172159644434038,-0.2942994768962932,0.71124301877642,0.01337025500772504,0.7359408173275344,-0.691496284309544,0.1392997451569462,-0.5826311145627681,0.6358541861461946,0.6582355348153619,0.4736881146173775,0.4239319744723975,0.26438942143477306,-0.09832724466509579,-0.8159989999792414,0.5321165259251734,-0.8754685664859634,-0.06760385136262714,-0.44778123733964037,-0.5232351727270779,-0.16580688898665064,-0.9270026445052943,-0.8874398742107013,0.6109287317774903,0.19625869669593166,-0.9668097005201157,-0.344990112956995,-0.06724012831173587,0.5893021677943846,0.6579468100323904,0.17300865169950885,0.9324323649635582,0.9193182924012666,-0.0040431967661127555,0.8500826999914324,0.2013199416723621,0.3354130832978883,0.15448202994946092,-0.2329415799138963,-0.1304538759842664,0.29795512362070076,-0.6803331138260438,-0.5203703814832465,0.576673808354375,0.40945518836896544,-0.18222411521621362,-0.6355309028174241,0.04631335269075976,-0.9704892617733836,-0.9280608792691976,-0.9740517650685774,0.8750815683102748,-0.36593450463675414,0.9345000559032863,0.9427663666280888,-0.5945675411492348,-0.5328148847613472,-0.0951704195520966,0.8623416053525577,-0.33079780222671906,0.6314463656690126,0.8763406693803506,-0.8260070664289785,0.5591026076957741,-0.34273847252037637,0.6620230994969252,0.49090219021155557,-0.5126085429607805,0.6372165348812415,0.5888091596734399,-0.3259521100973819,-0.23016432861087144,-0.18007211127015377,-0.6234298376799803,-0.5151361993104477,-0.5875483080183539,0.11499680709448357,0.09362008044222758,-0.2958930503937436,-0.165615609908917,0.8482352949556926
30.41509763758836,0.9621509776084607,-0.3329317788922559,-0.22527416595115324,-0.1295682426515159,-0.9544116289866191,-0.3297473575916514,0.640550751860824,-0.8162942936275619,-0.7753939447633655,0.18415553957796704,0.3575566385664539,-0.4745293195048035,0.802772945230005,-0.9453851966010698,-0.2652206631383567,0.1296090724575334,0.8775472598465883,0.038181589946540306,-0.7823606326159556,-0.8849173147603961,0.08146149204637676,-0.9891054638627184,-0.6595823036616659,-0.1816038982464736,0.6694200346634971,0.1679888447382636,0.5689240784367353,0.6785736026663887,-0.8338557484936777,0.8857990063517955,-0.7695558523749786,0.19327205609568665,-0.7992134212635869,-0.8159894076328353,0.34269103999854056,0.8280123317427579,0.7370047194982254,-0.674824819838324,0.26914020822995854,0.17526785143127022,-0.2977119933776071,0.33493406664996783,-0.7500761520466539,-0.3361986472155878,-0.10896420958273811,-0.11338797177532167,-0.12005211411846606,-0.21402307106946816,-0.10608476714220583,-0.39873554591766514,-0.06894619183096817,-0.09769112573169214,-0.21156641982152458,0.017043726203266774,-0.09331914560979637,-0.6460595514118115,-0.060302512766786,0.04011001439635731,0.22830813752549983,0.023768158307310827,0.774182527960809,0.6468721433906215,0.37341700611865836,-0.5812047023345277,-0.7228495907860342,0.07455894386524053,0.50068536663998,0.8092191133383457,0.8248227231760585,-0.6913488441146771,0.39702880170114874,-0.0396881229330166,-0.5303744605800476,0.42028390090294643,0.7800981062441148,0.19405160399071786,-0.7675354994828958,-0.13740187420706507,-0.7749455672819363,0.8127625157411913,-0.5830172610983311,-0.1889750899972249,-0.2112025418857022,0.025195584545050442,-0.11207417723624213,0.8241352500811217,-0.6149995045690055,-0.133707780200919,0.8293958465643936,0.07734986888784157,0.5764330041681409,0.17265383759292074,-0.06182065056915054,0.6436448983577132,-0.3563689395073073,-0.6967804064716696,0.6016262668429357,-0.03903600839309118,0.7301533643474827,-0.672657375901383,0.0101233988393572,0.44565305641173847,0.5956807488405236,0.6746349647706686,0.5768178868430984,0.3766642140107761,0.21475531772962242,0.003015044505847886,-0.2314414462543377,-0.19606188695752236,0.9275043136608065,0.9765269980965152,-0.9794344886166193,0.606365106231121,0.14881416205173958,0.963542791024619,0.587281807748574,-0.2689744611397773,-0.11586823752077113,-0.5827961017733183,0.06671466247175983,0.6127632575030466,0.398202414318523,0.295880710263998,0.5305281474517733,0.58205268034603,0.8944819477821175,0.21175831013783952,-0.010550537642028068,-0.7412995565879559,-0.465270751184391,0.5086652530539217,-0.8348312092046108,-0.046119994865170044,-0.29604292892619966,0.20106292263303693,0.9664912159096819,-0.06275967771230806,0.5980337815301249,-0.05328032846685837,0.9859324591061307,0.19395901342201172,-0.09355885929500207,-0.7963339228746651,-0.8976468290342283,-0.3378387834611838,-0.13918929878221076,0.7748397596150114,0.7876002413189058,0.7842286282980169,0.6479346443325027,-0.003919455016706319,-0.19612748733900798,0.07438560754567991,-0.6640335858102244,-0.696865199240867,-0.866010966433759,-0.7879682037769764,-0.10613553612455706,0.3749718129823627,0.9194379630481346,0.5608636797013566,-0.1927520183656506,-0.4209101324101572,0.5654667194501624,0.034780478417826055,-0.7039734325954035,-0.8344639273122982,0.37639937295224013,-0.7861379175476506,-0.05435638542110777,-0.6550746990292511,-0.5732325710814572,0.7215237988158814,0.8001072886236402,-0.18644083141419543,-0.7168846333126038,0.006199307162813028,0.2881050672990759,-0.033001022099858,-0.6756916822891028,0.10893261591419989,-0.062014616980260895,0.5379988978386265,-0.5457930888543137,-0.5223965632431526,-0.2951359188484768,0.660461775574414,-0.8097947781399397,-0.39219626067087665,-0.7970239990212069,0.21832249523246094,0.3321085286873722,-0.006224016406400912,-0.4527595620135816,-0.12436774027202224,0.8530480667282996,-0.8866495118738145,-0.3505364670560316,-0.06651698740484524,0.5576427576850087,-0.04729912223163568,0.5719939270699728,-0.31631092281079365,0.3683187149548075,0.6393090945365567,0.33257647266546897,-0.8173833423675767,-0.10152422142328632,0.9342610152107234,-0.6159964234392168,0.29839977422769715,-0.5606844707871652,-0.8018301974833901,0.6669745317807709,-0.5509263364897585,-0.9914031470467446,0.18111149367789015,0.3289808202598523,-0.3643618597427982,0.28050320493481773,0.26610438004562575,0.8446161991740575,0.4985978525368153,-0.18069051374817868,0.7717998393844874,-0.6500569840895696,-0.5893693612458137,-0.9204050931625263,0.03277526099829253,-0.2318909970739984,-0.42374663476251895,0.4839943413430807,0.9261472852810191,0.05214616222982538,-0.07886040274862038,0.774270775158602,-0.5657699377237486,-0.36404928251329505,-0.8855100314600244,0.6022983605414403,-0.12661931926451686,-0.5541532083345526,-0.39063852741964356,0.01896571084939369,0.5244170135489068,0.8259713636185004,0.8455531330498409,0.012882803486864658,0.1257961105707852,-0.6295231977569664,0.2019796813134751,-0.5931502183826218,-0.25014758707455,0.33739531731847583,-0.3119793307249692,-0.1495870333953957,0.015796485702297636,-0.042612017815852665,0.7810288106291154,-0.9833153030676658,-0.5584204095296783,0.7618076894122303,0.7880978806193804,0.9694820595359348
30.41509763758836,0.9621509776084607,-0.3329317788922559,-0.22527416595115324,-0.1295682426515159,-0.9544116289866191,-0.3297473575916514,0.640550751860824,-0.8162942936275619,-0.7753939447633655,0.18415553957796704,0.3575566385664539,-0.4745293195048035,0.802772945230005,-0.9453851966010698,-0.2652206631383567,0.1296090724575334,0.8775472598465883,0.038181589946540306,-0.7823606326159556,-0.8849173147603961,0.08146149204637676,-0.9891054638627184,-0.6595823036616659,-0.1816038982464736,0.6694200346634971,0.1679888447382636,0.5689240784367353,0.6785736026663887,-0.8338557484936777,0.8857990063517955,-0.7695558523749786,0.19327205609568665,-0.7992134212635869,-0.8159894076328353,0.34269103999854056,0.8280123317427579,0.7370047194982254,-0.674824819838324,0.26914020822995854,0.17526785143127022,-0.2977119933776071,0.33493406664996783,-0.7500761520466539,-0.3361986472155878,-0.10896420958273811,-0.11338797177532167,-0.12005211411846606,-0.21402307106946816,-0.10608476714220583,-0.39873554591766514,-0.06894619183096817,-0.09769112573169214,-0.21156641982152458,0.017043726203266774,-0.09331914560979637,-0.6460595514118115,-0.060302512766786,0.04011001439635731,0.22830813752549983,0.023768158307310827,0.774182527960809,0.6468721433906215,0.37341700611865836,-0.5812047023345277,-0.7228495907860342,0.07455894386524053,0.50068536663998,0.8092191133383457,0.8248227231760585,-0.6913488441146771,0.39702880170114874,-0.0396881229330166,-0.5303744605800476,0.42028390090294643,0.7800981062441148,0.19405160399071786,-0.7675354994828958,-0.13740187420706507,-0.7749455672819363,0.8127625157411913,-0.5830172610983311,-0.1889750899972249,-0.2112025418857022,0.025195584545050442,-0.11207417723624213,0.8241352500811217,-0.6149995045690055,-0.133707780200919,0.8293958465643936,0.07734986888784157,0.5764330041681409,0.17265383759292074,-0.06182065056915054,0.6436448983577132,-0.3563689395073073,-0.6967804064716696,0.6016262668429357,-0.03903600839309118,0.7301533643474827,-0.672657375901383,0.0101233988393572,0.44565305641173847,0.5956807488405236,0.6746349647706686,0.5768178868430984,0.3766642140107761,0.21475531772962242,0.003015044505847886,-0.2314414462543377,-0.19606188695752236,0.9275043136608065,0.9765269980965152,-0.9794344886166193,0.606365106231121,0.14881416205173958,0.963542791024619,0.587281807748574,-0.2689744611397773,-0.11586823752077113,-0.5827961017733183,0.06671466247175983,0.6127632575030466,0.398202414318523,0.295880710263998,0.5305281474517733,0.58205268034603,0.8944819477821175,0.21175831013783952,-0.010550537642028068,-0.7412995565879559,-0.465270751184391,0.5086652530539217,-0.8348312092046108,-0.046119994865170044,-0.29604292892619966,0.20106292263303693,0.9664912159096819,-0.06275967771230806,0.5980337815301249,-0.05328032846685837,0.9859324591061307,0.19395901342201172,-0.09355885929500207,-0.7963339228746651,-0.8976468290342283,-0.3378387834611838,-0.13918929878221076,0.7748397596150114,0.7876002413189058,0.7842286282980169,0.6479346443325027,-0.003919455016706319,-0.19612748733900798,0.07438560754567991,-0.6640335858102244,-0.696865199240867,-0.866010966433759,-0.7879682037769764,-0.10613553612455706,0.3749718129823627,0.9194379630481346,0.5608636797013566,-0.1927520183656506,-0.4209101324101572,0.5654667194501624,0.034780478417826055,-0.7039734325954035,-0.8344639273122982,0.37639937295224013,-0.7861379175476506,-0.05435638542110777,-0.6550746990292511,-0.5732325710814572,0.7215237988158814,0.8001072886236402,-0.18644083141419543,-0.7168846333126038,0.006199307162813028,0.2881050672990759,-0.033001022099858,-0.6756916822891028,0.10893261591419989,-0.062014616980260895,0.5379988978386265,-0.5457930888543137,-0.5223965632431526,-0.2951359188484768,0.660461775574414,-0.8097947781399397,-0.39219626067087665,-0.7970239990212069,0.21832249523246094,0.3321085286873722,-0.006224016406400912,-0.4527595620135816,-0.12436774027202224,0.8530480667282996,-0.8866495118738145,-0.3505364670560316,-0.06651698740484524,0.5576427576850087,-0.04729912223163568,0.5719939270699728,-0.31631092281079365,0.3683187149548075,0.6393090945365567,0.33257647266546897,-0.8173833423675767,-0.10152422142328632,0.9342610152107234,-0.6159964234392168,0.29839977422769715,-0.5606844707871652,-0.8018301974833901,0.6669745317807709,-0.5509263364897585,-0.9914031470467446,0.18111149367789015,0.3289808202598523,-0.3643618597427982,0.28050320493481773,0.26610438004562575,0.8446161991740575,0.4985978525368153,-0.18069051374817868,0.7717998393844874,-0.6500569840895696,-0.5893693612458137,-0.9204050931625263,0.03277526099829253,-0.2318909970739984,-0.42374663476251895,0.4839943413430807,0.9261472852810191,0.05214616222982538,-0.07886040274862038,0.774270775158602,-0.5657699377237486,-0.36404928251329505,-0.8855100314600244,0.6022983605414403,-0.12661931926451686,-0.5541532083345526,-0.39063852741964356,0.01896571084939369,0.5244170135489068,0.8259713636185004,0.8455531330498409,0.012882803486864658,0.1257961105707852,-0.6295231977569664,0.2019796813134751,-0.5931502183826218,-0.25014758707455,0.33739531731847583,-0.3119793307249692,-0.1495870333953957,0.015796485702297636,-0.042612017815852665,0.7810288106291154,-0.9833153030676658,-0.5584204095296783,0.7618076894122303,0.7880978806193804,0.9694820595359348
28.694141553442424,0.9621509776084607,-0.3329317788922559,-0.22527416595115324,-0.1295682426515159,-0.9544116289866191,-0.3297473575916514,0.640550751860824,-0.8162942936275619,-0.7753939447633655,0.18415553957796704,0.3575566385664539,-0.4745293195048035,-0.08564550078707,-0.9453851966010698,-0.2652206631383567,0.1296090724575334,0.8775472598465883,0.038181589946540306,-0.7823606326159556,-0.8849173147603961,0.08146149204637676,-0.9891054638627184,-0.6595823036616659,-0.1816038982464736,0.6694200346634971,0.1679888447382636,0.5689240784367353,0.6785736026663887,-0.8338557484936777,0.8857990063517955,-0.7695558523749786,0.19327205609568665,-0.7992134212635869,-0.8159894076328353,0.34269103999854056,0.8280123317427579,0.7370047194982254,-0.674824819838324,0.26914020822995854,0.17526785143127022,-0.2977119933776071,0.33493406664996783,-0.7500761520466539,-0.3361986472155878,-0.10896420958273811,-0.11338797177532167,-0.12005211411846606,-0.21402307106946816,-0.10608476714220583,-0.39873554591766514,-0.06894619183096817,-0.09769112573169214,-0.21156641982152458,0.017043726203266774,-0.09331914560979637,-0.6460595514118115,-0.060302512766786,0.04011001439635731,0.22830813752549983,0.023768158307310827,0.774182527960809,0.6468721433906215,0.37341700611865836,0.867193769444814,-0.7228495907860342,-0.5125333617978711,0.08463895819501355,0.8092191133383457,0.8248227231760585,-0.6913488441146771,0.39702880170114874,-0.0396881229330166,-0.5303744605800476,0.42028390090294643,0.7800981062441148,0.19405160399071786,-0.7675354994828958,-0.13740187420706507,-0.7749455672819363,0.8127625157411913,-0.5830172610983311,-0.1889750899972249,-0.2112025418857022,0.03561640449383496,-0.11207417723624213,0.8241352500811217,-0.6149995045690055,-0.133707780200919,0.8293958465643936,0.07734986888784157,0.5764330041681409,0.17265383759292074,-0.06182065056915054,0.6436448983577132,-0.3563689395073073,-0.6967804064716696,0.6016262668429357,-0.03903600839309118,0.7301533643474827,-0.672657375901383,0.0101233988393572,0.44565305641173847,0.5956807488405236,0.6746349647706686,0.5768178868430984,0.3766642140107761,0.21475531772962242,0.003015044505847886,-0.2314414462543377,-0.19606188695752236,0.9275043136608065,0.9765269980965152,-0.9794344886166193,0.606365106231121,0.14881416205173958,0.963542791024619,0.587281807748574,-0.2689744611397773,-0.11586823752077113,-0.5827961017733183,0.06671466247175983,0.6127632575030466,0.398202414318523,0.295880710263998,0.5305281474517733,0.58205268034603,0.8944819477821175,0.21175831013783952,-0.010550537642028068,-0.7412995565879559,-0.465270751184391,0.5086652530539217,-0.8348312092046108,-0.046119994865170044,-0.29604292892619966,0.20106292263303693,0.9664912159096819,-0.06275967771230806,0.5980337815301249,-0.05328032846685837,0.9859324591061307,0.19395901342201172,-0.09355885929500207,-0.7963339228746651,-0.8976468290342283,0.35781859034972374,-0.13918929878221076,0.7748397596150114,0.7876002413189058,0.7842286282980169,0.6479346443325027,-0.003919455016706319,-0.19612748733900798,0.07438560754567991,-0.6640335858102244,-0.696865199240867,-0.866010966433759,-0.7879682037769764,-0.10613553612455706,0.3749718129823627,0.9194379630481346,0.5608636797013566,-0.1927520183656506,-0.4209101324101572,0.5654667194501624,0.034780478417826055,-0.7039734325954035,-0.8344639273122982,0.37639937295224013,-0.7861379175476506,-0.05435638542110777,-0.6550746990292511,-0.5732325710814572,0.7215237988158814,0.8001072886236402,-0.18644083141419543,-0.7168846333126038,0.006199307162813028,0.2881050672990759,-0.033001022099858,-0.6756916822891028,0.10893261591419989,-0.650965999238869,0.5379988978386265,-0.5457930888543137,-0.5223965632431526,-0.2951359188484768,0.660461775574414,-0.8097947781399397,-0.39219626067087665,-0.7970239990212069,0.21832249523246094,0.3321085286873722,-0.006224016406400912,-0.4527595620135816,-0.12436774027202224,0.8530480667282996,-0.8866495118738145,-0.3505364670560316,-0.06651698740484524,0.5576427576850087,-0.04729912223163568,0.5719939270699728,-0.31631092281079365,0.3683187149548075,0.6393090945365567,0.33257647266546897,-0.8173833423675767,-0.10152422142328632,0.9342610152107234,-0.6159964234392168,0.29839977422769715,-0.5606844707871652,-0.8018301974833901,0.6669745317807709,-0.5509263364897585,-0.9914031470467446,0.18111149367789015,0.3289808202598523,-0.3643618597427982,0.28050320493481773,0.26610438004562575,0.8446161991740575,0.4985978525368153,-0.18069051374817868,0.7717998393844874,-0.6500569840895696,-0.5893693612458137,-0.9204050931625263,0.03277526099829253,-0.2318909970739984,-0.42374663476251895,0.4839943413430807,0.9261472852810191,0.05214616222982538,-0.07886040274862038,0.774270775158602,-0.5657699377237486,-0.36404928251329505,-0.854936147920847,0.6022983605414403,-0.12661931926451686,-0.5541532083345526,-0.39063852741964356,0.01896571084939369,0.5244170135489068,0.8259713636185004,0.8455531330498409,0.012882803486864658,0.1257961105707852,-0.6295231977569664,0.2019796813134751,-0.5931502183826218,-0.25014758707455,0.33739531731847583,-0.3119793307249692,-0.1495870333953957,0.015796485702297636,-0.042612017815852665,0.7810288106291154,-0.9833153030676658,-0.5584204095296783,0.7618076894122303,0.7880978806193804,0.9694820595359348
28.694141553442424,0.9621509776084607,-0.3329317788922559,-0.22527416595115324,-0.1295682426515159,-0.9544116289866191,-0.3297473575916514,0.640550751860824,-0.8162942936275619,-0.7753939447633655,0.18415553957796704,0.3575566385664539,-0.4745293195048035,-0.08564550078707,-0.9453851966010698,-0.2652206631383567,0.1296090724575334,0.8775472598465883,0.038181589946540306,-0.7823606326159556,-0.8849173147603961,0.08146149204637676,-0.9891054638627184,-0.6595823036616659,-0.1816038982464736,0.6694200346634971,0.1679888447382636,0.5689240784367353,0.6785736026663887,-0.8338557484936777,0.8857990063517955,-0.7695558523749786,0.19327205609568665,-0.7992134212635869,-0.8159894076328353,0.34269103999854056,0.8280123317427579,0.7370047194982254,-0.674824819838324,0.26914020822995854,0.17526785143127022,-0.2977119933776071,0.33493406664996783,-0.7500761520466539,-0.3361986472155878,-0.10896420958273811,-0.11338797177532167,-0.12005211411846606,-0.21402307106946816,-0.10608476714220583,-0.39873554591766514,-0.06894619183096817,-0.09769112573169214,-0.21156641982152458,0.017043726203266774,-0.09331914560979637,-0.6460595514118115,-0.060302512766786,0.04011001439635731,0.22830813752549983,0.023768158307310827,0.774182527960809,0.6468721433906215,0.37341700611865836,0.867193769444814,-0.7228495907860342,-0.5125333617978711,0.08463895819501355,0.8092191133383457,0.8248227231760585,-0.6913488441146771,0.39702880170114874,-0.0396881229330166,-0.5303744605800476,0.42028390090294643,0.7800981062441148,0.19405160399071786,-0.7675354994828958,-0.13740187420706507,-0.7749455672819363,0.8127625157411913,-0.5830172610983311,-0.1889750899972249,-0.2112025418857022,0.03561640449383496,-0.11207417723624213,0.8241352500811217,-0.6149995045690055,-0.133707780200919,0.8293958465643936,0.07734986888784157,0.5764330041681409,0.17265383759292074,-0.06182065056915054,0.6436448983577132,-0.3563689395073073,-0.6967804064716696,0.6016262668429357,-0.03903600839309118,0.7301533643474827,-0.672657375901383,0.0101233988393572,0.44565305641173847,0.5956807488405236,0.6746349647706686,0.5768178868430984,0.3766642140107761,0.21475531772962242,0.003015044505847886,-0.2314414462543377,-0.19606188695752236,0.9275043136608065,0.9765269980965152,-0.9794344886166193,0.606365106231121,0.14881416205173958,0.963542791024619,0.587281807748574,-0.2689744611397773,-0.11586823752077113,-0.5827961017733183,0.06671466247175983,0.6127632575030466,0.398202414318523,0.295880710263998,0.5305281474517733,0.58205268034603,0.8944819477821175,0.21175831013783952,-0.010550537642028068,-0.7412995565879559,-0.465270751184391,0.5086652530539217,-0.8348312092046108,-0.046119994865170044,-0.29604292892619966,0.20106292263303693,0.9664912159096819,-0.06275967771230806,0.5980337815301249,-0.05328032846685837,0.9859324591061307,0.19395901342201172,-0.09355885929500207,-0.7963339228746651,-0.8976468290342283,0.35781859034972374,-0.13918929878221076,0.7748397596150114,0.7876002413189058,0.7842286282980169,0.6479346443325027,-0.003919455016706319,-0.19612748733900798,0.07438560754567991,-0.6640335858102244,-0.696865199240867,-0.866010966433759,-0.7879682037769764,-0.10613553612455706,0.3749718129823627,0.9194379630481346,0.5608636797013566,-0.1927520183656506,-0.4209101324101572,0.5654667194501624,0.034780478417826055,-0.7039734325954035,-0.8344639273122982,0.37639937295224013,-0.7861379175476506,-0.05435638542110777,-0.6550746990292511,-0.5732325710814572,0.7215237988158814,0.8001072886236402,-0.18644083141419543,-0.7168846333126038,0.006199307162813028,0.2881050672990759,-0.033001022099858,-0.6756916822891028,0.10893261591419989,-0.650965999238869,0.5379988978386265,-0.5457930888543137,-0.5223965632431526,-0.2951359188484768,0.660461775574414,-0.8097947781399397,-0.39219626067087665,-0.7970239990212069,0.21832249523246094,0.3321085286873722,-0.006224016406400912,-0.4527595620135816,-0.12436774027202224,0.8530480667282996,-0.8866495118738145,-0.3505364670560316,-0.06651698740484524,0.5576427576850087,-0.04729912223163568,0.5719939270699728,-0.31631092281079365,0.3683187149548075,0.6393090945365567,0.33257647266546897,-0.8173833423675767,-0.10152422142328632,0.9342610152107234,-0.6159964234392168,0.29839977422769715,-0.5606844707871652,-0.8018301974833901,0.6669745317807709,-0.5509263364897585,-0.9914031470467446,0.18111149367789015,0.3289808202598523,-0.3643618597427982,0.28050320493481773,0.26610438004562575,0.8446161991740575,0.4985978525368153,-0.18069051374817868,0.7717998393844874,-0.6500569840895696,-0.5893693612458137,-0.9204050931625263,0.03277526099829253,-0.2318909970739984,-0.42374663476251895,0.4839943413430807,0.9261472852810191,0.05214616222982538,-0.07886040274862038,0.774270775158602,-0.5657699377237486,-0.36404928251329505,-0.854936147920847,0.6022983605414403,-0.12661931926451686,-0.5541532083345526,-0.39063852741964356,0.01896571084939369,0.5244170135489068,0.8259713636185004,0.8455531330498409,0.012882803486864658,0.1257961105707852,-0.6295231977569664,0.2019796813134751,-0.5931502183826218,-0.25014758707455,0.33739531731847583,-0.3119793307249692,-0.1495870333953957,0.015796485702297636,-0.042612017815852665,0.7810288106291154,-0.9833153030676658,-0.5584204095296783,0.7618076894122303,0.7880978806193804,0.9694820595359348
28.694141553442424,0.9621509776084607,-0.3329317788922559,-0.22527416595115324,-0.1295682426515159,-0.9544116289866191,-0.3297473575916514,0.640550751860824,-0.8162942936275619,-0.7753939447633655,0.18415553957796704,0.3575566385664539,-0.4745293195048035,-0.08564550078707,-0.9453851966010698,-0.2652206631383567,0.1296090724575334,0.8775472598465883,0.038181589946540306,-0.7823606326159556,-0.8849173147603961,0.08146149204637676,-0.9891054638627184,-0.6595823036616659,-0.1816038982464736,0.6694200346634971,0.1679888447382636,0.5689240784367353,0.6785736026663887,-0.8338557484936777,0.8857990063517955,-0.7695558523749786,0.19327205609568665,-0.7992134212635869,-0.8159894076328353,0.34269103999854056,0.8280123317427579,0.7370047194982254,-0.674824819838324,0.26914020822995854,0.17526785143127022,-0.2977119933776071,0.33493406664996783,-0.7500761520466539,-0.3361986472155878,-0.10896420958273811,-0.11338797177532167,-0.12005211411846606,-0.21402307106946816,-0.10608476714220583,-0.39873554591766514,-0.06894619183096817,-0.09769112573169214,-0.21156641982152458,0.017043726203266774,-0.09331914560979637,-0.6460595514118115,-0.060302512766786,0.04011001439635731,0.22830813752549983,0.023768158307310827,0.774182527960809,0.6468721433906215,0.37341700611865836,0.867193769444814,-0.7228495907860342,-0.5125333617978711,0.08463895819501355,0.8092191133383457,0.8248227231760585,-0.6913488441146771,0.39702880170114874,-0.0396881229330166,-0.5303744605800476,0.42028390090294643,0.7800981062441148,0.19405160399071786,-0.7675354994828958,-0.13740187420706507,-0.7749455672819363,0.8127625157411913,-0.5830172610983311,-0.1889750899972249,-0.2112025418857022,0.03561640449383496,-0.11207417723624213,0.8241352500811217,-0.6149995045690055,-0.133707780200919,0.8293958465643936,0.07734986888784157,0.5764330041681409,0.17265383759292074,-0.06182065056915054,0.6436448983577132,-0.3563689395073073,-0.6967804064716696,0.6016262668429357,-0.03903600839309118,0.7301533643474827,-0.672657375901383,0.0101233988393572,0.44565305641173847,0.5956807488405236,0.6746349647706686,0.5768178868430984,0.3766642140107761,0.21475531772962242,0.003015044505847886,-0.2314414462543377,-0.19606188695752236,0.9275043136608065,0.9765269980965152,-0.9794344886166193,0.606365106231121,0.14881416205173958,0.963542791024619,0.587281807748574,-0.2689744611397773,-0.11586823752077113,-0.5827961017733183,0.06671466247175983,0.6127632575030466,0.398202414318523,0.295880710263998,0.5305281474517733,0.58205268034603,0.8944819477821175,0.21175831013783952,-0.010550537642028068,-0.7412995565879559,-0.465270751184391,0.5086652530539217,-0.8348312092046108,-0.046119994865170044,-0.29604292892619966,0.20106292263303693,0.9664912159096819,-0.06275967771230806,0.5980337815301249,-0.05328032846685837,0.9859324591061307,0.19395901342201172,-0.09355885929500207,-0.7963339228746651,-0.8976468290342283,0.35781859034972374,-0.13918929878221076,0.7748397596150114,0.7876002413189058,0.7842286282980169,0.6479346443325027,-0.003919455016706319,-0.19612748733900798,0.07438560754567991,-0.6640335858102244,-0.696865199240867,-0.866010966433759,-0.7879682037769764,-0.10613553612455706,0.3749718129823627,0.9194379630481346,0.5608636797013566,-0.1927520183656506,-0.4209101324101572,0.5654667194501624,0.034780478417826055,-0.7039734325954035,-0.8344639273122982,0.37639937295224013,-0.7861379175476506,-0.05435638542110777,-0.6550746990292511,-0.5732325710814572,0.7215237988158814,0.8001072886236402,-0.18644083141419543,-0.7168846333126038,0.006199307162813028,0.2881050672990759,-0.033001022099858,-0.6756916822891028,0.10893261591419989,-0.650965999238869,0.5379988978386265,-0.5457930888543137,-0.5223965632431526,-0.2951359188484768,0.660461775574414,-0.8097947781399397,-0.39219626067087665,-0.7970239990212069,0.21832249523246094,0.3321085286873722,-0.006224016406400912,-0.4527595620135816,-0.12436774027202224,0.8530480667282996,-0.8866495118738145,-0.3505364670560316,-0.06651698740484524,0.5576427576850087,-0.04729912223163568,0.5719939270699728,-0.31631092281079365,0.3683187149548075,0.6393090945365567,0.33257647266546897,-0.8173833423675767,-0.10152422142328632,0.9342610152107234,-0.6159964234392168,0.29839977422769715,-0.5606844707871652,-0.8018301974833901,0.6669745317807709,-0.5509263364897585,-0.9914031470467446,0.18111149367789015,0.3289808202598523,-0.3643618597427982,0.28050320493481773,0.26610438004562575,0.8446161991740575,0.4985978525368153,-0.18069051374817868,0.7717998393844874,-0.6500569840895696,-0.5893693612458137,-0.9204050931625263,0.03277526099829253,-0.2318909970739984,-0.42374663476251895,0.4839943413430807,0.9261472852810191,0.05214616222982538,-0.07886040274862038,0.774270775158602,-0.5657699377237486,-0.36404928251329505,-0.854936147920847,0.6022983605414403,-0.12661931926451686,-0.5541532083345526,-0.39063852741964356,0.01896571084939369,0.5244170135489068,0.8259713636185004,0.8455531330498409,0.012882803486864658,0.1257961105707852,-0.6295231977569664,0.2019796813134751,-0.5931502183826218,-0.25014758707455,0.33739531731847583,-0.3119793307249692,-0.1495870333953957,0.015796485702297636,-0.042612017815852665,0.7810288106291154,-0.9833153030676658,-0.5584204095296783,0.7618076894122303,0.7880978806193804,0.9694820595359348
28.694141553442424,0.9621509776084607,-0.3329317788922559,-0.22527416595115324,-0.1295682426515159,-0.9544116289866191,-0.3297473575916514,0.640550751860824,-0.8162942936275619,-0.7753939447633655,0.18415553957796704,0.3575566385664539,-0.4745293195048035,-0.08564550078707,-0.9453851966010698,-0.2652206631383567,0.1296090724575334,0.8775472598465883,0.038181589946540306,-0.7823606326159556,-0.8849173147603961,0.08146149204637676,-0.9891054638627184,-0.6595823036616659,-0.1816038982464736,0.6694200346634971,0.1679888447382636,0.5689240784367353,0.6785736026663887,-0.8338557484936777,0.8857990063517955,-0.7695558523749786,0.19327205609568665,-0.7992134212635869,-0.8159894076328353,0.34269103999854056,0.8280123317427579,0.7370047194982254,-0.674824819838324,0.26914020822995854,0.17526785143127022,-0.2977119933776071,0.33493406664996783,-0.7500761520466539,-0.3361986472155878,-0.10896420958273811,-0.11338797177532167,-0.12005211411846606,-0.21402307106946816,-0.10608476714220583,-0.39873554591766514,-0.06894619183096817,-0.09769112573169214,-0.21156641982152458,0.017043726203266774,-0.09331914560979637,-0.6460595514118115,-0.060302512766786,0.04011001439635731,0.22830813752549983,0.023768158307310827,0.774182527960809,0.6468721433906215,0.37341700611865836,0.867193769444814,-0.7228495907860342,-0.5125333617978711,0.08463895819501355,0.8092191133383457,0.8248227231760585,-0.6913488441146771,0.39702880170114874,-0.0396881229330166,-0.5303744605800476,0.42028390090294643,0.7800981062441148,0.19405160399071786,-0.7675354994828958,-0.13740187420706507,-0.7749455672819363,0.8127625157411913,-0.5830172610983311,-0.1889750899972249,-0.2112025418857022,0.03561640449383496,-0.11207417723624213,0.8241352500811217,-0.6149995045690055,-0.133707780200919,0.8293958465643936,0.07734986888784157,0.5764330041681409,0.17265383759292074,-0.06182065056915054,0.6436448983577132,-0.3563689395073073,-0.6967804064716696,0.6016262668429357,-0.03903600839309118,0.7301533643474827,-0.672657375901383,0.0101233988393572,0.44565305641173847,0.5956807488405236,0.6746349647706686,0.5768178868430984,0.3766642140107761,0.21475531772962242,0.003015044505847886,-0.2314414462543377,-0.19606188695752236,0.9275043136608065,0.9765269980965152,-0.9794344886166193,0.606365106231121,0.14881416205173958,0.963542791024619,0.587281807748574,-0.2689744611397773,-0.11586823752077113,-0.5827961017733183,0.06671466247175983,0.6127632575030466,0.398202414318523,0.295880710263998,0.5305281474517733,0.58205268034603,0.8944819477821175,0.21175831013783952,-0.010550537642028068,-0.7412995565879559,-0.465270751184391,0.5086652530539217,-0.8348312092046108,-0.046119994865170044,-0.29604292892619966,0.20106292263303693,0.9664912159096819,-0.06275967771230806,0.5980337815301249,-0.05328032846685837,0.9859324591061307,0.19395901342201172,-0.09355885929500207,-0.7963339228746651,-0.8976468290342283,0.35781859034972374,-0.13918929878221076,0.7748397596150114,0.7876002413189058,0.7842286282980169,0.6479346443325027,-0.003919455016706319,-0.19612748733900798,0.07438560754567991,-0.6640335858102244,-0.696865199240867,-0.866010966433759,-0.7879682037769764,-0.10613553612455706,0.3749718129823627,0.9194379630481346,0.5608636797013566,-0.1927520183656506,-0.4209101324101572,0.5654667194501624,0.034780478417826055,-0.7039734325954035,-0.8344639273122982,0.37639937295224013,-0.7861379175476506,-0.05435638542110777,-0.6550746990292511,-0.5732325710814572,0.7215237988158814,0.8001072886236402,-0.18644083141419543,-0.7168846333126038,0.006199307162813028,0.2881050672990759,-0.033001022099858,-0.6756916822891028,0.10893261591419989,-0.650965999238869,0.5379988978386265,-0.5457930888543137,-0.5223965632431526,-0.2951359188484768,0.660461775574414,-0.8097947781399397,-0.39219626067087665,-0.7970239990212069,0.21832249523246094,0.3321085286873722,-0.006224016406400912,-0.4527595620135816,-0.12436774027202224,0.8530480667282996,-0.8866495118738145,-0.3505364670560316,-0.06651698740484524,0.5576427576850087,-0.04729912223163568,0.5719939270699728,-0.31631092281079365,0.3683187149548075,0.6393090945365567,0.33257647266546897,-0.8173833423675767,-0.10152422142328632,0.9342610152107234,-0.6159964234392168,0.29839977422769715,-0.5606844707871652,-0.8018301974833901,0.6669745317807709,-0.5509263364897585,-0.9914031470467446,0.18111149367789015,0.3289808202598523,-0.3643618597427982,0.28050320493481773,0.26610438004562575,0.8446161991740575,0.4985978525368153,-0.18069051374817868,0.7717998393844874,-0.6500569840895696,-0.5893693612458137,-0.9204050931625263,0.03277526099829253,-0.2318909970739984,-0.42374663476251895,0.4839943413430807,0.9261472852810191,0.05214616222982538,-0.07886040274862038,0.774270775158602,-0.5657699377237486,-0.36404928251329505,-0.854936147920847,0.6022983605414403,-0.12661931926451686,-0.5541532083345526,-0.39063852741964356,0.01896571084939369,0.5244170135489068,0.8259713636185004,0.8455531330498409,0.012882803486864658,0.1257961105707852,-0.6295231977569664,0.2019796813134751,-0.5931502183826218,-0.25014758707455,0.33739531731847583,-0.3119793307249692,-0.1495870333953957,0.015796485702297636,-0.042612017815852665,0.7810288106291154,-0.9833153030676658,-0.5584204095296783,0.7618076894122303,0.7880978806193804,0.9694820595359348
36.88554113868294,-0.4027407361408193,0.1571520089039633,0.1253896095287641,0.604001409613953,-0.7454316286060947,0.47019026474188563,0.09762740903134892,-0.156888216396746,0.4177430679514622,0.07487121597406099,0.5871404675120575,-0.2686152129609829,-0.4833771122327384,0.8410548041793666,-0.2327338157776664,0.032768138709666106,0.009476442239876315,-0.7282697057422514,-0.29611470085160296,0.6054454295751608,0.08068091943758637,-0.031365704496253644,-0.9798558921577576,0.3730530561252814,0.9531413482002016,0.17575961004334228,0.38998508552787103,0.0017359507935725826,0.3031196467681756,-0.5200054163146048,-0.8140438709580065,0.8964987752099352,-0.9841980170109441,-0.11785710096273005,0.7845368470477139,-0.17472472874455103,-0.027405997122193382,-0.7856947090783408,0.872015752344427,-0.2252545350769315,-0.5618446313754284,-0.2414230419871337,0.03179056273035874,0.5099294252073745,0.9972885384856036,0.2456104989188843,-0.7739202048386951,-0.17612867671291,0.3853400240902425,-0.5412707542620068,-0.6994861961407444,0.0025659926326542237,0.43721511788225054,-0.2696100792604792,0.7038203459670938,-0.4945085353624534,0.9033387136641065,0.40440013608663494,-0.37889962337781014,0.21277540861164512,0.18708650037912955,0.03458030550141267,0.23787936795317122,0.2746687324203405,-0.8496198183356596,0.5619835084972515,-0.11811065465191795,0.631047413621608,-0.6271644448374416,-0.5829116672711472,-0.31930819678319144,-0.9184776766280498,0.8085440160102939,-0.6319374258938797,-0.9623366845120205,-0.841991462546474,-0.9459140521402523,0.6849260144560914,-0.3604000246193271,-0.6594810764553476,-0.2542461652677348,-0.9400896968116448,0.973881203835149,0.8234288773007841,-0.6861234310091344,-0.9743458868577377,-0.29949519927863877,-0.8134591476690876,-0.2846996718815755,0.044536392921412205,0.5943780080721601,0.0007662601388054302,0.9465643345741004,-0.29496728752917356,0.6441446602772081,0.20544278482562128,0.7468125553731095,0.9416089588618435,0.5436233519132736,0.4542302860689147,0.2936508861870979,-0.5966074866535336,-0.5999385534365362,-0.7431084780110324,0.7273016281399687,-0.3181460640836662,0.13274579953184285,0.900033335741536,0.20587829556462123,-0.20165332182057738,0.5040946584936565,0.6445382412532419,0.5167555324065836,-0.36379735890501985,-0.3638262366771987,-0.6013892763605531,0.9134536008259133,-0.37131037357241636,0.43522243006630656,0.48413317608973605,-0.09574697542395239,0.9168942973283212,0.5639507048661632,0.588434801305616,0.7645844099991921,-0.07682826686933941,-0.08309465589534204,0.630743136359895,0.7836297267852357,0.3779521585605845,-0.34461531776253596,-0.027227406998923342,0.42668970395012984,-0.6717309209414397,0.6319778040291646,-0.36990501783895535,-0.9182956733791181,0.09063249601199064,-0.7788945212933995,0.4429449619515602,0.5935465130058115,-0.502797517609981,0.4496777439260087,-0.5974336743433033,-0.07011227404164244,0.0775242369082969,0.5345066795334881,0.5323812141157591,-0.7112585707547672,-0.4958008144026682,-0.6656722339092835,0.09618109036950795,0.08786651420810432,-0.12028967124920453,0.7890019051673542,-0.7024590863123885,-0.41531159732032497,0.7375137707143598,-0.14986721916556967,0.8538204487694456,0.9268818767309537,0.8049079573497568,0.9693686002706359,-0.00032519077424586484,0.9568762568938627,0.730723406374669,0.7825881195005142,-0.28341680774597844,-0.49744335879825186,0.532199253139295,-0.8006984630440783,-0.8678151260372593,-0.6947886160259698,-0.2224646990150967,0.6071990644170764,0.03222053036046724,-0.9671066413166072,-0.8121552644014316,0.6653841659112758,-0.7649907022737876,0.23926861263852728,0.38415222909903113,0.05747797013610989,-0.1914586530793998,-0.5792049379533635,0.38734562820367735,0.3223027771493592,-0.5018417625744009,0.02313831849894621,0.11042815195202782,0.11406647022257022,-0.12037346724593889,-0.6712543259811687,0.9176567246834246,0.682001532712242,0.433932149475164,-0.139424634897795,0.22454624282607405,0.9065620826215532,-0.6180965909417482,-0.5438917938940364,-0.9420247932892896,-0.7554154308828476,0.505747215761037,0.4065704856808767,0.6781281279829035,0.06967754045813401,0.7047566417285012,-0.4558356591276813,-0.423164688266757,0.6442022095406332,-0.0007253758006249278,0.047025419796584256,0.8721367985175841,-0.4461690744244897,0.6705035309274636,-0.362838500987535,0.4899200481898802,0.9747395264475425,0.39251134037755686,-0.5626171928191082,0.8510248360008954,0.19034166972878808,-0.7265349160267793,0.4537369971587992,-0.8998185042271505,-0.24433121683483594,0.44020277149895115,0.7334295195715015,0.9713544005993999,-0.5773707890799076,0.998202973026487,-0.5844806198905228,0.48693116894432986,-0.21499600362128657,0.8227754892758423,-0.9012477632655462,0.9282231071674043,0.48121524643907465,0.6447699472901167,-0.8088781903994806,0.9427737387152582,-0.03962703752368979,-0.840524555797024,0.10883181600039493,-0.6710228170532277,-0.6974380393281268,-0.2632194874141647,0.559792653228288,-0.1049028723226304,-0.49883110777706374,-0.7470585077780207,-0.6486181081276148,-0.4846643150910199,-0.29017890328114193,0.3024898643664118,0.0394045818583284,0.2288199154244437,0.7446661601508902,0.015532954887058192,0.40399594428916163,0.8190324707155465,0.6378307294672503,0.34580259360515897,-0.39729148501841616
36.88554113868294,-0.4027407361408193,0.1571520089039633,0.1253896095287641,0.604001409613953,-0.7454316286060947,0.47019026474188563,0.09762740903134892,-0.156888216396746,0.4177430679514622,0.07487121597406099,0.5871404675120575,-0.2686152129609829,-0.4833771122327384,0.8410548041793666,-0.2327338157776664,0.032768138709666106,0.009476442239876315,-0.7282697057422514,-0.29611470085160296,0.6054454295751608,0.08068091943758637,-0.031365704496253644,-0.9798558921577576,0.3730530561252814,0.9531413482002016,0.17575961004334228,0.38998508552787103,0.0017359507935725826,0.3031196467681756,-0.5200054163146048,-0.8140438709580065,0.8964987752099352,-0.9841980170109441,-0.11785710096273005,0.7845368470477139,-0.17472472874455103,-0.027405997122193382,-0.7856947090783408,0.872015752344427,-0.2252545350769315,-0.5618446313754284,-0.2414230419871337,0.03179056273035874,0.5099294252073745,0.9972885384856036,0.2456104989188843,-0.7739202048386951,-0.17612867671291,0.3853400240902425,-0.5412707542620068,-0.6994861961407444,0.0025659926326542237,0.43721511788225054,-0.2696100792604792,0.7038203459670938,-0.4945085353624534,0.9033387136641065,0.40440013608663494,-0.37889962337781014,0.21277540861164512,0.18708650037912955,0.03458030550141267,0.23787936795317122,0.2746687324203405,-0.8496198183356596,0.5619835084972515,-0.11811065465191795,0.631047413621608,-0.6271644448374416,-0.5829116672711472,-0.31930819678319144,-0.9184776766280498,0.8085440160102939,-0.6319374258938797,-0.9623366845120205,-0.841991462546474,-0.9459140521402523,0.6849260144560914,-0.3604000246193271,-0.6594810764553476,-0.2542461652677348,-0.9400896968116448,0.973881203835149,0.8234288773007841,-0.6861234310091344,-0.9743458868577377,-0.29949519927863877,-0.8134591476690876,-0.2846996718815755,0.044536392921412205,0.5943780080721601,0.0007662601388054302,0.9465643345741004,-0.29496728752917356,0.6441446602772081,0.20544278482562128,0.7468125553731095,0.9416089588618435,0.5436233519132736,0.4542302860689147,0.2936508861870979,-0.5966074866535336,-0.5999385534365362,-0.7431084780110324,0.7273016281399687,-0.3181460640836662,0.13274579953184285,0.900033335741536,0.20587829556462123,-0.20165332182057738,0.5040946584936565,0.6445382412532419,0.5167555324065836,-0.36379735890501985,-0.3638262366771987,-0.6013892763605531,0.9134536008259133,-0.37131037357241636,0.43522243006630656,0.48413317608973605,-0.09574697542395239,0.9168942973283212,0.5639507048661632,0.588434801305616,0.7645844099991921,-0.07682826686933941,-0.08309465589534204,0.630743136359895,0.7836297267852357,0.3779521585605845,-0.34461531776253596,-0.027227406998923342,0.42668970395012984,-0.6717309209414397,0.6319778040291646,-0.36990501783895535,-0.9182956733791181,0.09063249601199064,-0.7788945212933995,0.4429449619515602,0.5935465130058115,-0.502797517609981,0.4496777439260087,-0.5974336743433033,-0.07011227404164244,0.0775242369082969,0.5345066795334881,0.5323812141157591,-0.7112585707547672,-0.4958008144026682,-0.6656722339092835,0.09618109036950795,0.08786651420810432,-0.12028967124920453,0.7890019051673542,-0.7024590863123885,-0.41531159732032497,0.7375137707143598,-0.14986721916556967,0.8538204487694456,0.9268818767309537,0.8049079573497568,0.9693686002706359,-0.00032519077424586484,0.9568762568938627,0.730723406374669,0.7825881195005142,-0.28341680774597844,-0.49744335879825186,0.532199253139295,-0.8006984630440783,-0.8678151260372593,-0.6947886160259698,-0.2224646990150967,0.6071990644170764,0.03222053036046724,-0.9671066413166072,-0.8121552644014316,0.6653841659112758,-0.7649907022737876,0.23926861263852728,0.38415222909903113,0.05747797013610989,-0.1914586530793998,-0.5792049379533635,0.38734562820367735,0.3223027771493592,-0.5018417625744009,0.02313831849894621,0.11042815195202782,0.11406647022257022,-0.12037346724593889,-0.6712543259811687,0.9176567246834246,0.682001532712242,0.433932149475164,-0.139424634897795,0.22454624282607405,0.9065620826215532,-0.6180965909417482,-0.5438917938940364,-0.9420247932892896,-0.7554154308828476,0.505747215761037,0.4065704856808767,0.6781281279829035,0.06967754045813401,0.7047566417285012,-0.4558356591276813,-0.423164688266757,0.6442022095406332,-0.0007253758006249278,0.047025419796584256,0.8721367985175841,-0.4461690744244897,0.6705035309274636,-0.362838500987535,0.4899200481898802,0.9747395264475425,0.39251134037755686,-0.5626171928191082,0.8510248360008954,0.19034166972878808,-0.7265349160267793,0.4537369971587992,-0.8998185042271505,-0.24433121683483594,0.44020277149895115,0.7334295195715015,0.9713544005993999,-0.5773707890799076,0.998202973026487,-0.5844806198905228,0.48693116894432986,-0.21499600362128657,0.8227754892758423,-0.9012477632655462,0.9282231071674043,0.48121524643907465,0.6447699472901167,-0.8088781903994806,0.9427737387152582,-0.03962703752368979,-0.840524555797024,0.10883181600039493,-0.6710228170532277,-0.6974380393281268,-0.2632194874141647,0.559792653228288,-0.1049028723226304,-0.49883110777706374,-0.7470585077780207,-0.6486181081276148,-0.4846643150910199,-0.29017890328114193,0.3024898643664118,0.0394045818583284,0.2288199154244437,0.7446661601508902,0.015532954887058192,0.40399594428916163,0.8190324707155465,0.6378307294672503,0.34580259360515897,-0.39729148501841616
36.88554113868294,-0.4027407361408193,0.1571520089039633,0.1253896095287641,0.604001409613953,-0.7454316286060947,0.47019026474188563,0.09762740903134892,-0.156888216396746,0.4177430679514622,0.07487121597406099,0.5871404675120575,-0.2686152129609829,-0.4833771122327384,0.8410548041793666,-0.2327338157776664,0.032768138709666106,0.009476442239876315,-0.7282697057422514,-0.29611470085160296,0.6054454295751608,0.08068091943758637,-0.031365704496253644,-0.9798558921577576,0.3730530561252814,0.9531413482002016,0.17575961004334228,0.38998508552787103,0.0017359507935725826,0.3031196467681756,-0.5200054163146048,-0.8140438709580065,0.8964987752099352,-0.9841980170109441,-0.11785710096273005,0.7845368470477139,-0.17472472874455103,-0.027405997122193382,-0.7856947090783408,0.872015752344427,-0.2252545350769315,-0.5618446313754284,-0.2414230419871337,0.03179056273035874,0.5099294252073745,0.9972885384856036,0.2456104989188843,-0.7739202048386951,-0.17612867671291,0.3853400240902425,-0.5412707542620068,-0.6994861961407444,0.0025659926326542237,0.43721511788225054,-0.2696100792604792,0.7038203459670938,-0.4945085353624534,0.9033387136641065,0.40440013608663494,-0.37889962337781014,0.21277540861164512,0.18708650037912955,0.03458030550141267,0.23787936795317122,0.2746687324203405,-0.8496198183356596,0.5619835084972515,-0.11811065465191795,0.631047413621608,-0.6271644448374416,-0.5829116672711472,-0.31930819678319144,-0.9184776766280498,0.8085440160102939,-0.6319374258938797,-0.9623366845120205,-0.841991462546474,-0.9459140521402523,0.6849260144560914,-0.3604000246193271,-0.6594810764553476,-0.2542461652677348,-0.9400896968116448,0.973881203835149,0.8234288773007841,-0.6861234310091344,-0.9743458868577377,-0.29949519927863877,-0.8134591476690876,-0.2846996718815755,0.044536392921412205,0.5943780080721601,0.0007662601388054302,0.9465643345741004,-0.29496728752917356,0.6441446602772081,0.20544278482562128,0.7468125553731095,0.9416089588618435,0.5436233519132736,0.4542302860689147,0.2936508861870979,-0.5966074866535336,-0.5999385534365362,-0.7431084780110324,0.7273016281399687,-0.3181460640836662,0.13274579953184285,0.900033335741536,0.20587829556462123,-0.20165332182057738,0.5040946584936565,0.6445382412532419,0.5167555324065836,-0.36379735890501985,-0.3638262366771987,-0.6013892763605531,0.9134536008259133,-0.37131037357241636,0.43522243006630656,0.48413317608973605,-0.09574697542395239,0.9168942973283212,0.5639507048661632,0.588434801305616,0.7645844099991921,-0.07682826686933941,-0.08309465589534204,0.630743136359895,0.7836297267852357,0.3779521585605845,-0.34461531776253596,-0.027227406998923342,0.42668970395012984,-0.6717309209414397,0.6319778040291646,-0.36990501783895535,-0.9182956733791181,0.09063249601199064,-0.7788945212933995,0.4429449619515602,0.5935465130058115,-0.502797517609981,0.4496777439260087,-0.5974336743433033,-0.07011227404164244,0.0775242369082969,0.5345066795334881,0.5323812141157591,-0.7112585707547672,-0.4958008144026682,-0.6656722339092835,0.09618109036950795,0.08786651420810432,-0.12028967124920453,0.7890019051673542,-0.7024590863123885,-0.41531159732032497,0.7375137707143598,-0.14986721916556967,0.8538204487694456,0.9268818767309537,0.8049079573497568,0.9693686002706359,-0.00032519077424586484,0.9568762568938627,0.730723406374669,0.7825881195005142,-0.28341680774597844,-0.49744335879825186,0.532199253139295,-0.8006984630440783,-0.8678151260372593,-0.6947886160259698,-0.2224646990150967,0.6071990644170764,0.03222053036046724,-0.9671066413166072,-0.8121552644014316,0.6653841659112758,-0.7649907022737876,0.23926861263852728,0.38415222909903113,0.05747797013610989,-0.1914586530793998,-0.5792049379533635,0.38734562820367735,0.3223027771493592,-0.5018417625744009,0.02313831849894621,0.11042815195202782,0.11406647022257022,-0.12037346724593889,-0.6712543259811687,0.9176567246834246,0.682001532712242,0.433932149475164,-0.139424634897795,0.22454624282607405,0.9065620826215532,-0.6180965909417482,-0.5438917938940364,-0.9420247932892896,-0.7554154308828476,0.505747215761037,0.4065704856808767,0.6781281279829035,0.06967754045813401,0.7047566417285012,-0.4558356591276813,-0.423164688266757,0.6442022095406332,-0.0007253758006249278,0.047025419796584256,0.8721367985175841,-0.4461690744244897,0.6705035309274636,-0.362838500987535,0.4899200481898802,0.9747395264475425,0.39251134037755686,-0.5626171928191082,0.8510248360008954,0.19034166972878808,-0.7265349160267793,0.4537369971587992,-0.8998185042271505,-0.24433121683483594,0.44020277149895115,0.7334295195715015,0.9713544005993999,-0.5773707890799076,0.998202973026487,-0.5844806198905228,0.48693116894432986,-0.21499600362128657,0.8227754892758423,-0.9012477632655462,0.9282231071674043,0.48121524643907465,0.6447699472901167,-0.8088781903994806,0.9427737387152582,-0.03962703752368979,-0.840524555797024,0.10883181600039493,-0.6710228170532277,-0.6974380393281268,-0.2632194874141647,0.559792653228288,-0.1049028723226304,-0.49883110777706374,-0.7470585077780207,-0.6486181081276148,-0.4846643150910199,-0.29017890328114193,0.3024898643664118,0.0394045818583284,0.2288199154244437,0.7446661601508902,0.015532954887058192,0.40399594428916163,0.8190324707155465,0.6378307294672503,0.34580259360515897,-0.39729148501841616
36.88554113868294,-0.4027407361408193,0.1571520089039633,0.1253896095287641,0.604001409613953,-0.7454316286060947,0.47019026474188563,0.09762740903134892,-0.156888216396746,0.4177430679514622,0.07487121597406099,0.5871404675120575,-0.2686152129609829,-0.4833771122327384,0.8410548041793666,-0.2327338157776664,0.032768138709666106,0.009476442239876315,-0.7282697057422514,-0.29611470085160296,0.6054454295751608,0.08068091943758637,-0.031365704496253644,-0.9798558921577576,0.3730530561252814,0.9531413482002016,0.17575961004334228,0.38998508552787103,0.0017359507935725826,0.3031196467681756,-0.5200054163146048,-0.8140438709580065,0.8964987752099352,-0.9841980170109441,-0.11785710096273005,0.7845368470477139,-0.17472472874455103,-0.027405997122193382,-0.7856947090783408,0.872015752344427,-0.2252545350769315,-0.5618446313754284,-0.2414230419871337,0.03179056273035874,0.5099294252073745,0.9972885384856036,0.2456104989188843,-0.7739202048386951,-0.17612867671291,0.3853400240902425,-0.5412707542620068,-0.6994861961407444,0.0025659926326542237,0.43721511788225054,-0.2696100792604792,0.7038203459670938,-0.4945085353624534,0.9033387136641065,0.40440013608663494,-0.37889962337781014,0.21277540861164512,0.18708650037912955,0.03458030550141267,0.23787936795317122,0.2746687324203405,-0.8496198183356596,0.5619835084972515,-0.11811065465191795,0.631047413621608,-0.6271644448374416,-0.5829116672711472,-0.31930819678319144,-0.9184776766280498,0.8085440160102939,-0.6319374258938797,-0.9623366845120205,-0.841991462546474,-0.9459140521402523,0.6849260144560914,-0.3604000246193271,-0.6594810764553476,-0.2542461652677348,-0.9400896968116448,0.973881203835149,0.8234288773007841,-0.6861234310091344,-0.9743458868577377,-0.29949519927863877,-0.8134591476690876,-0.2846996718815755,0.044536392921412205,0.5943780080721601,0.0007662601388054302,0.9465643345741004,-0.29496728752917356,0.6441446602772081,0.20544278482562128,0.7468125553731095,0.9416089588618435,0.5436233519132736,0.4542302860689147,0.2936508861870979,-0.5966074866535336,-0.5999385534365362,-0.7431084780110324,0.7273016281399687,-0.3181460640836662,0.13274579953184285,0.900033335741536,0.20587829556462123,-0.20165332182057738,0.5040946584936565,0.6445382412532419,0.5167555324065836,-0.36379735890501985,-0.3638262366771987,-0.6013892763605531,0.9134536008259133,-0.37131037357241636,0.43522243006630656,0.48413317608973605,-0.09574697542395239,0.9168942973283212,0.5639507048661632,0.588434801305616,0.7645844099991921,-0.07682826686933941,-0.08309465589534204,0.630743136359895,0.7836297267852357,0.3779521585605845,-0.34461531776253596,-0.027227406998923342,0.42668970395012984,-0.6717309209414397,0.6319778040291646,-0.36990501783895535,-0.9182956733791181,0.09063249601199064,-0.7788945212933995,0.4429449619515602,0.5935465130058115,-0.502797517609981,0.4496777439260087,-0.5974336743433033,-0.07011227404164244,0.0775242369082969,0.5345066795334881,0.5323812141157591,-0.7112585707547672,-0.4958008144026682,-0.6656722339092835,0.09618109036950795,0.08786651420810432,-0.12028967124920453,0.7890019051673542,-0.7024590863123885,-0.41531159732032497,0.7375137707143598,-0.14986721916556967,0.8538204487694456,0.9268818767309537,0.8049079573497568,0.9693686002706359,-0.00032519077424586484,0.9568762568938627,0.730723406374669,0.7825881195005142,-0.28341680774597844,-0.49744335879825186,0.532199253139295,-0.8006984630440783,-0.8678151260372593,-0.6947886160259698,-0.2224646990150967,0.6071990644170764,0.03222053036046724,-0.9671066413166072,-0.8121552644014316,0.6653841659112758,-0.7649907022737876,0.23926861263852728,0.38415222909903113,0.05747797013610989,-0.1914586530793998,-0.5792049379533635,0.38734562820367735,0.3223027771493592,-0.5018417625744009,0.02313831849894621,0.11042815195202782,0.11406647022257022,-0.12037346724593889,-0.6712543259811687,0.9176567246834246,0.682001532712242,0.433932149475164,-0.139424634897795,0.22454624282607405,0.9065620826215532,-0.6180965909417482,-0.5438917938940364,-0.9420247932892896,-0.7554154308828476,0.505747215761037,0.4065704856808767,0.6781281279829035,0.06967754045813401,0.7047566417285012,-0.4558356591276813,-0.423164688266757,0.6442022095406332,-0.0007253758006249278,0.047025419796584256,0.8721367985175841,-0.4461690744244897,0.6705035309274636,-0.362838500987535,0.4899200481898802,0.9747395264475425,0.39251134037755686,-0.5626171928191082,0.8510248360008954,0.19034166972878808,-0.7265349160267793,0.4537369971587992,-0.8998185042271505,-0.24433121683483594,0.44020277149895115,0.7334295195715015,0.9713544005993999,-0.5773707890799076,0.998202973026487,-0.5844806198905228,0.48693116894432986,-0.21499600362128657,0.8227754892758423,-0.9012477632655462,0.9282231071674043,0.48121524643907465,0.6447699472901167,-0.8088781903994806,0.9427737387152582,-0.03962703752368979,-0.840524555797024,0.10883181600039493,-0.6710228170532277,-0.6974380393281268,-0.2632194874141647,0.559792653228288,-0.1049028723226304,-0.49883110777706374,-0.7470585077780207,-0.6486181081276148,-0.4846643150910199,-0.29017890328114193,0.3024898643664118,0.0394045818583284,0.2288199154244437,0.7446661601508902,0.015532954887058192,0.40399594428916163,0.8190324707155465,0.6378307294672503,0.34580259360515897,-0.39729148501841616
23.96170002137781,-0.4027407361408193,0.1571520089039633,0.1253896095287641,0.604001409613953,-0.7454316286060947,0.47019026474188563,0.09762740903134892,-0.156888216396746,0.4177430679514622,0.07487121597406099,0.5871404675120575,-0.2686152129609829,-0.4833771122327384,0.8410548041793666,-0.2327338157776664,0.032768138709666106,0.009476442239876315,-0.7282697057422514,-0.29611470085160296,0.6054454295751608,0.08068091943758637,-0.031365704496253644,-0.9798558921577576,0.3730530561252814,0.9531413482002016,0.17575961004334228,0.38998508552787103,0.0017359507935725826,0.3031196467681756,-0.5200054163146048,-0.8140438709580065,0.8964987752099352,-0.9841980170109441,-0.11785710096273005,0.7845368470477139,-0.17472472874455103,-0.027405997122193382,-0.7856947090783408,0.872015752344427,-0.2252545350769315,-0.5618446313754284,-0.2414230419871337,0.03179056273035874,0.5099294252073745,0.9972885384856036,0.2456104989188843,-0.5056099861654864,-0.17612867671291,0.3853400240902425,-0.5412707542620068,-0.6994861961407444,0.0025659926326542237,0.43721511788225054,-0.2696100792604792,0.7038203459670938,-0.4945085353624534,-0.4533093517669109,0.40440013608663494,-0.37889962337781014,0.21277540861164512,0.18708650037912955,0.03458030550141267,0.23787936795317122,0.2746687324203405,-0.8496198183356596,0.5619835084972515,-0.11811065465191795,0.631047413621608,-0.6271644448374416,-0.5829116672711472,-0.31930819678319144,-0.9184776766280498,0.8085440160102939,-0.6319374258938797,-0.9623366845120205,-0.841991462546474,-0.9459140521402523,0.6849260144560914,-0.3604000246193271,-0.6594810764553476,-0.2542461652677348,-0.9400896968116448,0.973881203835149,0.8234288773007841,-0.6861234310091344,-0.9743458868577377,-0.29949519927863877,-0.8134591476690876,-0.2846996718815755,0.044536392921412205,0.5943780080721601,0.0007662601388054302,0.9465643345741004,-0.29496728752917356,0.6441446602772081,0.20544278482562128,0.7468125553731095,0.9416089588618435,0.5436233519132736,0.4542302860689147,0.4838143935900274,-0.5966074866535336,-0.5999385534365362,-0.7431084780110324,0.7273016281399687,-0.3181460640836662,0.13274579953184285,0.900033335741536,0.20587829556462123,-0.20165332182057738,0.5040946584936565,0.6445382412532419,0.5167555324065836,-0.36379735890501985,-0.3638262366771987,-0.6013892763605531,0.9134536008259133,-0.37131037357241636,0.43522243006630656,0.48413317608973605,-0.09574697542395239,0.9168942973283212,0.5639507048661632,0.588434801305616,0.7645844099991921,-0.07682826686933941,-0.08309465589534204,0.630743136359895,0.7836297267852357,0.3779521585605845,-0.4464315437851536,-0.027227406998923342,0.42668970395012984,-0.6717309209414397,0.6319778040291646,-0.36990501783895535,-0.9182956733791181,0.1063611256476431,-0.7788945212933995,0.4429449619515602,0.5935465130058115,-0.502797517609981,0.4496777439260087,-0.6208194110125751,-0.07011227404164244,0.0775242369082969,0.5345066795334881,0.5323812141157591,-0.7112585707547672,-0.4958008144026682,-0.6656722339092835,0.09618109036950795,0.9228932495055735,-0.12028967124920453,0.7890019051673542,0.804298537929331,-0.41531159732032497,0.7375137707143598,-0.14986721916556967,0.8538204487694456,0.9268818767309537,0.8049079573497568,0.9693686002706359,-0.00032519077424586484,0.9568762568938627,0.730723406374669,0.7825881195005142,-0.28341680774597844,-0.49744335879825186,0.532199253139295,-0.9981171730949503,-0.8678151260372593,-0.7561553004780173,-0.2224646990150967,0.6071990644170764,0.03222053036046724,-0.9671066413166072,-0.8121552644014316,0.6653841659112758,-0.7649907022737876,0.23926861263852728,0.38415222909903113,0.05747797013610989,-0.1914586530793998,-0.5792049379533635,0.38734562820367735,0.3223027771493592,-0.5018417625744009,0.02313831849894621,0.11042815195202782,0.11406647022257022,-0.12037346724593889,-0.6712543259811687,0.9176567246834246,0.682001532712242,-0.30474259856582364,-0.139424634897795,0.22454624282607405,0.9065620826215532,-0.6180965909417482,-0.4672375781249505,-0.9420247932892896,-0.7554154308828476,0.505747215761037,0.4065704856808767,0.6781281279829035,0.06197481670963567,0.7047566417285012,-0.4558356591276813,-0.423164688266757,0.6442022095406332,-0.0007253758006249278,0.047025419796584256,0.8721367985175841,-0.4461690744244897,0.6705035309274636,-0.362838500987535,0.4899200481898802,0.9747395264475425,0.39251134037755686,-0.5626171928191082,0.8510248360008954,0.19034166972878808,-0.7265349160267793,0.4537369971587992,-0.8998185042271505,-0.24433121683483594,0.44020277149895115,0.7334295195715015,0.9713544005993999,-0.5773707890799076,0.998202973026487,-0.5357023650552213,0.48693116894432986,-0.21499600362128657,0.8227754892758423,-0.9012477632655462,0.9282231071674043,-0.15329088121895507,0.6447699472901167,-0.8088781903994806,0.9427737387152582,-0.03962703752368979,-0.840524555797024,0.10883181600039493,-0.6710228170532277,-0.6974380393281268,-0.2632194874141647,0.559792653228288,-0.1049028723226304,-0.49883110777706374,-0.7470585077780207,-0.6486181081276148,0.8989639979410442,0.9084261029947858,-0.4196276689393972,-0.9290325247582556,0.2288199154244437,0.7446661601508902,0.015532954887058192,0.40399594428916163,0.8190324707155465,0.6378307294672503,0.34580259360515897,-0.39729148501841616
18.770840783033748,0.3536169307108097,0.8986653733452261,0.21026357080938318,-0.05572624343643762,0.13916495200328738,-0.608014753895161,-0.003863872736310059,0.5934416631542816,0.9689649243626386,0.29484055531860487,0.5498706580626662,-0.3217377715231988,-0.9875011043534876,-0.24982741221426674,0.7286525184611841,-0.9171971726767925,-0.8452675653758888,-0.13096074155330184,0.3582533545488982,-0.7603152997561287,-0.7387448157878804,-0.7919978973663393,-0.8087077166918606,-0.38762326239930345,0.5425232174664312,-0.27114873059418243,-0.8231246037144619,-0.7981696027821945,0.23399894753008432,0.9502037743265825,-0.6831507406252004,-0.3884333246526068,0.3000080495945372,-0.8159894076328353,0.34269103999854056,0.8280123317427579,0.7370047194982254,-0.674824819838324,-0.3095675091189012,0.17526785143127022,-0.2977119933776071,0.33493406664996783,-0.7500761520466539,-0.3361986472155878,-0.10896420958273811,-0.11338797177532167,-0.12005211411846606,-0.21402307106946816,-0.10608476714220583,-0.9972670677233255,-0.8487359761898197,-0.22424980616870904,0.22375017208453496,0.07431634329922665,-0.5999371404712621,0.9235896225370377,-0.3425621759613453,0.1867843405857068,0.4965613694994222,-0.33055146263187707,-0.4918298751703214,-0.006246234031638043,0.5804446273317942,-0.11748981468088582,0.5670008590238367,-0.2520005006138788,-0.5071330456548273,-0.7113924648428964,-0.9218521752839075,-0.03326402192321476,-0.7696004122184201,0.7203469848196049,0.8304619445619588,0.440630574021472,0.4611743597997513,-0.48561695906395697,0.46466310908946706,-0.04449685919672475,-0.5694571902858114,-0.9421867959853445,-0.3390330607878791,-0.5943791311572626,-0.6670998914296693,0.03137854505210513,-0.01634339059795531,0.33992780193522987,-0.6710406383307803,0.7214442021526672,0.2262818661819601,0.20033437467696302,-0.9749551745150102,0.26051915416920357,-0.9892258630910589,-0.4529393775203021,0.5035994998838365,-0.12858015077863727,-0.45296290661729555,0.4808525231737024,-0.42397272636651184,-0.7617856807906942,0.3635088676116893,-0.1996934452185053,-0.13193714853818972,-0.3951607816853071,-0.7760155294268256,0.6409435719710042,0.42619197659005836,0.19898965135559044,0.8844999652788139,-0.6936062337718361,-0.21221822139933977,-0.9144918767904793,-0.681639817063826,-0.18736170266533736,-0.8581091766597999,-0.2380554666927326,-0.446678658452498,-0.12160820128203254,0.8690426946881595,0.7495194713852202,0.39236786327222317,0.5020674516257309,0.265314016320533,0.7124986146269972,0.04414071425155752,0.9297192252037834,0.9731804430633328,-0.3566892506381256,0.22320944050376923,0.7444426272908271,0.6710195901032472,-0.6548301728461898,-0.4198485060000925,0.3957937014912494,-0.1728838328333957,-0.39172550781388926,0.7206429344712848,0.30210246891373616,-0.23225872777990197,-0.04916593355120802,-0.636465632307534,-0.3007671798242859,-0.7022823814407908,-0.7963339228746651,-0.8976468290342283,-0.3378387834611838,-0.13918929878221076,0.7748397596150114,0.7876002413189058,0.7842286282980169,0.6479346443325027,-0.003919455016706319,-0.19612748733900798,0.07438560754567991,-0.6640335858102244,-0.696865199240867,-0.866010966433759,-0.7879682037769764,-0.10613553612455706,0.3749718129823627,0.9194379630481346,0.5608636797013566,0.5221953952350562,-0.4209101324101572,0.5654667194501624,0.034780478417826055,-0.05730826385558063,-0.8344639273122982,0.37639937295224013,-0.7861379175476506,0.5140344262573893,-0.6550746990292511,-0.5732325710814572,0.7215237988158814,0.8001072886236402,-0.18644083141419543,-0.7168846333126038,0.006199307162813028,0.2881050672990759,-0.033001022099858,-0.6756916822891028,0.10893261591419989,-0.062014616980260895,0.5379988978386265,-0.5457930888543137,-0.7890982658388297,-0.7509271801675921,0.27615222644381143,-0.5894838415307695,-0.6507376332232042,-0.26347395638112947,0.7479212981107046,0.5898280987012066,0.2533252678175615,-0.6714731013948998,-0.16280291171460082,0.15780259186092072,0.8661744597960563,-0.25647041600909093,-0.6549458495886455,-0.051434518629808634,-0.40216111970810786,0.7027089708053977,0.048023270923143624,-0.4101048926489992,0.6151586213101083,-0.36644731844434664,0.06527354211309144,0.9702362420882003,-0.5739378318766406,-0.7288877529089048,0.8774552794034625,0.6137557857270342,0.6762696372685317,-0.35762629196106954,0.2847807006044254,-0.8057181562790601,-0.5543359956111173,0.8590159833262279,0.46158774054372187,-0.22772722238991183,-0.46963913232607735,-0.4177577999665587,-0.7263379117911655,0.629397321653749,-0.6375160975703746,0.14811585724963217,0.8644988962287736,0.9445321728258804,-0.7323990994217553,-0.2805794355361708,-0.28202627283269344,-0.20424918071802156,-0.4949873616571061,-0.39006055280857366,-0.0981552104133212,0.003871488270884571,0.7770699085090971,0.538702367831412,-0.8415385732143685,0.12411664328229044,-0.8364777187765249,-0.5664339601640327,0.08223373165656311,-0.5022055871440367,-0.7693837591356174,-0.5062824130506132,-0.8086690726390009,0.2675317701065867,-0.045560067921794456,-0.8909011697477427,-0.6882059572051915,-0.19398349804904869,0.8873431238588001,-0.7211017538927691,-0.31318604880087153,-0.018857928790658285,-0.7160086965432337,-0.9034755390562341,-0.6859153559134055,0.6801125590302595,0.9288018270596892,0.16474685484629137,-0.4499120969729322,0.7071027814823885
20.793091524824053,-0.4027407361408193,0.1571520089039633,0.1253896095287641,-0.00036196689209022637,-0.7454316286060947,0.47019026474188563,0.17976176803123156,-0.156888216396746,0.5881418830761409,0.29484055531860487,0.5498706580626662,-0.3217377715231988,-0.9875011043534876,-0.24982741221426674,0.7286525184611841,-0.9171971726767925,-0.8452675653758888,-0.13096074155330184,0.3582533545488982,-0.8364789508374892,-0.7387448157878804,-0.7919978973663393,-0.25850127545526513,-0.38762326239930345,0.12609464585136942,-0.17499096352634358,-0.8231246037144619,-0.7981696027821945,0.23399894753008432,0.4844450355283971,-0.6056316028252291,-0.3884333246526068,0.3000080495945372,-0.8159894076328353,0.34269103999854056,0.8280123317427579,0.14582567191899476,-0.674824819838324,0.872015752344427,-0.2252545350769315,-0.5618446313754284,-0.5496403114773387,0.03179056273035874,0.5099294252073745,0.9972885384856036,0.2456104989188843,-0.7739202048386951,-0.17612867671291,0.3853400240902425,-0.5412707542620068,-0.6994861961407444,0.0025659926326542237,0.43721511788225054,-0.2696100792604792,0.7038203459670938,-0.4945085353624534,0.9033387136641065,0.40440013608663494,0.1785373510685213,0.21277540861164512,0.18708650037912955,0.03458030550141267,0.23787936795317122,0.2746687324203405,-0.8496198183356596,0.5619835084972515,-0.11811065465191795,0.631047413621608,0.7985282932845603,-0.5829116672711472,-0.31930819678319144,-0.9184776766280498,0.8085440160102939,-0.6319374258938797,0.5928495746273705,-0.841991462546474,-0.9459140521402523,0.6849260144560914,-0.3604000246193271,-0.6594810764553476,-0.2542461652677348,-0.12218818770790096,0.973881203835149,0.8234288773007841,-0.9769189372739984,-0.9743458868577377,-0.29949519927863877,-0.8134591476690876,-0.2846996718815755,0.044536392921412205,0.36321446460334905,0.0007662601388054302,0.9465643345741004,-0.29496728752917356,-0.2833029152943518,0.20544278482562128,-0.6931617435676953,0.9416089588618435,0.7757326268983948,0.5041708483218681,0.2936508861870979,-0.5966074866535336,-0.5999385534365362,-0.7431084780110324,0.7273016281399687,-0.3181460640836662,0.13274579953184285,0.900033335741536,0.20587829556462123,-0.20165332182057738,0.5040946584936565,0.6445382412532419,0.5167555324065836,-0.36379735890501985,-0.3638262366771987,-0.6013892763605531,0.9134536008259133,0.5997999529991063,0.43522243006630656,0.48413317608973605,-0.09574697542395239,0.9168942973283212,0.5639507048661632,0.588434801305616,0.11063634371019604,0.46051589563976947,-0.08309465589534204,0.630743136359895,0.4171791825823279,0.3779521585605845,-0.34461531776253596,-0.5555724649841913,0.6148213242492311,-0.6717309209414397,0.6319778040291646,-0.36990501783895535,-0.9182956733791181,0.09063249601199064,-0.7788945212933995,0.4429449619515602,0.5935465130058115,-0.502797517609981,0.4496777439260087,-0.5974336743433033,-0.07011227404164244,0.0775242369082969,0.5345066795334881,0.5323812141157591,-0.4972015888764345,-0.4958008144026682,-0.6656722339092835,0.2483710593845876,0.47663863409089413,-0.12028967124920453,0.7890019051673542,0.8634829207995081,-0.41531159732032497,0.7375137707143598,0.2811686478577293,0.965333044947708,0.9268818767309537,-0.8331606952474484,0.9693686002706359,-0.00032519077424586484,0.9568762568938627,0.730723406374669,0.7825881195005142,-0.28341680774597844,-0.49744335879825186,0.532199253139295,-0.8006984630440783,-0.8678151260372593,-0.6947886160259698,-0.2224646990150967,0.6071990644170764,0.8520336555655987,0.08498881938735625,-0.8121552644014316,0.6653841659112758,-0.7649907022737876,0.23926861263852728,0.38415222909903113,0.05747797013610989,-0.1914586530793998,0.7756034825682434,0.38734562820367735,0.21459285735215894,0.9945003951470897,0.02313831849894621,0.11042815195202782,0.11406647022257022,-0.12037346724593889,-0.6712543259811687,0.9176567246834246,0.682001532712242,0.9221999455447727,-0.139424634897795,0.22454624282607405,0.9065620826215532,0.01879019067685661,-0.5438917938940364,-0.9420247932892896,-0.7554154308828476,0.505747215761037,0.4065704856808767,0.6781281279829035,0.06967754045813401,0.7047566417285012,-0.4558356591276813,-0.423164688266757,-0.4211228187298355,-0.0007253758006249278,0.047025419796584256,0.8721367985175841,-0.4461690744244897,0.6705035309274636,-0.362838500987535,0.4899200481898802,0.9747395264475425,0.39251134037755686,-0.5626171928191082,-0.1470189141375815,0.19034166972878808,-0.9424844544227542,0.4537369971587992,-0.7605089986515112,-0.24433121683483594,-0.7050422657863213,0.7334295195715015,0.9713544005993999,-0.5773707890799076,0.998202973026487,-0.9657446177961946,0.48693116894432986,-0.21499600362128657,0.8227754892758423,-0.9012477632655462,0.9282231071674043,0.48121524643907465,0.6447699472901167,-0.10783774962447179,0.9427737387152582,-0.03962703752368979,-0.840524555797024,0.10883181600039493,-0.6710228170532277,-0.6328855781851883,-0.2632194874141647,0.559792653228288,-0.1049028723226304,-0.49883110777706374,-0.7470585077780207,-0.6486181081276148,-0.4846643150910199,-0.29017890328114193,0.3024898643664118,0.0394045818583284,0.2288199154244437,0.7446661601508902,0.015532954887058192,0.562283949181386,0.8190324707155465,0.6378307294672503,0.34580259360515897,-0.8095365736512499
18.770840783033748,0.3536169307108097,0.8986653733452261,0.21026357080938318,-0.05572624343643762,0.13916495200328738,-0.608014753895161,-0.003863872736310059,0.5934416631542816,0.9689649243626386,0.29484055531860487,0.5498706580626662,-0.3217377715231988,-0.9875011043534876,-0.24982741221426674,0.7286525184611841,-0.9171971726767925,-0.8452675653758888,-0.13096074155330184,0.3582533545488982,-0.7603152997561287,-0.7387448157878804,-0.7919978973663393,-0.8087077166918606,-0.38762326239930345,0.5425232174664312,-0.27114873059418243,-0.8231246037144619,-0.7981696027821945,0.23399894753008432,0.9502037743265825,-0.6831507406252004,-0.3884333246526068,0.3000080495945372,-0.8159894076328353,0.34269103999854056,0.8280123317427579,0.7370047194982254,-0.674824819838324,-0.3095675091189012,0.17526785143127022,-0.2977119933776071,0.33493406664996783,-0.7500761520466539,-0.3361986472155878,-0.10896420958273811,-0.11338797177532167,-0.12005211411846606,-0.21402307106946816,-0.10608476714220583,-0.9972670677233255,-0.8487359761898197,-0.22424980616870904,0.22375017208453496,0.07431634329922665,-0.5999371404712621,0.9235896225370377,-0.3425621759613453,0.1867843405857068,0.4965613694994222,-0.33055146263187707,-0.4918298751703214,-0.006246234031638043,0.5804446273317942,-0.11748981468088582,0.5670008590238367,-0.2520005006138788,-0.5071330456548273,-0.7113924648428964,-0.9218521752839075,-0.03326402192321476,-0.7696004122184201,0.7203469848196049,0.8304619445619588,0.440630574021472,0.4611743597997513,-0.48561695906395697,0.46466310908946706,-0.04449685919672475,-0.5694571902858114,-0.9421867959853445,-0.3390330607878791,-0.5943791311572626,-0.6670998914296693,0.03137854505210513,-0.01634339059795531,0.33992780193522987,-0.6710406383307803,0.7214442021526672,0.2262818661819601,0.20033437467696302,-0.9749551745150102,0.26051915416920357,-0.9892258630910589,-0.4529393775203021,0.5035994998838365,-0.12858015077863727,-0.45296290661729555,0.4808525231737024,-0.42397272636651184,-0.7617856807906942,0.3635088676116893,-0.1996934452185053,-0.13193714853818972,-0.3951607816853071,-0.7760155294268256,0.6409435719710042,0.42619197659005836,0.19898965135559044,0.8844999652788139,-0.6936062337718361,-0.21221822139933977,-0.9144918767904793,-0.681639817063826,-0.18736170266533736,-0.8581091766597999,-0.2380554666927326,-0.446678658452498,-0.12160820128203254,0.8690426946881595,0.7495194713852202,0.39236786327222317,0.5020674516257309,0.265314016320533,0.7124986146269972,0.04414071425155752,0.9297192252037834,0.9731804430633328,-0.3566892506381256,0.22320944050376923,0.7444426272908271,0.6710195901032472,-0.6548301728461898,-0.4198485060000925,0.3957937014912494,-0.1728838328333957,-0.39172550781388926,0.7206429344712848,0.30210246891373616,-0.23225872777990197,-0.04916593355120802,-0.636465632307534,-0.3007671798242859,-0.7022823814407908,-0.7963339228746651,-0.8976468290342283,-0.3378387834611838,-0.13918929878221076,0.7748397596150114,0.7876002413189058,0.7842286282980169,0.6479346443325027,-0.003919455016706319,-0.19612748733900798,0.07438560754567991,-0.6640335858102244,-0.696865199240867,-0.866010966433759,-0.7879682037769764,-0.10613553612455706,0.3749718129823627,0.9194379630481346,0.5608636797013566,0.5221953952350562,-0.4209101324101572,0.5654667194501624,0.034780478417826055,-0.05730826385558063,-0.8344639273122982,0.37639937295224013,-0.7861379175476506,0.5140344262573893,-0.6550746990292511,-0.5732325710814572,0.7215237988158814,0.8001072886236402,-0.18644083141419543,-0.7168846333126038,0.006199307162813028,0.2881050672990759,-0.033001022099858,-0.6756916822891028,0.10893261591419989,-0.062014616980260895,0.5379988978386265,-0.5457930888543137,-0.7890982658388297,-0.7509271801675921,0.27615222644381143,-0.5894838415307695,-0.6507376332232042,-0.26347395638112947,0.7479212981107046,0.5898280987012066,0.2533252678175615,-0.6714731013948998,-0.16280291171460082,0.15780259186092072,0.8661744597960563,-0.25647041600909093,-0.6549458495886455,-0.051434518629808634,-0.40216111970810786,0.7027089708053977,0.048023270923143624,-0.4101048926489992,0.6151586213101083,-0.36644731844434664,0.06527354211309144,0.9702362420882003,-0.5739378318766406,-0.7288877529089048,0.8774552794034625,0.6137557857270342,0.6762696372685317,-0.35762629196106954,0.2847807006044254,-0.8057181562790601,-0.5543359956111173,0.8590159833262279,0.46158774054372187,-0.22772722238991183,-0.46963913232607735,-0.4177577999665587,-0.7263379117911655,0.629397321653749,-0.6375160975703746,0.14811585724963217,0.8644988962287736,0.9445321728258804,-0.7323990994217553,-0.2805794355361708,-0.28202627283269344,-0.20424918071802156,-0.4949873616571061,-0.39006055280857366,-0.0981552104133212,0.003871488270884571,0.7770699085090971,0.538702367831412,-0.8415385732143685,0.12411664328229044,-0.8364777187765249,-0.5664339601640327,0.08223373165656311,-0.5022055871440367,-0.7693837591356174,-0.5062824130506132,-0.8086690726390009,0.2675317701065867,-0.045560067921794456,-0.8909011697477427,-0.6882059572051915,-0.19398349804904869,0.8873431238588001,-0.7211017538927691,-0.31318604880087153,-0.018857928790658285,-0.7160086965432337,-0.9034755390562341,-0.6859153559134055,0.6801125590302595,0.9288018270596892,0.16474685484629137,-0.4499120969729322,0.7071027814823885
22.041484491658544,-0.10268907814564154,0.8734818680510279,0.4651940180744747,0.45312034608220086,-0.42336082040666323,0.09595729154912691,-0.40275043850483927,-0.042056422550284855,0.5202600297760314,0.18415553957796704,0.3575566385664539,-0.4745293195048035,-0.8236939047516321,-0.9453851966010698,-0.2652206631383567,0.8912893815449547,0.8775472598465883,0.038181589946540306,-0.7823606326159556,-0.8849173147603961,0.08146149204637676,-0.9891054638627184,-0.6595823036616659,-0.1816038982464736,0.6694200346634971,0.1679888447382636,0.5689240784367353,-0.6297051620029652,-0.8338557484936777,0.8523437935875293,-0.35794232527801584,0.19327205609568665,-0.6419462561179521,-0.25030735334502374,0.7559867879647288,-0.4805462410392056,0.3125388330607506,0.24019854434803123,0.5447502896571319,0.26542276395344166,-0.44660333360074067,0.9018638000916008,-0.7417241520773006,-0.3503912914364098,0.16205616816966928,-0.5938265836231802,-0.6700969958423657,-0.4728248271163198,0.7205301016187649,-0.9569756965853289,-0.8487359761898197,-0.22424980616870904,0.22375017208453496,0.07431634329922665,-0.5999371404712621,-0.8193249806429572,-0.48705660213159785,0.1867843405857068,0.4965613694994222,0.9150752855194053,-0.29412514977176496,0.31511876698367924,0.1490426906358986,-0.753851427463381,0.7372684270197327,0.22715910063983014,-0.9316130841570978,0.30623449304523476,0.8983293430579504,0.47883195401813716,-0.8815679096119307,0.34469676585467135,-0.5768541693143991,0.14084629356855993,-0.43113544600792175,-0.39915903667390307,-0.2243119472617916,-0.7657755379752427,-0.6831043155396745,0.9787874722002277,0.4103944979425118,0.7424359217588612,-0.28503898307919195,0.5783009055268407,-0.04959833455125451,0.016944852431991286,-0.29949519927863877,-0.8134591476690876,-0.2846996718815755,0.044536392921412205,-0.7770375238965583,0.0007662601388054302,0.9465643345741004,-0.29496728752917356,0.6441446602772081,0.20544278482562128,0.7468125553731095,0.9416089588618435,0.8033579836241143,0.4542302860689147,0.2936508861870979,-0.5966074866535336,-0.5999385534365362,-0.7431084780110324,0.7273016281399687,-0.3181460640836662,0.13274579953184285,0.900033335741536,0.20587829556462123,-0.20165332182057738,0.5040946584936565,0.6445382412532419,0.5123575740683344,-0.36379735890501985,-0.3638262366771987,-0.6013892763605531,0.9134536008259133,-0.37131037357241636,0.43522243006630656,0.48413317608973605,-0.09574697542395239,0.9168942973283212,0.5639507048661632,0.588434801305616,0.7645844099991921,-0.07682826686933941,-0.08309465589534204,0.630743136359895,0.7836297267852357,0.4286975327539242,-0.34461531776253596,-0.027227406998923342,0.42668970395012984,-0.6717309209414397,0.6319778040291646,-0.36990501783895535,-0.9182956733791181,0.09063249601199064,-0.7788945212933995,0.4429449619515602,-0.5899534154145725,-0.502797517609981,0.4496777439260087,-0.5974336743433033,-0.07011227404164244,0.0775242369082969,0.5345066795334881,0.5323812141157591,-0.7112585707547672,-0.4958008144026682,-0.6656722339092835,0.09618109036950795,0.08786651420810432,-0.12028967124920453,0.7890019051673542,-0.7024590863123885,-0.41531159732032497,0.7375137707143598,-0.14986721916556967,0.8538204487694456,0.9268818767309537,0.8049079573497568,0.9693686002706359,-0.00032519077424586484,0.9568762568938627,0.730723406374669,0.7825881195005142,-0.28341680774597844,-0.49744335879825186,0.8052632204337009,-0.8006984630440783,-0.8678151260372593,-0.6947886160259698,-0.2224646990150967,0.6071990644170764,0.03222053036046724,-0.9671066413166072,-0.8121552644014316,0.6653841659112758,-0.7649907022737876,0.23926861263852728,0.38415222909903113,-0.9797971520938762,-0.1914586530793998,-0.5792049379533635,0.38734562820367735,0.3223027771493592,-0.5018417625744009,0.02313831849894621,0.11042815195202782,0.11406647022257022,-0.12037346724593889,-0.6712543259811687,0.9176567246834246,0.682001532712242,0.433932149475164,-0.139424634897795,0.22454624282607405,0.9065620826215532,-0.6180965909417482,-0.5438917938940364,-0.9420247932892896,-0.7554154308828476,0.505747215761037,0.4065704856808767,0.6781281279829035,0.06967754045813401,-0.8173833423675767,-0.10152422142328632,0.9342610152107234,-0.6159964234392168,0.29839977422769715,-0.5606844707871652,-0.8018301974833901,0.6669745317807709,-0.5509263364897585,-0.8057181562790601,0.18111149367789015,0.3289808202598523,-0.3643618597427982,0.28050320493481773,0.26610438004562575,0.8446161991740575,0.7818051054887876,-0.18069051374817868,0.7717998393844874,-0.6500569840895696,-0.5893693612458137,-0.9204050931625263,0.03277526099829253,-0.2318909970739984,-0.42374663476251895,0.4839943413430807,-0.2579653606143326,-0.36874316722609857,-0.9545708252345808,-0.45200362642077074,-0.3775310473697169,0.6863998870669978,0.7213289841437909,-0.38817815070020334,0.8585137201291109,-0.08673304671039817,-0.8400671725528119,0.04310766998817828,-0.06578273077090957,-0.2245352718801079,-0.3247439348721348,0.8538586505758374,0.507632533018717,-0.19200464577217424,-0.23754180275198866,-0.9815270227918349,0.8989639979410442,0.9084261029947858,-0.4196276689393972,0.5521818386573205,0.8988643054494148,-0.35121416631511715,0.5341170436741409,0.18233056352100796,-0.40745705387172415,0.7618076894122303,0.7880978806193804,-0.8268261299425441
