0.632666960135581,-0.9445532314304879,-0.29420722985451064,-0.30644066381234114,-0.03369040949241575,-0.8309692656206167,0.2305935037517759,-0.4412167034443386,-0.5221815758533415,-0.06695719848505033,-0.6620473062387786,0.18623042112323995,0.4382586389759442,-0.6410149670214267,0.0018252638690661183,0.8395210513096216,-0.689681003875456,-0.9925119523675432,0.69841860121971,-0.21286685025805063,0.2764656494562401,0.8692003094924101,0.8188115518947836,0.05000840815270857,-0.6387099242542282,0.9385986917736686,-0.9985890317917725,-0.715886813258688,-0.7478873962783552,0.6347469505145611,-0.39305649560131495,0.05407646623233875,0.6487697581568836,-0.3443804343099559,-0.18327663924235393,-0.15628831866775816,-0.03397546763618475,0.8943916661714655,0.008762541472443264,-0.49289608876254376,-0.4630496051937256,0.004474891035046058,0.18520918715281853,-0.3518203142437615,0.13986997363953568,0.7192361399413731,-0.32004699285549654,0.23994126968964546,-0.33256464461832325,0.48322055871991476,-0.9952829538600447,-0.7558891954546918,-0.6533105940445372,0.6985423298289317,0.03725308190530563,-0.5324674352661687,0.271905750052593,0.22467746509635078,0.30757446377979614,-0.6389976023194497,-0.652556313664858,-0.21327442899216242,-0.5521029943181439,0.04287282966210593,-0.7478665450201298,-0.22560926287956162,-0.9956113847362436,0.28122805198580303,-0.2663251232071062,-0.5331336807037954,-0.474146066222058,0.09595248981354598,0.46069767629976255,-0.21193457927298587,-0.4034459869448035,-0.6764051652479961,-0.7365931164851736,-0.42673935101839633,0.8568339297825045,-0.5829142126183138,-0.023150398508108072,0.3396870606021771,-0.830584509305736,0.7526115036539893,-0.9963856531379378,0.19946073650740725,-0.5964150058184581,0.712326654623824,-0.5652333498224762,-0.8957837028496123,-0.5223117432760789,0.48228877243594304,0.6413331932170228,0.6843771508893604,-0.7179525619137519,-0.7572432590758631,-0.682787843319336,-0.994262239643499,0.15343116381575506,0.3415373589024193,0.9289757248779975,0.05291977481850063,0.3185070194932047,0.3405564884717027,0.9609812316099393,0.6066086870528009,-0.044416939465086624,0.8141201419838253,0.6957711189867966,-0.8471102391554806,-0.21067956185475434,-0.41100667047728856,-0.17964272965724293,0.6617325040180835,0.773780819275316,0.0649713383416981,-0.9891951552862615,-0.4204976151165105,-0.6565631688776137,0.17497079110560287,-0.661480834004861,0.8253768554052019,0.23162549202980798,0.05298746924917941,-0.23367464101703983,-0.01570051310009979,0.13346669730524185,-0.6076315117896884,0.8165944674673518,-0.2245819995738112,-0.27748541623943535,-0.45324340969167265,-0.2497994385034219,-0.8366497614074024,0.05939938910724596,-0.393284578853903,0.6016186383878295,0.6594533822395774,0.409203840740362,0.23799121356587905,-0.1421174843906079,0.989265628662247,-0.8670989689302815,0.254928060255335,0.856341473422612,-0.7431137930686071,-0.4493090104137374,-0.4839066174968516,0.1844463966989669,0.9916659392875784,0.7105415446483205,-0.5151359122240562,-0.989206776160271,-0.5783617213490848,-0.47682392101687077,-0.47891054296973734,-0.13086728475761045,-0.9647943569843991,-0.8519613237860384,-0.6393043277032437,-0.11820509764687892,-0.2389409787901733,0.39984792144607884,0.056776218365711895,0.6625498345436855,0.801601165992639,-0.42688918023412237,0.5739699016145492,0.1207803868920787,0.9435603425412764,0.3813482249448197,-0.593302961019357,-0.7737056013325765,-0.6932587374041861,0.5837274112986344,0.1940834094759709,-0.6158094861077816,0.9982039248138881,0.5986443406477098,-0.6002445716403484,0.786768628438129,-0.297152252168446,0.14849646688224571,-0.26206724051245645,0.8075780645130142,-0.33800126254986895,0.806639860119216,-0.472048379214985,-0.33273895069584003,0.19562324912915097,0.5913191313539656,0.7524150104936527,-0.6672322949855698,0.2510817036346482,-0.35059106031666065,-0.7296591929568534,-0.615444003142279,0.7102720169145162,0.1606328967670163,0.12261863664932915,-0.09702473345282958,0.14668002878863096,0.9669519383367864,-0.3278662540863957,0.6296905022125261,0.999732703933804,-0.6119395897799917,0.8170770191856465,0.3041465138015058,-0.6005455963088773,-0.526180010211377,-0.7908201756422895,0.0635360877689386,0.9076594630373389,-0.026706394577677095,-0.9026908571044112,0.2975276959543116,-0.270207240059273,0.33528749620200626,0.6028610245030568,0.7231431265740287,0.6368325607896921,0.14708483300276365,-0.7564884316759941,-0.9131488848682812,-0.06384679923190584,-0.41169130450459845,0.8151708111546017,-0.19635535094879608,-0.1747259467911939,-0.8400094986035773,0.26295953419305484,0.8207657803048751,0.56248398903906,0.7022332026577327,-0.5978325758123457,-0.2848193591725483,-0.14996447618193454,0.13149307390538234,-0.8985683304443255,0.22307702790753714,-0.1469415678983279,0.1429603536652151,-0.23862371090973,-0.7369652733152197,0.5293524161996974,0.7240872632518476,-0.6804603516232284,-0.22763613148907313,-0.7778286548085509,0.46316439203519466,-0.5979698295283908,0.638296206596249,0.7797236053093162,0.17297985821456274,0.5030912753344277,0.7955359983578612,-0.5274164059613846,0.26890229503867946,0.8781533855514407,-0.14853596977254213,0.40362711392520034,-0.6211498076752726,-0.5867147940866115,0.9283368555583202
0.34601240213930495,0.3407779355198892,1.0,0.25788784425603506,-0.5374565573811487,-0.13625842788984266,-0.2168085050669708,-0.5196742455371757,0.49591333975159135,-0.5112785608566979,0.8191106432946698,0.20470908997840942,0.7983833705118915,0.30377109471571817,-0.881323971756006,1.0,0.8225154568173643,0.18135938736606416,0.5819038625654334,-0.842346571755126,0.9473688900106159,-0.3325672738053784,0.035792989489799254,0.9983633438931347,-0.17662573303802231,0.12813112829884354,0.9268323449247269,-0.06890262590118335,0.13397407450342125,-0.9656363293578192,-0.959043378991081,-0.5819106748157488,0.8892090906314243,-0.8730911235310281,-0.42307209331091844,-0.24468928339184703,0.4571972355404679,0.47314245141401123,0.05475191029619619,1.0,0.46096667144114,-0.18723404124941556,-0.06698579406788996,-0.7111128669159892,-0.7345394602288602,0.643882395496588,-0.08848714439834682,0.8611390739335858,0.04434459735866669,0.04608255278454498,0.35122285935229125,0.2528068791383218,-0.5995723379002769,0.4107501376625289,0.1655213995037217,0.438426330911303,1.0,0.3506314969030413,0.30402958660596346,-0.9431720731696758,0.08223998475014205,0.9044563700055672,-0.8247364208827541,0.07416162389230996,0.6680174353560304,1.0,-0.29352194223172234,-0.6820588458006829,-0.8191082391649913,0.047611180726222724,-0.10936279251486436,0.30863211071185237,0.5774632633756625,-0.8374955494163083,0.867630695870393,0.12815311511302263,0.47995699377375933,0.842107471645404,-0.5701166668436777,1.0,0.32035241622450794,-0.13340331671939332,-0.666950268978258,-0.6033175392926509,0.07056462100850691,0.28254869349025946,-0.4422682793837278,1.0,0.47672540511928396,0.9498293059099834,1.0,-0.5707638499426149,0.938706991397817,0.37558767287670425,-0.09755271701486912,1.0,-0.35890447412159254,-0.8311137012072185,-0.8339338060218213,-0.07651537579739376,-0.9841105546375593,0.7632033955234561,0.6778610064320607,0.24432931408035308,0.41546211421144763,-0.2507442266706237,-0.617423740948039,0.8733659530348308,-0.8685177182189614,1.0,0.5650376670382213,-0.5421256284463485,0.9765759683989832,-0.5803617834202233,0.9048159978194126,-0.2551253864612466,0.7075122379790466,0.8435438253417429,0.9086665318832976,-0.2631076070730731,0.1694304602740786,-0.9765434556989376,-0.6847087437298907,-0.003918618293438092,0.7975382446913732,-0.8292986147653267,-0.16605705260234616,0.21575982375152059,0.9115752106767008,0.28815008064444236,-0.14123100096294539,-0.8633568806408887,0.6959474506240046,0.9223495180796653,0.07695498258712341,-0.6831849576850484,0.7047474283092514,0.34273414009622094,0.8192982664152444,1.0,0.9773804899367895,1.0,-0.645464819854662,0.8706990075067038,0.6844792515964826,-0.27238160099887376,0.19421417518719775,-0.17666326227152718,-0.6101936232675,0.614899663619846,-0.23227703486575213,-0.40984855500655715,-0.7424015574661005,0.33040777761547746,0.7066311061183539,0.6243161356305524,0.6901040274231587,0.6832485535119099,0.8249242188596475,-0.45339471521455943,-0.7677401413900933,-0.37368320948656786,-0.1830730430462415,-0.7939949413436833,0.08621602375394799,-0.9661687757125197,-0.22515847864709437,-0.3838532900740226,0.7088060590956844,-0.2408684685975757,-0.1587548293107406,0.6924532043909295,0.5359331742417324,-0.4258972495634239,-0.7201591691648812,0.8322765373952645,0.5224258719785213,-0.18055639594055628,-0.8142247237093088,0.7322742812302672,-0.2749113489489805,-0.8534822618513509,-0.6228755270651136,0.2143644780563576,-0.985735679244498,-0.9901649522832139,0.3016259283724907,0.33415687792155957,-0.6781604424816519,0.10235790282573798,0.9116770970612673,-0.278037680990999,-1.0,0.9476804942398196,-0.6198223698315015,0.9681576027711527,0.8871161435963055,-0.03349034737645029,0.4882696580507955,0.1422261251908843,-0.6340732695687039,-0.6068743948277182,0.7286107793894931,1.0,0.5938858280656614,1.0,0.00023816614007143855,-0.08959535856356249,-0.3096568316297339,0.012422861141256014,-0.9428724116998495,0.9356658530828086,1.0,-0.6169335825113191,0.16143310213087925,-0.9206722603346511,-0.7440265688539611,-0.45763804444824263,0.7704234280062814,0.21208994551594174,0.14854555289464288,1.0,0.19636661713184633,-0.17498042223238963,0.15439362619915964,1.0,0.8167861697190659,-0.43721393862138735,0.2600131849711689,0.7177399021440687,0.2399527261112906,0.7751897505029763,0.8321951269924925,-0.01388251184709155,0.8584296578680473,-0.1652505799224726,0.29722520288722465,0.7527417287400697,0.8256092010818774,-0.1972815041477003,-0.6420383066323025,-0.9920775621485896,-0.8123363920973787,-0.21193511319923153,0.052483115208118214,0.17757324236426086,1.0,0.9396441252576855,0.6825646453721621,0.19223481527724662,-0.8284078738150871,1.0,-0.010226264331628876,1.0,-0.9964383183765522,0.8754879136812652,0.5894368683370179,0.9000706318046454,0.764953819470708,-0.6746170793896562,-0.9511138314254208,-0.30999386716584154,0.807508151810822,0.2975088811005133,-0.045528629887718
-0.16029024753000343,0.7600836769066994,0.47480894965220544,0.8837152668424906,0.6851265568495599,-0.7455434076175722,0.3189639386312235,-0.09118239850528598,1.0,0.9771090310987067,-0.34295199196421633,0.7459725434786135,0.23164680163135687,-0.23815051379539587,0.17283326439754898,-0.6754862477352015,1.0,0.011185195777853707,-0.1399778040316697,0.6058636160040809,1.0,0.6290575282651383,0.7875737571745212,-0.8766387617603417,-0.951689284010838,0.8802783278141271,0.07226153360681575,0.25748629568671255,0.7925729035961724,0.25575190387653546,-0.06612793323354338,0.19970154932757556,-0.5961224904105089,-0.17893262129291543,1.0,-0.7148851851361102,0.738163684694664,0.48053191173280485,-0.1545940981090541,-1.0,0.07195929094859799,-0.07224139928468665,0.0031982314947320845,-0.8975963922579382,0.6644952366788466,0.6571970408544969,0.8228017269106012,0.19627851862167045,-0.6178822067629675,0.8823439477300696,-0.8323008775170124,-0.14715925700042343,-0.9566354633315239,-0.7501860062991514,-0.5741426814781703,0.5753557771756237,0.5720784131405452,0.16472357233649637,-0.23835734022394162,-0.007493692709551691,0.24766164415022063,1.0,-0.39599635129234745,-0.27215566258139834,-0.06526398623115792,0.790445662531627,0.41095932465791307,-0.005023022176927405,-0.1218730004020494,-0.6263309737555816,-0.6520443578597035,-0.6716729925557399,-0.5556392844102622,0.2946707996825819,1.0,0.963780633563287,-0.794483135846817,-0.14142581222854567,-0.08685280765493553,0.6958876276535362,0.11363585878933113,0.2892026762611666,0.7078177681867976,-0.9907891624046656,0.7013755900627483,-0.011891744290401629,-0.08629615088266429,0.6143391816920074,0.9785896443577395,0.8695602006463714,0.24790007231560685,0.8436575630577856,-0.4393464187188263,-0.38439154400639186,-0.0029215214297286796,-0.2766908792211047,0.9226710260907298,0.8912687626975764,-0.42854314221952206,-0.5392139465260835,-0.8769574530565136,-0.30101596174102685,0.46509093502760335,-0.6277440394404525,0.26027958221876246,0.4497569894482518,-0.55913087195351,1.0,0.7161820164777375,0.6631475792402892,0.10296424375110202,0.07108963620810504,-0.15058773506587264,0.661699253046379,0.5548544012880154,-0.4563185041967097,0.6388624295942227,1.0,-0.6281304898132543,-1.0,-0.43801187564275557,0.06262380606887508,-0.7021995157336409,0.05582290170255888,0.24581350398761703,-0.4551349355030898,-0.750965589838587,-0.2282483927648129,-0.313411094238079,-0.7293505617241376,0.6208834384806128,0.183709136210223,-0.8650727781523473,0.8494401678227295,0.5077023185620444,-0.7144424839353416,0.8532180125678037,0.11126292566024287,-0.4113081147283826,-0.7685548753186722,-0.14684471180413472,0.10562894356339325,-0.6798692649249878,0.7908667129914386,-0.4601722813514906,0.13235078957985147,0.07060308184966857,1.0,0.846605058928696,-0.4007351190653101,0.6690474799388291,-0.0032095336699058397,-0.36688541962362287,-0.4561318728658179,-0.06850748371102489,-0.5271820305849255,0.7739755498018468,-0.9042280581268411,-0.4593838703339368,0.313380530743419,0.7473280266258167,0.9866865462908454,0.19623782310933446,-1.0,-0.2627915047655802,0.04010703893948708,-0.04102548824941232,-0.412775883109874,0.04961661488171365,-0.7257120622619166,0.04198993639493698,-0.1697955283565129,-0.24027110787645478,-0.531510660593473,1.0,0.5196680801173352,0.629638888143484,0.5691596943350303,-0.22363535552544223,1.0,-0.4044320888372228,0.3348604724333575,-0.17053735432800887,-0.8258509277373354,0.4632898050403944,0.6641545770117183,-0.01094442979408461,-0.6679252956881445,-0.7326247824136476,0.6627669993094139,0.5893519053933916,1.0,-0.04374967464632462,-0.438085224799698,0.11089406219905817,0.4505708097982406,0.40438698865205946,-0.5634965801352592,0.9008193266640363,0.28934557760559,-0.5220773913263115,-0.6496572131873419,-0.7267627956395082,0.1784367423509523,-0.3758739171680803,0.8399595771971815,0.5462209571591377,0.23091650340069547,-0.3234145311403527,0.81397082615474,-0.29763244386090637,-0.08314321039586114,0.9900000000000002,0.650426412815905,-0.03835478991792973,-0.18970548300496093,0.7797542076105275,-1.0,0.3566438715218423,-0.9531101008367022,-0.22310902717112668,0.8392359447619269,0.6470749952484631,1.0,-0.9607526713560641,1.0,0.3657976684241624,-0.1323916211698064,-0.9819127414253463,0.7798999913437812,0.4120137384178446,-0.7867362184920048,0.012903157352710082,-0.5963128307313461,0.6721270344886368,1.0,-0.8066050419138353,0.2915778440073584,-0.5483637403443433,0.7877789128048609,-0.5950419136770035,0.16011255048780537,0.4939054913383749,-0.5680971218197373,0.09117617973817893,-0.42906287773377993,0.3523640065522713,0.3816800311253825,0.4630066663037953,0.046539993976695726,0.9030772474462756,0.1570701921301696,-0.40585483198283967,0.2596132370941808,0.2774983793130419,0.5311756934879459,0.441815935730586,0.911982800860955,-0.5864505125654218,0.07776896025780022,-0.7948571721317499,0.2420890174823347,1.0,0.29079429872757867,-0.4886382031758485
-0.16029024753000343,0.7600836769066994,0.47480894965220544,0.8837152668424906,0.6851265568495599,-0.7455434076175722,0.3189639386312235,-0.09118239850528598,1.0,0.9771090310987067,-0.34295199196421633,0.7459725434786135,0.23164680163135687,-0.23815051379539587,0.17283326439754898,-0.6754862477352015,1.0,0.011185195777853707,-0.1399778040316697,0.6058636160040809,1.0,0.6290575282651383,0.7875737571745212,-0.8766387617603417,-0.951689284010838,0.8802783278141271,0.07226153360681575,0.25748629568671255,0.7925729035961724,0.25575190387653546,-0.06612793323354338,0.19970154932757556,-0.5961224904105089,-0.17893262129291543,1.0,-0.7148851851361102,0.738163684694664,0.48053191173280485,-0.1545940981090541,-1.0,0.07195929094859799,-0.07224139928468665,0.0031982314947320845,-0.8975963922579382,0.6644952366788466,0.6571970408544969,0.8228017269106012,0.19627851862167045,-0.6178822067629675,0.8823439477300696,-0.8323008775170124,-0.14715925700042343,-0.9566354633315239,-0.7501860062991514,-0.5741426814781703,0.5753557771756237,0.5720784131405452,0.16472357233649637,-0.23835734022394162,-0.007493692709551691,0.24766164415022063,1.0,-0.39599635129234745,-0.27215566258139834,-0.06526398623115792,0.790445662531627,0.41095932465791307,-0.005023022176927405,-0.1218730004020494,-0.6263309737555816,-0.6520443578597035,-0.6716729925557399,-0.5556392844102622,0.2946707996825819,1.0,0.963780633563287,-0.794483135846817,-0.14142581222854567,-0.08685280765493553,0.6958876276535362,0.11363585878933113,0.2892026762611666,0.7078177681867976,-0.9907891624046656,0.7013755900627483,-0.011891744290401629,-0.08629615088266429,0.6143391816920074,0.9785896443577395,0.8695602006463714,0.24790007231560685,0.8436575630577856,-0.4393464187188263,-0.38439154400639186,-0.0029215214297286796,-0.2766908792211047,0.9226710260907298,0.8912687626975764,-0.42854314221952206,-0.5392139465260835,-0.8769574530565136,-0.30101596174102685,0.46509093502760335,-0.6277440394404525,0.26027958221876246,0.4497569894482518,-0.55913087195351,1.0,0.7161820164777375,0.6631475792402892,0.10296424375110202,0.07108963620810504,-0.15058773506587264,0.661699253046379,0.5548544012880154,-0.4563185041967097,0.6388624295942227,1.0,-0.6281304898132543,-1.0,-0.43801187564275557,0.06262380606887508,-0.7021995157336409,0.05582290170255888,0.24581350398761703,-0.4551349355030898,-0.750965589838587,-0.2282483927648129,-0.313411094238079,-0.7293505617241376,0.6208834384806128,0.183709136210223,-0.8650727781523473,0.8494401678227295,0.5077023185620444,-0.7144424839353416,0.8532180125678037,0.11126292566024287,-0.4113081147283826,-0.7685548753186722,-0.14684471180413472,0.10562894356339325,-0.6798692649249878,0.7908667129914386,-0.4601722813514906,0.13235078957985147,0.07060308184966857,1.0,0.846605058928696,-0.4007351190653101,0.6690474799388291,-0.0032095336699058397,-0.36688541962362287,-0.4561318728658179,-0.06850748371102489,-0.5271820305849255,0.7739755498018468,-0.9042280581268411,-0.4593838703339368,0.313380530743419,0.7473280266258167,0.9866865462908454,0.19623782310933446,-1.0,-0.2627915047655802,0.04010703893948708,-0.04102548824941232,-0.412775883109874,0.04961661488171365,-0.7257120622619166,0.04198993639493698,-0.1697955283565129,-0.24027110787645478,-0.531510660593473,1.0,0.5196680801173352,0.629638888143484,0.5691596943350303,-0.22363535552544223,1.0,-0.4044320888372228,0.3348604724333575,-0.17053735432800887,-0.8258509277373354,0.4632898050403944,0.6641545770117183,-0.01094442979408461,-0.6679252956881445,-0.7326247824136476,0.6627669993094139,0.5893519053933916,1.0,-0.04374967464632462,-0.438085224799698,0.11089406219905817,0.4505708097982406,0.40438698865205946,-0.5634965801352592,0.9008193266640363,0.28934557760559,-0.5220773913263115,-0.6496572131873419,-0.7267627956395082,0.1784367423509523,-0.3758739171680803,0.8399595771971815,0.5462209571591377,0.23091650340069547,-0.3234145311403527,0.81397082615474,-0.29763244386090637,-0.08314321039586114,0.9900000000000002,0.650426412815905,-0.03835478991792973,-0.18970548300496093,0.7797542076105275,-1.0,0.3566438715218423,-0.9531101008367022,-0.22310902717112668,0.8392359447619269,0.6470749952484631,1.0,-0.9607526713560641,1.0,0.3657976684241624,-0.1323916211698064,-0.9819127414253463,0.7798999913437812,0.4120137384178446,-0.7867362184920048,0.012903157352710082,-0.5963128307313461,0.6721270344886368,1.0,-0.8066050419138353,0.2915778440073584,-0.5483637403443433,0.7877789128048609,-0.5950419136770035,0.16011255048780537,0.4939054913383749,-0.5680971218197373,0.09117617973817893,-0.42906287773377993,0.3523640065522713,0.3816800311253825,0.4630066663037953,0.046539993976695726,0.9030772474462756,0.1570701921301696,-0.40585483198283967,0.2596132370941808,0.2774983793130419,0.5311756934879459,0.441815935730586,0.911982800860955,-0.5864505125654218,0.07776896025780022,-0.7948571721317499,0.2420890174823347,1.0,0.29079429872757867,-0.4886382031758485
0.27047226330770835,0.05460820846393588,-0.38350117775373693,0.5533842412182572,-0.6872792664642597,-0.3451620455011719,0.08083557303469657,0.6927377986024075,0.35282842088388033,-1.0,0.7913058711635907,-0.03667768236088742,-0.16894526804749743,-0.6316345318108327,0.36330961909043147,-0.6587317391496113,0.38689733839300655,0.9900000000000002,0.12428747410632912,1.0,0.535574043310759,-0.8524787406289538,0.176107854946006,-0.330600165951374,0.45332995110707786,0.21011746879176485,0.9900000000000002,-0.44920355196961026,0.6098789366570916,-0.29213222984934717,0.9399871760527281,0.15243780663882744,0.69887421346814,-1.0,-1.0,0.24572356626135683,0.3432771691784877,0.9295407390267254,1.0,0.30680290360762275,0.3849500160922146,0.11887458231570647,0.22493235723448723,0.14245089979524495,-0.5122530327520052,0.018103995773201653,0.16669108878643701,0.8789595081018566,-0.4004614618677036,1.0,-0.24042299566771863,-1.0,-0.7252129159351473,0.8150830387964098,-0.6475322561695847,-0.37429632756886144,1.0,-1.0,-0.3125081190677692,0.8427132185504482,-0.44040878486864943,0.32837940455222725,-0.7227303878399205,-0.8281602390898177,-0.07300842972044874,0.38987807397663765,0.7935304282778897,-0.24735941428832098,0.645703284990855,-0.49590224530740834,0.042022507026016065,-0.15093087801537708,-0.8812253202787028,-0.009999999999999787,0.7416093240395307,0.3715438154684705,0.15764571326876275,0.34798966307250534,0.11236705669790492,0.950876210923441,1.0,-0.154629754392559,1.0,-1.0,0.35640702000257996,-0.32325769641640534,-0.7891785311142636,0.7899022415685293,-0.6743077450901879,1.0,0.2810397987498816,-0.0865795522049817,0.18154171373216066,-0.03368520346355308,0.9900000000000002,-0.25943153697553223,-0.8102530618710706,-0.5788684586171282,-0.2458885034041316,-0.14595038479088185,-0.7416153932579621,-0.3019068864870187,-0.0714918398222204,0.14269162005372515,0.431511673957397,-0.21586509965191514,0.34547397665217083,0.6823743524246941,-0.08299163646129148,0.4377934033481292,0.9900000000000002,0.007476408653531497,0.5224805195754226,0.5744921301866501,1.0,-0.8105913710713335,0.5329276498866742,-0.27089454458772333,0.47829724051084543,0.27821617083633154,0.9711167559797151,-0.49631602798810737,0.09604817821390932,-0.17423352956237403,-0.7043602487417755,0.9343849677972975,0.16968169613247852,0.30856228527271057,0.6198899523930539,-0.48370519427005376,0.08673444095639438,0.39421551128484644,0.543635654329881,0.5339153234860059,0.2527608299388716,0.7875747417082376,0.16866488007327618,-0.13457149817462066,0.31617467483127526,0.6007990573729036,-0.13102843294070787,-0.11224229230964244,0.617878857829806,-0.6588030529686846,0.49109397615460515,0.47452686439697356,-0.493206603983424,0.9053735380392265,-0.6277774358897323,0.8360424709384726,0.6849517473551598,0.771568246645848,0.24400795395049635,0.24943016683629005,1.0,0.850684956708148,0.47425254087645996,0.6394583519369107,0.027053767842893706,0.058894361565958286,-0.19935424916146882,-0.23980899596225125,-1.0,0.5445744636787071,0.7108406923884706,0.03158409915551097,0.04846515923219852,0.03249630750391663,-0.6233547478302948,0.22090115844626368,0.426231991757426,-1.0,0.9900000000000002,-0.16846588778357585,0.06487720027347552,0.3093573277033146,0.04519419955337062,0.018477856418366634,0.018317471227427884,-0.3775381392210888,0.9234294692323965,-0.18651620407835567,-0.7233205562263287,1.0,0.5193876665202835,0.14930211789466086,-0.44357006911350916,-0.1431818850882427,-0.6350392733236001,1.0,-0.6985690681530001,-0.15219302964416714,0.25026483376964626,0.22544180458937557,0.6792359424018741,0.7970754567111116,0.5992169069305643,1.0,-0.0525617584642481,-0.13859291743392266,1.0,0.9057494928041931,-0.051084908906340765,0.46662183120733935,-0.22855874247419283,0.2793469204139109,0.30595970042027254,0.20419170209834925,0.616130329870869,0.09316344371808416,1.0,0.2673621763244113,-0.5630733323667443,-0.26328220045527306,-0.7014890010876416,0.12531295032339695,0.2132934700912843,0.6823913887840289,0.189036696942807,-0.4492543818467065,0.9991495424723844,1.0,0.7651200778884466,1.0,0.6321616046043479,0.5473580011477566,-0.07413028661625276,0.4028496284044607,-0.2561714938621682,0.6021399551520936,-0.09222767541169102,0.7728246247296493,0.29276783444880305,0.7274365703069066,0.7700568065267601,-0.847493587810344,1.0,0.39404233164243285,0.11401538951217915,0.8374926680078048,-0.8474684768286531,0.7007759774890383,0.5708713703282942,0.5323924234319946,1.0,-0.230473438165264,1.0,1.0,0.6312526799245786,0.47470936274414344,0.374450577482732,1.0,-0.3949714130256756,0.9825930657001427,1.0,-0.6441589055648342,-0.029266482943244743,1.0,-1.0,-0.04672909893223731,-0.787923112942905,0.8806686630044349,0.678192479184645,0.9393209938815996,0.8258421052321063
0.632666960135581,-0.9445532314304879,-0.29420722985451064,-0.30644066381234114,-0.03369040949241575,-0.8309692656206167,0.2305935037517759,-0.4412167034443386,-0.5221815758533415,-0.06695719848505033,-0.6620473062387786,0.18623042112323995,0.4382586389759442,-0.6410149670214267,0.0018252638690661183,0.8395210513096216,-0.689681003875456,-0.9925119523675432,0.69841860121971,-0.21286685025805063,0.2764656494562401,0.8692003094924101,0.8188115518947836,0.05000840815270857,-0.6387099242542282,0.9385986917736686,0.004344922957506547,-0.715886813258688,-0.7478873962783552,0.6247469505145613,-0.39305649560131495,0.372650647172724,0.6387697581568839,-0.3443804343099559,-0.18327663924235393,-0.15628831866775816,-0.03397546763618475,0.8943916661714655,1.0,-0.49289608876254376,-0.4630496051937256,0.004474891035046058,0.18520918715281853,-0.3518203142437615,0.20490187470753174,0.7192361399413731,-0.32004699285549654,0.23994126968964546,-0.33256464461832325,0.48322055871991476,-0.9952829538600447,-0.7558891954546918,-0.6533105940445372,0.6985423298289317,0.03725308190530563,-0.5324674352661687,0.271905750052593,0.22467746509635078,1.0,-0.6389976023194497,-0.5318095011379782,-0.21327442899216242,-0.5521029943181439,0.04287282966210593,-0.7478665450201298,-0.22560926287956162,-0.9956113847362436,0.28122805198580303,-0.2763251232071062,-0.5331336807037954,-0.474146066222058,0.09595248981354598,0.46069767629976255,-0.2219345792729861,-0.4034459869448035,-0.6764051652479961,-0.7365931164851736,-0.42673935101839633,0.8568339297825045,-0.5829142126183138,-0.03315039850810786,0.3396870606021771,-0.830584509305736,0.7526115036539893,-0.9963856531379378,0.19946073650740725,-0.5964150058184581,0.712326654623824,-0.5652333498224762,-0.8957837028496123,-0.5223117432760789,0.48228877243594304,0.6413331932170228,0.9875323070692774,-0.7179525619137519,-0.7672432590758631,-0.682787843319336,0.8267398814131077,0.15343116381575506,0.5382168831393175,0.9289757248779975,0.05291977481850063,0.3185070194932047,0.47676058391625276,0.9609812316099393,0.6066086870528009,-0.044416939465086624,0.8141201419838253,0.6957711189867966,-0.8471102391554806,-0.21067956185475434,-0.41100667047728856,-0.17964272965724293,0.6617325040180835,0.773780819275316,0.0649713383416981,-0.9891951552862615,-0.4204976151165105,-0.6565631688776137,0.17497079110560287,-0.661480834004861,1.0,0.22162549202980797,0.04298746924917918,1.0,-0.01570051310009979,0.13346669730524185,-0.6076315117896884,0.8065944674673515,-0.2245819995738112,-0.28748541623943513,-0.4632434096916729,-0.2497994385034219,-0.8366497614074024,0.05939938910724596,-0.393284578853903,0.6016186383878295,0.6594533822395774,0.409203840740362,0.22799121356587904,-0.15211748439060813,0.989265628662247,-0.8670989689302815,0.24492806025533476,0.846341473422612,-0.7431137930686071,-0.4493090104137374,-0.4839066174968516,0.1844463966989669,0.9916659392875784,0.7105415446483205,-0.5151359122240562,-0.989206776160271,-0.5783617213490848,0.1352134476727268,-0.5111332803947296,-0.5267388279578659,-0.2879097646967198,-0.7586478646921309,-0.2528937535903766,-0.031176771958748017,-0.5273265975341088,0.2724677981077984,0.31913320531642175,0.08114202096776757,0.41295679631769433,-0.13905065014912454,0.5318075255584166,-0.3620172081553001,-0.39441609149090645,-0.03956166711161074,0.07473731056936178,-0.2974456991654748,0.320017708030794,-0.34793249972434687,-0.08953260565476656,-0.1141306138015204,1.0,-0.40864398306693817,-0.09210400664338908,-0.24231930309486183,0.21998873647647849,0.3419582614427674,0.4120611016820357,0.5047390682946673,0.6356947562391886,-0.39372188002143194,-0.4840680065954732,0.07371974933240288,0.5010976652391332,0.9330702893404241,0.305113056779361,0.25738239583268285,0.29368625486878525,-0.3177202765152496,0.3451999375151984,-0.18244680487912834,-0.11958487328930417,-0.46716249254717024,-0.06207461738808179,0.003800495790833802,0.19897806822965303,0.06598195221012249,0.5038961327203578,-0.300546666603154,0.22929709801621306,0.0664990066887653,-0.1296732158184451,0.0849502503813302,0.19806556734648362,-0.033226132772109285,0.03240948541257421,0.2694119841633551,-0.060895700807197695,0.48252968361664067,-0.39830642051357046,0.15797890775996143,0.2792200012763126,0.5916689666878505,0.02540835301060529,-0.4190322446974541,0.345245934025322,-0.0535556519431451,0.1926476777083797,-0.2310325733271913,-0.48644311172179266,0.18131017143523565,0.4427714148668539,0.4090094057914439,0.004058660579626616,-0.05955216311495115,0.644428289270353,0.47537214516997317,-0.1018311022634335,0.2333136997634384,-0.3428114181116375,-0.3788336949526745,-0.1027986241885035,0.27992424611499267,-0.04198509462044575,0.3178834396364064,0.12384855008244233,0.3875862213975413,0.37445343264226294,-0.7369652733152197,0.5293524161996974,0.7240872632518476,-0.6804603516232284,-0.22763613148907313,-0.7778286548085509,0.46316439203519466,0.6114549824279498,0.638296206596249,0.7797236053093162,0.17297985821456274,0.5030912753344277,0.7955359983578612,0.0746200885642554,0.7590949736770058,0.8781533855514407,-0.14853596977254213,0.40362711392520034,-0.6211498076752726,-0.5867147940866115,0.9283368555583202
0.632666960135581,-0.9445532314304879,-0.29420722985451064,-0.30644066381234114,-0.03369040949241575,-0.8309692656206167,0.2305935037517759,-0.4412167034443386,-0.5221815758533415,-0.06695719848505033,-0.6620473062387786,0.18623042112323995,0.4382586389759442,-0.6410149670214267,0.0018252638690661183,0.8395210513096216,-0.689681003875456,-0.9925119523675432,0.69841860121971,-0.21286685025805063,0.2764656494562401,0.8692003094924101,0.8188115518947836,0.05000840815270857,-0.6387099242542282,0.9385986917736686,0.004344922957506547,-0.715886813258688,-0.7478873962783552,0.6247469505145613,-0.39305649560131495,0.372650647172724,0.6387697581568839,-0.3443804343099559,-0.18327663924235393,-0.15628831866775816,-0.03397546763618475,0.8943916661714655,1.0,-0.49289608876254376,-0.4630496051937256,0.004474891035046058,0.18520918715281853,-0.3518203142437615,0.20490187470753174,0.7192361399413731,-0.32004699285549654,0.23994126968964546,-0.33256464461832325,0.48322055871991476,-0.9952829538600447,-0.7558891954546918,-0.6533105940445372,0.6985423298289317,0.03725308190530563,-0.5324674352661687,0.271905750052593,0.22467746509635078,1.0,-0.6389976023194497,-0.5318095011379782,-0.21327442899216242,-0.5521029943181439,0.04287282966210593,-0.7478665450201298,-0.22560926287956162,-0.9956113847362436,0.28122805198580303,-0.2763251232071062,-0.5331336807037954,-0.474146066222058,0.09595248981354598,0.46069767629976255,-0.2219345792729861,-0.4034459869448035,-0.6764051652479961,-0.7365931164851736,-0.42673935101839633,0.8568339297825045,-0.5829142126183138,-0.03315039850810786,0.3396870606021771,-0.830584509305736,0.7526115036539893,-0.9963856531379378,0.19946073650740725,-0.5964150058184581,0.712326654623824,-0.5652333498224762,-0.8957837028496123,-0.5223117432760789,0.48228877243594304,0.6413331932170228,0.9875323070692774,-0.7179525619137519,-0.7672432590758631,-0.682787843319336,0.8267398814131077,0.15343116381575506,0.5382168831393175,0.9289757248779975,0.05291977481850063,0.3185070194932047,0.47676058391625276,0.9609812316099393,0.6066086870528009,-0.044416939465086624,0.8141201419838253,0.6957711189867966,-0.8471102391554806,-0.21067956185475434,-0.41100667047728856,-0.17964272965724293,0.6617325040180835,0.773780819275316,0.0649713383416981,-0.9891951552862615,-0.4204976151165105,-0.6565631688776137,0.17497079110560287,-0.661480834004861,1.0,0.22162549202980797,0.04298746924917918,1.0,-0.01570051310009979,0.13346669730524185,-0.6076315117896884,0.8065944674673515,-0.2245819995738112,-0.28748541623943513,-0.4632434096916729,-0.2497994385034219,-0.8366497614074024,0.05939938910724596,-0.393284578853903,0.6016186383878295,0.6594533822395774,0.409203840740362,0.22799121356587904,-0.15211748439060813,0.989265628662247,-0.8670989689302815,0.24492806025533476,0.846341473422612,-0.7431137930686071,-0.4493090104137374,-0.4839066174968516,0.1844463966989669,0.9916659392875784,0.7105415446483205,-0.5151359122240562,-0.989206776160271,-0.5783617213490848,0.1352134476727268,-0.5111332803947296,-0.5267388279578659,-0.2879097646967198,-0.7586478646921309,-0.2528937535903766,-0.031176771958748017,-0.5273265975341088,0.2724677981077984,0.31913320531642175,0.08114202096776757,0.41295679631769433,-0.13905065014912454,0.5318075255584166,-0.3620172081553001,-0.39441609149090645,-0.03956166711161074,0.07473731056936178,-0.2974456991654748,0.320017708030794,-0.34793249972434687,-0.08953260565476656,-0.1141306138015204,1.0,-0.40864398306693817,-0.09210400664338908,-0.24231930309486183,0.21998873647647849,0.3419582614427674,0.4120611016820357,0.5047390682946673,0.6356947562391886,-0.39372188002143194,-0.4840680065954732,0.07371974933240288,0.5010976652391332,0.9330702893404241,0.305113056779361,0.25738239583268285,0.29368625486878525,-0.3177202765152496,0.3451999375151984,-0.18244680487912834,-0.11958487328930417,-0.46716249254717024,-0.06207461738808179,0.003800495790833802,0.19897806822965303,0.06598195221012249,0.5038961327203578,-0.300546666603154,0.22929709801621306,0.0664990066887653,-0.1296732158184451,0.0849502503813302,0.19806556734648362,-0.033226132772109285,0.03240948541257421,0.2694119841633551,-0.060895700807197695,0.48252968361664067,-0.39830642051357046,0.15797890775996143,0.2792200012763126,0.5916689666878505,0.02540835301060529,-0.4190322446974541,0.345245934025322,-0.0535556519431451,0.1926476777083797,-0.2310325733271913,-0.48644311172179266,0.18131017143523565,0.4427714148668539,0.4090094057914439,0.004058660579626616,-0.05955216311495115,0.644428289270353,0.47537214516997317,-0.1018311022634335,0.2333136997634384,-0.3428114181116375,-0.3788336949526745,-0.1027986241885035,0.27992424611499267,-0.04198509462044575,0.3178834396364064,0.12384855008244233,0.3875862213975413,0.37445343264226294,-0.7369652733152197,0.5293524161996974,0.7240872632518476,-0.6804603516232284,-0.22763613148907313,-0.7778286548085509,0.46316439203519466,0.6114549824279498,0.638296206596249,0.7797236053093162,0.17297985821456274,0.5030912753344277,0.7955359983578612,0.0746200885642554,0.7590949736770058,0.8781533855514407,-0.14853596977254213,0.40362711392520034,-0.6211498076752726,-0.5867147940866115,0.9283368555583202
0.2604722633077081,1.0,-0.38350117775373693,0.6798304719674286,-0.6872792664642597,-0.3451620455011719,1.0,0.6827377986024077,0.33282842088388076,-1.0,0.7913058711635907,-0.03667768236088742,-0.16894526804749743,-0.6416345318108325,1.0,0.4910061384329474,0.38689733839300655,0.9900000000000002,0.11428747410632933,0.9900000000000002,0.918864573657042,0.09561889289286096,0.16610785494600577,-0.330600165951374,0.45332995110707786,0.20011746879176506,0.9900000000000002,-0.44920355196961026,0.6098789366570916,-0.0557897629112194,0.9399871760527281,0.15243780663882744,0.987375816823314,-1.0,-1.0,0.7925843488879161,0.3432771691784877,0.9295407390267254,1.0,0.30680290360762275,0.3849500160922146,0.10887458231570646,0.21493235723448745,0.14245089979524495,-0.5122530327520052,0.008103995773201866,0.16669108878643701,0.8789595081018566,-0.3610824444626206,1.0,-0.2504229956677184,-1.0,-0.735212915935147,0.8150830387964098,-0.6475322561695847,-0.37429632756886144,1.0,-1.0,-0.3125081190677692,1.0,0.7583485942469683,0.32837940455222725,-0.10985970481495366,-0.8381602390898175,1.0,0.38987807397663765,0.93919298403799,-0.24735941428832098,0.6357032849908553,-0.29920258974122094,0.042022507026016065,-0.1609308780153773,-0.7140745991212842,-0.009999999999999787,1.0,0.3715438154684705,0.14764571326876297,0.34798966307250534,0.11236705669790492,0.950876210923441,1.0,-0.16462975439255878,0.9900000000000002,-1.0,0.35640702000257996,-0.32325769641640534,-0.6618165803963398,0.7899022415685293,-0.6743077450901879,1.0,0.2810397987498816,-0.10657955220498128,0.18154171373216066,-0.03368520346355308,0.9800000000000004,-0.26943153697553246,-0.8102530618710706,-0.5788684586171282,-0.26588850340413117,-0.14595038479088185,-0.7416153932579621,-0.3119068864870185,-0.08149183982222041,0.12269162005372536,0.5914195076055986,-0.22586509965191492,0.34547397665217083,0.6823743524246941,-0.09299163646129127,0.4377934033481292,0.9800000000000004,0.007476408653531497,0.5224805195754226,0.5544921301866506,1.0,-0.8205913710713335,0.5129276498866746,-0.27089454458772333,1.0,0.27821617083633154,0.9611167559797149,-0.5063160279881074,0.09604817821390932,-0.17423352956237403,-0.7143602487417757,0.9243849677972973,0.15968169613247873,0.30856228527271057,0.6198899523930539,-0.48370519427005376,0.08673444095639438,0.39421551128484644,-1.0,1.0,0.2527608299388716,0.7875747417082376,0.16866488007327618,-0.13457149817462066,0.31617467483127526,0.5907990573729034,0.009215536520758683,-0.11224229230964244,0.6078788578298058,-0.6588030529686846,0.48109397615460514,0.47452686439697356,-0.493206603983424,0.9053735380392265,-0.6377774358897321,0.8360424709384726,0.6849517473551598,1.0,0.24400795395049635,0.24943016683629005,1.0,0.8406849567081478,0.47425254087645996,0.6394583519369107,0.027053767842893706,0.058894361565958286,-0.19935424916146882,-0.24980899596225115,-1.0,0.5445744636787071,0.7108406923884706,0.03158409915551097,0.3969465461902497,0.03249630750391663,-0.643354747830295,0.22090115844626368,0.4162319917574262,-1.0,0.9800000000000004,-0.16846588778357585,0.06487720027347552,0.3093573277033146,0.04519419955337062,0.018477856418366634,0.018317471227427884,-0.3775381392210888,0.9234294692323965,1.0,-0.733320556226329,1.0,0.5093876665202837,0.13930211789466096,-0.44357006911350916,-0.1431818850882427,-0.6350392733236001,1.0,-0.6686757592634862,-0.15219302964416714,0.25026483376964626,0.22544180458937557,0.6692359424018743,0.7970754567111116,0.5892169069305644,0.9900000000000002,0.6149275764585163,0.6281754290451569,1.0,-1.0,-0.051084908906340765,1.0,-0.22855874247419283,0.6619072526001202,0.29595970042027275,0.19419170209834924,0.6061303298708691,0.09316344371808416,0.9900000000000002,1.0,0.9848076389233777,-0.27328220045527285,-0.7114890010876413,0.12531295032339695,0.2132934700912843,0.6823913887840289,0.189036696942807,-0.45925438184670675,0.9991495424723844,1.0,0.7551200778884466,1.0,1.0,0.5473580011477566,-0.07413028661625276,0.9384347350150715,-0.266171493862168,0.8644356867824396,-0.09222767541169102,0.7728246247296493,0.29276783444880305,0.7274365703069066,0.7700568065267601,-0.8574935878103442,1.0,0.3840423316424326,0.11401538951217915,0.827492668007805,-0.8474684768286531,1.0,0.5708713703282942,1.0,-1.0,-0.230473438165264,1.0,1.0,0.6312526799245786,0.47470936274414344,0.374450577482732,1.0,0.8901141359918587,0.9725930657001429,0.9900000000000002,-0.6441589055648342,-0.03926648294324453,1.0,0.5336161310863323,0.03673907648454744,-0.6832521287178683,0.8806686630044349,0.678192479184645,0.9393209938815996,0.8158421052321065
0.2604722633077081,1.0,-0.38350117775373693,0.6798304719674286,-0.6872792664642597,-0.3451620455011719,1.0,0.6827377986024077,0.33282842088388076,-1.0,0.7913058711635907,-0.03667768236088742,-0.16894526804749743,-0.6416345318108325,1.0,0.4910061384329474,0.38689733839300655,0.9900000000000002,0.11428747410632933,0.9900000000000002,0.918864573657042,0.09561889289286096,0.16610785494600577,-0.330600165951374,0.45332995110707786,0.20011746879176506,0.9900000000000002,-0.44920355196961026,0.6098789366570916,-0.0557897629112194,0.9399871760527281,0.15243780663882744,0.987375816823314,-1.0,-1.0,0.7925843488879161,0.3432771691784877,0.9295407390267254,1.0,0.30680290360762275,0.3849500160922146,0.10887458231570646,0.21493235723448745,0.14245089979524495,-0.5122530327520052,0.008103995773201866,0.16669108878643701,0.8789595081018566,-0.3610824444626206,1.0,-0.2504229956677184,-1.0,-0.735212915935147,0.8150830387964098,-0.6475322561695847,-0.37429632756886144,1.0,-1.0,-0.3125081190677692,1.0,0.7583485942469683,0.32837940455222725,-0.10985970481495366,-0.8381602390898175,1.0,0.38987807397663765,0.93919298403799,-0.24735941428832098,0.6357032849908553,-0.29920258974122094,0.042022507026016065,-0.1609308780153773,-0.7140745991212842,-0.009999999999999787,1.0,0.3715438154684705,0.14764571326876297,0.34798966307250534,0.11236705669790492,0.950876210923441,1.0,-0.16462975439255878,0.9900000000000002,-1.0,0.35640702000257996,-0.32325769641640534,-0.6618165803963398,0.7899022415685293,-0.6743077450901879,1.0,0.2810397987498816,-0.10657955220498128,0.18154171373216066,-0.03368520346355308,0.9800000000000004,-0.26943153697553246,-0.8102530618710706,-0.5788684586171282,-0.26588850340413117,-0.14595038479088185,-0.7416153932579621,-0.3119068864870185,-0.08149183982222041,0.12269162005372536,0.5914195076055986,-0.22586509965191492,0.34547397665217083,0.6823743524246941,-0.09299163646129127,0.4377934033481292,0.9800000000000004,0.007476408653531497,0.5224805195754226,0.5544921301866506,1.0,-0.8205913710713335,0.5129276498866746,-0.27089454458772333,1.0,0.27821617083633154,0.9611167559797149,-0.5063160279881074,0.09604817821390932,-0.17423352956237403,-0.7143602487417757,0.9243849677972973,0.15968169613247873,0.30856228527271057,0.6198899523930539,-0.48370519427005376,0.08673444095639438,0.39421551128484644,-1.0,1.0,0.2527608299388716,0.7875747417082376,0.16866488007327618,-0.13457149817462066,0.31617467483127526,0.5907990573729034,0.009215536520758683,-0.11224229230964244,0.6078788578298058,-0.6588030529686846,0.48109397615460514,0.47452686439697356,-0.493206603983424,0.9053735380392265,-0.6377774358897321,0.8360424709384726,0.6849517473551598,1.0,0.24400795395049635,0.24943016683629005,1.0,0.8406849567081478,0.47425254087645996,0.6394583519369107,0.027053767842893706,0.058894361565958286,-0.19935424916146882,-0.24980899596225115,-1.0,0.5445744636787071,0.7108406923884706,0.03158409915551097,0.3969465461902497,0.03249630750391663,-0.643354747830295,0.22090115844626368,0.4162319917574262,-1.0,0.9800000000000004,-0.16846588778357585,0.06487720027347552,0.3093573277033146,0.04519419955337062,0.018477856418366634,0.018317471227427884,-0.3775381392210888,0.9234294692323965,1.0,-0.733320556226329,1.0,0.5093876665202837,0.13930211789466096,-0.44357006911350916,-0.1431818850882427,-0.6350392733236001,1.0,-0.6686757592634862,-0.15219302964416714,0.25026483376964626,0.22544180458937557,0.6692359424018743,0.7970754567111116,0.5892169069305644,0.9900000000000002,0.6149275764585163,0.6281754290451569,1.0,-1.0,-0.051084908906340765,1.0,-0.22855874247419283,0.6619072526001202,0.29595970042027275,0.19419170209834924,0.6061303298708691,0.09316344371808416,0.9900000000000002,1.0,0.9848076389233777,-0.27328220045527285,-0.7114890010876413,0.12531295032339695,0.2132934700912843,0.6823913887840289,0.189036696942807,-0.45925438184670675,0.9991495424723844,1.0,0.7551200778884466,1.0,1.0,0.5473580011477566,-0.07413028661625276,0.9384347350150715,-0.266171493862168,0.8644356867824396,-0.09222767541169102,0.7728246247296493,0.29276783444880305,0.7274365703069066,0.7700568065267601,-0.8574935878103442,1.0,0.3840423316424326,0.11401538951217915,0.827492668007805,-0.8474684768286531,1.0,0.5708713703282942,1.0,-1.0,-0.230473438165264,1.0,1.0,0.6312526799245786,0.47470936274414344,0.374450577482732,1.0,0.8901141359918587,0.9725930657001429,0.9900000000000002,-0.6441589055648342,-0.03926648294324453,1.0,0.5336161310863323,0.03673907648454744,-0.6832521287178683,0.8806686630044349,0.678192479184645,0.9393209938815996,0.8158421052321065
-0.16029024753000343,0.7500836769066996,0.4648089496522054,1.0,0.6751265568495599,-0.7355434076175724,0.3189639386312235,-0.12118239850528534,-1.0,0.9900000000000002,-0.35295199196421656,0.7459725434786135,0.23164680163135687,1.0,0.17283326439754898,-0.6754862477352015,0.9800000000000004,0.9900000000000002,-0.15997780403166928,0.6058636160040809,0.9800000000000004,-1.0,1.0,-0.8866387617603415,-0.951689284010838,1.0,0.062261533606815966,0.9900000000000002,1.0,1.0,-0.06612793323354338,0.18970154932757577,0.22456677207653986,0.5970514924804524,1.0,-0.5636785359253365,0.728163684694664,0.47053191173280506,-0.1508129087437915,-1.0,0.06195929094859798,0.360570733367092,0.1944828685972384,-0.8975963922579382,0.6444952366788463,1.0,0.8228017269106012,0.46190332472139684,-0.6278822067629672,0.8723439477300694,0.7542744794465168,1.0,-0.966635463331524,-0.7501860062991514,-0.5741426814781703,0.5753557771756237,1.0,1.0,-0.23835734022394162,-0.017493692709551478,0.6886245130095219,-1.0,-0.40599635129234724,-0.27215566258139834,0.6736711828138269,0.7992869613104201,0.9900000000000002,0.42496568534479406,-0.1218730004020494,-0.6463309737555818,-0.6520443578597035,-0.6816729925557397,-0.3593117531851311,0.2746707996825819,0.9900000000000002,0.9437806335632875,-0.0741578050928644,-0.14142581222854567,-0.08685280765493553,0.6858876276535364,0.11363585878933113,0.4753330992537217,1.0,-0.3203919140776561,0.6913755900627483,0.7835292141928827,-0.08629615088266429,0.6143391816920074,-1.0,0.4482915010882785,0.23337210033878364,0.39971001215222485,1.0,0.9714505799199271,-0.0502371192222989,1.0,0.8752290859909158,0.9456343813487882,-0.22606496855385583,-0.3078646611617386,-0.6077707813305229,-0.3210159617410264,0.46509093502760335,-0.6277440394404525,1.0,0.4297569894482516,0.652237934703221,1.0,-1.0,-1.0,0.10296424375110202,0.05108963620810503,-0.15058773506587264,-1.0,1.0,0.559677350150225,0.6388624295942227,0.9900000000000002,0.35488808254186743,-0.052118175524916044,0.9900000000000002,0.05262380606887529,-0.7121995157336407,0.05582290170255888,0.9900000000000002,-0.4551349355030898,0.14169908659821706,-0.2282483927648129,-0.313411094238079,-0.7293505617241376,0.610883438480613,1.0,-0.8750727781523473,0.9900000000000002,0.4977023185620446,-0.7244424839353414,1.0,0.11126292566024287,-0.4113081147283826,-0.7785548753186724,-0.14684471180413472,1.0,-0.43762037597116565,0.7608667129914393,-0.47017228135149036,0.12235078957985124,0.06060308184966878,0.9900000000000002,1.0,0.9034597002408931,1.0,-0.013209533669905849,1.0,-0.4761318728658175,-0.06850748371102489,-0.5271820305849255,0.763975549801847,-0.9042280581268411,-0.4593838703339368,0.30338053074341875,0.8536640133129083,0.6938391974144982,0.03010315691371579,-0.4918014758239895,0.3318685055331576,0.3732927185491671,0.7840924649009429,0.03293123021429378,0.8189956596305938,0.09988025948665857,0.00032302999144384614,-0.20923043636336866,-0.3577435807747496,-0.4103104740138359,0.6806837201069342,0.494063255288407,0.13960106498244915,0.5591596943350305,-1.0,1.0,0.4317428419519165,0.9800000000000004,-0.18053735432800888,-0.8358509277373356,-1.0,0.6641545770117183,-0.020944429794084396,-0.6779252956881443,-0.7426247824136478,1.0,0.5893519053933916,1.0,-0.05374967464632441,-0.438085224799698,0.10089406219905817,0.53778674836094,0.40438698865205946,-0.593496580135259,1.0,0.2793455776055902,-0.5320773913263115,-0.6496572131873419,-0.7267627956395082,0.691213818673587,-0.3758739171680803,1.0,0.5462209571591377,0.6220827901453871,-0.3234145311403527,0.8039708261547398,-0.30763244386090616,-0.09314321039586115,0.9900000000000002,0.650426412815905,-0.04835478991792952,-0.18970548300496093,0.7697542076105277,-1.0,0.3466438715218425,-0.9531101008367022,-0.22310902717112668,0.8292359447619271,0.6470749952484631,0.9800000000000004,-0.9607526713560641,1.0,0.9900000000000002,-0.1323916211698064,0.0446646849720036,0.7598999913437812,0.4020137384178444,0.395833647175162,0.012903157352710082,-0.5963128307313461,0.9900000000000002,1.0,0.41098910320913307,0.28157784400735864,-0.5483637403443433,1.0,-0.5950419136770035,0.1401125504878058,0.4839054913383749,-0.578097121819737,0.3645670909274408,-0.42906287773377993,0.3423640065522715,0.3816800311253825,0.4530066663037955,0.03653999397669594,0.9030772474462756,0.1570701921301696,-0.41585483198283946,0.24961323709418082,0.2674983793130421,0.5211756934879457,0.441815935730586,0.9019828008609547,0.9900000000000002,0.07776896025780022,-0.7948571721317499,0.9900000000000002,0.9800000000000004,0.29079429872757867,-0.4886382031758485
-0.16029024753000343,0.7500836769066996,0.4648089496522054,1.0,0.6751265568495599,-0.7355434076175724,0.3189639386312235,-0.12118239850528534,-1.0,0.9900000000000002,-0.35295199196421656,0.7459725434786135,0.23164680163135687,1.0,0.17283326439754898,-0.6754862477352015,0.9800000000000004,0.9900000000000002,-0.15997780403166928,0.6058636160040809,0.9800000000000004,-1.0,1.0,-0.8866387617603415,-0.951689284010838,1.0,0.062261533606815966,0.9900000000000002,1.0,1.0,-0.06612793323354338,0.18970154932757577,0.22456677207653986,0.5970514924804524,1.0,-0.5636785359253365,0.728163684694664,0.47053191173280506,-0.1508129087437915,-1.0,0.06195929094859798,0.360570733367092,0.1944828685972384,-0.8975963922579382,0.6444952366788463,1.0,0.8228017269106012,0.46190332472139684,-0.6278822067629672,0.8723439477300694,0.7542744794465168,1.0,-0.966635463331524,-0.7501860062991514,-0.5741426814781703,0.5753557771756237,1.0,1.0,-0.23835734022394162,-0.017493692709551478,0.6886245130095219,-1.0,-0.40599635129234724,-0.27215566258139834,0.6736711828138269,0.7992869613104201,0.9900000000000002,0.42496568534479406,-0.1218730004020494,-0.6463309737555818,-0.6520443578597035,-0.6816729925557397,-0.3593117531851311,0.2746707996825819,0.9900000000000002,0.9437806335632875,-0.0741578050928644,-0.14142581222854567,-0.08685280765493553,0.6858876276535364,0.11363585878933113,0.4753330992537217,1.0,-0.3203919140776561,0.6913755900627483,0.7835292141928827,-0.08629615088266429,0.6143391816920074,-1.0,0.4482915010882785,0.23337210033878364,0.39971001215222485,1.0,0.9714505799199271,-0.0502371192222989,1.0,0.8752290859909158,0.9456343813487882,-0.22606496855385583,-0.3078646611617386,-0.6077707813305229,-0.3210159617410264,0.46509093502760335,-0.6277440394404525,1.0,0.4297569894482516,0.652237934703221,1.0,-1.0,-1.0,0.10296424375110202,0.05108963620810503,-0.15058773506587264,-1.0,1.0,0.559677350150225,0.6388624295942227,0.9900000000000002,0.35488808254186743,-0.052118175524916044,0.9900000000000002,0.05262380606887529,-0.7121995157336407,0.05582290170255888,0.9900000000000002,-0.4551349355030898,0.14169908659821706,-0.2282483927648129,-0.313411094238079,-0.7293505617241376,0.610883438480613,1.0,-0.8750727781523473,0.9900000000000002,0.4977023185620446,-0.7244424839353414,1.0,0.11126292566024287,-0.4113081147283826,-0.7785548753186724,-0.14684471180413472,1.0,-0.43762037597116565,0.7608667129914393,-0.47017228135149036,0.12235078957985124,0.06060308184966878,0.9900000000000002,1.0,0.9034597002408931,1.0,-0.013209533669905849,1.0,-0.4761318728658175,-0.06850748371102489,-0.5271820305849255,0.763975549801847,-0.9042280581268411,-0.4593838703339368,0.30338053074341875,0.8536640133129083,0.6938391974144982,0.03010315691371579,-0.4918014758239895,0.3318685055331576,0.3732927185491671,0.7840924649009429,0.03293123021429378,0.8189956596305938,0.09988025948665857,0.00032302999144384614,-0.20923043636336866,-0.3577435807747496,-0.4103104740138359,0.6806837201069342,0.494063255288407,0.13960106498244915,0.5591596943350305,-1.0,1.0,0.4317428419519165,0.9800000000000004,-0.18053735432800888,-0.8358509277373356,-1.0,0.6641545770117183,-0.020944429794084396,-0.6779252956881443,-0.7426247824136478,1.0,0.5893519053933916,1.0,-0.05374967464632441,-0.438085224799698,0.10089406219905817,0.53778674836094,0.40438698865205946,-0.593496580135259,1.0,0.2793455776055902,-0.5320773913263115,-0.6496572131873419,-0.7267627956395082,0.691213818673587,-0.3758739171680803,1.0,0.5462209571591377,0.6220827901453871,-0.3234145311403527,0.8039708261547398,-0.30763244386090616,-0.09314321039586115,0.9900000000000002,0.650426412815905,-0.04835478991792952,-0.18970548300496093,0.7697542076105277,-1.0,0.3466438715218425,-0.9531101008367022,-0.22310902717112668,0.8292359447619271,0.6470749952484631,0.9800000000000004,-0.9607526713560641,1.0,0.9900000000000002,-0.1323916211698064,0.0446646849720036,0.7598999913437812,0.4020137384178444,0.395833647175162,0.012903157352710082,-0.5963128307313461,0.9900000000000002,1.0,0.41098910320913307,0.28157784400735864,-0.5483637403443433,1.0,-0.5950419136770035,0.1401125504878058,0.4839054913383749,-0.578097121819737,0.3645670909274408,-0.42906287773377993,0.3423640065522715,0.3816800311253825,0.4530066663037955,0.03653999397669594,0.9030772474462756,0.1570701921301696,-0.41585483198283946,0.24961323709418082,0.2674983793130421,0.5211756934879457,0.441815935730586,0.9019828008609547,0.9900000000000002,0.07776896025780022,-0.7948571721317499,0.9900000000000002,0.9800000000000004,0.29079429872757867,-0.4886382031758485
-0.16029024753000343,0.7500836769066996,0.4648089496522054,1.0,0.6751265568495599,-0.7355434076175724,0.3189639386312235,-0.12118239850528534,-1.0,0.9900000000000002,-0.35295199196421656,0.7459725434786135,0.23164680163135687,1.0,0.17283326439754898,-0.6754862477352015,0.9800000000000004,0.9900000000000002,-0.15997780403166928,0.6058636160040809,0.9800000000000004,-1.0,1.0,-0.8866387617603415,-0.951689284010838,1.0,0.062261533606815966,0.9900000000000002,1.0,1.0,-0.06612793323354338,0.18970154932757577,0.22456677207653986,0.5970514924804524,1.0,-0.5636785359253365,0.728163684694664,0.47053191173280506,-0.1508129087437915,-1.0,0.06195929094859798,0.360570733367092,0.1944828685972384,-0.8975963922579382,0.6444952366788463,1.0,0.8228017269106012,0.46190332472139684,-0.6278822067629672,0.8723439477300694,0.7542744794465168,1.0,-0.966635463331524,-0.7501860062991514,-0.5741426814781703,0.5753557771756237,1.0,1.0,-0.23835734022394162,-0.017493692709551478,0.6886245130095219,-1.0,-0.40599635129234724,-0.27215566258139834,0.6736711828138269,0.7992869613104201,0.9900000000000002,0.42496568534479406,-0.1218730004020494,-0.6463309737555818,-0.6520443578597035,-0.6816729925557397,-0.3593117531851311,0.2746707996825819,0.9900000000000002,0.9437806335632875,-0.0741578050928644,-0.14142581222854567,-0.08685280765493553,0.6858876276535364,0.11363585878933113,0.4753330992537217,1.0,-0.3203919140776561,0.6913755900627483,0.7835292141928827,-0.08629615088266429,0.6143391816920074,-1.0,0.4482915010882785,0.23337210033878364,0.39971001215222485,1.0,0.9714505799199271,-0.0502371192222989,1.0,0.8752290859909158,0.9456343813487882,-0.22606496855385583,-0.3078646611617386,-0.6077707813305229,-0.3210159617410264,0.46509093502760335,-0.6277440394404525,1.0,0.4297569894482516,0.652237934703221,1.0,-1.0,-1.0,0.10296424375110202,0.05108963620810503,-0.15058773506587264,-1.0,1.0,0.559677350150225,0.6388624295942227,0.9900000000000002,0.35488808254186743,-0.052118175524916044,0.9900000000000002,0.05262380606887529,-0.7121995157336407,0.05582290170255888,0.9900000000000002,-0.4551349355030898,0.14169908659821706,-0.2282483927648129,-0.313411094238079,-0.7293505617241376,0.610883438480613,1.0,-0.8750727781523473,0.9900000000000002,0.4977023185620446,-0.7244424839353414,1.0,0.11126292566024287,-0.4113081147283826,-0.7785548753186724,-0.14684471180413472,1.0,-0.43762037597116565,0.7608667129914393,-0.47017228135149036,0.12235078957985124,0.06060308184966878,0.9900000000000002,1.0,0.9034597002408931,1.0,-0.013209533669905849,1.0,-0.4761318728658175,-0.06850748371102489,-0.5271820305849255,0.763975549801847,-0.9042280581268411,-0.4593838703339368,0.30338053074341875,0.8536640133129083,0.6938391974144982,0.03010315691371579,-0.4918014758239895,0.3318685055331576,0.3732927185491671,0.7840924649009429,0.03293123021429378,0.8189956596305938,0.09988025948665857,0.00032302999144384614,-0.20923043636336866,-0.3577435807747496,-0.4103104740138359,0.6806837201069342,0.494063255288407,0.13960106498244915,0.5591596943350305,-1.0,1.0,0.4317428419519165,0.9800000000000004,-0.18053735432800888,-0.8358509277373356,-1.0,0.6641545770117183,-0.020944429794084396,-0.6779252956881443,-0.7426247824136478,1.0,0.5893519053933916,1.0,-0.05374967464632441,-0.438085224799698,0.10089406219905817,0.53778674836094,0.40438698865205946,-0.593496580135259,1.0,0.2793455776055902,-0.5320773913263115,-0.6496572131873419,-0.7267627956395082,0.691213818673587,-0.3758739171680803,1.0,0.5462209571591377,0.6220827901453871,-0.3234145311403527,0.8039708261547398,-0.30763244386090616,-0.09314321039586115,0.9900000000000002,0.650426412815905,-0.04835478991792952,-0.18970548300496093,0.7697542076105277,-1.0,0.3466438715218425,-0.9531101008367022,-0.22310902717112668,0.8292359447619271,0.6470749952484631,0.9800000000000004,-0.9607526713560641,1.0,0.9900000000000002,-0.1323916211698064,0.0446646849720036,0.7598999913437812,0.4020137384178444,0.395833647175162,0.012903157352710082,-0.5963128307313461,0.9900000000000002,1.0,0.41098910320913307,0.28157784400735864,-0.5483637403443433,1.0,-0.5950419136770035,0.1401125504878058,0.4839054913383749,-0.578097121819737,0.3645670909274408,-0.42906287773377993,0.3423640065522715,0.3816800311253825,0.4530066663037955,0.03653999397669594,0.9030772474462756,0.1570701921301696,-0.41585483198283946,0.24961323709418082,0.2674983793130421,0.5211756934879457,0.441815935730586,0.9019828008609547,0.9900000000000002,0.07776896025780022,-0.7948571721317499,0.9900000000000002,0.9800000000000004,0.29079429872757867,-0.4886382031758485
-0.16029024753000343,0.7500836769066996,0.4648089496522054,1.0,0.6751265568495599,-0.7355434076175724,0.3189639386312235,-0.12118239850528534,-1.0,0.9900000000000002,-0.35295199196421656,0.7459725434786135,0.23164680163135687,1.0,0.17283326439754898,-0.6754862477352015,0.9800000000000004,0.9900000000000002,-0.15997780403166928,0.6058636160040809,0.9800000000000004,-1.0,1.0,-0.8866387617603415,-0.951689284010838,1.0,0.062261533606815966,0.9900000000000002,1.0,1.0,-0.06612793323354338,0.18970154932757577,0.22456677207653986,0.5970514924804524,1.0,-0.5636785359253365,0.728163684694664,0.47053191173280506,-0.1508129087437915,-1.0,0.06195929094859798,0.360570733367092,0.1944828685972384,-0.8975963922579382,0.6444952366788463,1.0,0.8228017269106012,0.46190332472139684,-0.6278822067629672,0.8723439477300694,0.7542744794465168,1.0,-0.966635463331524,-0.7501860062991514,-0.5741426814781703,0.5753557771756237,1.0,1.0,-0.23835734022394162,-0.017493692709551478,0.6886245130095219,-1.0,-0.40599635129234724,-0.27215566258139834,0.6736711828138269,0.7992869613104201,0.9900000000000002,0.42496568534479406,-0.1218730004020494,-0.6463309737555818,-0.6520443578597035,-0.6816729925557397,-0.3593117531851311,0.2746707996825819,0.9900000000000002,0.9437806335632875,-0.0741578050928644,-0.14142581222854567,-0.08685280765493553,0.6858876276535364,0.11363585878933113,0.4753330992537217,1.0,-0.3203919140776561,0.6913755900627483,0.7835292141928827,-0.08629615088266429,0.6143391816920074,-1.0,0.4482915010882785,0.23337210033878364,0.39971001215222485,1.0,0.9714505799199271,-0.0502371192222989,1.0,0.8752290859909158,0.9456343813487882,-0.22606496855385583,-0.3078646611617386,-0.6077707813305229,-0.3210159617410264,0.46509093502760335,-0.6277440394404525,1.0,0.4297569894482516,0.652237934703221,1.0,-1.0,-1.0,0.10296424375110202,0.05108963620810503,-0.15058773506587264,-1.0,1.0,0.559677350150225,0.6388624295942227,0.9900000000000002,0.35488808254186743,-0.052118175524916044,0.9900000000000002,0.05262380606887529,-0.7121995157336407,0.05582290170255888,0.9900000000000002,-0.4551349355030898,0.14169908659821706,-0.2282483927648129,-0.313411094238079,-0.7293505617241376,0.610883438480613,1.0,-0.8750727781523473,0.9900000000000002,0.4977023185620446,-0.7244424839353414,1.0,0.11126292566024287,-0.4113081147283826,-0.7785548753186724,-0.14684471180413472,1.0,-0.43762037597116565,0.7608667129914393,-0.47017228135149036,0.12235078957985124,0.06060308184966878,0.9900000000000002,1.0,0.9034597002408931,1.0,-0.013209533669905849,1.0,-0.4761318728658175,-0.06850748371102489,-0.5271820305849255,0.763975549801847,-0.9042280581268411,-0.4593838703339368,0.30338053074341875,0.8536640133129083,0.6938391974144982,0.03010315691371579,-0.4918014758239895,0.3318685055331576,0.3732927185491671,0.7840924649009429,0.03293123021429378,0.8189956596305938,0.09988025948665857,0.00032302999144384614,-0.20923043636336866,-0.3577435807747496,-0.4103104740138359,0.6806837201069342,0.494063255288407,0.13960106498244915,0.5591596943350305,-1.0,1.0,0.4317428419519165,0.9800000000000004,-0.18053735432800888,-0.8358509277373356,-1.0,0.6641545770117183,-0.020944429794084396,-0.6779252956881443,-0.7426247824136478,1.0,0.5893519053933916,1.0,-0.05374967464632441,-0.438085224799698,0.10089406219905817,0.53778674836094,0.40438698865205946,-0.593496580135259,1.0,0.2793455776055902,-0.5320773913263115,-0.6496572131873419,-0.7267627956395082,0.691213818673587,-0.3758739171680803,1.0,0.5462209571591377,0.6220827901453871,-0.3234145311403527,0.8039708261547398,-0.30763244386090616,-0.09314321039586115,0.9900000000000002,0.650426412815905,-0.04835478991792952,-0.18970548300496093,0.7697542076105277,-1.0,0.3466438715218425,-0.9531101008367022,-0.22310902717112668,0.8292359447619271,0.6470749952484631,0.9800000000000004,-0.9607526713560641,1.0,0.9900000000000002,-0.1323916211698064,0.0446646849720036,0.7598999913437812,0.4020137384178444,0.395833647175162,0.012903157352710082,-0.5963128307313461,0.9900000000000002,1.0,0.41098910320913307,0.28157784400735864,-0.5483637403443433,1.0,-0.5950419136770035,0.1401125504878058,0.4839054913383749,-0.578097121819737,0.3645670909274408,-0.42906287773377993,0.3423640065522715,0.3816800311253825,0.4530066663037955,0.03653999397669594,0.9030772474462756,0.1570701921301696,-0.41585483198283946,0.24961323709418082,0.2674983793130421,0.5211756934879457,0.441815935730586,0.9019828008609547,0.9900000000000002,0.07776896025780022,-0.7948571721317499,0.9900000000000002,0.9800000000000004,0.29079429872757867,-0.4886382031758485
-0.16029024753000343,0.7500836769066996,0.4648089496522054,1.0,0.6751265568495599,-0.7355434076175724,0.3189639386312235,-0.12118239850528534,-1.0,0.9900000000000002,-0.35295199196421656,0.7459725434786135,0.23164680163135687,1.0,0.17283326439754898,-0.6754862477352015,0.9800000000000004,0.9900000000000002,-0.15997780403166928,0.6058636160040809,0.9800000000000004,-1.0,1.0,-0.8866387617603415,-0.951689284010838,1.0,0.062261533606815966,0.9900000000000002,1.0,1.0,-0.06612793323354338,0.18970154932757577,0.22456677207653986,0.5970514924804524,1.0,-0.5636785359253365,0.728163684694664,0.47053191173280506,-0.1508129087437915,-1.0,0.06195929094859798,0.360570733367092,0.1944828685972384,-0.8975963922579382,0.6444952366788463,1.0,0.8228017269106012,0.46190332472139684,-0.6278822067629672,0.8723439477300694,0.7542744794465168,1.0,-0.966635463331524,-0.7501860062991514,-0.5741426814781703,0.5753557771756237,1.0,1.0,-0.23835734022394162,-0.017493692709551478,0.6886245130095219,-1.0,-0.40599635129234724,-0.27215566258139834,0.6736711828138269,0.7992869613104201,0.9900000000000002,0.42496568534479406,-0.1218730004020494,-0.6463309737555818,-0.6520443578597035,-0.6816729925557397,-0.3593117531851311,0.2746707996825819,0.9900000000000002,0.9437806335632875,-0.0741578050928644,-0.14142581222854567,-0.08685280765493553,0.6858876276535364,0.11363585878933113,0.4753330992537217,1.0,-0.3203919140776561,0.6913755900627483,0.7835292141928827,-0.08629615088266429,0.6143391816920074,-1.0,0.4482915010882785,0.23337210033878364,0.39971001215222485,1.0,0.9714505799199271,-0.0502371192222989,1.0,0.8752290859909158,0.9456343813487882,-0.22606496855385583,-0.3078646611617386,-0.6077707813305229,-0.3210159617410264,0.46509093502760335,-0.6277440394404525,1.0,0.4297569894482516,0.652237934703221,1.0,-1.0,-1.0,0.10296424375110202,0.05108963620810503,-0.15058773506587264,-1.0,1.0,0.559677350150225,0.6388624295942227,0.9900000000000002,0.35488808254186743,-0.052118175524916044,0.9900000000000002,0.05262380606887529,-0.7121995157336407,0.05582290170255888,0.9900000000000002,-0.4551349355030898,0.14169908659821706,-0.2282483927648129,-0.313411094238079,-0.7293505617241376,0.610883438480613,1.0,-0.8750727781523473,0.9900000000000002,0.4977023185620446,-0.7244424839353414,1.0,0.11126292566024287,-0.4113081147283826,-0.7785548753186724,-0.14684471180413472,1.0,-0.43762037597116565,0.7608667129914393,-0.47017228135149036,0.12235078957985124,0.06060308184966878,0.9900000000000002,1.0,0.9034597002408931,1.0,-0.013209533669905849,1.0,-0.4761318728658175,-0.06850748371102489,-0.5271820305849255,0.763975549801847,-0.9042280581268411,-0.4593838703339368,0.30338053074341875,0.8536640133129083,0.6938391974144982,0.03010315691371579,-0.4918014758239895,0.3318685055331576,0.3732927185491671,0.7840924649009429,0.03293123021429378,0.8189956596305938,0.09988025948665857,0.00032302999144384614,-0.20923043636336866,-0.3577435807747496,-0.4103104740138359,0.6806837201069342,0.494063255288407,0.13960106498244915,0.5591596943350305,-1.0,1.0,0.4317428419519165,0.9800000000000004,-0.18053735432800888,-0.8358509277373356,-1.0,0.6641545770117183,-0.020944429794084396,-0.6779252956881443,-0.7426247824136478,1.0,0.5893519053933916,1.0,-0.05374967464632441,-0.438085224799698,0.10089406219905817,0.53778674836094,0.40438698865205946,-0.593496580135259,1.0,0.2793455776055902,-0.5320773913263115,-0.6496572131873419,-0.7267627956395082,0.691213818673587,-0.3758739171680803,1.0,0.5462209571591377,0.6220827901453871,-0.3234145311403527,0.8039708261547398,-0.30763244386090616,-0.09314321039586115,0.9900000000000002,0.650426412815905,-0.04835478991792952,-0.18970548300496093,0.7697542076105277,-1.0,0.3466438715218425,-0.9531101008367022,-0.22310902717112668,0.8292359447619271,0.6470749952484631,0.9800000000000004,-0.9607526713560641,1.0,0.9900000000000002,-0.1323916211698064,0.0446646849720036,0.7598999913437812,0.4020137384178444,0.395833647175162,0.012903157352710082,-0.5963128307313461,0.9900000000000002,1.0,0.41098910320913307,0.28157784400735864,-0.5483637403443433,1.0,-0.5950419136770035,0.1401125504878058,0.4839054913383749,-0.578097121819737,0.3645670909274408,-0.42906287773377993,0.3423640065522715,0.3816800311253825,0.4530066663037955,0.03653999397669594,0.9030772474462756,0.1570701921301696,-0.41585483198283946,0.24961323709418082,0.2674983793130421,0.5211756934879457,0.441815935730586,0.9019828008609547,0.9900000000000002,0.07776896025780022,-0.7948571721317499,0.9900000000000002,0.9800000000000004,0.29079429872757867,-0.4886382031758485
-0.16029024753000343,0.7500836769066996,0.4648089496522054,1.0,0.6751265568495599,-0.7355434076175724,0.3189639386312235,0.8543655415695057,-1.0,0.9900000000000002,-0.35295199196421656,0.7459725434786135,0.23164680163135687,1.0,0.17283326439754898,-0.6754862477352015,0.9800000000000004,0.9900000000000002,-0.15997780403166928,0.6058636160040809,0.9800000000000004,-1.0,1.0,-0.8866387617603415,-0.951689284010838,1.0,0.9184319634828384,0.9900000000000002,0.9900000000000002,1.0,-0.06612793323354338,0.18970154932757577,0.22456677207653986,0.5970514924804524,1.0,-0.5636785359253365,0.728163684694664,0.47053191173280506,-0.1508129087437915,-1.0,0.06195929094859798,0.360570733367092,0.1944828685972384,-0.8975963922579382,0.6444952366788463,1.0,0.8228017269106012,0.46190332472139684,-0.637882206762967,0.8723439477300694,0.7542744794465168,1.0,-0.966635463331524,-0.7501860062991514,-0.5741426814781703,0.5753557771756237,1.0,1.0,-0.23835734022394162,-0.017493692709551478,0.6886245130095219,-1.0,-0.40599635129234724,-0.27215566258139834,0.6636711828138271,0.7992869613104201,0.9800000000000004,0.42496568534479406,-0.1218730004020494,-0.6463309737555818,-0.6520443578597035,-0.6816729925557397,-0.3593117531851311,0.2746707996825819,0.9900000000000002,0.9437806335632875,-0.0741578050928644,-0.14142581222854567,-0.09685280765493554,0.6858876276535364,0.11363585878933113,0.4753330992537217,1.0,-0.3203919140776561,0.6913755900627483,0.7835292141928827,-0.08629615088266429,0.6143391816920074,-1.0,0.4482915010882785,0.23337210033878364,0.39971001215222485,1.0,0.9714505799199271,-0.0502371192222989,1.0,0.8752290859909158,0.9356343813487884,-0.22606496855385583,-0.3078646611617386,-0.6077707813305229,-0.3210159617410264,0.46509093502760335,-0.6277440394404525,1.0,0.4297569894482516,0.652237934703221,1.0,-1.0,-1.0,1.0,0.05108963620810503,-0.16058773506587265,-1.0,1.0,0.559677350150225,0.6388624295942227,1.0,0.35488808254186743,-0.052118175524916044,0.9900000000000002,0.05262380606887529,-0.7121995157336407,0.05582290170255888,0.9900000000000002,-0.4551349355030898,0.14169908659821706,-0.2282483927648129,-0.313411094238079,-0.7293505617241376,0.610883438480613,1.0,-0.8750727781523473,0.9900000000000002,0.4977023185620446,-0.7244424839353414,1.0,0.11126292566024287,-0.4113081147283826,-0.7785548753186724,-0.14684471180413472,1.0,-0.43762037597116565,0.7608667129914393,-0.47017228135149036,0.12235078957985124,0.8109050575661656,0.9900000000000002,1.0,0.9034597002408931,1.0,-0.013209533669905849,1.0,-0.4761318728658175,-0.06850748371102489,-0.5271820305849255,0.763975549801847,-0.9042280581268411,-0.4593838703339368,0.30338053074341875,0.8536640133129083,0.6938391974144982,0.03010315691371579,-0.4918014758239895,0.3318685055331576,0.3732927185491671,0.7840924649009429,0.03293123021429378,0.8189956596305938,0.09988025948665857,0.00032302999144384614,-0.20923043636336866,-0.3577435807747496,-0.4203104740138359,0.6806837201069342,0.494063255288407,0.13960106498244915,0.5591596943350305,-1.0,1.0,0.42174284195191625,0.9800000000000004,-0.18053735432800888,-0.8358509277373356,-1.0,0.6641545770117183,-0.020944429794084396,-0.6779252956881443,-0.7526247824136476,1.0,0.5893519053933916,0.9900000000000002,-0.05374967464632441,-0.438085224799698,0.10089406219905817,0.53778674836094,1.0,-0.593496580135259,1.0,0.2793455776055902,-0.5320773913263115,-0.6496572131873419,-0.7267627956395082,0.691213818673587,-0.3758739171680803,1.0,0.5462209571591377,0.6220827901453871,-0.3234145311403527,0.8039708261547398,-0.31763244386090594,-0.09314321039586115,0.9900000000000002,0.992151310337821,-0.04835478991792952,-0.18970548300496093,0.7597542076105279,-1.0,0.3466438715218425,-0.9531101008367022,-0.22310902717112668,0.8292359447619271,1.0,0.9800000000000004,-0.9607526713560641,0.9900000000000002,0.9900000000000002,-0.1323916211698064,0.0446646849720036,0.7598999913437812,0.4020137384178444,0.395833647175162,0.012903157352710082,-0.5963128307313461,0.9900000000000002,1.0,0.9618969790764273,0.28157784400735864,-0.5483637403443433,1.0,-0.5950419136770035,0.130112550487806,0.4839054913383749,-0.15566863874608927,0.3645670909274408,-0.42906287773377993,0.3423640065522715,0.3816800311253825,0.4530066663037955,0.026539993976696152,0.9030772474462756,0.1470701921301698,-0.41585483198283946,0.24961323709418082,0.2574983793130423,0.5111756934879459,0.441815935730586,0.9019828008609547,0.9900000000000002,0.07776896025780022,-0.7948571721317499,0.9900000000000002,0.9800000000000004,0.29079429872757867,-0.4886382031758485
-0.16029024753000343,0.7500836769066996,0.4648089496522054,1.0,0.6751265568495599,-0.7355434076175724,0.3189639386312235,0.8543655415695057,-1.0,0.9900000000000002,-0.35295199196421656,0.7459725434786135,0.23164680163135687,1.0,0.17283326439754898,-0.6754862477352015,0.9800000000000004,0.9900000000000002,-0.15997780403166928,0.6058636160040809,0.9800000000000004,-1.0,1.0,-0.8866387617603415,-0.951689284010838,1.0,0.9184319634828384,0.9900000000000002,0.9900000000000002,1.0,-0.06612793323354338,0.18970154932757577,0.22456677207653986,0.5970514924804524,1.0,-0.5636785359253365,0.728163684694664,0.47053191173280506,-0.1508129087437915,-1.0,0.06195929094859798,0.360570733367092,0.1944828685972384,-0.8975963922579382,0.6444952366788463,1.0,0.8228017269106012,0.46190332472139684,-0.637882206762967,0.8723439477300694,0.7542744794465168,1.0,-0.966635463331524,-0.7501860062991514,-0.5741426814781703,0.5753557771756237,1.0,1.0,-0.23835734022394162,-0.017493692709551478,0.6886245130095219,-1.0,-0.40599635129234724,-0.27215566258139834,0.6636711828138271,0.7992869613104201,0.9800000000000004,0.42496568534479406,-0.1218730004020494,-0.6463309737555818,-0.6520443578597035,-0.6816729925557397,-0.3593117531851311,0.2746707996825819,0.9900000000000002,0.9437806335632875,-0.0741578050928644,-0.14142581222854567,-0.09685280765493554,0.6858876276535364,0.11363585878933113,0.4753330992537217,1.0,-0.3203919140776561,0.6913755900627483,0.7835292141928827,-0.08629615088266429,0.6143391816920074,-1.0,0.4482915010882785,0.23337210033878364,0.39971001215222485,1.0,0.9714505799199271,-0.0502371192222989,1.0,0.8752290859909158,0.9356343813487884,-0.22606496855385583,-0.3078646611617386,-0.6077707813305229,-0.3210159617410264,0.46509093502760335,-0.6277440394404525,1.0,0.4297569894482516,0.652237934703221,1.0,-1.0,-1.0,1.0,0.05108963620810503,-0.16058773506587265,-1.0,1.0,0.559677350150225,0.6388624295942227,1.0,0.35488808254186743,-0.052118175524916044,0.9900000000000002,0.05262380606887529,-0.7121995157336407,0.05582290170255888,0.9900000000000002,-0.4551349355030898,0.14169908659821706,-0.2282483927648129,-0.313411094238079,-0.7293505617241376,0.610883438480613,1.0,-0.8750727781523473,0.9900000000000002,0.4977023185620446,-0.7244424839353414,1.0,0.11126292566024287,-0.4113081147283826,-0.7785548753186724,-0.14684471180413472,1.0,-0.43762037597116565,0.7608667129914393,-0.47017228135149036,0.12235078957985124,0.8109050575661656,0.9900000000000002,1.0,0.9034597002408931,1.0,-0.013209533669905849,1.0,-0.4761318728658175,-0.06850748371102489,-0.5271820305849255,0.763975549801847,-0.9042280581268411,-0.4593838703339368,0.30338053074341875,0.8536640133129083,0.6938391974144982,0.03010315691371579,-0.4918014758239895,0.3318685055331576,0.3732927185491671,0.7840924649009429,0.03293123021429378,0.8189956596305938,0.09988025948665857,0.00032302999144384614,-0.20923043636336866,-0.3577435807747496,-0.4203104740138359,0.6806837201069342,0.494063255288407,0.13960106498244915,0.5591596943350305,-1.0,1.0,0.42174284195191625,0.9800000000000004,-0.18053735432800888,-0.8358509277373356,-1.0,0.6641545770117183,-0.020944429794084396,-0.6779252956881443,-0.7526247824136476,1.0,0.5893519053933916,0.9900000000000002,-0.05374967464632441,-0.438085224799698,0.10089406219905817,0.53778674836094,1.0,-0.593496580135259,1.0,0.2793455776055902,-0.5320773913263115,-0.6496572131873419,-0.7267627956395082,0.691213818673587,-0.3758739171680803,1.0,0.5462209571591377,0.6220827901453871,-0.3234145311403527,0.8039708261547398,-0.31763244386090594,-0.09314321039586115,0.9900000000000002,0.992151310337821,-0.04835478991792952,-0.18970548300496093,0.7597542076105279,-1.0,0.3466438715218425,-0.9531101008367022,-0.22310902717112668,0.8292359447619271,1.0,0.9800000000000004,-0.9607526713560641,0.9900000000000002,0.9900000000000002,-0.1323916211698064,0.0446646849720036,0.7598999913437812,0.4020137384178444,0.395833647175162,0.012903157352710082,-0.5963128307313461,0.9900000000000002,1.0,0.9618969790764273,0.28157784400735864,-0.5483637403443433,1.0,-0.5950419136770035,0.130112550487806,0.4839054913383749,-0.15566863874608927,0.3645670909274408,-0.42906287773377993,0.3423640065522715,0.3816800311253825,0.4530066663037955,0.026539993976696152,0.9030772474462756,0.1470701921301698,-0.41585483198283946,0.24961323709418082,0.2574983793130423,0.5111756934879459,0.441815935730586,0.9019828008609547,0.9900000000000002,0.07776896025780022,-0.7948571721317499,0.9900000000000002,0.9800000000000004,0.29079429872757867,-0.4886382031758485
-0.16029024753000343,0.7500836769066996,0.4648089496522054,1.0,0.6751265568495599,-0.7355434076175724,0.3189639386312235,0.8543655415695057,-1.0,0.9900000000000002,-0.35295199196421656,0.7459725434786135,0.23164680163135687,1.0,0.17283326439754898,-0.6754862477352015,0.9800000000000004,0.9900000000000002,-0.15997780403166928,0.6058636160040809,0.9800000000000004,-1.0,1.0,-0.8866387617603415,-0.951689284010838,1.0,0.9184319634828384,0.9900000000000002,0.9900000000000002,1.0,-0.06612793323354338,0.18970154932757577,0.22456677207653986,0.5970514924804524,1.0,-0.5636785359253365,0.728163684694664,0.47053191173280506,-0.1508129087437915,-1.0,0.06195929094859798,0.360570733367092,0.1944828685972384,-0.8975963922579382,0.6444952366788463,1.0,0.8228017269106012,0.46190332472139684,-0.637882206762967,0.8723439477300694,0.7542744794465168,1.0,-0.966635463331524,-0.7501860062991514,-0.5741426814781703,0.5753557771756237,1.0,1.0,-0.23835734022394162,-0.017493692709551478,0.6886245130095219,-1.0,-0.40599635129234724,-0.27215566258139834,0.6636711828138271,0.7992869613104201,0.9800000000000004,0.42496568534479406,-0.1218730004020494,-0.6463309737555818,-0.6520443578597035,-0.6816729925557397,-0.3593117531851311,0.2746707996825819,0.9900000000000002,0.9437806335632875,-0.0741578050928644,-0.14142581222854567,-0.09685280765493554,0.6858876276535364,0.11363585878933113,0.4753330992537217,1.0,-0.3203919140776561,0.6913755900627483,0.7835292141928827,-0.08629615088266429,0.6143391816920074,-1.0,0.4482915010882785,0.23337210033878364,0.39971001215222485,1.0,0.9714505799199271,-0.0502371192222989,1.0,0.8752290859909158,0.9356343813487884,-0.22606496855385583,-0.3078646611617386,-0.6077707813305229,-0.3210159617410264,0.46509093502760335,-0.6277440394404525,1.0,0.4297569894482516,0.652237934703221,1.0,-1.0,-1.0,1.0,0.05108963620810503,-0.16058773506587265,-1.0,1.0,0.559677350150225,0.6388624295942227,1.0,0.35488808254186743,-0.052118175524916044,0.9900000000000002,0.05262380606887529,-0.7121995157336407,0.05582290170255888,0.9900000000000002,-0.4551349355030898,0.14169908659821706,-0.2282483927648129,-0.313411094238079,-0.7293505617241376,0.610883438480613,1.0,-0.8750727781523473,0.9900000000000002,0.4977023185620446,-0.7244424839353414,1.0,0.11126292566024287,-0.4113081147283826,-0.7785548753186724,-0.14684471180413472,1.0,-0.43762037597116565,0.7608667129914393,-0.47017228135149036,0.12235078957985124,0.8109050575661656,0.9900000000000002,1.0,0.9034597002408931,1.0,-0.013209533669905849,1.0,-0.4761318728658175,-0.06850748371102489,-0.5271820305849255,0.763975549801847,-0.9042280581268411,-0.4593838703339368,0.30338053074341875,0.8536640133129083,0.6938391974144982,0.03010315691371579,-0.4918014758239895,0.3318685055331576,0.3732927185491671,0.7840924649009429,0.03293123021429378,0.8189956596305938,0.09988025948665857,0.00032302999144384614,-0.20923043636336866,-0.3577435807747496,-0.4203104740138359,0.6806837201069342,0.494063255288407,0.13960106498244915,0.5591596943350305,-1.0,1.0,0.42174284195191625,0.9800000000000004,-0.18053735432800888,-0.8358509277373356,-1.0,0.6641545770117183,-0.020944429794084396,-0.6779252956881443,-0.7526247824136476,1.0,0.5893519053933916,0.9900000000000002,-0.05374967464632441,-0.438085224799698,0.10089406219905817,0.53778674836094,1.0,-0.593496580135259,1.0,0.2793455776055902,-0.5320773913263115,-0.6496572131873419,-0.7267627956395082,0.691213818673587,-0.3758739171680803,1.0,0.5462209571591377,0.6220827901453871,-0.3234145311403527,0.8039708261547398,-0.31763244386090594,-0.09314321039586115,0.9900000000000002,0.992151310337821,-0.04835478991792952,-0.18970548300496093,0.7597542076105279,-1.0,0.3466438715218425,-0.9531101008367022,-0.22310902717112668,0.8292359447619271,1.0,0.9800000000000004,-0.9607526713560641,0.9900000000000002,0.9900000000000002,-0.1323916211698064,0.0446646849720036,0.7598999913437812,0.4020137384178444,0.395833647175162,0.012903157352710082,-0.5963128307313461,0.9900000000000002,1.0,0.9618969790764273,0.28157784400735864,-0.5483637403443433,1.0,-0.5950419136770035,0.130112550487806,0.4839054913383749,-0.15566863874608927,0.3645670909274408,-0.42906287773377993,0.3423640065522715,0.3816800311253825,0.4530066663037955,0.026539993976696152,0.9030772474462756,0.1470701921301698,-0.41585483198283946,0.24961323709418082,0.2574983793130423,0.5111756934879459,0.441815935730586,0.9019828008609547,0.9900000000000002,0.07776896025780022,-0.7948571721317499,0.9900000000000002,0.9800000000000004,0.29079429872757867,-0.4886382031758485
-0.16029024753000343,0.7500836769066996,0.4648089496522054,1.0,0.6751265568495599,-0.7355434076175724,0.3189639386312235,0.8543655415695057,-1.0,0.9900000000000002,-0.35295199196421656,0.7459725434786135,0.23164680163135687,1.0,0.17283326439754898,-0.6754862477352015,0.9800000000000004,0.9900000000000002,-0.15997780403166928,0.6058636160040809,0.9800000000000004,-1.0,1.0,-0.8866387617603415,-0.951689284010838,1.0,0.9184319634828384,0.9900000000000002,0.9900000000000002,1.0,-0.06612793323354338,0.18970154932757577,0.22456677207653986,0.5970514924804524,1.0,-0.5636785359253365,0.728163684694664,0.47053191173280506,-0.1508129087437915,-1.0,0.06195929094859798,0.360570733367092,0.1944828685972384,-0.8975963922579382,0.6444952366788463,1.0,0.8228017269106012,0.46190332472139684,-0.637882206762967,0.8723439477300694,0.7542744794465168,1.0,-0.966635463331524,-0.7501860062991514,-0.5741426814781703,0.5753557771756237,1.0,1.0,-0.23835734022394162,-0.017493692709551478,0.6886245130095219,-1.0,-0.40599635129234724,-0.27215566258139834,0.6636711828138271,0.7992869613104201,0.9800000000000004,0.42496568534479406,-0.1218730004020494,-0.6463309737555818,-0.6520443578597035,-0.6816729925557397,-0.3593117531851311,0.2746707996825819,0.9900000000000002,0.9437806335632875,-0.0741578050928644,-0.14142581222854567,-0.09685280765493554,0.6858876276535364,0.11363585878933113,0.4753330992537217,1.0,-0.3203919140776561,0.6913755900627483,0.7835292141928827,-0.08629615088266429,0.6143391816920074,-1.0,0.4482915010882785,0.23337210033878364,0.39971001215222485,1.0,0.9714505799199271,-0.0502371192222989,1.0,0.8752290859909158,0.9356343813487884,-0.22606496855385583,-0.3078646611617386,-0.6077707813305229,-0.3210159617410264,0.46509093502760335,-0.6277440394404525,1.0,0.4297569894482516,0.652237934703221,1.0,-1.0,-1.0,1.0,0.05108963620810503,-0.16058773506587265,-1.0,1.0,0.559677350150225,0.6388624295942227,1.0,0.35488808254186743,-0.052118175524916044,0.9900000000000002,0.05262380606887529,-0.7121995157336407,0.05582290170255888,0.9900000000000002,-0.4551349355030898,0.14169908659821706,-0.2282483927648129,-0.313411094238079,-0.7293505617241376,0.610883438480613,1.0,-0.8750727781523473,0.9900000000000002,0.4977023185620446,-0.7244424839353414,1.0,0.11126292566024287,-0.4113081147283826,-0.7785548753186724,-0.14684471180413472,1.0,-0.43762037597116565,0.7608667129914393,-0.47017228135149036,0.12235078957985124,0.8109050575661656,0.9900000000000002,1.0,0.9034597002408931,1.0,-0.013209533669905849,1.0,-0.4761318728658175,-0.06850748371102489,-0.5271820305849255,0.763975549801847,-0.9042280581268411,-0.4593838703339368,0.30338053074341875,0.8536640133129083,0.6938391974144982,0.03010315691371579,-0.4918014758239895,0.3318685055331576,0.3732927185491671,0.7840924649009429,0.03293123021429378,0.8189956596305938,0.09988025948665857,0.00032302999144384614,-0.20923043636336866,-0.3577435807747496,-0.4203104740138359,0.6806837201069342,0.494063255288407,0.13960106498244915,0.5591596943350305,-1.0,1.0,0.42174284195191625,0.9800000000000004,-0.18053735432800888,-0.8358509277373356,-1.0,0.6641545770117183,-0.020944429794084396,-0.6779252956881443,-0.7526247824136476,1.0,0.5893519053933916,0.9900000000000002,-0.05374967464632441,-0.438085224799698,0.10089406219905817,0.53778674836094,1.0,-0.593496580135259,1.0,0.2793455776055902,-0.5320773913263115,-0.6496572131873419,-0.7267627956395082,0.691213818673587,-0.3758739171680803,1.0,0.5462209571591377,0.6220827901453871,-0.3234145311403527,0.8039708261547398,-0.31763244386090594,-0.09314321039586115,0.9900000000000002,0.992151310337821,-0.04835478991792952,-0.18970548300496093,0.7597542076105279,-1.0,0.3466438715218425,-0.9531101008367022,-0.22310902717112668,0.8292359447619271,1.0,0.9800000000000004,-0.9607526713560641,0.9900000000000002,0.9900000000000002,-0.1323916211698064,0.0446646849720036,0.7598999913437812,0.4020137384178444,0.395833647175162,0.012903157352710082,-0.5963128307313461,0.9900000000000002,1.0,0.9618969790764273,0.28157784400735864,-0.5483637403443433,1.0,-0.5950419136770035,0.130112550487806,0.4839054913383749,-0.15566863874608927,0.3645670909274408,-0.42906287773377993,0.3423640065522715,0.3816800311253825,0.4530066663037955,0.026539993976696152,0.9030772474462756,0.1470701921301698,-0.41585483198283946,0.24961323709418082,0.2574983793130423,0.5111756934879459,0.441815935730586,0.9019828008609547,0.9900000000000002,0.07776896025780022,-0.7948571721317499,0.9900000000000002,0.9800000000000004,0.29079429872757867,-0.4886382031758485
-0.16029024753000343,0.7500836769066996,0.4648089496522054,1.0,0.6751265568495599,-0.7355434076175724,0.3189639386312235,0.8543655415695057,-1.0,0.9900000000000002,-0.35295199196421656,0.7459725434786135,0.23164680163135687,1.0,0.17283326439754898,-0.6754862477352015,0.9800000000000004,0.9900000000000002,-0.15997780403166928,0.6058636160040809,0.9800000000000004,-1.0,1.0,-0.8866387617603415,-0.951689284010838,1.0,0.9184319634828384,0.9900000000000002,0.9900000000000002,1.0,-0.06612793323354338,0.18970154932757577,0.22456677207653986,0.5970514924804524,1.0,-0.5636785359253365,0.728163684694664,0.47053191173280506,-0.1508129087437915,-1.0,0.06195929094859798,0.360570733367092,0.1944828685972384,-0.8975963922579382,0.6444952366788463,1.0,0.8228017269106012,0.46190332472139684,-0.637882206762967,0.8723439477300694,0.7542744794465168,1.0,-0.966635463331524,-0.7501860062991514,-0.5741426814781703,0.5753557771756237,1.0,1.0,-0.23835734022394162,-0.017493692709551478,0.6886245130095219,-1.0,-0.40599635129234724,-0.27215566258139834,0.6636711828138271,0.7992869613104201,0.9800000000000004,0.42496568534479406,-0.1218730004020494,-0.6463309737555818,-0.6520443578597035,-0.6816729925557397,-0.3593117531851311,0.2746707996825819,0.9900000000000002,0.9437806335632875,-0.0741578050928644,-0.14142581222854567,-0.09685280765493554,0.6858876276535364,0.11363585878933113,0.4753330992537217,1.0,-0.3203919140776561,0.6913755900627483,0.7835292141928827,-0.08629615088266429,0.6143391816920074,-1.0,0.4482915010882785,0.23337210033878364,0.39971001215222485,1.0,0.9714505799199271,-0.0502371192222989,1.0,0.8752290859909158,0.9356343813487884,-0.22606496855385583,-0.3078646611617386,-0.6077707813305229,-0.3210159617410264,0.46509093502760335,-0.6277440394404525,1.0,0.4297569894482516,0.652237934703221,1.0,-1.0,-1.0,1.0,0.05108963620810503,-0.16058773506587265,-1.0,1.0,0.559677350150225,0.6388624295942227,1.0,0.35488808254186743,-0.052118175524916044,0.9900000000000002,0.05262380606887529,-0.7121995157336407,0.05582290170255888,0.9900000000000002,-0.4551349355030898,0.14169908659821706,-0.2282483927648129,-0.313411094238079,-0.7293505617241376,0.610883438480613,1.0,-0.8750727781523473,0.9900000000000002,0.4977023185620446,-0.7244424839353414,1.0,0.11126292566024287,-0.4113081147283826,-0.7785548753186724,-0.14684471180413472,1.0,-0.43762037597116565,0.7608667129914393,-0.47017228135149036,0.12235078957985124,0.8109050575661656,0.9900000000000002,1.0,0.9034597002408931,1.0,-0.013209533669905849,1.0,-0.4761318728658175,-0.06850748371102489,-0.5271820305849255,0.763975549801847,-0.9042280581268411,-0.4593838703339368,0.30338053074341875,0.8536640133129083,0.6938391974144982,0.03010315691371579,-0.4918014758239895,0.3318685055331576,0.3732927185491671,0.7840924649009429,0.03293123021429378,0.8189956596305938,0.09988025948665857,0.00032302999144384614,-0.20923043636336866,-0.3577435807747496,-0.4203104740138359,0.6806837201069342,0.494063255288407,0.13960106498244915,0.5591596943350305,-1.0,1.0,0.42174284195191625,0.9800000000000004,-0.18053735432800888,-0.8358509277373356,-1.0,0.6641545770117183,-0.020944429794084396,-0.6779252956881443,-0.7526247824136476,1.0,0.5893519053933916,0.9900000000000002,-0.05374967464632441,-0.438085224799698,0.10089406219905817,0.53778674836094,1.0,-0.593496580135259,1.0,0.2793455776055902,-0.5320773913263115,-0.6496572131873419,-0.7267627956395082,0.691213818673587,-0.3758739171680803,1.0,0.5462209571591377,0.6220827901453871,-0.3234145311403527,0.8039708261547398,-0.31763244386090594,-0.09314321039586115,0.9900000000000002,0.992151310337821,-0.04835478991792952,-0.18970548300496093,0.7597542076105279,-1.0,0.3466438715218425,-0.9531101008367022,-0.22310902717112668,0.8292359447619271,1.0,0.9800000000000004,-0.9607526713560641,0.9900000000000002,0.9900000000000002,-0.1323916211698064,0.0446646849720036,0.7598999913437812,0.4020137384178444,0.395833647175162,0.012903157352710082,-0.5963128307313461,0.9900000000000002,1.0,0.9618969790764273,0.28157784400735864,-0.5483637403443433,1.0,-0.5950419136770035,0.130112550487806,0.4839054913383749,-0.15566863874608927,0.3645670909274408,-0.42906287773377993,0.3423640065522715,0.3816800311253825,0.4530066663037955,0.026539993976696152,0.9030772474462756,0.1470701921301698,-0.41585483198283946,0.24961323709418082,0.2574983793130423,0.5111756934879459,0.441815935730586,0.9019828008609547,0.9900000000000002,0.07776896025780022,-0.7948571721317499,0.9900000000000002,0.9800000000000004,0.29079429872757867,-0.4886382031758485
-0.16029024753000343,0.7500836769066996,0.4648089496522054,1.0,0.6751265568495599,-0.7355434076175724,0.3189639386312235,0.8543655415695057,-1.0,0.9900000000000002,-0.35295199196421656,0.7459725434786135,0.23164680163135687,1.0,0.17283326439754898,-0.6754862477352015,0.9800000000000004,0.9900000000000002,-0.15997780403166928,0.6058636160040809,0.9800000000000004,-1.0,1.0,-0.8866387617603415,-0.951689284010838,1.0,0.9184319634828384,0.9900000000000002,0.9900000000000002,1.0,-0.06612793323354338,0.18970154932757577,0.22456677207653986,0.5970514924804524,1.0,-0.5636785359253365,0.728163684694664,0.47053191173280506,-0.1508129087437915,-1.0,0.06195929094859798,0.360570733367092,0.1944828685972384,-0.8975963922579382,0.6444952366788463,1.0,0.8228017269106012,0.46190332472139684,-0.637882206762967,0.8723439477300694,0.7542744794465168,1.0,-0.966635463331524,-0.7501860062991514,-0.5741426814781703,0.5753557771756237,1.0,1.0,-0.23835734022394162,-0.017493692709551478,0.6886245130095219,-1.0,-0.40599635129234724,-0.27215566258139834,0.6636711828138271,0.7992869613104201,0.9800000000000004,0.42496568534479406,-0.1218730004020494,-0.6463309737555818,-0.6520443578597035,-0.6816729925557397,-0.3593117531851311,0.2746707996825819,0.9900000000000002,0.9437806335632875,-0.0741578050928644,-0.14142581222854567,-0.09685280765493554,0.6858876276535364,0.11363585878933113,0.4753330992537217,1.0,-0.3203919140776561,0.6913755900627483,0.7835292141928827,-0.08629615088266429,0.6143391816920074,-1.0,0.4482915010882785,0.23337210033878364,0.39971001215222485,1.0,0.9714505799199271,-0.0502371192222989,1.0,0.8752290859909158,0.9356343813487884,-0.22606496855385583,-0.3078646611617386,-0.6077707813305229,-0.3210159617410264,0.46509093502760335,-0.6277440394404525,1.0,0.4297569894482516,0.652237934703221,1.0,-1.0,-1.0,1.0,0.05108963620810503,-0.16058773506587265,-1.0,1.0,0.559677350150225,0.6388624295942227,1.0,0.35488808254186743,-0.052118175524916044,0.9900000000000002,0.05262380606887529,-0.7121995157336407,0.05582290170255888,0.9900000000000002,-0.4551349355030898,0.14169908659821706,-0.2282483927648129,-0.313411094238079,-0.7293505617241376,0.610883438480613,1.0,-0.8750727781523473,0.9900000000000002,0.4977023185620446,-0.7244424839353414,1.0,0.11126292566024287,-0.4113081147283826,-0.7785548753186724,-0.14684471180413472,1.0,-0.43762037597116565,0.7608667129914393,-0.47017228135149036,0.12235078957985124,0.8109050575661656,0.9900000000000002,1.0,0.9034597002408931,1.0,-0.013209533669905849,1.0,-0.4761318728658175,-0.06850748371102489,-0.5271820305849255,0.763975549801847,-0.9042280581268411,-0.4593838703339368,0.30338053074341875,0.8536640133129083,0.6938391974144982,0.03010315691371579,-0.4918014758239895,0.3318685055331576,0.3732927185491671,0.7840924649009429,0.03293123021429378,0.8189956596305938,0.09988025948665857,0.00032302999144384614,-0.20923043636336866,-0.3577435807747496,-0.4203104740138359,0.6806837201069342,0.494063255288407,0.13960106498244915,0.5591596943350305,-1.0,1.0,0.42174284195191625,0.9800000000000004,-0.18053735432800888,-0.8358509277373356,-1.0,0.6641545770117183,-0.020944429794084396,-0.6779252956881443,-0.7526247824136476,1.0,0.5893519053933916,0.9900000000000002,-0.05374967464632441,-0.438085224799698,0.10089406219905817,0.53778674836094,1.0,-0.593496580135259,1.0,0.2793455776055902,-0.5320773913263115,-0.6496572131873419,-0.7267627956395082,0.691213818673587,-0.3758739171680803,1.0,0.5462209571591377,0.6220827901453871,-0.3234145311403527,0.8039708261547398,-0.31763244386090594,-0.09314321039586115,0.9900000000000002,0.992151310337821,-0.04835478991792952,-0.18970548300496093,0.7597542076105279,-1.0,0.3466438715218425,-0.9531101008367022,-0.22310902717112668,0.8292359447619271,1.0,0.9800000000000004,-0.9607526713560641,0.9900000000000002,0.9900000000000002,-0.1323916211698064,0.0446646849720036,0.7598999913437812,0.4020137384178444,0.395833647175162,0.012903157352710082,-0.5963128307313461,0.9900000000000002,1.0,0.9618969790764273,0.28157784400735864,-0.5483637403443433,1.0,-0.5950419136770035,0.130112550487806,0.4839054913383749,-0.15566863874608927,0.3645670909274408,-0.42906287773377993,0.3423640065522715,0.3816800311253825,0.4530066663037955,0.026539993976696152,0.9030772474462756,0.1470701921301698,-0.41585483198283946,0.24961323709418082,0.2574983793130423,0.5111756934879459,0.441815935730586,0.9019828008609547,0.9900000000000002,0.07776896025780022,-0.7948571721317499,0.9900000000000002,0.9800000000000004,0.29079429872757867,-0.4886382031758485
-0.16029024753000343,0.7500836769066996,0.4648089496522054,0.9900000000000002,0.6751265568495599,-0.7355434076175724,0.30896393863122373,0.8543655415695057,-1.0,0.9900000000000002,0.7183035359040266,0.7459725434786135,0.23164680163135687,1.0,0.17283326439754898,-0.6754862477352015,0.9800000000000004,0.9900000000000002,-0.15997780403166928,0.6058636160040809,1.0,-1.0,1.0,-0.8866387617603415,-0.951689284010838,1.0,0.9184319634828384,0.9900000000000002,0.9900000000000002,1.0,-0.06612793323354338,0.18970154932757577,0.22456677207653986,-1.0,1.0,-0.5636785359253365,0.728163684694664,0.47053191173280506,-0.1508129087437915,-1.0,-1.0,0.360570733367092,0.1944828685972384,-0.8975963922579382,0.6444952366788463,1.0,0.8228017269106012,0.45190332472139705,-0.637882206762967,0.8723439477300694,0.7542744794465168,1.0,-0.966635463331524,-0.7501860062991514,-0.5741426814781703,0.5753557771756237,1.0,1.0,-0.23835734022394162,-0.017493692709551478,0.6886245130095219,-1.0,-0.40599635129234724,-0.15706688337741115,0.6636711828138271,0.7992869613104201,0.9800000000000004,0.42496568534479406,-0.11187300040204962,-0.6463309737555818,-0.6520443578597035,-0.6816729925557397,-0.3593117531851311,0.2746707996825819,1.0,0.9437806335632875,-0.08415780509286419,-0.14142581222854567,-0.09685280765493554,0.6858876276535364,0.11363585878933113,1.0,1.0,-0.3203919140776561,0.6913755900627483,0.7835292141928827,-0.08629615088266429,0.6143391816920074,-1.0,0.4482915010882785,0.22337210033878385,0.39971001215222485,1.0,1.0,-0.0502371192222989,1.0,0.8752290859909158,0.9356343813487884,-0.22606496855385583,0.6661172815720504,-0.6077707813305229,-0.3210159617410264,0.46509093502760335,-0.6277440394404525,1.0,0.4297569894482516,0.6422379347032212,1.0,-1.0,-1.0,1.0,0.05108963620810503,-0.16058773506587265,-1.0,1.0,0.559677350150225,0.6388624295942227,-1.0,0.35488808254186743,-0.06211817552491583,0.9900000000000002,0.05262380606887529,-0.7121995157336407,0.05582290170255888,0.9900000000000002,-0.4551349355030898,0.14169908659821706,-0.2282483927648129,-0.313411094238079,-0.7393505617241374,0.610883438480613,1.0,-0.8750727781523473,0.9900000000000002,0.4877023185620448,-0.7244424839353414,1.0,0.10126292566024286,-0.4113081147283826,-0.7785548753186724,-0.14684471180413472,1.0,-0.43762037597116565,0.7608667129914393,-0.47017228135149036,0.12235078957985124,0.8109050575661656,0.9900000000000002,1.0,0.8934597002408928,0.9900000000000002,-0.013209533669905849,0.9900000000000002,-0.4761318728658175,-0.06850748371102489,-0.5271820305849255,0.763975549801847,-0.9142280581268412,-0.469383870333937,0.30338053074341875,0.8536640133129083,0.6938391974144982,0.03010315691371579,-0.4918014758239895,0.3318685055331576,0.3732927185491671,0.7840924649009429,0.03293123021429378,0.8189956596305938,0.09988025948665857,0.4495249318842731,-0.20923043636336866,-0.3577435807747496,-0.4203104740138359,0.6806837201069342,0.494063255288407,0.13960106498244915,0.5491596943350308,-1.0,1.0,0.42174284195191625,0.9800000000000004,-0.18053735432800888,-0.8358509277373356,-1.0,0.6641545770117183,-0.020944429794084396,-0.6779252956881443,-0.7526247824136476,1.0,0.5893519053933916,0.9900000000000002,-0.0637496746463242,0.948488557913886,0.10089406219905817,0.53778674836094,1.0,-0.593496580135259,1.0,0.2793455776055902,-0.5320773913263115,-0.6496572131873419,-0.7267627956395082,0.691213818673587,-0.3758739171680803,1.0,0.5462209571591377,0.6220827901453871,-0.33341453114035247,0.8039708261547398,-0.31763244386090594,-0.09314321039586115,0.9900000000000002,0.992151310337821,-0.04835478991792952,-0.18970548300496093,0.7597542076105279,-1.0,0.3466438715218425,-0.963110100836702,-0.22310902717112668,0.8292359447619271,1.0,0.9800000000000004,-0.9607526713560641,0.9900000000000002,0.9900000000000002,-0.1323916211698064,0.0446646849720036,0.7598999913437812,0.4020137384178444,0.395833647175162,0.4922186048739867,-0.6063128307313459,0.9900000000000002,1.0,0.9618969790764273,0.28157784400735864,-0.5483637403443433,1.0,-0.5950419136770035,0.130112550487806,0.4839054913383749,-0.15566863874608927,0.3645670909274408,-0.42906287773377993,0.3323640065522717,0.3816800311253825,0.4530066663037955,0.026539993976696152,0.9030772474462756,0.1470701921301698,-0.41585483198283946,0.24961323709418082,0.2574983793130423,0.5111756934879459,0.441815935730586,0.9019828008609547,0.9900000000000002,0.07776896025780022,-0.7948571721317499,0.9900000000000002,0.9700000000000006,0.2807942987275789,-0.4886382031758485
