-8.242412727024617247e-01
4.220098221498158608e-03
-4.601768231441163426e-01
-8.356110444893662947e-01
-6.043857723492622736e-01
-4.906769081815554046e-02
2.874236458348642387e-01
2.302370488670417714e-01
9.105774566212643251e-01
8.126152047797705613e-01
9.831768364654092096e-02
-8.099159084403675379e-01
7.458377348199989321e-01
4.547435120984653079e-01
9.465509101333513531e-01
6.203274137252900999e-02
6.290497029430337506e-01
-7.368180275315432404e-01
-4.291352123802123497e-01
9.129084347217140127e-01
-1.649442115499593076e-01
-5.901174205544368334e-02
9.307949521633007706e-01
2.246174101682445468e-01
-8.612568413554111402e-01
-5.368770766860728738e-01
5.041793022468417096e-01
-3.153869615407609572e-01
-5.816467822078776884e-01
-1.889034972396164136e-02
-9.003416177156740030e-01
7.306875893546069811e-01
-3.162537902542474910e-01
1.723993077091052761e-01
8.674075004219541363e-01
3.964647665208445027e-01
-4.884535553576421218e-01
2.617318117502525077e-01
1.065599711449902731e-01
3.085288686288789606e-01
-9.424389573966558409e-01
6.478100788910914343e-01
-1.491012396701574261e-01
9.055189539936774334e-01
-1.107820939726122944e-01
-9.159722475926415086e-01
-1.175211932001873905e-02
-4.854840130304203250e-01
9.845876409452061218e-01
7.218970754453395422e-01
-8.509098067256579689e-01
4.466691889968803508e-01
-5.017436168810229802e-01
8.008171208092518256e-02
-7.866488875228843103e-01
3.739305634655805122e-01
8.813796165137943728e-01
2.153199269514907144e-01
3.036091054830740710e-01
-2.593486123764963125e-01
-8.790874028929329675e-02
-5.253925458617381139e-02
5.227058910341253473e-01
6.394330874580755886e-01
1.897770430975993516e-01
2.884652108931042847e-01
2.293657717562957998e-01
-4.441119101443933292e-01
4.938877307181173126e-01
1.314464685254665977e-01
4.988988011740094208e-01
-4.532375354339146512e-01
2.286060360614117215e-02
5.092124102700394950e-01
-9.817981711467806960e-01
-8.616735619279620728e-01
-2.389375426290514248e-01
-2.277795863134826071e-01
-6.026448076675174903e-01
-3.136385787079489784e-01
6.080597433092436166e-01
-9.732052832648769858e-01
5.885644535599747762e-01
4.204045688876858478e-01
-2.803072263499417627e-01
6.450404063756804973e-01
-8.477326345601690072e-01
-6.015894833582118295e-01
-1.768313743356397794e-03
-6.394431218549723184e-02
3.199120214274886465e-01
-6.669545352348884570e-01
9.851147819942829287e-01
5.364609188807412110e-01
1.299794219327066180e-01
4.048371455654802276e-01
-9.171803209701618886e-01
1.616095482149022544e-01
-9.458859800662322570e-02
-9.646462688324473067e-01
5.119837909798086173e-02
-5.352295083424043476e-01
-5.441407123063897178e-01
5.702498419784904904e-01
-6.017610800353097034e-01
-9.776717610812424297e-02
6.579569525240496208e-01
-3.752333307722719447e-01
-4.017357019416230024e-01
2.270743873996927675e-02
2.072024221947104117e-01
1.741051377322435645e-01
-2.317287576199251742e-01
4.182595883431616812e-03
-8.334745489727808376e-01
8.293217058248369966e-02
-2.418114536351434474e-02
-5.956241576994967257e-01
6.816580526564683939e-01
5.757753834616421429e-01
1.180232312120912397e-01
6.944454072292478575e-01
-5.667389487928127245e-01
-5.328936704864233320e-01
-8.127774153121001266e-01
1.853770637763747509e-01
-4.446614930189505266e-01
6.454753326300570748e-01
7.490083412040322575e-01
-8.090243622848360960e-01
-3.022291036764797045e-01
5.363274544217768725e-01
7.488615518727084197e-01
-2.080998226141879126e-01
-7.006110534664706790e-01
3.980448609825719686e-01
-9.788398451487403396e-01
-3.771823926808239857e-01
-9.608995041480716814e-01
-5.418236096347865960e-01
9.856844806858608976e-01
-2.979572922548410219e-01
3.073379860879381642e-01
-8.114917127113223660e-01
-7.491594397277596684e-01
1.123140769174737486e-01
8.614510962042678521e-01
2.071955702215322326e-01
-9.343520251031869339e-01
-8.341976045553913810e-01
-1.597511742138764124e-01
-5.355450341583538609e-01
6.857287377498650915e-01
1.006140164192226294e-02
-5.601913577281134593e-01
-4.788469389314733426e-01
8.699107255707287933e-01
-8.459329073696473245e-01
-8.023839035938706843e-01
-7.205896166557967941e-01
1.042184259653355927e-01
-8.061420040028610678e-02
-3.322077002017049807e-01
3.922228571174732892e-01
-9.664835720870748048e-01
-8.367040499203808324e-01
3.883530548029323626e-01
2.093724467007931356e-01
-6.559318691235209720e-01
8.193887055254083229e-01
-1.780638885968577334e-02
-1.490297869016374843e-01
7.579608784210067896e-02
-9.743272606801636204e-01
3.098108462102717731e-01
3.805257691044705570e-01
7.952488071397567637e-02
6.836851703108624001e-01
1.670410665161763397e-01
4.660385983591548431e-01
3.745390822657825858e-01
5.796435019044934300e-01
8.639592408665777157e-01
-6.321328234602590079e-01
6.971526410320234568e-01
8.282783674351525960e-01
-9.271827546254871599e-01
-8.090978153542811580e-01
4.037728233931661137e-01
1.224046966917331503e-01
-4.757115710932868780e-02
1.439369723668773027e-01
1.600234859865601322e-02
-1.617494026210359870e-01
-6.073229774740074305e-01
-4.211165983239393285e-01
1.760557337465655792e-01
7.451398842470942085e-01
-8.604727174909285736e-01
3.665344390262774699e-01
-9.021575944663751123e-01
4.746846411967429180e-01
-9.774333525433187564e-01
-2.481225761978147482e-01
-9.063607384939798006e-01
6.482735410879225668e-02
-3.608010333609443787e-01
8.852785662274658129e-01
-2.222282401646749062e-01
-2.494284103321011692e-01
3.667360277733056062e-01
-1.506618802416630487e-01
6.184930757449966787e-01
4.425719086543544734e-01
5.322303448300056417e-01
3.829180340834228424e-01
8.069129373595056443e-01
-3.559180445367744472e-01
5.001513504115067121e-01
9.058409570166854330e-01
-2.829208367908171429e-01
6.139465100857539603e-01
2.446701121984335980e-01
4.825830590457114155e-02
3.629379490321995583e-01
-9.640374948510488373e-01
7.618447240390480157e-01
6.832881249837436943e-01
5.569553744052813116e-01
7.774284450949904279e-01
-6.665152319202496400e-01
4.347622442230192341e-01
-5.058102051009265576e-01
3.640050741366493980e-01
-2.990493809013528015e-01
5.176140872149019856e-01
1.641543567235712597e-01
-4.465497931781330365e-01
8.348788133224485097e-01
-4.802745104595391723e-01
-2.846967547271779253e-01
-3.411386075829945241e-01
1.146631577001155922e-01
7.053958587426685245e-01
1.793312391763732805e-01
5.283786171125415265e-01
-7.566354645868975659e-01
4.844668655862705009e-02
3.755157508135913424e-01
-6.669786997983866428e-01
2.684970897382119581e-01
-6.009079375290249381e-02
-6.272724171751977718e-01
4.544883655800846523e-01
7.304088527678473941e-01
-5.660469543024528871e-01
1.217116185831379482e-02
-6.470897589566080299e-01
9.053673032938380771e-02
-4.323742487179973448e-01
8.939737412718897769e-01
2.594257792926328854e-01
-1.078518338977798585e-01
-2.304940932769952155e-01
5.554132757094301098e-01
