2.927466012320634192e-01
7.773930999666633923e-01
7.004863201400506334e-01
-5.218811511653980162e-01
1.410443685807818426e-01
7.050535951509044885e-01
3.138764047022410963e-01
1.881196012477537316e-01
-9.772311717322075264e-01
7.328765442446913969e-01
8.450852061178464325e-01
9.597587708298815912e-02
3.833531270219046050e-01
1.389310303333324281e-01
4.061835906433834964e-01
-2.440579653226304657e-01
-8.712171964811452618e-01
-3.713753988681998131e-01
9.650335914754559763e-01
-4.144148325177399173e-03
9.761504431957606087e-01
3.861863488336700900e-01
1.983996929812741339e-01
-5.629859532402028410e-01
6.289823451420557543e-01
-1.843608007335522103e-01
2.885296911687551535e-01
-2.996154799440382543e-01
-4.040807788610321083e-01
-8.742364691348654127e-01
3.829511328951880067e-01
-1.019005839460378482e-01
6.281724804038864018e-01
9.334660629180411284e-01
-3.994376112638953202e-02
-9.049353474687280574e-01
-8.612083149913767333e-01
4.572870678396587785e-01
-7.690372739312774097e-01
7.517296221708145154e-01
-4.944313176061692072e-01
9.562742901500269621e-01
5.793039091282436992e-01
-2.097947867914866649e-01
-3.286356020088470054e-01
-9.847450656767378074e-01
9.433301440444443742e-01
-5.767711799218684376e-01
-2.117502785327001202e-01
4.326857263398657949e-01
3.472102784799024899e-01
-6.423522995388428747e-01
3.987031278198780448e-01
-8.140079162626667753e-02
-9.442442985871497552e-01
-3.942093911080613022e-01
9.538861994028393632e-01
-9.161887103371273433e-01
4.739950973989714988e-01
5.633760869091604118e-01
7.615340510027470700e-01
9.158990092745651346e-01
8.035426362780961895e-01
6.484655238452810000e-01
-5.421671063238369115e-01
2.331751577359424399e-01
-8.261981703087637463e-01
-4.983155878679608186e-01
-8.260331723640310653e-01
-3.994655545689351772e-01
3.675963284130066011e-01
-4.695899003751229372e-01
2.489110817125763653e-01
3.158651851822507073e-01
-2.676488985963583200e-01
7.822964252581199318e-01
6.830646814060499228e-01
-2.388380128366798250e-01
7.755653258705481612e-01
4.484750130208714491e-01
3.575449442449660786e-01
-2.479122984533677077e-01
4.165491743571045902e-01
-9.163474255139814062e-02
-1.463364756736389438e-01
1.611637776458856308e-01
-5.460016811912178358e-01
6.313962958211882803e-01
7.012278464270638167e-01
-1.143966938847196246e-01
-9.197477037927996868e-01
-5.392615347553442184e-01
3.091411386215847656e-01
-1.088349755128663610e-01
6.367297762287003060e-01
-5.562684366164831751e-01
3.170707195586808247e-02
-4.872922575607558926e-01
4.654859292685276095e-02
-2.202846703396645900e-01
-8.361646617454865371e-01
6.880814909859851447e-01
-7.527664193860776898e-01
-2.712566082757468244e-01
-7.234121466637288833e-01
5.348509468364437414e-01
9.948155905506650409e-01
6.596483234046284228e-01
1.094091357572390955e-02
-5.350975024198350027e-01
-3.132783563236281044e-01
-4.832640185258170185e-01
1.795134575186856374e-01
9.720205191314850168e-01
-4.046739705325430592e-03
-3.382645699173554288e-01
-7.773473466298232992e-01
-3.324509861789204379e-01
1.303652766850098565e-01
5.667817634753025136e-01
-1.101961893501268719e-02
-5.745880177608742034e-01
2.181124647726409016e-01
-9.433600422111556583e-01
8.816045513226926644e-01
5.505658584035253433e-01
4.913347160290626459e-01
8.907672945854905322e-02
4.850609436627641990e-01
8.052700942914912119e-01
-2.093210499795652435e-01
-7.147734745820344404e-01
-8.479752865885601398e-01
-6.001316600895967301e-01
-1.293270676128941421e-01
-5.680881714025787232e-02
-9.624770930131667512e-01
9.515889390116107904e-01
9.322505632216624427e-01
-7.553818206632545440e-01
3.335863708873083588e-01
9.002986168620439322e-01
-9.269658564086304953e-01
-8.274679120284651468e-01
4.699808572015284902e-01
9.480995061030541571e-01
7.286373084194752714e-01
1.092036396364295392e-01
4.547702281611283315e-01
-3.835355790959593669e-01
-4.599488633470181220e-01
4.999481572033568355e-01
-3.681572839368698613e-01
-5.348282308504992422e-02
5.851173879281559298e-01
7.819372814473415367e-01
-7.243182599716655456e-01
-5.894419182223340492e-01
4.524534995494360334e-01
-7.891238378343734539e-02
3.374676400647198538e-01
-7.704713695356679715e-02
1.810201551890511240e-02
9.616088015546910839e-01
4.000922891329143916e-01
-5.007260144610596875e-01
-1.530500261808762641e-01
-6.382265304930028194e-01
-2.503457027654003575e-01
-3.554231971995780448e-02
6.562981034405739322e-01
3.075320010758828548e-01
-6.488131017587388527e-01
-3.516557695814710449e-01
7.800300657716343622e-01
7.963729002233888021e-01
5.580721489247220113e-01
-1.585148976825394573e-01
4.210770256635028019e-01
-9.623594183094867915e-01
5.198456818212446873e-01
2.321127229857657959e-01
-7.002252763052569939e-01
-8.308415092122547474e-01
-3.155803461560247047e-01
9.516307828499028787e-01
4.955988889569984401e-02
3.968093424280594306e-01
-5.360381220907428634e-01
-8.753916541491513215e-01
-7.470754053086101631e-01
7.753343287174532250e-01
-8.149601486008617446e-01
9.561739387358114683e-01
-7.122368124056301930e-01
6.680840366705091959e-01
-8.541845416002540325e-01
3.462965093940919559e-01
-3.324073259936670688e-01
9.508208950813887839e-01
-8.358774762978544715e-01
2.947715377372479573e-01
-3.106436699600556572e-01
-8.827621676607320111e-01
7.780064603046961125e-01
-2.702051162130021389e-01
-5.469665184124321566e-01
2.828778856460147928e-01
-4.187012584986304908e-01
3.683665448965611766e-02
-8.390001965111044679e-01
8.715375809296439513e-01
6.048354333580927555e-01
4.436864874117394386e-01
-9.578086087748443056e-01
4.222319454269507499e-01
-4.966048277442629555e-01
6.758906039439034341e-01
4.139145395662402471e-01
2.841120758941118041e-01
8.642896419677947861e-02
-9.128539357516378683e-01
5.509781110802329795e-01
8.640841132017276216e-01
9.724214067251237825e-01
-8.411691290965483958e-01
1.278746195086721826e-02
-2.845720922588985680e-01
-5.265528902122524890e-01
-8.312891001465003704e-01
2.092924452507429756e-01
-4.693672101199566349e-01
2.298696741069627958e-01
5.252876063301785692e-01
-4.747058799108903049e-01
5.393141113341912707e-01
-5.428890351075390530e-01
9.550796770348646270e-01
-5.434386020664301320e-01
-9.519477037037793465e-02
-8.231670958455801212e-01
-1.352591456795366742e-01
6.472501466163398387e-01
2.329372243447636048e-01
9.025261628362182265e-01
-1.187723418527240060e-01
-7.901467105289585735e-01
4.483947042216669399e-01
-3.609703138667816891e-01
-9.980297229728161135e-01
-6.196847435542782723e-01
-2.767455898800303959e-01
2.623784694923991800e-01
-4.755371228451155119e-01
8.993842627680330715e-01
-1.207019645339066916e-01
8.906755945029725119e-01
-6.596113394108349404e-01
-7.042922168610599165e-01
-4.874173113349973274e-01
9.360936950341223195e-01
5.902890630204606914e-01
7.335653426072084038e-01
7.996571931390989985e-01
-2.888149247958669008e-01
