9.104510456710399602e-01
-7.379085592139298377e-01
-8.113440301630328033e-01
3.970393548845319032e-03
1.683962578984843361e-02
-9.474124429092785071e-01
5.889555645025410513e-01
2.831406161646627950e-01
-2.549801305345280600e-01
-4.371287611149927699e-01
2.044429125988627138e-01
6.541312496687485822e-01
4.056171318786261359e-02
-4.310285823834123509e-01
-4.500146720280575607e-01
1.489808579801370492e-01
1.036670540085022907e-01
6.567814334130597231e-01
-8.414685362604881202e-01
9.672256436141488667e-01
7.374360116526139652e-01
5.070683766187440433e-01
-4.533715740934574079e-01
-7.695980332219189979e-01
4.058860632014873460e-01
-8.657348238642414984e-01
-2.350352323151343459e-01
-7.212712467069515299e-02
3.216836488199052990e-01
-1.058025481875359830e-01
-9.732281294394966586e-01
9.547585200233235092e-01
5.124186649425606088e-01
2.790437835073866779e-01
-1.424769912825014639e-01
-5.926243888777271707e-03
-6.460533350055037705e-01
9.217343069553749491e-01
9.840410250998576913e-01
-2.759085296136865040e-01
-9.058655705612679299e-01
5.033686586322012602e-01
-6.261870208512734237e-01
-2.755339031770307479e-01
3.358964524063496881e-01
-4.313020703597443273e-01
-2.679504460195196724e-01
-7.402216246222266260e-01
8.271948674602125351e-01
2.504754196943688171e-01
-5.988404984829789335e-01
6.676803881857307221e-01
-2.631025655488481441e-01
-4.191052957378595956e-01
-2.689566008294075328e-01
8.338402772107524896e-01
-8.850090299302757479e-01
2.425546588116835878e-01
9.918796153459408238e-01
-8.971322264783738731e-01
8.317447823268420137e-02
3.290845090311103061e-01
2.342625251176988499e-02
4.132174577821974282e-01
6.336203277186915894e-01
-7.484607780894849682e-01
7.495689767195536923e-01
6.863732036479393006e-01
-5.443265983154688126e-01
-6.367258142218950034e-01
-8.253465999878648596e-01
6.985641804819389122e-01
-8.508538289730849247e-01
7.193172409324288807e-01
-4.105032461387900788e-01
7.835063974814020504e-01
-6.437114776562768981e-01
-2.273703583126085448e-02
-6.843544962762617700e-01
1.586464381234531373e-01
-8.731769488071361440e-01
-1.466818886359511076e-02
-7.607681829439087995e-01
-9.886095765342954866e-01
9.759448476383822957e-01
-5.944626006646924754e-01
7.440004808548041915e-01
8.139728931689886871e-01
-6.289731382880821009e-01
-5.502862369161043432e-01
-1.372748615455159360e-01
5.580522657737390091e-01
-5.872933506915793966e-01
-4.483011749005847424e-01
6.567896464222373609e-01
6.939751924714583353e-01
-6.917819460154750466e-01
-6.502727097893759023e-01
-2.469655619685362513e-01
8.983091988569655850e-01
8.557433354748180676e-01
8.242493841374736174e-01
6.232317799163771266e-01
4.026684293439477536e-01
-3.555430112495556738e-01
5.722951601083154927e-01
3.720098558088036356e-01
8.370680401249410707e-01
7.833649588770381644e-01
1.628178173069445567e-01
-3.180044682037275194e-02
-2.767198467449427657e-01
9.718910961413191885e-01
-5.438081613674825565e-01
-8.893226461125158799e-01
7.522886040638510075e-01
-2.315214600565802527e-01
7.327043186467792069e-01
-4.360174308157289680e-01
1.998917003533953185e-01
-5.947789940204559755e-01
-5.391343641980517187e-01
-1.387202759532617513e-01
5.443140560679728956e-01
-7.319214133592710780e-03
4.307367805889910084e-01
4.717813089467421950e-01
-8.816627892513011489e-01
-3.776983840942715887e-02
4.894548681975341431e-01
-5.999381370505481037e-01
-9.189319710823500298e-01
2.355064677754403757e-01
-2.427615017896964655e-01
-3.824018637418831190e-01
-1.529528791722993830e-01
-1.099674601397520046e-01
2.974521562617362669e-01
-9.326107062997068819e-01
2.969086862152745532e-01
7.534314004058588754e-01
4.486208860892049177e-01
5.095915822810899165e-01
4.059578142237869613e-01
-3.411813291575249707e-01
7.585369227254299407e-01
2.513589615726021798e-01
5.291817005819956510e-01
-6.697668659720916740e-01
8.883443134805308894e-01
8.168074268703495733e-01
-5.065184047773771958e-01
6.066820166374295997e-01
-5.729860661509018627e-01
3.823926086434032978e-01
-8.842724472693621607e-01
-9.509091860556595499e-01
5.597561415342058311e-01
9.657818902571209119e-01
6.779537201491354637e-01
-9.801485858971612508e-01
5.994862862967071937e-01
1.338077493320899425e-01
-1.130822536776610043e-01
4.958651741101598454e-01
-1.842857477477133354e-01
5.539846246582740275e-01
7.824217563805957454e-01
-1.035823800806305872e-01
2.403159352364652168e-01
-2.164072901481779443e-01
8.462515371827683541e-01
-8.739440917155256727e-01
8.560270207552065358e-01
3.799994803137725086e-01
-5.844952872171058633e-01
-7.118432115609605315e-01
2.915006756290945411e-01
3.885798813738894353e-02
-5.488279563097488989e-01
1.084032024525967142e-01
-4.372117807803863609e-01
4.243911419425510090e-01
2.781283799876246299e-01
6.307577667010739741e-01
-7.969579157167252514e-01
9.775405175883260522e-01
4.772691426923849622e-01
-3.661898789603346138e-02
-4.796118113680594153e-01
2.020557843246573171e-01
1.484846834255506565e-01
4.302004581657672411e-01
-2.101314572395376334e-01
-6.268464505971582668e-02
4.763380308570557276e-01
-8.930836279282854395e-01
4.290809432064848217e-01
4.951123455559032216e-01
-2.491413393074799476e-01
3.482100988528986640e-01
8.448873161255832098e-01
4.959860612103128563e-01
-7.793003308478905211e-01
-5.961712425251288749e-01
-3.338560029817712049e-01
3.115385765214373492e-02
2.981518938287874843e-01
-5.943146654439546150e-01
4.732170955636920695e-01
-6.618414004311754528e-01
-2.405526803310342743e-01
8.021845183612212882e-01
6.295021213490894496e-01
6.479296952140474186e-01
8.144225729241834077e-01
-9.385828123639703424e-01
8.136699025719182909e-01
5.406177510269936093e-01
-3.109240320182284911e-01
-1.843040850067299008e-01
-2.858029968640729557e-02
-3.109793909604887663e-01
4.223594628468063661e-01
-7.975618241962587618e-01
-9.340040838043255356e-01
9.977992020385855199e-01
-3.184956029488272833e-02
5.099318354822823807e-01
1.809653131556634431e-01
-3.894958281590787941e-02
-8.884847020906163628e-01
-9.090894930092077164e-01
2.303355626243110965e-01
-3.236213244539376532e-01
-4.705875161561801079e-01
8.252042980652150028e-01
-5.334343242669246088e-01
-6.742563867155282331e-01
7.737176211036498330e-01
-2.233354527796498346e-01
-4.766279101334418566e-01
2.990469200473870881e-01
7.383833139151323444e-01
6.196647260859156070e-01
-6.201831257372174555e-01
5.863163692857353837e-02
3.088303392524434088e-01
-7.279313270358431787e-01
1.802806786019619523e-01
6.879413289482343430e-01
-7.575182577871839573e-01
6.494262435285311774e-01
7.516700425332492053e-01
5.599492914177934821e-01
7.122991535023475151e-01
-2.838300083607598889e-01
-7.373868098234401813e-01
-4.118979923297483303e-01
1.158941095744223659e-01
-9.368869487066799895e-01
8.140759749756740771e-01
1.001873113955218386e-01
9.121907060050777893e-01
-5.298622319855263996e-01
