21.127180712496784,0.4329830007814204,-0.4834145284420279,0.14606263650575224,-0.8805289461530306,0.3229603292865828,0.6264871548827213,-0.6992391893753502,0.5280293203402118,-0.4696754650462096,0.36172477897172794,0.4650691930738615,0.9998273776093005,-0.4871394669945497,0.14571648002417548,0.6596147486476582,-0.10907624733193311,0.8723198447206901,0.8433204381892316,-0.42984820558765713,-0.37653664571225476,0.15852848607403902,0.31218432501055093,0.4282001893864915,0.31127159403355287,-0.25836421751386274,0.5353868693467028,-0.15567568821004052,0.014407634636143252,0.4351703201165473,-0.4799425123368086,-0.2722011926559338,-0.527898891280461,-0.5328953367877707,0.7976504766243002,0.5470807419769759,-0.5009221372445725,0.013819398951360196,0.5343085095937612,0.27663134593803873,-0.2766242913228336,0.11880077303246117,0.6828330768174564,0.9592176349311521,-0.7175510668851763,-0.06467657566157303,0.697810199615805,-0.08107610423731137,0.1423925205771326,0.1618111828671236,0.6244820260200632,0.19785714900077744,0.36209211696482946,-0.1348507677540609,0.748716469508184,-0.025789985383841252,-0.8780799468392664,-0.9586522573572165,-0.36987214197794516,-0.49970364340708495,0.9739442325386387,-0.08730913105496185,0.8309280636010858,0.9673695525801069,0.09662062477562117,0.9247118829714083,-0.7938111910199575,-0.11418358370890913,-0.4402432982635298,-0.11085742040094271,-0.4907225212158892,-0.48991111688528455,0.6813452981948771,0.014626470977453288,0.7783176516795693,0.3787272231550811,-0.3768677187879834,-0.8077136518834207,0.044915318325055464,0.6717309572477679,0.5428687409454391,0.46481289812405824,0.4258450547121193,0.8361361878452713,-0.8576591332637458,0.7746279439598056,-0.9393707649837659,0.32098975150096853,0.4140933220435339,-0.8706106331658796,-0.7730306657731143,0.8523561891324944,0.6433744446587439,0.3017666176557141,0.7521030144457725,0.834877945219012,0.4864099306510432,-0.13904809632008397,0.9795506955295183,0.2898928986250422,-0.836511780055538,0.9507986860093036,-0.1320821252479567,-0.5762882875050734,0.2074961772729882,-0.08482636241947716,0.9806454013893775,-0.05165265629222371,0.30246755828615557,0.6844767283198068,0.6493427797818014,0.6686078844017627,-0.6153716107858707,-0.1017761793216787,0.5571480389497412,0.2194571006023014,0.33932568209722636,0.31145930671981326,0.7816491482520924,-0.91768898446201,-0.37993860883804387,0.864771374088501,-0.8442622311265229,-0.23566483228149493,0.8018674297426447,0.7298971934538692,-0.12739667385832454,-0.749090763933445,0.21206549668356023,-0.04006300212835412,0.639927520644366,-0.44068870918322567,-0.11166336524242548,0.5252711365684875,-0.25484481761448374,-0.2640405051610746,-0.5337021776253108,0.003553674337809287,-0.4943639645082778,0.690967480672722,0.8427001155249061,-0.10205427851445248,0.40337903140917897,0.0675922217728746,-0.05882860400657286,0.8802902821847574,0.7861293183978688,0.2568159784121069,0.9201116712453556,0.9298037204889069,0.49316887797602016,-0.35575169386396066,0.7396339431774206,0.5749094450310805,0.6215857521515398,0.3499342447305609,-0.6775137514843654,-0.4521529073229955,-0.3410888133823884,0.6332302354224522,-0.5984780632398212,0.17334832974870862,0.672601319026418,0.3350792609396913,0.8890742065765354,0.5835055873357431,-0.3498263890713398,-0.6350575378997687,0.18727123902392995,0.37450991821539836,0.5811303625960502,0.24706863656071,-0.3623385202805607,0.2269761171103557,-0.25103134659140314,-0.9106307147021446,-0.03833229207928435,0.4228757979315354,0.36937546850868475,-0.3486146693949963,-0.6516805239726902,-0.08104612894063257,-0.4572843174137058,-0.15973998853469262,0.32641091497053787,-0.6173963600410906,-0.6182370558766186,0.7857732090211846,-0.7454125545922186,0.22938658393978928,-0.08608568501129343,0.630861254123215,0.4754179109359835,-0.1056533423108097,-0.8206012899077197,-0.9711039302583748,0.3579459222076815,-0.8977969702042925,-0.2225114353163118,0.23231858348435264,0.6437800870217449,0.21099550807995038,-0.5029192530109254,-0.4109213038606061,0.9658931569684233,0.9477302412107587,-0.5755945698626856,0.568815815966941,0.932979484028237,-0.9072233013151332,0.3381423541462527,0.23761444213778704,-0.40948654847268795,0.3395810430055499,0.9466885221891759,-0.6534352490388091,-0.09230472722659533,-0.8751810529647943,0.9955343853842296,-0.3418115276773426,-0.17407001323459004,-0.3610095776277087,-0.5969056839894704,-0.6321786708912223,0.4241104078869158,-0.37866907267290073,0.21359781826728264,0.9882375173419842,0.4640950979857772,0.3085288944280111,0.9541087707936144,-0.09107924480679963,-0.08424061796442217,-0.34806392742032966,0.671969948669705,0.05291634337118967,-0.2786113245698665,-0.961174045171123,0.01838884053345624,-0.8794685652723073,0.605400856588886,0.4352628292237628,0.4172648002815611,0.7813375531686113,0.994465923236914,0.4401016048265325,0.6266941527321426,0.8701575075858818,-0.7528519366488717,-0.2340950087321403,-0.6523010735815564,-0.6703554409417425,-0.920897761467417,-0.1030720595469965,-0.00511514702766358,0.60542791815605,-0.9067940977881723,0.34805131901981445,0.6457104648254886,0.3223334703239218,0.22441547415412755,-0.006623944197419407,-0.04485761843488767,-0.3684820039790835,0.7202067550437803,0.6331183397494788
21.127180712496784,0.887386193563213,0.3892773227137236,0.8547829842268082,0.6490744031167495,-0.9899904011132439,-0.4035308363273633,-0.4699457644512579,-0.6011713884026926,-0.4630845631707119,0.7770035868379292,0.09561738349604876,0.18045440087260745,0.07101035460698624,0.26191474649538304,0.7662176718623133,0.9447835537918596,-0.3305227006645759,0.4137407891730618,-0.7502257676706146,0.21476001109118847,0.844563336203636,-0.40907762592234254,0.7115695466302479,0.8678983995055198,-0.21664823925986143,0.8089427178560322,-0.16788059311784864,-0.0038971079333731673,0.155913614878336,0.9851292214856175,-0.5918512088934926,-0.78932069621926,0.062365448589978056,0.269056654151951,0.25591095207559955,0.35651720192794434,0.6233188683455939,-0.138010685637304,-0.9616608963671514,0.5057785859980006,-0.6818632912158322,0.286495449321315,0.46095048293415286,-0.36875234511765975,0.06642844652730062,-0.5252645527394912,0.33554979767114945,0.05734050500664667,-0.4691343912275834,0.9625701445153496,0.17602235171780478,-0.23574459095569877,-0.4266120447402617,-0.9299584527152076,0.7735197219352219,0.7032778192289155,0.14329411784439672,0.16367404850190082,-0.7356217547361459,0.7403263471450499,-0.04850903874007617,-0.6769454850726229,0.820624466522234,0.041975282576386164,-0.282535241459124,0.9116311774616168,-0.3150466743822764,-0.7534483330412365,-0.40580637831995303,0.9012878102731829,0.4581174275846167,0.8532134435584418,-0.6785198690339205,0.3966542234340915,-0.4962541540912695,-0.8379249397703759,-0.08648565842124567,-0.2461391678007352,0.832500783434525,-0.9234642761737561,-0.2458984471523229,-0.19399173992260166,0.7057333741455909,-0.6282566686029212,-0.867507905122606,0.9256729470937952,0.30285589981087835,0.47660678700110637,0.6144213401790013,0.5616132316181808,0.9244571155324142,0.8911608030063545,-0.4320983178438942,-0.4890529617283361,-0.8539184433294673,0.22774405479876525,-0.9533292859718181,0.07745488273501633,0.2412028022752415,0.3129791964400006,0.31498315269975463,-0.49445082289386955,-0.23053843646145378,-0.12666846605425341,0.8198798670120324,-0.055192124175126756,0.773679356997037,-0.7294179018540425,0.7249977449826439,-0.7344724216520127,-0.6233276988157659,-0.3314336545772991,-0.14370496276014122,-0.679569062115633,-0.031575712731518824,-0.27724478683790976,-0.36963444999514605,-0.7611113954079107,0.9796533810578998,0.06093639674900375,0.048345910981015816,0.7454878693762463,0.5474386704593441,-0.23161809991802684,-0.47617729876984183,0.6803148313239422,-0.7757197718418978,0.8136151236313289,0.27313197123842103,0.5489756923135378,-0.5700255155236698,0.7937421553734563,0.36431684519463237,0.0030481976317318082,0.5930690893994928,-0.6402003174317241,0.6617610944015253,-0.9502356117201269,0.9234917984564031,0.06450326694750252,0.5970871818456769,-0.249289662990398,-0.016238743318722104,-0.6018313579837673,-0.5334323079434669,-0.5451455551770026,-0.8103579797379679,0.04018667497557549,-0.08239011399965701,0.9822076662544175,-0.2341974441880128,0.09236413386879128,0.950820202004308,-0.5032283224123839,0.3282770845059846,-0.05638384665452789,-0.6973810906055398,-0.02135559701353351,-0.7499777702453001,0.6666568414655407,0.492766217451174,0.19681910653221868,-0.002415119747429806,0.7385282155105801,0.0909078401305834,-0.9053553372898886,0.21671195796845688,-0.25006616493935163,-0.2644882729073126,-0.5107148127065584,-0.09657684596301563,-0.7945549509516525,-0.06331362291035258,0.3024751376331891,0.5601141515798733,0.2815104602768437,0.9073477845608813,0.3376395062257458,-0.5876620076804253,0.3369993017942807,-0.7280414696460158,0.1218252254089689,-0.8880098927891096,-0.3681333140420304,-0.7233755672270559,0.8586009775720758,0.6291584151548726,-0.259806713382998,-0.36504759926025887,0.33128163082645523,-0.6187511886969286,0.7991883497406134,0.609469670834216,0.7032843379142009,0.001639264505871818,0.7537522975758697,-0.509391053726884,0.0708767471723104,-0.3216824524657489,-0.3207863786983107,-0.0099828011873615,0.1605308465946691,-0.12505772512796742,-0.4075059049759635,-0.18945005924281966,0.7859068808224825,0.8502394937841005,-0.05004894611724131,-0.7865149980082786,-0.7844498126360808,-0.5957082006968633,0.8792329428950336,0.2529092682737717,0.7096082725549022,-0.47832912454702314,-0.9773580558776178,-0.9863886541893538,0.3176897485848358,0.8307982410057249,0.8630796798188705,-0.16203812462706813,-0.4389538065765737,-0.7030916355581915,-0.9379158678259265,0.2144644121596897,0.5256599908706041,0.24897656078472252,0.4017855360874192,0.8682757678622841,0.766076413578425,-0.7761435578570959,-0.16289560629735989,-0.35448263478285713,0.693583703524163,-0.7670465602679324,0.5427626335986955,0.1931422773723972,0.9358447778167744,-0.9682974987487822,0.09724496661689153,-0.049289231769079844,-0.6351658393327744,-0.24010672220559703,-0.7725705727851837,0.2657510916352315,-0.2956269399963394,0.8642446064200426,-0.43104576854517473,-0.5644413888460007,0.17416106042273416,-0.2831292726105372,0.2863697681136206,-0.5798590960898731,-0.30063088031686713,-0.8465715792160629,-0.6478342516647797,-0.8373046940807034,0.3976485083012822,0.3397452875808027,-0.07251285649588612,0.4029755317803625,-0.6520204443325284,0.6107726344872655,0.8007534999628672,0.38989551452995563
34.797244707490734,0.887386193563213,0.3892773227137236,0.8547829842268082,0.6490744031167495,-0.9899904011132439,-0.4035308363273633,-0.4699457644512579,-0.6011713884026926,-0.4630845631707119,0.7770035868379292,0.09561738349604876,0.18045440087260745,0.07101035460698624,0.4062089429094209,0.7662176718623133,0.9447835537918596,-0.3305227006645759,0.4137407891730618,-0.7502257676706146,0.21476001109118847,0.844563336203636,-0.40907762592234254,0.7115695466302479,0.8678983995055198,-0.21664823925986143,0.8089427178560322,-0.16788059311784864,-0.0038971079333731673,0.155913614878336,0.9851292214856175,-0.5918512088934926,-0.78932069621926,0.062365448589978056,0.269056654151951,0.25591095207559955,0.35651720192794434,0.6233188683455939,-0.138010685637304,-0.9616608963671514,0.5057785859980006,-0.6818632912158322,0.286495449321315,0.46095048293415286,-0.36875234511765975,0.06642844652730062,-0.5252645527394912,0.33554979767114945,0.05734050500664667,-0.4691343912275834,0.9625701445153496,0.17602235171780478,-0.23574459095569877,-0.4266120447402617,-0.9299584527152076,0.7735197219352219,0.7032778192289155,0.14329411784439672,0.7360678657127806,-0.7356217547361459,0.47176672997014735,-0.04850903874007617,-0.6769454850726229,0.820624466522234,0.041975282576386164,-0.282535241459124,0.9116311774616168,-0.3150466743822764,-0.7534483330412365,-0.40580637831995303,0.9012878102731829,0.4581174275846167,0.8532134435584418,-0.6785198690339205,0.3966542234340915,-0.4962541540912695,-0.8379249397703759,-0.08648565842124567,-0.2461391678007352,0.832500783434525,-0.9234642761737561,-0.2458984471523229,-0.19399173992260166,0.7057333741455909,-0.6282566686029212,-0.867507905122606,0.9256729470937952,0.30285589981087835,0.47660678700110637,0.6144213401790013,0.5616132316181808,0.9244571155324142,0.8911608030063545,-0.4320983178438942,-0.4890529617283361,-0.8539184433294673,0.22774405479876525,-0.9533292859718181,0.14499722059873177,0.2412028022752415,0.3129791964400006,0.31498315269975463,-0.49445082289386955,-0.23053843646145378,-0.12666846605425341,0.8198798670120324,-0.055192124175126756,0.773679356997037,-0.7294179018540425,0.7249977449826439,-0.7344724216520127,-0.6233276988157659,-0.3314336545772991,-0.14370496276014122,-0.679569062115633,-0.031575712731518824,-0.5656111736345584,-0.43798535697974694,-0.7611113954079107,0.739855749563944,0.06093639674900375,0.048345910981015816,0.7454878693762463,0.5474386704593441,-0.23161809991802684,-0.47617729876984183,0.6803148313239422,-0.7757197718418978,0.8136151236313289,0.27313197123842103,0.5489756923135378,-0.5700255155236698,0.7937421553734563,0.36431684519463237,0.0030481976317318082,0.5930690893994928,-0.6402003174317241,0.6617610944015253,-0.9502356117201269,0.9234917984564031,0.06450326694750252,0.5970871818456769,-0.249289662990398,-0.016238743318722104,-0.6018313579837673,-0.5334323079434669,-0.5451455551770026,-0.8103579797379679,0.04018667497557549,-0.08239011399965701,0.9822076662544175,-0.2341974441880128,0.09236413386879128,0.950820202004308,-0.5032283224123839,0.3282770845059846,-0.05638384665452789,-0.6973810906055398,-0.02135559701353351,-0.7499777702453001,0.6666568414655407,0.492766217451174,0.19681910653221868,-0.002415119747429806,0.7385282155105801,0.0909078401305834,-0.9053553372898886,0.21671195796845688,-0.25006616493935163,-0.2644882729073126,-0.5107148127065584,-0.09657684596301563,-0.7945549509516525,-0.06331362291035258,0.3024751376331891,0.5601141515798733,0.2815104602768437,0.9073477845608813,0.3376395062257458,-0.5876620076804253,0.3369993017942807,-0.7280414696460158,0.1218252254089689,-0.8880098927891096,-0.3681333140420304,-0.7233755672270559,0.8586009775720758,0.6291584151548726,-0.259806713382998,-0.36504759926025887,0.33128163082645523,-0.6187511886969286,0.7991883497406134,0.609469670834216,0.7032843379142009,0.001639264505871818,0.7537522975758697,-0.509391053726884,0.0708767471723104,-0.3216824524657489,-0.3207863786983107,-0.0099828011873615,0.1605308465946691,-0.12505772512796742,-0.4075059049759635,-0.18945005924281966,0.7859068808224825,0.8502394937841005,-0.05004894611724131,-0.7865149980082786,-0.7844498126360808,-0.5957082006968633,0.8792329428950336,0.2529092682737717,0.7096082725549022,-0.47832912454702314,-0.9773580558776178,-0.9863886541893538,0.3176897485848358,0.8307982410057249,0.8630796798188705,-0.16203812462706813,-0.4389538065765737,-0.8296464367676237,0.964393410081603,0.03098924768041811,0.04246514252954792,0.9966007898631049,0.4017855360874192,0.8682757678622841,0.766076413578425,-0.7761435578570959,-0.16289560629735989,-0.35448263478285713,0.693583703524163,-0.7670465602679324,0.5427626335986955,0.1931422773723972,0.9358447778167744,0.5434713277002778,0.09724496661689153,-0.049289231769079844,-0.6351658393327744,-0.24010672220559703,-0.7725705727851837,0.2657510916352315,-0.2956269399963394,0.8642446064200426,-0.43104576854517473,-0.5644413888460007,0.17416106042273416,-0.2831292726105372,0.2863697681136206,-0.5798590960898731,-0.30063088031686713,-0.8465715792160629,-0.6478342516647797,-0.8373046940807034,0.3976485083012822,-0.1661578367486216,-0.07251285649588612,0.4029755317803625,-0.7120812775558449,0.6107726344872655,0.8007534999628672,0.38989551452995563
38.64320682957242,0.887386193563213,0.3892773227137236,0.8547829842268082,0.6490744031167495,-0.9899904011132439,-0.4035308363273633,-0.4699457644512579,-0.6011713884026926,-0.4630845631707119,0.7770035868379292,0.09561738349604876,0.18045440087260745,0.07101035460698624,0.4062089429094209,0.7662176718623133,0.9447835537918596,-0.3305227006645759,0.4137407891730618,-0.4784048384902997,0.21476001109118847,0.844563336203636,-0.40907762592234254,0.7115695466302479,0.8678983995055198,-0.21664823925986143,0.8089427178560322,-0.16788059311784864,-0.0038971079333731673,0.155913614878336,0.9851292214856175,-0.5918512088934926,-0.78932069621926,0.062365448589978056,0.269056654151951,-0.0229949198660635,0.35651720192794434,0.6233188683455939,-0.138010685637304,-0.9616608963671514,0.5057785859980006,-0.6818632912158322,0.286495449321315,0.46095048293415286,-0.36875234511765975,0.06642844652730062,-0.5252645527394912,0.33554979767114945,0.05734050500664667,-0.4691343912275834,0.9625701445153496,0.17602235171780478,-0.23574459095569877,-0.4266120447402617,-0.1426177949743166,0.7735197219352219,0.7032778192289155,0.14329411784439672,0.7360678657127806,-0.7356217547361459,0.47176672997014735,-0.04850903874007617,-0.6769454850726229,0.820624466522234,0.041975282576386164,-0.282535241459124,0.9116311774616168,-0.3150466743822764,-0.7534483330412365,-0.40580637831995303,0.9012878102731829,0.4581174275846167,0.8532134435584418,-0.6785198690339205,0.3966542234340915,-0.4962541540912695,0.7825777582502327,-0.08648565842124567,-0.2461391678007352,0.832500783434525,-0.9234642761737561,-0.2458984471523229,-0.19399173992260166,0.7057333741455909,-0.6282566686029212,-0.867507905122606,0.9256729470937952,0.30285589981087835,0.47660678700110637,0.6144213401790013,0.5616132316181808,0.9244571155324142,0.8911608030063545,-0.4320983178438942,-0.4890529617283361,-0.8539184433294673,0.22774405479876525,-0.9533292859718181,0.14499722059873177,0.2412028022752415,0.3129791964400006,0.31498315269975463,-0.49445082289386955,-0.23053843646145378,-0.12666846605425341,0.8198798670120324,-0.055192124175126756,0.773679356997037,-0.7294179018540425,0.7249977449826439,-0.7344724216520127,-0.6233276988157659,-0.3314336545772991,-0.14370496276014122,-0.679569062115633,-0.031575712731518824,-0.5656111736345584,-0.43798535697974694,-0.7611113954079107,0.739855749563944,0.06093639674900375,0.048345910981015816,0.7454878693762463,0.5474386704593441,-0.23161809991802684,-0.47617729876984183,0.6803148313239422,-0.7757197718418978,0.8136151236313289,0.27313197123842103,0.5489756923135378,-0.5700255155236698,0.7937421553734563,0.36431684519463237,0.0030481976317318082,0.5930690893994928,-0.6402003174317241,0.6617610944015253,-0.9502356117201269,0.9234917984564031,0.06450326694750252,0.5970871818456769,-0.249289662990398,-0.016238743318722104,-0.6018313579837673,-0.5334323079434669,-0.5451455551770026,-0.8103579797379679,0.04018667497557549,-0.08239011399965701,0.9822076662544175,-0.2341974441880128,0.09236413386879128,0.950820202004308,-0.23130177833147503,0.3282770845059846,-0.05638384665452789,-0.6973810906055398,-0.02135559701353351,-0.7499777702453001,0.6666568414655407,0.492766217451174,0.19681910653221868,-0.002415119747429806,0.7385282155105801,0.0909078401305834,-0.9053553372898886,0.21671195796845688,-0.25006616493935163,-0.2644882729073126,-0.5107148127065584,-0.09657684596301563,-0.7945549509516525,-0.06331362291035258,0.3024751376331891,0.5601141515798733,0.2815104602768437,0.9073477845608813,0.3376395062257458,-0.5876620076804253,0.3369993017942807,-0.7280414696460158,0.1218252254089689,-0.8880098927891096,-0.3681333140420304,-0.7233755672270559,0.8586009775720758,0.6291584151548726,-0.259806713382998,-0.36504759926025887,0.33128163082645523,-0.6187511886969286,0.7991883497406134,0.609469670834216,0.7032843379142009,0.001639264505871818,0.7537522975758697,-0.509391053726884,0.0708767471723104,-0.3216824524657489,-0.3207863786983107,-0.0099828011873615,-0.6073538343884466,-0.12505772512796742,-0.4075059049759635,-0.18945005924281966,0.7859068808224825,0.8502394937841005,-0.05004894611724131,-0.7865149980082786,-0.7844498126360808,-0.5957082006968633,0.8792329428950336,0.2529092682737717,0.7096082725549022,-0.47832912454702314,-0.9773580558776178,-0.9863886541893538,0.3176897485848358,0.8307982410057249,0.8630796798188705,-0.16203812462706813,-0.4389538065765737,-0.8296464367676237,0.964393410081603,0.03098924768041811,0.04246514252954792,0.9966007898631049,0.4017855360874192,0.8682757678622841,0.766076413578425,-0.7761435578570959,-0.16289560629735989,-0.35448263478285713,0.693583703524163,-0.7670465602679324,0.5427626335986955,0.1931422773723972,0.9358447778167744,0.5434713277002778,0.09724496661689153,-0.049289231769079844,-0.6351658393327744,-0.24010672220559703,-0.7725705727851837,0.2657510916352315,-0.2956269399963394,0.8642446064200426,-0.43104576854517473,-0.5644413888460007,0.17416106042273416,-0.2831292726105372,0.2863697681136206,-0.5798590960898731,-0.30063088031686713,-0.8465715792160629,-0.6478342516647797,-0.8373046940807034,0.3976485083012822,-0.1661578367486216,-0.07251285649588612,0.4029755317803625,-0.7120812775558449,0.6107726344872655,0.8007534999628672,0.2834140190334342
38.64320682957242,0.887386193563213,0.3892773227137236,0.8547829842268082,0.6490744031167495,-0.9899904011132439,-0.4035308363273633,-0.4699457644512579,-0.6011713884026926,-0.4630845631707119,0.7770035868379292,0.09561738349604876,0.18045440087260745,0.07101035460698624,0.4062089429094209,0.7662176718623133,0.9447835537918596,-0.3305227006645759,0.4137407891730618,-0.4784048384902997,0.21476001109118847,0.844563336203636,-0.40907762592234254,0.7115695466302479,0.8678983995055198,-0.21664823925986143,0.8089427178560322,-0.16788059311784864,-0.0038971079333731673,0.155913614878336,0.9851292214856175,-0.5918512088934926,-0.78932069621926,0.062365448589978056,0.269056654151951,-0.0229949198660635,0.35651720192794434,0.6233188683455939,-0.138010685637304,-0.9616608963671514,0.5057785859980006,-0.6818632912158322,0.286495449321315,0.46095048293415286,-0.36875234511765975,0.06642844652730062,-0.5252645527394912,0.33554979767114945,0.05734050500664667,-0.4691343912275834,0.9625701445153496,0.17602235171780478,-0.23574459095569877,-0.4266120447402617,-0.1426177949743166,0.7735197219352219,0.7032778192289155,0.14329411784439672,0.7360678657127806,-0.7356217547361459,0.47176672997014735,-0.04850903874007617,-0.6769454850726229,0.820624466522234,0.041975282576386164,-0.282535241459124,0.9116311774616168,-0.3150466743822764,-0.7534483330412365,-0.40580637831995303,0.9012878102731829,0.4581174275846167,0.8532134435584418,-0.6785198690339205,0.3966542234340915,-0.4962541540912695,0.7825777582502327,-0.08648565842124567,-0.2461391678007352,0.832500783434525,-0.9234642761737561,-0.2458984471523229,-0.19399173992260166,0.7057333741455909,-0.6282566686029212,-0.867507905122606,0.9256729470937952,0.30285589981087835,0.47660678700110637,0.6144213401790013,0.5616132316181808,0.9244571155324142,0.8911608030063545,-0.4320983178438942,-0.4890529617283361,-0.8539184433294673,0.22774405479876525,-0.9533292859718181,0.14499722059873177,0.2412028022752415,0.3129791964400006,0.31498315269975463,-0.49445082289386955,-0.23053843646145378,-0.12666846605425341,0.8198798670120324,-0.055192124175126756,0.773679356997037,-0.7294179018540425,0.7249977449826439,-0.7344724216520127,-0.6233276988157659,-0.3314336545772991,-0.14370496276014122,-0.679569062115633,-0.031575712731518824,-0.5656111736345584,-0.43798535697974694,-0.7611113954079107,0.739855749563944,0.06093639674900375,0.048345910981015816,0.7454878693762463,0.5474386704593441,-0.23161809991802684,-0.47617729876984183,0.6803148313239422,-0.7757197718418978,0.8136151236313289,0.27313197123842103,0.5489756923135378,-0.5700255155236698,0.7937421553734563,0.36431684519463237,0.0030481976317318082,0.5930690893994928,-0.6402003174317241,0.6617610944015253,-0.9502356117201269,0.9234917984564031,0.06450326694750252,0.5970871818456769,-0.249289662990398,-0.016238743318722104,-0.6018313579837673,-0.5334323079434669,-0.5451455551770026,-0.8103579797379679,0.04018667497557549,-0.08239011399965701,0.9822076662544175,-0.2341974441880128,0.09236413386879128,0.950820202004308,-0.23130177833147503,0.3282770845059846,-0.05638384665452789,-0.6973810906055398,-0.02135559701353351,-0.7499777702453001,0.6666568414655407,0.492766217451174,0.19681910653221868,-0.002415119747429806,0.7385282155105801,0.0909078401305834,-0.9053553372898886,0.21671195796845688,-0.25006616493935163,-0.2644882729073126,-0.5107148127065584,-0.09657684596301563,-0.7945549509516525,-0.06331362291035258,0.3024751376331891,0.5601141515798733,0.2815104602768437,0.9073477845608813,0.3376395062257458,-0.5876620076804253,0.3369993017942807,-0.7280414696460158,0.1218252254089689,-0.8880098927891096,-0.3681333140420304,-0.7233755672270559,0.8586009775720758,0.6291584151548726,-0.259806713382998,-0.36504759926025887,0.33128163082645523,-0.6187511886969286,0.7991883497406134,0.609469670834216,0.7032843379142009,0.001639264505871818,0.7537522975758697,-0.509391053726884,0.0708767471723104,-0.3216824524657489,-0.3207863786983107,-0.0099828011873615,-0.6073538343884466,-0.12505772512796742,-0.4075059049759635,-0.18945005924281966,0.7859068808224825,0.8502394937841005,-0.05004894611724131,-0.7865149980082786,-0.7844498126360808,-0.5957082006968633,0.8792329428950336,0.2529092682737717,0.7096082725549022,-0.47832912454702314,-0.9773580558776178,-0.9863886541893538,0.3176897485848358,0.8307982410057249,0.8630796798188705,-0.16203812462706813,-0.4389538065765737,-0.8296464367676237,0.964393410081603,0.03098924768041811,0.04246514252954792,0.9966007898631049,0.4017855360874192,0.8682757678622841,0.766076413578425,-0.7761435578570959,-0.16289560629735989,-0.35448263478285713,0.693583703524163,-0.7670465602679324,0.5427626335986955,0.1931422773723972,0.9358447778167744,0.5434713277002778,0.09724496661689153,-0.049289231769079844,-0.6351658393327744,-0.24010672220559703,-0.7725705727851837,0.2657510916352315,-0.2956269399963394,0.8642446064200426,-0.43104576854517473,-0.5644413888460007,0.17416106042273416,-0.2831292726105372,0.2863697681136206,-0.5798590960898731,-0.30063088031686713,-0.8465715792160629,-0.6478342516647797,-0.8373046940807034,0.3976485083012822,-0.1661578367486216,-0.07251285649588612,0.4029755317803625,-0.7120812775558449,0.6107726344872655,0.8007534999628672,0.2834140190334342
38.64320682957242,0.887386193563213,0.3892773227137236,0.8547829842268082,0.6490744031167495,-0.9899904011132439,-0.4035308363273633,-0.4699457644512579,-0.6011713884026926,-0.4630845631707119,0.7770035868379292,0.09561738349604876,0.18045440087260745,0.07101035460698624,0.4062089429094209,0.7662176718623133,0.9447835537918596,-0.3305227006645759,0.4137407891730618,-0.4784048384902997,0.21476001109118847,0.844563336203636,-0.40907762592234254,0.7115695466302479,0.8678983995055198,-0.21664823925986143,0.8089427178560322,-0.16788059311784864,-0.0038971079333731673,0.155913614878336,0.9851292214856175,-0.5918512088934926,-0.78932069621926,0.062365448589978056,0.269056654151951,-0.0229949198660635,0.35651720192794434,0.6233188683455939,-0.138010685637304,-0.9616608963671514,0.5057785859980006,-0.6818632912158322,0.286495449321315,0.46095048293415286,-0.36875234511765975,0.06642844652730062,-0.5252645527394912,0.33554979767114945,0.05734050500664667,-0.4691343912275834,0.9625701445153496,0.17602235171780478,-0.23574459095569877,-0.4266120447402617,-0.1426177949743166,0.7735197219352219,0.7032778192289155,0.14329411784439672,0.7360678657127806,-0.7356217547361459,0.47176672997014735,-0.04850903874007617,-0.6769454850726229,0.820624466522234,0.041975282576386164,-0.282535241459124,0.9116311774616168,-0.3150466743822764,-0.7534483330412365,-0.40580637831995303,0.9012878102731829,0.4581174275846167,0.8532134435584418,-0.6785198690339205,0.3966542234340915,-0.4962541540912695,0.7825777582502327,-0.08648565842124567,-0.2461391678007352,0.832500783434525,-0.9234642761737561,-0.2458984471523229,-0.19399173992260166,0.7057333741455909,-0.6282566686029212,-0.867507905122606,0.9256729470937952,0.30285589981087835,0.47660678700110637,0.6144213401790013,0.5616132316181808,0.9244571155324142,0.8911608030063545,-0.4320983178438942,-0.4890529617283361,-0.8539184433294673,0.22774405479876525,-0.9533292859718181,0.14499722059873177,0.2412028022752415,0.3129791964400006,0.31498315269975463,-0.49445082289386955,-0.23053843646145378,-0.12666846605425341,0.8198798670120324,-0.055192124175126756,0.773679356997037,-0.7294179018540425,0.7249977449826439,-0.7344724216520127,-0.6233276988157659,-0.3314336545772991,-0.14370496276014122,-0.679569062115633,-0.031575712731518824,-0.5656111736345584,-0.43798535697974694,-0.7611113954079107,0.739855749563944,0.06093639674900375,0.048345910981015816,0.7454878693762463,0.5474386704593441,-0.23161809991802684,-0.47617729876984183,0.6803148313239422,-0.7757197718418978,0.8136151236313289,0.27313197123842103,0.5489756923135378,-0.5700255155236698,0.7937421553734563,0.36431684519463237,0.0030481976317318082,0.5930690893994928,-0.6402003174317241,0.6617610944015253,-0.9502356117201269,0.9234917984564031,0.06450326694750252,0.5970871818456769,-0.249289662990398,-0.016238743318722104,-0.6018313579837673,-0.5334323079434669,-0.5451455551770026,-0.8103579797379679,0.04018667497557549,-0.08239011399965701,0.9822076662544175,-0.2341974441880128,0.09236413386879128,0.950820202004308,-0.23130177833147503,0.3282770845059846,-0.05638384665452789,-0.6973810906055398,-0.02135559701353351,-0.7499777702453001,0.6666568414655407,0.492766217451174,0.19681910653221868,-0.002415119747429806,0.7385282155105801,0.0909078401305834,-0.9053553372898886,0.21671195796845688,-0.25006616493935163,-0.2644882729073126,-0.5107148127065584,-0.09657684596301563,-0.7945549509516525,-0.06331362291035258,0.3024751376331891,0.5601141515798733,0.2815104602768437,0.9073477845608813,0.3376395062257458,-0.5876620076804253,0.3369993017942807,-0.7280414696460158,0.1218252254089689,-0.8880098927891096,-0.3681333140420304,-0.7233755672270559,0.8586009775720758,0.6291584151548726,-0.259806713382998,-0.36504759926025887,0.33128163082645523,-0.6187511886969286,0.7991883497406134,0.609469670834216,0.7032843379142009,0.001639264505871818,0.7537522975758697,-0.509391053726884,0.0708767471723104,-0.3216824524657489,-0.3207863786983107,-0.0099828011873615,-0.6073538343884466,-0.12505772512796742,-0.4075059049759635,-0.18945005924281966,0.7859068808224825,0.8502394937841005,-0.05004894611724131,-0.7865149980082786,-0.7844498126360808,-0.5957082006968633,0.8792329428950336,0.2529092682737717,0.7096082725549022,-0.47832912454702314,-0.9773580558776178,-0.9863886541893538,0.3176897485848358,0.8307982410057249,0.8630796798188705,-0.16203812462706813,-0.4389538065765737,-0.8296464367676237,0.964393410081603,0.03098924768041811,0.04246514252954792,0.9966007898631049,0.4017855360874192,0.8682757678622841,0.766076413578425,-0.7761435578570959,-0.16289560629735989,-0.35448263478285713,0.693583703524163,-0.7670465602679324,0.5427626335986955,0.1931422773723972,0.9358447778167744,0.5434713277002778,0.09724496661689153,-0.049289231769079844,-0.6351658393327744,-0.24010672220559703,-0.7725705727851837,0.2657510916352315,-0.2956269399963394,0.8642446064200426,-0.43104576854517473,-0.5644413888460007,0.17416106042273416,-0.2831292726105372,0.2863697681136206,-0.5798590960898731,-0.30063088031686713,-0.8465715792160629,-0.6478342516647797,-0.8373046940807034,0.3976485083012822,-0.1661578367486216,-0.07251285649588612,0.4029755317803625,-0.7120812775558449,0.6107726344872655,0.8007534999628672,0.2834140190334342
38.64320682957242,0.887386193563213,0.3892773227137236,0.8547829842268082,0.6490744031167495,-0.9899904011132439,-0.4035308363273633,-0.4699457644512579,-0.6011713884026926,-0.4630845631707119,0.7770035868379292,0.09561738349604876,0.18045440087260745,0.07101035460698624,0.4062089429094209,0.7662176718623133,0.9447835537918596,-0.3305227006645759,0.4137407891730618,-0.4784048384902997,0.21476001109118847,0.844563336203636,-0.40907762592234254,0.7115695466302479,0.8678983995055198,-0.21664823925986143,0.8089427178560322,-0.16788059311784864,-0.0038971079333731673,0.155913614878336,0.9851292214856175,-0.5918512088934926,-0.78932069621926,0.062365448589978056,0.269056654151951,-0.0229949198660635,0.35651720192794434,0.6233188683455939,-0.138010685637304,-0.9616608963671514,0.5057785859980006,-0.6818632912158322,0.286495449321315,0.46095048293415286,-0.36875234511765975,0.06642844652730062,-0.5252645527394912,0.33554979767114945,0.05734050500664667,-0.4691343912275834,0.9625701445153496,0.17602235171780478,-0.23574459095569877,-0.4266120447402617,-0.1426177949743166,0.7735197219352219,0.7032778192289155,0.14329411784439672,0.7360678657127806,-0.7356217547361459,0.47176672997014735,-0.04850903874007617,-0.6769454850726229,0.820624466522234,0.041975282576386164,-0.282535241459124,0.9116311774616168,-0.3150466743822764,-0.7534483330412365,-0.40580637831995303,0.9012878102731829,0.4581174275846167,0.8532134435584418,-0.6785198690339205,0.3966542234340915,-0.4962541540912695,0.7825777582502327,-0.08648565842124567,-0.2461391678007352,0.832500783434525,-0.9234642761737561,-0.2458984471523229,-0.19399173992260166,0.7057333741455909,-0.6282566686029212,-0.867507905122606,0.9256729470937952,0.30285589981087835,0.47660678700110637,0.6144213401790013,0.5616132316181808,0.9244571155324142,0.8911608030063545,-0.4320983178438942,-0.4890529617283361,-0.8539184433294673,0.22774405479876525,-0.9533292859718181,0.14499722059873177,0.2412028022752415,0.3129791964400006,0.31498315269975463,-0.49445082289386955,-0.23053843646145378,-0.12666846605425341,0.8198798670120324,-0.055192124175126756,0.773679356997037,-0.7294179018540425,0.7249977449826439,-0.7344724216520127,-0.6233276988157659,-0.3314336545772991,-0.14370496276014122,-0.679569062115633,-0.031575712731518824,-0.5656111736345584,-0.43798535697974694,-0.7611113954079107,0.739855749563944,0.06093639674900375,0.048345910981015816,0.7454878693762463,0.5474386704593441,-0.23161809991802684,-0.47617729876984183,0.6803148313239422,-0.7757197718418978,0.8136151236313289,0.27313197123842103,0.5489756923135378,-0.5700255155236698,0.7937421553734563,0.36431684519463237,0.0030481976317318082,0.5930690893994928,-0.6402003174317241,0.6617610944015253,-0.9502356117201269,0.9234917984564031,0.06450326694750252,0.5970871818456769,-0.249289662990398,-0.016238743318722104,-0.6018313579837673,-0.5334323079434669,-0.5451455551770026,-0.8103579797379679,0.04018667497557549,-0.08239011399965701,0.9822076662544175,-0.2341974441880128,0.09236413386879128,0.950820202004308,-0.23130177833147503,0.3282770845059846,-0.05638384665452789,-0.6973810906055398,-0.02135559701353351,-0.7499777702453001,0.6666568414655407,0.492766217451174,0.19681910653221868,-0.002415119747429806,0.7385282155105801,0.0909078401305834,-0.9053553372898886,0.21671195796845688,-0.25006616493935163,-0.2644882729073126,-0.5107148127065584,-0.09657684596301563,-0.7945549509516525,-0.06331362291035258,0.3024751376331891,0.5601141515798733,0.2815104602768437,0.9073477845608813,0.3376395062257458,-0.5876620076804253,0.3369993017942807,-0.7280414696460158,0.1218252254089689,-0.8880098927891096,-0.3681333140420304,-0.7233755672270559,0.8586009775720758,0.6291584151548726,-0.259806713382998,-0.36504759926025887,0.33128163082645523,-0.6187511886969286,0.7991883497406134,0.609469670834216,0.7032843379142009,0.001639264505871818,0.7537522975758697,-0.509391053726884,0.0708767471723104,-0.3216824524657489,-0.3207863786983107,-0.0099828011873615,-0.6073538343884466,-0.12505772512796742,-0.4075059049759635,-0.18945005924281966,0.7859068808224825,0.8502394937841005,-0.05004894611724131,-0.7865149980082786,-0.7844498126360808,-0.5957082006968633,0.8792329428950336,0.2529092682737717,0.7096082725549022,-0.47832912454702314,-0.9773580558776178,-0.9863886541893538,0.3176897485848358,0.8307982410057249,0.8630796798188705,-0.16203812462706813,-0.4389538065765737,-0.8296464367676237,0.964393410081603,0.03098924768041811,0.04246514252954792,0.9966007898631049,0.4017855360874192,0.8682757678622841,0.766076413578425,-0.7761435578570959,-0.16289560629735989,-0.35448263478285713,0.693583703524163,-0.7670465602679324,0.5427626335986955,0.1931422773723972,0.9358447778167744,0.5434713277002778,0.09724496661689153,-0.049289231769079844,-0.6351658393327744,-0.24010672220559703,-0.7725705727851837,0.2657510916352315,-0.2956269399963394,0.8642446064200426,-0.43104576854517473,-0.5644413888460007,0.17416106042273416,-0.2831292726105372,0.2863697681136206,-0.5798590960898731,-0.30063088031686713,-0.8465715792160629,-0.6478342516647797,-0.8373046940807034,0.3976485083012822,-0.1661578367486216,-0.07251285649588612,0.4029755317803625,-0.7120812775558449,0.6107726344872655,0.8007534999628672,0.2834140190334342
38.64320682957242,0.887386193563213,0.3892773227137236,0.8547829842268082,0.6490744031167495,-0.9899904011132439,-0.4035308363273633,-0.4699457644512579,-0.6011713884026926,-0.4630845631707119,0.7770035868379292,0.09561738349604876,0.18045440087260745,0.07101035460698624,0.4062089429094209,0.7662176718623133,0.9447835537918596,-0.3305227006645759,0.4137407891730618,-0.4784048384902997,0.21476001109118847,0.844563336203636,-0.40907762592234254,0.7115695466302479,0.8678983995055198,-0.21664823925986143,0.8089427178560322,-0.16788059311784864,-0.0038971079333731673,0.155913614878336,0.9851292214856175,-0.5918512088934926,-0.78932069621926,0.062365448589978056,0.269056654151951,-0.0229949198660635,0.35651720192794434,0.6233188683455939,-0.138010685637304,-0.9616608963671514,0.5057785859980006,-0.6818632912158322,0.286495449321315,0.46095048293415286,-0.36875234511765975,0.06642844652730062,-0.5252645527394912,0.33554979767114945,0.05734050500664667,-0.4691343912275834,0.9625701445153496,0.17602235171780478,-0.23574459095569877,-0.4266120447402617,-0.1426177949743166,0.7735197219352219,0.7032778192289155,0.14329411784439672,0.7360678657127806,-0.7356217547361459,0.47176672997014735,-0.04850903874007617,-0.6769454850726229,0.820624466522234,0.041975282576386164,-0.282535241459124,0.9116311774616168,-0.3150466743822764,-0.7534483330412365,-0.40580637831995303,0.9012878102731829,0.4581174275846167,0.8532134435584418,-0.6785198690339205,0.3966542234340915,-0.4962541540912695,0.7825777582502327,-0.08648565842124567,-0.2461391678007352,0.832500783434525,-0.9234642761737561,-0.2458984471523229,-0.19399173992260166,0.7057333741455909,-0.6282566686029212,-0.867507905122606,0.9256729470937952,0.30285589981087835,0.47660678700110637,0.6144213401790013,0.5616132316181808,0.9244571155324142,0.8911608030063545,-0.4320983178438942,-0.4890529617283361,-0.8539184433294673,0.22774405479876525,-0.9533292859718181,0.14499722059873177,0.2412028022752415,0.3129791964400006,0.31498315269975463,-0.49445082289386955,-0.23053843646145378,-0.12666846605425341,0.8198798670120324,-0.055192124175126756,0.773679356997037,-0.7294179018540425,0.7249977449826439,-0.7344724216520127,-0.6233276988157659,-0.3314336545772991,-0.14370496276014122,-0.679569062115633,-0.031575712731518824,-0.5656111736345584,-0.43798535697974694,-0.7611113954079107,0.739855749563944,0.06093639674900375,0.048345910981015816,0.7454878693762463,0.5474386704593441,-0.23161809991802684,-0.47617729876984183,0.6803148313239422,-0.7757197718418978,0.8136151236313289,0.27313197123842103,0.5489756923135378,-0.5700255155236698,0.7937421553734563,0.36431684519463237,0.0030481976317318082,0.5930690893994928,-0.6402003174317241,0.6617610944015253,-0.9502356117201269,0.9234917984564031,0.06450326694750252,0.5970871818456769,-0.249289662990398,-0.016238743318722104,-0.6018313579837673,-0.5334323079434669,-0.5451455551770026,-0.8103579797379679,0.04018667497557549,-0.08239011399965701,0.9822076662544175,-0.2341974441880128,0.09236413386879128,0.950820202004308,-0.23130177833147503,0.3282770845059846,-0.05638384665452789,-0.6973810906055398,-0.02135559701353351,-0.7499777702453001,0.6666568414655407,0.492766217451174,0.19681910653221868,-0.002415119747429806,0.7385282155105801,0.0909078401305834,-0.9053553372898886,0.21671195796845688,-0.25006616493935163,-0.2644882729073126,-0.5107148127065584,-0.09657684596301563,-0.7945549509516525,-0.06331362291035258,0.3024751376331891,0.5601141515798733,0.2815104602768437,0.9073477845608813,0.3376395062257458,-0.5876620076804253,0.3369993017942807,-0.7280414696460158,0.1218252254089689,-0.8880098927891096,-0.3681333140420304,-0.7233755672270559,0.8586009775720758,0.6291584151548726,-0.259806713382998,-0.36504759926025887,0.33128163082645523,-0.6187511886969286,0.7991883497406134,0.609469670834216,0.7032843379142009,0.001639264505871818,0.7537522975758697,-0.509391053726884,0.0708767471723104,-0.3216824524657489,-0.3207863786983107,-0.0099828011873615,-0.6073538343884466,-0.12505772512796742,-0.4075059049759635,-0.18945005924281966,0.7859068808224825,0.8502394937841005,-0.05004894611724131,-0.7865149980082786,-0.7844498126360808,-0.5957082006968633,0.8792329428950336,0.2529092682737717,0.7096082725549022,-0.47832912454702314,-0.9773580558776178,-0.9863886541893538,0.3176897485848358,0.8307982410057249,0.8630796798188705,-0.16203812462706813,-0.4389538065765737,-0.8296464367676237,0.964393410081603,0.03098924768041811,0.04246514252954792,0.9966007898631049,0.4017855360874192,0.8682757678622841,0.766076413578425,-0.7761435578570959,-0.16289560629735989,-0.35448263478285713,0.693583703524163,-0.7670465602679324,0.5427626335986955,0.1931422773723972,0.9358447778167744,0.5434713277002778,0.09724496661689153,-0.049289231769079844,-0.6351658393327744,-0.24010672220559703,-0.7725705727851837,0.2657510916352315,-0.2956269399963394,0.8642446064200426,-0.43104576854517473,-0.5644413888460007,0.17416106042273416,-0.2831292726105372,0.2863697681136206,-0.5798590960898731,-0.30063088031686713,-0.8465715792160629,-0.6478342516647797,-0.8373046940807034,0.3976485083012822,-0.1661578367486216,-0.07251285649588612,0.4029755317803625,-0.7120812775558449,0.6107726344872655,0.8007534999628672,0.2834140190334342
38.64320682957242,0.887386193563213,0.3892773227137236,0.8547829842268082,0.6490744031167495,-0.9899904011132439,-0.4035308363273633,-0.4699457644512579,-0.6011713884026926,-0.4630845631707119,0.7770035868379292,0.09561738349604876,0.18045440087260745,0.07101035460698624,0.4062089429094209,0.7662176718623133,0.9447835537918596,-0.3305227006645759,0.4137407891730618,-0.4784048384902997,0.21476001109118847,0.844563336203636,-0.40907762592234254,0.7115695466302479,0.8678983995055198,-0.21664823925986143,0.8089427178560322,-0.16788059311784864,-0.0038971079333731673,0.155913614878336,0.9851292214856175,-0.5918512088934926,-0.78932069621926,0.062365448589978056,0.269056654151951,-0.0229949198660635,0.35651720192794434,0.6233188683455939,-0.138010685637304,-0.9616608963671514,0.5057785859980006,-0.6818632912158322,0.286495449321315,0.46095048293415286,-0.36875234511765975,0.06642844652730062,-0.5252645527394912,0.33554979767114945,0.05734050500664667,-0.4691343912275834,0.9625701445153496,0.17602235171780478,-0.23574459095569877,-0.4266120447402617,-0.1426177949743166,0.7735197219352219,0.7032778192289155,0.14329411784439672,0.7360678657127806,-0.7356217547361459,0.47176672997014735,-0.04850903874007617,-0.6769454850726229,0.820624466522234,0.041975282576386164,-0.282535241459124,0.9116311774616168,-0.3150466743822764,-0.7534483330412365,-0.40580637831995303,0.9012878102731829,0.4581174275846167,0.8532134435584418,-0.6785198690339205,0.3966542234340915,-0.4962541540912695,0.7825777582502327,-0.08648565842124567,-0.2461391678007352,0.832500783434525,-0.9234642761737561,-0.2458984471523229,-0.19399173992260166,0.7057333741455909,-0.6282566686029212,-0.867507905122606,0.9256729470937952,0.30285589981087835,0.47660678700110637,0.6144213401790013,0.5616132316181808,0.9244571155324142,0.8911608030063545,-0.4320983178438942,-0.4890529617283361,-0.8539184433294673,0.22774405479876525,-0.9533292859718181,0.14499722059873177,0.2412028022752415,0.3129791964400006,0.31498315269975463,-0.49445082289386955,-0.23053843646145378,-0.12666846605425341,0.8198798670120324,-0.055192124175126756,0.773679356997037,-0.7294179018540425,0.7249977449826439,-0.7344724216520127,-0.6233276988157659,-0.3314336545772991,-0.14370496276014122,-0.679569062115633,-0.031575712731518824,-0.5656111736345584,-0.43798535697974694,-0.7611113954079107,0.739855749563944,0.06093639674900375,0.048345910981015816,0.7454878693762463,0.5474386704593441,-0.23161809991802684,-0.47617729876984183,0.6803148313239422,-0.7757197718418978,0.8136151236313289,0.27313197123842103,0.5489756923135378,-0.5700255155236698,0.7937421553734563,0.36431684519463237,0.0030481976317318082,0.5930690893994928,-0.6402003174317241,0.6617610944015253,-0.9502356117201269,0.9234917984564031,0.06450326694750252,0.5970871818456769,-0.249289662990398,-0.016238743318722104,-0.6018313579837673,-0.5334323079434669,-0.5451455551770026,-0.8103579797379679,0.04018667497557549,-0.08239011399965701,0.9822076662544175,-0.2341974441880128,0.09236413386879128,0.950820202004308,-0.23130177833147503,0.3282770845059846,-0.05638384665452789,-0.6973810906055398,-0.02135559701353351,-0.7499777702453001,0.6666568414655407,0.492766217451174,0.19681910653221868,-0.002415119747429806,0.7385282155105801,0.0909078401305834,-0.9053553372898886,0.21671195796845688,-0.25006616493935163,-0.2644882729073126,-0.5107148127065584,-0.09657684596301563,-0.7945549509516525,-0.06331362291035258,0.3024751376331891,0.5601141515798733,0.2815104602768437,0.9073477845608813,0.3376395062257458,-0.5876620076804253,0.3369993017942807,-0.7280414696460158,0.1218252254089689,-0.8880098927891096,-0.3681333140420304,-0.7233755672270559,0.8586009775720758,0.6291584151548726,-0.259806713382998,-0.36504759926025887,0.33128163082645523,-0.6187511886969286,0.7991883497406134,0.609469670834216,0.7032843379142009,0.001639264505871818,0.7537522975758697,-0.509391053726884,0.0708767471723104,-0.3216824524657489,-0.3207863786983107,-0.0099828011873615,-0.6073538343884466,-0.12505772512796742,-0.4075059049759635,-0.18945005924281966,0.7859068808224825,0.8502394937841005,-0.05004894611724131,-0.7865149980082786,-0.7844498126360808,-0.5957082006968633,0.8792329428950336,0.2529092682737717,0.7096082725549022,-0.47832912454702314,-0.9773580558776178,-0.9863886541893538,0.3176897485848358,0.8307982410057249,0.8630796798188705,-0.16203812462706813,-0.4389538065765737,-0.8296464367676237,0.964393410081603,0.03098924768041811,0.04246514252954792,0.9966007898631049,0.4017855360874192,0.8682757678622841,0.766076413578425,-0.7761435578570959,-0.16289560629735989,-0.35448263478285713,0.693583703524163,-0.7670465602679324,0.5427626335986955,0.1931422773723972,0.9358447778167744,0.5434713277002778,0.09724496661689153,-0.049289231769079844,-0.6351658393327744,-0.24010672220559703,-0.7725705727851837,0.2657510916352315,-0.2956269399963394,0.8642446064200426,-0.43104576854517473,-0.5644413888460007,0.17416106042273416,-0.2831292726105372,0.2863697681136206,-0.5798590960898731,-0.30063088031686713,-0.8465715792160629,-0.6478342516647797,-0.8373046940807034,0.3976485083012822,-0.1661578367486216,-0.07251285649588612,0.4029755317803625,-0.7120812775558449,0.6107726344872655,0.8007534999628672,0.2834140190334342
38.64320682957242,0.887386193563213,0.3892773227137236,0.8547829842268082,0.6490744031167495,-0.9899904011132439,-0.4035308363273633,-0.4699457644512579,-0.6011713884026926,-0.4630845631707119,0.7770035868379292,0.09561738349604876,0.18045440087260745,0.07101035460698624,0.4062089429094209,0.7662176718623133,0.9447835537918596,-0.3305227006645759,0.4137407891730618,-0.4784048384902997,0.21476001109118847,0.844563336203636,-0.40907762592234254,0.7115695466302479,0.8678983995055198,-0.21664823925986143,0.8089427178560322,-0.16788059311784864,-0.0038971079333731673,0.155913614878336,0.9851292214856175,-0.5918512088934926,-0.78932069621926,0.062365448589978056,0.269056654151951,-0.0229949198660635,0.35651720192794434,0.6233188683455939,-0.138010685637304,-0.9616608963671514,0.5057785859980006,-0.6818632912158322,0.286495449321315,0.46095048293415286,-0.36875234511765975,0.06642844652730062,-0.5252645527394912,0.33554979767114945,0.05734050500664667,-0.4691343912275834,0.9625701445153496,0.17602235171780478,-0.23574459095569877,-0.4266120447402617,-0.1426177949743166,0.7735197219352219,0.7032778192289155,0.14329411784439672,0.7360678657127806,-0.7356217547361459,0.47176672997014735,-0.04850903874007617,-0.6769454850726229,0.820624466522234,0.041975282576386164,-0.282535241459124,0.9116311774616168,-0.3150466743822764,-0.7534483330412365,-0.40580637831995303,0.9012878102731829,0.4581174275846167,0.8532134435584418,-0.6785198690339205,0.3966542234340915,-0.4962541540912695,0.7825777582502327,-0.08648565842124567,-0.2461391678007352,0.832500783434525,-0.9234642761737561,-0.2458984471523229,-0.19399173992260166,0.7057333741455909,-0.6282566686029212,-0.867507905122606,0.9256729470937952,0.30285589981087835,0.47660678700110637,0.6144213401790013,0.5616132316181808,0.9244571155324142,0.8911608030063545,-0.4320983178438942,-0.4890529617283361,-0.8539184433294673,0.22774405479876525,-0.9533292859718181,0.14499722059873177,0.2412028022752415,0.3129791964400006,0.31498315269975463,-0.49445082289386955,-0.23053843646145378,-0.12666846605425341,0.8198798670120324,-0.055192124175126756,0.773679356997037,-0.7294179018540425,0.7249977449826439,-0.7344724216520127,-0.6233276988157659,-0.3314336545772991,-0.14370496276014122,-0.679569062115633,-0.031575712731518824,-0.5656111736345584,-0.43798535697974694,-0.7611113954079107,0.739855749563944,0.06093639674900375,0.048345910981015816,0.7454878693762463,0.5474386704593441,-0.23161809991802684,-0.47617729876984183,0.6803148313239422,-0.7757197718418978,0.8136151236313289,0.27313197123842103,0.5489756923135378,-0.5700255155236698,0.7937421553734563,0.36431684519463237,0.0030481976317318082,0.5930690893994928,-0.6402003174317241,0.6617610944015253,-0.9502356117201269,0.9234917984564031,0.06450326694750252,0.5970871818456769,-0.249289662990398,-0.016238743318722104,-0.6018313579837673,-0.5334323079434669,-0.5451455551770026,-0.8103579797379679,0.04018667497557549,-0.08239011399965701,0.9822076662544175,-0.2341974441880128,0.09236413386879128,0.950820202004308,-0.23130177833147503,0.3282770845059846,-0.05638384665452789,-0.6973810906055398,-0.02135559701353351,-0.7499777702453001,0.6666568414655407,0.492766217451174,0.19681910653221868,-0.002415119747429806,0.7385282155105801,0.0909078401305834,-0.9053553372898886,0.21671195796845688,-0.25006616493935163,-0.2644882729073126,-0.5107148127065584,-0.09657684596301563,-0.7945549509516525,-0.06331362291035258,0.3024751376331891,0.5601141515798733,0.2815104602768437,0.9073477845608813,0.3376395062257458,-0.5876620076804253,0.3369993017942807,-0.7280414696460158,0.1218252254089689,-0.8880098927891096,-0.3681333140420304,-0.7233755672270559,0.8586009775720758,0.6291584151548726,-0.259806713382998,-0.36504759926025887,0.33128163082645523,-0.6187511886969286,0.7991883497406134,0.609469670834216,0.7032843379142009,0.001639264505871818,0.7537522975758697,-0.509391053726884,0.0708767471723104,-0.3216824524657489,-0.3207863786983107,-0.0099828011873615,-0.6073538343884466,-0.12505772512796742,-0.4075059049759635,-0.18945005924281966,0.7859068808224825,0.8502394937841005,-0.05004894611724131,-0.7865149980082786,-0.7844498126360808,-0.5957082006968633,0.8792329428950336,0.2529092682737717,0.7096082725549022,-0.47832912454702314,-0.9773580558776178,-0.9863886541893538,0.3176897485848358,0.8307982410057249,0.8630796798188705,-0.16203812462706813,-0.4389538065765737,-0.8296464367676237,0.964393410081603,0.03098924768041811,0.04246514252954792,0.9966007898631049,0.4017855360874192,0.8682757678622841,0.766076413578425,-0.7761435578570959,-0.16289560629735989,-0.35448263478285713,0.693583703524163,-0.7670465602679324,0.5427626335986955,0.1931422773723972,0.9358447778167744,0.5434713277002778,0.09724496661689153,-0.049289231769079844,-0.6351658393327744,-0.24010672220559703,-0.7725705727851837,0.2657510916352315,-0.2956269399963394,0.8642446064200426,-0.43104576854517473,-0.5644413888460007,0.17416106042273416,-0.2831292726105372,0.2863697681136206,-0.5798590960898731,-0.30063088031686713,-0.8465715792160629,-0.6478342516647797,-0.8373046940807034,0.3976485083012822,-0.1661578367486216,-0.07251285649588612,0.4029755317803625,-0.7120812775558449,0.6107726344872655,0.8007534999628672,0.2834140190334342
38.64320682957242,0.887386193563213,0.3892773227137236,0.8547829842268082,0.6490744031167495,-0.9899904011132439,-0.4035308363273633,-0.4699457644512579,-0.6011713884026926,-0.4630845631707119,0.7770035868379292,0.09561738349604876,0.18045440087260745,0.07101035460698624,0.4062089429094209,0.7662176718623133,0.9447835537918596,-0.3305227006645759,0.4137407891730618,-0.4784048384902997,0.21476001109118847,0.844563336203636,-0.40907762592234254,0.7115695466302479,0.8678983995055198,-0.21664823925986143,0.8089427178560322,-0.16788059311784864,-0.0038971079333731673,0.155913614878336,0.9851292214856175,-0.5918512088934926,-0.78932069621926,0.062365448589978056,0.269056654151951,-0.0229949198660635,0.35651720192794434,0.6233188683455939,-0.138010685637304,-0.9616608963671514,0.5057785859980006,-0.6818632912158322,0.286495449321315,0.46095048293415286,-0.36875234511765975,0.06642844652730062,-0.5252645527394912,0.33554979767114945,0.05734050500664667,-0.4691343912275834,0.9625701445153496,0.17602235171780478,-0.23574459095569877,-0.4266120447402617,-0.1426177949743166,0.7735197219352219,0.7032778192289155,0.14329411784439672,0.7360678657127806,-0.7356217547361459,0.47176672997014735,-0.04850903874007617,-0.6769454850726229,0.820624466522234,0.041975282576386164,-0.282535241459124,0.9116311774616168,-0.3150466743822764,-0.7534483330412365,-0.40580637831995303,0.9012878102731829,0.4581174275846167,0.8532134435584418,-0.6785198690339205,0.3966542234340915,-0.4962541540912695,0.7825777582502327,-0.08648565842124567,-0.2461391678007352,0.832500783434525,-0.9234642761737561,-0.2458984471523229,-0.19399173992260166,0.7057333741455909,-0.6282566686029212,-0.867507905122606,0.9256729470937952,0.30285589981087835,0.47660678700110637,0.6144213401790013,0.5616132316181808,0.9244571155324142,0.8911608030063545,-0.4320983178438942,-0.4890529617283361,-0.8539184433294673,0.22774405479876525,-0.9533292859718181,0.14499722059873177,0.2412028022752415,0.3129791964400006,0.31498315269975463,-0.49445082289386955,-0.23053843646145378,-0.12666846605425341,0.8198798670120324,-0.055192124175126756,0.773679356997037,-0.7294179018540425,0.7249977449826439,-0.7344724216520127,-0.6233276988157659,-0.3314336545772991,-0.14370496276014122,-0.679569062115633,-0.031575712731518824,-0.5656111736345584,-0.43798535697974694,-0.7611113954079107,0.739855749563944,0.06093639674900375,0.048345910981015816,0.7454878693762463,0.5474386704593441,-0.23161809991802684,-0.47617729876984183,0.6803148313239422,-0.7757197718418978,0.8136151236313289,0.27313197123842103,0.5489756923135378,-0.5700255155236698,0.7937421553734563,0.36431684519463237,0.0030481976317318082,0.5930690893994928,-0.6402003174317241,0.6617610944015253,-0.9502356117201269,0.9234917984564031,0.06450326694750252,0.5970871818456769,-0.249289662990398,-0.016238743318722104,-0.6018313579837673,-0.5334323079434669,-0.5451455551770026,-0.8103579797379679,0.04018667497557549,-0.08239011399965701,0.9822076662544175,-0.2341974441880128,0.09236413386879128,0.950820202004308,-0.23130177833147503,0.3282770845059846,-0.05638384665452789,-0.6973810906055398,-0.02135559701353351,-0.7499777702453001,0.6666568414655407,0.492766217451174,0.19681910653221868,-0.002415119747429806,0.7385282155105801,0.0909078401305834,-0.9053553372898886,0.21671195796845688,-0.25006616493935163,-0.2644882729073126,-0.5107148127065584,-0.09657684596301563,-0.7945549509516525,-0.06331362291035258,0.3024751376331891,0.5601141515798733,0.2815104602768437,0.9073477845608813,0.3376395062257458,-0.5876620076804253,0.3369993017942807,-0.7280414696460158,0.1218252254089689,-0.8880098927891096,-0.3681333140420304,-0.7233755672270559,0.8586009775720758,0.6291584151548726,-0.259806713382998,-0.36504759926025887,0.33128163082645523,-0.6187511886969286,0.7991883497406134,0.609469670834216,0.7032843379142009,0.001639264505871818,0.7537522975758697,-0.509391053726884,0.0708767471723104,-0.3216824524657489,-0.3207863786983107,-0.0099828011873615,-0.6073538343884466,-0.12505772512796742,-0.4075059049759635,-0.18945005924281966,0.7859068808224825,0.8502394937841005,-0.05004894611724131,-0.7865149980082786,-0.7844498126360808,-0.5957082006968633,0.8792329428950336,0.2529092682737717,0.7096082725549022,-0.47832912454702314,-0.9773580558776178,-0.9863886541893538,0.3176897485848358,0.8307982410057249,0.8630796798188705,-0.16203812462706813,-0.4389538065765737,-0.8296464367676237,0.964393410081603,0.03098924768041811,0.04246514252954792,0.9966007898631049,0.4017855360874192,0.8682757678622841,0.766076413578425,-0.7761435578570959,-0.16289560629735989,-0.35448263478285713,0.693583703524163,-0.7670465602679324,0.5427626335986955,0.1931422773723972,0.9358447778167744,0.5434713277002778,0.09724496661689153,-0.049289231769079844,-0.6351658393327744,-0.24010672220559703,-0.7725705727851837,0.2657510916352315,-0.2956269399963394,0.8642446064200426,-0.43104576854517473,-0.5644413888460007,0.17416106042273416,-0.2831292726105372,0.2863697681136206,-0.5798590960898731,-0.30063088031686713,-0.8465715792160629,-0.6478342516647797,-0.8373046940807034,0.3976485083012822,-0.1661578367486216,-0.07251285649588612,0.4029755317803625,-0.7120812775558449,0.6107726344872655,0.8007534999628672,0.2834140190334342
38.64320682957242,0.887386193563213,0.3892773227137236,0.8547829842268082,0.6490744031167495,-0.9899904011132439,-0.4035308363273633,-0.4699457644512579,-0.6011713884026926,-0.4630845631707119,0.7770035868379292,0.09561738349604876,0.18045440087260745,0.07101035460698624,0.4062089429094209,0.7662176718623133,0.9447835537918596,-0.3305227006645759,0.4137407891730618,-0.4784048384902997,0.21476001109118847,0.844563336203636,-0.40907762592234254,0.7115695466302479,0.8678983995055198,-0.21664823925986143,0.8089427178560322,-0.16788059311784864,-0.0038971079333731673,0.155913614878336,0.9851292214856175,-0.5918512088934926,-0.78932069621926,0.062365448589978056,0.269056654151951,-0.0229949198660635,0.35651720192794434,0.6233188683455939,-0.138010685637304,-0.9616608963671514,0.5057785859980006,-0.6818632912158322,0.286495449321315,0.46095048293415286,-0.36875234511765975,0.06642844652730062,-0.5252645527394912,0.33554979767114945,0.05734050500664667,-0.4691343912275834,0.9625701445153496,0.17602235171780478,-0.23574459095569877,-0.4266120447402617,-0.1426177949743166,0.7735197219352219,0.7032778192289155,0.14329411784439672,0.7360678657127806,-0.7356217547361459,0.47176672997014735,-0.04850903874007617,-0.6769454850726229,0.820624466522234,0.041975282576386164,-0.282535241459124,0.9116311774616168,-0.3150466743822764,-0.7534483330412365,-0.40580637831995303,0.9012878102731829,0.4581174275846167,0.8532134435584418,-0.6785198690339205,0.3966542234340915,-0.4962541540912695,0.7825777582502327,-0.08648565842124567,-0.2461391678007352,0.832500783434525,-0.9234642761737561,-0.2458984471523229,-0.19399173992260166,0.7057333741455909,-0.6282566686029212,-0.867507905122606,0.9256729470937952,0.30285589981087835,0.47660678700110637,0.6144213401790013,0.5616132316181808,0.9244571155324142,0.8911608030063545,-0.4320983178438942,-0.4890529617283361,-0.8539184433294673,0.22774405479876525,-0.9533292859718181,0.14499722059873177,0.2412028022752415,0.3129791964400006,0.31498315269975463,-0.49445082289386955,-0.23053843646145378,-0.12666846605425341,0.8198798670120324,-0.055192124175126756,0.773679356997037,-0.7294179018540425,0.7249977449826439,-0.7344724216520127,-0.6233276988157659,-0.3314336545772991,-0.14370496276014122,-0.679569062115633,-0.031575712731518824,-0.5656111736345584,-0.43798535697974694,-0.7611113954079107,0.739855749563944,0.06093639674900375,0.048345910981015816,0.7454878693762463,0.5474386704593441,-0.23161809991802684,-0.47617729876984183,0.6803148313239422,-0.7757197718418978,0.8136151236313289,0.27313197123842103,0.5489756923135378,-0.5700255155236698,0.7937421553734563,0.36431684519463237,0.0030481976317318082,0.5930690893994928,-0.6402003174317241,0.6617610944015253,-0.9502356117201269,0.9234917984564031,0.06450326694750252,0.5970871818456769,-0.249289662990398,-0.016238743318722104,-0.6018313579837673,-0.5334323079434669,-0.5451455551770026,-0.8103579797379679,0.04018667497557549,-0.08239011399965701,0.9822076662544175,-0.2341974441880128,0.09236413386879128,0.950820202004308,-0.23130177833147503,0.3282770845059846,-0.05638384665452789,-0.6973810906055398,-0.02135559701353351,-0.7499777702453001,0.6666568414655407,0.492766217451174,0.19681910653221868,-0.002415119747429806,0.7385282155105801,0.0909078401305834,-0.9053553372898886,0.21671195796845688,-0.25006616493935163,-0.2644882729073126,-0.5107148127065584,-0.09657684596301563,-0.7945549509516525,-0.06331362291035258,0.3024751376331891,0.5601141515798733,0.2815104602768437,0.9073477845608813,0.3376395062257458,-0.5876620076804253,0.3369993017942807,-0.7280414696460158,0.1218252254089689,-0.8880098927891096,-0.3681333140420304,-0.7233755672270559,0.8586009775720758,0.6291584151548726,-0.259806713382998,-0.36504759926025887,0.33128163082645523,-0.6187511886969286,0.7991883497406134,0.609469670834216,0.7032843379142009,0.001639264505871818,0.7537522975758697,-0.509391053726884,0.0708767471723104,-0.3216824524657489,-0.3207863786983107,-0.0099828011873615,-0.6073538343884466,-0.12505772512796742,-0.4075059049759635,-0.18945005924281966,0.7859068808224825,0.8502394937841005,-0.05004894611724131,-0.7865149980082786,-0.7844498126360808,-0.5957082006968633,0.8792329428950336,0.2529092682737717,0.7096082725549022,-0.47832912454702314,-0.9773580558776178,-0.9863886541893538,0.3176897485848358,0.8307982410057249,0.8630796798188705,-0.16203812462706813,-0.4389538065765737,-0.8296464367676237,0.964393410081603,0.03098924768041811,0.04246514252954792,0.9966007898631049,0.4017855360874192,0.8682757678622841,0.766076413578425,-0.7761435578570959,-0.16289560629735989,-0.35448263478285713,0.693583703524163,-0.7670465602679324,0.5427626335986955,0.1931422773723972,0.9358447778167744,0.5434713277002778,0.09724496661689153,-0.049289231769079844,-0.6351658393327744,-0.24010672220559703,-0.7725705727851837,0.2657510916352315,-0.2956269399963394,0.8642446064200426,-0.43104576854517473,-0.5644413888460007,0.17416106042273416,-0.2831292726105372,0.2863697681136206,-0.5798590960898731,-0.30063088031686713,-0.8465715792160629,-0.6478342516647797,-0.8373046940807034,0.3976485083012822,-0.1661578367486216,-0.07251285649588612,0.4029755317803625,-0.7120812775558449,0.6107726344872655,0.8007534999628672,0.2834140190334342
38.64320682957242,0.887386193563213,0.3892773227137236,0.8547829842268082,0.6490744031167495,-0.9899904011132439,-0.4035308363273633,-0.4699457644512579,-0.6011713884026926,-0.4630845631707119,0.7770035868379292,0.09561738349604876,0.18045440087260745,0.07101035460698624,0.4062089429094209,0.7662176718623133,0.9447835537918596,-0.3305227006645759,0.4137407891730618,-0.4784048384902997,0.21476001109118847,0.844563336203636,-0.40907762592234254,0.7115695466302479,0.8678983995055198,-0.21664823925986143,0.8089427178560322,-0.16788059311784864,-0.0038971079333731673,0.155913614878336,0.9851292214856175,-0.5918512088934926,-0.78932069621926,0.062365448589978056,0.269056654151951,-0.0229949198660635,0.35651720192794434,0.6233188683455939,-0.138010685637304,-0.9616608963671514,0.5057785859980006,-0.6818632912158322,0.286495449321315,0.46095048293415286,-0.36875234511765975,0.06642844652730062,-0.5252645527394912,0.33554979767114945,0.05734050500664667,-0.4691343912275834,0.9625701445153496,0.17602235171780478,-0.23574459095569877,-0.4266120447402617,-0.1426177949743166,0.7735197219352219,0.7032778192289155,0.14329411784439672,0.7360678657127806,-0.7356217547361459,0.47176672997014735,-0.04850903874007617,-0.6769454850726229,0.820624466522234,0.041975282576386164,-0.282535241459124,0.9116311774616168,-0.3150466743822764,-0.7534483330412365,-0.40580637831995303,0.9012878102731829,0.4581174275846167,0.8532134435584418,-0.6785198690339205,0.3966542234340915,-0.4962541540912695,0.7825777582502327,-0.08648565842124567,-0.2461391678007352,0.832500783434525,-0.9234642761737561,-0.2458984471523229,-0.19399173992260166,0.7057333741455909,-0.6282566686029212,-0.867507905122606,0.9256729470937952,0.30285589981087835,0.47660678700110637,0.6144213401790013,0.5616132316181808,0.9244571155324142,0.8911608030063545,-0.4320983178438942,-0.4890529617283361,-0.8539184433294673,0.22774405479876525,-0.9533292859718181,0.14499722059873177,0.2412028022752415,0.3129791964400006,0.31498315269975463,-0.49445082289386955,-0.23053843646145378,-0.12666846605425341,0.8198798670120324,-0.055192124175126756,0.773679356997037,-0.7294179018540425,0.7249977449826439,-0.7344724216520127,-0.6233276988157659,-0.3314336545772991,-0.14370496276014122,-0.679569062115633,-0.031575712731518824,-0.5656111736345584,-0.43798535697974694,-0.7611113954079107,0.739855749563944,0.06093639674900375,0.048345910981015816,0.7454878693762463,0.5474386704593441,-0.23161809991802684,-0.47617729876984183,0.6803148313239422,-0.7757197718418978,0.8136151236313289,0.27313197123842103,0.5489756923135378,-0.5700255155236698,0.7937421553734563,0.36431684519463237,0.0030481976317318082,0.5930690893994928,-0.6402003174317241,0.6617610944015253,-0.9502356117201269,0.9234917984564031,0.06450326694750252,0.5970871818456769,-0.249289662990398,-0.016238743318722104,-0.6018313579837673,-0.5334323079434669,-0.5451455551770026,-0.8103579797379679,0.04018667497557549,-0.08239011399965701,0.9822076662544175,-0.2341974441880128,0.09236413386879128,0.950820202004308,-0.23130177833147503,0.3282770845059846,-0.05638384665452789,-0.6973810906055398,-0.02135559701353351,-0.7499777702453001,0.6666568414655407,0.492766217451174,0.19681910653221868,-0.002415119747429806,0.7385282155105801,0.0909078401305834,-0.9053553372898886,0.21671195796845688,-0.25006616493935163,-0.2644882729073126,-0.5107148127065584,-0.09657684596301563,-0.7945549509516525,-0.06331362291035258,0.3024751376331891,0.5601141515798733,0.2815104602768437,0.9073477845608813,0.3376395062257458,-0.5876620076804253,0.3369993017942807,-0.7280414696460158,0.1218252254089689,-0.8880098927891096,-0.3681333140420304,-0.7233755672270559,0.8586009775720758,0.6291584151548726,-0.259806713382998,-0.36504759926025887,0.33128163082645523,-0.6187511886969286,0.7991883497406134,0.609469670834216,0.7032843379142009,0.001639264505871818,0.7537522975758697,-0.509391053726884,0.0708767471723104,-0.3216824524657489,-0.3207863786983107,-0.0099828011873615,-0.6073538343884466,-0.12505772512796742,-0.4075059049759635,-0.18945005924281966,0.7859068808224825,0.8502394937841005,-0.05004894611724131,-0.7865149980082786,-0.7844498126360808,-0.5957082006968633,0.8792329428950336,0.2529092682737717,0.7096082725549022,-0.47832912454702314,-0.9773580558776178,-0.9863886541893538,0.3176897485848358,0.8307982410057249,0.8630796798188705,-0.16203812462706813,-0.4389538065765737,-0.8296464367676237,0.964393410081603,0.03098924768041811,0.04246514252954792,0.9966007898631049,0.4017855360874192,0.8682757678622841,0.766076413578425,-0.7761435578570959,-0.16289560629735989,-0.35448263478285713,0.693583703524163,-0.7670465602679324,0.5427626335986955,0.1931422773723972,0.9358447778167744,0.5434713277002778,0.09724496661689153,-0.049289231769079844,-0.6351658393327744,-0.24010672220559703,-0.7725705727851837,0.2657510916352315,-0.2956269399963394,0.8642446064200426,-0.43104576854517473,-0.5644413888460007,0.17416106042273416,-0.2831292726105372,0.2863697681136206,-0.5798590960898731,-0.30063088031686713,-0.8465715792160629,-0.6478342516647797,-0.8373046940807034,0.3976485083012822,-0.1661578367486216,-0.07251285649588612,0.4029755317803625,-0.7120812775558449,0.6107726344872655,0.8007534999628672,0.2834140190334342
38.64320682957242,0.887386193563213,0.3892773227137236,0.8547829842268082,0.6490744031167495,-0.9899904011132439,-0.4035308363273633,-0.4699457644512579,-0.6011713884026926,-0.4630845631707119,0.7770035868379292,0.09561738349604876,0.18045440087260745,0.07101035460698624,0.4062089429094209,0.7662176718623133,0.9447835537918596,-0.3305227006645759,0.4137407891730618,-0.4784048384902997,0.21476001109118847,0.844563336203636,-0.40907762592234254,0.7115695466302479,0.8678983995055198,-0.21664823925986143,0.8089427178560322,-0.16788059311784864,-0.0038971079333731673,0.155913614878336,0.9851292214856175,-0.5918512088934926,-0.78932069621926,0.062365448589978056,0.269056654151951,-0.0229949198660635,0.35651720192794434,0.6233188683455939,-0.138010685637304,-0.9616608963671514,0.5057785859980006,-0.6818632912158322,0.286495449321315,0.46095048293415286,-0.36875234511765975,0.06642844652730062,-0.5252645527394912,0.33554979767114945,0.05734050500664667,-0.4691343912275834,0.9625701445153496,0.17602235171780478,-0.23574459095569877,-0.4266120447402617,-0.1426177949743166,0.7735197219352219,0.7032778192289155,0.14329411784439672,0.7360678657127806,-0.7356217547361459,0.47176672997014735,-0.04850903874007617,-0.6769454850726229,0.820624466522234,0.041975282576386164,-0.282535241459124,0.9116311774616168,-0.3150466743822764,-0.7534483330412365,-0.40580637831995303,0.9012878102731829,0.4581174275846167,0.8532134435584418,-0.6785198690339205,0.3966542234340915,-0.4962541540912695,0.7825777582502327,-0.08648565842124567,-0.2461391678007352,0.832500783434525,-0.9234642761737561,-0.2458984471523229,-0.19399173992260166,0.7057333741455909,-0.6282566686029212,-0.867507905122606,0.9256729470937952,0.30285589981087835,0.47660678700110637,0.6144213401790013,0.5616132316181808,0.9244571155324142,0.8911608030063545,-0.4320983178438942,-0.4890529617283361,-0.8539184433294673,0.22774405479876525,-0.9533292859718181,0.14499722059873177,0.2412028022752415,0.3129791964400006,0.31498315269975463,-0.49445082289386955,-0.23053843646145378,-0.12666846605425341,0.8198798670120324,-0.055192124175126756,0.773679356997037,-0.7294179018540425,0.7249977449826439,-0.7344724216520127,-0.6233276988157659,-0.3314336545772991,-0.14370496276014122,-0.679569062115633,-0.031575712731518824,-0.5656111736345584,-0.43798535697974694,-0.7611113954079107,0.739855749563944,0.06093639674900375,0.048345910981015816,0.7454878693762463,0.5474386704593441,-0.23161809991802684,-0.47617729876984183,0.6803148313239422,-0.7757197718418978,0.8136151236313289,0.27313197123842103,0.5489756923135378,-0.5700255155236698,0.7937421553734563,0.36431684519463237,0.0030481976317318082,0.5930690893994928,-0.6402003174317241,0.6617610944015253,-0.9502356117201269,0.9234917984564031,0.06450326694750252,0.5970871818456769,-0.249289662990398,-0.016238743318722104,-0.6018313579837673,-0.5334323079434669,-0.5451455551770026,-0.8103579797379679,0.04018667497557549,-0.08239011399965701,0.9822076662544175,-0.2341974441880128,0.09236413386879128,0.950820202004308,-0.23130177833147503,0.3282770845059846,-0.05638384665452789,-0.6973810906055398,-0.02135559701353351,-0.7499777702453001,0.6666568414655407,0.492766217451174,0.19681910653221868,-0.002415119747429806,0.7385282155105801,0.0909078401305834,-0.9053553372898886,0.21671195796845688,-0.25006616493935163,-0.2644882729073126,-0.5107148127065584,-0.09657684596301563,-0.7945549509516525,-0.06331362291035258,0.3024751376331891,0.5601141515798733,0.2815104602768437,0.9073477845608813,0.3376395062257458,-0.5876620076804253,0.3369993017942807,-0.7280414696460158,0.1218252254089689,-0.8880098927891096,-0.3681333140420304,-0.7233755672270559,0.8586009775720758,0.6291584151548726,-0.259806713382998,-0.36504759926025887,0.33128163082645523,-0.6187511886969286,0.7991883497406134,0.609469670834216,0.7032843379142009,0.001639264505871818,0.7537522975758697,-0.509391053726884,0.0708767471723104,-0.3216824524657489,-0.3207863786983107,-0.0099828011873615,-0.6073538343884466,-0.12505772512796742,-0.4075059049759635,-0.18945005924281966,0.7859068808224825,0.8502394937841005,-0.05004894611724131,-0.7865149980082786,-0.7844498126360808,-0.5957082006968633,0.8792329428950336,0.2529092682737717,0.7096082725549022,-0.47832912454702314,-0.9773580558776178,-0.9863886541893538,0.3176897485848358,0.8307982410057249,0.8630796798188705,-0.16203812462706813,-0.4389538065765737,-0.8296464367676237,0.964393410081603,0.03098924768041811,0.04246514252954792,0.9966007898631049,0.4017855360874192,0.8682757678622841,0.766076413578425,-0.7761435578570959,-0.16289560629735989,-0.35448263478285713,0.693583703524163,-0.7670465602679324,0.5427626335986955,0.1931422773723972,0.9358447778167744,0.5434713277002778,0.09724496661689153,-0.049289231769079844,-0.6351658393327744,-0.24010672220559703,-0.7725705727851837,0.2657510916352315,-0.2956269399963394,0.8642446064200426,-0.43104576854517473,-0.5644413888460007,0.17416106042273416,-0.2831292726105372,0.2863697681136206,-0.5798590960898731,-0.30063088031686713,-0.8465715792160629,-0.6478342516647797,-0.8373046940807034,0.3976485083012822,-0.1661578367486216,-0.07251285649588612,0.4029755317803625,-0.7120812775558449,0.6107726344872655,0.8007534999628672,0.2834140190334342
38.64320682957242,0.887386193563213,0.3892773227137236,0.8547829842268082,0.6490744031167495,-0.9899904011132439,-0.4035308363273633,-0.4699457644512579,-0.6011713884026926,-0.4630845631707119,0.7770035868379292,0.09561738349604876,0.18045440087260745,0.07101035460698624,0.4062089429094209,0.7662176718623133,0.9447835537918596,-0.3305227006645759,0.4137407891730618,-0.4784048384902997,0.21476001109118847,0.844563336203636,-0.40907762592234254,0.7115695466302479,0.8678983995055198,-0.21664823925986143,0.8089427178560322,-0.16788059311784864,-0.0038971079333731673,0.155913614878336,0.9851292214856175,-0.5918512088934926,-0.78932069621926,0.062365448589978056,0.269056654151951,-0.0229949198660635,0.35651720192794434,0.6233188683455939,-0.138010685637304,-0.9616608963671514,0.5057785859980006,-0.6818632912158322,0.286495449321315,0.46095048293415286,-0.36875234511765975,0.06642844652730062,-0.5252645527394912,0.33554979767114945,0.05734050500664667,-0.4691343912275834,0.9625701445153496,0.17602235171780478,-0.23574459095569877,-0.4266120447402617,-0.1426177949743166,0.7735197219352219,0.7032778192289155,0.14329411784439672,0.7360678657127806,-0.7356217547361459,0.47176672997014735,-0.04850903874007617,-0.6769454850726229,0.820624466522234,0.041975282576386164,-0.282535241459124,0.9116311774616168,-0.3150466743822764,-0.7534483330412365,-0.40580637831995303,0.9012878102731829,0.4581174275846167,0.8532134435584418,-0.6785198690339205,0.3966542234340915,-0.4962541540912695,0.7825777582502327,-0.08648565842124567,-0.2461391678007352,0.832500783434525,-0.9234642761737561,-0.2458984471523229,-0.19399173992260166,0.7057333741455909,-0.6282566686029212,-0.867507905122606,0.9256729470937952,0.30285589981087835,0.47660678700110637,0.6144213401790013,0.5616132316181808,0.9244571155324142,0.8911608030063545,-0.4320983178438942,-0.4890529617283361,-0.8539184433294673,0.22774405479876525,-0.9533292859718181,0.14499722059873177,0.2412028022752415,0.3129791964400006,0.31498315269975463,-0.49445082289386955,-0.23053843646145378,-0.12666846605425341,0.8198798670120324,-0.055192124175126756,0.773679356997037,-0.7294179018540425,0.7249977449826439,-0.7344724216520127,-0.6233276988157659,-0.3314336545772991,-0.14370496276014122,-0.679569062115633,-0.031575712731518824,-0.5656111736345584,-0.43798535697974694,-0.7611113954079107,0.739855749563944,0.06093639674900375,0.048345910981015816,0.7454878693762463,0.5474386704593441,-0.23161809991802684,-0.47617729876984183,0.6803148313239422,-0.7757197718418978,0.8136151236313289,0.27313197123842103,0.5489756923135378,-0.5700255155236698,0.7937421553734563,0.36431684519463237,0.0030481976317318082,0.5930690893994928,-0.6402003174317241,0.6617610944015253,-0.9502356117201269,0.9234917984564031,0.06450326694750252,0.5970871818456769,-0.249289662990398,-0.016238743318722104,-0.6018313579837673,-0.5334323079434669,-0.5451455551770026,-0.8103579797379679,0.04018667497557549,-0.08239011399965701,0.9822076662544175,-0.2341974441880128,0.09236413386879128,0.950820202004308,-0.23130177833147503,0.3282770845059846,-0.05638384665452789,-0.6973810906055398,-0.02135559701353351,-0.7499777702453001,0.6666568414655407,0.492766217451174,0.19681910653221868,-0.002415119747429806,0.7385282155105801,0.0909078401305834,-0.9053553372898886,0.21671195796845688,-0.25006616493935163,-0.2644882729073126,-0.5107148127065584,-0.09657684596301563,-0.7945549509516525,-0.06331362291035258,0.3024751376331891,0.5601141515798733,0.2815104602768437,0.9073477845608813,0.3376395062257458,-0.5876620076804253,0.3369993017942807,-0.7280414696460158,0.1218252254089689,-0.8880098927891096,-0.3681333140420304,-0.7233755672270559,0.8586009775720758,0.6291584151548726,-0.259806713382998,-0.36504759926025887,0.33128163082645523,-0.6187511886969286,0.7991883497406134,0.609469670834216,0.7032843379142009,0.001639264505871818,0.7537522975758697,-0.509391053726884,0.0708767471723104,-0.3216824524657489,-0.3207863786983107,-0.0099828011873615,-0.6073538343884466,-0.12505772512796742,-0.4075059049759635,-0.18945005924281966,0.7859068808224825,0.8502394937841005,-0.05004894611724131,-0.7865149980082786,-0.7844498126360808,-0.5957082006968633,0.8792329428950336,0.2529092682737717,0.7096082725549022,-0.47832912454702314,-0.9773580558776178,-0.9863886541893538,0.3176897485848358,0.8307982410057249,0.8630796798188705,-0.16203812462706813,-0.4389538065765737,-0.8296464367676237,0.964393410081603,0.03098924768041811,0.04246514252954792,0.9966007898631049,0.4017855360874192,0.8682757678622841,0.766076413578425,-0.7761435578570959,-0.16289560629735989,-0.35448263478285713,0.693583703524163,-0.7670465602679324,0.5427626335986955,0.1931422773723972,0.9358447778167744,0.5434713277002778,0.09724496661689153,-0.049289231769079844,-0.6351658393327744,-0.24010672220559703,-0.7725705727851837,0.2657510916352315,-0.2956269399963394,0.8642446064200426,-0.43104576854517473,-0.5644413888460007,0.17416106042273416,-0.2831292726105372,0.2863697681136206,-0.5798590960898731,-0.30063088031686713,-0.8465715792160629,-0.6478342516647797,-0.8373046940807034,0.3976485083012822,-0.1661578367486216,-0.07251285649588612,0.4029755317803625,-0.7120812775558449,0.6107726344872655,0.8007534999628672,0.2834140190334342
38.64320682957242,0.887386193563213,0.3892773227137236,0.8547829842268082,0.6490744031167495,-0.9899904011132439,-0.4035308363273633,-0.4699457644512579,-0.6011713884026926,-0.4630845631707119,0.7770035868379292,0.09561738349604876,0.18045440087260745,0.07101035460698624,0.4062089429094209,0.7662176718623133,0.9447835537918596,-0.3305227006645759,0.4137407891730618,-0.4784048384902997,0.21476001109118847,0.844563336203636,-0.40907762592234254,0.7115695466302479,0.8678983995055198,-0.21664823925986143,0.8089427178560322,-0.16788059311784864,-0.0038971079333731673,0.155913614878336,0.9851292214856175,-0.5918512088934926,-0.78932069621926,0.062365448589978056,0.269056654151951,-0.0229949198660635,0.35651720192794434,0.6233188683455939,-0.138010685637304,-0.9616608963671514,0.5057785859980006,-0.6818632912158322,0.286495449321315,0.46095048293415286,-0.36875234511765975,0.06642844652730062,-0.5252645527394912,0.33554979767114945,0.05734050500664667,-0.4691343912275834,0.9625701445153496,0.17602235171780478,-0.23574459095569877,-0.4266120447402617,-0.1426177949743166,0.7735197219352219,0.7032778192289155,0.14329411784439672,0.7360678657127806,-0.7356217547361459,0.47176672997014735,-0.04850903874007617,-0.6769454850726229,0.820624466522234,0.041975282576386164,-0.282535241459124,0.9116311774616168,-0.3150466743822764,-0.7534483330412365,-0.40580637831995303,0.9012878102731829,0.4581174275846167,0.8532134435584418,-0.6785198690339205,0.3966542234340915,-0.4962541540912695,0.7825777582502327,-0.08648565842124567,-0.2461391678007352,0.832500783434525,-0.9234642761737561,-0.2458984471523229,-0.19399173992260166,0.7057333741455909,-0.6282566686029212,-0.867507905122606,0.9256729470937952,0.30285589981087835,0.47660678700110637,0.6144213401790013,0.5616132316181808,0.9244571155324142,0.8911608030063545,-0.4320983178438942,-0.4890529617283361,-0.8539184433294673,0.22774405479876525,-0.9533292859718181,0.14499722059873177,0.2412028022752415,0.3129791964400006,0.31498315269975463,-0.49445082289386955,-0.23053843646145378,-0.12666846605425341,0.8198798670120324,-0.055192124175126756,0.773679356997037,-0.7294179018540425,0.7249977449826439,-0.7344724216520127,-0.6233276988157659,-0.3314336545772991,-0.14370496276014122,-0.679569062115633,-0.031575712731518824,-0.5656111736345584,-0.43798535697974694,-0.7611113954079107,0.739855749563944,0.06093639674900375,0.048345910981015816,0.7454878693762463,0.5474386704593441,-0.23161809991802684,-0.47617729876984183,0.6803148313239422,-0.7757197718418978,0.8136151236313289,0.27313197123842103,0.5489756923135378,-0.5700255155236698,0.7937421553734563,0.36431684519463237,0.0030481976317318082,0.5930690893994928,-0.6402003174317241,0.6617610944015253,-0.9502356117201269,0.9234917984564031,0.06450326694750252,0.5970871818456769,-0.249289662990398,-0.016238743318722104,-0.6018313579837673,-0.5334323079434669,-0.5451455551770026,-0.8103579797379679,0.04018667497557549,-0.08239011399965701,0.9822076662544175,-0.2341974441880128,0.09236413386879128,0.950820202004308,-0.23130177833147503,0.3282770845059846,-0.05638384665452789,-0.6973810906055398,-0.02135559701353351,-0.7499777702453001,0.6666568414655407,0.492766217451174,0.19681910653221868,-0.002415119747429806,0.7385282155105801,0.0909078401305834,-0.9053553372898886,0.21671195796845688,-0.25006616493935163,-0.2644882729073126,-0.5107148127065584,-0.09657684596301563,-0.7945549509516525,-0.06331362291035258,0.3024751376331891,0.5601141515798733,0.2815104602768437,0.9073477845608813,0.3376395062257458,-0.5876620076804253,0.3369993017942807,-0.7280414696460158,0.1218252254089689,-0.8880098927891096,-0.3681333140420304,-0.7233755672270559,0.8586009775720758,0.6291584151548726,-0.259806713382998,-0.36504759926025887,0.33128163082645523,-0.6187511886969286,0.7991883497406134,0.609469670834216,0.7032843379142009,0.001639264505871818,0.7537522975758697,-0.509391053726884,0.0708767471723104,-0.3216824524657489,-0.3207863786983107,-0.0099828011873615,-0.6073538343884466,-0.12505772512796742,-0.4075059049759635,-0.18945005924281966,0.7859068808224825,0.8502394937841005,-0.05004894611724131,-0.7865149980082786,-0.7844498126360808,-0.5957082006968633,0.8792329428950336,0.2529092682737717,0.7096082725549022,-0.47832912454702314,-0.9773580558776178,-0.9863886541893538,0.3176897485848358,0.8307982410057249,0.8630796798188705,-0.16203812462706813,-0.4389538065765737,-0.8296464367676237,0.964393410081603,0.03098924768041811,0.04246514252954792,0.9966007898631049,0.4017855360874192,0.8682757678622841,0.766076413578425,-0.7761435578570959,-0.16289560629735989,-0.35448263478285713,0.693583703524163,-0.7670465602679324,0.5427626335986955,0.1931422773723972,0.9358447778167744,0.5434713277002778,0.09724496661689153,-0.049289231769079844,-0.6351658393327744,-0.24010672220559703,-0.7725705727851837,0.2657510916352315,-0.2956269399963394,0.8642446064200426,-0.43104576854517473,-0.5644413888460007,0.17416106042273416,-0.2831292726105372,0.2863697681136206,-0.5798590960898731,-0.30063088031686713,-0.8465715792160629,-0.6478342516647797,-0.8373046940807034,0.3976485083012822,-0.1661578367486216,-0.07251285649588612,0.4029755317803625,-0.7120812775558449,0.6107726344872655,0.8007534999628672,0.2834140190334342
38.64320682957242,0.887386193563213,0.3892773227137236,0.8547829842268082,0.6490744031167495,-0.9899904011132439,-0.4035308363273633,-0.4699457644512579,-0.6011713884026926,-0.4630845631707119,0.7770035868379292,0.09561738349604876,0.18045440087260745,0.07101035460698624,0.4062089429094209,0.7662176718623133,0.9447835537918596,-0.3305227006645759,0.4137407891730618,-0.4784048384902997,0.21476001109118847,0.844563336203636,-0.40907762592234254,0.7115695466302479,0.8678983995055198,-0.21664823925986143,0.8089427178560322,-0.16788059311784864,-0.0038971079333731673,0.155913614878336,0.9851292214856175,-0.5918512088934926,-0.78932069621926,0.062365448589978056,0.269056654151951,-0.0229949198660635,0.35651720192794434,0.6233188683455939,-0.138010685637304,-0.9616608963671514,0.5057785859980006,-0.6818632912158322,0.286495449321315,0.46095048293415286,-0.36875234511765975,0.06642844652730062,-0.5252645527394912,0.33554979767114945,0.05734050500664667,-0.4691343912275834,0.9625701445153496,0.17602235171780478,-0.23574459095569877,-0.4266120447402617,-0.1426177949743166,0.7735197219352219,0.7032778192289155,0.14329411784439672,0.7360678657127806,-0.7356217547361459,0.47176672997014735,-0.04850903874007617,-0.6769454850726229,0.820624466522234,0.041975282576386164,-0.282535241459124,0.9116311774616168,-0.3150466743822764,-0.7534483330412365,-0.40580637831995303,0.9012878102731829,0.4581174275846167,0.8532134435584418,-0.6785198690339205,0.3966542234340915,-0.4962541540912695,0.7825777582502327,-0.08648565842124567,-0.2461391678007352,0.832500783434525,-0.9234642761737561,-0.2458984471523229,-0.19399173992260166,0.7057333741455909,-0.6282566686029212,-0.867507905122606,0.9256729470937952,0.30285589981087835,0.47660678700110637,0.6144213401790013,0.5616132316181808,0.9244571155324142,0.8911608030063545,-0.4320983178438942,-0.4890529617283361,-0.8539184433294673,0.22774405479876525,-0.9533292859718181,0.14499722059873177,0.2412028022752415,0.3129791964400006,0.31498315269975463,-0.49445082289386955,-0.23053843646145378,-0.12666846605425341,0.8198798670120324,-0.055192124175126756,0.773679356997037,-0.7294179018540425,0.7249977449826439,-0.7344724216520127,-0.6233276988157659,-0.3314336545772991,-0.14370496276014122,-0.679569062115633,-0.031575712731518824,-0.5656111736345584,-0.43798535697974694,-0.7611113954079107,0.739855749563944,0.06093639674900375,0.048345910981015816,0.7454878693762463,0.5474386704593441,-0.23161809991802684,-0.47617729876984183,0.6803148313239422,-0.7757197718418978,0.8136151236313289,0.27313197123842103,0.5489756923135378,-0.5700255155236698,0.7937421553734563,0.36431684519463237,0.0030481976317318082,0.5930690893994928,-0.6402003174317241,0.6617610944015253,-0.9502356117201269,0.9234917984564031,0.06450326694750252,0.5970871818456769,-0.249289662990398,-0.016238743318722104,-0.6018313579837673,-0.5334323079434669,-0.5451455551770026,-0.8103579797379679,0.04018667497557549,-0.08239011399965701,0.9822076662544175,-0.2341974441880128,0.09236413386879128,0.950820202004308,-0.23130177833147503,0.3282770845059846,-0.05638384665452789,-0.6973810906055398,-0.02135559701353351,-0.7499777702453001,0.6666568414655407,0.492766217451174,0.19681910653221868,-0.002415119747429806,0.7385282155105801,0.0909078401305834,-0.9053553372898886,0.21671195796845688,-0.25006616493935163,-0.2644882729073126,-0.5107148127065584,-0.09657684596301563,-0.7945549509516525,-0.06331362291035258,0.3024751376331891,0.5601141515798733,0.2815104602768437,0.9073477845608813,0.3376395062257458,-0.5876620076804253,0.3369993017942807,-0.7280414696460158,0.1218252254089689,-0.8880098927891096,-0.3681333140420304,-0.7233755672270559,0.8586009775720758,0.6291584151548726,-0.259806713382998,-0.36504759926025887,0.33128163082645523,-0.6187511886969286,0.7991883497406134,0.609469670834216,0.7032843379142009,0.001639264505871818,0.7537522975758697,-0.509391053726884,0.0708767471723104,-0.3216824524657489,-0.3207863786983107,-0.0099828011873615,-0.6073538343884466,-0.12505772512796742,-0.4075059049759635,-0.18945005924281966,0.7859068808224825,0.8502394937841005,-0.05004894611724131,-0.7865149980082786,-0.7844498126360808,-0.5957082006968633,0.8792329428950336,0.2529092682737717,0.7096082725549022,-0.47832912454702314,-0.9773580558776178,-0.9863886541893538,0.3176897485848358,0.8307982410057249,0.8630796798188705,-0.16203812462706813,-0.4389538065765737,-0.8296464367676237,0.964393410081603,0.03098924768041811,0.04246514252954792,0.9966007898631049,0.4017855360874192,0.8682757678622841,0.766076413578425,-0.7761435578570959,-0.16289560629735989,-0.35448263478285713,0.693583703524163,-0.7670465602679324,0.5427626335986955,0.1931422773723972,0.9358447778167744,0.5434713277002778,0.09724496661689153,-0.049289231769079844,-0.6351658393327744,-0.24010672220559703,-0.7725705727851837,0.2657510916352315,-0.2956269399963394,0.8642446064200426,-0.43104576854517473,-0.5644413888460007,0.17416106042273416,-0.2831292726105372,0.2863697681136206,-0.5798590960898731,-0.30063088031686713,-0.8465715792160629,-0.6478342516647797,-0.8373046940807034,0.3976485083012822,-0.1661578367486216,-0.07251285649588612,0.4029755317803625,-0.7120812775558449,0.6107726344872655,0.8007534999628672,0.2834140190334342
38.70458204441077,0.4329830007814204,0.3693576419112903,0.14606263650575224,-0.8805289461530306,0.23226717089108084,0.6264871548827213,-0.250518754315769,0.5280293203402118,-0.4696754650462096,0.36172477897172794,0.4650691930738615,0.9998273776093005,-0.4871394669945497,0.14571648002417548,0.6596147486476582,-0.10907624733193311,0.8723198447206901,0.8433204381892316,-0.9313597398860751,-0.37653664571225476,0.17034312077668612,0.31218432501055093,-0.26873756015817696,0.31127159403355287,-0.25836421751386274,0.5353868693467028,0.4737380743874029,0.3854916303918545,0.4351703201165473,0.4048527146931211,0.095675896571074,-0.6593930782240949,-0.5328953367877707,0.7976504766243002,0.5470807419769759,-0.5009221372445725,0.013819398951360196,0.5343085095937612,0.9139674011368786,-0.2766242913228336,0.11880077303246117,0.6828330768174564,0.9592176349311521,-0.7428577980906823,-0.06467657566157303,0.697810199615805,-0.08107610423731137,0.3050159761086597,0.5923372242930793,0.6244820260200632,0.5208227822270657,0.36209211696482946,0.291209021018743,-0.8474915142662711,-0.025789985383841252,-0.8780799468392664,-0.9586522573572165,-0.26625166452939864,0.5265425761487503,-0.7255471899164441,-0.08730913105496185,0.8309280636010858,0.9673695525801069,-0.140324345145721,0.9247118829714083,-0.7938111910199575,-0.11418358370890913,-0.4402432982635298,-0.11085742040094271,0.5504934794575906,-0.48991111688528455,0.6813452981948771,0.014626470977453288,0.7783176516795693,0.3787272231550811,-0.90879379467136,0.636151430105381,-0.6460889260865141,0.6717309572477679,0.5428687409454391,-0.14929827917007188,0.22689413446746665,0.6741424658955371,-0.8710996296463138,-0.11669183760548663,0.6462410470750983,-0.48117955241071386,0.7960394624938876,0.6440380827852565,-0.743669575091195,-0.31649484300085007,0.040905475641421774,0.8264569653772271,-0.7667553485467031,-0.8076703442261972,0.12001828591683816,-0.5310729291860141,0.7740672387546228,0.5842195615849715,0.577839037464466,-0.873644038057386,0.6250289880226325,-0.14261404479580997,-0.08807447019405124,-0.31346803041286253,-0.055192124175126756,0.773679356997037,0.4472646149226003,0.7249977449826439,0.2926452312554275,0.08273031883651205,-0.3314336545772991,-0.14370496276014122,-0.679569062115633,0.6557993453941526,-0.5656111736345584,-0.36963444999514605,-0.7611113954079107,0.9796533810578998,0.06093639674900375,0.048345910981015816,0.17539614763234646,-0.5697347181099062,-0.23161809991802684,-0.47617729876984183,0.6803148313239422,-0.7757197718418978,0.8136151236313289,0.27313197123842103,0.7383199445612958,-0.5700255155236698,0.7937421553734563,0.033594573605913114,0.0030481976317318082,0.5930690893994928,0.7514421135787708,0.6617610944015253,-0.9502356117201269,0.9234917984564031,0.06450326694750252,-0.030957867024836272,-0.249289662990398,-0.016238743318722104,-0.3593440462918751,-0.6191552503287092,0.5826191997153243,0.34746405244732026,0.015394122393571852,-0.5620060374952629,-0.2625763264556302,-0.455781893982796,-0.9330548421694622,0.13861580543433405,-0.9963986963058771,-0.9925591489030454,0.19895052073977038,-0.4866339736707854,-0.2999659810838504,0.5920104632259671,0.7874088662229803,0.6012304713839376,0.691020263426914,-0.9636149512187273,-0.08929517343664606,-0.7688541200550099,-0.5694658108387474,-0.16065766030669293,0.8141293939900573,-0.026210423979634134,-0.33778077598909895,0.7298597537797749,0.10217622084575395,0.07329196364780954,-0.7459703789570209,-0.6452832405224616,-0.2533037526370294,-0.7865727966257468,-0.49467771562298957,0.6949492607992669,-0.009493127591099437,-0.18833149796556325,-0.3135338212427332,-0.9340795648937448,0.7817057757907377,0.47517342336402346,-0.8323612844360277,0.20040656028797033,0.9379778807491288,-0.013250347590843647,0.6212989785846477,-0.8579983622208893,0.8657689425634805,0.569157121782613,0.7968890702840352,-0.48190384452955826,0.3432253118090507,-0.5983877950430345,0.505725999247902,-0.20736547958449436,0.8594725093881201,0.15897474668509948,0.22882889006416796,-0.3381998665219452,0.041035306625168744,0.6299309784875828,0.4512425978937429,-0.9243724779891938,-0.9243781773201634,0.2949221397447146,0.31465746779025894,-0.15876827052697462,0.8993028152042342,0.07928457453816917,0.9466885221891759,-0.6534352490388091,-0.09230472722659533,-0.8751810529647943,0.9955343853842296,-0.3418115276773426,-0.17407001323459004,-0.9596920780508114,-0.6488969685419488,-0.007657554269318911,0.7555667607772072,0.41125152444572066,-0.17414744734374943,0.7868797247279242,0.4017855360874192,0.8682757678622841,0.766076413578425,-0.7761435578570959,-0.08424061796442217,-0.34806392742032966,0.671969948669705,0.05291634337118967,-0.2786113245698665,-0.961174045171123,0.01838884053345624,-0.8794685652723073,0.605400856588886,0.4352628292237628,0.4172648002815611,0.7813375531686113,0.9462198900642129,0.4401016048265325,0.6266941527321426,0.8701575075858818,-0.7528519366488717,-0.641034172783516,-0.6523010735815564,-0.5944473286074841,-0.920897761467417,0.867414081441827,0.2004905320627377,0.60542791815605,-0.9067940977881723,0.34805131901981445,0.6457104648254886,0.3223334703239218,0.22441547415412755,-0.006623944197419407,-0.04485761843488767,-0.013908085567496897,0.7202067550437803,0.6331183397494788
43.60336490830292,0.4329830007814204,-0.4834145284420279,0.14606263650575224,-0.8805289461530306,0.3229603292865828,0.6264871548827213,-0.250518754315769,0.5280293203402118,-0.4696754650462096,0.36172477897172794,0.4650691930738615,0.9998273776093005,-0.4871394669945497,-0.34276838959247913,-0.23671907210922716,-0.8222050405790198,0.8723198447206901,0.8433204381892316,-0.42984820558765713,-0.37653664571225476,0.15852848607403902,0.31218432501055093,0.4282001893864915,0.4294487426817506,-0.25836421751386274,0.5353868693467028,-0.15567568821004052,0.014407634636143252,0.4351703201165473,-0.4799425123368086,0.095675896571074,-0.527898891280461,-0.5328953367877707,0.7976504766243002,0.5470807419769759,-0.3748586628109316,-0.030249345951570694,0.5343085095937612,0.27663134593803873,-0.2766242913228336,0.11880077303246117,0.6828330768174564,-0.8186618907650112,-0.7175510668851763,-0.06467657566157303,0.697810199615805,-0.024877456740701076,0.1423925205771326,0.1618111828671236,0.15391793287661426,-0.637783248715585,0.5086109378799524,0.5953037534110903,0.7924729340883836,0.5714702339654125,-0.6263324916520514,-0.1796508096765823,0.13970772850893187,0.6854030689786705,0.7333035660802725,0.21549591858041683,-0.3548738683002073,-0.7825721756865474,-0.14516067702307867,0.6195667876195268,0.3274215862618499,0.4359490947958289,-0.4402432982635298,-0.11085742040094271,-0.4907225212158892,-0.48991111688528455,0.6813452981948771,0.09641515155104186,0.7783176516795693,0.3787272231550811,-0.90879379467136,-0.8077136518834207,-0.6460889260865141,0.6717309572477679,0.5428687409454391,-0.6362018685669295,-0.5334296505618259,0.14879045978267458,-0.8576591332637458,0.7746279439598056,-0.9393707649837659,-0.8830848898080612,-0.453442677306513,0.6440380827852565,-0.743669575091195,-0.31649484300085007,0.5697014169806562,0.4789021882883584,-0.7667553485467031,-0.8076703442261972,0.12001828591683816,-0.5310729291860141,-0.8984703629220403,0.5842195615849715,0.577839037464466,-0.7688312375612334,-0.49765999011574236,-0.14261404479580997,-0.08807447019405124,-0.8809717219005391,0.0639797215622413,0.7535542161990045,-0.601744151017942,-0.6389535355109826,0.27162356094785367,-0.4251347725795491,-0.2841587019050926,0.3584845699019539,-0.5965105736145482,0.9908208829456875,-0.8516477875726387,-0.42384131370108813,-0.6741471845389195,0.6206167952077557,-0.1488904493487211,0.8437563060770721,0.33855373884013673,0.869849850936075,0.7018215979173743,-0.2774333251983556,-0.12082834016076416,-0.04619667317846532,-0.13870853824341034,-0.3583037653528707,-0.09696403626234917,0.5159752280490568,-0.3788329228402807,0.5107772334350051,-0.5972886354583644,-0.8086104028557846,-0.2337794504961379,-0.8866244437343505,-0.5594084946844609,0.8940377315435968,-0.14027225066772298,0.3338292202885893,0.6014849718706106,-0.23522118046012985,0.2848252614732685,0.1285186990980991,0.12569786798670446,0.04201372687176108,-0.9243076598393336,-0.8430749053544961,0.8457726338780887,-0.5337584318362683,-0.9330548421694622,0.13861580543433405,-0.9963986963058771,-0.9925591489030454,-0.05638384665452789,0.41654142492926316,-0.02135559701353351,0.6477824530826641,0.6666568414655407,0.492766217451174,0.19681910653221868,-0.002415119747429806,0.7385282155105801,0.0909078401305834,-0.9053553372898886,-0.02819398275743734,-0.9409584316889177,-0.2644882729073126,-0.5107148127065584,-0.46223387935978155,-0.7945549509516525,-0.06331362291035258,0.3024751376331891,0.6795927284742271,0.5665309333974222,-0.4520440119454485,0.6466975084074669,-0.30538633222388945,-0.5961657119808321,-0.7280414696460158,0.1218252254089689,-0.8880098927891096,-0.3681333140420304,-0.7233755672270559,-0.006833996923463204,-0.7610638582229381,-0.259806713382998,-0.22382406049980674,0.33128163082645523,-0.5792022283916933,0.7991883497406134,0.07449912843341777,0.7032843379142009,0.08290104032495682,0.7537522975758697,-0.509391053726884,-0.6185815125848675,-0.022474217877061387,-0.3207863786983107,-0.06783905526724321,-0.49880720058334904,0.037511355589625595,-0.6819291278996229,0.17287352020175706,-0.5755945698626856,0.568815815966941,0.024320938514932555,0.2802222728400503,0.42991111899517387,-0.9940678237952267,-0.7181690201806035,0.8692563416562513,0.06854559709447883,0.7833170406523728,-0.09230472722659533,-0.8751810529647943,0.9955343853842296,-0.3418115276773426,-0.17407001323459004,-0.23969862221079818,-0.5969056839894704,-0.6321786708912223,0.4241104078869158,-0.37866907267290073,0.21359781826728264,0.9882375173419842,0.4640950979857772,0.3085288944280111,0.9302809782435513,-0.09107924480679963,-0.08424061796442217,-0.34806392742032966,0.671969948669705,0.05291634337118967,-0.2786113245698665,0.17959950698422333,-0.1321002925393866,0.8955331220302005,0.28871257210604395,0.4352628292237628,0.4172648002815611,0.7813375531686113,0.994465923236914,0.4401016048265325,0.6266941527321426,0.8701575075858818,-0.7528519366488717,-0.641034172783516,-0.6523010735815564,-0.6703554409417425,-0.920897761467417,-0.1030720595469965,-0.00511514702766358,-0.20454412796375565,-0.9067940977881723,0.34805131901981445,0.6457104648254886,-0.5779446444579492,0.22441547415412755,-0.3342351117807201,-0.04485761843488767,-0.3684820039790835,0.7202067550437803,0.6331183397494788
