-2.236813120287117762e-02
4.330724425822629620e-02
2.073432122810647815e-01
-4.171193113356344018e-01
5.291806259122655565e-01
-2.367187592388670936e-01
-6.909808256455676201e-01
4.225557377021769145e-01
1.305916076662285707e-01
-6.518409869934760348e-01
-5.812998782138070197e-01
1.807579894228095174e-01
6.078854985511683573e-01
4.355203399144287335e-01
-7.310052919685217088e-01
-5.417879571541666106e-01
-4.076502610391319337e-01
-2.033434978689516726e-01
2.835507319594758879e-01
4.259071222210597529e-01
7.771446463501796575e-01
-3.400959044029900902e-01
7.467174789178794292e-01
-6.378143987228055423e-01
-9.897469934047415929e-01
7.781512809346031734e-01
6.649163219002138803e-01
2.279333692282374813e-01
-9.424086197316059454e-01
6.388665809634266335e-01
-6.710690741655562785e-01
-5.170055661120258605e-01
8.440965532128004156e-01
-9.323679142079188686e-01
-5.660065784775465403e-01
-6.582524351770961957e-01
-2.575698583824916899e-01
-3.824596784129297156e-02
4.117920710242242155e-01
6.231891599926091541e-01
-4.972885525973591569e-01
-5.974870639680467388e-01
-9.269279414921773874e-01
5.956535563185703097e-01
-8.060683388859222198e-01
9.709514282011584285e-01
-8.059049135099871641e-01
8.765894887853544759e-01
-1.126328026831886486e-01
4.483067054493032888e-01
-7.651133306674897661e-01
-4.439231680772059985e-01
-3.791624374596105351e-01
2.801400325148906134e-02
-1.857828679341853029e-01
-2.512624738692925686e-01
6.173849724941908867e-01
-8.400841375868322025e-01
7.376206739112696198e-01
-9.802543405514634323e-01
-9.763013515477287907e-01
-4.876616448089967637e-01
2.612568771686027969e-01
-3.929754421935989228e-01
1.653059104955270087e-01
8.911955528413186833e-01
1.420149421567977743e-01
-9.714162309111893379e-01
8.278463646470366477e-01
5.672444940468350794e-01
-5.028967480068744500e-01
-7.568230715206365478e-01
1.805478406054086271e-01
-7.409977026333198769e-01
-8.539660686864642969e-01
-7.681795508249058546e-01
-5.118556343730102931e-01
-2.140815605829142765e-01
-2.018785693823412775e-01
-2.335079688442078805e-01
4.722185468165549516e-01
3.379333871958440927e-01
2.054404892043033559e-01
-9.898397037802708631e-01
9.291097139333714949e-02
8.625655061239445587e-02
-8.882088130500886969e-01
2.078909417472076804e-01
-2.857570691093791471e-01
-6.396972674473431208e-01
-2.149223722632762623e-01
1.994370207047544419e-01
5.849275640495368300e-01
-8.383275156962810559e-01
3.276613008918032310e-01
1.170288568770483373e-02
-7.898710150258223539e-01
3.119633713136176212e-01
3.080817551960239875e-01
1.656053217014674672e-02
2.780353294228194994e-01
9.793054347231660017e-01
-8.437483409005741564e-01
3.023137889416640522e-01
1.689335771068423142e-02
-7.829471798114973069e-01
-1.294147344893206153e-01
1.978846885282961043e-01
8.972616990971937767e-01
-9.296667346583509239e-01
-1.446503739393232291e-01
1.383866846977754861e-01
4.622190921434521371e-02
-1.225501452183972440e-01
8.195319714069571049e-02
-8.579891220913922201e-01
-2.680302113096386663e-01
5.540108388696411978e-01
2.098616596500295639e-01
1.884012236700138843e-01
-1.325777481646919220e-01
-4.007184689049911874e-01
-6.841725047497406731e-01
6.091915626545978402e-01
5.318860595202927755e-01
-3.011271921387699280e-01
9.814094164772453333e-01
-2.101835301062728867e-01
-4.294900319788694798e-01
2.958061146638653049e-01
3.190773428712705417e-01
-3.198389600255158172e-02
-2.966832352512160931e-01
3.761771171092380683e-01
7.924010436356478948e-01
6.146950782066618046e-04
-9.286933972575295293e-01
2.861447234501057757e-01
-7.443716533094113519e-01
9.024423007193522750e-01
-7.311494737757402440e-01
-4.867660590116171804e-01
-4.949129709760551332e-01
-3.334274938184575987e-01
1.211534003700518447e-01
4.860251061247577997e-01
4.356816751013949940e-01
-4.917464744720561054e-01
9.193022556900323217e-01
5.665435653874546507e-01
-3.531832071703222553e-01
4.258592941144019317e-01
-1.372132916688091342e-01
3.406386987407550304e-01
-6.215489889941614443e-01
7.340487461778053557e-01
4.219106699902814839e-01
2.458943741174093311e-01
-7.070902604313349382e-01
-2.801827362260829180e-01
-3.024073344657529638e-02
-3.717220760981865268e-02
8.953088483660196495e-01
-1.029893942304109800e-01
-6.783128209510920215e-01
-3.962686486713637990e-01
3.487979184145337808e-01
-5.160622887231656186e-01
-6.039898755523445129e-01
-2.407524303702628377e-01
8.168283941942759974e-01
8.823795283107482845e-01
4.225126348217154160e-01
-8.058101583211603192e-01
1.215185800067191124e-01
-1.963493738494381802e-01
8.602772455428506770e-01
-4.008582543103769158e-01
4.123755288323702750e-01
-4.247422225638091131e-01
8.519254182030371325e-01
-5.019614481450489496e-01
8.913039341278814476e-01
-6.098561142835026150e-01
6.385090623723652659e-01
-6.795888312484041904e-01
7.977631503842441685e-01
5.678792582297649272e-01
7.138967310788078002e-01
-4.075453018714387809e-01
-5.141301240183335786e-01
-9.802818017896666181e-01
1.914579345065425819e-02
-8.710155980332245917e-02
-5.244996107961372722e-01
-5.599813691930426440e-01
6.474734165174906853e-01
7.886578693946200147e-01
2.968695158821839097e-01
-8.421721414040537201e-01
5.994538048821216325e-01
-1.058784147042239887e-01
-7.013325154224236968e-01
4.631694508459980320e-01
5.308308376108428206e-01
-1.650728597874064896e-01
-7.924542219350001471e-01
8.965158470626362064e-01
4.539631933845686973e-01
-6.859587296667835066e-01
-4.875113283315228863e-01
7.098075429656400814e-01
4.152321534037597406e-01
4.111115004901035874e-01
9.277313011017060962e-01
2.384716674811113712e-01
-9.288211224244808939e-01
7.148153422231757759e-01
6.884751111561731030e-01
-4.292678110167627015e-01
9.556372824244423470e-01
7.027893297464660183e-01
-9.133265036025168815e-01
7.592526531212455687e-01
-3.959322222266727920e-01
8.281606552756026751e-02
6.216331746021559468e-01
5.738105233133827809e-02
5.773874594359260648e-01
-4.965290539324602737e-01
9.282912574379240667e-01
1.929258972621274992e-01
-9.978749491972069841e-01
7.659582459089477879e-01
9.333033183557344348e-01
-5.402299054863755057e-01
6.413524678021962355e-01
8.373222543918694694e-01
5.474147201412844499e-01
6.320377312282590143e-01
1.301662446515456928e-01
9.475760762981861873e-01
1.042786869853720155e-01
3.784220324856146789e-03
-4.467599539446207579e-01
7.521511694293430139e-01
1.129386087043786624e-01
-4.376976796732050534e-01
4.438641549974455813e-01
-4.840401471241806419e-02
-6.407374163060606254e-01
3.724696887722656058e-02
7.959293675350713748e-01
-7.056117961293459917e-01
8.239955095440025801e-01
2.111500966367634291e-01
-9.434792143016972332e-01
-9.789180872294953595e-01
7.003356144605943356e-01
2.712926398626771540e-01
7.244969553332087919e-01
-5.340018333750546908e-01
-6.085877325759594392e-01
7.824805610887519691e-02
-7.808297937904173924e-01
