-1.355882128479244386e-01
8.190119400063640143e-01
-1.465818860820000680e-01
-7.764919520706561329e-01
3.708732859834218409e-01
3.459307117975873869e-01
6.063957828040469344e-01
2.132471394790094177e-01
6.085875552223407592e-01
6.677182201584781485e-01
-4.447521028120693387e-01
-5.226816304243930844e-03
-6.917737722596233318e-01
8.602106072282655891e-01
3.153394703180560921e-01
1.625320023764122990e-01
6.658446407488440855e-01
9.589090210886321852e-01
-1.510882559979660478e-01
-8.511152791246980875e-01
-2.184978517388382890e-01
7.612409676103242262e-01
-4.429448965061979493e-01
5.637648164884356827e-01
3.551437174140292807e-01
-9.716246890605233499e-01
-7.194536678365150983e-01
-8.386968548793476419e-01
7.313432887773401170e-01
5.405584877296947255e-01
2.034949742190474975e-01
7.826633912855442965e-01
2.364353380685868533e-01
-5.887242705237440976e-01
-5.289934819131538735e-01
-4.896874089406606512e-01
-4.553084971292609140e-01
2.796823001632378070e-01
-6.261330981075410307e-01
-6.885187288266310102e-01
9.953334368087789485e-01
-5.182298513920171601e-01
2.166236943650008406e-01
-6.159339410910231738e-01
7.555889223079539363e-01
1.251987406238606049e-01
-2.533496230370477775e-01
8.659656144390730503e-01
-3.430302585970714802e-01
1.821088209334416064e-01
8.272828552826916315e-01
-9.221301041258098685e-01
3.616384169345410182e-01
-7.914082009017933128e-01
-1.181031456332124474e-01
-7.819874588281714445e-01
3.462783888915008657e-01
-9.446011094634925165e-01
5.423081550644421878e-01
6.852016228482578075e-01
-6.094807448235677327e-01
8.483910763903426133e-01
-3.622217227086723668e-01
6.861241248362204281e-01
-3.072342979308155808e-01
3.319269254880061748e-01
5.545890436331804008e-01
9.683738504461048002e-01
1.067163259189616298e-01
-6.656142029366969304e-01
9.419830533063382472e-01
-3.195340884023469830e-01
-1.416356679223691462e-01
-8.097095680197976542e-01
3.026874475546723620e-01
-7.807023295267863094e-01
1.253857530155171318e-01
-9.270551622276457238e-01
-5.477906808457286836e-01
-8.581019119858810384e-01
7.356687747184098569e-01
4.221263693965959796e-01
6.046503527310975734e-02
-4.500421471268001294e-01
-8.962406637483693039e-01
-9.925605651760822656e-01
-5.505295897837267916e-01
-5.837038554441922322e-01
-7.776481192073985138e-01
9.514014495277764993e-01
-8.428674000450122605e-01
-8.199614633551439713e-01
4.982875318026742661e-01
9.269931451806323608e-02
-5.738568247247965992e-01
3.479582819604369881e-01
9.167603931481234092e-01
9.369558889662048529e-01
7.809929142651590439e-01
-4.788238575390035834e-02
6.763676250284103020e-01
9.738342920276348291e-01
5.197007323664635248e-01
4.642436578180395568e-01
-5.235806097584467800e-01
-5.208953636875324200e-01
1.798196622403591682e-01
8.205431689433133613e-01
3.838605539924637711e-01
-7.495340990499936851e-01
2.633119656012734566e-01
-1.869476508238561152e-01
-1.105273213324637904e-01
2.925861484564555859e-01
7.539103952891701432e-01
-9.000790574387185217e-01
-5.093874840331471532e-01
-3.423553737627023086e-01
-4.862110632707752345e-01
-5.166785679124479280e-01
5.994534874355670340e-01
1.075135844871542012e-01
5.315624179197846466e-01
9.584992708650972304e-01
8.985107076372802482e-01
1.291687196689710326e-01
-1.392164881841968516e-01
4.263051574523704090e-01
-1.640776311989684544e-01
2.790038917522172923e-01
1.453069775279569598e-02
-7.428143123025607863e-01
-3.778360125537862935e-01
-4.899143838771991000e-02
7.859073646027292526e-01
-9.401990154810699885e-01
-7.414752037888523439e-01
-9.224992741163480225e-01
-9.609643205230111729e-01
7.807551878970970805e-01
7.396693449890483496e-01
-5.722694332382838311e-02
-8.776547463263946192e-01
-2.020372176334621628e-01
6.625055460965820764e-01
-7.681055085201515809e-02
-7.129342399818470177e-01
-7.240679145985633447e-01
-1.748335208633240434e-01
-6.087306740665106020e-01
-1.516909417967473583e-01
5.050644599579325877e-01
-5.257989079331264470e-01
6.475346254654601452e-01
7.257863782472897540e-01
-3.364106820260039932e-01
-7.458734367247488173e-01
-8.231888531313944490e-01
5.725878828856267866e-02
5.003018280307105492e-01
-9.590639345025053775e-01
3.260866585032347054e-01
8.640211066770793202e-01
8.051481620945410977e-01
-3.148214238153133060e-01
-3.153200058562768415e-01
-6.240363343530537232e-01
-1.570416568269066282e-01
1.304865555168723823e-01
7.761058633197617240e-01
4.391666639090021640e-01
5.297911153479351043e-02
-3.167748466088200487e-01
8.804321704121007564e-01
-7.217486143517781727e-02
6.455728858680394033e-01
2.965453209611594865e-01
9.225024291062173809e-01
5.678816215443700521e-01
7.812739048357575378e-01
3.717327635631340055e-01
-7.782860409291261217e-01
-6.477475627849960116e-01
-6.071565168269734691e-01
-1.040660106460680190e-01
-7.162963402947113423e-01
6.078898501894962614e-01
8.684663575044713202e-01
3.835589253337712279e-02
8.772281236365919721e-01
6.422630531928972264e-01
-2.912786927020609706e-01
-6.354526208681441357e-01
-7.130517697097156216e-01
-2.754430785941801574e-01
-4.369306185767984907e-01
-1.896045395106782383e-01
-2.006152150461069095e-01
3.062834004924410713e-01
-9.649237418422180745e-01
9.966185323864937828e-01
-2.004942706918306783e-01
-7.650675824870238895e-01
5.852303095010635836e-01
-2.940224398590267629e-01
-7.359749869900746866e-01
6.867728739813410144e-01
4.283590328298465533e-01
6.289133931126400512e-03
8.665217377588754211e-01
-1.007555160246254022e-01
3.907789863726229829e-01
-5.362405919064761051e-02
9.387060948065262256e-01
-4.682104905851331988e-01
-8.770307443221276866e-01
-5.206816091662918033e-01
6.917446389094883408e-02
8.235791715288738324e-01
1.345647264486606876e-01
-2.605888718297473261e-01
4.097888284692920990e-01
7.629127885275914789e-01
-5.401504311909264278e-01
9.845403230134390782e-01
-4.572991336350402669e-01
-8.458437868586448083e-01
-4.293960692341778351e-01
9.879903297802754558e-01
-3.656679198795880215e-01
-3.490857164835332593e-01
8.123870932016459268e-01
7.060131947153784893e-01
6.587012112168564304e-01
-2.845002852367235491e-01
-6.396042598007145585e-01
1.993876975179793565e-01
5.267439189068037209e-01
8.387736777709067226e-01
6.719881841789474564e-01
3.102743671819709892e-01
-8.220757475601099262e-01
5.326102493234268209e-01
-7.018525277946230378e-01
7.587922377395850404e-02
-3.796269266386613772e-01
-3.008929678591005796e-01
9.686266312689586488e-01
7.962251509649176384e-01
3.863975686663039255e-01
6.543244317777707764e-02
-3.468211335620652314e-01
-2.450813458130516320e-01
-8.674805291747333946e-02
5.396366418015694499e-01
7.822371428494476753e-01
-4.290996341055024477e-01
-9.707257067300698594e-01
8.804920648354173096e-01
5.622606518022834621e-01
-6.054592420964890476e-01
-2.145753193575898887e-01
-8.687938275882878258e-02
-2.959123016178906163e-01
-7.818813558018877785e-02
