13.799753283691189,0.9245456266937842,-0.25615993262679804,0.6362089974422438,0.5445546507924779,0.06668206142735844,-0.6090055251491533,-0.781575417110401,-0.9145606332592231,-0.4966682543776275,-0.6370579373511451,-0.915585279956042,0.5462607124781478,0.06413427833063667,-0.16862659975025585,-0.23326257065395617,0.3619504826158495,-0.08252241396982729,0.6074206924773276,-0.07550128426712943,0.5475040269265743,-0.3324875562970524,-0.08905055199099743,-0.13225639485977148,-0.264214172978271,-0.22863690738208997,0.1933679824717438,-0.4310791856778553,-0.5365830771489422,0.2492185785725194,-0.5404734052498439,-0.45561730615268026,0.10985183506903096,-0.46906785877744417,0.39961928144325465,0.9108000186357583,-0.6586069125576102,0.16660143647644454,-0.15707267094616473,0.5288740490575201,-0.8786751010745228,0.7869185000080146,0.10805720217168147,-0.8450495645771614,0.3726169080385562,0.1450352146987397,0.04169890177259772,0.8739640729308529,0.038875677335299175,0.8175238402501144,0.8508987329287883,0.2718434204889215,0.583622231068786,-0.5284017918656592,-0.39281592936745313,-0.11038782711742123,0.16974943549352606,-0.11342668890876739,0.7957029118499468,-0.08821929478085622,0.328966154024974,0.11963674358297705,-0.2242695769194365,-0.06113812783611139,0.9719554398801828,0.6306040677631817,-0.7688539643184815,0.6493178995187172,0.11885262524534745,-0.4919290796469258,0.26601251626028777,-0.24884549935886713,0.6995315061386578,0.17594947768185665,-0.8646505288623696,-0.9751609865408561,-0.003768765288859166,0.8421087398182625,-0.9904841181528481,-0.3122451331358218,0.6134440446084024,0.9936174857980131,0.7544267799283844,0.39980019953590307,0.9061334260915319,0.1329364402282287,-0.801166820941821,-0.9851226968781539,0.7131871189638541,0.6940696747880795,0.5205661322342301,0.2065766854782909,0.2563652443275086,-0.43333347498387953,-0.3201415490940265,0.19367494692421516,0.9144073409379729,0.684851216692667,-0.796444554044883,-0.4412144307130985,-0.7861986639415575,0.7973099496979381,0.35405108039665145,-0.4563690604886601,0.4195637596364248,0.5415335670561643,-0.517419003253097,-0.20925636019574512,-0.589206489242164,-0.2716199216929376,0.4363418093613438,0.4154492122930544,0.01202383262032014,-0.8386641553994336,0.5255246322029465,-0.5143800936688347,0.5416765968182935,-0.34526101691191036,-0.8019440737686427,-0.16202396339642622,0.3558661229707707,0.2578479057982317,0.6457851643768524,-0.05192699697392178,-0.7770025973645156,-0.13372355710837658,0.10061847706119376,0.8480021472883312,-0.057397886219829,-0.24192607993118243,-0.055373104150599595,0.059096567201389005,0.49223289031255035,-0.42997986802563415,0.48986170185189515,-0.5340256394807361,0.021929807284398306,-0.7411549725972606,0.7902920108145728,0.1890370199444178,-0.7098207988848164,-0.9255192855758063,0.274720583051806,0.0037631736089940304,0.28016674278033427,-0.7639537004461165,0.957390830466287,0.6624483535795076,-0.18176002014350034,0.9963479458471776,-0.7586669212034947,-0.849433721688962,-0.4112736085927644,-0.18733390160509078,0.4423078680012287,0.05983617316953849,-0.07338697702830665,-0.5936564294458271,-0.9579829226060135,-0.4176590879126949,0.3613444151882079,-0.18749804300666173,0.3285791713632462,0.0473924667098482,0.037021044973228445,0.3817962846720746,0.8078369551363838,-0.24268460225509547,0.31789968044578254,-0.9144569543825922,0.7223966679812799,0.40764622507733916,0.3755097564619132,0.3060346644821297,-0.0747727124589217,-0.3086027241386953,-0.1252442990798619,0.7365590528023402,0.2963209088687082,0.5868793805067201,-0.6601250930619649,-0.12085539839121529,-0.8465839157993418,-0.17140038755100573,0.1985940538651032,-0.2838329067405527,-0.006829069906305607,0.8743602570099784,-0.7481336505029572,-0.9138094616165784,0.7861007548156551,-0.1343789853140105,0.733384442419494,0.8792119035202333,-0.03783866408471526,-0.932604759590542,-0.4423722515566535,-0.18389982636993984,0.05137120815272267,-0.9215713343528065,0.34596166321717314,-0.6623779025477405,0.4985408694313431,0.4747399226765039,-0.9677533718825018,-0.18241463540237035,0.42535684148039166,-0.042153255986159044,-0.7942375955152792,-0.5765386027078687,-0.9580195610044295,-0.5002813965977673,-0.2958972332738321,0.21092227642939232,-0.5614388163712123,0.5201955149185411,0.5125829373862743,-0.8118187502347491,-0.7918547048074762,-0.22627586596449412,-0.03076834758827518,-0.9555281632637234,-0.10133224761022452,0.6845307560777394,0.8286289869785801,0.7332226190338713,0.7025608833964618,-0.22725588608730996,-0.19079873307250517,0.43753232821250054,-0.4320470312748519,-0.22498614800087502,0.8312748014134637,-0.5255933806064446,-0.3360308095768101,-0.45655582226508296,0.8665901179463917,-0.12704103991225768,-0.1878080320996176,-0.2200358219389591,0.7666915560084331,-0.7304198821091026,-0.08492897110110964,0.8516269126959606,0.9649319970391659,0.41459074519173167,-0.5967411968318352,0.0924640255111151,0.3437490731593136,0.17318927472580548,0.5678943359660529,0.4060204945769186,0.0060480984519564185,0.11278235787364932,0.3846117974232137,0.024919167532485798,0.7009192911519095,-0.6584173731653715,-0.6616022264251062,0.2202611274237134,-0.31199872858508537,-0.1997248500328077,-0.5491820291733853,0.41450983582177914,-0.5392732485725353,0.027523068148519236
13.182508468636353,0.9245456266937842,-0.25615993262679804,0.6362089974422438,0.5445546507924779,0.06668206142735844,-0.6090055251491533,0.41755148585221713,-0.9145606332592231,-0.4966682543776275,-0.6370579373511451,-0.915585279956042,0.5462607124781478,0.06413427833063667,-0.16862659975025585,-0.23326257065395617,0.3619504826158495,-0.08252241396982729,0.6074206924773276,-0.07550128426712943,0.5475040269265743,-0.3324875562970524,-0.08905055199099743,-0.13225639485977148,-0.264214172978271,-0.22863690738208997,0.1933679824717438,-0.4310791856778553,-0.5365830771489422,0.2492185785725194,-0.5404734052498439,-0.45561730615268026,0.10985183506903096,-0.46906785877744417,0.39961928144325465,0.9108000186357583,-0.6586069125576102,0.16660143647644454,-0.15707267094616473,0.5288740490575201,-0.8786751010745228,0.7869185000080146,0.10805720217168147,-0.8450495645771614,0.3726169080385562,0.1450352146987397,0.04169890177259772,0.8739640729308529,0.038875677335299175,0.8175238402501144,0.5165449788167238,0.2718434204889215,0.583622231068786,-0.5284017918656592,-0.39281592936745313,-0.11038782711742123,0.16974943549352606,-0.11342668890876739,0.7957029118499468,-0.7399734162851606,0.328966154024974,0.11963674358297705,-0.2242695769194365,-0.06113812783611139,0.9719554398801828,0.6306040677631817,-0.7688539643184815,0.6493178995187172,0.11885262524534745,-0.4919290796469258,0.26601251626028777,-0.24884549935886713,0.6995315061386578,0.17594947768185665,-0.8646505288623696,-0.9751609865408561,-0.003768765288859166,0.8421087398182625,-0.9904841181528481,-0.3122451331358218,0.6134440446084024,0.9936174857980131,0.7544267799283844,0.39980019953590307,0.9061334260915319,0.1329364402282287,-0.801166820941821,-0.9851226968781539,0.7131871189638541,0.6940696747880795,0.5205661322342301,0.2065766854782909,0.2563652443275086,-0.43333347498387953,-0.3201415490940265,0.19367494692421516,0.9144073409379729,0.684851216692667,-0.796444554044883,-0.4412144307130985,-0.9552552576048225,0.7973099496979381,0.35405108039665145,-0.4563690604886601,0.4195637596364248,0.5415335670561643,-0.517419003253097,-0.20925636019574512,-0.589206489242164,-0.2716199216929376,0.4363418093613438,0.4154492122930544,0.01202383262032014,-0.8386641553994336,0.5255246322029465,-0.5143800936688347,0.5416765968182935,-0.34526101691191036,-0.8019440737686427,-0.16202396339642622,0.3558661229707707,0.2578479057982317,0.6457851643768524,-0.05192699697392178,-0.7770025973645156,-0.13372355710837658,0.10061847706119376,0.8480021472883312,-0.057397886219829,-0.24192607993118243,-0.055373104150599595,0.004721015098942294,0.49223289031255035,-0.42997986802563415,0.48986170185189515,-0.5340256394807361,0.021929807284398306,-0.7411549725972606,0.7902920108145728,0.1890370199444178,-0.7098207988848164,-0.9255192855758063,0.274720583051806,0.6890745093102162,0.28016674278033427,-0.7639537004461165,0.957390830466287,0.6624483535795076,-0.18176002014350034,0.9963479458471776,0.6027256957745069,-0.3430651437227381,-0.4112736085927644,-0.18733390160509078,0.29140536976845044,0.05983617316953849,-0.07338697702830665,-0.5936564294458271,-0.9579829226060135,-0.4176590879126949,0.3613444151882079,-0.18749804300666173,0.3285791713632462,0.0473924667098482,0.037021044973228445,0.3817962846720746,0.7869238007709882,-0.24268460225509547,0.31789968044578254,-0.9144569543825922,0.7223966679812799,0.40764622507733916,0.3755097564619132,0.3060346644821297,-0.0747727124589217,-0.3086027241386953,-0.1252442990798619,0.7365590528023402,0.2963209088687082,-0.7221156477177784,-0.6601250930619649,-0.12085539839121529,-0.8465839157993418,-0.17140038755100573,0.1985940538651032,-0.2838329067405527,-0.006829069906305607,0.8274738435661984,-0.7481336505029572,-0.9138094616165784,0.7861007548156551,-0.1343789853140105,0.733384442419494,0.8792119035202333,-0.03783866408471526,-0.932604759590542,-0.4423722515566535,-0.18389982636993984,0.05137120815272267,-0.9215713343528065,0.34596166321717314,-0.6623779025477405,0.4985408694313431,0.4747399226765039,-0.9677533718825018,-0.18241463540237035,0.42535684148039166,-0.042153255986159044,-0.7942375955152792,-0.5765386027078687,-0.9580195610044295,-0.5002813965977673,-0.2958972332738321,0.21092227642939232,-0.5614388163712123,0.5201955149185411,0.5125829373862743,-0.8118187502347491,-0.7918547048074762,-0.22627586596449412,-0.03076834758827518,-0.9555281632637234,-0.10133224761022452,0.6845307560777394,0.8286289869785801,-0.5397323625474344,0.07691849749848645,-0.07174159775751465,0.7237383506138824,0.46060914058347935,-0.4320470312748519,-0.22498614800087502,0.8312748014134637,-0.5255933806064446,-0.3360308095768101,-0.45655582226508296,0.8665901179463917,-0.12704103991225768,-0.1878080320996176,-0.2200358219389591,0.7666915560084331,-0.7304198821091026,-0.08492897110110964,0.8516269126959606,0.9649319970391659,0.41459074519173167,-0.5967411968318352,0.0924640255111151,0.3437490731593136,0.17318927472580548,0.5678943359660529,0.4060204945769186,0.0060480984519564185,0.11278235787364932,0.3846117974232137,0.024919167532485798,0.7009192911519095,-0.6584173731653715,0.8670504260670122,0.2202611274237134,-0.31199872858508537,-0.1997248500328077,-0.5491820291733853,0.41450983582177914,-0.5392732485725353,0.027523068148519236
14.496434735922229,-0.24119271919321306,0.06045471262795621,-0.8194243883748924,0.7564591422852638,-0.9805170873864952,-0.8610324115783006,-0.945691482245451,0.6537590838018281,0.25774091844718816,0.5189552584694295,0.3906021327360212,-0.41525478605094435,0.9079160079955295,-0.914680057935376,-0.2594824856946807,0.5392147388075808,0.06908461822007084,0.7706883661275996,-0.31919734443520165,0.5279649673560864,-0.5824682366224223,0.8624458293879433,-0.09520759853769478,-0.5806690558983005,0.06177196695602416,-0.48769051090360604,-0.024508907778875155,0.35450971307883594,-0.3374908335519815,0.8458375327387833,0.951863924420993,-0.29958655867147566,-0.533416301612408,0.30957210754235387,-0.14176254853469805,-0.9732520667893674,-0.11853455836717774,-0.7506934310203175,0.8060420286153873,0.8456571414735978,-0.8105892354089888,0.44512809876170256,0.9166612354515054,0.007433033189734761,-0.3941296402209973,0.8696935772294916,0.286488932508395,0.6211420293751668,-0.6446890107281318,0.45411766635644524,-0.6263045761065633,0.040989676583086165,0.14190174641892672,-0.22375093813836622,0.7743273119627603,0.008705165786095925,0.3368302954324156,-0.8617349761748625,0.4831694927472856,-0.0697638053321259,-0.6954083482435778,0.611721007869847,-0.09475729068846661,0.29746388435989224,-0.4444061354754414,-0.9629119044262204,0.3389838700405643,0.6122475448491389,-0.9406237573508613,0.49454180749514287,0.2680829977246679,0.32046854986129647,0.7060679090579809,0.9000565114117749,0.5837478977376707,0.3832334009571632,-0.8345051397689898,-0.9800118805477955,-0.8275876562294868,-0.14340604742968632,-0.608483361459792,0.6439562625672772,-0.9329075147752448,0.5444673197765626,0.6045940937574947,0.7808466991534282,0.5650746389435906,0.4095714610344019,0.24632977339072748,0.6830109325412308,-0.2552301094986469,-0.4087192872642942,-0.3014726117280737,-0.06235749424282622,-0.595441972031892,-0.03333659542415468,0.37895149587197374,0.2421169396233247,0.6795495094739685,-0.6069859040124146,0.17380065475623985,-0.36985943441816826,-0.114731197772999,-0.9710666129119696,0.2976112890134721,-0.7529969300976886,-0.23745665733849353,0.7800128991203437,-0.909876505802047,-0.20349025334933302,0.5784187078647582,-0.5400006586030579,0.8516613227604268,-0.6513582466946999,0.374198124998391,-0.36520755549580386,0.4574445085639387,-0.6793037603643779,-0.7807186349612794,-0.8302221832711616,0.25130745624438355,-0.1399892972310246,-0.07454008469958695,-0.4833647171407378,0.04198942739629996,0.9339060036100357,0.39930684124283355,0.9034168378172434,0.23524286827155372,0.3496586432257902,0.13051485712304856,-0.5658674477023833,0.7903948157922567,0.5586212876595285,-0.47802471049109085,-0.6378494457653621,-0.5120299868300098,0.44645466453366,-0.19155556865077084,0.7972373237747497,0.899372967956698,-0.27852429318320904,0.5452534333314081,-0.14924296027223738,-0.8513282729923783,-0.12815317979953922,0.16312608096508985,0.4472016031961008,-0.8801474941233436,-0.7046145344328356,0.009326100700743245,0.5831148489503841,-0.26605877806065337,0.521795977395433,0.07098141129981816,-0.37076845195881525,-0.3724374350499806,-0.06842552614351605,-0.4399926124138098,0.2811927106879908,-0.29300597252046034,0.14995901498197517,0.11231048151078005,0.4247356372669173,0.43082830511608505,-0.5507164298217415,-0.24654915108312947,-0.7318943877583508,-0.6182995668984339,0.04597286439660642,-0.3075697792104406,-0.8531367459738293,0.6558142393227986,0.18411379405111883,-0.03455752993976513,0.17804631633232693,0.06217219983981881,0.1812070424650083,-0.08718677159571708,0.20464079253546075,-0.1369306046213008,0.17757632832892778,-0.6091090166629305,0.34288781671529933,0.3532401455014471,0.43732563243644096,-0.2574125686401718,0.5022243444193217,0.19473448099972224,-0.2810109209746019,-0.5078854208914068,-0.14282378003369378,-0.04524333799820135,0.35015602423219283,0.6210912095015855,-0.22581634188491972,0.8874418634095971,0.5605845952073976,-0.6272472778868512,0.6776452845016658,0.8352581111353143,0.7404837229299628,-0.5613907610251132,-0.4534964500132088,0.7936492909335318,0.5472546570474486,-0.40478623544989834,-0.6749921395677736,0.10237563857937348,-0.722739408706206,-0.4774299273914637,0.8672316316613271,-0.7791030999938118,-0.12940181145024865,0.18005485630731588,-0.08192369133398536,-0.7660913419764033,0.4215778324355557,-0.2114691044737973,-0.9013686179076918,-0.20440486372056288,-0.7073351112830484,-0.2937056966327236,0.9175240255566266,-0.4592472237462497,0.9588722858579235,-0.4924005423252018,0.8382377631171871,-0.0841202655005251,-0.9867799512618693,-0.09509824409607925,-0.06090459858633124,0.7994195787359542,0.46327627583828646,0.8296676637579821,0.2800864820656299,0.7196384459612306,-0.7288689176108945,-0.6274436235702978,0.25266941446122826,-0.6114631203855836,0.5944968361091403,0.7797434280432083,-0.5513528675242627,0.30598675836736344,-0.5090031098623438,-0.30585949206033036,-0.9202946476666811,0.9939632567717518,-0.34404796112517677,-0.709372278571097,0.040791867468706,0.2492433769879394,-0.1598079423975276,-0.41184295751067523,0.07989228525929071,0.6728211228872938,-0.49495543261836117,0.8570174071840415,-0.37161737159770647,0.7042232004563636,-0.4667085149703578,0.6653721862522797,0.482708221541962,0.14024084581605512
17.57661964723495,-0.3593710845416256,-0.873333854695457,-0.4419927764051701,-0.9420559999825611,-0.5846811960902216,0.23889994945634418,0.44410416239386175,0.8694182411036735,0.9681769903134956,0.10130400102505277,0.23469493043580036,-0.134047779121806,-0.12356738067700901,-0.08986928659324156,-0.21986783435506108,-0.48921211003231213,-0.17803415801232925,-0.5789410523966456,-0.21850128730073148,-0.6301531563891716,-0.25216200301303404,-0.9840194275680842,0.0819497956638604,0.41290636858943586,-0.8299839164985374,-0.9828292391420046,0.7115994323446699,-0.7841324857032195,-0.8424113594320648,-0.19013333349434092,-0.8835672031812396,0.441857680472848,0.19313966569606777,-0.7372619193596794,-0.6014892740072546,0.7133506744563733,-0.6339683296955865,-0.6582195727026108,-0.7372016635383505,0.899524913418728,-0.7549371564947411,0.002496089523593703,0.46497625821510224,-0.28578546350292955,-0.15140995604555796,0.8756315063593325,-0.8198690797639314,0.18347438640860392,0.28531972012119344,-0.43458442914615447,0.000728159021231134,-0.01816604185672599,-0.7647881478915837,0.45571738116694394,0.5770951755733082,0.4916514650240704,0.41127331823509605,0.8713279691321372,0.8052138826807729,0.8847083215006668,0.6564567402714421,0.29739199596117283,0.11923757339170948,0.41470006686676375,0.7676863772310947,0.06841927525448499,-0.27240391599392844,0.2270044821188888,0.4664515031771279,0.22346951853507768,-0.0530268352885781,0.5447537771874704,0.4778362352382388,-0.30783935273738505,0.8831807960182494,-0.4282940025175608,0.41909858926358123,-0.8093901396675645,-0.7975165822884134,0.7919961486510763,0.32467394252761905,0.7017199947336286,0.7625978107443805,-0.058348517775660635,0.07263044105181238,0.5353590346599482,-0.22668502283001213,0.7140260021024227,-0.4819926317773049,-0.9154425100296035,0.16480295879895834,-0.37714240021209555,-0.37205781615902134,-0.8460824696371723,0.37539244175571773,-0.603112636252332,-0.3834608923533367,0.6934387474466115,-0.20499053479579832,0.012447173522741606,-0.29924787007368603,-0.15099486883765478,-0.8405493901704211,0.5932698446610518,0.3935556030725884,-0.4113716685568436,-0.3975311168219855,-0.4038281953643128,-0.48192738976072236,-0.19094091694825477,-0.9211532895955095,0.29849679514326555,0.6730161086878959,-0.48733364399108137,0.5437773299306778,-0.9486449463328348,0.9867361521812557,0.15770185059689368,0.7314388047455131,0.40176055463315574,0.3283571697804113,0.17893878469725255,-0.4494763542609521,-0.71275718685784,0.5047183139410671,-0.7652226589443456,0.377153477343521,0.9207949242916602,-0.30092045055577143,-0.5335727638820893,-0.8983608494864399,0.8971784687644353,-0.7805449635201036,0.4569547468829418,-0.2136298254435829,-0.789038764246341,-0.06471947077315465,-0.4787424597501668,-0.021383458838041713,0.16439516772781926,-0.04613349870424299,0.8759543427941725,0.9300637027354144,0.4939824505358168,-0.11809000772881006,-0.2044425691804761,0.699016561329872,-0.1849574986130893,0.5855425995004746,0.18911609916113403,-0.9517867519858187,-0.725260722096629,0.8317761327719213,-0.15620246869176224,0.6906515464932828,-0.3729073874251658,-0.30275526375237893,-0.845640004089321,0.3886308799296898,0.5119147341494423,-0.84752095523313,0.1251996577895016,-0.19384159000017287,0.554493472921453,0.8794844671890196,0.6550548689212574,0.4448772200834439,-0.7630374285549986,0.31410150031613693,0.10602444467934635,0.6802187632532488,-0.44797382640652605,0.9660814373165485,0.2527318182889786,0.7846932519312007,-0.7678230416510832,0.22249643810406994,-0.012731522712590593,-0.24335402772854198,-0.342244364185176,0.46677777394874465,-0.5110663168782128,0.09649040479538007,-0.8730607590332455,0.7845096617237861,0.9064794417365698,0.5376027356192221,0.9787813881359222,0.06466314964282427,-0.9040316304494351,-0.6261526430110875,-0.9950492629880352,-0.649641028272971,0.9265497770350006,0.20215850460588713,-0.4164771555456632,-0.397361161288603,-0.7295156122154303,0.6806317170213869,0.12198322262671168,-0.3319482110046936,-0.9453074962725514,0.2809953127629079,0.6227122087560462,0.4510585419489044,0.010108669132071979,0.4184750785143061,0.5656358104889603,0.20762741167344556,-0.5331183427820343,0.3203248173647393,-0.15369504679194756,0.8705863183766871,0.9010129685970152,0.7285650321448145,0.8585975255988327,0.3631229968756755,-0.32196302839944035,-0.5841850408822593,0.9037861196056742,0.7923212606540393,0.7352525239247718,0.764283376299904,0.19146346835607764,0.09057984648262507,-0.6834443503587457,0.27672589467864994,-0.5444640630083712,0.7751412152551451,-0.6939377495051633,-0.34263561048463353,0.2970373799290609,0.26605676703665515,0.4113887254145361,0.47684992248068614,-0.3423964363503782,-0.6446511707394129,-0.2542415174166115,-0.13284453835511045,-0.4067261532985955,0.4915497849734962,-0.2889645783607817,0.7567380401060799,-0.8899808314922442,-0.06139318841698671,0.28455735415576133,-0.21645524273391814,0.7021488541392991,0.8475096964684055,0.5756942909783556,-0.12331965377785448,-0.6353773816060164,-0.8364092376882764,-0.7318965028122122,-0.027201632273963883,-0.6232668121879599,-0.7736390002177032,-0.270971399940954,-0.44430179166345196,0.8419300608282034,-0.26152458134328915,0.7899193008674767,-0.6517099567609066,-0.8577667317476494,0.9154890232694886
15.63948580739359,0.9438250219970103,-0.6763199752408227,0.9797970427230125,-0.7588007415848543,0.3890692441162311,-0.6740762796907629,-0.4443436932415086,0.6417852680562068,-0.7928391006598854,0.0986587302732782,-0.4769244275646898,0.08336623797561726,-0.7683715241069047,0.31120618011555035,0.8608748675506883,-0.7517367744531918,-0.5997862251540045,0.006749038566075338,0.31245013032499624,0.7351359424046382,0.9418950054119704,-0.04110708952071995,-0.9855902346676719,0.23722065623529343,-0.7483424191020225,-0.11937166207434413,0.41090446565515104,-0.9119635722598962,0.7382982794999011,0.02713768648795023,-0.6024574963955349,-0.06822617221536986,-0.49384827880818727,0.7722480352103418,-0.24901457169278474,-0.8014962889263368,0.08098392803967647,-0.8212439273842325,-0.1931789510529076,-0.8236918035002232,-0.9189421759776213,0.5155026874564697,0.5420143739186032,-0.6460386635952446,0.9889479846481104,-0.5155382137467237,0.8905693082991213,0.6898040342809788,-0.2694468644750829,0.09415152487450507,-0.49288809908572007,0.29601982512982916,-0.4485746169998748,0.9178051447659406,0.0010456414675512615,-0.1511668514147606,0.037724041129972186,-0.5653251974483184,0.5176911513398776,-0.5043046162087199,-0.043315122015230134,0.19288775682061288,0.3212238557369633,0.10012045185684637,-0.8420750876481986,0.1841210615276505,0.8598603940603071,0.8362733884955984,-0.9531755917825175,0.09299250871215325,0.3849054721085201,0.5433151819301645,0.36657037690938954,-0.1961659973194687,0.4410462867726104,0.9084378145569088,0.7493989815162325,0.5242492428637768,0.7749702281755149,-0.022304009125537094,-0.04512012219517847,-0.8644421896979599,-0.13674620039833885,-0.6445496043584356,-0.6153074864723236,-0.008859819368174815,0.8580420151628256,0.5198746570130302,0.1571117888321405,-0.8334398027267178,-0.35439797738005785,-0.5503032378596981,0.9987412537681464,-0.2101803499197945,-0.9269298794555132,0.037992025021795994,-0.9345629234743091,0.1596024636581177,0.3730050604327533,-0.5533278221922937,0.7983716577377953,0.6595500894205706,0.6485610526046044,-0.8666173392109433,-0.11816581322956088,-0.15401716053482728,0.3336093745808064,-0.37596453665650675,0.8635405279562836,0.028444049417846395,-0.22796123456631223,-0.8667148129139599,0.25904720794217106,0.6602289579028671,0.5924596473052546,-0.08530235238534756,0.21076356260819162,0.6732163425065387,-0.24134472396747486,-0.7379117438163423,0.8257485139988772,0.9919582651986687,0.17159845906805327,0.7347759389226318,0.2592187053986539,0.6696070454583063,0.24699434634375916,0.2276322786800571,0.6282042520355193,0.9444600994394501,-0.5207595439436197,-0.3154399246255688,-0.37629662948204046,0.36662200639929465,0.5169214409526741,-0.10283970925295471,0.3477474427573606,-0.9810153772035528,-0.45822093035561773,-0.641619883409106,0.1136790029299588,-0.4212393390926872,-0.9654698546913547,0.18206859790787733,-0.2410271694392292,0.47912004781709405,0.3669386329954958,-0.35059399669551006,0.09695446589369827,-0.3421327650337951,0.3015936936412489,-0.28536244989576565,-0.008545994138318136,0.7268744469730124,-0.502215338492173,0.8857010540570789,-0.0527933269461347,-0.3428850056581556,-0.44221029179184757,0.02278280283186862,0.08125192255351954,-0.5513581920538146,0.5051344273120066,-0.970103236599327,-0.9580312849560324,0.011741952363902186,0.0674343261210888,-0.30141154098260237,0.6875609472468016,-0.32539122617781935,-0.4110544232464468,-0.44797382640652605,0.9660814373165485,0.2527318182889786,0.7846932519312007,-0.7678230416510832,0.22249643810406994,0.22098327955683228,-0.24335402772854198,-0.342244364185176,0.46677777394874465,0.8847211599848193,0.9148591166390814,-0.8730607590332455,0.7845096617237861,0.9064794417365698,0.5376027356192221,0.9787813881359222,0.06466314964282427,-0.9040316304494351,-0.6261526430110875,-0.9950492629880352,-0.649641028272971,0.9265497770350006,0.20215850460588713,-0.4164771555456632,-0.397361161288603,-0.7295156122154303,0.6806317170213869,0.12198322262671168,-0.3319482110046936,-0.9453074962725514,0.2809953127629079,0.6227122087560462,0.4510585419489044,0.010108669132071979,0.4184750785143061,0.5656358104889603,0.20762741167344556,-0.5331183427820343,0.3203248173647393,-0.15369504679194756,0.8705863183766871,0.9010129685970152,0.7285650321448145,0.8585975255988327,0.3631229968756755,-0.32196302839944035,-0.5841850408822593,0.9037861196056742,0.7923212606540393,0.7352525239247718,0.764283376299904,0.19146346835607764,0.09057984648262507,-0.6834443503587457,0.27672589467864994,-0.5444640630083712,0.7751412152551451,-0.6939377495051633,-0.34263561048463353,0.2970373799290609,0.26605676703665515,0.4113887254145361,0.47684992248068614,-0.3423964363503782,-0.6446511707394129,-0.2542415174166115,-0.13284453835511045,-0.4067261532985955,0.4915497849734962,-0.2889645783607817,0.7567380401060799,-0.8899808314922442,0.05279187884496017,-0.20511137318193606,-0.030991836041755594,-0.8496790493925344,0.13009531534379337,-0.1747785915813378,-0.5137597130763532,0.19521031908371356,0.7187715788257152,-0.5508835658419136,0.9926297228635124,-0.5514054624119837,-0.4466137217628541,0.47309331703873325,0.20102475353969318,0.07471299047784363,-0.1940174042620606,-0.9289103887450507,-0.38247724901868074,0.12398171668689906,-0.7201399000143354
15.63948580739359,0.9438250219970103,-0.6763199752408227,0.9797970427230125,-0.7588007415848543,0.3890692441162311,-0.6740762796907629,-0.4443436932415086,0.6417852680562068,-0.7928391006598854,0.0986587302732782,-0.4769244275646898,0.08336623797561726,-0.7683715241069047,0.31120618011555035,0.8608748675506883,-0.7517367744531918,-0.5997862251540045,0.006749038566075338,0.31245013032499624,0.7351359424046382,0.9418950054119704,-0.04110708952071995,-0.9855902346676719,0.23722065623529343,-0.7483424191020225,-0.11937166207434413,0.41090446565515104,-0.9119635722598962,0.7382982794999011,0.02713768648795023,-0.6024574963955349,-0.06822617221536986,-0.49384827880818727,0.7722480352103418,-0.24901457169278474,-0.8014962889263368,0.08098392803967647,-0.8212439273842325,-0.1931789510529076,-0.8236918035002232,-0.9189421759776213,0.5155026874564697,0.5420143739186032,-0.6460386635952446,0.9889479846481104,-0.5155382137467237,0.8905693082991213,0.6898040342809788,-0.2694468644750829,0.09415152487450507,-0.49288809908572007,0.29601982512982916,-0.4485746169998748,0.9178051447659406,0.0010456414675512615,-0.1511668514147606,0.037724041129972186,-0.5653251974483184,0.5176911513398776,-0.5043046162087199,-0.043315122015230134,0.19288775682061288,0.3212238557369633,0.10012045185684637,-0.8420750876481986,0.1841210615276505,0.8598603940603071,0.8362733884955984,-0.9531755917825175,0.09299250871215325,0.3849054721085201,0.5433151819301645,0.36657037690938954,-0.1961659973194687,0.4410462867726104,0.9084378145569088,0.7493989815162325,0.5242492428637768,0.7749702281755149,-0.022304009125537094,-0.04512012219517847,-0.8644421896979599,-0.13674620039833885,-0.6445496043584356,-0.6153074864723236,-0.008859819368174815,0.8580420151628256,0.5198746570130302,0.1571117888321405,-0.8334398027267178,-0.35439797738005785,-0.5503032378596981,0.9987412537681464,-0.2101803499197945,-0.9269298794555132,0.037992025021795994,-0.9345629234743091,0.1596024636581177,0.3730050604327533,-0.5533278221922937,0.7983716577377953,0.6595500894205706,0.6485610526046044,-0.8666173392109433,-0.11816581322956088,-0.15401716053482728,0.3336093745808064,-0.37596453665650675,0.8635405279562836,0.028444049417846395,-0.22796123456631223,-0.8667148129139599,0.25904720794217106,0.6602289579028671,0.5924596473052546,-0.08530235238534756,0.21076356260819162,0.6732163425065387,-0.24134472396747486,-0.7379117438163423,0.8257485139988772,0.9919582651986687,0.17159845906805327,0.7347759389226318,0.2592187053986539,0.6696070454583063,0.24699434634375916,0.2276322786800571,0.6282042520355193,0.9444600994394501,-0.5207595439436197,-0.3154399246255688,-0.37629662948204046,0.36662200639929465,0.5169214409526741,-0.10283970925295471,0.3477474427573606,-0.9810153772035528,-0.45822093035561773,-0.641619883409106,0.1136790029299588,-0.4212393390926872,-0.9654698546913547,0.18206859790787733,-0.2410271694392292,0.47912004781709405,0.3669386329954958,-0.35059399669551006,0.09695446589369827,-0.3421327650337951,0.3015936936412489,-0.28536244989576565,-0.008545994138318136,0.7268744469730124,-0.502215338492173,0.8857010540570789,-0.0527933269461347,-0.3428850056581556,-0.44221029179184757,0.02278280283186862,0.08125192255351954,-0.5513581920538146,0.5051344273120066,-0.970103236599327,-0.9580312849560324,0.011741952363902186,0.0674343261210888,-0.30141154098260237,0.6875609472468016,-0.32539122617781935,-0.4110544232464468,-0.44797382640652605,0.9660814373165485,0.2527318182889786,0.7846932519312007,-0.7678230416510832,0.22249643810406994,0.22098327955683228,-0.24335402772854198,-0.342244364185176,0.46677777394874465,0.8847211599848193,0.9148591166390814,-0.8730607590332455,0.7845096617237861,0.9064794417365698,0.5376027356192221,0.9787813881359222,0.06466314964282427,-0.9040316304494351,-0.6261526430110875,-0.9950492629880352,-0.649641028272971,0.9265497770350006,0.20215850460588713,-0.4164771555456632,-0.397361161288603,-0.7295156122154303,0.6806317170213869,0.12198322262671168,-0.3319482110046936,-0.9453074962725514,0.2809953127629079,0.6227122087560462,0.4510585419489044,0.010108669132071979,0.4184750785143061,0.5656358104889603,0.20762741167344556,-0.5331183427820343,0.3203248173647393,-0.15369504679194756,0.8705863183766871,0.9010129685970152,0.7285650321448145,0.8585975255988327,0.3631229968756755,-0.32196302839944035,-0.5841850408822593,0.9037861196056742,0.7923212606540393,0.7352525239247718,0.764283376299904,0.19146346835607764,0.09057984648262507,-0.6834443503587457,0.27672589467864994,-0.5444640630083712,0.7751412152551451,-0.6939377495051633,-0.34263561048463353,0.2970373799290609,0.26605676703665515,0.4113887254145361,0.47684992248068614,-0.3423964363503782,-0.6446511707394129,-0.2542415174166115,-0.13284453835511045,-0.4067261532985955,0.4915497849734962,-0.2889645783607817,0.7567380401060799,-0.8899808314922442,0.05279187884496017,-0.20511137318193606,-0.030991836041755594,-0.8496790493925344,0.13009531534379337,-0.1747785915813378,-0.5137597130763532,0.19521031908371356,0.7187715788257152,-0.5508835658419136,0.9926297228635124,-0.5514054624119837,-0.4466137217628541,0.47309331703873325,0.20102475353969318,0.07471299047784363,-0.1940174042620606,-0.9289103887450507,-0.38247724901868074,0.12398171668689906,-0.7201399000143354
16.58247864046306,0.28082821341590036,0.27320365701648974,0.4360913868174112,0.8169532868214704,0.04659226293153651,-0.44845069801192805,-0.45519286776665435,0.18218608894584332,0.4056700085354654,0.7906508661220679,-0.49175598354027494,-0.35490304108173554,-0.9182127364973591,-0.4722741849629546,-0.919836746768071,0.5037933349190902,0.08310817836603523,-0.5541326765413386,-0.5069004473163088,0.19008409249516367,0.6601990614116671,-0.05848797071180267,0.2543962126750736,0.3335126828571411,-0.7783667319757064,0.0034631678498386886,0.7060324639649151,-0.938464276144592,0.2992764418962377,0.46012100817783064,-0.8275744329347352,-0.4633307275173639,-0.6740890536789153,0.38490937240920764,-0.05305621484700618,0.2881703207301163,-0.9201673620541766,-0.3710598505153708,0.8204188625483912,0.06173835643443404,0.43877491127441615,0.3415549214392206,-0.06367648315789731,-0.3930527319364385,-0.2876695600984456,-0.21612639149821988,0.1360783189555188,-0.5472447957394142,-0.2694468644750829,-0.07947607524317779,-0.49288809908572007,0.29601982512982916,-0.4485746169998748,0.5329122775162829,0.0010456414675512615,-0.1511668514147606,0.037724041129972186,-0.5653251974483184,0.5176911513398776,0.2686419770116737,-0.043315122015230134,0.33851399567330454,0.3212238557369633,0.10012045185684637,-0.5958005895775687,0.1841210615276505,0.8598603940603071,0.8362733884955984,-0.9531755917825175,-0.09850648545193685,0.5310409876104978,0.5433151819301645,0.36657037690938954,0.11899755821008151,0.4410462867726104,-0.17586936218492033,0.7493989815162325,0.5242492428637768,0.7749702281755149,-0.022304009125537094,-0.04512012219517847,0.10571306868523767,-0.13674620039833885,-0.6445496043584356,-0.6153074864723236,-0.008859819368174815,0.8580420151628256,0.5198746570130302,0.1571117888321405,-0.5644304182107795,-0.35439797738005785,-0.5503032378596981,0.9987412537681464,-0.2101803499197945,-0.9269298794555132,0.037992025021795994,-0.9345629234743091,0.1596024636581177,0.3730050604327533,-0.5533278221922937,-0.049046680124129605,-0.855145673701035,-0.7920835905489281,-0.8666173392109433,0.956958058390107,-0.15401716053482728,0.3336093745808064,-0.37596453665650675,0.8635405279562836,0.47477266408406926,-0.22796123456631223,-0.8667148129139599,0.25904720794217106,0.6602289579028671,0.5924596473052546,-0.08530235238534756,0.08353697139609206,0.6732163425065387,-0.24134472396747486,-0.7379117438163423,0.9453260419787488,-0.4983935649952207,0.0024212655985937914,0.7347759389226318,0.2592187053986539,0.6696070454583063,0.24699434634375916,0.3506361562696316,0.6282042520355193,0.9444600994394501,-0.5207595439436197,-0.3154399246255688,-0.37629662948204046,0.36662200639929465,0.5132361356769675,-0.9928424361343231,0.3477474427573606,0.5211130916679028,-0.45822093035561773,-0.641619883409106,0.5749243023329116,-0.4212393390926872,-0.9654698546913547,0.18206859790787733,-0.2410271694392292,0.47912004781709405,0.3669386329954958,-0.35059399669551006,0.09695446589369827,-0.6002409973375289,0.3015936936412489,-0.28536244989576565,-0.008545994138318136,0.7268744469730124,-0.502215338492173,0.8857010540570789,-0.0527933269461347,-0.7215331225976569,-0.16237841554560672,0.02278280283186862,0.08125192255351954,-0.5513581920538146,0.5051344273120066,-0.970103236599327,-0.9580312849560324,0.011741952363902186,0.0674343261210888,-0.30141154098260237,0.6875609472468016,-0.32539122617781935,-0.45581759756679907,-0.8194115559322057,0.9660814373165485,0.2527318182889786,0.7846932519312007,-0.35641982195172317,-0.4117933602208972,0.7748002790788349,-0.346538033284135,0.35419936827754595,0.8606840355617758,0.6393414655368366,-0.8158388867083264,0.9807078023243232,0.4040693038319567,0.49753338564689753,0.45042620217723917,0.8663633148964394,-0.6630294559003178,0.51290748231439,0.11435110193374509,-0.6320525976268636,0.10897203184772031,-0.7546488770261108,-0.7455649321372886,0.24426017537938116,-0.48374793550331874,-0.6070813340722017,-0.49014634104712074,0.8210836897915799,-0.30232026195597483,0.0427152292569184,-0.25999339125956245,0.2849445184378743,-0.169428710674274,0.827049417394573,-0.21894828762083263,-0.3375291360359993,-0.5931190792364269,0.5418518881805099,0.31284568104319677,-0.9584809145852993,0.2758278923205406,-0.1523704128587371,-0.9628795542537394,-0.6996747187265848,-0.6773030777860665,-0.42796721654487313,0.7037230800747394,-0.6753792096676019,0.5047755511516145,0.8330493095620335,0.27950193525790246,0.2946201499426786,-0.14328027428914525,0.0006079240414744724,-0.16184737098019086,0.6757991453773817,0.8934433111770475,0.7500799906928579,0.6999494186631277,0.2564301946353147,-0.9177111581769823,0.591300268690222,-0.426221976666729,0.732430430887629,0.7628509667092529,-0.5514183962771888,0.04760278481517899,-0.43446857317782706,-0.9566536573872524,-0.20118589324950564,0.08226182912584967,0.8206085771541956,0.9983441996867521,-0.31497733361736113,-0.44882650231997046,0.6283142740631553,-0.6285857119521618,-0.12610761578462504,-0.5070002759396353,0.754190397441993,-0.2515937050760175,0.5170623903622118,0.3034332208421042,-0.5845758688043412,0.7056164563531735,-0.774236080056262,0.9988439386364807,-0.8565466399579973,0.3606209269678122,0.9863774884566434,-0.01970349247389902,-0.48258803440846454,0.9774689723636538
26.31183691073598,-0.47757416305606926,-0.8514521274656781,0.24345240321884232,-0.6242597025300203,0.2661585342684045,-0.6212450827424163,-0.961272612423496,-0.2913133262863492,0.8793937114517154,0.27962294838180135,-0.9473150801467558,0.7461508180566789,-0.6174495209983331,-0.5779397109120032,-0.266709841629323,0.8671900907521297,-0.3793657115803488,-0.3360211852917028,-0.33133218267533215,-0.6523551546180875,0.3687647355464456,-0.24228787768730387,0.6746814182003369,-0.1417544031933904,-0.9507122776853936,0.7065889968683272,-0.10061443383524948,0.9367742101269221,0.19208701247783933,-0.3362396506791532,0.3513213869522318,0.4917635654392247,-0.7919578602844606,-0.03833483234149648,0.23688023958538884,0.42009895828659727,-0.8115256657959948,0.40561836894500636,0.8764666349565917,0.38772672560666366,-0.8819067669266718,-0.8230896232143612,0.022125915373994998,-0.7446550065039108,-0.4427367711502668,0.28390813700216166,0.47316495833461514,0.7215426151386302,0.3179262642805356,-0.5615746056435771,-0.33417451886490634,-0.9172765978918354,0.010007766692336384,0.7829853583832482,0.023582156834894397,-0.0293979682209482,0.5382919862721007,0.15419781480261285,0.45991521515201916,0.14284349562387466,-0.972252703599972,0.38949143392366503,-0.08764758144559437,-0.9307335218793298,0.8211187520511691,0.46123863565697554,0.3701660540709153,-0.4953833723152701,0.11963437046294878,0.1735514098547868,-0.11290644699098107,0.030466331295818883,-0.9811604052647231,0.9412119901131892,0.8441583431340118,0.23475101938360887,0.605644446304392,0.44001537239888866,-0.4867387779478254,0.19419532438819842,0.571016262601705,-0.43335701002145677,-0.6629009059684814,0.04950477952144361,-0.3050634299352506,-0.7551793186825408,0.6369821707558145,-0.9426206053641895,0.47263660796713736,0.6953926588402257,-0.9915907700230828,0.8605027088402408,-0.6542881150828626,-0.5270199120355512,0.7311412445474166,0.6498637656381923,-0.016351114455561255,0.12136029457006337,0.45662027655131343,0.2720318390177512,0.9028883418981068,-0.8764666185958327,-0.18576851013578266,-0.3330009274267147,-0.33236803353123,-0.1421697277213474,0.6492997233856539,0.512766060773401,-0.8881852766165677,-0.12114476337839619,0.9519908679532931,-0.5672890602361051,0.9069718438325272,0.7613651777225974,0.0062406807031467615,-0.4344907461164893,-0.21047350649821084,-0.014181816746678066,0.4474382904864258,-0.9172257356377709,-0.32104217882767827,0.06936865724885899,-0.5636857352383793,0.3446554586787818,0.9093646799030539,-0.2719069275233945,0.25085187805687004,-0.7922359783167163,0.5574297739356642,-0.7449975412466754,-0.49659809095730423,0.539973772659138,0.7687063434303287,-0.0800295715133379,-0.33620382743586674,-0.9321841452118032,0.24941037856537007,0.6432718226189951,0.026373327610615283,-0.20926541358366668,0.41770499665895855,-0.9472596925516732,0.773854671903154,0.9039442019472903,0.0841588101980637,0.7111314729211569,-0.7854925238932626,0.9127558362948185,0.8131529596813507,-0.35847219276126707,-0.6049488626667865,0.23311672988289245,-0.7307044623814523,0.5891917221704841,-0.2505551929957097,-0.9951709580914525,-0.7502089898156865,0.6303749681596234,0.9245467259176379,0.30890326331363127,0.1430137683753161,0.562191757686884,0.9477146045024336,-0.8434396276705185,0.6232226616302827,0.35063010320119115,0.6121364556716595,0.6359097523756243,-0.9134134858452629,-0.0648079321280417,-0.9791793222758731,-0.6391103680856516,0.08085925796782001,-0.014174336525206721,-0.39170894316403904,-0.14702222013268917,-0.9646929371016253,0.2148634741573403,0.49008673290576343,0.4010912328809786,-0.21960584929424187,-0.4291929466039317,0.5105249144819313,-0.834173355401671,0.6996082841326094,0.9209946953909753,0.4913729027219642,0.42037715398115494,-0.6810824812364935,0.45103659178972655,0.37007253385428074,0.6054185720532494,0.5677165214342239,-0.2652953953483723,0.051102800893499944,-0.8925619442458217,-0.7143982548736916,0.0636567828184238,0.8857110530286805,-0.6149392639720452,0.22275306432386222,0.9310928372057798,0.9817379869737257,-0.807448710309417,0.6818125271716371,0.16503129146583606,0.5733601003618107,-0.9604834206145563,-0.5359142585914145,-0.04031352612139916,0.1214379121588065,-0.21397867301227524,0.5527043137710563,-0.04198805303387365,0.3004976011891791,0.639811766468402,0.38424898159106036,-0.7950283836361447,-0.8012513335215223,-0.037644810047038124,0.5442100939801557,-0.23158935982314,0.04216066085590198,0.7926583521030404,-0.7542885061770881,0.2483305713186581,0.7343213354890648,0.9916585696317572,0.3697963628223446,0.45306458416140294,0.47234919233437456,-0.309690566702141,-0.304789201298018,-0.7716993421893628,0.9582079331407212,-0.38677835758027124,0.8396816895157404,0.5797592017891717,0.6433050745051379,-0.8267696650253318,-0.23797983022635782,-0.7060848117757288,-0.6333566181949961,-0.18399506587122194,-0.5183872156332823,-0.6021083109651353,0.9266970967959915,-0.7512719731014152,-0.4023141564079742,-0.6107203518528506,-0.4900679514005315,-0.9080636214685134,-0.9404838076283535,0.04642191597630507,0.883999751246858,-0.3337745013092137,-0.9653480878561929,-0.48310971286618365,0.3536531404580425,0.5585604466322731,-0.7582610052474044,0.5582258878566584,0.8451246012288387,0.6379453828153834,-0.5589769526478512
26.31183691073598,-0.47757416305606926,-0.8514521274656781,0.24345240321884232,-0.6242597025300203,0.2661585342684045,-0.6212450827424163,-0.961272612423496,-0.2913133262863492,0.8793937114517154,0.27962294838180135,-0.9473150801467558,0.7461508180566789,-0.6174495209983331,-0.5779397109120032,-0.266709841629323,0.8671900907521297,-0.3793657115803488,-0.3360211852917028,-0.33133218267533215,-0.6523551546180875,0.3687647355464456,-0.24228787768730387,0.6746814182003369,-0.1417544031933904,-0.9507122776853936,0.7065889968683272,-0.10061443383524948,0.9367742101269221,0.19208701247783933,-0.3362396506791532,0.3513213869522318,0.4917635654392247,-0.7919578602844606,-0.03833483234149648,0.23688023958538884,0.42009895828659727,-0.8115256657959948,0.40561836894500636,0.8764666349565917,0.38772672560666366,-0.8819067669266718,-0.8230896232143612,0.022125915373994998,-0.7446550065039108,-0.4427367711502668,0.28390813700216166,0.47316495833461514,0.7215426151386302,0.3179262642805356,-0.5615746056435771,-0.33417451886490634,-0.9172765978918354,0.010007766692336384,0.7829853583832482,0.023582156834894397,-0.0293979682209482,0.5382919862721007,0.15419781480261285,0.45991521515201916,0.14284349562387466,-0.972252703599972,0.38949143392366503,-0.08764758144559437,-0.9307335218793298,0.8211187520511691,0.46123863565697554,0.3701660540709153,-0.4953833723152701,0.11963437046294878,0.1735514098547868,-0.11290644699098107,0.030466331295818883,-0.9811604052647231,0.9412119901131892,0.8441583431340118,0.23475101938360887,0.605644446304392,0.44001537239888866,-0.4867387779478254,0.19419532438819842,0.571016262601705,-0.43335701002145677,-0.6629009059684814,0.04950477952144361,-0.3050634299352506,-0.7551793186825408,0.6369821707558145,-0.9426206053641895,0.47263660796713736,0.6953926588402257,-0.9915907700230828,0.8605027088402408,-0.6542881150828626,-0.5270199120355512,0.7311412445474166,0.6498637656381923,-0.016351114455561255,0.12136029457006337,0.45662027655131343,0.2720318390177512,0.9028883418981068,-0.8764666185958327,-0.18576851013578266,-0.3330009274267147,-0.33236803353123,-0.1421697277213474,0.6492997233856539,0.512766060773401,-0.8881852766165677,-0.12114476337839619,0.9519908679532931,-0.5672890602361051,0.9069718438325272,0.7613651777225974,0.0062406807031467615,-0.4344907461164893,-0.21047350649821084,-0.014181816746678066,0.4474382904864258,-0.9172257356377709,-0.32104217882767827,0.06936865724885899,-0.5636857352383793,0.3446554586787818,0.9093646799030539,-0.2719069275233945,0.25085187805687004,-0.7922359783167163,0.5574297739356642,-0.7449975412466754,-0.49659809095730423,0.539973772659138,0.7687063434303287,-0.0800295715133379,-0.33620382743586674,-0.9321841452118032,0.24941037856537007,0.6432718226189951,0.026373327610615283,-0.20926541358366668,0.41770499665895855,-0.9472596925516732,0.773854671903154,0.9039442019472903,0.0841588101980637,0.7111314729211569,-0.7854925238932626,0.9127558362948185,0.8131529596813507,-0.35847219276126707,-0.6049488626667865,0.23311672988289245,-0.7307044623814523,0.5891917221704841,-0.2505551929957097,-0.9951709580914525,-0.7502089898156865,0.6303749681596234,0.9245467259176379,0.30890326331363127,0.1430137683753161,0.562191757686884,0.9477146045024336,-0.8434396276705185,0.6232226616302827,0.35063010320119115,0.6121364556716595,0.6359097523756243,-0.9134134858452629,-0.0648079321280417,-0.9791793222758731,-0.6391103680856516,0.08085925796782001,-0.014174336525206721,-0.39170894316403904,-0.14702222013268917,-0.9646929371016253,0.2148634741573403,0.49008673290576343,0.4010912328809786,-0.21960584929424187,-0.4291929466039317,0.5105249144819313,-0.834173355401671,0.6996082841326094,0.9209946953909753,0.4913729027219642,0.42037715398115494,-0.6810824812364935,0.45103659178972655,0.37007253385428074,0.6054185720532494,0.5677165214342239,-0.2652953953483723,0.051102800893499944,-0.8925619442458217,-0.7143982548736916,0.0636567828184238,0.8857110530286805,-0.6149392639720452,0.22275306432386222,0.9310928372057798,0.9817379869737257,-0.807448710309417,0.6818125271716371,0.16503129146583606,0.5733601003618107,-0.9604834206145563,-0.5359142585914145,-0.04031352612139916,0.1214379121588065,-0.21397867301227524,0.5527043137710563,-0.04198805303387365,0.3004976011891791,0.639811766468402,0.38424898159106036,-0.7950283836361447,-0.8012513335215223,-0.037644810047038124,0.5442100939801557,-0.23158935982314,0.04216066085590198,0.7926583521030404,-0.7542885061770881,0.2483305713186581,0.7343213354890648,0.9916585696317572,0.3697963628223446,0.45306458416140294,0.47234919233437456,-0.309690566702141,-0.304789201298018,-0.7716993421893628,0.9582079331407212,-0.38677835758027124,0.8396816895157404,0.5797592017891717,0.6433050745051379,-0.8267696650253318,-0.23797983022635782,-0.7060848117757288,-0.6333566181949961,-0.18399506587122194,-0.5183872156332823,-0.6021083109651353,0.9266970967959915,-0.7512719731014152,-0.4023141564079742,-0.6107203518528506,-0.4900679514005315,-0.9080636214685134,-0.9404838076283535,0.04642191597630507,0.883999751246858,-0.3337745013092137,-0.9653480878561929,-0.48310971286618365,0.3536531404580425,0.5585604466322731,-0.7582610052474044,0.5582258878566584,0.8451246012288387,0.6379453828153834,-0.5589769526478512
26.31183691073598,-0.47757416305606926,-0.8514521274656781,0.24345240321884232,-0.6242597025300203,0.2661585342684045,-0.6212450827424163,-0.961272612423496,-0.2913133262863492,0.8793937114517154,0.27962294838180135,-0.9473150801467558,0.7461508180566789,-0.6174495209983331,-0.5779397109120032,-0.266709841629323,0.8671900907521297,-0.3793657115803488,-0.3360211852917028,-0.33133218267533215,-0.6523551546180875,0.3687647355464456,-0.24228787768730387,0.6746814182003369,-0.1417544031933904,-0.9507122776853936,0.7065889968683272,-0.10061443383524948,0.9367742101269221,0.19208701247783933,-0.3362396506791532,0.3513213869522318,0.4917635654392247,-0.7919578602844606,-0.03833483234149648,0.23688023958538884,0.42009895828659727,-0.8115256657959948,0.40561836894500636,0.8764666349565917,0.38772672560666366,-0.8819067669266718,-0.8230896232143612,0.022125915373994998,-0.7446550065039108,-0.4427367711502668,0.28390813700216166,0.47316495833461514,0.7215426151386302,0.3179262642805356,-0.5615746056435771,-0.33417451886490634,-0.9172765978918354,0.010007766692336384,0.7829853583832482,0.023582156834894397,-0.0293979682209482,0.5382919862721007,0.15419781480261285,0.45991521515201916,0.14284349562387466,-0.972252703599972,0.38949143392366503,-0.08764758144559437,-0.9307335218793298,0.8211187520511691,0.46123863565697554,0.3701660540709153,-0.4953833723152701,0.11963437046294878,0.1735514098547868,-0.11290644699098107,0.030466331295818883,-0.9811604052647231,0.9412119901131892,0.8441583431340118,0.23475101938360887,0.605644446304392,0.44001537239888866,-0.4867387779478254,0.19419532438819842,0.571016262601705,-0.43335701002145677,-0.6629009059684814,0.04950477952144361,-0.3050634299352506,-0.7551793186825408,0.6369821707558145,-0.9426206053641895,0.47263660796713736,0.6953926588402257,-0.9915907700230828,0.8605027088402408,-0.6542881150828626,-0.5270199120355512,0.7311412445474166,0.6498637656381923,-0.016351114455561255,0.12136029457006337,0.45662027655131343,0.2720318390177512,0.9028883418981068,-0.8764666185958327,-0.18576851013578266,-0.3330009274267147,-0.33236803353123,-0.1421697277213474,0.6492997233856539,0.512766060773401,-0.8881852766165677,-0.12114476337839619,0.9519908679532931,-0.5672890602361051,0.9069718438325272,0.7613651777225974,0.0062406807031467615,-0.4344907461164893,-0.21047350649821084,-0.014181816746678066,0.4474382904864258,-0.9172257356377709,-0.32104217882767827,0.06936865724885899,-0.5636857352383793,0.3446554586787818,0.9093646799030539,-0.2719069275233945,0.25085187805687004,-0.7922359783167163,0.5574297739356642,-0.7449975412466754,-0.49659809095730423,0.539973772659138,0.7687063434303287,-0.0800295715133379,-0.33620382743586674,-0.9321841452118032,0.24941037856537007,0.6432718226189951,0.026373327610615283,-0.20926541358366668,0.41770499665895855,-0.9472596925516732,0.773854671903154,0.9039442019472903,0.0841588101980637,0.7111314729211569,-0.7854925238932626,0.9127558362948185,0.8131529596813507,-0.35847219276126707,-0.6049488626667865,0.23311672988289245,-0.7307044623814523,0.5891917221704841,-0.2505551929957097,-0.9951709580914525,-0.7502089898156865,0.6303749681596234,0.9245467259176379,0.30890326331363127,0.1430137683753161,0.562191757686884,0.9477146045024336,-0.8434396276705185,0.6232226616302827,0.35063010320119115,0.6121364556716595,0.6359097523756243,-0.9134134858452629,-0.0648079321280417,-0.9791793222758731,-0.6391103680856516,0.08085925796782001,-0.014174336525206721,-0.39170894316403904,-0.14702222013268917,-0.9646929371016253,0.2148634741573403,0.49008673290576343,0.4010912328809786,-0.21960584929424187,-0.4291929466039317,0.5105249144819313,-0.834173355401671,0.6996082841326094,0.9209946953909753,0.4913729027219642,0.42037715398115494,-0.6810824812364935,0.45103659178972655,0.37007253385428074,0.6054185720532494,0.5677165214342239,-0.2652953953483723,0.051102800893499944,-0.8925619442458217,-0.7143982548736916,0.0636567828184238,0.8857110530286805,-0.6149392639720452,0.22275306432386222,0.9310928372057798,0.9817379869737257,-0.807448710309417,0.6818125271716371,0.16503129146583606,0.5733601003618107,-0.9604834206145563,-0.5359142585914145,-0.04031352612139916,0.1214379121588065,-0.21397867301227524,0.5527043137710563,-0.04198805303387365,0.3004976011891791,0.639811766468402,0.38424898159106036,-0.7950283836361447,-0.8012513335215223,-0.037644810047038124,0.5442100939801557,-0.23158935982314,0.04216066085590198,0.7926583521030404,-0.7542885061770881,0.2483305713186581,0.7343213354890648,0.9916585696317572,0.3697963628223446,0.45306458416140294,0.47234919233437456,-0.309690566702141,-0.304789201298018,-0.7716993421893628,0.9582079331407212,-0.38677835758027124,0.8396816895157404,0.5797592017891717,0.6433050745051379,-0.8267696650253318,-0.23797983022635782,-0.7060848117757288,-0.6333566181949961,-0.18399506587122194,-0.5183872156332823,-0.6021083109651353,0.9266970967959915,-0.7512719731014152,-0.4023141564079742,-0.6107203518528506,-0.4900679514005315,-0.9080636214685134,-0.9404838076283535,0.04642191597630507,0.883999751246858,-0.3337745013092137,-0.9653480878561929,-0.48310971286618365,0.3536531404580425,0.5585604466322731,-0.7582610052474044,0.5582258878566584,0.8451246012288387,0.6379453828153834,-0.5589769526478512
26.31183691073598,-0.47757416305606926,-0.8514521274656781,0.24345240321884232,-0.6242597025300203,0.2661585342684045,-0.6212450827424163,-0.961272612423496,-0.2913133262863492,0.8793937114517154,0.27962294838180135,-0.9473150801467558,0.7461508180566789,-0.6174495209983331,-0.5779397109120032,-0.266709841629323,0.8671900907521297,-0.3793657115803488,-0.3360211852917028,-0.33133218267533215,-0.6523551546180875,0.3687647355464456,-0.24228787768730387,0.6746814182003369,-0.1417544031933904,-0.9507122776853936,0.7065889968683272,-0.10061443383524948,0.9367742101269221,0.19208701247783933,-0.3362396506791532,0.3513213869522318,0.4917635654392247,-0.7919578602844606,-0.03833483234149648,0.23688023958538884,0.42009895828659727,-0.8115256657959948,0.40561836894500636,0.8764666349565917,0.38772672560666366,-0.8819067669266718,-0.8230896232143612,0.022125915373994998,-0.7446550065039108,-0.4427367711502668,0.28390813700216166,0.47316495833461514,0.7215426151386302,0.3179262642805356,-0.5615746056435771,-0.33417451886490634,-0.9172765978918354,0.010007766692336384,0.7829853583832482,0.023582156834894397,-0.0293979682209482,0.5382919862721007,0.15419781480261285,0.45991521515201916,0.14284349562387466,-0.972252703599972,0.38949143392366503,-0.08764758144559437,-0.9307335218793298,0.8211187520511691,0.46123863565697554,0.3701660540709153,-0.4953833723152701,0.11963437046294878,0.1735514098547868,-0.11290644699098107,0.030466331295818883,-0.9811604052647231,0.9412119901131892,0.8441583431340118,0.23475101938360887,0.605644446304392,0.44001537239888866,-0.4867387779478254,0.19419532438819842,0.571016262601705,-0.43335701002145677,-0.6629009059684814,0.04950477952144361,-0.3050634299352506,-0.7551793186825408,0.6369821707558145,-0.9426206053641895,0.47263660796713736,0.6953926588402257,-0.9915907700230828,0.8605027088402408,-0.6542881150828626,-0.5270199120355512,0.7311412445474166,0.6498637656381923,-0.016351114455561255,0.12136029457006337,0.45662027655131343,0.2720318390177512,0.9028883418981068,-0.8764666185958327,-0.18576851013578266,-0.3330009274267147,-0.33236803353123,-0.1421697277213474,0.6492997233856539,0.512766060773401,-0.8881852766165677,-0.12114476337839619,0.9519908679532931,-0.5672890602361051,0.9069718438325272,0.7613651777225974,0.0062406807031467615,-0.4344907461164893,-0.21047350649821084,-0.014181816746678066,0.4474382904864258,-0.9172257356377709,-0.32104217882767827,0.06936865724885899,-0.5636857352383793,0.3446554586787818,0.9093646799030539,-0.2719069275233945,0.25085187805687004,-0.7922359783167163,0.5574297739356642,-0.7449975412466754,-0.49659809095730423,0.539973772659138,0.7687063434303287,-0.0800295715133379,-0.33620382743586674,-0.9321841452118032,0.24941037856537007,0.6432718226189951,0.026373327610615283,-0.20926541358366668,0.41770499665895855,-0.9472596925516732,0.773854671903154,0.9039442019472903,0.0841588101980637,0.7111314729211569,-0.7854925238932626,0.9127558362948185,0.8131529596813507,-0.35847219276126707,-0.6049488626667865,0.23311672988289245,-0.7307044623814523,0.5891917221704841,-0.2505551929957097,-0.9951709580914525,-0.7502089898156865,0.6303749681596234,0.9245467259176379,0.30890326331363127,0.1430137683753161,0.562191757686884,0.9477146045024336,-0.8434396276705185,0.6232226616302827,0.35063010320119115,0.6121364556716595,0.6359097523756243,-0.9134134858452629,-0.0648079321280417,-0.9791793222758731,-0.6391103680856516,0.08085925796782001,-0.014174336525206721,-0.39170894316403904,-0.14702222013268917,-0.9646929371016253,0.2148634741573403,0.49008673290576343,0.4010912328809786,-0.21960584929424187,-0.4291929466039317,0.5105249144819313,-0.834173355401671,0.6996082841326094,0.9209946953909753,0.4913729027219642,0.42037715398115494,-0.6810824812364935,0.45103659178972655,0.37007253385428074,0.6054185720532494,0.5677165214342239,-0.2652953953483723,0.051102800893499944,-0.8925619442458217,-0.7143982548736916,0.0636567828184238,0.8857110530286805,-0.6149392639720452,0.22275306432386222,0.9310928372057798,0.9817379869737257,-0.807448710309417,0.6818125271716371,0.16503129146583606,0.5733601003618107,-0.9604834206145563,-0.5359142585914145,-0.04031352612139916,0.1214379121588065,-0.21397867301227524,0.5527043137710563,-0.04198805303387365,0.3004976011891791,0.639811766468402,0.38424898159106036,-0.7950283836361447,-0.8012513335215223,-0.037644810047038124,0.5442100939801557,-0.23158935982314,0.04216066085590198,0.7926583521030404,-0.7542885061770881,0.2483305713186581,0.7343213354890648,0.9916585696317572,0.3697963628223446,0.45306458416140294,0.47234919233437456,-0.309690566702141,-0.304789201298018,-0.7716993421893628,0.9582079331407212,-0.38677835758027124,0.8396816895157404,0.5797592017891717,0.6433050745051379,-0.8267696650253318,-0.23797983022635782,-0.7060848117757288,-0.6333566181949961,-0.18399506587122194,-0.5183872156332823,-0.6021083109651353,0.9266970967959915,-0.7512719731014152,-0.4023141564079742,-0.6107203518528506,-0.4900679514005315,-0.9080636214685134,-0.9404838076283535,0.04642191597630507,0.883999751246858,-0.3337745013092137,-0.9653480878561929,-0.48310971286618365,0.3536531404580425,0.5585604466322731,-0.7582610052474044,0.5582258878566584,0.8451246012288387,0.6379453828153834,-0.5589769526478512
30.631357365191494,-0.47757416305606926,-0.8514521274656781,0.24345240321884232,-0.6242597025300203,0.2661585342684045,-0.6212450827424163,-0.961272612423496,-0.2913133262863492,0.8793937114517154,0.27962294838180135,-0.9473150801467558,0.7461508180566789,-0.6174495209983331,-0.5779397109120032,-0.266709841629323,0.8671900907521297,-0.3793657115803488,-0.6023947657319642,-0.33133218267533215,-0.6523551546180875,0.3687647355464456,-0.24228787768730387,0.6746814182003369,-0.1417544031933904,-0.9507122776853936,0.7065889968683272,-0.10061443383524948,0.9367742101269221,0.19208701247783933,-0.3362396506791532,0.3513213869522318,0.4917635654392247,-0.9265560408068361,-0.03833483234149648,0.23688023958538884,0.42009895828659727,-0.8115256657959948,0.40561836894500636,0.8764666349565917,0.38772672560666366,-0.8819067669266718,0.2503913663811488,0.022125915373994998,-0.7446550065039108,-0.4427367711502668,-0.2384058312088475,0.47316495833461514,0.7215426151386302,0.3179262642805356,-0.5615746056435771,-0.33417451886490634,-0.9172765978918354,0.010007766692336384,0.7829853583832482,0.023582156834894397,-0.0293979682209482,0.5382919862721007,0.15419781480261285,0.45991521515201916,0.14284349562387466,-0.972252703599972,0.38949143392366503,-0.08764758144559437,-0.9307335218793298,0.8211187520511691,0.46123863565697554,0.3701660540709153,-0.4953833723152701,0.11963437046294878,0.1735514098547868,-0.11290644699098107,0.030466331295818883,-0.9811604052647231,0.9412119901131892,0.8441583431340118,0.23475101938360887,0.605644446304392,0.44001537239888866,-0.4867387779478254,0.19419532438819842,0.571016262601705,-0.43335701002145677,-0.6629009059684814,0.04950477952144361,-0.3050634299352506,-0.7551793186825408,0.6369821707558145,-0.9426206053641895,0.47263660796713736,0.6953926588402257,-0.9915907700230828,0.8605027088402408,0.9246067686099049,-0.5270199120355512,0.7311412445474166,0.6498637656381923,-0.016351114455561255,0.12136029457006337,0.45662027655131343,0.2720318390177512,0.9028883418981068,-0.8764666185958327,-0.18576851013578266,-0.3330009274267147,-0.33236803353123,-0.1421697277213474,0.6492997233856539,0.512766060773401,-0.8881852766165677,-0.12114476337839619,0.9519908679532931,-0.5672890602361051,0.9069718438325272,0.7613651777225974,0.0062406807031467615,-0.4344907461164893,-0.21047350649821084,0.868931976977384,0.4474382904864258,-0.9172257356377709,-0.32104217882767827,0.06936865724885899,-0.5636857352383793,0.3446554586787818,0.9093646799030539,-0.2719069275233945,0.25085187805687004,-0.7922359783167163,0.5574297739356642,-0.7449975412466754,-0.49659809095730423,0.539973772659138,0.7687063434303287,-0.0800295715133379,-0.33620382743586674,-0.9321841452118032,0.24941037856537007,0.6432718226189951,0.026373327610615283,-0.20926541358366668,0.41770499665895855,-0.9472596925516732,0.773854671903154,0.9039442019472903,0.0841588101980637,0.7111314729211569,-0.7854925238932626,0.9127558362948185,0.8131529596813507,-0.35847219276126707,-0.6049488626667865,0.23311672988289245,-0.7307044623814523,0.5891917221704841,-0.2505551929957097,-0.9951709580914525,-0.7502089898156865,0.6303749681596234,0.9245467259176379,0.30890326331363127,0.1430137683753161,0.562191757686884,0.9477146045024336,-0.8434396276705185,0.6232226616302827,0.35063010320119115,0.6121364556716595,0.6359097523756243,-0.9134134858452629,-0.0648079321280417,-0.9791793222758731,-0.6391103680856516,0.08085925796782001,-0.014174336525206721,0.8365682385745268,-0.14702222013268917,-0.9646929371016253,0.2148634741573403,0.49008673290576343,0.4010912328809786,-0.21960584929424187,-0.09677767402501658,0.5105249144819313,-0.834173355401671,0.6996082841326094,0.9209946953909753,0.4913729027219642,0.42037715398115494,-0.6810824812364935,0.45103659178972655,0.37007253385428074,0.6054185720532494,0.5677165214342239,-0.2652953953483723,0.051102800893499944,-0.8925619442458217,-0.7143982548736916,0.0636567828184238,0.8857110530286805,-0.6149392639720452,0.22275306432386222,0.9310928372057798,0.9817379869737257,-0.807448710309417,0.6818125271716371,0.16503129146583606,0.5733601003618107,-0.9604834206145563,-0.5359142585914145,-0.04031352612139916,-0.6931971825308934,-0.21397867301227524,0.5527043137710563,-0.04198805303387365,0.3004976011891791,-0.8466955327234627,0.38424898159106036,-0.7950283836361447,-0.8012513335215223,-0.037644810047038124,0.5442100939801557,-0.23158935982314,0.04216066085590198,0.7926583521030404,-0.7542885061770881,0.2483305713186581,0.7343213354890648,0.9916585696317572,0.3697963628223446,0.45306458416140294,0.47234919233437456,-0.309690566702141,-0.304789201298018,-0.7716993421893628,0.9582079331407212,-0.38677835758027124,0.8396816895157404,0.5797592017891717,0.6433050745051379,-0.8267696650253318,-0.23797983022635782,-0.7060848117757288,-0.6333566181949961,-0.18399506587122194,-0.5183872156332823,-0.6021083109651353,0.9266970967959915,-0.7512719731014152,-0.4023141564079742,-0.781983082313221,-0.4900679514005315,-0.9080636214685134,-0.9404838076283535,0.04642191597630507,0.883999751246858,-0.3337745013092137,-0.9653480878561929,-0.48310971286618365,0.3536531404580425,0.5585604466322731,-0.7582610052474044,0.5582258878566584,0.8451246012288387,0.6379453828153834,-0.5589769526478512
30.631357365191494,-0.47757416305606926,-0.8514521274656781,0.24345240321884232,-0.6242597025300203,0.2661585342684045,-0.6212450827424163,-0.961272612423496,-0.2913133262863492,0.8793937114517154,0.27962294838180135,-0.9473150801467558,0.7461508180566789,-0.6174495209983331,-0.5779397109120032,-0.266709841629323,0.8671900907521297,-0.3793657115803488,-0.6023947657319642,-0.33133218267533215,-0.6523551546180875,0.3687647355464456,-0.24228787768730387,0.6746814182003369,-0.1417544031933904,-0.9507122776853936,0.7065889968683272,-0.10061443383524948,0.9367742101269221,0.19208701247783933,-0.3362396506791532,0.3513213869522318,0.4917635654392247,-0.9265560408068361,-0.03833483234149648,0.23688023958538884,0.42009895828659727,-0.8115256657959948,0.40561836894500636,0.8764666349565917,0.38772672560666366,-0.8819067669266718,0.2503913663811488,0.022125915373994998,-0.7446550065039108,-0.4427367711502668,-0.2384058312088475,0.47316495833461514,0.7215426151386302,0.3179262642805356,-0.5615746056435771,-0.33417451886490634,-0.9172765978918354,0.010007766692336384,0.7829853583832482,0.023582156834894397,-0.0293979682209482,0.5382919862721007,0.15419781480261285,0.45991521515201916,0.14284349562387466,-0.972252703599972,0.38949143392366503,-0.08764758144559437,-0.9307335218793298,0.8211187520511691,0.46123863565697554,0.3701660540709153,-0.4953833723152701,0.11963437046294878,0.1735514098547868,-0.11290644699098107,0.030466331295818883,-0.9811604052647231,0.9412119901131892,0.8441583431340118,0.23475101938360887,0.605644446304392,0.44001537239888866,-0.4867387779478254,0.19419532438819842,0.571016262601705,-0.43335701002145677,-0.6629009059684814,0.04950477952144361,-0.3050634299352506,-0.7551793186825408,0.6369821707558145,-0.9426206053641895,0.47263660796713736,0.6953926588402257,-0.9915907700230828,0.8605027088402408,0.9246067686099049,-0.5270199120355512,0.7311412445474166,0.6498637656381923,-0.016351114455561255,0.12136029457006337,0.45662027655131343,0.2720318390177512,0.9028883418981068,-0.8764666185958327,-0.18576851013578266,-0.3330009274267147,-0.33236803353123,-0.1421697277213474,0.6492997233856539,0.512766060773401,-0.8881852766165677,-0.12114476337839619,0.9519908679532931,-0.5672890602361051,0.9069718438325272,0.7613651777225974,0.0062406807031467615,-0.4344907461164893,-0.21047350649821084,0.868931976977384,0.4474382904864258,-0.9172257356377709,-0.32104217882767827,0.06936865724885899,-0.5636857352383793,0.3446554586787818,0.9093646799030539,-0.2719069275233945,0.25085187805687004,-0.7922359783167163,0.5574297739356642,-0.7449975412466754,-0.49659809095730423,0.539973772659138,0.7687063434303287,-0.0800295715133379,-0.33620382743586674,-0.9321841452118032,0.24941037856537007,0.6432718226189951,0.026373327610615283,-0.20926541358366668,0.41770499665895855,-0.9472596925516732,0.773854671903154,0.9039442019472903,0.0841588101980637,0.7111314729211569,-0.7854925238932626,0.9127558362948185,0.8131529596813507,-0.35847219276126707,-0.6049488626667865,0.23311672988289245,-0.7307044623814523,0.5891917221704841,-0.2505551929957097,-0.9951709580914525,-0.7502089898156865,0.6303749681596234,0.9245467259176379,0.30890326331363127,0.1430137683753161,0.562191757686884,0.9477146045024336,-0.8434396276705185,0.6232226616302827,0.35063010320119115,0.6121364556716595,0.6359097523756243,-0.9134134858452629,-0.0648079321280417,-0.9791793222758731,-0.6391103680856516,0.08085925796782001,-0.014174336525206721,0.8365682385745268,-0.14702222013268917,-0.9646929371016253,0.2148634741573403,0.49008673290576343,0.4010912328809786,-0.21960584929424187,-0.09677767402501658,0.5105249144819313,-0.834173355401671,0.6996082841326094,0.9209946953909753,0.4913729027219642,0.42037715398115494,-0.6810824812364935,0.45103659178972655,0.37007253385428074,0.6054185720532494,0.5677165214342239,-0.2652953953483723,0.051102800893499944,-0.8925619442458217,-0.7143982548736916,0.0636567828184238,0.8857110530286805,-0.6149392639720452,0.22275306432386222,0.9310928372057798,0.9817379869737257,-0.807448710309417,0.6818125271716371,0.16503129146583606,0.5733601003618107,-0.9604834206145563,-0.5359142585914145,-0.04031352612139916,-0.6931971825308934,-0.21397867301227524,0.5527043137710563,-0.04198805303387365,0.3004976011891791,-0.8466955327234627,0.38424898159106036,-0.7950283836361447,-0.8012513335215223,-0.037644810047038124,0.5442100939801557,-0.23158935982314,0.04216066085590198,0.7926583521030404,-0.7542885061770881,0.2483305713186581,0.7343213354890648,0.9916585696317572,0.3697963628223446,0.45306458416140294,0.47234919233437456,-0.309690566702141,-0.304789201298018,-0.7716993421893628,0.9582079331407212,-0.38677835758027124,0.8396816895157404,0.5797592017891717,0.6433050745051379,-0.8267696650253318,-0.23797983022635782,-0.7060848117757288,-0.6333566181949961,-0.18399506587122194,-0.5183872156332823,-0.6021083109651353,0.9266970967959915,-0.7512719731014152,-0.4023141564079742,-0.781983082313221,-0.4900679514005315,-0.9080636214685134,-0.9404838076283535,0.04642191597630507,0.883999751246858,-0.3337745013092137,-0.9653480878561929,-0.48310971286618365,0.3536531404580425,0.5585604466322731,-0.7582610052474044,0.5582258878566584,0.8451246012288387,0.6379453828153834,-0.5589769526478512
30.631357365191494,-0.47757416305606926,-0.8514521274656781,0.24345240321884232,-0.6242597025300203,0.2661585342684045,-0.6212450827424163,-0.961272612423496,-0.2913133262863492,0.8793937114517154,0.27962294838180135,-0.9473150801467558,0.7461508180566789,-0.6174495209983331,-0.5779397109120032,-0.266709841629323,0.8671900907521297,-0.3793657115803488,-0.6023947657319642,-0.33133218267533215,-0.6523551546180875,0.3687647355464456,-0.24228787768730387,0.6746814182003369,-0.1417544031933904,-0.9507122776853936,0.7065889968683272,-0.10061443383524948,0.9367742101269221,0.19208701247783933,-0.3362396506791532,0.3513213869522318,0.4917635654392247,-0.9265560408068361,-0.03833483234149648,0.23688023958538884,0.42009895828659727,-0.8115256657959948,0.40561836894500636,0.8764666349565917,0.38772672560666366,-0.8819067669266718,0.2503913663811488,0.022125915373994998,-0.7446550065039108,-0.4427367711502668,-0.2384058312088475,0.47316495833461514,0.7215426151386302,0.3179262642805356,-0.5615746056435771,-0.33417451886490634,-0.9172765978918354,0.010007766692336384,0.7829853583832482,0.023582156834894397,-0.0293979682209482,0.5382919862721007,0.15419781480261285,0.45991521515201916,0.14284349562387466,-0.972252703599972,0.38949143392366503,-0.08764758144559437,-0.9307335218793298,0.8211187520511691,0.46123863565697554,0.3701660540709153,-0.4953833723152701,0.11963437046294878,0.1735514098547868,-0.11290644699098107,0.030466331295818883,-0.9811604052647231,0.9412119901131892,0.8441583431340118,0.23475101938360887,0.605644446304392,0.44001537239888866,-0.4867387779478254,0.19419532438819842,0.571016262601705,-0.43335701002145677,-0.6629009059684814,0.04950477952144361,-0.3050634299352506,-0.7551793186825408,0.6369821707558145,-0.9426206053641895,0.47263660796713736,0.6953926588402257,-0.9915907700230828,0.8605027088402408,0.9246067686099049,-0.5270199120355512,0.7311412445474166,0.6498637656381923,-0.016351114455561255,0.12136029457006337,0.45662027655131343,0.2720318390177512,0.9028883418981068,-0.8764666185958327,-0.18576851013578266,-0.3330009274267147,-0.33236803353123,-0.1421697277213474,0.6492997233856539,0.512766060773401,-0.8881852766165677,-0.12114476337839619,0.9519908679532931,-0.5672890602361051,0.9069718438325272,0.7613651777225974,0.0062406807031467615,-0.4344907461164893,-0.21047350649821084,0.868931976977384,0.4474382904864258,-0.9172257356377709,-0.32104217882767827,0.06936865724885899,-0.5636857352383793,0.3446554586787818,0.9093646799030539,-0.2719069275233945,0.25085187805687004,-0.7922359783167163,0.5574297739356642,-0.7449975412466754,-0.49659809095730423,0.539973772659138,0.7687063434303287,-0.0800295715133379,-0.33620382743586674,-0.9321841452118032,0.24941037856537007,0.6432718226189951,0.026373327610615283,-0.20926541358366668,0.41770499665895855,-0.9472596925516732,0.773854671903154,0.9039442019472903,0.0841588101980637,0.7111314729211569,-0.7854925238932626,0.9127558362948185,0.8131529596813507,-0.35847219276126707,-0.6049488626667865,0.23311672988289245,-0.7307044623814523,0.5891917221704841,-0.2505551929957097,-0.9951709580914525,-0.7502089898156865,0.6303749681596234,0.9245467259176379,0.30890326331363127,0.1430137683753161,0.562191757686884,0.9477146045024336,-0.8434396276705185,0.6232226616302827,0.35063010320119115,0.6121364556716595,0.6359097523756243,-0.9134134858452629,-0.0648079321280417,-0.9791793222758731,-0.6391103680856516,0.08085925796782001,-0.014174336525206721,0.8365682385745268,-0.14702222013268917,-0.9646929371016253,0.2148634741573403,0.49008673290576343,0.4010912328809786,-0.21960584929424187,-0.09677767402501658,0.5105249144819313,-0.834173355401671,0.6996082841326094,0.9209946953909753,0.4913729027219642,0.42037715398115494,-0.6810824812364935,0.45103659178972655,0.37007253385428074,0.6054185720532494,0.5677165214342239,-0.2652953953483723,0.051102800893499944,-0.8925619442458217,-0.7143982548736916,0.0636567828184238,0.8857110530286805,-0.6149392639720452,0.22275306432386222,0.9310928372057798,0.9817379869737257,-0.807448710309417,0.6818125271716371,0.16503129146583606,0.5733601003618107,-0.9604834206145563,-0.5359142585914145,-0.04031352612139916,-0.6931971825308934,-0.21397867301227524,0.5527043137710563,-0.04198805303387365,0.3004976011891791,-0.8466955327234627,0.38424898159106036,-0.7950283836361447,-0.8012513335215223,-0.037644810047038124,0.5442100939801557,-0.23158935982314,0.04216066085590198,0.7926583521030404,-0.7542885061770881,0.2483305713186581,0.7343213354890648,0.9916585696317572,0.3697963628223446,0.45306458416140294,0.47234919233437456,-0.309690566702141,-0.304789201298018,-0.7716993421893628,0.9582079331407212,-0.38677835758027124,0.8396816895157404,0.5797592017891717,0.6433050745051379,-0.8267696650253318,-0.23797983022635782,-0.7060848117757288,-0.6333566181949961,-0.18399506587122194,-0.5183872156332823,-0.6021083109651353,0.9266970967959915,-0.7512719731014152,-0.4023141564079742,-0.781983082313221,-0.4900679514005315,-0.9080636214685134,-0.9404838076283535,0.04642191597630507,0.883999751246858,-0.3337745013092137,-0.9653480878561929,-0.48310971286618365,0.3536531404580425,0.5585604466322731,-0.7582610052474044,0.5582258878566584,0.8451246012288387,0.6379453828153834,-0.5589769526478512
30.631357365191494,-0.47757416305606926,-0.8514521274656781,0.24345240321884232,-0.6242597025300203,0.2661585342684045,-0.6212450827424163,-0.961272612423496,-0.2913133262863492,0.8793937114517154,0.27962294838180135,-0.9473150801467558,0.7461508180566789,-0.6174495209983331,-0.5779397109120032,-0.266709841629323,0.8671900907521297,-0.3793657115803488,-0.6023947657319642,-0.33133218267533215,-0.6523551546180875,0.3687647355464456,-0.24228787768730387,0.6746814182003369,-0.1417544031933904,-0.9507122776853936,0.7065889968683272,-0.10061443383524948,0.9367742101269221,0.19208701247783933,-0.3362396506791532,0.3513213869522318,0.4917635654392247,-0.9265560408068361,-0.03833483234149648,0.23688023958538884,0.42009895828659727,-0.8115256657959948,0.40561836894500636,0.8764666349565917,0.38772672560666366,-0.8819067669266718,0.2503913663811488,0.022125915373994998,-0.7446550065039108,-0.4427367711502668,-0.2384058312088475,0.47316495833461514,0.7215426151386302,0.3179262642805356,-0.5615746056435771,-0.33417451886490634,-0.9172765978918354,0.010007766692336384,0.7829853583832482,0.023582156834894397,-0.0293979682209482,0.5382919862721007,0.15419781480261285,0.45991521515201916,0.14284349562387466,-0.972252703599972,0.38949143392366503,-0.08764758144559437,-0.9307335218793298,0.8211187520511691,0.46123863565697554,0.3701660540709153,-0.4953833723152701,0.11963437046294878,0.1735514098547868,-0.11290644699098107,0.030466331295818883,-0.9811604052647231,0.9412119901131892,0.8441583431340118,0.23475101938360887,0.605644446304392,0.44001537239888866,-0.4867387779478254,0.19419532438819842,0.571016262601705,-0.43335701002145677,-0.6629009059684814,0.04950477952144361,-0.3050634299352506,-0.7551793186825408,0.6369821707558145,-0.9426206053641895,0.47263660796713736,0.6953926588402257,-0.9915907700230828,0.8605027088402408,0.9246067686099049,-0.5270199120355512,0.7311412445474166,0.6498637656381923,-0.016351114455561255,0.12136029457006337,0.45662027655131343,0.2720318390177512,0.9028883418981068,-0.8764666185958327,-0.18576851013578266,-0.3330009274267147,-0.33236803353123,-0.1421697277213474,0.6492997233856539,0.512766060773401,-0.8881852766165677,-0.12114476337839619,0.9519908679532931,-0.5672890602361051,0.9069718438325272,0.7613651777225974,0.0062406807031467615,-0.4344907461164893,-0.21047350649821084,0.868931976977384,0.4474382904864258,-0.9172257356377709,-0.32104217882767827,0.06936865724885899,-0.5636857352383793,0.3446554586787818,0.9093646799030539,-0.2719069275233945,0.25085187805687004,-0.7922359783167163,0.5574297739356642,-0.7449975412466754,-0.49659809095730423,0.539973772659138,0.7687063434303287,-0.0800295715133379,-0.33620382743586674,-0.9321841452118032,0.24941037856537007,0.6432718226189951,0.026373327610615283,-0.20926541358366668,0.41770499665895855,-0.9472596925516732,0.773854671903154,0.9039442019472903,0.0841588101980637,0.7111314729211569,-0.7854925238932626,0.9127558362948185,0.8131529596813507,-0.35847219276126707,-0.6049488626667865,0.23311672988289245,-0.7307044623814523,0.5891917221704841,-0.2505551929957097,-0.9951709580914525,-0.7502089898156865,0.6303749681596234,0.9245467259176379,0.30890326331363127,0.1430137683753161,0.562191757686884,0.9477146045024336,-0.8434396276705185,0.6232226616302827,0.35063010320119115,0.6121364556716595,0.6359097523756243,-0.9134134858452629,-0.0648079321280417,-0.9791793222758731,-0.6391103680856516,0.08085925796782001,-0.014174336525206721,0.8365682385745268,-0.14702222013268917,-0.9646929371016253,0.2148634741573403,0.49008673290576343,0.4010912328809786,-0.21960584929424187,-0.09677767402501658,0.5105249144819313,-0.834173355401671,0.6996082841326094,0.9209946953909753,0.4913729027219642,0.42037715398115494,-0.6810824812364935,0.45103659178972655,0.37007253385428074,0.6054185720532494,0.5677165214342239,-0.2652953953483723,0.051102800893499944,-0.8925619442458217,-0.7143982548736916,0.0636567828184238,0.8857110530286805,-0.6149392639720452,0.22275306432386222,0.9310928372057798,0.9817379869737257,-0.807448710309417,0.6818125271716371,0.16503129146583606,0.5733601003618107,-0.9604834206145563,-0.5359142585914145,-0.04031352612139916,-0.6931971825308934,-0.21397867301227524,0.5527043137710563,-0.04198805303387365,0.3004976011891791,-0.8466955327234627,0.38424898159106036,-0.7950283836361447,-0.8012513335215223,-0.037644810047038124,0.5442100939801557,-0.23158935982314,0.04216066085590198,0.7926583521030404,-0.7542885061770881,0.2483305713186581,0.7343213354890648,0.9916585696317572,0.3697963628223446,0.45306458416140294,0.47234919233437456,-0.309690566702141,-0.304789201298018,-0.7716993421893628,0.9582079331407212,-0.38677835758027124,0.8396816895157404,0.5797592017891717,0.6433050745051379,-0.8267696650253318,-0.23797983022635782,-0.7060848117757288,-0.6333566181949961,-0.18399506587122194,-0.5183872156332823,-0.6021083109651353,0.9266970967959915,-0.7512719731014152,-0.4023141564079742,-0.781983082313221,-0.4900679514005315,-0.9080636214685134,-0.9404838076283535,0.04642191597630507,0.883999751246858,-0.3337745013092137,-0.9653480878561929,-0.48310971286618365,0.3536531404580425,0.5585604466322731,-0.7582610052474044,0.5582258878566584,0.8451246012288387,0.6379453828153834,-0.5589769526478512
30.631357365191494,-0.47757416305606926,-0.8514521274656781,0.24345240321884232,-0.6242597025300203,0.2661585342684045,-0.6212450827424163,-0.961272612423496,-0.2913133262863492,0.8793937114517154,0.27962294838180135,-0.9473150801467558,0.7461508180566789,-0.6174495209983331,-0.5779397109120032,-0.266709841629323,0.8671900907521297,-0.3793657115803488,-0.6023947657319642,-0.33133218267533215,-0.6523551546180875,0.3687647355464456,-0.24228787768730387,0.6746814182003369,-0.1417544031933904,-0.9507122776853936,0.7065889968683272,-0.10061443383524948,0.9367742101269221,0.19208701247783933,-0.3362396506791532,0.3513213869522318,0.4917635654392247,-0.9265560408068361,-0.03833483234149648,0.23688023958538884,0.42009895828659727,-0.8115256657959948,0.40561836894500636,0.8764666349565917,0.38772672560666366,-0.8819067669266718,0.2503913663811488,0.022125915373994998,-0.7446550065039108,-0.4427367711502668,-0.2384058312088475,0.47316495833461514,0.7215426151386302,0.3179262642805356,-0.5615746056435771,-0.33417451886490634,-0.9172765978918354,0.010007766692336384,0.7829853583832482,0.023582156834894397,-0.0293979682209482,0.5382919862721007,0.15419781480261285,0.45991521515201916,0.14284349562387466,-0.972252703599972,0.38949143392366503,-0.08764758144559437,-0.9307335218793298,0.8211187520511691,0.46123863565697554,0.3701660540709153,-0.4953833723152701,0.11963437046294878,0.1735514098547868,-0.11290644699098107,0.030466331295818883,-0.9811604052647231,0.9412119901131892,0.8441583431340118,0.23475101938360887,0.605644446304392,0.44001537239888866,-0.4867387779478254,0.19419532438819842,0.571016262601705,-0.43335701002145677,-0.6629009059684814,0.04950477952144361,-0.3050634299352506,-0.7551793186825408,0.6369821707558145,-0.9426206053641895,0.47263660796713736,0.6953926588402257,-0.9915907700230828,0.8605027088402408,0.9246067686099049,-0.5270199120355512,0.7311412445474166,0.6498637656381923,-0.016351114455561255,0.12136029457006337,0.45662027655131343,0.2720318390177512,0.9028883418981068,-0.8764666185958327,-0.18576851013578266,-0.3330009274267147,-0.33236803353123,-0.1421697277213474,0.6492997233856539,0.512766060773401,-0.8881852766165677,-0.12114476337839619,0.9519908679532931,-0.5672890602361051,0.9069718438325272,0.7613651777225974,0.0062406807031467615,-0.4344907461164893,-0.21047350649821084,0.868931976977384,0.4474382904864258,-0.9172257356377709,-0.32104217882767827,0.06936865724885899,-0.5636857352383793,0.3446554586787818,0.9093646799030539,-0.2719069275233945,0.25085187805687004,-0.7922359783167163,0.5574297739356642,-0.7449975412466754,-0.49659809095730423,0.539973772659138,0.7687063434303287,-0.0800295715133379,-0.33620382743586674,-0.9321841452118032,0.24941037856537007,0.6432718226189951,0.026373327610615283,-0.20926541358366668,0.41770499665895855,-0.9472596925516732,0.773854671903154,0.9039442019472903,0.0841588101980637,0.7111314729211569,-0.7854925238932626,0.9127558362948185,0.8131529596813507,-0.35847219276126707,-0.6049488626667865,0.23311672988289245,-0.7307044623814523,0.5891917221704841,-0.2505551929957097,-0.9951709580914525,-0.7502089898156865,0.6303749681596234,0.9245467259176379,0.30890326331363127,0.1430137683753161,0.562191757686884,0.9477146045024336,-0.8434396276705185,0.6232226616302827,0.35063010320119115,0.6121364556716595,0.6359097523756243,-0.9134134858452629,-0.0648079321280417,-0.9791793222758731,-0.6391103680856516,0.08085925796782001,-0.014174336525206721,0.8365682385745268,-0.14702222013268917,-0.9646929371016253,0.2148634741573403,0.49008673290576343,0.4010912328809786,-0.21960584929424187,-0.09677767402501658,0.5105249144819313,-0.834173355401671,0.6996082841326094,0.9209946953909753,0.4913729027219642,0.42037715398115494,-0.6810824812364935,0.45103659178972655,0.37007253385428074,0.6054185720532494,0.5677165214342239,-0.2652953953483723,0.051102800893499944,-0.8925619442458217,-0.7143982548736916,0.0636567828184238,0.8857110530286805,-0.6149392639720452,0.22275306432386222,0.9310928372057798,0.9817379869737257,-0.807448710309417,0.6818125271716371,0.16503129146583606,0.5733601003618107,-0.9604834206145563,-0.5359142585914145,-0.04031352612139916,-0.6931971825308934,-0.21397867301227524,0.5527043137710563,-0.04198805303387365,0.3004976011891791,-0.8466955327234627,0.38424898159106036,-0.7950283836361447,-0.8012513335215223,-0.037644810047038124,0.5442100939801557,-0.23158935982314,0.04216066085590198,0.7926583521030404,-0.7542885061770881,0.2483305713186581,0.7343213354890648,0.9916585696317572,0.3697963628223446,0.45306458416140294,0.47234919233437456,-0.309690566702141,-0.304789201298018,-0.7716993421893628,0.9582079331407212,-0.38677835758027124,0.8396816895157404,0.5797592017891717,0.6433050745051379,-0.8267696650253318,-0.23797983022635782,-0.7060848117757288,-0.6333566181949961,-0.18399506587122194,-0.5183872156332823,-0.6021083109651353,0.9266970967959915,-0.7512719731014152,-0.4023141564079742,-0.781983082313221,-0.4900679514005315,-0.9080636214685134,-0.9404838076283535,0.04642191597630507,0.883999751246858,-0.3337745013092137,-0.9653480878561929,-0.48310971286618365,0.3536531404580425,0.5585604466322731,-0.7582610052474044,0.5582258878566584,0.8451246012288387,0.6379453828153834,-0.5589769526478512
30.631357365191494,-0.47757416305606926,-0.8514521274656781,0.24345240321884232,-0.6242597025300203,0.2661585342684045,-0.6212450827424163,-0.961272612423496,-0.2913133262863492,0.8793937114517154,0.27962294838180135,-0.9473150801467558,0.7461508180566789,-0.6174495209983331,-0.5779397109120032,-0.266709841629323,0.8671900907521297,-0.3793657115803488,-0.6023947657319642,-0.33133218267533215,-0.6523551546180875,0.3687647355464456,-0.24228787768730387,0.6746814182003369,-0.1417544031933904,-0.9507122776853936,0.7065889968683272,-0.10061443383524948,0.9367742101269221,0.19208701247783933,-0.3362396506791532,0.3513213869522318,0.4917635654392247,-0.9265560408068361,-0.03833483234149648,0.23688023958538884,0.42009895828659727,-0.8115256657959948,0.40561836894500636,0.8764666349565917,0.38772672560666366,-0.8819067669266718,0.2503913663811488,0.022125915373994998,-0.7446550065039108,-0.4427367711502668,-0.2384058312088475,0.47316495833461514,0.7215426151386302,0.3179262642805356,-0.5615746056435771,-0.33417451886490634,-0.9172765978918354,0.010007766692336384,0.7829853583832482,0.023582156834894397,-0.0293979682209482,0.5382919862721007,0.15419781480261285,0.45991521515201916,0.14284349562387466,-0.972252703599972,0.38949143392366503,-0.08764758144559437,-0.9307335218793298,0.8211187520511691,0.46123863565697554,0.3701660540709153,-0.4953833723152701,0.11963437046294878,0.1735514098547868,-0.11290644699098107,0.030466331295818883,-0.9811604052647231,0.9412119901131892,0.8441583431340118,0.23475101938360887,0.605644446304392,0.44001537239888866,-0.4867387779478254,0.19419532438819842,0.571016262601705,-0.43335701002145677,-0.6629009059684814,0.04950477952144361,-0.3050634299352506,-0.7551793186825408,0.6369821707558145,-0.9426206053641895,0.47263660796713736,0.6953926588402257,-0.9915907700230828,0.8605027088402408,0.9246067686099049,-0.5270199120355512,0.7311412445474166,0.6498637656381923,-0.016351114455561255,0.12136029457006337,0.45662027655131343,0.2720318390177512,0.9028883418981068,-0.8764666185958327,-0.18576851013578266,-0.3330009274267147,-0.33236803353123,-0.1421697277213474,0.6492997233856539,0.512766060773401,-0.8881852766165677,-0.12114476337839619,0.9519908679532931,-0.5672890602361051,0.9069718438325272,0.7613651777225974,0.0062406807031467615,-0.4344907461164893,-0.21047350649821084,0.868931976977384,0.4474382904864258,-0.9172257356377709,-0.32104217882767827,0.06936865724885899,-0.5636857352383793,0.3446554586787818,0.9093646799030539,-0.2719069275233945,0.25085187805687004,-0.7922359783167163,0.5574297739356642,-0.7449975412466754,-0.49659809095730423,0.539973772659138,0.7687063434303287,-0.0800295715133379,-0.33620382743586674,-0.9321841452118032,0.24941037856537007,0.6432718226189951,0.026373327610615283,-0.20926541358366668,0.41770499665895855,-0.9472596925516732,0.773854671903154,0.9039442019472903,0.0841588101980637,0.7111314729211569,-0.7854925238932626,0.9127558362948185,0.8131529596813507,-0.35847219276126707,-0.6049488626667865,0.23311672988289245,-0.7307044623814523,0.5891917221704841,-0.2505551929957097,-0.9951709580914525,-0.7502089898156865,0.6303749681596234,0.9245467259176379,0.30890326331363127,0.1430137683753161,0.562191757686884,0.9477146045024336,-0.8434396276705185,0.6232226616302827,0.35063010320119115,0.6121364556716595,0.6359097523756243,-0.9134134858452629,-0.0648079321280417,-0.9791793222758731,-0.6391103680856516,0.08085925796782001,-0.014174336525206721,0.8365682385745268,-0.14702222013268917,-0.9646929371016253,0.2148634741573403,0.49008673290576343,0.4010912328809786,-0.21960584929424187,-0.09677767402501658,0.5105249144819313,-0.834173355401671,0.6996082841326094,0.9209946953909753,0.4913729027219642,0.42037715398115494,-0.6810824812364935,0.45103659178972655,0.37007253385428074,0.6054185720532494,0.5677165214342239,-0.2652953953483723,0.051102800893499944,-0.8925619442458217,-0.7143982548736916,0.0636567828184238,0.8857110530286805,-0.6149392639720452,0.22275306432386222,0.9310928372057798,0.9817379869737257,-0.807448710309417,0.6818125271716371,0.16503129146583606,0.5733601003618107,-0.9604834206145563,-0.5359142585914145,-0.04031352612139916,-0.6931971825308934,-0.21397867301227524,0.5527043137710563,-0.04198805303387365,0.3004976011891791,-0.8466955327234627,0.38424898159106036,-0.7950283836361447,-0.8012513335215223,-0.037644810047038124,0.5442100939801557,-0.23158935982314,0.04216066085590198,0.7926583521030404,-0.7542885061770881,0.2483305713186581,0.7343213354890648,0.9916585696317572,0.3697963628223446,0.45306458416140294,0.47234919233437456,-0.309690566702141,-0.304789201298018,-0.7716993421893628,0.9582079331407212,-0.38677835758027124,0.8396816895157404,0.5797592017891717,0.6433050745051379,-0.8267696650253318,-0.23797983022635782,-0.7060848117757288,-0.6333566181949961,-0.18399506587122194,-0.5183872156332823,-0.6021083109651353,0.9266970967959915,-0.7512719731014152,-0.4023141564079742,-0.781983082313221,-0.4900679514005315,-0.9080636214685134,-0.9404838076283535,0.04642191597630507,0.883999751246858,-0.3337745013092137,-0.9653480878561929,-0.48310971286618365,0.3536531404580425,0.5585604466322731,-0.7582610052474044,0.5582258878566584,0.8451246012288387,0.6379453828153834,-0.5589769526478512
30.631357365191494,-0.47757416305606926,-0.8514521274656781,0.24345240321884232,-0.6242597025300203,0.2661585342684045,-0.6212450827424163,-0.961272612423496,-0.2913133262863492,0.8793937114517154,0.27962294838180135,-0.9473150801467558,0.7461508180566789,-0.6174495209983331,-0.5779397109120032,-0.266709841629323,0.8671900907521297,-0.3793657115803488,-0.6023947657319642,-0.33133218267533215,-0.6523551546180875,0.3687647355464456,-0.24228787768730387,0.6746814182003369,-0.1417544031933904,-0.9507122776853936,0.7065889968683272,-0.10061443383524948,0.9367742101269221,0.19208701247783933,-0.3362396506791532,0.3513213869522318,0.4917635654392247,-0.9265560408068361,-0.03833483234149648,0.23688023958538884,0.42009895828659727,-0.8115256657959948,0.40561836894500636,0.8764666349565917,0.38772672560666366,-0.8819067669266718,0.2503913663811488,0.022125915373994998,-0.7446550065039108,-0.4427367711502668,-0.2384058312088475,0.47316495833461514,0.7215426151386302,0.3179262642805356,-0.5615746056435771,-0.33417451886490634,-0.9172765978918354,0.010007766692336384,0.7829853583832482,0.023582156834894397,-0.0293979682209482,0.5382919862721007,0.15419781480261285,0.45991521515201916,0.14284349562387466,-0.972252703599972,0.38949143392366503,-0.08764758144559437,-0.9307335218793298,0.8211187520511691,0.46123863565697554,0.3701660540709153,-0.4953833723152701,0.11963437046294878,0.1735514098547868,-0.11290644699098107,0.030466331295818883,-0.9811604052647231,0.9412119901131892,0.8441583431340118,0.23475101938360887,0.605644446304392,0.44001537239888866,-0.4867387779478254,0.19419532438819842,0.571016262601705,-0.43335701002145677,-0.6629009059684814,0.04950477952144361,-0.3050634299352506,-0.7551793186825408,0.6369821707558145,-0.9426206053641895,0.47263660796713736,0.6953926588402257,-0.9915907700230828,0.8605027088402408,0.9246067686099049,-0.5270199120355512,0.7311412445474166,0.6498637656381923,-0.016351114455561255,0.12136029457006337,0.45662027655131343,0.2720318390177512,0.9028883418981068,-0.8764666185958327,-0.18576851013578266,-0.3330009274267147,-0.33236803353123,-0.1421697277213474,0.6492997233856539,0.512766060773401,-0.8881852766165677,-0.12114476337839619,0.9519908679532931,-0.5672890602361051,0.9069718438325272,0.7613651777225974,0.0062406807031467615,-0.4344907461164893,-0.21047350649821084,0.868931976977384,0.4474382904864258,-0.9172257356377709,-0.32104217882767827,0.06936865724885899,-0.5636857352383793,0.3446554586787818,0.9093646799030539,-0.2719069275233945,0.25085187805687004,-0.7922359783167163,0.5574297739356642,-0.7449975412466754,-0.49659809095730423,0.539973772659138,0.7687063434303287,-0.0800295715133379,-0.33620382743586674,-0.9321841452118032,0.24941037856537007,0.6432718226189951,0.026373327610615283,-0.20926541358366668,0.41770499665895855,-0.9472596925516732,0.773854671903154,0.9039442019472903,0.0841588101980637,0.7111314729211569,-0.7854925238932626,0.9127558362948185,0.8131529596813507,-0.35847219276126707,-0.6049488626667865,0.23311672988289245,-0.7307044623814523,0.5891917221704841,-0.2505551929957097,-0.9951709580914525,-0.7502089898156865,0.6303749681596234,0.9245467259176379,0.30890326331363127,0.1430137683753161,0.562191757686884,0.9477146045024336,-0.8434396276705185,0.6232226616302827,0.35063010320119115,0.6121364556716595,0.6359097523756243,-0.9134134858452629,-0.0648079321280417,-0.9791793222758731,-0.6391103680856516,0.08085925796782001,-0.014174336525206721,0.8365682385745268,-0.14702222013268917,-0.9646929371016253,0.2148634741573403,0.49008673290576343,0.4010912328809786,-0.21960584929424187,-0.09677767402501658,0.5105249144819313,-0.834173355401671,0.6996082841326094,0.9209946953909753,0.4913729027219642,0.42037715398115494,-0.6810824812364935,0.45103659178972655,0.37007253385428074,0.6054185720532494,0.5677165214342239,-0.2652953953483723,0.051102800893499944,-0.8925619442458217,-0.7143982548736916,0.0636567828184238,0.8857110530286805,-0.6149392639720452,0.22275306432386222,0.9310928372057798,0.9817379869737257,-0.807448710309417,0.6818125271716371,0.16503129146583606,0.5733601003618107,-0.9604834206145563,-0.5359142585914145,-0.04031352612139916,-0.6931971825308934,-0.21397867301227524,0.5527043137710563,-0.04198805303387365,0.3004976011891791,-0.8466955327234627,0.38424898159106036,-0.7950283836361447,-0.8012513335215223,-0.037644810047038124,0.5442100939801557,-0.23158935982314,0.04216066085590198,0.7926583521030404,-0.7542885061770881,0.2483305713186581,0.7343213354890648,0.9916585696317572,0.3697963628223446,0.45306458416140294,0.47234919233437456,-0.309690566702141,-0.304789201298018,-0.7716993421893628,0.9582079331407212,-0.38677835758027124,0.8396816895157404,0.5797592017891717,0.6433050745051379,-0.8267696650253318,-0.23797983022635782,-0.7060848117757288,-0.6333566181949961,-0.18399506587122194,-0.5183872156332823,-0.6021083109651353,0.9266970967959915,-0.7512719731014152,-0.4023141564079742,-0.781983082313221,-0.4900679514005315,-0.9080636214685134,-0.9404838076283535,0.04642191597630507,0.883999751246858,-0.3337745013092137,-0.9653480878561929,-0.48310971286618365,0.3536531404580425,0.5585604466322731,-0.7582610052474044,0.5582258878566584,0.8451246012288387,0.6379453828153834,-0.5589769526478512
30.631357365191494,-0.47757416305606926,-0.8514521274656781,0.24345240321884232,-0.6242597025300203,0.2661585342684045,-0.6212450827424163,-0.961272612423496,-0.2913133262863492,0.8793937114517154,0.27962294838180135,-0.9473150801467558,0.7461508180566789,-0.6174495209983331,-0.5779397109120032,-0.266709841629323,0.8671900907521297,-0.3793657115803488,-0.6023947657319642,-0.33133218267533215,-0.6523551546180875,0.3687647355464456,-0.24228787768730387,0.6746814182003369,-0.1417544031933904,-0.9507122776853936,0.7065889968683272,-0.10061443383524948,0.9367742101269221,0.19208701247783933,-0.3362396506791532,0.3513213869522318,0.4917635654392247,-0.9265560408068361,-0.03833483234149648,0.23688023958538884,0.42009895828659727,-0.8115256657959948,0.40561836894500636,0.8764666349565917,0.38772672560666366,-0.8819067669266718,0.2503913663811488,0.022125915373994998,-0.7446550065039108,-0.4427367711502668,-0.2384058312088475,0.47316495833461514,0.7215426151386302,0.3179262642805356,-0.5615746056435771,-0.33417451886490634,-0.9172765978918354,0.010007766692336384,0.7829853583832482,0.023582156834894397,-0.0293979682209482,0.5382919862721007,0.15419781480261285,0.45991521515201916,0.14284349562387466,-0.972252703599972,0.38949143392366503,-0.08764758144559437,-0.9307335218793298,0.8211187520511691,0.46123863565697554,0.3701660540709153,-0.4953833723152701,0.11963437046294878,0.1735514098547868,-0.11290644699098107,0.030466331295818883,-0.9811604052647231,0.9412119901131892,0.8441583431340118,0.23475101938360887,0.605644446304392,0.44001537239888866,-0.4867387779478254,0.19419532438819842,0.571016262601705,-0.43335701002145677,-0.6629009059684814,0.04950477952144361,-0.3050634299352506,-0.7551793186825408,0.6369821707558145,-0.9426206053641895,0.47263660796713736,0.6953926588402257,-0.9915907700230828,0.8605027088402408,0.9246067686099049,-0.5270199120355512,0.7311412445474166,0.6498637656381923,-0.016351114455561255,0.12136029457006337,0.45662027655131343,0.2720318390177512,0.9028883418981068,-0.8764666185958327,-0.18576851013578266,-0.3330009274267147,-0.33236803353123,-0.1421697277213474,0.6492997233856539,0.512766060773401,-0.8881852766165677,-0.12114476337839619,0.9519908679532931,-0.5672890602361051,0.9069718438325272,0.7613651777225974,0.0062406807031467615,-0.4344907461164893,-0.21047350649821084,0.868931976977384,0.4474382904864258,-0.9172257356377709,-0.32104217882767827,0.06936865724885899,-0.5636857352383793,0.3446554586787818,0.9093646799030539,-0.2719069275233945,0.25085187805687004,-0.7922359783167163,0.5574297739356642,-0.7449975412466754,-0.49659809095730423,0.539973772659138,0.7687063434303287,-0.0800295715133379,-0.33620382743586674,-0.9321841452118032,0.24941037856537007,0.6432718226189951,0.026373327610615283,-0.20926541358366668,0.41770499665895855,-0.9472596925516732,0.773854671903154,0.9039442019472903,0.0841588101980637,0.7111314729211569,-0.7854925238932626,0.9127558362948185,0.8131529596813507,-0.35847219276126707,-0.6049488626667865,0.23311672988289245,-0.7307044623814523,0.5891917221704841,-0.2505551929957097,-0.9951709580914525,-0.7502089898156865,0.6303749681596234,0.9245467259176379,0.30890326331363127,0.1430137683753161,0.562191757686884,0.9477146045024336,-0.8434396276705185,0.6232226616302827,0.35063010320119115,0.6121364556716595,0.6359097523756243,-0.9134134858452629,-0.0648079321280417,-0.9791793222758731,-0.6391103680856516,0.08085925796782001,-0.014174336525206721,0.8365682385745268,-0.14702222013268917,-0.9646929371016253,0.2148634741573403,0.49008673290576343,0.4010912328809786,-0.21960584929424187,-0.09677767402501658,0.5105249144819313,-0.834173355401671,0.6996082841326094,0.9209946953909753,0.4913729027219642,0.42037715398115494,-0.6810824812364935,0.45103659178972655,0.37007253385428074,0.6054185720532494,0.5677165214342239,-0.2652953953483723,0.051102800893499944,-0.8925619442458217,-0.7143982548736916,0.0636567828184238,0.8857110530286805,-0.6149392639720452,0.22275306432386222,0.9310928372057798,0.9817379869737257,-0.807448710309417,0.6818125271716371,0.16503129146583606,0.5733601003618107,-0.9604834206145563,-0.5359142585914145,-0.04031352612139916,-0.6931971825308934,-0.21397867301227524,0.5527043137710563,-0.04198805303387365,0.3004976011891791,-0.8466955327234627,0.38424898159106036,-0.7950283836361447,-0.8012513335215223,-0.037644810047038124,0.5442100939801557,-0.23158935982314,0.04216066085590198,0.7926583521030404,-0.7542885061770881,0.2483305713186581,0.7343213354890648,0.9916585696317572,0.3697963628223446,0.45306458416140294,0.47234919233437456,-0.309690566702141,-0.304789201298018,-0.7716993421893628,0.9582079331407212,-0.38677835758027124,0.8396816895157404,0.5797592017891717,0.6433050745051379,-0.8267696650253318,-0.23797983022635782,-0.7060848117757288,-0.6333566181949961,-0.18399506587122194,-0.5183872156332823,-0.6021083109651353,0.9266970967959915,-0.7512719731014152,-0.4023141564079742,-0.781983082313221,-0.4900679514005315,-0.9080636214685134,-0.9404838076283535,0.04642191597630507,0.883999751246858,-0.3337745013092137,-0.9653480878561929,-0.48310971286618365,0.3536531404580425,0.5585604466322731,-0.7582610052474044,0.5582258878566584,0.8451246012288387,0.6379453828153834,-0.5589769526478512
