8.277220529957318718e-02
2.998084542283490084e-01
4.564997308836558076e-01
2.164106449112992436e-01
-5.424430832327877816e-01
-7.150062929538023582e-01
5.185436437623653916e-01
-1.162790003976534869e-01
-8.343855573756986388e-01
-9.167659517144659542e-01
2.467552020575416449e-01
-7.273946461953797460e-01
4.873913958616227227e-01
-5.174742092824529127e-01
8.363317084976835680e-01
-2.430514847377522880e-01
5.599507660573039836e-01
5.434112260165191444e-01
2.592206202374625068e-01
-5.497506696527780790e-01
-8.974441256328002936e-02
-6.676438305569551979e-01
7.109384120042960831e-01
2.422657066713844731e-01
7.927303613061695842e-01
3.099244246023569183e-02
5.100038116177474379e-02
5.339921069804209885e-01
-9.486067651502354536e-01
-1.186772050632343145e-01
-3.997837369351775472e-02
-1.463495789058686380e-01
6.997780422356436603e-03
-3.116719521325008735e-01
-5.177180144414954555e-01
-8.334868868176690260e-01
-7.597592158298605014e-02
-2.093340487305916930e-01
3.534350930771483768e-01
5.620390652674345233e-01
1.140145379249446478e-03
4.493602271816974358e-01
-9.698354284603252218e-01
-4.892714093266858910e-01
3.196869734379226280e-01
-6.187050467872114989e-01
-9.125294934797381075e-01
-8.563363499653235955e-01
6.692364801133101615e-01
-7.302915367425155679e-01
7.516018921020255483e-01
-3.437793780736555505e-01
5.440188676573631810e-01
3.136000217527934453e-02
-3.277112389600698172e-01
9.797597236298558609e-01
-4.713590005990195841e-01
9.511307694382966638e-01
-9.886030213409546796e-01
4.883606472883255112e-01
-5.167268277341721117e-01
5.678396132618386272e-01
5.779374968750514707e-01
7.286057727125461181e-01
9.468963894529498493e-01
5.714707027896808178e-01
1.152320710804723980e-01
8.273791337656550837e-01
-1.089232349899680319e-01
9.965028196334484445e-01
4.880106897325504622e-01
-6.880958966534200805e-01
-5.135022568555827061e-01
-6.761879215337360804e-01
7.488158687709893790e-01
6.253592625413544326e-01
-1.257508345142293038e-01
3.193445973573250107e-01
9.538734274548961167e-01
2.699244734622170405e-01
6.310548035820975343e-01
5.682641346663652726e-01
9.628423240643326775e-01
-3.150716014220358296e-01
-9.887327222000812377e-01
3.495406604760340485e-01
-9.172983276010027165e-01
8.670265862221804287e-01
-7.979534734506688043e-01
-3.691225328596026145e-01
3.330763740503206449e-01
-4.683483891751705208e-01
-2.722535602108666630e-02
-2.357532935887298731e-01
-9.078666978533116438e-01
7.243018151786775327e-01
5.202234088334285467e-01
2.194085706308377404e-01
6.441527714778052527e-01
-5.326858490229144927e-01
4.755840334152949822e-02
1.097950022030009798e-01
-4.992903489485067681e-02
3.846929115649966313e-02
-2.997593888680292196e-01
-1.270750084139111724e-01
8.634941979652663857e-01
-3.589516650916557694e-02
3.632596664842830947e-01
-8.482485464784548235e-01
-6.827339198419970501e-01
-3.175785638484129869e-02
6.460213428299788063e-01
5.366225301929197222e-01
5.584721008820983101e-01
-7.662080078780433290e-01
8.602477071117591301e-01
-3.438054185759087389e-01
7.747213137628925494e-01
-5.053392202301463243e-01
8.724666619393732780e-01
1.995063220250961056e-01
5.489470235999851511e-01
2.982748682297322596e-01
9.721047341931685626e-01
-3.825121275785330344e-01
-6.672671881926695026e-01
-9.202001391731768898e-01
-2.071113858596629331e-01
6.217689005920565837e-01
1.352686603525758979e-01
4.533067179215519715e-01
4.979340128249711839e-01
-2.664307564180781185e-01
-7.254599722037700094e-01
4.779913034083493883e-01
8.620247521684805125e-01
-5.095022760269678486e-01
-9.283833611789005236e-01
-2.887348575651316196e-02
6.808567708991306588e-01
5.563064773644832428e-01
-2.423786417098086066e-01
-4.941731297783411581e-01
-3.623660666005983355e-01
-9.582684670721863807e-01
-4.450099176239952214e-01
-1.194294130863284842e-01
6.242572896651745751e-01
-3.544381033654953050e-01
9.859794269910127085e-02
1.348754176442312769e-01
-3.849832039763789737e-02
-1.735749804846289379e-01
6.271994669642744213e-02
-9.476696086607419023e-01
-4.901692883838046910e-01
1.520502838107569143e-01
8.536981892413209039e-01
6.360980876977939680e-02
4.190873835448938323e-02
-4.628860973904542764e-01
-6.388476378471852346e-01
1.047765487469582979e-01
2.905350125456831467e-01
-2.209221653845490074e-01
-8.145734956321335485e-01
9.055702015847717501e-01
-9.606971897887361944e-01
-7.766903889922784909e-01
3.509408374948841391e-01
-3.867406187780999538e-01
-5.909688171510381061e-01
3.637872614177388719e-01
5.950157988901687567e-01
1.163233730417090328e-01
-4.178251712462377476e-01
-7.189644457568045155e-02
-4.625008845480138575e-01
-8.604358860256988706e-01
7.071842133079435655e-01
-4.104885668095299422e-01
6.390621499718971421e-01
7.278307146829494645e-01
1.478563500741711945e-01
-6.601795031389423585e-01
3.435748235474971324e-01
2.955464780038461470e-01
8.897724830169255750e-01
9.764339656606797480e-01
-5.979813773150910450e-02
8.989698936693679698e-01
6.043901426451316894e-01
3.490835772358447109e-01
-7.697700151707453919e-01
-7.429218954035092803e-01
9.414644569039776201e-01
1.937579201171306664e-01
-9.786156013575786350e-01
7.659806929257719776e-01
7.231895356127338026e-02
-1.682989128344756224e-01
-2.590350533738705607e-02
-5.167691381800243455e-01
-5.988206254616126323e-01
7.959814613376501313e-01
-7.594412550774722881e-01
-2.955694485691520157e-01
8.000645612020251818e-01
5.031683056956091082e-01
-4.612124673078943360e-02
8.317675771939825324e-01
5.023993130605086677e-02
-3.326136855034422801e-02
-2.418953084964790001e-01
1.080148452285323302e-02
-4.554530523559292554e-01
1.593138845505559509e-01
-4.555724467239372633e-01
-6.598993681369378361e-01
1.958875232094039465e-01
5.673640706869760297e-01
7.710772755657737676e-01
-2.588253272620781864e-01
9.780607940955099444e-01
1.302153510891999044e-01
-7.051751112097295326e-01
5.497647686410309653e-01
-6.554159312340399612e-01
2.358480056641028000e-01
-7.685208316968721309e-01
-6.296712316060018022e-01
4.681890919201068257e-01
9.361742577976865931e-01
9.690614761120517340e-01
5.040732838655492820e-01
7.564528791610458658e-01
-4.231532346739803607e-01
-1.549868849546720551e-01
-7.484699815491953068e-01
-5.273836815206212059e-01
-8.540695008143297517e-01
5.385336597056022967e-01
-4.510921707750652487e-01
-4.570476908805238825e-01
6.379333852791402304e-01
1.637718293536831737e-01
8.249046333230225514e-01
2.113922722825880562e-01
7.417012308917927399e-01
-2.004812290992021850e-01
-5.275345552140779937e-01
-8.076282805173178314e-01
7.007714170955443578e-01
-6.231404196307033239e-01
-4.516055286930080737e-01
7.221757063217975059e-01
-1.856392704116058834e-01
7.467077225274896257e-01
4.421021262137589947e-01
-9.255495710208849758e-02
-7.136206564135869623e-01
1.955607072611516006e-01
1.270964766913955657e-01
-3.147993460915705644e-01
